// This file is computer-generated by onnx2c 
// (TODO: add creating command line here)
// (TODO: print creation date here )

// ONNX model:
// produced by pytorch, version 2.6.0
// ONNX IR version: 17
// Model documentation: 
/*

*/

#include <float.h>
#include <math.h>
#include <stdbool.h>
#include <stdint.h>
#include <string.h>

#define MAX(X,Y) ( X > Y ? X : Y)
#define MIN(X,Y) ( X < Y ? X : Y)
#define CLIP(X,L) ( MAX(MIN(X,L), -L) )

#if __STDC_VERSION__ < 199901L
#define FUNC_PREFIX
#else
#define FUNC_PREFIX static inline
#endif

static const float tensor_conv1_weight[3][1][5][5] = 
{
  {
    {
      {-0.15283028781414031982f, 0.0034301280975341796875f, -0.00015385150618385523558f, 0.052396845072507858276f, -0.074871949851512908936f},
      {0.053630162030458450317f, -0.032159067690372467041f, -0.10398497432470321655f, -0.029499674215912818909f, 0.021241331472992897034f},
      {-0.099003098905086517334f, -0.13282504677772521973f, -0.17945885658264160156f, 0.011462069116532802582f, 0.10655305534601211548f},
      {-0.092048339545726776123f, 0.10984871536493301392f, -0.16788557171821594238f, -0.16874213516712188721f, 0.041659619659185409546f},
      {0.11318609863519668579f, 0.0078802350908517837524f, -0.016957664862275123596f, 0.16722801327705383301f, 0.15465898811817169189f}
    }
  },
  {
    {
      {0.072355985641479492188f, -0.10059261322021484375f, -0.15951924026012420654f, -0.017560172826051712036f, 0.048852395266294479370f},
      {-0.0021557093132287263870f, -0.096017383038997650146f, 0.061886310577392578125f, -0.12575927376747131348f, -0.039942812174558639526f},
      {0.085310176014900207520f, 0.034380149096250534058f, 0.12755191326141357422f, -0.086451292037963867188f, -0.13943724334239959717f},
      {0.034651111811399459839f, 0.0088740112259984016418f, -0.12304437160491943359f, 0.043691564351320266724f, 0.026266885921359062195f},
      {0.16543360054492950439f, -0.19668571650981903076f, 0.069228887557983398438f, -0.041646432131528854370f, -0.11483042687177658081f}
    }
  },
  {
    {
      {-0.16146741807460784912f, 0.17927305400371551514f, -0.066595435142517089844f, -0.044229816645383834839f, 0.17806585133075714111f},
      {0.19280509650707244873f, -0.17514553666114807129f, -0.0028854371048510074615f, 0.14842282235622406006f, 0.060845565050840377808f},
      {0.083187460899353027344f, -0.080457024276256561279f, 0.17163915932178497314f, 0.0015886783367022871971f, 0.063619546592235565186f},
      {0.13400243222713470459f, 0.14155642688274383545f, -0.12364540249109268188f, 0.095500089228153228760f, -0.018085289746522903442f},
      {-0.12676130235195159912f, 0.079916767776012420654f, -0.16395416855812072754f, 0.10298507660627365112f, 0.098624467849731445312f}
    }
  }
};
static const float tensor_conv1_bias[3] = 
{0.030160808935761451721f, 0.16962595283985137939f, 0.093158386647701263428f};
static const float tensor_conv2_weight[3][3][3][3] = 
{
  {
    {
      {0.074321918189525604248f, -0.021841295063495635986f, 0.13979642093181610107f},
      {-0.050655554980039596558f, -0.058446031063795089722f, 0.12231647968292236328f},
      {-0.069801464676856994629f, 0.081984125077724456787f, 0.045025218278169631958f}
    },
    {
      {-0.18374396860599517822f, 0.074870482087135314941f, 0.078199967741966247559f},
      {0.0046392525546252727509f, 0.11288823187351226807f, 0.075115136802196502686f},
      {0.18577070534229278564f, -0.047845158725976943970f, 0.16662558913230895996f}
    },
    {
      {0.043510548770427703857f, -0.12008924037218093872f, -0.091123305261135101318f},
      {0.021550416946411132812f, -0.057329729199409484863f, -0.13117241859436035156f},
      {-0.038210481405258178711f, -0.038755852729082107544f, -0.039412681013345718384f}
    }
  },
  {
    {
      {-0.16832855343818664551f, -0.10873837023973464966f, -0.13407079875469207764f},
      {0.14438365399837493896f, -0.069596223533153533936f, 0.024044286459684371948f},
      {-0.021624863147735595703f, 0.16676473617553710938f, 0.14205361902713775635f}
    },
    {
      {-0.026143694296479225159f, -0.15401248633861541748f, -0.033520046621561050415f},
      {0.062745466828346252441f, -0.11908975243568420410f, -0.14738018810749053955f},
      {0.057463500648736953735f, -0.088471002876758575439f, -0.15363119542598724365f}
    },
    {
      {0.073616117238998413086f, -0.16727210581302642822f, -0.12267904728651046753f},
      {0.11476363241672515869f, -0.050720758736133575439f, 0.13055665791034698486f},
      {0.11110237240791320801f, 0.048011876642704010010f, -0.054123193025588989258f}
    }
  },
  {
    {
      {0.15739941596984863281f, 0.023501757532358169556f, 0.055677294731140136719f},
      {0.10960981994867324829f, -0.17844790220260620117f, -0.18807831406593322754f},
      {-0.14017713069915771484f, -0.030124722048640251160f, 0.18752390146255493164f}
    },
    {
      {0.10163530707359313965f, -0.054185364395380020142f, 0.18278034031391143799f},
      {0.16762484610080718994f, -0.12474223226308822632f, -0.14460867643356323242f},
      {0.10009054094552993774f, -0.056192960590124130249f, -0.15262478590011596680f}
    },
    {
      {-0.070486620068550109863f, 0.15886159241199493408f, 0.17842558026313781738f},
      {0.030454350635409355164f, -0.11480920016765594482f, 0.0041916114278137683868f},
      {0.019013576209545135498f, 0.056059367954730987549f, 0.11143167316913604736f}
    }
  }
};
static const float tensor_conv2_bias[3] = 
{-0.0094729829579591751099f, -0.14420600235462188721f, 0.020360630005598068237f};
static const float tensor_conv3_weight[3][3][3][3] = 
{
  {
    {
      {0.18208758533000946045f, 0.11711955815553665161f, -0.11686978489160537720f},
      {-0.035762678831815719604f, -0.10967699438333511353f, 0.15953986346721649170f},
      {0.10041484236717224121f, -0.13871659338474273682f, -0.12333404272794723511f}
    },
    {
      {-0.14793273806571960449f, 0.0069619533605873584747f, -0.18041096627712249756f},
      {-0.12532688677310943604f, 0.015742460265755653381f, -0.16558171808719635010f},
      {-0.084187924861907958984f, -0.019075931981205940247f, 0.12607526779174804688f}
    },
    {
      {-0.082284279167652130127f, 0.051182188093662261963f, 0.16806097328662872314f},
      {-0.099234648048877716064f, -0.12704843282699584961f, 0.036466121673583984375f},
      {-0.093617662787437438965f, -0.18814778327941894531f, 0.072524107992649078369f}
    }
  },
  {
    {
      {0.17125731706619262695f, -0.12370494008064270020f, 0.095435455441474914551f},
      {0.17966781556606292725f, 0.067781180143356323242f, 0.082797184586524963379f},
      {-0.13284753262996673584f, 0.17787268757820129395f, -0.10381310433149337769f}
    },
    {
      {-0.13637915253639221191f, -0.15904980897903442383f, -0.15212479233741760254f},
      {-0.18100772798061370850f, 0.15438748896121978760f, 0.031069949269294738770f},
      {0.14908638596534729004f, 0.034397754818201065063f, -0.18323889374732971191f}
    },
    {
      {0.13226211071014404297f, -0.096173517405986785889f, -0.031882546842098236084f},
      {-0.17684511840343475342f, 0.073463484644889831543f, -0.11048353463411331177f},
      {-0.11797505617141723633f, -0.16301749646663665771f, 0.14407764375209808350f}
    }
  },
  {
    {
      {0.044559128582477569580f, 0.011094099842011928558f, -0.076087504625320434570f},
      {0.056495402008295059204f, 0.011821012012660503387f, -0.11493730545043945312f},
      {-0.043982669711112976074f, 0.047635789960622787476f, -0.042335055768489837646f}
    },
    {
      {-0.15926167368888854980f, 0.0031279590912163257599f, -0.13721644878387451172f},
      {-0.13265250623226165771f, 0.065787076950073242188f, 0.15457208454608917236f},
      {0.037286911159753799438f, -0.014871175400912761688f, -0.13401727378368377686f}
    },
    {
      {-0.17907525599002838135f, 0.12559202313423156738f, -0.16943074762821197510f},
      {0.13342949748039245605f, -1.5164555406954605132e-05f, -0.076353102922439575195f},
      {0.068935476243495941162f, -0.13525657355785369873f, 0.19015039503574371338f}
    }
  }
};
static const float tensor_conv3_bias[3] = 
{0.10239614546298980713f, 0.073825486004352569580f, 0.10749988257884979248f};
static const float tensor_conv4_weight[3][3][3][3] = 
{
  {
    {
      {0.079215258359909057617f, 0.023012407124042510986f, 0.026485297828912734985f},
      {0.031062722206115722656f, 0.072892092168331146240f, 0.13667121529579162598f},
      {0.032793432474136352539f, -0.10463079810142517090f, -0.10177019983530044556f}
    },
    {
      {0.10497683286666870117f, 0.050412259995937347412f, 0.12147100269794464111f},
      {0.17669412493705749512f, 0.054622132331132888794f, -0.17039424180984497070f},
      {-0.081290572881698608398f, -0.057407155632972717285f, 0.053066261112689971924f}
    },
    {
      {-0.0086558181792497634888f, -0.086477264761924743652f, -0.043455306440591812134f},
      {-0.13964286446571350098f, -0.096736788749694824219f, 0.00016951723955571651459f},
      {0.15438255667686462402f, 0.032306812703609466553f, -0.18281479179859161377f}
    }
  },
  {
    {
      {0.052763108164072036743f, 0.11777275800704956055f, -0.072108402848243713379f},
      {-0.11010770499706268311f, -0.15171897411346435547f, -0.15264312922954559326f},
      {0.10590411722660064697f, 0.10948336124420166016f, -0.036683656275272369385f}
    },
    {
      {-0.079797014594078063965f, -0.13105511665344238281f, -0.18864335119724273682f},
      {0.18466597795486450195f, -0.14995652437210083008f, 0.090299353003501892090f},
      {-0.0017965524457395076752f, -0.11677354574203491211f, -0.11172260344028472900f}
    },
    {
      {-0.096423812210559844971f, -0.13691930472850799561f, -0.034761909395456314087f},
      {0.028806529939174652100f, -0.12690417468547821045f, -0.055736966431140899658f},
      {0.0010134327458217740059f, -0.15915794670581817627f, 0.10840303450822830200f}
    }
  },
  {
    {
      {-0.18391029536724090576f, 0.15839226543903350830f, 0.14112998545169830322f},
      {0.021709036082029342651f, 0.069332137703895568848f, -0.13438668847084045410f},
      {0.015364814549684524536f, -0.13737231492996215820f, 0.17650455236434936523f}
    },
    {
      {-0.11182409524917602539f, 0.078986525535583496094f, 0.12566380202770233154f},
      {0.19076509773731231689f, 0.11618614196777343750f, 0.13348023593425750732f},
      {0.024084687232971191406f, -0.031581368297338485718f, -0.13725756108760833740f}
    },
    {
      {0.088926881551742553711f, -0.020010972395539283752f, 0.057442508637905120850f},
      {-0.086086198687553405762f, 0.12911152839660644531f, 0.011161823756992816925f},
      {0.13160714507102966309f, 0.0090686101466417312622f, 0.022594086825847625732f}
    }
  }
};
static const float tensor_conv4_bias[3] = 
{-0.10126711428165435791f, 0.10269962251186370850f, -0.16418579220771789551f};
static const float tensor_conv5_weight[3][3][3][3] = 
{
  {
    {
      {0.17110495269298553467f, -0.10292913019657135010f, 0.092074662446975708008f},
      {0.16130976378917694092f, 0.15478427708148956299f, 0.068324007093906402588f},
      {0.084144219756126403809f, 0.067580692470073699951f, -0.057251151651144027710f}
    },
    {
      {0.11146882176399230957f, 0.045851927250623703003f, -0.17596136033535003662f},
      {-0.16233581304550170898f, -0.043642420321702957153f, -0.16521252691745758057f},
      {0.085495121777057647705f, 0.099905237555503845215f, -0.088967166841030120850f}
    },
    {
      {0.070172108709812164307f, -0.16302238404750823975f, 0.056125007569789886475f},
      {-0.18120698630809783936f, 0.13953495025634765625f, 0.15659376978874206543f},
      {-0.0073206489905714988708f, 0.085998401045799255371f, 0.15905374288558959961f}
    }
  },
  {
    {
      {-0.13765986263751983643f, -0.19185784459114074707f, -0.16145277023315429688f},
      {0.084667727351188659668f, 0.12288378179073333740f, -0.14726077020168304443f},
      {0.090274251997470855713f, -0.061243031173944473267f, 0.15788467228412628174f}
    },
    {
      {0.17704384028911590576f, -0.097262337803840637207f, -0.091064803302288055420f},
      {-0.14181800186634063721f, 0.076959177851676940918f, -0.16979931294918060303f},
      {0.13816516101360321045f, -0.19027478992938995361f, -0.15388295054435729980f}
    },
    {
      {-0.10126892477273941040f, -0.10198003053665161133f, -0.043758690357208251953f},
      {0.16861939430236816406f, 0.047431815415620803833f, -0.048295367509126663208f},
      {-0.17380248010158538818f, -0.17169205844402313232f, -0.037763483822345733643f}
    }
  },
  {
    {
      {-0.13194507360458374023f, 0.16371798515319824219f, 0.17125943303108215332f},
      {0.17727443575859069824f, 0.18280126154422760010f, 0.18633046746253967285f},
      {-0.083162054419517517090f, -0.022318623960018157959f, 0.13579334318637847900f}
    },
    {
      {-0.063904605805873870850f, -0.15128020942211151123f, -0.16739633679389953613f},
      {0.12449556589126586914f, 0.069773010909557342529f, -0.042783316224813461304f},
      {-0.037461981177330017090f, 0.066086515784263610840f, -0.10731405019760131836f}
    },
    {
      {0.15425504744052886963f, -0.18654647469520568848f, -0.18546865880489349365f},
      {-0.029072448611259460449f, -0.089154556393623352051f, 0.056493338197469711304f},
      {-0.12183428555727005005f, -0.17945165932178497314f, -0.13179928064346313477f}
    }
  }
};
static const float tensor_conv5_bias[3] = 
{-0.10575836896896362305f, 0.17477980256080627441f, 0.027200439944863319397f};
static const float tensor_conv6_weight[3][3][3][3] = 
{
  {
    {
      {-0.077003523707389831543f, 0.025473080575466156006f, 0.033824805170297622681f},
      {-0.097781807184219360352f, 0.018747406080365180969f, -0.15333476662635803223f},
      {0.054884977638721466064f, -0.013447588309645652771f, 0.17057509720325469971f}
    },
    {
      {-0.12130893766880035400f, -0.16836428642272949219f, -0.15852177143096923828f},
      {0.13348905742168426514f, -0.099913403391838073730f, -0.027573566883802413940f},
      {0.085963800549507141113f, -0.062292873859405517578f, 0.12930753827095031738f}
    },
    {
      {-0.028728161007165908813f, -0.11792495101690292358f, 0.11739394068717956543f},
      {-0.059495896100997924805f, -0.12133733928203582764f, 0.074022300541400909424f},
      {-0.077913261950016021729f, -0.13459278643131256104f, -0.14813731610774993896f}
    }
  },
  {
    {
      {-0.011574524454772472382f, 0.090347893536090850830f, -0.063121855258941650391f},
      {0.14928378164768218994f, -0.15223020315170288086f, 0.074070960283279418945f},
      {-0.16200828552246093750f, 0.12871527671813964844f, 0.14426672458648681641f}
    },
    {
      {-0.072588525712490081787f, 0.090770900249481201172f, -0.086931973695755004883f},
      {-0.0028986325487494468689f, 0.035083483904600143433f, -0.0041537806391716003418f},
      {0.096488460898399353027f, 0.040583562105894088745f, 0.18682266771793365479f}
    },
    {
      {0.11062070727348327637f, -0.11059723794460296631f, -0.094173885881900787354f},
      {-0.12483466416597366333f, -0.063606567680835723877f, -0.022672202438116073608f},
      {0.11725149303674697876f, 0.048131953924894332886f, -0.14487911760807037354f}
    }
  },
  {
    {
      {-0.0040352172218263149261f, -0.033069282770156860352f, 0.18583336472511291504f},
      {-0.14070926606655120850f, 0.18302656710147857666f, 0.15305273234844207764f},
      {0.11053517460823059082f, -0.098608657717704772949f, -0.10862737894058227539f}
    },
    {
      {0.030612144619226455688f, -0.018611131235957145691f, -0.14097948372364044189f},
      {-0.023606142029166221619f, -0.012378292158246040344f, 0.00054264330537989735603f},
      {-0.00061624072259292006493f, -0.13275329768657684326f, 0.16460321843624114990f}
    },
    {
      {0.11539439857006072998f, 0.082504883408546447754f, 0.028147730976343154907f},
      {0.031348142772912979126f, -0.15587960183620452881f, -0.022842958569526672363f},
      {-0.039101749658584594727f, 0.12721928954124450684f, 0.00024731302983127534389f}
    }
  }
};
static const float tensor_conv6_bias[3] = 
{-0.18545179069042205811f, 0.066086605191230773926f, -0.057858675718307495117f};
static const float tensor_conv7_weight[3][3][3][3] = 
{
  {
    {
      {-0.18285115063190460205f, -0.16757620871067047119f, 0.15760891139507293701f},
      {0.0021538946311920881271f, 0.10213711112737655640f, -0.091338299214839935303f},
      {-0.19060763716697692871f, -0.043614983558654785156f, 0.068683505058288574219f}
    },
    {
      {-0.053710836917161941528f, 0.080141901969909667969f, -0.048425175249576568604f},
      {0.050640780478715896606f, -0.11073431372642517090f, 0.16676856577396392822f},
      {0.14234225451946258545f, 0.064184151589870452881f, -0.052126977592706680298f}
    },
    {
      {-0.040923397988080978394f, -0.17140103876590728760f, -0.13751138746738433838f},
      {-0.095421507954597473145f, 0.046532381325960159302f, -0.037880554795265197754f},
      {-0.041027601808309555054f, 0.084002390503883361816f, 0.14268259704113006592f}
    }
  },
  {
    {
      {0.048358619213104248047f, -0.13452529907226562500f, -0.17993162572383880615f},
      {-0.18922446668148040771f, 0.057325735688209533691f, -0.13659109175205230713f},
      {0.18351399898529052734f, -0.0031262615229934453964f, 0.067391648888587951660f}
    },
    {
      {0.092465244233608245850f, 0.059616249054670333862f, -0.15746991336345672607f},
      {0.021561084315180778503f, -0.19032074511051177979f, 0.075557313859462738037f},
      {-0.11424537748098373413f, -0.080431811511516571045f, -0.17416594922542572021f}
    },
    {
      {0.060925446450710296631f, 0.061325896531343460083f, 0.17459310591220855713f},
      {-0.019081139937043190002f, 0.11981146037578582764f, 0.13562582433223724365f},
      {0.049127835780382156372f, 0.078416489064693450928f, 0.13015075027942657471f}
    }
  },
  {
    {
      {-0.10339944064617156982f, -0.043114688247442245483f, 0.12270449101924896240f},
      {-0.029002705588936805725f, 0.075955428183078765869f, -0.15212675929069519043f},
      {0.094869248569011688232f, -0.11390822380781173706f, -0.10312861204147338867f}
    },
    {
      {-0.065577387809753417969f, -0.042061567306518554688f, 0.037637945264577865601f},
      {-0.0053480407223105430603f, 0.12588126957416534424f, -0.063943512737751007080f},
      {0.15341459214687347412f, 0.020430579781532287598f, 0.14338672161102294922f}
    },
    {
      {-0.16887223720550537109f, 0.10070914030075073242f, -0.088121160864830017090f},
      {0.15518496930599212646f, 0.089728765189647674561f, 0.099124319851398468018f},
      {-0.18948720395565032959f, -0.14706803858280181885f, 0.13087978959083557129f}
    }
  }
};
static const float tensor_conv7_bias[3] = 
{0.12497089058160781860f, -0.11890307813882827759f, 0.043686583638191223145f};
static const float tensor_fc1_weight[30][12] = 
{
  {0.069487616419792175293f, -0.12356674671173095703f, -0.18566866219043731689f, -0.19157974421977996826f, -0.26562064886093139648f, 0.10499721020460128784f, -0.20231400430202484131f, -0.017095914110541343689f, 0.076380766928195953369f, 0.012824257835745811462f, -0.20974682271480560303f, 0.081964612007141113281f},
  {-0.086748018860816955566f, -0.19792810082435607910f, -0.036631003022193908691f, 0.038180921226739883423f, -0.12506656348705291748f, 0.28153893351554870605f, 0.19580577313899993896f, -0.027334190905094146729f, 0.12478802353143692017f, -0.14300210773944854736f, 0.0061155599541962146759f, 0.16223444044589996338f},
  {-0.16237765550613403320f, 0.046620614826679229736f, 0.17695596814155578613f, -0.094350181519985198975f, 0.16945515573024749756f, 0.096809111535549163818f, 0.15559752285480499268f, -0.061240874230861663818f, -0.063953116536140441895f, -0.060035016387701034546f, 0.014361235313117504120f, -0.032131467014551162720f},
  {-0.28590661287307739258f, -0.27589866518974304199f, 0.065687760710716247559f, -0.19541576504707336426f, -0.044785417616367340088f, 0.10572332143783569336f, 0.077561125159263610840f, 0.28627008199691772461f, -0.040069974958896636963f, -0.083863340318202972412f, -0.13778595626354217529f, -0.11817368119955062866f},
  {0.059694226831197738647f, 0.13295321166515350342f, 0.056795466691255569458f, 0.25809147953987121582f, 0.011192095465958118439f, 0.095873594284057617188f, -0.14588414132595062256f, -0.16446927189826965332f, -0.15399688482284545898f, -0.19053012132644653320f, -0.26382699608802795410f, -0.27033057808876037598f},
  {-0.12381820380687713623f, -0.16629672050476074219f, 0.19827474653720855713f, 0.039868623018264770508f, -0.098289303481578826904f, 0.24997113645076751709f, -0.25017595291137695312f, 0.090018264949321746826f, 0.085230521857738494873f, -0.23118118941783905029f, 0.19412298500537872314f, -0.098758831620216369629f},
  {0.17845857143402099609f, 0.020821955054998397827f, 0.037374801933765411377f, -0.011478684842586517334f, 0.089873977005481719971f, -0.16017472743988037109f, 0.12163536250591278076f, 0.16294141113758087158f, -0.20420372486114501953f, 0.18494799733161926270f, 0.075839966535568237305f, 0.24790500104427337646f},
  {-0.20281983911991119385f, 0.21102797985076904297f, -0.027825845405459403992f, 0.14585746824741363525f, 0.042651444673538208008f, 0.0028983801603317260742f, -0.11173598468303680420f, 0.019778318703174591064f, -0.14048725366592407227f, -0.10898943245410919189f, -0.21603330969810485840f, 0.17802435159683227539f},
  {0.13799543678760528564f, 0.081114001572132110596f, 0.11662895977497100830f, -0.25942662358283996582f, -0.18095886707305908203f, -0.070363245904445648193f, 0.18962877988815307617f, 0.15414275228977203369f, -0.12382067739963531494f, -0.20883299410343170166f, -0.26099169254302978516f, -0.034372322261333465576f},
  {0.25476151704788208008f, 0.19747085869312286377f, -0.029684925451874732971f, 0.045458424836397171021f, 0.24571038782596588135f, 0.27129161357879638672f, -0.0012764035491272807121f, -0.27736923098564147949f, 0.27861374616622924805f, 0.14632558822631835938f, -0.17451138794422149658f, 0.14236007630825042725f},
  {0.15237328410148620605f, -0.10080876201391220093f, -0.044414341449737548828f, 0.19885525107383728027f, -0.26827207207679748535f, -0.096276298165321350098f, 0.034496381878852844238f, -0.22270442545413970947f, 0.018567506223917007446f, -0.15446579456329345703f, -0.076498940587043762207f, -0.020278749987483024597f},
  {0.16937986016273498535f, -0.24574872851371765137f, 0.0053844954818487167358f, -0.011507832445204257965f, 0.15043443441390991211f, 0.032645627856254577637f, -0.029490184038877487183f, -0.23538418114185333252f, -0.11568532884120941162f, -0.024304043501615524292f, 0.14072962105274200439f, 0.24402257800102233887f},
  {-0.059656061232089996338f, -0.060720380395650863647f, -0.26403141021728515625f, 0.069457985460758209229f, -0.014141681604087352753f, -0.10084142535924911499f, 0.11259844154119491577f, 0.22239457070827484131f, -0.057366754859685897827f, 0.18301403522491455078f, 0.023965766653418540955f, -0.031306214630603790283f},
  {-0.055479869246482849121f, 0.062622822821140289307f, -0.064333856105804443359f, 0.19412963092327117920f, -0.26802751421928405762f, 0.19854852557182312012f, 0.17724303901195526123f, -0.023767514154314994812f, -0.037583615630865097046f, 0.25852245092391967773f, 0.28605920076370239258f, 0.25153177976608276367f},
  {-0.27392593026161193848f, 0.22602009773254394531f, 0.13262648880481719971f, 0.0022182120010256767273f, -0.0043816729448735713959f, 0.17552921175956726074f, -0.074727371335029602051f, -0.089313529431819915771f, 0.024763213470578193665f, -0.11813235282897949219f, -0.091793276369571685791f, 0.15788789093494415283f},
  {-0.056899566203355789185f, -0.090772390365600585938f, -0.017022924497723579407f, 0.069172255694866180420f, 0.26404181122779846191f, -0.14820806682109832764f, 0.27012008428573608398f, -0.23380556702613830566f, 0.13902561366558074951f, 0.12432967871427536011f, 0.011536669917404651642f, 0.061558298766613006592f},
  {0.18303532898426055908f, -0.26275005936622619629f, -0.17203050851821899414f, 0.074265174567699432373f, -0.10434739291667938232f, -0.20228056609630584717f, 0.15176431834697723389f, -0.26020118594169616699f, -0.032633822411298751831f, -0.11838790029287338257f, 0.11769696325063705444f, 0.19242973625659942627f},
  {0.056701693683862686157f, -0.044301055371761322021f, 0.17836396396160125732f, -0.24616429209709167480f, 0.041920002549886703491f, 0.21358865499496459961f, 0.085925556719303131104f, 0.071560502052307128906f, 0.050985630601644515991f, -0.14199247956275939941f, -0.045556433498859405518f, -0.26463147997856140137f},
  {0.0074882158078253269196f, 0.15049989521503448486f, -0.14643932878971099854f, 0.0051490776240825653076f, -0.094117134809494018555f, 0.21951681375503540039f, -0.24637675285339355469f, 0.042346447706222534180f, 0.096445366740226745605f, 0.022480409592390060425f, -0.060530319809913635254f, -0.24026519060134887695f},
  {-0.27546599507331848145f, -0.10086572170257568359f, 0.012947042472660541534f, 0.21464768052101135254f, 0.28152951598167419434f, -0.14189077913761138916f, 0.089809000492095947266f, 0.28316915035247802734f, 0.028066562488675117493f, 0.21440941095352172852f, -0.076960101723670959473f, 0.12126639485359191895f},
  {0.016842359676957130432f, -0.10547833889722824097f, -0.12305410206317901611f, 0.020495101809501647949f, 0.11420348286628723145f, 0.24610920250415802002f, 0.16748923063278198242f, -0.021180087700486183167f, 0.013231464661657810211f, 0.21605525910854339600f, -0.19974248111248016357f, -0.11635576188564300537f},
  {0.13008876144886016846f, 0.14195337891578674316f, 0.11541343480348587036f, -0.16601577401161193848f, 0.16816888749599456787f, -0.030231194570660591125f, 0.27529758214950561523f, 0.041021246463060379028f, -0.16870014369487762451f, -0.019857537001371383667f, -0.11151054501533508301f, -0.016903065145015716553f},
  {0.062911473214626312256f, -0.018134938552975654602f, 0.028232259675860404968f, 0.25804534554481506348f, 0.15365919470787048340f, -0.033824369311332702637f, 0.11287016421556472778f, -0.078439816832542419434f, 0.25217193365097045898f, -0.12136980146169662476f, -0.16252264380455017090f, -0.0063121253624558448792f},
  {-0.17710866034030914307f, 0.055709403008222579956f, 0.045009374618530273438f, -0.20818929374217987061f, -0.020824156701564788818f, -0.22159768640995025635f, 0.23462325334548950195f, -0.23366840183734893799f, 0.24591207504272460938f, 0.27057170867919921875f, 0.27264952659606933594f, 0.048721719533205032349f},
  {0.10630723834037780762f, 0.14673034846782684326f, 0.28577217459678649902f, -0.20009964704513549805f, 0.11517719179391860962f, -0.12010179460048675537f, 0.012093640863895416260f, -0.26983430981636047363f, 0.22360476851463317871f, 0.22324718534946441650f, 0.047997053712606430054f, 0.044407632201910018921f},
  {-0.13384446501731872559f, -0.046408288180828094482f, 0.28505808115005493164f, 0.19219930469989776611f, -0.27497348189353942871f, -0.20717848837375640869f, -0.18809723854064941406f, -0.20950685441493988037f, -0.18050935864448547363f, 0.11351656913757324219f, -0.22324718534946441650f, -0.22003416717052459717f},
  {0.033844672143459320068f, -0.10753759741783142090f, -0.18242160975933074951f, 0.0088888499885797500610f, -0.28528976440429687500f, -0.14199797809123992920f, -0.12544767558574676514f, 0.0060111861675977706909f, 0.016068072989583015442f, -0.047502439469099044800f, -0.17632789909839630127f, -0.081363148987293243408f},
  {0.026850931346416473389f, -0.024347266182303428650f, 0.27456977963447570801f, 0.039983805269002914429f, -0.015284323133528232574f, 0.27053016424179077148f, -0.20788423717021942139f, 0.23089191317558288574f, -0.035304389894008636475f, -0.10502673685550689697f, -0.25659933686256408691f, 0.11660508066415786743f},
  {-0.10963822156190872192f, -0.081675097346305847168f, -0.27231767773628234863f, 0.10965157300233840942f, 0.17738240957260131836f, 0.24931681156158447266f, -0.083106048405170440674f, 0.044138044118881225586f, -0.039684619754552841187f, -0.017668748274445533752f, -0.14974294602870941162f, 0.19069409370422363281f},
  {0.25613084435462951660f, 0.21346347033977508545f, -0.097310535609722137451f, 0.078530527651309967041f, 0.28599309921264648438f, 0.20149554312229156494f, 0.20852530002593994141f, 0.029420670121908187866f, 0.12689897418022155762f, 0.14157773554325103760f, -0.26974523067474365234f, -0.051917254924774169922f}
};
static const float tensor_fc1_bias[30] = 
{0.029421359300613403320f, -0.070019327104091644287f, -0.028052452951669692993f, 0.055394764989614486694f, -0.23230087757110595703f, 0.10171522945165634155f, 0.14059555530548095703f, -0.19096547365188598633f, -0.25195276737213134766f, -0.035236116498708724976f, 0.010606975294649600983f, -0.12461148202419281006f, -0.044389359652996063232f, -0.13385523855686187744f, 0.0073723481036722660065f, 0.080627888441085815430f, -0.12063354253768920898f, 0.017479890957474708557f, -0.035606604069471359253f, 0.055074658244848251343f, -0.12960408627986907959f, -0.16095624864101409912f, -0.10792532563209533691f, 0.19153735041618347168f, -0.20656986534595489502f, 0.15688304603099822998f, 0.092690557241439819336f, -0.28639748692512512207f, 0.22588393092155456543f, -0.0038675810210406780243f};
static const float tensor_fc2_weight[30][30] = 
{
  {-0.087654478847980499268f, -0.13260215520858764648f, 0.062696628272533416748f, 0.15777821838855743408f, -0.076264642179012298584f, -0.016475537791848182678f, 0.11213610321283340454f, 0.085723288357257843018f, 0.14896005392074584961f, -0.13003309071063995361f, 0.063099883496761322021f, 0.086157649755477905273f, 0.14955350756645202637f, -0.12859044969081878662f, -0.17127755284309387207f, 0.14090408384799957275f, -0.096260964870452880859f, -0.18122595548629760742f, 0.13479934632778167725f, -0.14736482501029968262f, -0.18001697957515716553f, -0.021181771531701087952f, 0.16804060339927673340f, 0.064823523163795471191f, 0.12139034271240234375f, -0.17341932654380798340f, 0.11627312749624252319f, -0.021661788225173950195f, 0.0029172317590564489365f, -0.11663661897182464600f},
  {0.059812325984239578247f, -0.14304073154926300049f, -0.051344592124223709106f, -0.023699993267655372620f, 0.13328507542610168457f, 0.17224910855293273926f, 0.10351843386888504028f, -0.048112906515598297119f, 0.035878211259841918945f, -0.012416190467774868011f, 0.024390256032347679138f, 0.096826121211051940918f, -0.029861120507121086121f, 0.043818674981594085693f, -0.042436257004737854004f, -0.079112723469734191895f, 0.026841530576348304749f, -0.0016809841617941856384f, 0.045650098472833633423f, -0.18199515342712402344f, 0.14439827203750610352f, -0.14235730469226837158f, 0.032512716948986053467f, -0.073996670544147491455f, -0.17512986063957214355f, -0.087735615670680999756f, 0.17469498515129089355f, 0.17461027204990386963f, -0.010747873224318027496f, 0.098754920065402984619f},
  {0.040331628173589706421f, -0.028429754078388214111f, -0.025255570188164710999f, 0.12045716494321823120f, -0.15809051692485809326f, 0.13240563869476318359f, 0.026937294751405715942f, -0.0019965481478720903397f, 0.17126420140266418457f, 0.055158175528049468994f, -0.0066005531698465347290f, -0.048533767461776733398f, 0.10664763301610946655f, -0.14761698246002197266f, 0.10847833752632141113f, 0.093040987849235534668f, 0.024680443108081817627f, -0.011958025395870208740f, 0.16244515776634216309f, 0.17771919071674346924f, -0.17526830732822418213f, -0.10211344808340072632f, 0.038779575377702713013f, -0.027540629729628562927f, -0.13752268254756927490f, 0.089400582015514373779f, 0.032368592917919158936f, -0.086761981248855590820f, -0.13190628588199615479f, -0.092286996543407440186f},
  {-0.12014227360486984253f, 0.054095912724733352661f, 0.12595188617706298828f, -0.0092528667300939559937f, -0.091394998133182525635f, -0.050044596195220947266f, -0.078479573130607604980f, -0.061944011598825454712f, -0.0060691721737384796143f, -0.12080173939466476440f, 0.14192363619804382324f, 0.12227506935596466064f, -0.15151120722293853760f, -0.064773157238960266113f, 0.021528502926230430603f, -0.14204491674900054932f, 0.14000184834003448486f, 0.019457977265119552612f, 0.16106843948364257812f, 0.17400221526622772217f, 0.12481240183115005493f, 0.12248470634222030640f, -0.12716756761074066162f, 0.071769498288631439209f, 0.094845160841941833496f, -0.10755503922700881958f, -0.066271670162677764893f, -0.069165743887424468994f, 0.0015159001341089606285f, 0.13272762298583984375f},
  {-0.066416859626770019531f, -0.10261251032352447510f, -0.013456818647682666779f, 0.046928979456424713135f, -0.073442719876766204834f, -0.16422906517982482910f, 0.10527496784925460815f, -0.077691458165645599365f, -0.016644213348627090454f, 0.019899491220712661743f, 0.058293182402849197388f, 0.089706070721149444580f, -0.14661803841590881348f, 0.037317935377359390259f, 0.18039727210998535156f, 0.011879041790962219238f, 0.062266625463962554932f, -0.12072369456291198730f, 0.15932449698448181152f, -0.15858379006385803223f, -0.025775438174605369568f, -0.014648927375674247742f, 0.13160008192062377930f, 0.15242801606655120850f, 0.12542085349559783936f, 0.10993135720491409302f, -0.11033076047897338867f, -0.0023338331375271081924f, 0.15815393626689910889f, 0.16497248411178588867f},
  {0.040514428168535232544f, 0.14326907694339752197f, 0.18034923076629638672f, 0.0050578829832375049591f, -0.10302044451236724854f, 0.060386735945940017700f, -0.11385130137205123901f, 0.15939399600028991699f, 0.12049342691898345947f, 0.10837590694427490234f, -0.10326947271823883057f, -0.12958835065364837646f, -0.092448882758617401123f, -0.085648857057094573975f, -0.013799523003399372101f, 0.068200506269931793213f, -0.10287157446146011353f, 0.18042239546775817871f, -0.13549359142780303955f, 0.0045420196838676929474f, 0.10450380295515060425f, 0.041532810777425765991f, 0.080096878111362457275f, -0.048420134931802749634f, -0.12983165681362152100f, -0.060420490801334381104f, 0.066254496574401855469f, -0.10372208803892135620f, -0.12842153012752532959f, -0.085973478853702545166f},
  {-0.11409143358469009399f, 0.12451706081628799438f, 0.15747849643230438232f, 0.014576800167560577393f, -0.025676779448986053467f, -0.015965485945343971252f, 0.15927226841449737549f, -0.039065279066562652588f, -0.081327095627784729004f, 0.087030820548534393311f, 0.028010047972202301025f, -0.038924355059862136841f, 0.019868019968271255493f, 0.025783622637391090393f, 0.081280238926410675049f, -0.083598703145980834961f, 0.031360697001218795776f, -0.034871622920036315918f, -0.0067208460532128810883f, -0.072449386119842529297f, -0.053193230181932449341f, 0.097389146685600280762f, 0.090517342090606689453f, 0.043268859386444091797f, -0.14096726477146148682f, -0.11006827652454376221f, 0.083086580038070678711f, -0.099926702678203582764f, -0.15326030552387237549f, 0.0023329190444201231003f},
  {-0.037277605384588241577f, 0.11254136264324188232f, -0.16796526312828063965f, -0.086487486958503723145f, -0.10455562174320220947f, -0.071443967521190643311f, 0.074304327368736267090f, 0.017753139138221740723f, -0.16661930084228515625f, 0.016186112537980079651f, 0.012105153873562812805f, -0.13976292312145233154f, 0.18245591223239898682f, -0.14945200085639953613f, -0.14614741504192352295f, 0.13437785208225250244f, 0.12019362300634384155f, -0.067476816475391387939f, 0.088053226470947265625f, 0.14019854366779327393f, -0.14701204001903533936f, -0.13922555744647979736f, 0.11932913213968276978f, -0.056244857609272003174f, 0.072078473865985870361f, -0.11493752896785736084f, -0.13418649137020111084f, -0.027968367561697959900f, 0.032190687954425811768f, 0.0016655530780553817749f},
  {0.047158770263195037842f, 0.12605574727058410645f, -0.14931270480155944824f, 0.037093326449394226074f, 0.10074245929718017578f, -5.6544271501479670405e-05f, -0.0035919107031077146530f, -0.087039522826671600342f, 0.17365168035030364990f, 0.056232735514640808105f, 0.039161041378974914551f, -0.059855788946151733398f, 0.083800636231899261475f, -0.048832681030035018921f, -0.16214120388031005859f, 0.16339650750160217285f, 0.16506913304328918457f, -0.028923112899065017700f, 0.14796863496303558350f, 0.055199332535266876221f, -0.10259740054607391357f, 0.11062712222337722778f, -0.11298204958438873291f, -0.050138249993324279785f, 0.0057259234599769115448f, -0.030101619660854339600f, -0.10238846391439437866f, 0.064928688108921051025f, 0.13207679986953735352f, 0.051210630685091018677f},
  {0.11269810795783996582f, 0.13326853513717651367f, 0.095128312706947326660f, 0.17426747083663940430f, -0.024884223937988281250f, -0.026459977030754089355f, -0.094304420053958892822f, 0.14130516350269317627f, 0.13947448134422302246f, 0.11797914654016494751f, -0.094417050480842590332f, 0.14591370522975921631f, 0.050129324197769165039f, 0.086164198815822601318f, 0.092473909258842468262f, 0.14373767375946044922f, -0.17765417695045471191f, 0.061488717794418334961f, 0.15880297124385833740f, 0.15109710395336151123f, -0.071447253227233886719f, 0.082884997129440307617f, -0.036014325916767120361f, 0.15093661844730377197f, 0.15007467567920684814f, -0.16453723609447479248f, 0.086046732962131500244f, 0.17532101273536682129f, 0.091405577957630157471f, 0.0010005594231188297272f},
  {0.11904532462358474731f, 0.013433638960123062134f, -0.17647218704223632812f, -0.13233405351638793945f, -0.073096357285976409912f, 0.080523572862148284912f, -0.00054813991300761699677f, 0.026064950972795486450f, 0.11355704814195632935f, -0.17167872190475463867f, -0.10983595997095108032f, -0.043468616902828216553f, -0.095721766352653503418f, 0.14356096088886260986f, 0.14477409422397613525f, -0.030087623745203018188f, -0.12636548280715942383f, -0.11472288519144058228f, -0.16393537819385528564f, 0.17023828625679016113f, -0.075186580419540405273f, 0.14301963150501251221f, -0.16523167490959167480f, -0.11144538223743438721f, 0.016297461465001106262f, -0.10784546285867691040f, 0.16880449652671813965f, -0.14792208373546600342f, 0.11814390122890472412f, -0.17997823655605316162f},
  {0.16684129834175109863f, 0.15158019959926605225f, -0.047357458621263504028f, -0.086543031036853790283f, 0.12206051498651504517f, 0.018740942701697349548f, 0.019281009212136268616f, 0.010085621848702430725f, -0.0077125905081629753113f, 0.13413235545158386230f, -0.030796561390161514282f, -0.17850798368453979492f, -0.030729243531823158264f, -0.12868344783782958984f, 0.021535597741603851318f, -0.13536483049392700195f, 0.095361150801181793213f, -0.15484932065010070801f, -0.0095345433801412582397f, -0.17713506519794464111f, 0.0065450537949800491333f, 0.040969830006361007690f, 0.082759313285350799561f, 0.11289930343627929688f, -0.11935505270957946777f, 0.063510403037071228027f, 0.011055319570004940033f, 0.11251036822795867920f, -0.14795710146427154541f, 0.10850384086370468140f},
  {-0.16219885647296905518f, 0.17927090823650360107f, 0.17330752313137054443f, -0.15181757509708404541f, -0.17437408864498138428f, -0.049101430922746658325f, -0.066836304962635040283f, -0.11911816895008087158f, -0.077173113822937011719f, -0.17501233518123626709f, 0.17925375699996948242f, -0.087154768407344818115f, -0.050108954310417175293f, -0.083416074514389038086f, 0.17767222225666046143f, 0.094484977424144744873f, -0.14569319784641265869f, 0.11097761988639831543f, -0.15692724287509918213f, 0.10198161751031875610f, 0.11731356382369995117f, -0.065842449665069580078f, -0.072115495800971984863f, -0.063999518752098083496f, 0.15610589087009429932f, -0.074236340820789337158f, 0.10270265489816665649f, 0.013555346056818962097f, 0.055353317409753799438f, -0.033310800790786743164f},
  {0.17994001507759094238f, -0.17156676948070526123f, -0.17175137996673583984f, 0.043211750686168670654f, -0.011805281974375247955f, 0.068037256598472595215f, -0.13918790221214294434f, 0.18055482208728790283f, -0.17254146933555603027f, 0.065681740641593933105f, -0.024416742846369743347f, -0.10136561840772628784f, 0.072087913751602172852f, 0.065605610609054565430f, -0.17022652924060821533f, 0.091962598264217376709f, 0.077638596296310424805f, -0.14561624825000762939f, 0.093304991722106933594f, -0.15481880307197570801f, 0.14484544098377227783f, 0.17170257866382598877f, 0.14646519720554351807f, -0.014835253357887268066f, 0.0067104208283126354218f, -0.051052991300821304321f, 0.0062196739017963409424f, -0.066939845681190490723f, 0.15389107167720794678f, 0.10440059751272201538f},
  {-0.17956697940826416016f, -0.12650363147258758545f, 0.11310784518718719482f, -0.013661818578839302063f, -0.12043520808219909668f, 0.12257649004459381104f, -0.14603550732135772705f, 0.081721775233745574951f, -0.035686161369085311890f, 0.17775425314903259277f, -0.078781686723232269287f, -0.13126175105571746826f, 0.17813456058502197266f, -0.0099340099841356277466f, 0.033489074558019638062f, 0.016874568536877632141f, 0.00089297723025083541870f, -0.12402428686618804932f, -0.17830561101436614990f, 0.035442877560853958130f, -0.17535388469696044922f, -0.029526643455028533936f, 0.018065828830003738403f, -0.14313387870788574219f, -0.12538111209869384766f, 0.063329845666885375977f, 0.11976440250873565674f, -0.053840178996324539185f, -0.084963142871856689453f, -0.10889764875173568726f},
  {0.026934335008263587952f, 0.10021048784255981445f, 0.15305984020233154297f, -0.13924635946750640869f, -0.10579667985439300537f, 0.083966307342052459717f, 0.062657602131366729736f, 0.0015855248784646391869f, 0.14116910099983215332f, -0.13891367614269256592f, 0.10347762703895568848f, 0.059187334030866622925f, 0.082929685711860656738f, 0.11460538208484649658f, -0.011824891902506351471f, 0.035959981381893157959f, 0.044854231178760528564f, 0.045920759439468383789f, -0.12293340265750885010f, 0.11900090426206588745f, -0.10466547310352325439f, -0.12951597571372985840f, -0.049644935876131057739f, 0.13714888691902160645f, -0.15544557571411132812f, -0.10268851369619369507f, 0.17195150256156921387f, 0.0082622980698943138123f, 0.15963977575302124023f, 0.024881850928068161011f},
  {-0.026040378957986831665f, 0.17916007339954376221f, -0.0097388913854956626892f, 0.096090741455554962158f, 0.10021559894084930420f, -0.085952691733837127686f, 0.16040240228176116943f, 0.085925355553627014160f, 0.16674111783504486084f, -0.036573283374309539795f, -0.087238885462284088135f, -0.036125041544437408447f, 0.088466800749301910400f, -0.094216383993625640869f, -0.14467282593250274658f, -0.10559225082397460938f, -0.16557188332080841064f, -0.082964941859245300293f, -0.060276716947555541992f, 0.14944700896739959717f, 0.020046140998601913452f, -0.13671626150608062744f, 0.026942452415823936462f, 0.092436738312244415283f, -0.00075738417217507958412f, 0.035640235990285873413f, 0.058610007166862487793f, 0.018894754350185394287f, 0.0083204088732600212097f, -0.13495141267776489258f},
  {-0.075086854398250579834f, -0.0078109446913003921509f, -0.045721571892499923706f, 0.10568683594465255737f, 0.041741706430912017822f, 0.052293438464403152466f, -0.10737715661525726318f, 0.17699366807937622070f, -0.042094271630048751831f, 0.15622590482234954834f, -0.16981846094131469727f, 0.11997895687818527222f, -0.019170314073562622070f, 0.13759045302867889404f, 0.0012426245957612991333f, 0.057314801961183547974f, 0.050916831940412521362f, 0.030348950996994972229f, 0.039636991918087005615f, 0.11167705059051513672f, -0.17693029344081878662f, 0.093186199665069580078f, 0.13593377172946929932f, -0.17554402351379394531f, -0.14381386339664459229f, -0.043858569115400314331f, -0.12440311908721923828f, -0.15880151093006134033f, 0.068554684519767761230f, -0.039993058890104293823f},
  {0.0092211998999118804932f, 0.030887035652995109558f, 0.022787733003497123718f, 0.091100960969924926758f, 0.13619717955589294434f, 0.051118284463882446289f, 0.088739380240440368652f, -0.12514102458953857422f, -0.13778349757194519043f, -0.031273834407329559326f, -0.070400141179561614990f, 0.14757554233074188232f, -0.11753651499748229980f, 0.10293209552764892578f, -0.14142161607742309570f, -0.087701603770256042480f, 0.12835897505283355713f, 0.13707710802555084229f, 0.15536005795001983643f, 0.15599025785923004150f, -0.14962698519229888916f, -0.17254108190536499023f, 0.070274166762828826904f, 0.17775483429431915283f, 0.070021986961364746094f, 0.00016155817138496786356f, 0.098285675048828125000f, -0.024859629571437835693f, 0.068113476037979125977f, 0.028760923072695732117f},
  {-0.040228769183158874512f, 0.17590126395225524902f, 0.16379299759864807129f, 0.011572705581784248352f, -0.033502198755741119385f, 0.14394578337669372559f, -0.13757295906543731689f, 0.11278586089611053467f, 0.17565204203128814697f, 0.18109114468097686768f, 0.13999353349208831787f, 0.099630855023860931396f, -0.15548560023307800293f, 0.17058779299259185791f, -0.090657047927379608154f, -0.066968850791454315186f, 0.11950973421335220337f, -0.073901079595088958740f, -0.13172650337219238281f, -0.054047726094722747803f, 0.17130659520626068115f, 0.18131026625633239746f, 0.0080252820625901222229f, 0.065196201205253601074f, 0.027029227465391159058f, -0.032481070607900619507f, 0.064580693840980529785f, 0.16739659011363983154f, -0.17795795202255249023f, 0.13657347857952117920f},
  {-0.16503015160560607910f, -0.10305003821849822998f, 0.015455325134098529816f, -0.080920964479446411133f, -0.095705382525920867920f, -0.17681419849395751953f, -0.16856993734836578369f, -0.18227581679821014404f, 0.012400868348777294159f, 0.092625439167022705078f, -0.14240835607051849365f, -0.010320482775568962097f, 0.059709336608648300171f, 0.17397658526897430420f, 0.043244961649179458618f, 0.095896668732166290283f, 0.15338921546936035156f, -0.036444373428821563721f, 0.045420110225677490234f, -0.0092244204133749008179f, -0.086903735995292663574f, -0.052533283829689025879f, 0.11047775298357009888f, -0.12437513470649719238f, -0.10320844501256942749f, -0.066184632480144500732f, 0.0060886731371283531189f, 0.16591408848762512207f, 0.17949718236923217773f, 0.13269789516925811768f},
  {0.074412807822227478027f, -0.010290252044796943665f, 0.13303051888942718506f, -0.078228741884231567383f, -0.17817164957523345947f, -0.11701993644237518311f, 0.063457272946834564209f, 0.0020618417765945196152f, -0.16587257385253906250f, 0.090443670749664306641f, 0.0027400464750826358795f, -0.035183161497116088867f, -0.13698504865169525146f, -0.085677042603492736816f, -0.067552074790000915527f, 0.021548721939325332642f, -0.0034294601064175367355f, 0.098677761852741241455f, 0.022941803559660911560f, -0.12089093029499053955f, -0.019176561385393142700f, -0.034622833132743835449f, 0.11904758960008621216f, 0.15329523384571075439f, -0.048567503690719604492f, -0.023402342572808265686f, 0.00098351773340255022049f, 0.14619490504264831543f, 0.030017543584108352661f, 0.14403909444808959961f},
  {-0.045594204217195510864f, -0.067896761000156402588f, 0.10704624652862548828f, -0.18085482716560363770f, 0.089420802891254425049f, -0.069727681577205657959f, -0.044826481491327285767f, -0.068694368004798889160f, 0.091454938054084777832f, 0.097466677427291870117f, 0.11777059733867645264f, 0.15275676548480987549f, -0.12470170855522155762f, 0.16568623483180999756f, 0.041963182389736175537f, 0.098841451108455657959f, 0.0049797045066952705383f, -0.061237249523401260376f, -0.073115050792694091797f, -0.040527682751417160034f, -0.13456030189990997314f, 0.065958149731159210205f, 0.064485348761081695557f, -0.16126829385757446289f, 0.065925486385822296143f, -0.17077641189098358154f, 0.12818539142608642578f, 0.042559314519166946411f, 0.010225175879895687103f, -0.029286449775099754333f},
  {0.12853346765041351318f, 0.093434602022171020508f, 0.033769138157367706299f, -0.014229350723326206207f, 0.17205750942230224609f, -0.15244026482105255127f, 0.14208099246025085449f, 0.16347187757492065430f, 0.15353111922740936279f, 0.10049229115247726440f, 0.10259030759334564209f, 0.055535029619932174683f, -0.063601747155189514160f, 0.064670912921428680420f, -0.080658070743083953857f, 0.067155331373214721680f, 0.069231949746608734131f, -0.050843942910432815552f, 0.0062224599532783031464f, 0.0036128046922385692596f, 0.17290857434272766113f, 0.019953358918428421021f, 0.12447398900985717773f, 0.13750278949737548828f, -0.10073226690292358398f, -0.18085128068923950195f, -0.16531166434288024902f, -0.029166461899876594543f, -0.12430211156606674194f, 0.062840886414051055908f},
  {-0.0024402835406363010406f, -0.028762860223650932312f, -0.17602793872356414795f, -0.17981028556823730469f, -0.018280122429132461548f, 0.15304785966873168945f, -0.063682340085506439209f, 0.12010911107063293457f, 0.038730300962924957275f, -0.14098200201988220215f, 0.010084576904773712158f, -0.077586531639099121094f, -0.080515496432781219482f, -0.041155740618705749512f, -0.10526972264051437378f, -0.10957931727170944214f, 0.011954237706959247589f, -0.13764040172100067139f, 0.11277226358652114868f, 0.030193073675036430359f, -0.085481159389019012451f, 0.062683984637260437012f, 0.11664395779371261597f, -9.8484539194032549858e-05f, 0.14196290075778961182f, 0.11041218042373657227f, -0.16070976853370666504f, 0.041815381497144699097f, -0.037322614341974258423f, 0.071403421461582183838f},
  {-0.094738863408565521240f, 0.030631802976131439209f, 0.060599461197853088379f, -0.10183276981115341187f, 0.13409070670604705811f, -0.032747793942689895630f, -0.023947652429342269897f, -0.028769847005605697632f, -0.15400034189224243164f, -0.032743725925683975220f, -0.063787378370761871338f, -0.015923241153359413147f, 0.0012143088970333337784f, -0.11472460627555847168f, -0.095629334449768066406f, -0.10927423834800720215f, 0.0025139129720628261566f, 0.10365929454565048218f, -0.0093446914106607437134f, -0.035267736762762069702f, -0.037599697709083557129f, 0.14662003517150878906f, 0.012657297775149345398f, 0.035526450723409652710f, -0.044133760035037994385f, -0.11155063658952713013f, 0.15192466974258422852f, -0.0027607011143118143082f, 0.059858400374650955200f, 0.12439835816621780396f},
  {0.12465195357799530029f, -0.14308559894561767578f, -0.061250288039445877075f, -0.10264859348535537720f, 0.073818199336528778076f, 0.069497719407081604004f, -0.013211575336754322052f, 0.16415877640247344971f, 0.052385177463293075562f, 0.079449556767940521240f, 0.17438496649265289307f, 0.17632271349430084229f, -0.026239763945341110229f, 0.087956331670284271240f, 0.062816113233566284180f, 0.17302277684211730957f, 0.084993436932563781738f, 0.10749375075101852417f, 0.048220098018646240234f, -0.021584220230579376221f, 0.12053103744983673096f, 0.085517443716526031494f, -0.011336169205605983734f, 0.055316749960184097290f, -0.016888825222849845886f, -0.14007802307605743408f, 0.050127387046813964844f, -0.034537754952907562256f, 0.093475647270679473877f, -0.069586299359798431396f},
  {-0.16335526108741760254f, -0.012999785132706165314f, -0.056328453123569488525f, -0.091117352247238159180f, -0.12332653999328613281f, 0.15977567434310913086f, -0.087370410561561584473f, 0.019430771470069885254f, -0.046780459582805633545f, -0.021864917129278182983f, -0.025334250181913375854f, -0.13757415115833282471f, 0.18249848484992980957f, -0.089934095740318298340f, -0.090773358941078186035f, 0.066242069005966186523f, 0.16715061664581298828f, 0.098928555846214294434f, 0.11930009722709655762f, -0.092569112777709960938f, 0.17032575607299804688f, -0.11681003868579864502f, 0.17618408799171447754f, 0.080982759594917297363f, 0.15297430753707885742f, -0.12834286689758300781f, -0.028875252231955528259f, -0.10253927111625671387f, -0.077796518802642822266f, -0.066556267440319061279f},
  {-0.15172070264816284180f, -0.015147640369832515717f, -0.025733411312103271484f, -0.13422006368637084961f, -0.053894113749265670776f, 0.18018186092376708984f, 0.053225267678499221802f, 0.11241962760686874390f, 0.12788377702236175537f, -0.18127235770225524902f, 0.091923028230667114258f, -0.11132820695638656616f, 0.034666210412979125977f, -0.077217124402523040771f, -0.11521848291158676147f, -0.18213863670825958252f, 0.078793331980705261230f, -0.16035491228103637695f, 0.12270002067089080811f, 0.056383714079856872559f, 0.022804969921708106995f, 0.075353339314460754395f, 0.051887400448322296143f, 0.049816872924566268921f, 0.096444875001907348633f, 0.11339417845010757446f, 0.037696443498134613037f, 0.048613905906677246094f, 0.14279772341251373291f, 0.15820303559303283691f},
  {0.098520860075950622559f, -0.071084074676036834717f, 0.033533167093992233276f, 0.13209253549575805664f, -0.083468571305274963379f, 0.090875871479511260986f, -0.13363544642925262451f, -0.16431774199008941650f, -0.10507018119096755981f, -0.11522072553634643555f, 0.13881340622901916504f, 0.17993897199630737305f, -0.15142753720283508301f, -0.063725329935550689697f, 0.061060413718223571777f, -0.12098480761051177979f, 0.021384093910455703735f, 0.050374221056699752808f, -0.0034840020816773176193f, 0.023560483008623123169f, 0.060205239802598953247f, 0.039611916989088058472f, -0.070178315043449401855f, -0.079331919550895690918f, 0.13873261213302612305f, -0.069414295256137847900f, -0.027985453605651855469f, 0.15819220244884490967f, 0.17041285336017608643f, 0.15987622737884521484f}
};
static const float tensor_fc2_bias[30] = 
{-0.15743021667003631592f, -0.046241439878940582275f, 0.018410492688417434692f, -0.17991840839385986328f, 0.12536902725696563721f, -0.11865706741809844971f, 0.060068819671869277954f, -0.12253822386264801025f, -0.095365464687347412109f, -0.16151022911071777344f, -0.012731885537505149841f, -0.17721797525882720947f, 0.072921343147754669189f, -0.091213181614875793457f, 0.17695483565330505371f, 0.13945427536964416504f, 0.040368255227804183960f, -0.086355440318584442139f, 0.10891097038984298706f, 0.041170280426740646362f, -0.076761394739151000977f, -0.14836591482162475586f, 0.16023777425289154053f, 0.0085558146238327026367f, 0.065801054239273071289f, 0.18163710832595825195f, -0.064824238419532775879f, 0.026860466226935386658f, 0.031128121539950370789f, 0.17819367349147796631f};
static const float tensor_fc3_weight[1][31] = 
{
  {0.093009747564792633057f, 0.017281047999858856201f, 0.12840002775192260742f, -0.16236354410648345947f, -0.15260809659957885742f, -0.12481439113616943359f, 0.027959445491433143616f, 0.10614426434040069580f, 0.10808362066745758057f, -0.12867464125156402588f, 0.023938914760947227478f, 0.15373563766479492188f, 0.058592818677425384521f, 0.015726251527667045593f, 0.10482352972030639648f, -0.074860461056232452393f, -0.10096555203199386597f, 0.12614370882511138916f, -0.017048185691237449646f, -0.12612389028072357178f, -0.0068562161177396774292f, -0.0064608473330736160278f, -0.15972986817359924316f, 0.059964790940284729004f, 0.13253730535507202148f, -0.070338532328605651855f, 0.055962286889553070068f, -0.039088342338800430298f, -0.011117657646536827087f, 0.0092722121626138687134f, -0.15933394432067871094f}
};
static const float tensor_fc3_bias[1] = 
{-0.15444560348987579346f};
union tensor_union_0 {
float tensor__conv1_Conv_output_0[1][3][508][508];
float tensor__pool_MaxPool_output_0[1][3][254][254];
float tensor__Relu_1_output_0[1][3][252][252];
float tensor__conv3_Conv_output_0[1][3][124][124];
float tensor__pool_2_MaxPool_output_0[1][3][62][62];
float tensor__Relu_3_output_0[1][3][60][60];
float tensor__conv5_Conv_output_0[1][3][28][28];
float tensor__pool_4_MaxPool_output_0[1][3][14][14];
float tensor__Relu_5_output_0[1][3][12][12];
float tensor__conv7_Conv_output_0[1][3][4][4];
float tensor__pool_6_MaxPool_output_0[1][3][2][2];
float tensor__fc1_Gemm_output_0[1][30];
float tensor__fc2_Gemm_output_0[1][30];
float tensor__Concat_output_0[1][31];
};
static union tensor_union_0 tu0;

union tensor_union_1 {
float tensor__Relu_output_0[1][3][508][508];
float tensor__conv2_Conv_output_0[1][3][252][252];
float tensor__pool_1_MaxPool_output_0[1][3][126][126];
float tensor__Relu_2_output_0[1][3][124][124];
float tensor__conv4_Conv_output_0[1][3][60][60];
float tensor__pool_3_MaxPool_output_0[1][3][30][30];
float tensor__Relu_4_output_0[1][3][28][28];
float tensor__conv6_Conv_output_0[1][3][12][12];
float tensor__pool_5_MaxPool_output_0[1][3][6][6];
float tensor__Relu_6_output_0[1][3][4][4];
float tensor__Flatten_output_0[1][12];
float tensor__Relu_7_output_0[1][30];
float tensor__Relu_8_output_0[1][30];
};
static union tensor_union_1 tu1;


/*
 * Operand:           Conv
 * Name in ONNX file: /conv1/Conv
 */
FUNC_PREFIX void node__conv1_Conv( const float x[1][1][512][512], const float w[3][1][5][5], const float bias[3], float y[1][3][508][508] )
{
	/* Conv
	 *
	 * auto_pad: NOTSET
	 * dilations: 1 1 
	 * group: 1
	 * kernel_shape: 5 5 
	 * pads: 0 0 0 0 
	 * strides: 1 1 
	 */
	for( uint32_t b=0; b<1; b++ ) {
	for( uint32_t m=0; m<3; m++) {
		for( int32_t o0=0, i0=0; o0<508; o0++, i0+=1) {
		for( int32_t o1=0, i1=0; o1<508; o1++, i1+=1) {
			y[b][m][o0][o1] = bias[m];
			for( int32_t c=0; c<1; c++ ) {
			for( uint32_t k0=0; k0<5; k0++ ) {
			for( uint32_t k1=0; k1<5; k1++ ) {
				int ii0 = i0+k0 * 1;
				if( ii0<0) continue;
				if( ii0>=512) continue;
				int ii1 = i1+k1 * 1;
				if( ii1<0) continue;
				if( ii1>=512) continue;
				y[b][m][o0][o1] += x[b][c][ii0][ii1] *w[m][c][k0][k1];
			} /* k */
			} /* k */
			} /* c */
		} /* o */
		} /* o */
	} /* m */
	} /* b */
}

/*
 * Operand:           Relu
 * Name in ONNX file: /Relu
 */
FUNC_PREFIX void node__Relu( const float X[1][3][508][508], float Y[1][3][508][508] )
{
	/*Relu*/
	float *X_ptr = (float*)X;
	float *Y_ptr = (float*)Y;
	uint32_t i;
	for( i=0; i<774192; i++ )
		Y_ptr[i] = X_ptr[i] > 0 ? X_ptr[i] : 0;

}

/*
 * Operand:           MaxPool
 * Name in ONNX file: /pool/MaxPool
 */
FUNC_PREFIX void node__pool_MaxPool( const float x[1][3][508][508], float y[1][3][254][254] )
{
	/* MaxPool
	 *
	 * auto_pad: NOTSET
	 * dilations: 1 1 
	 * group: 1
	 * kernel_shape: 2 2 
	 * pads: 0 0 0 0 
	 * strides: 2 2 
	 */
	for( uint32_t b=0; b<1; b++ ) {
	for( uint32_t m=0, c=0; m<3; m++, c=m) {
		for( int32_t o0=0, i0=0; o0<254; o0++, i0+=2) {
		for( int32_t o1=0, i1=0; o1<254; o1++, i1+=2) {
			float curmax = -FLT_MAX;
			for( uint32_t k0=0; k0<2; k0++ ) {
			for( uint32_t k1=0; k1<2; k1++ ) {
				int ii0 = i0+k0 * 1;
				if( ii0<0) continue;
				if( ii0>=508) continue;
				int ii1 = i1+k1 * 1;
				if( ii1<0) continue;
				if( ii1>=508) continue;
				if( curmax < x[b][c][ii0][ii1]) {
				curmax = MAX( curmax, x[b][c][ii0][ii1]);
				}
			} /* k */
			} /* k */
			y[b][m][o0][o1]= curmax;
		} /* o */
		} /* o */
	} /* m */
	} /* b */
}

/*
 * Operand:           Conv
 * Name in ONNX file: /conv2/Conv
 */
FUNC_PREFIX void node__conv2_Conv( const float x[1][3][254][254], const float w[3][3][3][3], const float bias[3], float y[1][3][252][252] )
{
	/* Conv
	 *
	 * auto_pad: NOTSET
	 * dilations: 1 1 
	 * group: 1
	 * kernel_shape: 3 3 
	 * pads: 0 0 0 0 
	 * strides: 1 1 
	 */
	for( uint32_t b=0; b<1; b++ ) {
	for( uint32_t m=0; m<3; m++) {
		for( int32_t o0=0, i0=0; o0<252; o0++, i0+=1) {
		for( int32_t o1=0, i1=0; o1<252; o1++, i1+=1) {
			y[b][m][o0][o1] = bias[m];
			for( int32_t c=0; c<3; c++ ) {
			for( uint32_t k0=0; k0<3; k0++ ) {
			for( uint32_t k1=0; k1<3; k1++ ) {
				int ii0 = i0+k0 * 1;
				if( ii0<0) continue;
				if( ii0>=254) continue;
				int ii1 = i1+k1 * 1;
				if( ii1<0) continue;
				if( ii1>=254) continue;
				y[b][m][o0][o1] += x[b][c][ii0][ii1] *w[m][c][k0][k1];
			} /* k */
			} /* k */
			} /* c */
		} /* o */
		} /* o */
	} /* m */
	} /* b */
}

/*
 * Operand:           Relu
 * Name in ONNX file: /Relu_1
 */
FUNC_PREFIX void node__Relu_1( const float X[1][3][252][252], float Y[1][3][252][252] )
{
	/*Relu*/
	float *X_ptr = (float*)X;
	float *Y_ptr = (float*)Y;
	uint32_t i;
	for( i=0; i<190512; i++ )
		Y_ptr[i] = X_ptr[i] > 0 ? X_ptr[i] : 0;

}

/*
 * Operand:           MaxPool
 * Name in ONNX file: /pool_1/MaxPool
 */
FUNC_PREFIX void node__pool_1_MaxPool( const float x[1][3][252][252], float y[1][3][126][126] )
{
	/* MaxPool
	 *
	 * auto_pad: NOTSET
	 * dilations: 1 1 
	 * group: 1
	 * kernel_shape: 2 2 
	 * pads: 0 0 0 0 
	 * strides: 2 2 
	 */
	for( uint32_t b=0; b<1; b++ ) {
	for( uint32_t m=0, c=0; m<3; m++, c=m) {
		for( int32_t o0=0, i0=0; o0<126; o0++, i0+=2) {
		for( int32_t o1=0, i1=0; o1<126; o1++, i1+=2) {
			float curmax = -FLT_MAX;
			for( uint32_t k0=0; k0<2; k0++ ) {
			for( uint32_t k1=0; k1<2; k1++ ) {
				int ii0 = i0+k0 * 1;
				if( ii0<0) continue;
				if( ii0>=252) continue;
				int ii1 = i1+k1 * 1;
				if( ii1<0) continue;
				if( ii1>=252) continue;
				if( curmax < x[b][c][ii0][ii1]) {
				curmax = MAX( curmax, x[b][c][ii0][ii1]);
				}
			} /* k */
			} /* k */
			y[b][m][o0][o1]= curmax;
		} /* o */
		} /* o */
	} /* m */
	} /* b */
}

/*
 * Operand:           Conv
 * Name in ONNX file: /conv3/Conv
 */
FUNC_PREFIX void node__conv3_Conv( const float x[1][3][126][126], const float w[3][3][3][3], const float bias[3], float y[1][3][124][124] )
{
	/* Conv
	 *
	 * auto_pad: NOTSET
	 * dilations: 1 1 
	 * group: 1
	 * kernel_shape: 3 3 
	 * pads: 0 0 0 0 
	 * strides: 1 1 
	 */
	for( uint32_t b=0; b<1; b++ ) {
	for( uint32_t m=0; m<3; m++) {
		for( int32_t o0=0, i0=0; o0<124; o0++, i0+=1) {
		for( int32_t o1=0, i1=0; o1<124; o1++, i1+=1) {
			y[b][m][o0][o1] = bias[m];
			for( int32_t c=0; c<3; c++ ) {
			for( uint32_t k0=0; k0<3; k0++ ) {
			for( uint32_t k1=0; k1<3; k1++ ) {
				int ii0 = i0+k0 * 1;
				if( ii0<0) continue;
				if( ii0>=126) continue;
				int ii1 = i1+k1 * 1;
				if( ii1<0) continue;
				if( ii1>=126) continue;
				y[b][m][o0][o1] += x[b][c][ii0][ii1] *w[m][c][k0][k1];
			} /* k */
			} /* k */
			} /* c */
		} /* o */
		} /* o */
	} /* m */
	} /* b */
}

/*
 * Operand:           Relu
 * Name in ONNX file: /Relu_2
 */
FUNC_PREFIX void node__Relu_2( const float X[1][3][124][124], float Y[1][3][124][124] )
{
	/*Relu*/
	float *X_ptr = (float*)X;
	float *Y_ptr = (float*)Y;
	uint32_t i;
	for( i=0; i<46128; i++ )
		Y_ptr[i] = X_ptr[i] > 0 ? X_ptr[i] : 0;

}

/*
 * Operand:           MaxPool
 * Name in ONNX file: /pool_2/MaxPool
 */
FUNC_PREFIX void node__pool_2_MaxPool( const float x[1][3][124][124], float y[1][3][62][62] )
{
	/* MaxPool
	 *
	 * auto_pad: NOTSET
	 * dilations: 1 1 
	 * group: 1
	 * kernel_shape: 2 2 
	 * pads: 0 0 0 0 
	 * strides: 2 2 
	 */
	for( uint32_t b=0; b<1; b++ ) {
	for( uint32_t m=0, c=0; m<3; m++, c=m) {
		for( int32_t o0=0, i0=0; o0<62; o0++, i0+=2) {
		for( int32_t o1=0, i1=0; o1<62; o1++, i1+=2) {
			float curmax = -FLT_MAX;
			for( uint32_t k0=0; k0<2; k0++ ) {
			for( uint32_t k1=0; k1<2; k1++ ) {
				int ii0 = i0+k0 * 1;
				if( ii0<0) continue;
				if( ii0>=124) continue;
				int ii1 = i1+k1 * 1;
				if( ii1<0) continue;
				if( ii1>=124) continue;
				if( curmax < x[b][c][ii0][ii1]) {
				curmax = MAX( curmax, x[b][c][ii0][ii1]);
				}
			} /* k */
			} /* k */
			y[b][m][o0][o1]= curmax;
		} /* o */
		} /* o */
	} /* m */
	} /* b */
}

/*
 * Operand:           Conv
 * Name in ONNX file: /conv4/Conv
 */
FUNC_PREFIX void node__conv4_Conv( const float x[1][3][62][62], const float w[3][3][3][3], const float bias[3], float y[1][3][60][60] )
{
	/* Conv
	 *
	 * auto_pad: NOTSET
	 * dilations: 1 1 
	 * group: 1
	 * kernel_shape: 3 3 
	 * pads: 0 0 0 0 
	 * strides: 1 1 
	 */
	for( uint32_t b=0; b<1; b++ ) {
	for( uint32_t m=0; m<3; m++) {
		for( int32_t o0=0, i0=0; o0<60; o0++, i0+=1) {
		for( int32_t o1=0, i1=0; o1<60; o1++, i1+=1) {
			y[b][m][o0][o1] = bias[m];
			for( int32_t c=0; c<3; c++ ) {
			for( uint32_t k0=0; k0<3; k0++ ) {
			for( uint32_t k1=0; k1<3; k1++ ) {
				int ii0 = i0+k0 * 1;
				if( ii0<0) continue;
				if( ii0>=62) continue;
				int ii1 = i1+k1 * 1;
				if( ii1<0) continue;
				if( ii1>=62) continue;
				y[b][m][o0][o1] += x[b][c][ii0][ii1] *w[m][c][k0][k1];
			} /* k */
			} /* k */
			} /* c */
		} /* o */
		} /* o */
	} /* m */
	} /* b */
}

/*
 * Operand:           Relu
 * Name in ONNX file: /Relu_3
 */
FUNC_PREFIX void node__Relu_3( const float X[1][3][60][60], float Y[1][3][60][60] )
{
	/*Relu*/
	float *X_ptr = (float*)X;
	float *Y_ptr = (float*)Y;
	uint32_t i;
	for( i=0; i<10800; i++ )
		Y_ptr[i] = X_ptr[i] > 0 ? X_ptr[i] : 0;

}

/*
 * Operand:           MaxPool
 * Name in ONNX file: /pool_3/MaxPool
 */
FUNC_PREFIX void node__pool_3_MaxPool( const float x[1][3][60][60], float y[1][3][30][30] )
{
	/* MaxPool
	 *
	 * auto_pad: NOTSET
	 * dilations: 1 1 
	 * group: 1
	 * kernel_shape: 2 2 
	 * pads: 0 0 0 0 
	 * strides: 2 2 
	 */
	for( uint32_t b=0; b<1; b++ ) {
	for( uint32_t m=0, c=0; m<3; m++, c=m) {
		for( int32_t o0=0, i0=0; o0<30; o0++, i0+=2) {
		for( int32_t o1=0, i1=0; o1<30; o1++, i1+=2) {
			float curmax = -FLT_MAX;
			for( uint32_t k0=0; k0<2; k0++ ) {
			for( uint32_t k1=0; k1<2; k1++ ) {
				int ii0 = i0+k0 * 1;
				if( ii0<0) continue;
				if( ii0>=60) continue;
				int ii1 = i1+k1 * 1;
				if( ii1<0) continue;
				if( ii1>=60) continue;
				if( curmax < x[b][c][ii0][ii1]) {
				curmax = MAX( curmax, x[b][c][ii0][ii1]);
				}
			} /* k */
			} /* k */
			y[b][m][o0][o1]= curmax;
		} /* o */
		} /* o */
	} /* m */
	} /* b */
}

/*
 * Operand:           Conv
 * Name in ONNX file: /conv5/Conv
 */
FUNC_PREFIX void node__conv5_Conv( const float x[1][3][30][30], const float w[3][3][3][3], const float bias[3], float y[1][3][28][28] )
{
	/* Conv
	 *
	 * auto_pad: NOTSET
	 * dilations: 1 1 
	 * group: 1
	 * kernel_shape: 3 3 
	 * pads: 0 0 0 0 
	 * strides: 1 1 
	 */
	for( uint32_t b=0; b<1; b++ ) {
	for( uint32_t m=0; m<3; m++) {
		for( int32_t o0=0, i0=0; o0<28; o0++, i0+=1) {
		for( int32_t o1=0, i1=0; o1<28; o1++, i1+=1) {
			y[b][m][o0][o1] = bias[m];
			for( int32_t c=0; c<3; c++ ) {
			for( uint32_t k0=0; k0<3; k0++ ) {
			for( uint32_t k1=0; k1<3; k1++ ) {
				int ii0 = i0+k0 * 1;
				if( ii0<0) continue;
				if( ii0>=30) continue;
				int ii1 = i1+k1 * 1;
				if( ii1<0) continue;
				if( ii1>=30) continue;
				y[b][m][o0][o1] += x[b][c][ii0][ii1] *w[m][c][k0][k1];
			} /* k */
			} /* k */
			} /* c */
		} /* o */
		} /* o */
	} /* m */
	} /* b */
}

/*
 * Operand:           Relu
 * Name in ONNX file: /Relu_4
 */
FUNC_PREFIX void node__Relu_4( const float X[1][3][28][28], float Y[1][3][28][28] )
{
	/*Relu*/
	float *X_ptr = (float*)X;
	float *Y_ptr = (float*)Y;
	uint32_t i;
	for( i=0; i<2352; i++ )
		Y_ptr[i] = X_ptr[i] > 0 ? X_ptr[i] : 0;

}

/*
 * Operand:           MaxPool
 * Name in ONNX file: /pool_4/MaxPool
 */
FUNC_PREFIX void node__pool_4_MaxPool( const float x[1][3][28][28], float y[1][3][14][14] )
{
	/* MaxPool
	 *
	 * auto_pad: NOTSET
	 * dilations: 1 1 
	 * group: 1
	 * kernel_shape: 2 2 
	 * pads: 0 0 0 0 
	 * strides: 2 2 
	 */
	for( uint32_t b=0; b<1; b++ ) {
	for( uint32_t m=0, c=0; m<3; m++, c=m) {
		for( int32_t o0=0, i0=0; o0<14; o0++, i0+=2) {
		for( int32_t o1=0, i1=0; o1<14; o1++, i1+=2) {
			float curmax = -FLT_MAX;
			for( uint32_t k0=0; k0<2; k0++ ) {
			for( uint32_t k1=0; k1<2; k1++ ) {
				int ii0 = i0+k0 * 1;
				if( ii0<0) continue;
				if( ii0>=28) continue;
				int ii1 = i1+k1 * 1;
				if( ii1<0) continue;
				if( ii1>=28) continue;
				if( curmax < x[b][c][ii0][ii1]) {
				curmax = MAX( curmax, x[b][c][ii0][ii1]);
				}
			} /* k */
			} /* k */
			y[b][m][o0][o1]= curmax;
		} /* o */
		} /* o */
	} /* m */
	} /* b */
}

/*
 * Operand:           Conv
 * Name in ONNX file: /conv6/Conv
 */
FUNC_PREFIX void node__conv6_Conv( const float x[1][3][14][14], const float w[3][3][3][3], const float bias[3], float y[1][3][12][12] )
{
	/* Conv
	 *
	 * auto_pad: NOTSET
	 * dilations: 1 1 
	 * group: 1
	 * kernel_shape: 3 3 
	 * pads: 0 0 0 0 
	 * strides: 1 1 
	 */
	for( uint32_t b=0; b<1; b++ ) {
	for( uint32_t m=0; m<3; m++) {
		for( int32_t o0=0, i0=0; o0<12; o0++, i0+=1) {
		for( int32_t o1=0, i1=0; o1<12; o1++, i1+=1) {
			y[b][m][o0][o1] = bias[m];
			for( int32_t c=0; c<3; c++ ) {
			for( uint32_t k0=0; k0<3; k0++ ) {
			for( uint32_t k1=0; k1<3; k1++ ) {
				int ii0 = i0+k0 * 1;
				if( ii0<0) continue;
				if( ii0>=14) continue;
				int ii1 = i1+k1 * 1;
				if( ii1<0) continue;
				if( ii1>=14) continue;
				y[b][m][o0][o1] += x[b][c][ii0][ii1] *w[m][c][k0][k1];
			} /* k */
			} /* k */
			} /* c */
		} /* o */
		} /* o */
	} /* m */
	} /* b */
}

/*
 * Operand:           Relu
 * Name in ONNX file: /Relu_5
 */
FUNC_PREFIX void node__Relu_5( const float X[1][3][12][12], float Y[1][3][12][12] )
{
	/*Relu*/
	float *X_ptr = (float*)X;
	float *Y_ptr = (float*)Y;
	uint32_t i;
	for( i=0; i<432; i++ )
		Y_ptr[i] = X_ptr[i] > 0 ? X_ptr[i] : 0;

}

/*
 * Operand:           MaxPool
 * Name in ONNX file: /pool_5/MaxPool
 */
FUNC_PREFIX void node__pool_5_MaxPool( const float x[1][3][12][12], float y[1][3][6][6] )
{
	/* MaxPool
	 *
	 * auto_pad: NOTSET
	 * dilations: 1 1 
	 * group: 1
	 * kernel_shape: 2 2 
	 * pads: 0 0 0 0 
	 * strides: 2 2 
	 */
	for( uint32_t b=0; b<1; b++ ) {
	for( uint32_t m=0, c=0; m<3; m++, c=m) {
		for( int32_t o0=0, i0=0; o0<6; o0++, i0+=2) {
		for( int32_t o1=0, i1=0; o1<6; o1++, i1+=2) {
			float curmax = -FLT_MAX;
			for( uint32_t k0=0; k0<2; k0++ ) {
			for( uint32_t k1=0; k1<2; k1++ ) {
				int ii0 = i0+k0 * 1;
				if( ii0<0) continue;
				if( ii0>=12) continue;
				int ii1 = i1+k1 * 1;
				if( ii1<0) continue;
				if( ii1>=12) continue;
				if( curmax < x[b][c][ii0][ii1]) {
				curmax = MAX( curmax, x[b][c][ii0][ii1]);
				}
			} /* k */
			} /* k */
			y[b][m][o0][o1]= curmax;
		} /* o */
		} /* o */
	} /* m */
	} /* b */
}

/*
 * Operand:           Conv
 * Name in ONNX file: /conv7/Conv
 */
FUNC_PREFIX void node__conv7_Conv( const float x[1][3][6][6], const float w[3][3][3][3], const float bias[3], float y[1][3][4][4] )
{
	/* Conv
	 *
	 * auto_pad: NOTSET
	 * dilations: 1 1 
	 * group: 1
	 * kernel_shape: 3 3 
	 * pads: 0 0 0 0 
	 * strides: 1 1 
	 */
	for( uint32_t b=0; b<1; b++ ) {
	for( uint32_t m=0; m<3; m++) {
		for( int32_t o0=0, i0=0; o0<4; o0++, i0+=1) {
		for( int32_t o1=0, i1=0; o1<4; o1++, i1+=1) {
			y[b][m][o0][o1] = bias[m];
			for( int32_t c=0; c<3; c++ ) {
			for( uint32_t k0=0; k0<3; k0++ ) {
			for( uint32_t k1=0; k1<3; k1++ ) {
				int ii0 = i0+k0 * 1;
				if( ii0<0) continue;
				if( ii0>=6) continue;
				int ii1 = i1+k1 * 1;
				if( ii1<0) continue;
				if( ii1>=6) continue;
				y[b][m][o0][o1] += x[b][c][ii0][ii1] *w[m][c][k0][k1];
			} /* k */
			} /* k */
			} /* c */
		} /* o */
		} /* o */
	} /* m */
	} /* b */
}

/*
 * Operand:           Relu
 * Name in ONNX file: /Relu_6
 */
FUNC_PREFIX void node__Relu_6( const float X[1][3][4][4], float Y[1][3][4][4] )
{
	/*Relu*/
	float *X_ptr = (float*)X;
	float *Y_ptr = (float*)Y;
	uint32_t i;
	for( i=0; i<48; i++ )
		Y_ptr[i] = X_ptr[i] > 0 ? X_ptr[i] : 0;

}

/*
 * Operand:           MaxPool
 * Name in ONNX file: /pool_6/MaxPool
 */
FUNC_PREFIX void node__pool_6_MaxPool( const float x[1][3][4][4], float y[1][3][2][2] )
{
	/* MaxPool
	 *
	 * auto_pad: NOTSET
	 * dilations: 1 1 
	 * group: 1
	 * kernel_shape: 2 2 
	 * pads: 0 0 0 0 
	 * strides: 2 2 
	 */
	for( uint32_t b=0; b<1; b++ ) {
	for( uint32_t m=0, c=0; m<3; m++, c=m) {
		for( int32_t o0=0, i0=0; o0<2; o0++, i0+=2) {
		for( int32_t o1=0, i1=0; o1<2; o1++, i1+=2) {
			float curmax = -FLT_MAX;
			for( uint32_t k0=0; k0<2; k0++ ) {
			for( uint32_t k1=0; k1<2; k1++ ) {
				int ii0 = i0+k0 * 1;
				if( ii0<0) continue;
				if( ii0>=4) continue;
				int ii1 = i1+k1 * 1;
				if( ii1<0) continue;
				if( ii1>=4) continue;
				if( curmax < x[b][c][ii0][ii1]) {
				curmax = MAX( curmax, x[b][c][ii0][ii1]);
				}
			} /* k */
			} /* k */
			y[b][m][o0][o1]= curmax;
		} /* o */
		} /* o */
	} /* m */
	} /* b */
}

/*
 * Operand:           Flatten
 * Name in ONNX file: /Flatten
 */
FUNC_PREFIX void node__Flatten( const float input[1][3][2][2], float output[1][12] )
{
	/* Flatten*/
	float *input_ = (float*)input;
	float *output_ = (float*)output;
	for( uint32_t i=0; i<12; i++ )
		output_[i] = input_[i];

}

/*
 * Operand:           Gemm
 * Name in ONNX file: /fc1/Gemm
 */
FUNC_PREFIX void node__fc1_Gemm( const float A[1][12], const float B[30][12], const float C[30], float Y[1][30] )
{
	/* Gemm */
	/* alpha   = 1.0000000000000000000
	   beta    = 1.0000000000000000000
	   transA  = 0
	   transB  = 1
	 */
	const int M = 1;
	const int K = 12;
	const int N = 30;
	float alpha = 1.0000000000000000000;
	float beta = 1.0000000000000000000;
	float (*C_)[30]  = (float(*)[30])C;
	for( uint32_t r=0; r<M; r++ )
		for( uint32_t c=0; c<N; c++ ) {
			float ABrc = 0;
			for( uint32_t i=0; i<K; i++ ) {
				float B_el = B[c][i];
				ABrc += A[r][i] * B_el;
			}
			float tmp = ABrc * alpha;
			tmp += C_[0][c] * beta;
			Y[r][c] = tmp;
	}
}

/*
 * Operand:           Relu
 * Name in ONNX file: /Relu_7
 */
FUNC_PREFIX void node__Relu_7( const float X[1][30], float Y[1][30] )
{
	/*Relu*/
	float *X_ptr = (float*)X;
	float *Y_ptr = (float*)Y;
	uint32_t i;
	for( i=0; i<30; i++ )
		Y_ptr[i] = X_ptr[i] > 0 ? X_ptr[i] : 0;

}

/*
 * Operand:           Gemm
 * Name in ONNX file: /fc2/Gemm
 */
FUNC_PREFIX void node__fc2_Gemm( const float A[1][30], const float B[30][30], const float C[30], float Y[1][30] )
{
	/* Gemm */
	/* alpha   = 1.0000000000000000000
	   beta    = 1.0000000000000000000
	   transA  = 0
	   transB  = 1
	 */
	const int M = 1;
	const int K = 30;
	const int N = 30;
	float alpha = 1.0000000000000000000;
	float beta = 1.0000000000000000000;
	float (*C_)[30]  = (float(*)[30])C;
	for( uint32_t r=0; r<M; r++ )
		for( uint32_t c=0; c<N; c++ ) {
			float ABrc = 0;
			for( uint32_t i=0; i<K; i++ ) {
				float B_el = B[c][i];
				ABrc += A[r][i] * B_el;
			}
			float tmp = ABrc * alpha;
			tmp += C_[0][c] * beta;
			Y[r][c] = tmp;
	}
}

/*
 * Operand:           Relu
 * Name in ONNX file: /Relu_8
 */
FUNC_PREFIX void node__Relu_8( const float X[1][30], float Y[1][30] )
{
	/*Relu*/
	float *X_ptr = (float*)X;
	float *Y_ptr = (float*)Y;
	uint32_t i;
	for( i=0; i<30; i++ )
		Y_ptr[i] = X_ptr[i] > 0 ? X_ptr[i] : 0;

}

/*
 * Operand:           Concat
 * Name in ONNX file: /Concat
 */
FUNC_PREFIX void node__Concat( const float input_0[1][30], const float input_1[1][1], float output[1][31] )
{
	/* Concat */
	int64_t outputOffset;
	outputOffset = 0;
	for (int64_t i = 0, j = 0; i < 30; i++) {
		*((float*)output + (outputOffset + i)) = *((float*)input_0 + i);
		if (++j == 30) {
			outputOffset += (1);
			j = 0;
		}
	}
	outputOffset = 30;
	for (int64_t i = 0, j = 0; i < 1; i++) {
		*((float*)output + (outputOffset + i)) = *((float*)input_1 + i);
		if (++j == 1) {
			outputOffset += (30);
			j = 0;
		}
	}
}

/*
 * Operand:           Gemm
 * Name in ONNX file: /fc3/Gemm
 */
FUNC_PREFIX void node__fc3_Gemm( const float A[1][31], const float B[1][31], const float C[1], float Y[1][1] )
{
	/* Gemm */
	/* alpha   = 1.0000000000000000000
	   beta    = 1.0000000000000000000
	   transA  = 0
	   transB  = 1
	 */
	const int M = 1;
	const int K = 31;
	const int N = 1;
	float alpha = 1.0000000000000000000;
	float beta = 1.0000000000000000000;
	float (*C_)[1]  = (float(*)[1])C;
	for( uint32_t r=0; r<M; r++ )
		for( uint32_t c=0; c<N; c++ ) {
			float ABrc = 0;
			for( uint32_t i=0; i<K; i++ ) {
				float B_el = B[c][i];
				ABrc += A[r][i] * B_el;
			}
			float tmp = ABrc * alpha;
			tmp += C_[0][0] * beta;
			Y[r][c] = tmp;
	}
}


void entry(const float tensor_input[1][1][512][512], const float tensor_onnx__Concat_1[1][1], float tensor_output[1][1]){
	node__conv1_Conv( tensor_input, tensor_conv1_weight, tensor_conv1_bias, tu0.tensor__conv1_Conv_output_0);
	node__Relu( tu0.tensor__conv1_Conv_output_0, tu1.tensor__Relu_output_0);
	node__pool_MaxPool( tu1.tensor__Relu_output_0, tu0.tensor__pool_MaxPool_output_0);
	node__conv2_Conv( tu0.tensor__pool_MaxPool_output_0, tensor_conv2_weight, tensor_conv2_bias, tu1.tensor__conv2_Conv_output_0);
	node__Relu_1( tu1.tensor__conv2_Conv_output_0, tu0.tensor__Relu_1_output_0);
	node__pool_1_MaxPool( tu0.tensor__Relu_1_output_0, tu1.tensor__pool_1_MaxPool_output_0);
	node__conv3_Conv( tu1.tensor__pool_1_MaxPool_output_0, tensor_conv3_weight, tensor_conv3_bias, tu0.tensor__conv3_Conv_output_0);
	node__Relu_2( tu0.tensor__conv3_Conv_output_0, tu1.tensor__Relu_2_output_0);
	node__pool_2_MaxPool( tu1.tensor__Relu_2_output_0, tu0.tensor__pool_2_MaxPool_output_0);
	node__conv4_Conv( tu0.tensor__pool_2_MaxPool_output_0, tensor_conv4_weight, tensor_conv4_bias, tu1.tensor__conv4_Conv_output_0);
	node__Relu_3( tu1.tensor__conv4_Conv_output_0, tu0.tensor__Relu_3_output_0);
	node__pool_3_MaxPool( tu0.tensor__Relu_3_output_0, tu1.tensor__pool_3_MaxPool_output_0);
	node__conv5_Conv( tu1.tensor__pool_3_MaxPool_output_0, tensor_conv5_weight, tensor_conv5_bias, tu0.tensor__conv5_Conv_output_0);
	node__Relu_4( tu0.tensor__conv5_Conv_output_0, tu1.tensor__Relu_4_output_0);
	node__pool_4_MaxPool( tu1.tensor__Relu_4_output_0, tu0.tensor__pool_4_MaxPool_output_0);
	node__conv6_Conv( tu0.tensor__pool_4_MaxPool_output_0, tensor_conv6_weight, tensor_conv6_bias, tu1.tensor__conv6_Conv_output_0);
	node__Relu_5( tu1.tensor__conv6_Conv_output_0, tu0.tensor__Relu_5_output_0);
	node__pool_5_MaxPool( tu0.tensor__Relu_5_output_0, tu1.tensor__pool_5_MaxPool_output_0);
	node__conv7_Conv( tu1.tensor__pool_5_MaxPool_output_0, tensor_conv7_weight, tensor_conv7_bias, tu0.tensor__conv7_Conv_output_0);
	node__Relu_6( tu0.tensor__conv7_Conv_output_0, tu1.tensor__Relu_6_output_0);
	node__pool_6_MaxPool( tu1.tensor__Relu_6_output_0, tu0.tensor__pool_6_MaxPool_output_0);
	node__Flatten( tu0.tensor__pool_6_MaxPool_output_0, tu1.tensor__Flatten_output_0);
	node__fc1_Gemm( tu1.tensor__Flatten_output_0, tensor_fc1_weight, tensor_fc1_bias, tu0.tensor__fc1_Gemm_output_0);
	node__Relu_7( tu0.tensor__fc1_Gemm_output_0, tu1.tensor__Relu_7_output_0);
	node__fc2_Gemm( tu1.tensor__Relu_7_output_0, tensor_fc2_weight, tensor_fc2_bias, tu0.tensor__fc2_Gemm_output_0);
	node__Relu_8( tu0.tensor__fc2_Gemm_output_0, tu1.tensor__Relu_8_output_0);
	node__Concat( tu1.tensor__Relu_8_output_0, tensor_onnx__Concat_1, tu0.tensor__Concat_output_0);
	node__fc3_Gemm( tu0.tensor__Concat_output_0, tensor_fc3_weight, tensor_fc3_bias, tensor_output);
}
