// This file is computer-generated by onnx2c 
// (TODO: add creating command line here)
// (TODO: print creation date here )

// ONNX model:
// produced by pytorch, version 2.6.0
// ONNX IR version: 17
// Model documentation: 
/*

*/

#include <float.h>
#include <math.h>
#include <stdbool.h>
#include <stdint.h>
#include <string.h>

#define MAX(X,Y) ( X > Y ? X : Y)
#define MIN(X,Y) ( X < Y ? X : Y)
#define CLIP(X,L) ( MAX(MIN(X,L), -L) )

#if __STDC_VERSION__ < 199901L
#define FUNC_PREFIX
#else
#define FUNC_PREFIX static inline
#endif

static const float tensor_conv1_weight[3][1][5][5] = 
{
  {
    {
      {-0.071227148175239562988f, 0.083733968436717987061f, -0.16075085103511810303f, -0.060335516929626464844f, 0.095500707626342773438f},
      {-0.0052169561386108398438f, -0.12898659706115722656f, -0.13387687504291534424f, 0.16626158356666564941f, 0.016005683690309524536f},
      {0.034379888325929641724f, 0.18515534698963165283f, -0.11577244102954864502f, -0.12804351747035980225f, 0.10823247581720352173f},
      {-0.0017159223789349198341f, 0.042212702333927154541f, 0.046087052673101425171f, 0.15152458846569061279f, -0.0027438402175903320312f},
      {0.087896011769771575928f, 0.062911175191402435303f, -0.033724974840879440308f, -0.060783743858337402344f, -0.033441733568906784058f}
    }
  },
  {
    {
      {-0.11764547973871231079f, -0.10380616039037704468f, -0.053594589233398437500f, 0.0065836668945848941803f, -0.080302260816097259521f},
      {-0.089497685432434082031f, 0.031888127326965332031f, -0.067923761904239654541f, -0.081980183720588684082f, -0.011232924647629261017f},
      {-0.15437264740467071533f, -0.19778469204902648926f, -0.082018375396728515625f, -0.078722573816776275635f, 0.18603797256946563721f},
      {0.0012489318614825606346f, 0.034947585314512252808f, -0.072093032300472259521f, 0.18681989610195159912f, -0.14598630368709564209f},
      {-0.18113346397876739502f, 0.13302950561046600342f, 0.086344577372074127197f, -0.15882192552089691162f, 0.055142309516668319702f}
    }
  },
  {
    {
      {0.16230225563049316406f, 0.18228867650032043457f, -0.034354161471128463745f, 0.10617401450872421265f, -0.17061641812324523926f},
      {0.10936005413532257080f, -0.098533056676387786865f, -0.029304409399628639221f, -0.023736810311675071716f, -0.12518647313117980957f},
      {-0.15986219048500061035f, 0.17214186489582061768f, -0.13740468025207519531f, 0.091210536658763885498f, 0.19256737828254699707f},
      {0.18352834880352020264f, 0.13498751819133758545f, -0.16633358597755432129f, 0.012844395823776721954f, 0.0046560764312744140625f},
      {-0.040272045880556106567f, -0.018926072865724563599f, 0.16290788352489471436f, -0.11152567714452743530f, -0.14713208377361297607f}
    }
  }
};
static const float tensor_conv1_bias[3] = 
{-0.18751929700374603271f, 0.13817217946052551270f, 0.042619016021490097046f};
static const float tensor_conv2_weight[3][3][3][3] = 
{
  {
    {
      {-0.015782127156853675842f, -0.088752776384353637695f, 0.15262976288795471191f},
      {0.015609695576131343842f, 0.091964744031429290771f, -0.14198729395866394043f},
      {0.032161932438611984253f, 0.095504261553287506104f, -0.19037722051143646240f}
    },
    {
      {-0.028436684980988502502f, 0.19203913211822509766f, -0.071445196866989135742f},
      {0.0010848048841580748558f, 0.042788706719875335693f, 0.16736204922199249268f},
      {0.015348204411566257477f, 0.066468589007854461670f, 0.18529358506202697754f}
    },
    {
      {0.14810030162334442139f, -0.081601455807685852051f, -0.11675865948200225830f},
      {-0.025684282183647155762f, 0.029549408704042434692f, 0.065587870776653289795f},
      {-0.10847096145153045654f, -0.18048436939716339111f, 0.041157312691211700439f}
    }
  },
  {
    {
      {0.0040262928232550621033f, 0.061039857566356658936f, -0.12073681503534317017f},
      {-0.069359920918941497803f, -0.11538742482662200928f, -0.0042260931804776191711f},
      {0.015298443846404552460f, -0.066749118268489837646f, -0.048658907413482666016f}
    },
    {
      {0.16012713313102722168f, 0.097152538597583770752f, 0.00083517469465732574463f},
      {0.093976013362407684326f, -0.068303361535072326660f, -0.15385763347148895264f},
      {-0.057722721248865127563f, 0.041575819253921508789f, -0.097732692956924438477f}
    },
    {
      {0.042278688400983810425f, 0.17158970236778259277f, 0.17067199945449829102f},
      {-0.029002912342548370361f, 0.14895686507225036621f, -0.081305943429470062256f},
      {-0.10576474666595458984f, -0.039753112941980361938f, 0.16347393393516540527f}
    }
  },
  {
    {
      {0.18918836116790771484f, 0.13555866479873657227f, 0.11011695116758346558f},
      {-0.16559848189353942871f, 0.019539907574653625488f, -0.14867123961448669434f},
      {-0.0046997964382171630859f, -0.15231698751449584961f, 0.00073425355367362499237f}
    },
    {
      {-0.087662830948829650879f, 0.17035397887229919434f, 0.048899266868829727173f},
      {0.10687542706727981567f, -0.16446223855018615723f, -0.12663954496383666992f},
      {0.14025594294071197510f, 0.015731768682599067688f, -0.16526524722576141357f}
    },
    {
      {-0.063485324382781982422f, 0.087729476392269134521f, 0.073795564472675323486f},
      {0.088345922529697418213f, 0.0089452294632792472839f, 0.041930638253688812256f},
      {0.14419698715209960938f, -0.099137738347053527832f, -0.14839015901088714600f}
    }
  }
};
static const float tensor_conv2_bias[3] = 
{0.043232772499322891235f, 0.00024391763145104050636f, -0.13053250312805175781f};
static const float tensor_conv3_weight[3][3][3][3] = 
{
  {
    {
      {-0.10137255489826202393f, 0.019612129777669906616f, 0.13965412974357604980f},
      {0.14550812542438507080f, -0.049579974263906478882f, -0.15738712251186370850f},
      {-0.059476118534803390503f, 0.14904007315635681152f, -0.16241809725761413574f}
    },
    {
      {-0.13487997651100158691f, -0.079120181500911712646f, -0.094070442020893096924f},
      {-0.16077378392219543457f, 0.18007285892963409424f, 0.17982295155525207520f},
      {0.064116425812244415283f, 0.10561433434486389160f, 0.15280945599079132080f}
    },
    {
      {-0.17966824769973754883f, -0.080518372356891632080f, -0.13045220077037811279f},
      {-0.086464785039424896240f, 0.13679081201553344727f, 0.10936821997165679932f},
      {-0.064208857715129852295f, -0.019444700330495834351f, 0.056563470512628555298f}
    }
  },
  {
    {
      {0.12450426071882247925f, -0.14170733094215393066f, -0.14428079128265380859f},
      {0.093216016888618469238f, -0.082950212061405181885f, -0.052538324147462844849f},
      {-0.16788853704929351807f, -0.13576041162014007568f, 0.17255176603794097900f}
    },
    {
      {0.028716918081045150757f, -0.16255466639995574951f, -0.036213118582963943481f},
      {-0.0099515039473772048950f, 0.076719574630260467529f, -0.16478654742240905762f},
      {0.10576279461383819580f, 0.17019671201705932617f, -0.029331874102354049683f}
    },
    {
      {0.11523352563381195068f, -0.098678812384605407715f, -0.10834319889545440674f},
      {0.14217057824134826660f, -0.16685390472412109375f, -0.019302988424897193909f},
      {-0.10898717492818832397f, 0.065823577344417572021f, 0.14712701737880706787f}
    }
  },
  {
    {
      {0.18549598753452301025f, 0.12572462856769561768f, -0.058486890047788619995f},
      {-0.18744465708732604980f, 0.070245206356048583984f, 0.12864674627780914307f},
      {-0.16943204402923583984f, 0.17510151863098144531f, 0.068139947950839996338f}
    },
    {
      {-0.17320092022418975830f, -0.098934248089790344238f, -0.062573775649070739746f},
      {0.036480437964200973511f, 0.067724168300628662109f, 0.12145003676414489746f},
      {-0.12992545962333679199f, -0.11210288852453231812f, -0.045290056616067886353f}
    },
    {
      {0.17315691709518432617f, 0.021423960104584693909f, 0.0038724218029528856277f},
      {-0.13772077858448028564f, -0.054021790623664855957f, -0.12891884148120880127f},
      {0.0076097850687801837921f, 0.078456111252307891846f, 0.059569057077169418335f}
    }
  }
};
static const float tensor_conv3_bias[3] = 
{-0.016461411491036415100f, -0.16149267554283142090f, -0.094697989523410797119f};
static const float tensor_conv4_weight[3][3][3][3] = 
{
  {
    {
      {0.15918731689453125000f, -0.13675430417060852051f, 0.020377606153488159180f},
      {-0.12933771312236785889f, -0.14458291232585906982f, 0.023029729723930358887f},
      {-0.068723700940608978271f, 0.17951017618179321289f, 0.18564496934413909912f}
    },
    {
      {0.068251051008701324463f, -0.18768124282360076904f, 0.021285392343997955322f},
      {0.11656094342470169067f, -0.16964156925678253174f, -0.079413354396820068359f},
      {-0.086342826485633850098f, 0.038067348301410675049f, -0.11993729323148727417f}
    },
    {
      {-0.031537871807813644409f, 0.17031519114971160889f, 0.12665161490440368652f},
      {0.092896848917007446289f, -0.032767895609140396118f, 0.044653650373220443726f},
      {-0.15928290784358978271f, -0.012412819080054759979f, 0.052343066781759262085f}
    }
  },
  {
    {
      {-0.072934262454509735107f, -0.13698469102382659912f, -0.026777209714055061340f},
      {0.029015094041824340820f, 0.17265602946281433105f, 0.083538874983787536621f},
      {-0.080854125320911407471f, -0.13104712963104248047f, -0.011231934651732444763f}
    },
    {
      {0.093293815851211547852f, 0.019322419539093971252f, 0.18844704329967498779f},
      {0.086285263299942016602f, -0.054939441382884979248f, 0.18909576535224914551f},
      {-0.0012074519181624054909f, -0.021061502397060394287f, 0.048104606568813323975f}
    },
    {
      {0.16565337777137756348f, -0.13456238806247711182f, -0.096593655645847320557f},
      {-0.19206987321376800537f, -0.15009129047393798828f, 0.11287533491849899292f},
      {0.13308747112751007080f, -0.18497499823570251465f, 0.051672935485839843750f}
    }
  },
  {
    {
      {0.14775668084621429443f, -0.038575485348701477051f, 0.070417568087577819824f},
      {-0.17187662422657012939f, 0.029696190729737281799f, -0.18876102566719055176f},
      {-0.080992490053176879883f, -0.093488335609436035156f, -0.13347309827804565430f}
    },
    {
      {0.054807707667350769043f, -0.14181838929653167725f, 0.032919589430093765259f},
      {-0.019014723598957061768f, 0.19115704298019409180f, 0.0016235250514000654221f},
      {0.012534709647297859192f, -0.042502831667661666870f, 0.17996773123741149902f}
    },
    {
      {0.15477254986763000488f, 0.13555367290973663330f, -0.17288863658905029297f},
      {-0.17951954901218414307f, 0.18037404119968414307f, 0.064207136631011962891f},
      {0.18082430958747863770f, -0.051720816642045974731f, 0.10506793111562728882f}
    }
  }
};
static const float tensor_conv4_bias[3] = 
{-0.15810494124889373779f, -0.032792698591947555542f, 0.0027859881520271301270f};
static const float tensor_conv5_weight[3][3][3][3] = 
{
  {
    {
      {-0.018017236143350601196f, -0.17112967371940612793f, 0.14657941460609436035f},
      {0.00054401980014517903328f, -0.097656801342964172363f, 0.083041563630104064941f},
      {0.13502231240272521973f, -0.11420385539531707764f, -0.16190224885940551758f}
    },
    {
      {0.074733294546604156494f, -0.072636909782886505127f, -0.11055903881788253784f},
      {0.11685685068368911743f, -0.17840686440467834473f, 0.047912448644638061523f},
      {-0.054711446166038513184f, -0.14200569689273834229f, -0.17919638752937316895f}
    },
    {
      {0.048769049346446990967f, -0.064602360129356384277f, -0.088226489722728729248f},
      {0.13104616105556488037f, -0.19053371250629425049f, -0.042388211935758590698f},
      {-0.080592498183250427246f, -0.12950213253498077393f, 0.024864960461854934692f}
    }
  },
  {
    {
      {0.12979044020175933838f, 0.054154988378286361694f, 0.19129338860511779785f},
      {-0.12266290187835693359f, -0.072744831442832946777f, -0.16737376153469085693f},
      {-0.064645744860172271729f, -0.013957997784018516541f, 0.088953420519828796387f}
    },
    {
      {-0.043392516672611236572f, 0.095638193190097808838f, 0.0041886977851390838623f},
      {0.048783410340547561646f, -0.060754142701625823975f, 0.15655279159545898438f},
      {-0.10614695399999618530f, 0.16052216291427612305f, 0.17736981809139251709f}
    },
    {
      {-0.079320996999740600586f, -0.10790432244539260864f, 0.092665828764438629150f},
      {-0.12200710922479629517f, 0.12657244503498077393f, 0.0061032632365822792053f},
      {0.11419488489627838135f, 0.080184042453765869141f, 0.012379278428852558136f}
    }
  },
  {
    {
      {-0.0014142037834972143173f, 0.055653709918260574341f, -0.028867255896329879761f},
      {-0.059316836297512054443f, -0.14669114351272583008f, 0.060818471014499664307f},
      {-0.10091972351074218750f, -0.13560360670089721680f, 0.13866272568702697754f}
    },
    {
      {-0.068569988012313842773f, 0.031985096633434295654f, -0.14982573688030242920f},
      {-0.0056815692223608493805f, 0.16232146322727203369f, -0.12315231561660766602f},
      {-0.040033232420682907104f, -0.082257710397243499756f, -0.13097774982452392578f}
    },
    {
      {0.015212962403893470764f, -0.14472964406013488770f, 0.081271693110466003418f},
      {0.12772941589355468750f, 0.10039139539003372192f, -0.049961656332015991211f},
      {0.16531558334827423096f, 0.028881985694169998169f, 0.092680849134922027588f}
    }
  }
};
static const float tensor_conv5_bias[3] = 
{0.055861081928014755249f, 0.10477418452501296997f, 0.18468311429023742676f};
static const float tensor_conv6_weight[3][3][3][3] = 
{
  {
    {
      {0.011510127224028110504f, -0.17709048092365264893f, 0.090458571910858154297f},
      {-0.19095556437969207764f, 0.16921703517436981201f, -0.088976591825485229492f},
      {-0.13467256724834442139f, -0.046509094536304473877f, 0.18931698799133300781f}
    },
    {
      {-0.063406653702259063721f, 0.17727555334568023682f, 0.033462759107351303101f},
      {0.17804411053657531738f, 0.087366491556167602539f, -0.14665143191814422607f},
      {-0.040978208184242248535f, -0.12843491137027740479f, 0.16093967854976654053f}
    },
    {
      {0.15229150652885437012f, 0.18750183284282684326f, 0.11792896687984466553f},
      {-0.094474516808986663818f, 0.17226535081863403320f, 0.034205753356218338013f},
      {-0.097201839089393615723f, 0.023692954331636428833f, 0.18904705345630645752f}
    }
  },
  {
    {
      {-0.12716558575630187988f, 0.13207143545150756836f, -0.085762120783329010010f},
      {-0.068864472210407257080f, -0.014411466196179389954f, 0.085569731891155242920f},
      {0.11255133152008056641f, 0.057736944407224655151f, 0.041529111564159393311f}
    },
    {
      {-0.093855842947959899902f, 0.17828229069709777832f, -0.16180901229381561279f},
      {-0.11435547471046447754f, -0.13687506318092346191f, 0.013670651242136955261f},
      {0.15224447846412658691f, 0.11808916926383972168f, -0.19113297760486602783f}
    },
    {
      {-0.13014842569828033447f, -0.12698011100292205811f, -0.10551165044307708740f},
      {-0.052175432443618774414f, -0.089147858321666717529f, -0.11660157144069671631f},
      {0.14368198812007904053f, -0.15012335777282714844f, 0.050888989120721817017f}
    }
  },
  {
    {
      {0.0028891116380691528320f, 0.13483308255672454834f, -4.9026708438759669662e-05f},
      {-0.074215032160282135010f, 0.11292587965726852417f, 0.11813151836395263672f},
      {0.16974478960037231445f, -0.19193857908248901367f, 0.042176045477390289307f}
    },
    {
      {0.17986084520816802979f, -0.0082797557115554809570f, -0.023748289793729782104f},
      {-0.031688299030065536499f, -0.12531593441963195801f, -0.085029907524585723877f},
      {-0.011453093960881233215f, 0.14729015529155731201f, 0.17518480122089385986f}
    },
    {
      {0.062196403741836547852f, -0.060261465609073638916f, 0.18746174871921539307f},
      {-0.14577767252922058105f, -0.070027321577072143555f, -0.035363171249628067017f},
      {-0.042454514652490615845f, 0.079989612102508544922f, 0.098020292818546295166f}
    }
  }
};
static const float tensor_conv6_bias[3] = 
{0.028929727151989936829f, -0.028956362977623939514f, -0.045926921069622039795f};
static const float tensor_conv7_weight[3][3][3][3] = 
{
  {
    {
      {-0.10035457462072372437f, 0.14155967533588409424f, 0.18224851787090301514f},
      {-0.17084273695945739746f, -0.046787608414888381958f, -0.075561471283435821533f},
      {0.017301518470048904419f, -0.18448723852634429932f, -0.16994331777095794678f}
    },
    {
      {-0.17686408758163452148f, 0.028306329622864723206f, -0.049986548721790313721f},
      {-0.022906370460987091064f, -0.11998203396797180176f, -0.0095795020461082458496f},
      {0.14370414614677429199f, 0.13288669288158416748f, 0.075638137757778167725f}
    },
    {
      {0.014449963346123695374f, 0.18945239484310150146f, 0.081229247152805328369f},
      {-0.047205630689859390259f, 0.094504818320274353027f, 0.040135025978088378906f},
      {0.10168339312076568604f, 0.0028606178238987922668f, 0.13748763501644134521f}
    }
  },
  {
    {
      {-0.16264231503009796143f, 0.16818730533123016357f, -0.020151216536760330200f},
      {-0.12188218533992767334f, 0.00052649225108325481415f, 0.10482706874608993530f},
      {-0.098444946110248565674f, 0.058615274727344512939f, -0.10627917200326919556f}
    },
    {
      {-0.17904685437679290771f, -0.16052585840225219727f, 0.085331827402114868164f},
      {0.13002967834472656250f, -0.044858131557703018188f, -0.11493950337171554565f},
      {-0.0075858565978705883026f, 0.024696016684174537659f, -0.15888482332229614258f}
    },
    {
      {-0.052790477871894836426f, -0.10729521512985229492f, 0.11695409566164016724f},
      {-0.12385474890470504761f, 0.072119295597076416016f, -0.020504727959632873535f},
      {0.088982880115509033203f, 0.025974566116929054260f, 0.081336162984371185303f}
    }
  },
  {
    {
      {-0.013871851377189159393f, 0.17609022557735443115f, 0.11106407642364501953f},
      {-0.15629298985004425049f, 0.10273431241512298584f, 0.16743938624858856201f},
      {-0.067021735012531280518f, -0.036018617451190948486f, -0.12612454593181610107f}
    },
    {
      {-0.029832029715180397034f, 0.13469991087913513184f, 0.15319409966468811035f},
      {-0.091497853398323059082f, 0.030062915757298469543f, 0.16509649157524108887f},
      {0.031080249696969985962f, -0.17747925221920013428f, -0.11297970265150070190f}
    },
    {
      {-0.045926600694656372070f, -0.026661284267902374268f, -0.036232136189937591553f},
      {0.19090619683265686035f, -0.051806386560201644897f, -0.0040681846439838409424f},
      {-0.062778644263744354248f, 0.094425007700920104980f, -0.053762868046760559082f}
    }
  }
};
static const float tensor_conv7_bias[3] = 
{-0.14679959416389465332f, -0.10597877204418182373f, -0.049304947257041931152f};
static const float tensor_fc1_weight[30][12] = 
{
  {-0.17255589365959167480f, 0.11767125874757766724f, -0.069032475352287292480f, -0.093725793063640594482f, -0.27181226015090942383f, 0.11198330670595169067f, 0.096705660223960876465f, 0.16782048344612121582f, -0.23533290624618530273f, 0.27089774608612060547f, -0.096781544387340545654f, 0.18506971001625061035f},
  {0.073714427649974822998f, 0.15887162089347839355f, -0.25382643938064575195f, -0.16847275197505950928f, 0.11042337864637374878f, 0.10505065321922302246f, 0.058679014444351196289f, 0.0046476838178932666779f, -0.085014238953590393066f, 0.024961981922388076782f, 0.18503092229366302490f, 0.20268811285495758057f},
  {0.27081120014190673828f, 0.058763328939676284790f, 0.13173978030681610107f, 0.25742128491401672363f, 0.0018729487201198935509f, -0.15247906744480133057f, 0.0051257456652820110321f, 0.25506883859634399414f, 0.076164446771144866943f, -0.25683429837226867676f, -0.055000532418489456177f, 0.15870355069637298584f},
  {-0.10485260933637619019f, -0.097711682319641113281f, 0.058374255895614624023f, 0.11641832441091537476f, -0.027673568576574325562f, -0.0026865350082516670227f, 0.10463157296180725098f, -0.083074457943439483643f, 0.056624434888362884521f, 0.10393323749303817749f, -0.031597826629877090454f, -0.19442161917686462402f},
  {-0.018508590757846832275f, 0.085854083299636840820f, -0.19568896293640136719f, 0.11644991487264633179f, -0.13702905178070068359f, -0.13177576661109924316f, 0.13900330662727355957f, -0.26991301774978637695f, 0.20305213332176208496f, -0.12913049757480621338f, -0.27998557686805725098f, 0.11673884093761444092f},
  {0.080536141991615295410f, -0.11943859606981277466f, 0.27924093604087829590f, 0.062926240265369415283f, -0.23716491460800170898f, -0.023934278637170791626f, -0.28262457251548767090f, 0.28632143139839172363f, -0.18556143343448638916f, 0.19901812076568603516f, -0.16023601591587066650f, 0.078193902969360351562f},
  {-0.0045699798502027988434f, 0.17042185366153717041f, 0.15703976154327392578f, -0.10817164927721023560f, -0.080413490533828735352f, 0.22255167365074157715f, -0.27002495527267456055f, 0.056352436542510986328f, 0.17379818856716156006f, 0.10204277187585830688f, -0.10962294042110443115f, -0.12244901806116104126f},
  {-0.25062850117683410645f, 0.042245686054229736328f, 0.20868928730487823486f, -0.083144389092922210693f, 0.21738597750663757324f, -0.061492912471294403076f, -0.16553734242916107178f, 0.028421428054571151733f, -0.18746063113212585449f, -0.17475245893001556396f, -0.13869228959083557129f, -0.029265882447361946106f},
  {0.097546331584453582764f, -0.17115192115306854248f, 0.18124830722808837891f, -0.029104176908731460571f, -0.23313504457473754883f, 0.20765900611877441406f, 0.23091462254524230957f, 0.057589299976825714111f, 0.15436653792858123779f, 0.014474384486675262451f, 0.16602930426597595215f, 0.16839246451854705811f},
  {-0.10149512439966201782f, -0.21859292685985565186f, -0.065500348806381225586f, 0.039539501070976257324f, 0.15865196287631988525f, -0.28629258275032043457f, -0.075222261250019073486f, -0.019175855442881584167f, -0.23488430678844451904f, -0.00011497302330099046230f, 0.099090434610843658447f, 0.26290711760520935059f},
  {0.022040648385882377625f, -0.0082290191203355789185f, -0.19597928225994110107f, 0.23257121443748474121f, -0.099444262683391571045f, -0.13372515141963958740f, -0.038805168122053146362f, -0.12182611227035522461f, -0.15049965679645538330f, 0.071078069508075714111f, -0.051180098205804824829f, -0.11729203164577484131f},
  {0.063489228487014770508f, 0.11108661442995071411f, 0.087858662009239196777f, 0.17001953721046447754f, -0.27843320369720458984f, -0.14953647553920745850f, 0.28568696975708007812f, -0.21368536353111267090f, -0.12961013615131378174f, -0.11397116631269454956f, 0.24267029762268066406f, 0.22894686460494995117f},
  {0.19902563095092773438f, -0.10824267566204071045f, -0.12242111563682556152f, 0.12791500985622406006f, 0.081000231206417083740f, -0.058171771466732025146f, 0.11156949400901794434f, 0.057716250419616699219f, 0.12639106810092926025f, -0.11222199350595474243f, -0.27021089196205139160f, -0.22895671427249908447f},
  {0.18198491632938385010f, -0.17340846359729766846f, -0.11320541054010391235f, 0.15330894291400909424f, -0.27617907524108886719f, 0.031757157295942306519f, 0.11501865088939666748f, 0.22757156193256378174f, 0.24401710927486419678f, -0.21263505518436431885f, -0.20808227360248565674f, -0.061015952378511428833f},
  {-0.065624408423900604248f, -0.18744422495365142822f, 0.084686972200870513916f, -0.17613112926483154297f, 0.20262306928634643555f, 0.18624582886695861816f, 0.11954761296510696411f, -0.26573461294174194336f, 0.031017560511827468872f, 0.17421679198741912842f, -0.17139445245265960693f, 0.065690480172634124756f},
  {0.23042975366115570068f, -0.027832040563225746155f, -0.21119831502437591553f, -0.16252769529819488525f, -0.039269637316465377808f, -0.13222309947013854980f, 0.051636274904012680054f, -0.26915284991264343262f, 0.24019126594066619873f, -0.27253785729408264160f, 0.063612185418605804443f, 0.16708512604236602783f},
  {0.26501289010047912598f, 0.13701938092708587646f, -0.22328503429889678955f, 0.23184311389923095703f, 0.14027431607246398926f, -0.13927266001701354980f, -0.19667237997055053711f, 0.25220328569412231445f, 0.25825589895248413086f, 0.040114574134349822998f, -0.078737698495388031006f, 0.096693448722362518311f},
  {-0.15719774365425109863f, 0.029183257371187210083f, -0.061489161103963851929f, -0.21095508337020874023f, 0.034999735653400421143f, 0.15193133056163787842f, 0.038004864007234573364f, -0.061133332550525665283f, -0.081059835851192474365f, -0.24473196268081665039f, 0.092001058161258697510f, 0.093064792454242706299f},
  {-0.0041568200103938579559f, 0.26339614391326904297f, 0.017039613798260688782f, -0.21330100297927856445f, -0.23722082376480102539f, -0.18609638512134552002f, 0.0012404422741383314133f, -0.10546174645423889160f, -0.030089585110545158386f, -0.24843509495258331299f, 0.0070354472845792770386f, 0.051883630454540252686f},
  {-0.010383395478129386902f, -0.28669542074203491211f, -0.18101832270622253418f, 0.0043435436673462390900f, -0.027198363095521926880f, 0.030174860730767250061f, 0.20118606090545654297f, -0.17844711244106292725f, 0.25000417232513427734f, -0.036314956843852996826f, 0.20182351768016815186f, 0.087193049490451812744f},
  {-0.078019775450229644775f, -0.16721558570861816406f, -0.13983830809593200684f, 0.099249832332134246826f, 0.064144521951675415039f, 0.15196298062801361084f, -0.10467731207609176636f, -0.23660656809806823730f, -0.035877432674169540405f, -0.28152149915695190430f, 0.17955544590950012207f, -0.13111738860607147217f},
  {0.17495435476303100586f, -0.17246438562870025635f, -0.19457799196243286133f, -0.053712740540504455566f, -0.018917243927717208862f, -0.26043295860290527344f, -0.027751823887228965759f, 0.23246829211711883545f, 0.27059829235076904297f, 0.061916053295135498047f, -0.24510702490806579590f, 0.15748657286167144775f},
  {0.19334813952445983887f, 0.099337346851825714111f, 0.10325864702463150024f, -0.078721933066844940186f, -0.12347964942455291748f, 0.23555384576320648193f, -0.25674119591712951660f, 0.097678273916244506836f, 0.12052710354328155518f, 0.26007905602455139160f, 0.22702175378799438477f, -0.24168877303600311279f},
  {-0.095846340060234069824f, 0.21205542981624603271f, -0.26150724291801452637f, -0.17122796177864074707f, -0.050720550119876861572f, -0.18271563947200775146f, 0.090850949287414550781f, -0.15021058917045593262f, 0.18831048905849456787f, -0.052194964140653610229f, -0.011641594581305980682f, 0.26557278633117675781f},
  {0.14238581061363220215f, -0.0090875141322612762451f, -0.0051925410516560077667f, -0.27962344884872436523f, 0.019021788612008094788f, 0.24395602941513061523f, 0.13951602578163146973f, 0.20807412266731262207f, -0.096438139677047729492f, 0.14581528306007385254f, 0.27684870362281799316f, -0.24647080898284912109f},
  {0.038331095129251480103f, 0.039234776049852371216f, -0.19357725977897644043f, -0.17194953560829162598f, -0.21748508512973785400f, 0.16668266057968139648f, -0.093752808868885040283f, -0.28795284032821655273f, 0.092601530253887176514f, -0.25170847773551940918f, 0.18147492408752441406f, 0.18637433648109436035f},
  {0.10472930967807769775f, -0.064262174069881439209f, 0.16884040832519531250f, -0.10253122448921203613f, 0.19709661602973937988f, -0.0029008921701461076736f, -0.23996837437152862549f, 0.26280733942985534668f, 0.068359151482582092285f, -0.14397343993186950684f, -0.27902960777282714844f, -0.20045383274555206299f},
  {-0.0084882508963346481323f, 0.19450908899307250977f, -0.098129384219646453857f, 0.18859232962131500244f, 0.070089153945446014404f, 0.0072649805806577205658f, -0.18946672976016998291f, 0.085924834012985229492f, -0.23889583349227905273f, -0.12206170707941055298f, -0.27360180020332336426f, 0.21174922585487365723f},
  {0.18713013827800750732f, -0.050996642559766769409f, 0.080022051930427551270f, 0.16355647146701812744f, -0.031607463955879211426f, 0.24372522532939910889f, 0.24455931782722473145f, -0.12941031157970428467f, 0.23806253075599670410f, -0.10894005000591278076f, -0.018850756809115409851f, -0.14372298121452331543f},
  {0.20614166557788848877f, 0.16758552193641662598f, -0.16929893195629119873f, 0.0051342803053557872772f, -0.048270259052515029907f, 0.23551051318645477295f, -0.28469538688659667969f, -0.20114308595657348633f, 0.0098067754879593849182f, 0.013012495823204517365f, 0.023743666708469390869f, -0.058201298117637634277f}
};
static const float tensor_fc1_bias[30] = 
{0.19082930684089660645f, 0.11535978317260742188f, -0.081872247159481048584f, 0.095905430614948272705f, -0.22445063292980194092f, -0.23954765498638153076f, -0.096191912889480590820f, -0.18064869940280914307f, 0.21109116077423095703f, -0.28550776839256286621f, 0.023422699421644210815f, -0.11450724303722381592f, 0.026184288784861564636f, -0.072411701083183288574f, 0.21045772731304168701f, -0.11551288515329360962f, -0.15517568588256835938f, -0.088059045374393463135f, -0.015808841213583946228f, -0.036032289266586303711f, -0.13705138862133026123f, -0.15412592887878417969f, 0.15691845118999481201f, -0.0032274003606289625168f, -0.28032696247100830078f, 0.018353011459112167358f, -0.069203883409500122070f, 0.23262287676334381104f, 0.23690296709537506104f, -0.083552107214927673340f};
static const float tensor_fc2_weight[30][30] = 
{
  {0.14053419232368469238f, 0.11686264723539352417f, 0.14436155557632446289f, 0.056580595672130584717f, 0.018401656299829483032f, 0.13041608035564422607f, 0.018986120820045471191f, 0.0013327732449397444725f, 0.14611294865608215332f, 0.093196928501129150391f, -0.013444282114505767822f, 0.032960195094347000122f, -0.13977943360805511475f, -0.083299420773983001709f, 0.040218863636255264282f, -0.15155777335166931152f, 0.085599862039089202881f, 0.077437095344066619873f, -0.064943812787532806396f, 0.060755535960197448730f, -0.13422153890132904053f, -0.091557972133159637451f, -0.096064038574695587158f, 0.025539075955748558044f, -0.032376818358898162842f, 0.095937937498092651367f, -0.15466016530990600586f, 0.00028017489239573478699f, -0.15085835754871368408f, 0.15106047689914703369f},
  {-0.012681369669735431671f, -0.035061690956354141235f, 0.074452765285968780518f, 0.17233264446258544922f, 0.047945536673069000244f, 0.15857553482055664062f, 0.020647646859288215637f, -0.16634920239448547363f, 0.10499922931194305420f, 0.12341196089982986450f, -0.12394648045301437378f, 0.028322782367467880249f, 0.070021942257881164551f, -0.10235098749399185181f, -0.051208522170782089233f, 0.076165392994880676270f, 0.093591436743736267090f, 0.15481936931610107422f, 0.063496209681034088135f, 0.070261701941490173340f, 0.0047799060121178627014f, 0.0016667719464749097824f, 0.042713146656751632690f, 0.011730737984180450439f, 0.12638379633426666260f, 0.075140222907066345215f, -0.024130975827574729919f, 0.12912994623184204102f, 0.0088454782962799072266f, 0.010849774815142154694f},
  {-0.065882936120033264160f, -0.14961221814155578613f, 0.13141520321369171143f, -0.050035323947668075562f, -0.16084249317646026611f, -0.093989662826061248779f, -0.098488368093967437744f, -0.17497195303440093994f, -0.17180843651294708252f, 0.10707192867994308472f, -0.10314349830150604248f, 0.057691372931003570557f, 0.16526490449905395508f, 0.10371407866477966309f, 0.11400881409645080566f, 0.056438561528921127319f, -0.13973905146121978760f, 0.052638866007328033447f, -0.11486744880676269531f, -0.040978774428367614746f, -0.0074693504720926284790f, 0.12776167690753936768f, -0.073764681816101074219f, -0.14209809899330139160f, -0.16781887412071228027f, -0.072158239781856536865f, -0.073199346661567687988f, -0.023196231573820114136f, 0.079524382948875427246f, 0.16019609570503234863f},
  {0.052933469414710998535f, -0.070881031453609466553f, 0.041743360459804534912f, -0.064765453338623046875f, 0.10460206866264343262f, 0.023705696687102317810f, -0.11490015685558319092f, 0.022971708327531814575f, 0.14069901406764984131f, -0.10782611370086669922f, 0.071593664586544036865f, 0.025962395593523979187f, -0.13858267664909362793f, 0.16010749340057373047f, -0.15075120329856872559f, -0.15399816632270812988f, -0.17585046589374542236f, -0.10127814859151840210f, -0.16800864040851593018f, 0.10647375881671905518f, -0.0050920969806611537933f, -0.17782378196716308594f, 0.061881914734840393066f, 0.056735102087259292603f, 0.10415380448102951050f, 0.16858014464378356934f, -0.16903878748416900635f, -0.059415929019451141357f, 0.015895556658506393433f, 0.097439341247081756592f},
  {-0.0073279677890241146088f, -0.053166437894105911255f, -0.038887094706296920776f, 0.12020691484212875366f, -0.14557507634162902832f, -0.10075397044420242310f, -0.090624816715717315674f, -0.17958965897560119629f, 0.088269695639610290527f, 0.085140891373157501221f, 0.16078047454357147217f, 0.070064164698123931885f, 0.081495620310306549072f, -0.16100798547267913818f, -0.10042419284582138062f, -0.067811444401741027832f, 0.17470355331897735596f, -0.015592289157211780548f, 0.17304769158363342285f, -0.014675698243081569672f, 0.13146281242370605469f, -0.030064532533288002014f, -0.11285045742988586426f, 0.11665190011262893677f, 0.039955254644155502319f, 0.16686058044433593750f, -0.14930488169193267822f, -0.14404679834842681885f, 0.054330773651599884033f, 0.14610612392425537109f},
  {0.15255664288997650146f, -0.055123679339885711670f, 0.068584196269512176514f, -0.096489161252975463867f, -0.063588015735149383545f, -0.071412980556488037109f, -0.068031661212444305420f, -0.023450985550880432129f, -0.023818545043468475342f, 0.087470769882202148438f, -0.12924601137638092041f, -0.14171870052814483643f, -6.5097738115582615137e-05f, 0.058767128735780715942f, 0.071549944579601287842f, -0.0091098090633749961853f, -0.069505490362644195557f, 0.014821629039943218231f, -0.069891721010208129883f, 0.15035420656204223633f, -0.11725858598947525024f, -0.029531344771385192871f, 0.091370798647403717041f, -0.095313228666782379150f, -0.019586017355322837830f, -0.041752830147743225098f, 0.14346043765544891357f, 0.041620109230279922485f, 0.075548611581325531006f, 0.019900558516383171082f},
  {0.019546885043382644653f, 0.0055624935775995254517f, -0.072266519069671630859f, 0.12220264226198196411f, 0.055821556597948074341f, 0.14971931278705596924f, -0.077228330075740814209f, 0.086923450231552124023f, -0.035736043006181716919f, -0.13309760391712188721f, 0.095169752836227416992f, -0.086076483130455017090f, -0.10431778430938720703f, 0.11710821092128753662f, 0.017382662743330001831f, -0.018700266256928443909f, -0.043422538787126541138f, 0.18067130446434020996f, -0.067173831164836883545f, -0.11268589645624160767f, -0.11272270232439041138f, -0.071326814591884613037f, -0.0082378992810845375061f, -0.098791919648647308350f, -0.17643314599990844727f, 0.062006842344999313354f, -0.085612252354621887207f, 0.14768828451633453369f, -0.043464329093694686890f, -0.15598845481872558594f},
  {0.15741986036300659180f, 0.12023717164993286133f, -0.076069563627243041992f, 0.088764801621437072754f, -0.030973725020885467529f, 0.049582164734601974487f, -0.11407684534788131714f, -0.17076356709003448486f, 0.10319083929061889648f, -0.14893670380115509033f, 0.016965217888355255127f, -0.12725445628166198730f, 0.0036437101662158966064f, 0.10385426133871078491f, 0.12976197898387908936f, 0.17684665322303771973f, 0.14413045346736907959f, 0.0059684240259230136871f, -0.16273817420005798340f, 0.13601192831993103027f, -0.084025725722312927246f, -0.13847272098064422607f, 0.0028924201615154743195f, -0.16445212066173553467f, 0.12586008012294769287f, -0.18177706003189086914f, 0.085854314267635345459f, 0.089963413774967193604f, -0.14188951253890991211f, 0.080966807901859283447f},
  {-0.15384736657142639160f, 0.17645303905010223389f, 0.11356177181005477905f, 0.13435186445713043213f, -0.16214543581008911133f, 0.13107506930828094482f, 0.12529285252094268799f, -0.0045049111358821392059f, 0.054769024252891540527f, -0.014035777188837528229f, -0.038267675787210464478f, -0.067706845700740814209f, -0.097097225487232208252f, -0.033466786146163940430f, 0.14572814106941223145f, -0.058625049889087677002f, 0.14225411415100097656f, -0.035969164222478866577f, -0.13598573207855224609f, 0.091207712888717651367f, 0.14090079069137573242f, -0.13987959921360015869f, 0.051203209906816482544f, -0.022880973294377326965f, 0.040889300405979156494f, 0.10264641791582107544f, -0.076083563268184661865f, -0.17084038257598876953f, 0.14232234656810760498f, -0.15041764080524444580f},
  {0.068900018930435180664f, -0.062661804258823394775f, -0.10688769817352294922f, -0.15517413616180419922f, 0.079670704901218414307f, -0.15116190910339355469f, -0.0096003599464893341064f, -0.16952036321163177490f, 0.13458400964736938477f, 0.10450162738561630249f, 0.14340370893478393555f, 0.012405438348650932312f, -0.028959633782505989075f, -0.12658683955669403076f, 0.016331566497683525085f, -0.022277137264609336853f, -0.11237758398056030273f, -0.082637496292591094971f, 0.12972550094127655029f, 0.062517158687114715576f, -0.17835816740989685059f, -0.077158488333225250244f, -0.049736496061086654663f, 0.017840588465332984924f, 0.044277101755142211914f, -0.099842295050621032715f, -0.069761045277118682861f, -0.00060324772493913769722f, -0.027309250086545944214f, 0.040168851613998413086f},
  {0.15623390674591064453f, 0.028938610106706619263f, 0.097952373325824737549f, 0.016600683331489562988f, -0.089852653443813323975f, 0.17610560357570648193f, 0.019287647679448127747f, 0.071966037154197692871f, 0.15537875890731811523f, -0.14425176382064819336f, 0.039944566786289215088f, 0.050731290131807327271f, -0.011449453420937061310f, 0.10868792980909347534f, 0.099605560302734375000f, 0.17504282295703887939f, 0.16127520799636840820f, 0.016283139586448669434f, 0.020092956721782684326f, -0.16076071560382843018f, 0.043724261224269866943f, -0.17818723618984222412f, 0.16579185426235198975f, -0.14890043437480926514f, -0.0088012749329209327698f, -0.057001717388629913330f, 0.15232256054878234863f, -0.0052394210360944271088f, -0.0077745327726006507874f, -0.044985953718423843384f},
  {0.063969679176807403564f, -0.034902375191450119019f, 0.12237779796123504639f, -0.12226112186908721924f, 0.082802623510360717773f, -0.12456600368022918701f, -0.15446205437183380127f, 0.022438978776335716248f, -0.16278734803199768066f, 0.058077320456504821777f, 0.12733887135982513428f, 0.046068150550127029419f, -0.066287577152252197266f, 0.094304397702217102051f, 0.16528879106044769287f, 0.088313683867454528809f, -0.11011208593845367432f, 0.013729027472436428070f, 0.13378751277923583984f, 0.043407522141933441162f, -0.012656166218221187592f, 0.038225799798965454102f, 0.12771229445934295654f, -0.17672607302665710449f, 0.15273362398147583008f, 0.17214407026767730713f, 0.14933264255523681641f, -0.14258593320846557617f, -0.049641452729701995850f, 0.13664332032203674316f},
  {-0.028897060081362724304f, -0.0088861566036939620972f, 0.15851317346096038818f, 0.15918175876140594482f, -0.16482180356979370117f, 0.12645521759986877441f, 0.040235277265310287476f, -0.10602640360593795776f, -0.025667790323495864868f, 0.079589612782001495361f, -0.092805735766887664795f, -0.067535057663917541504f, -0.17567133903503417969f, -0.12132822722196578979f, -0.049081668257713317871f, 0.12881168723106384277f, -0.18036858737468719482f, -0.013363622128963470459f, -0.065464444458484649658f, -0.11683722585439682007f, -0.12915310263633728027f, 0.0043245921842753887177f, 0.038587287068367004395f, 0.037129953503608703613f, 0.13066717982292175293f, -0.046612001955509185791f, -0.11242840439081192017f, 0.10124367475509643555f, 0.15997478365898132324f, 0.13613176345825195312f},
  {0.041311554610729217529f, -0.019762875512242317200f, -0.011299909092485904694f, 0.086234152317047119141f, 0.18008458614349365234f, 0.14202301204204559326f, -0.16373354196548461914f, 0.16280962526798248291f, 0.12520344555377960205f, 0.071750067174434661865f, -0.090284854173660278320f, 0.17105232179164886475f, 0.065442137420177459717f, 0.16420347988605499268f, -0.034436091780662536621f, -0.071337975561618804932f, 0.13845291733741760254f, -0.075662173330783843994f, -0.033895395696163177490f, -0.12241332232952117920f, -0.077299237251281738281f, 0.12615488469600677490f, 0.041409537196159362793f, 0.079043447971343994141f, -0.10643170773983001709f, -0.15262152254581451416f, 0.019084649160504341125f, 0.048780381679534912109f, -0.17873352766036987305f, 0.027081919834017753601f},
  {0.16843506693840026855f, -0.13116407394409179688f, -0.037739578634500503540f, -0.16716812551021575928f, -0.075743377208709716797f, 0.18017888069152832031f, -0.17778982222080230713f, 0.00068345002364367246628f, -0.017602875828742980957f, -0.10375251621007919312f, -0.16157232224941253662f, -0.18197742104530334473f, -0.10515214502811431885f, -0.14607866108417510986f, 0.071412608027458190918f, -0.074728764593601226807f, -0.0075940829701721668243f, 0.054262761026620864868f, -0.021172912791371345520f, 0.043670047074556350708f, 0.16990497708320617676f, 0.12583342194557189941f, 0.032800812274217605591f, -0.11977066844701766968f, 0.12638397514820098877f, -0.0048600430600345134735f, -0.11843593418598175049f, 0.10910730808973312378f, 0.059303622692823410034f, -0.16871292889118194580f},
  {-0.057565048336982727051f, -0.061083983629941940308f, 0.18164022266864776611f, -0.12143724411725997925f, 0.053408566862344741821f, 0.052578292787075042725f, 0.12884922325611114502f, -0.14733766019344329834f, -0.022590698674321174622f, 0.011448278091847896576f, -0.14077915251255035400f, 0.033672854304313659668f, 0.027236666530370712280f, -0.13336218893527984619f, 0.071759968996047973633f, 0.15921299159526824951f, 0.17051033675670623779f, -0.15390843152999877930f, -0.14071229100227355957f, -0.0035196740645915269852f, -0.17000034451484680176f, -0.13811956346035003662f, -0.088526062667369842529f, 0.053651958703994750977f, -0.034870032221078872681f, 0.027632301673293113708f, -0.089647658169269561768f, -0.10921351611614227295f, -0.021289026364684104919f, -0.049603167921304702759f},
  {-0.0095241405069828033447f, 0.0026978452224284410477f, 0.12797173857688903809f, -0.058636866509914398193f, 0.13219143450260162354f, 0.044232137501239776611f, 0.17676000297069549561f, 0.051586005836725234985f, -0.12044654786586761475f, -0.13080351054668426514f, -0.13403502106666564941f, -0.12331409007310867310f, -0.046422671526670455933f, 0.033728286623954772949f, -0.067733831703662872314f, 0.15443937480449676514f, 0.17729444801807403564f, 0.040737450122833251953f, -0.13408623635768890381f, -0.10313067585229873657f, 0.13072635233402252197f, -0.15919625759124755859f, -0.17575195431709289551f, -0.10014972090721130371f, 0.089650198817253112793f, -0.10159051418304443359f, 0.17935661971569061279f, 0.13698768615722656250f, -0.14316387474536895752f, 0.014411933720111846924f},
  {-0.10788860172033309937f, 0.00015485468611586838961f, 0.13495519757270812988f, -0.054512400180101394653f, 0.056400775909423828125f, -0.012056618928909301758f, -0.091238319873809814453f, -0.071821801364421844482f, 0.15369667112827301025f, 0.11012939363718032837f, 0.15336367487907409668f, -0.11204632371664047241f, -0.12545181810855865479f, 0.15693640708923339844f, -0.074564740061759948730f, -0.12347960472106933594f, -0.097839087247848510742f, -0.14287583529949188232f, -0.11609644442796707153f, 0.17956253886222839355f, 0.11792070418596267700f, 0.14918230473995208740f, 0.082825995981693267822f, -0.099491432309150695801f, -0.10596398264169692993f, -0.094675175845623016357f, -0.14561089873313903809f, 0.0028081042692065238953f, -0.037555038928985595703f, 0.029406785964965820312f},
  {0.10748232156038284302f, 0.026905823498964309692f, -0.10391328483819961548f, -0.044419270008802413940f, -0.17529694736003875732f, -0.10747888684272766113f, -0.060184065252542495728f, 0.030088430270552635193f, 0.11530839651823043823f, 0.074048072099685668945f, -0.11298727244138717651f, 0.10252590477466583252f, -0.12501172721385955811f, 0.12660042941570281982f, -0.083613261580467224121f, -0.064370818436145782471f, 0.026866428554058074951f, 0.16068436205387115479f, -0.00098412716761231422424f, -0.13560271263122558594f, 0.091283306479454040527f, -0.16372598707675933838f, 0.13234505057334899902f, 0.17468652129173278809f, 0.14119507372379302979f, -0.18218694627285003662f, -0.13153867423534393311f, 0.17959187924861907959f, -0.059205923229455947876f, -0.15893313288688659668f},
  {-0.15228562057018280029f, -0.13172750174999237061f, 0.093697383999824523926f, 0.12004459649324417114f, 0.016489664092659950256f, 0.015593900345265865326f, -0.069967962801456451416f, -0.011645312421023845673f, 0.092743158340454101562f, -0.016353983432054519653f, 0.11760736256837844849f, -0.070313625037670135498f, 0.082127764821052551270f, -0.023383624851703643799f, -0.019994733855128288269f, -0.062064956873655319214f, 0.017011815682053565979f, 0.025227168574929237366f, -0.044289879500865936279f, 0.11918172240257263184f, -0.027256058529019355774f, -0.023253602907061576843f, -0.031419090926647186279f, 0.056265663355588912964f, 0.025357559323310852051f, 0.18094649910926818848f, 0.098758094012737274170f, 0.068753741681575775146f, 0.018157174810767173767f, 0.056046776473522186279f},
  {0.019240636378526687622f, -0.088276378810405731201f, 0.094944015145301818848f, 0.084650754928588867188f, 0.13862025737762451172f, -0.051885440945625305176f, -0.083406828343868255615f, 0.055587895214557647705f, -0.041909556835889816284f, -0.14748367667198181152f, -0.033587973564863204956f, -0.058022584766149520874f, -0.094746328890323638916f, -0.15249882638454437256f, 0.083345644176006317139f, -0.10522051155567169189f, -0.062790326774120330811f, 0.023306077346205711365f, -0.040092173963785171509f, -8.2879363617394119501e-05f, -0.17344103753566741943f, -0.0097896680235862731934f, -0.10709319263696670532f, -0.094341747462749481201f, 0.16703240573406219482f, -0.00010684211883926764131f, 0.14175142347812652588f, -0.032884955406188964844f, 0.18121206760406494141f, 0.14307834208011627197f},
  {-0.17400328814983367920f, 0.063439451158046722412f, -0.060309883207082748413f, 0.11177892982959747314f, 0.11048269271850585938f, -0.14994741976261138916f, -0.17752191424369812012f, -0.034577235579490661621f, 0.093884080648422241211f, -0.11906336247920989990f, 0.11064370721578598022f, -0.10057488828897476196f, 0.010638767853379249573f, -0.17987681925296783447f, 0.052578445523977279663f, -0.063665457069873809814f, -0.15229988098144531250f, 0.070900462567806243896f, -0.056900296360254287720f, -0.18070304393768310547f, -0.00082994712283834815025f, -0.090477712452411651611f, -0.17736801505088806152f, 0.16572996973991394043f, 0.038172431290149688721f, -0.14859268069267272949f, -0.084264084696769714355f, 0.12798041105270385742f, -0.087490901350975036621f, 0.16657161712646484375f},
  {0.019138973206281661987f, 0.17363820970058441162f, 0.14332616329193115234f, 0.11571856588125228882f, 0.034330293536186218262f, -0.12660229206085205078f, -0.092001490294933319092f, -0.089372076094150543213f, 0.12758572399616241455f, -0.090486638247966766357f, 0.0092104477807879447937f, -0.064148843288421630859f, -0.099022708833217620850f, -0.098424158990383148193f, 0.099404133856296539307f, 0.13558313250541687012f, -0.091524563729763031006f, -0.0025217046495527029037f, -0.0014304743381217122078f, 0.12860748171806335449f, -0.084518127143383026123f, 0.11466192454099655151f, -0.13605102896690368652f, 0.074570968747138977051f, 0.062062431126832962036f, -0.13593707978725433350f, 0.0033338919747620820999f, -0.17821210622787475586f, 0.019709248095750808716f, 0.11014919728040695190f},
  {0.14182439446449279785f, -0.016300180926918983459f, -0.11306860297918319702f, -0.11304562538862228394f, -0.10806128382682800293f, 0.0065916953608393669128f, -0.16985866427421569824f, -0.084319673478603363037f, -0.16213990747928619385f, -0.092636056244373321533f, 0.13742080330848693848f, 0.10850007832050323486f, -0.12129299342632293701f, 0.16904604434967041016f, -0.11287228763103485107f, 0.11902538686990737915f, -0.072793178260326385498f, 0.0051111625507473945618f, -0.017238516360521316528f, 0.056631982326507568359f, -0.0038277946878224611282f, -0.034606855362653732300f, -0.10269569605588912964f, 0.038581389933824539185f, -0.11625906825065612793f, -0.17330494523048400879f, 0.13680785894393920898f, -0.019520353525876998901f, 0.10009972751140594482f, -0.0067622857168316841125f},
  {-0.040697772055864334106f, 0.14076715707778930664f, -0.083127193152904510498f, 0.026327626779675483704f, 0.14791557192802429199f, -0.12456219643354415894f, -0.13860568404197692871f, -0.015014528296887874603f, 0.092980332672595977783f, -0.015991952270269393921f, 0.11695557832717895508f, -0.026258958503603935242f, -0.052054159343242645264f, -0.11996150016784667969f, 0.0018673756858333945274f, 0.024233812466263771057f, -3.6607954825740307570e-05f, -0.047536537051200866699f, -0.18039605021476745605f, 0.049935426563024520874f, 0.034671325236558914185f, 0.097957052290439605713f, 0.057324074208736419678f, 0.099596686661243438721f, -0.0070162340998649597168f, -0.16770993173122406006f, -0.069888047873973846436f, 0.015560012310743331909f, 0.16662399470806121826f, 0.066831387579441070557f},
  {0.14694094657897949219f, 0.068024195730686187744f, 0.027301676571369171143f, 0.10663006454706192017f, 0.15900878608226776123f, -0.091027460992336273193f, 0.16443149745464324951f, -0.14675922691822052002f, 0.085504077374935150146f, 0.11591118574142456055f, 0.083002679049968719482f, 0.055049896240234375000f, -0.0083802184090018272400f, 0.097093522548675537109f, 0.037179905921220779419f, 0.046379338949918746948f, 0.061833512037992477417f, 0.16622710227966308594f, 0.090886168181896209717f, 0.059855788946151733398f, 0.17001399397850036621f, -0.10484189540147781372f, 0.16062098741531372070f, 0.099668137729167938232f, -0.17135012149810791016f, 0.11615990847349166870f, 0.098649509251117706299f, 0.16175875067710876465f, 0.15940450131893157959f, 0.030695486813783645630f},
  {-0.010397180914878845215f, -0.061104964464902877808f, 0.085608549416065216064f, -0.10780176520347595215f, 0.11583864688873291016f, 0.0024224584922194480896f, 0.046705547720193862915f, -0.14940136671066284180f, 0.020235361531376838684f, 0.066739670932292938232f, 0.074198052287101745605f, -0.059110309928655624390f, 0.13045766949653625488f, -0.17266067862510681152f, -0.11126839369535446167f, 0.10732126981019973755f, -0.16876710951328277588f, 0.16232998669147491455f, 0.022408595308661460876f, -0.11797398328781127930f, -0.12783475220203399658f, 0.010110542178153991699f, 0.064082659780979156494f, -0.11162411421537399292f, 0.068924285471439361572f, 0.044611383229494094849f, 0.10573084652423858643f, -0.046268690377473831177f, 0.11600085347890853882f, 0.12030094116926193237f},
  {0.049965396523475646973f, -0.033971115946769714355f, 0.038522690534591674805f, -0.11047808080911636353f, -0.13667131960391998291f, -0.056014087051153182983f, -0.14574807882308959961f, 0.17990252375602722168f, -0.076420761644840240479f, 0.087767288088798522949f, 0.11899073421955108643f, -0.018252961337566375732f, -0.058828327804803848267f, 0.10855805873870849609f, -0.043054457753896713257f, 0.021957894787192344666f, -0.060087148100137710571f, -0.028908116742968559265f, -0.073793798685073852539f, -0.14109881222248077393f, -0.16148109734058380127f, 0.076010800898075103760f, 0.14735102653503417969f, 0.15750084817409515381f, 0.13835114240646362305f, 0.089402779936790466309f, 0.17424911260604858398f, 0.081909708678722381592f, -0.10136613994836807251f, -0.036507248878479003906f},
  {0.050700601190328598022f, -0.10171888023614883423f, -0.034109909087419509888f, 0.13073843717575073242f, 0.0014826003462076187134f, -0.034854885190725326538f, 0.061381004750728607178f, 0.099922738969326019287f, 0.11943978071212768555f, -0.0013052629074081778526f, -0.14201252162456512451f, -0.043629478663206100464f, -0.022384980693459510803f, -0.014947101473808288574f, -0.080957159399986267090f, 0.088758751749992370605f, -0.00021697068586945533752f, -0.11440845578908920288f, 0.076795719563961029053f, 0.15778055787086486816f, 0.0051679243333637714386f, -0.044696681201457977295f, -0.15032614767551422119f, 0.098087355494499206543f, 0.10009557008743286133f, 0.055602736771106719971f, 0.15326033532619476318f, 0.038272876292467117310f, -0.0010138793149963021278f, -0.16098450124263763428f},
  {-0.027315584942698478699f, 0.031934693455696105957f, -0.051396023482084274292f, -0.018607418984174728394f, -0.11850314587354660034f, -0.074526958167552947998f, 0.17999577522277832031f, 0.038304131478071212769f, -0.059541944414377212524f, -0.10299316793680191040f, 0.028762795031070709229f, -0.068976521492004394531f, -0.11248083412647247314f, 0.095548130571842193604f, 0.17141376435756683350f, 0.17669281363487243652f, -0.14116579294204711914f, -0.12275386601686477661f, -0.032644327729940414429f, -0.066823616623878479004f, 0.069082625210285186768f, -0.051291313022375106812f, 0.16062495112419128418f, -0.076174318790435791016f, 0.031364940106868743896f, 0.019220763817429542542f, 0.031607072800397872925f, -0.10893329977989196777f, -0.12898242473602294922f, 0.010440535843372344971f}
};
static const float tensor_fc2_bias[30] = 
{-0.15535400807857513428f, -0.046568930149078369141f, -0.11015716195106506348f, 0.033072281628847122192f, -0.053604468703269958496f, 0.070866167545318603516f, 0.071747146546840667725f, 0.080408915877342224121f, 0.14057193696498870850f, -0.033147588372230529785f, -0.17606821656227111816f, -0.024413499981164932251f, -0.098291598260402679443f, -0.019476149231195449829f, -0.026790319010615348816f, -0.0026564055588096380234f, -0.088649906218051910400f, -0.025845780968666076660f, 0.010683363303542137146f, -0.16052037477493286133f, 0.043233361095190048218f, -0.025846738368272781372f, -0.073844529688358306885f, 0.17166420817375183105f, -0.060888234525918960571f, -0.0093432553112506866455f, 0.080166086554527282715f, 0.0077124820090830326080f, -0.016282400116324424744f, 0.021087378263473510742f};
static const float tensor_fc3_weight[1][31] = 
{
  {0.053027171641588211060f, 0.12078120559453964233f, -0.10602505505084991455f, 0.15207828581333160400f, -0.15783789753913879395f, -0.067965529859066009521f, 0.0057914443314075469971f, 0.16883186995983123779f, 0.010563936084508895874f, 0.071857362985610961914f, -0.038718711584806442261f, -0.14864814281463623047f, -0.0087182978168129920959f, -0.084067024290561676025f, -0.040651168674230575562f, 0.12234574556350708008f, -0.067390933632850646973f, 0.16884806752204895020f, -0.012690695933997631073f, 0.020879872143268585205f, 0.13501212000846862793f, 0.071601480245590209961f, 0.17649489641189575195f, 0.10842558741569519043f, 0.11754655838012695312f, -0.065025530755519866943f, -0.064047455787658691406f, -0.10692776739597320557f, -0.16429619491100311279f, -0.060339070856571197510f, 0.052425552159547805786f}
};
static const float tensor_fc3_bias[1] = 
{-0.073866404592990875244f};
union tensor_union_0 {
float tensor__conv1_Conv_output_0[1][3][508][508];
float tensor__pool_MaxPool_output_0[1][3][254][254];
float tensor__Relu_1_output_0[1][3][252][252];
float tensor__conv3_Conv_output_0[1][3][124][124];
float tensor__pool_2_MaxPool_output_0[1][3][62][62];
float tensor__Relu_3_output_0[1][3][60][60];
float tensor__conv5_Conv_output_0[1][3][28][28];
float tensor__pool_4_MaxPool_output_0[1][3][14][14];
float tensor__Relu_5_output_0[1][3][12][12];
float tensor__conv7_Conv_output_0[1][3][4][4];
float tensor__pool_6_MaxPool_output_0[1][3][2][2];
float tensor__fc1_Gemm_output_0[1][30];
float tensor__fc2_Gemm_output_0[1][30];
float tensor__Concat_output_0[1][31];
};
static union tensor_union_0 tu0;

union tensor_union_1 {
float tensor__Relu_output_0[1][3][508][508];
float tensor__conv2_Conv_output_0[1][3][252][252];
float tensor__pool_1_MaxPool_output_0[1][3][126][126];
float tensor__Relu_2_output_0[1][3][124][124];
float tensor__conv4_Conv_output_0[1][3][60][60];
float tensor__pool_3_MaxPool_output_0[1][3][30][30];
float tensor__Relu_4_output_0[1][3][28][28];
float tensor__conv6_Conv_output_0[1][3][12][12];
float tensor__pool_5_MaxPool_output_0[1][3][6][6];
float tensor__Relu_6_output_0[1][3][4][4];
float tensor__Flatten_output_0[1][12];
float tensor__Relu_7_output_0[1][30];
float tensor__Relu_8_output_0[1][30];
};
static union tensor_union_1 tu1;


/*
 * Operand:           Conv
 * Name in ONNX file: /conv1/Conv
 */
FUNC_PREFIX void node__conv1_Conv( const float x[1][1][512][512], const float w[3][1][5][5], const float bias[3], float y[1][3][508][508] )
{
	/* Conv
	 *
	 * auto_pad: NOTSET
	 * dilations: 1 1 
	 * group: 1
	 * kernel_shape: 5 5 
	 * pads: 0 0 0 0 
	 * strides: 1 1 
	 */
	for( uint32_t b=0; b<1; b++ ) {
	for( uint32_t m=0; m<3; m++) {
		for( int32_t o0=0, i0=0; o0<508; o0++, i0+=1) {
		for( int32_t o1=0, i1=0; o1<508; o1++, i1+=1) {
			y[b][m][o0][o1] = bias[m];
			for( int32_t c=0; c<1; c++ ) {
			for( uint32_t k0=0; k0<5; k0++ ) {
			for( uint32_t k1=0; k1<5; k1++ ) {
				int ii0 = i0+k0 * 1;
				if( ii0<0) continue;
				if( ii0>=512) continue;
				int ii1 = i1+k1 * 1;
				if( ii1<0) continue;
				if( ii1>=512) continue;
				y[b][m][o0][o1] += x[b][c][ii0][ii1] *w[m][c][k0][k1];
			} /* k */
			} /* k */
			} /* c */
		} /* o */
		} /* o */
	} /* m */
	} /* b */
}

/*
 * Operand:           Relu
 * Name in ONNX file: /Relu
 */
FUNC_PREFIX void node__Relu( const float X[1][3][508][508], float Y[1][3][508][508] )
{
	/*Relu*/
	float *X_ptr = (float*)X;
	float *Y_ptr = (float*)Y;
	uint32_t i;
	for( i=0; i<774192; i++ )
		Y_ptr[i] = X_ptr[i] > 0 ? X_ptr[i] : 0;

}

/*
 * Operand:           MaxPool
 * Name in ONNX file: /pool/MaxPool
 */
FUNC_PREFIX void node__pool_MaxPool( const float x[1][3][508][508], float y[1][3][254][254] )
{
	/* MaxPool
	 *
	 * auto_pad: NOTSET
	 * dilations: 1 1 
	 * group: 1
	 * kernel_shape: 2 2 
	 * pads: 0 0 0 0 
	 * strides: 2 2 
	 */
	for( uint32_t b=0; b<1; b++ ) {
	for( uint32_t m=0, c=0; m<3; m++, c=m) {
		for( int32_t o0=0, i0=0; o0<254; o0++, i0+=2) {
		for( int32_t o1=0, i1=0; o1<254; o1++, i1+=2) {
			float curmax = -FLT_MAX;
			for( uint32_t k0=0; k0<2; k0++ ) {
			for( uint32_t k1=0; k1<2; k1++ ) {
				int ii0 = i0+k0 * 1;
				if( ii0<0) continue;
				if( ii0>=508) continue;
				int ii1 = i1+k1 * 1;
				if( ii1<0) continue;
				if( ii1>=508) continue;
				if( curmax < x[b][c][ii0][ii1]) {
				curmax = MAX( curmax, x[b][c][ii0][ii1]);
				}
			} /* k */
			} /* k */
			y[b][m][o0][o1]= curmax;
		} /* o */
		} /* o */
	} /* m */
	} /* b */
}

/*
 * Operand:           Conv
 * Name in ONNX file: /conv2/Conv
 */
FUNC_PREFIX void node__conv2_Conv( const float x[1][3][254][254], const float w[3][3][3][3], const float bias[3], float y[1][3][252][252] )
{
	/* Conv
	 *
	 * auto_pad: NOTSET
	 * dilations: 1 1 
	 * group: 1
	 * kernel_shape: 3 3 
	 * pads: 0 0 0 0 
	 * strides: 1 1 
	 */
	for( uint32_t b=0; b<1; b++ ) {
	for( uint32_t m=0; m<3; m++) {
		for( int32_t o0=0, i0=0; o0<252; o0++, i0+=1) {
		for( int32_t o1=0, i1=0; o1<252; o1++, i1+=1) {
			y[b][m][o0][o1] = bias[m];
			for( int32_t c=0; c<3; c++ ) {
			for( uint32_t k0=0; k0<3; k0++ ) {
			for( uint32_t k1=0; k1<3; k1++ ) {
				int ii0 = i0+k0 * 1;
				if( ii0<0) continue;
				if( ii0>=254) continue;
				int ii1 = i1+k1 * 1;
				if( ii1<0) continue;
				if( ii1>=254) continue;
				y[b][m][o0][o1] += x[b][c][ii0][ii1] *w[m][c][k0][k1];
			} /* k */
			} /* k */
			} /* c */
		} /* o */
		} /* o */
	} /* m */
	} /* b */
}

/*
 * Operand:           Relu
 * Name in ONNX file: /Relu_1
 */
FUNC_PREFIX void node__Relu_1( const float X[1][3][252][252], float Y[1][3][252][252] )
{
	/*Relu*/
	float *X_ptr = (float*)X;
	float *Y_ptr = (float*)Y;
	uint32_t i;
	for( i=0; i<190512; i++ )
		Y_ptr[i] = X_ptr[i] > 0 ? X_ptr[i] : 0;

}

/*
 * Operand:           MaxPool
 * Name in ONNX file: /pool_1/MaxPool
 */
FUNC_PREFIX void node__pool_1_MaxPool( const float x[1][3][252][252], float y[1][3][126][126] )
{
	/* MaxPool
	 *
	 * auto_pad: NOTSET
	 * dilations: 1 1 
	 * group: 1
	 * kernel_shape: 2 2 
	 * pads: 0 0 0 0 
	 * strides: 2 2 
	 */
	for( uint32_t b=0; b<1; b++ ) {
	for( uint32_t m=0, c=0; m<3; m++, c=m) {
		for( int32_t o0=0, i0=0; o0<126; o0++, i0+=2) {
		for( int32_t o1=0, i1=0; o1<126; o1++, i1+=2) {
			float curmax = -FLT_MAX;
			for( uint32_t k0=0; k0<2; k0++ ) {
			for( uint32_t k1=0; k1<2; k1++ ) {
				int ii0 = i0+k0 * 1;
				if( ii0<0) continue;
				if( ii0>=252) continue;
				int ii1 = i1+k1 * 1;
				if( ii1<0) continue;
				if( ii1>=252) continue;
				if( curmax < x[b][c][ii0][ii1]) {
				curmax = MAX( curmax, x[b][c][ii0][ii1]);
				}
			} /* k */
			} /* k */
			y[b][m][o0][o1]= curmax;
		} /* o */
		} /* o */
	} /* m */
	} /* b */
}

/*
 * Operand:           Conv
 * Name in ONNX file: /conv3/Conv
 */
FUNC_PREFIX void node__conv3_Conv( const float x[1][3][126][126], const float w[3][3][3][3], const float bias[3], float y[1][3][124][124] )
{
	/* Conv
	 *
	 * auto_pad: NOTSET
	 * dilations: 1 1 
	 * group: 1
	 * kernel_shape: 3 3 
	 * pads: 0 0 0 0 
	 * strides: 1 1 
	 */
	for( uint32_t b=0; b<1; b++ ) {
	for( uint32_t m=0; m<3; m++) {
		for( int32_t o0=0, i0=0; o0<124; o0++, i0+=1) {
		for( int32_t o1=0, i1=0; o1<124; o1++, i1+=1) {
			y[b][m][o0][o1] = bias[m];
			for( int32_t c=0; c<3; c++ ) {
			for( uint32_t k0=0; k0<3; k0++ ) {
			for( uint32_t k1=0; k1<3; k1++ ) {
				int ii0 = i0+k0 * 1;
				if( ii0<0) continue;
				if( ii0>=126) continue;
				int ii1 = i1+k1 * 1;
				if( ii1<0) continue;
				if( ii1>=126) continue;
				y[b][m][o0][o1] += x[b][c][ii0][ii1] *w[m][c][k0][k1];
			} /* k */
			} /* k */
			} /* c */
		} /* o */
		} /* o */
	} /* m */
	} /* b */
}

/*
 * Operand:           Relu
 * Name in ONNX file: /Relu_2
 */
FUNC_PREFIX void node__Relu_2( const float X[1][3][124][124], float Y[1][3][124][124] )
{
	/*Relu*/
	float *X_ptr = (float*)X;
	float *Y_ptr = (float*)Y;
	uint32_t i;
	for( i=0; i<46128; i++ )
		Y_ptr[i] = X_ptr[i] > 0 ? X_ptr[i] : 0;

}

/*
 * Operand:           MaxPool
 * Name in ONNX file: /pool_2/MaxPool
 */
FUNC_PREFIX void node__pool_2_MaxPool( const float x[1][3][124][124], float y[1][3][62][62] )
{
	/* MaxPool
	 *
	 * auto_pad: NOTSET
	 * dilations: 1 1 
	 * group: 1
	 * kernel_shape: 2 2 
	 * pads: 0 0 0 0 
	 * strides: 2 2 
	 */
	for( uint32_t b=0; b<1; b++ ) {
	for( uint32_t m=0, c=0; m<3; m++, c=m) {
		for( int32_t o0=0, i0=0; o0<62; o0++, i0+=2) {
		for( int32_t o1=0, i1=0; o1<62; o1++, i1+=2) {
			float curmax = -FLT_MAX;
			for( uint32_t k0=0; k0<2; k0++ ) {
			for( uint32_t k1=0; k1<2; k1++ ) {
				int ii0 = i0+k0 * 1;
				if( ii0<0) continue;
				if( ii0>=124) continue;
				int ii1 = i1+k1 * 1;
				if( ii1<0) continue;
				if( ii1>=124) continue;
				if( curmax < x[b][c][ii0][ii1]) {
				curmax = MAX( curmax, x[b][c][ii0][ii1]);
				}
			} /* k */
			} /* k */
			y[b][m][o0][o1]= curmax;
		} /* o */
		} /* o */
	} /* m */
	} /* b */
}

/*
 * Operand:           Conv
 * Name in ONNX file: /conv4/Conv
 */
FUNC_PREFIX void node__conv4_Conv( const float x[1][3][62][62], const float w[3][3][3][3], const float bias[3], float y[1][3][60][60] )
{
	/* Conv
	 *
	 * auto_pad: NOTSET
	 * dilations: 1 1 
	 * group: 1
	 * kernel_shape: 3 3 
	 * pads: 0 0 0 0 
	 * strides: 1 1 
	 */
	for( uint32_t b=0; b<1; b++ ) {
	for( uint32_t m=0; m<3; m++) {
		for( int32_t o0=0, i0=0; o0<60; o0++, i0+=1) {
		for( int32_t o1=0, i1=0; o1<60; o1++, i1+=1) {
			y[b][m][o0][o1] = bias[m];
			for( int32_t c=0; c<3; c++ ) {
			for( uint32_t k0=0; k0<3; k0++ ) {
			for( uint32_t k1=0; k1<3; k1++ ) {
				int ii0 = i0+k0 * 1;
				if( ii0<0) continue;
				if( ii0>=62) continue;
				int ii1 = i1+k1 * 1;
				if( ii1<0) continue;
				if( ii1>=62) continue;
				y[b][m][o0][o1] += x[b][c][ii0][ii1] *w[m][c][k0][k1];
			} /* k */
			} /* k */
			} /* c */
		} /* o */
		} /* o */
	} /* m */
	} /* b */
}

/*
 * Operand:           Relu
 * Name in ONNX file: /Relu_3
 */
FUNC_PREFIX void node__Relu_3( const float X[1][3][60][60], float Y[1][3][60][60] )
{
	/*Relu*/
	float *X_ptr = (float*)X;
	float *Y_ptr = (float*)Y;
	uint32_t i;
	for( i=0; i<10800; i++ )
		Y_ptr[i] = X_ptr[i] > 0 ? X_ptr[i] : 0;

}

/*
 * Operand:           MaxPool
 * Name in ONNX file: /pool_3/MaxPool
 */
FUNC_PREFIX void node__pool_3_MaxPool( const float x[1][3][60][60], float y[1][3][30][30] )
{
	/* MaxPool
	 *
	 * auto_pad: NOTSET
	 * dilations: 1 1 
	 * group: 1
	 * kernel_shape: 2 2 
	 * pads: 0 0 0 0 
	 * strides: 2 2 
	 */
	for( uint32_t b=0; b<1; b++ ) {
	for( uint32_t m=0, c=0; m<3; m++, c=m) {
		for( int32_t o0=0, i0=0; o0<30; o0++, i0+=2) {
		for( int32_t o1=0, i1=0; o1<30; o1++, i1+=2) {
			float curmax = -FLT_MAX;
			for( uint32_t k0=0; k0<2; k0++ ) {
			for( uint32_t k1=0; k1<2; k1++ ) {
				int ii0 = i0+k0 * 1;
				if( ii0<0) continue;
				if( ii0>=60) continue;
				int ii1 = i1+k1 * 1;
				if( ii1<0) continue;
				if( ii1>=60) continue;
				if( curmax < x[b][c][ii0][ii1]) {
				curmax = MAX( curmax, x[b][c][ii0][ii1]);
				}
			} /* k */
			} /* k */
			y[b][m][o0][o1]= curmax;
		} /* o */
		} /* o */
	} /* m */
	} /* b */
}

/*
 * Operand:           Conv
 * Name in ONNX file: /conv5/Conv
 */
FUNC_PREFIX void node__conv5_Conv( const float x[1][3][30][30], const float w[3][3][3][3], const float bias[3], float y[1][3][28][28] )
{
	/* Conv
	 *
	 * auto_pad: NOTSET
	 * dilations: 1 1 
	 * group: 1
	 * kernel_shape: 3 3 
	 * pads: 0 0 0 0 
	 * strides: 1 1 
	 */
	for( uint32_t b=0; b<1; b++ ) {
	for( uint32_t m=0; m<3; m++) {
		for( int32_t o0=0, i0=0; o0<28; o0++, i0+=1) {
		for( int32_t o1=0, i1=0; o1<28; o1++, i1+=1) {
			y[b][m][o0][o1] = bias[m];
			for( int32_t c=0; c<3; c++ ) {
			for( uint32_t k0=0; k0<3; k0++ ) {
			for( uint32_t k1=0; k1<3; k1++ ) {
				int ii0 = i0+k0 * 1;
				if( ii0<0) continue;
				if( ii0>=30) continue;
				int ii1 = i1+k1 * 1;
				if( ii1<0) continue;
				if( ii1>=30) continue;
				y[b][m][o0][o1] += x[b][c][ii0][ii1] *w[m][c][k0][k1];
			} /* k */
			} /* k */
			} /* c */
		} /* o */
		} /* o */
	} /* m */
	} /* b */
}

/*
 * Operand:           Relu
 * Name in ONNX file: /Relu_4
 */
FUNC_PREFIX void node__Relu_4( const float X[1][3][28][28], float Y[1][3][28][28] )
{
	/*Relu*/
	float *X_ptr = (float*)X;
	float *Y_ptr = (float*)Y;
	uint32_t i;
	for( i=0; i<2352; i++ )
		Y_ptr[i] = X_ptr[i] > 0 ? X_ptr[i] : 0;

}

/*
 * Operand:           MaxPool
 * Name in ONNX file: /pool_4/MaxPool
 */
FUNC_PREFIX void node__pool_4_MaxPool( const float x[1][3][28][28], float y[1][3][14][14] )
{
	/* MaxPool
	 *
	 * auto_pad: NOTSET
	 * dilations: 1 1 
	 * group: 1
	 * kernel_shape: 2 2 
	 * pads: 0 0 0 0 
	 * strides: 2 2 
	 */
	for( uint32_t b=0; b<1; b++ ) {
	for( uint32_t m=0, c=0; m<3; m++, c=m) {
		for( int32_t o0=0, i0=0; o0<14; o0++, i0+=2) {
		for( int32_t o1=0, i1=0; o1<14; o1++, i1+=2) {
			float curmax = -FLT_MAX;
			for( uint32_t k0=0; k0<2; k0++ ) {
			for( uint32_t k1=0; k1<2; k1++ ) {
				int ii0 = i0+k0 * 1;
				if( ii0<0) continue;
				if( ii0>=28) continue;
				int ii1 = i1+k1 * 1;
				if( ii1<0) continue;
				if( ii1>=28) continue;
				if( curmax < x[b][c][ii0][ii1]) {
				curmax = MAX( curmax, x[b][c][ii0][ii1]);
				}
			} /* k */
			} /* k */
			y[b][m][o0][o1]= curmax;
		} /* o */
		} /* o */
	} /* m */
	} /* b */
}

/*
 * Operand:           Conv
 * Name in ONNX file: /conv6/Conv
 */
FUNC_PREFIX void node__conv6_Conv( const float x[1][3][14][14], const float w[3][3][3][3], const float bias[3], float y[1][3][12][12] )
{
	/* Conv
	 *
	 * auto_pad: NOTSET
	 * dilations: 1 1 
	 * group: 1
	 * kernel_shape: 3 3 
	 * pads: 0 0 0 0 
	 * strides: 1 1 
	 */
	for( uint32_t b=0; b<1; b++ ) {
	for( uint32_t m=0; m<3; m++) {
		for( int32_t o0=0, i0=0; o0<12; o0++, i0+=1) {
		for( int32_t o1=0, i1=0; o1<12; o1++, i1+=1) {
			y[b][m][o0][o1] = bias[m];
			for( int32_t c=0; c<3; c++ ) {
			for( uint32_t k0=0; k0<3; k0++ ) {
			for( uint32_t k1=0; k1<3; k1++ ) {
				int ii0 = i0+k0 * 1;
				if( ii0<0) continue;
				if( ii0>=14) continue;
				int ii1 = i1+k1 * 1;
				if( ii1<0) continue;
				if( ii1>=14) continue;
				y[b][m][o0][o1] += x[b][c][ii0][ii1] *w[m][c][k0][k1];
			} /* k */
			} /* k */
			} /* c */
		} /* o */
		} /* o */
	} /* m */
	} /* b */
}

/*
 * Operand:           Relu
 * Name in ONNX file: /Relu_5
 */
FUNC_PREFIX void node__Relu_5( const float X[1][3][12][12], float Y[1][3][12][12] )
{
	/*Relu*/
	float *X_ptr = (float*)X;
	float *Y_ptr = (float*)Y;
	uint32_t i;
	for( i=0; i<432; i++ )
		Y_ptr[i] = X_ptr[i] > 0 ? X_ptr[i] : 0;

}

/*
 * Operand:           MaxPool
 * Name in ONNX file: /pool_5/MaxPool
 */
FUNC_PREFIX void node__pool_5_MaxPool( const float x[1][3][12][12], float y[1][3][6][6] )
{
	/* MaxPool
	 *
	 * auto_pad: NOTSET
	 * dilations: 1 1 
	 * group: 1
	 * kernel_shape: 2 2 
	 * pads: 0 0 0 0 
	 * strides: 2 2 
	 */
	for( uint32_t b=0; b<1; b++ ) {
	for( uint32_t m=0, c=0; m<3; m++, c=m) {
		for( int32_t o0=0, i0=0; o0<6; o0++, i0+=2) {
		for( int32_t o1=0, i1=0; o1<6; o1++, i1+=2) {
			float curmax = -FLT_MAX;
			for( uint32_t k0=0; k0<2; k0++ ) {
			for( uint32_t k1=0; k1<2; k1++ ) {
				int ii0 = i0+k0 * 1;
				if( ii0<0) continue;
				if( ii0>=12) continue;
				int ii1 = i1+k1 * 1;
				if( ii1<0) continue;
				if( ii1>=12) continue;
				if( curmax < x[b][c][ii0][ii1]) {
				curmax = MAX( curmax, x[b][c][ii0][ii1]);
				}
			} /* k */
			} /* k */
			y[b][m][o0][o1]= curmax;
		} /* o */
		} /* o */
	} /* m */
	} /* b */
}

/*
 * Operand:           Conv
 * Name in ONNX file: /conv7/Conv
 */
FUNC_PREFIX void node__conv7_Conv( const float x[1][3][6][6], const float w[3][3][3][3], const float bias[3], float y[1][3][4][4] )
{
	/* Conv
	 *
	 * auto_pad: NOTSET
	 * dilations: 1 1 
	 * group: 1
	 * kernel_shape: 3 3 
	 * pads: 0 0 0 0 
	 * strides: 1 1 
	 */
	for( uint32_t b=0; b<1; b++ ) {
	for( uint32_t m=0; m<3; m++) {
		for( int32_t o0=0, i0=0; o0<4; o0++, i0+=1) {
		for( int32_t o1=0, i1=0; o1<4; o1++, i1+=1) {
			y[b][m][o0][o1] = bias[m];
			for( int32_t c=0; c<3; c++ ) {
			for( uint32_t k0=0; k0<3; k0++ ) {
			for( uint32_t k1=0; k1<3; k1++ ) {
				int ii0 = i0+k0 * 1;
				if( ii0<0) continue;
				if( ii0>=6) continue;
				int ii1 = i1+k1 * 1;
				if( ii1<0) continue;
				if( ii1>=6) continue;
				y[b][m][o0][o1] += x[b][c][ii0][ii1] *w[m][c][k0][k1];
			} /* k */
			} /* k */
			} /* c */
		} /* o */
		} /* o */
	} /* m */
	} /* b */
}

/*
 * Operand:           Relu
 * Name in ONNX file: /Relu_6
 */
FUNC_PREFIX void node__Relu_6( const float X[1][3][4][4], float Y[1][3][4][4] )
{
	/*Relu*/
	float *X_ptr = (float*)X;
	float *Y_ptr = (float*)Y;
	uint32_t i;
	for( i=0; i<48; i++ )
		Y_ptr[i] = X_ptr[i] > 0 ? X_ptr[i] : 0;

}

/*
 * Operand:           MaxPool
 * Name in ONNX file: /pool_6/MaxPool
 */
FUNC_PREFIX void node__pool_6_MaxPool( const float x[1][3][4][4], float y[1][3][2][2] )
{
	/* MaxPool
	 *
	 * auto_pad: NOTSET
	 * dilations: 1 1 
	 * group: 1
	 * kernel_shape: 2 2 
	 * pads: 0 0 0 0 
	 * strides: 2 2 
	 */
	for( uint32_t b=0; b<1; b++ ) {
	for( uint32_t m=0, c=0; m<3; m++, c=m) {
		for( int32_t o0=0, i0=0; o0<2; o0++, i0+=2) {
		for( int32_t o1=0, i1=0; o1<2; o1++, i1+=2) {
			float curmax = -FLT_MAX;
			for( uint32_t k0=0; k0<2; k0++ ) {
			for( uint32_t k1=0; k1<2; k1++ ) {
				int ii0 = i0+k0 * 1;
				if( ii0<0) continue;
				if( ii0>=4) continue;
				int ii1 = i1+k1 * 1;
				if( ii1<0) continue;
				if( ii1>=4) continue;
				if( curmax < x[b][c][ii0][ii1]) {
				curmax = MAX( curmax, x[b][c][ii0][ii1]);
				}
			} /* k */
			} /* k */
			y[b][m][o0][o1]= curmax;
		} /* o */
		} /* o */
	} /* m */
	} /* b */
}

/*
 * Operand:           Flatten
 * Name in ONNX file: /Flatten
 */
FUNC_PREFIX void node__Flatten( const float input[1][3][2][2], float output[1][12] )
{
	/* Flatten*/
	float *input_ = (float*)input;
	float *output_ = (float*)output;
	for( uint32_t i=0; i<12; i++ )
		output_[i] = input_[i];

}

/*
 * Operand:           Gemm
 * Name in ONNX file: /fc1/Gemm
 */
FUNC_PREFIX void node__fc1_Gemm( const float A[1][12], const float B[30][12], const float C[30], float Y[1][30] )
{
	/* Gemm */
	/* alpha   = 1.0000000000000000000
	   beta    = 1.0000000000000000000
	   transA  = 0
	   transB  = 1
	 */
	const int M = 1;
	const int K = 12;
	const int N = 30;
	float alpha = 1.0000000000000000000;
	float beta = 1.0000000000000000000;
	float (*C_)[30]  = (float(*)[30])C;
	for( uint32_t r=0; r<M; r++ )
		for( uint32_t c=0; c<N; c++ ) {
			float ABrc = 0;
			for( uint32_t i=0; i<K; i++ ) {
				float B_el = B[c][i];
				ABrc += A[r][i] * B_el;
			}
			float tmp = ABrc * alpha;
			tmp += C_[0][c] * beta;
			Y[r][c] = tmp;
	}
}

/*
 * Operand:           Relu
 * Name in ONNX file: /Relu_7
 */
FUNC_PREFIX void node__Relu_7( const float X[1][30], float Y[1][30] )
{
	/*Relu*/
	float *X_ptr = (float*)X;
	float *Y_ptr = (float*)Y;
	uint32_t i;
	for( i=0; i<30; i++ )
		Y_ptr[i] = X_ptr[i] > 0 ? X_ptr[i] : 0;

}

/*
 * Operand:           Gemm
 * Name in ONNX file: /fc2/Gemm
 */
FUNC_PREFIX void node__fc2_Gemm( const float A[1][30], const float B[30][30], const float C[30], float Y[1][30] )
{
	/* Gemm */
	/* alpha   = 1.0000000000000000000
	   beta    = 1.0000000000000000000
	   transA  = 0
	   transB  = 1
	 */
	const int M = 1;
	const int K = 30;
	const int N = 30;
	float alpha = 1.0000000000000000000;
	float beta = 1.0000000000000000000;
	float (*C_)[30]  = (float(*)[30])C;
	for( uint32_t r=0; r<M; r++ )
		for( uint32_t c=0; c<N; c++ ) {
			float ABrc = 0;
			for( uint32_t i=0; i<K; i++ ) {
				float B_el = B[c][i];
				ABrc += A[r][i] * B_el;
			}
			float tmp = ABrc * alpha;
			tmp += C_[0][c] * beta;
			Y[r][c] = tmp;
	}
}

/*
 * Operand:           Relu
 * Name in ONNX file: /Relu_8
 */
FUNC_PREFIX void node__Relu_8( const float X[1][30], float Y[1][30] )
{
	/*Relu*/
	float *X_ptr = (float*)X;
	float *Y_ptr = (float*)Y;
	uint32_t i;
	for( i=0; i<30; i++ )
		Y_ptr[i] = X_ptr[i] > 0 ? X_ptr[i] : 0;

}

/*
 * Operand:           Concat
 * Name in ONNX file: /Concat
 */
FUNC_PREFIX void node__Concat( const float input_0[1][30], const float input_1[1][1], float output[1][31] )
{
	/* Concat */
	int64_t outputOffset;
	outputOffset = 0;
	for (int64_t i = 0, j = 0; i < 30; i++) {
		*((float*)output + (outputOffset + i)) = *((float*)input_0 + i);
		if (++j == 30) {
			outputOffset += (1);
			j = 0;
		}
	}
	outputOffset = 30;
	for (int64_t i = 0, j = 0; i < 1; i++) {
		*((float*)output + (outputOffset + i)) = *((float*)input_1 + i);
		if (++j == 1) {
			outputOffset += (30);
			j = 0;
		}
	}
}

/*
 * Operand:           Gemm
 * Name in ONNX file: /fc3/Gemm
 */
FUNC_PREFIX void node__fc3_Gemm( const float A[1][31], const float B[1][31], const float C[1], float Y[1][1] )
{
	/* Gemm */
	/* alpha   = 1.0000000000000000000
	   beta    = 1.0000000000000000000
	   transA  = 0
	   transB  = 1
	 */
	const int M = 1;
	const int K = 31;
	const int N = 1;
	float alpha = 1.0000000000000000000;
	float beta = 1.0000000000000000000;
	float (*C_)[1]  = (float(*)[1])C;
	for( uint32_t r=0; r<M; r++ )
		for( uint32_t c=0; c<N; c++ ) {
			float ABrc = 0;
			for( uint32_t i=0; i<K; i++ ) {
				float B_el = B[c][i];
				ABrc += A[r][i] * B_el;
			}
			float tmp = ABrc * alpha;
			tmp += C_[0][0] * beta;
			Y[r][c] = tmp;
	}
}


void entry(const float tensor_input[1][1][512][512], const float tensor_onnx__Concat_1[1][1], float tensor_49[1][1]){
	node__conv1_Conv( tensor_input, tensor_conv1_weight, tensor_conv1_bias, tu0.tensor__conv1_Conv_output_0);
	node__Relu( tu0.tensor__conv1_Conv_output_0, tu1.tensor__Relu_output_0);
	node__pool_MaxPool( tu1.tensor__Relu_output_0, tu0.tensor__pool_MaxPool_output_0);
	node__conv2_Conv( tu0.tensor__pool_MaxPool_output_0, tensor_conv2_weight, tensor_conv2_bias, tu1.tensor__conv2_Conv_output_0);
	node__Relu_1( tu1.tensor__conv2_Conv_output_0, tu0.tensor__Relu_1_output_0);
	node__pool_1_MaxPool( tu0.tensor__Relu_1_output_0, tu1.tensor__pool_1_MaxPool_output_0);
	node__conv3_Conv( tu1.tensor__pool_1_MaxPool_output_0, tensor_conv3_weight, tensor_conv3_bias, tu0.tensor__conv3_Conv_output_0);
	node__Relu_2( tu0.tensor__conv3_Conv_output_0, tu1.tensor__Relu_2_output_0);
	node__pool_2_MaxPool( tu1.tensor__Relu_2_output_0, tu0.tensor__pool_2_MaxPool_output_0);
	node__conv4_Conv( tu0.tensor__pool_2_MaxPool_output_0, tensor_conv4_weight, tensor_conv4_bias, tu1.tensor__conv4_Conv_output_0);
	node__Relu_3( tu1.tensor__conv4_Conv_output_0, tu0.tensor__Relu_3_output_0);
	node__pool_3_MaxPool( tu0.tensor__Relu_3_output_0, tu1.tensor__pool_3_MaxPool_output_0);
	node__conv5_Conv( tu1.tensor__pool_3_MaxPool_output_0, tensor_conv5_weight, tensor_conv5_bias, tu0.tensor__conv5_Conv_output_0);
	node__Relu_4( tu0.tensor__conv5_Conv_output_0, tu1.tensor__Relu_4_output_0);
	node__pool_4_MaxPool( tu1.tensor__Relu_4_output_0, tu0.tensor__pool_4_MaxPool_output_0);
	node__conv6_Conv( tu0.tensor__pool_4_MaxPool_output_0, tensor_conv6_weight, tensor_conv6_bias, tu1.tensor__conv6_Conv_output_0);
	node__Relu_5( tu1.tensor__conv6_Conv_output_0, tu0.tensor__Relu_5_output_0);
	node__pool_5_MaxPool( tu0.tensor__Relu_5_output_0, tu1.tensor__pool_5_MaxPool_output_0);
	node__conv7_Conv( tu1.tensor__pool_5_MaxPool_output_0, tensor_conv7_weight, tensor_conv7_bias, tu0.tensor__conv7_Conv_output_0);
	node__Relu_6( tu0.tensor__conv7_Conv_output_0, tu1.tensor__Relu_6_output_0);
	node__pool_6_MaxPool( tu1.tensor__Relu_6_output_0, tu0.tensor__pool_6_MaxPool_output_0);
	node__Flatten( tu0.tensor__pool_6_MaxPool_output_0, tu1.tensor__Flatten_output_0);
	node__fc1_Gemm( tu1.tensor__Flatten_output_0, tensor_fc1_weight, tensor_fc1_bias, tu0.tensor__fc1_Gemm_output_0);
	node__Relu_7( tu0.tensor__fc1_Gemm_output_0, tu1.tensor__Relu_7_output_0);
	node__fc2_Gemm( tu1.tensor__Relu_7_output_0, tensor_fc2_weight, tensor_fc2_bias, tu0.tensor__fc2_Gemm_output_0);
	node__Relu_8( tu0.tensor__fc2_Gemm_output_0, tu1.tensor__Relu_8_output_0);
	node__Concat( tu1.tensor__Relu_8_output_0, tensor_onnx__Concat_1, tu0.tensor__Concat_output_0);
	node__fc3_Gemm( tu0.tensor__Concat_output_0, tensor_fc3_weight, tensor_fc3_bias, tensor_49);
}
