// This file is computer-generated by onnx2c 
// (TODO: add creating command line here)
// (TODO: print creation date here )

// ONNX model:
// produced by pytorch, version 2.5.1
// ONNX IR version: 17
// Model documentation: 
/*

*/

#include <float.h>
#include <math.h>
#include <stdbool.h>
#include <stdint.h>
#include <string.h>

#define MAX(X,Y) ( X > Y ? X : Y)
#define MIN(X,Y) ( X < Y ? X : Y)
#define CLIP(X,L) ( MAX(MIN(X,L), -L) )

#if __STDC_VERSION__ < 199901L
#define FUNC_PREFIX
#else
#define FUNC_PREFIX static inline
#endif

static const float tensor_fc1_weight[4][2048] = 
{
  {0.017736788839101791382f, -0.0034642417449504137039f, -0.0086636925116181373596f, -0.016230341047048568726f, 0.014003521762788295746f, 0.00014206122432369738817f, 0.015162191353738307953f, -0.010052808560431003571f, -0.0052935942076146602631f, 0.022072646766901016235f, 0.018113425001502037048f, -0.019355015829205513000f, 0.010280498303472995758f, 0.0070616281591355800629f, -0.0014446438290178775787f, -0.016333760693669319153f, 0.020577810704708099365f, 0.0036152775865048170090f, 0.012402315624058246613f, -0.0063290842808783054352f, -0.015025833621621131897f, 0.020831147208809852600f, -0.0011298331664875149727f, 0.0061998749151825904846f, 0.010554142296314239502f, -0.010183229111135005951f, 0.00071397022111341357231f, 0.017879622057080268860f, -0.0026907469145953655243f, 0.020738106220960617065f, 0.019013138487935066223f, -0.019954200834035873413f, -0.016914589330554008484f, 0.013614390976727008820f, 0.013298046775162220001f, -0.0024861029814928770065f, -0.021548449993133544922f, -0.014441414736211299896f, -0.0049297744408249855042f, -0.017427727580070495605f, -0.0016523012891411781311f, -0.0093793515115976333618f, -0.017481649294495582581f, -0.019619774073362350464f, 0.013897454366087913513f, 0.0052240383811295032501f, -0.0091248555108904838562f, 0.019364334642887115479f, -0.0078301252797245979309f, -0.0049706832505762577057f, -0.0093826362863183021545f, -0.020086929202079772949f, -0.020066345110535621643f, 0.0060301758348941802979f, 0.0042122560553252696991f, 0.015081648714840412140f, 0.016754783689975738525f, 0.015219819732010364532f, 0.016111753880977630615f, 0.018463049083948135376f, 0.020592361688613891602f, 0.013246754184365272522f, 0.0064255716279149055481f, -0.0087061766535043716431f, 0.018470130860805511475f, 0.0054075722582638263702f, 0.020476948469877243042f, -0.020755048841238021851f, -0.018618717789649963379f, 0.018410528078675270081f, -0.0035085906274616718292f, 0.0088121602311730384827f, -0.016637196764349937439f, -0.013437305577099323273f, 0.011297210119664669037f, 0.019384304061532020569f, 0.018634198233485221863f, -0.019661314785480499268f, -0.011570710688829421997f, 0.012383570894598960876f, 0.015151007100939750671f, 0.0090439468622207641602f, 0.015971411019563674927f, -0.014599170535802841187f, 0.021985312923789024353f, 0.0036334376782178878784f, 0.021708423271775245667f, 0.012628997676074504852f, 0.012021245434880256653f, -0.0045570936053991317749f, 0.0036171004176139831543f, -0.011521175503730773926f, -0.016779879108071327209f, -0.016659671440720558167f, -0.0039801769889891147614f, 0.018525557592511177063f, 0.0063768206164240837097f, 0.0020817881450057029724f, -0.016467975452542304993f, -0.0058854673989117145538f, -0.0053961398079991340637f, 0.010373613797128200531f, -0.0077911135740578174591f, 0.011469097808003425598f, -0.0020942136179655790329f, -0.0050113787874579429626f, -0.014541977085173130035f, 0.0016026680823415517807f, 0.011247565969824790955f, -0.0094693535938858985901f, 0.019632283598184585571f, 0.0026496800128370523453f, -0.012261386960744857788f, -0.0016279615228995680809f, -0.018883252516388893127f, 0.016158809885382652283f, 0.0043676700443029403687f, 0.0064965123310685157776f, 0.0064739584922790527344f, 0.018098257482051849365f, -0.00028806054615415632725f, -0.0021409124601632356644f, -0.021509248763322830200f, -0.015783149749040603638f, -0.021880427375435829163f, 0.0048749679699540138245f, 0.014864234253764152527f, -0.0027405619621276855469f, 0.018146330490708351135f, 0.0092152394354343414307f, 0.010062525980174541473f, 0.0097765168175101280212f, 0.017964193597435951233f, -0.0060825487598776817322f, -0.0026939606759697198868f, -0.0054757026955485343933f, 0.018166540190577507019f, 0.017935000360012054443f, 0.019744629040360450745f, 0.0071690944023430347443f, -0.00085518590640276670456f, -0.0056792115792632102966f, -0.016409894451498985291f, 0.0059207654558122158051f, 0.0084651941433548927307f, -0.013381139375269412994f, -0.015816036611795425415f, -0.00052412500372156500816f, 0.010662037879228591919f, 0.021502697840332984924f, -0.013663829304277896881f, -0.017313094809651374817f, 0.0058810659684240818024f, -0.011789242736995220184f, -0.013939806260168552399f, 0.021505465731024742126f, -0.0038842377252876758575f, 0.0042868321761488914490f, 0.010825752280652523041f, -0.021300215274095535278f, -0.0022795228287577629089f, -0.019750813022255897522f, -0.0048433891497552394867f, 0.0029478268697857856750f, 0.013006944209337234497f, 0.0074273152276873588562f, 0.0017343454528599977493f, 0.010010953992605209351f, -0.016129827126860618591f, 0.017528031021356582642f, -0.0075185233727097511292f, 0.012241488322615623474f, 0.0020541003905236721039f, -0.020446803420782089233f, 0.016184490174055099487f, -0.0067240446805953979492f, 0.0073858532123267650604f, 0.0016139134531840682030f, 0.00097321288194507360458f, -0.0057876948267221450806f, -0.0042132888920605182648f, -0.0053833457641303539276f, 0.020806757733225822449f, 0.012104567140340805054f, -0.010971322655677795410f, -0.015329059213399887085f, 0.012206530198454856873f, 0.0013867603847756981850f, 0.018421981483697891235f, -0.015187577344477176666f, -0.013679515570402145386f, 0.017735229805111885071f, -0.015807593241333961487f, 0.013251430355012416840f, 0.0060851513408124446869f, 0.020824277773499488831f, -0.010148948058485984802f, 0.0087009957060217857361f, -0.011271086521446704865f, 0.0077037587761878967285f, -0.0047900895588099956512f, -0.016696041449904441833f, 0.020983986556529998779f, 0.011084185913205146790f, 0.010034510865807533264f, -0.0012021624715998768806f, -0.0065000080503523349762f, -0.016874112188816070557f, -0.00054707663366571068764f, -0.0059257652610540390015f, 0.014819895848631858826f, 0.021325161680579185486f, -0.015872647985816001892f, 0.013624911196529865265f, 0.0041602994315326213837f, 0.0048948135226964950562f, -0.012453050352632999420f, 0.0044343750923871994019f, -0.013957395218312740326f, -0.021882932633161544800f, -0.020188709720969200134f, -0.0073133185505867004395f, -0.0099303824827075004578f, -0.0071826158091425895691f, 0.022009585052728652954f, -0.0061310939490795135498f, -0.017775470390915870667f, 0.015993308275938034058f, 0.015414264053106307983f, 0.010584211908280849457f, -0.020845817402005195618f, 0.0022920139599591493607f, 0.017876842990517616272f, 0.0042053516954183578491f, 0.011305212043225765228f, -0.019029628485441207886f, 0.012061197310686111450f, 0.0034765037707984447479f, -0.0067469463683664798737f, 0.0067775580100715160370f, -0.013722945004701614380f, 0.019672004505991935730f, -0.010256182402372360229f, 0.0018659067573025822639f, 0.0036453809589147567749f, 0.011031213216483592987f, -0.0050719226710498332977f, -0.016422010958194732666f, 0.013222353532910346985f, 0.011942580342292785645f, -0.011784775182604789734f, -0.015451393090188503265f, -0.012148858048021793365f, 0.013112822547554969788f, -0.0085079809650778770447f, -0.0042642652988433837891f, 0.0019318034173920750618f, -0.0058383974246680736542f, -0.014409525319933891296f, 0.020461341366171836853f, 0.010644030757248401642f, -0.0057020313106477260590f, 0.0086332075297832489014f, 0.011290378868579864502f, 0.016724556684494018555f, -0.019295735284686088562f, 0.00023310894903261214495f, -0.0067696585319936275482f, -0.0031357412226498126984f, -0.0017603473970666527748f, -0.00061839964473620057106f, 0.00038273289101198315620f, -0.0032114817295223474503f, 0.010135260410606861115f, -0.0038420723285526037216f, 0.010192335583269596100f, -0.0082350410521030426025f, 0.010656218975782394409f, 0.019110031425952911377f, 0.0062294462695717811584f, 0.0059602255932986736298f, -0.017170203849673271179f, -0.014284078031778335571f, -0.0087923724204301834106f, -0.0041331676766276359558f, -0.0058612991124391555786f, 0.012177154421806335449f, -0.012249038554728031158f, 0.010827285237610340118f, 0.0080569023266434669495f, 0.0029393394943326711655f, -0.014168318361043930054f, -0.014759262092411518097f, -0.016647409647703170776f, -0.00025383202591910958290f, 0.017705764621496200562f, 0.020607547834515571594f, 0.0091527337208390235901f, -0.0030824018176645040512f, 0.021426562219858169556f, 0.0058395485393702983856f, -0.0032365564256906509399f, -0.0082688713446259498596f, -0.017455520108342170715f, 0.019707510247826576233f, 0.012512540444731712341f, -0.017765402793884277344f, -0.014783347025513648987f, 0.0044464715756475925446f, 0.017265086993575096130f, 0.0080302543938159942627f, -0.012249699793756008148f, -0.0032547377049922943115f, -0.019707027822732925415f, 0.016825424507260322571f, 0.018851654604077339172f, 0.019363552331924438477f, 0.012173395603895187378f, -0.010044942609965801239f, 0.014793857000768184662f, 0.00035877240588888525963f, 0.014141511172056198120f, 0.010320883244276046753f, 0.017559509724378585815f, 0.016032686457037925720f, -0.012618294917047023773f, 0.0077051259577274322510f, 0.0034555648453533649445f, 0.019777869805693626404f, -0.00027363313711248338223f, 0.0057359565980732440948f, -0.0071143116801977157593f, -0.017027800902724266052f, -0.020989179611206054688f, 0.018887864425778388977f, 0.0066605666652321815491f, -0.0033973862882703542709f, -0.0070847505703568458557f, 0.0010455684969201683998f, 0.011385178193449974060f, 0.016969637945294380188f, -0.011874882504343986511f, -0.0049536479637026786804f, -0.0032700712326914072037f, -0.020827665925025939941f, 0.013362339697778224945f, -0.017708085477352142334f, 0.012443332932889461517f, -0.0044985278509557247162f, -0.0072020217776298522949f, 0.021254763007164001465f, -0.00067960738670080900192f, 0.015936745330691337585f, 0.0031999861821532249451f, 0.012993525713682174683f, -0.019121598452329635620f, 0.017581583932042121887f, 0.0013823454501107335091f, -0.014133619144558906555f, 0.015494914725422859192f, -0.0039966539479792118073f, -0.016154576092958450317f, -0.0047263395972549915314f, -0.0024119429290294647217f, 0.018380258232355117798f, -0.013170042075216770172f, -0.013976805843412876129f, 0.012016139924526214600f, -0.017306836321949958801f, 0.014717711135745048523f, -0.0024576301220804452896f, 0.011996346525847911835f, 0.016522705554962158203f, -0.0048229717649519443512f, 0.012265691533684730530f, -0.0058205453678965568542f, 0.022018862888216972351f, -0.020275052636861801147f, 0.014262401498854160309f, -0.0060880067758262157440f, -0.015141294337809085846f, 0.0023775037843734025955f, -0.0086915865540504455566f, -0.017654128372669219971f, -0.016677953302860260010f, -0.022089026868343353271f, -0.00053869205294176936150f, -0.0032842166256159543991f, 0.017742261290550231934f, 2.8931177439517341554e-05f, 0.0032492955215275287628f, -0.0079701533541083335876f, -0.0045254835858941078186f, -0.0041535296477377414703f, -0.019658565521240234375f, -0.00029084749985486268997f, -0.021047202870249748230f, -0.0019233081256970763206f, -0.0025612085592001676559f, 0.013202568516135215759f, 0.014226494356989860535f, 0.011886756867170333862f, 0.015686733648180961609f, -0.017499879002571105957f, 0.011714582331478595734f, -0.0058146738447248935699f, -0.020288854837417602539f, -0.012374443933367729187f, -0.018743047490715980530f, -0.0021982847247272729874f, -0.0031660106033086776733f, -0.0064559541642665863037f, -0.0050020697526633739471f, 0.016784321516752243042f, 0.019411526620388031006f, -0.0047089671716094017029f, -0.011889786459505558014f, -0.0063308384269475936890f, 0.020380564033985137939f, -0.015774069353938102722f, 0.0049012727104127407074f, 0.00059304828755557537079f, -0.0011624416802078485489f, 0.0059512481093406677246f, 0.0022429551463574171066f, 0.00060989911435171961784f, -0.017068019136786460876f, 0.0094802668318152427673f, -0.017991399392485618591f, 0.0077477814629673957825f, -0.018606111407279968262f, 0.0079135028645396232605f, -0.0016453681746497750282f, -0.015835953876376152039f, 0.017043160274624824524f, -0.0063629993237555027008f, 0.015875846147537231445f, -0.022090930491685867310f, 0.016462780535221099854f, -0.0043371557258069515228f, -0.0033523391466587781906f, -0.011704809032380580902f, 0.0077062826603651046753f, -0.016261881217360496521f, 0.017089258879423141479f, -0.015536434017121791840f, -0.018174089491367340088f, -0.014004172757267951965f, 0.016536818817257881165f, -0.020760364830493927002f, -0.017436925321817398071f, -0.019894910976290702820f, -0.015285287052392959595f, -0.0095878783613443374634f, 0.018489768728613853455f, -0.016419930383563041687f, -0.016359020024538040161f, -0.0045091384090483188629f, 0.00082371535245329141617f, 0.010428634472191333771f, 0.017057403922080993652f, 0.0091574406251311302185f, 0.015147116035223007202f, 0.011201027780771255493f, 0.012290324084460735321f, 0.0052755526266992092133f, -0.018864156678318977356f, -0.0016475571319460868835f, 0.015725936740636825562f, -0.0081779398024082183838f, 0.011448522098362445831f, -0.00041391100967302918434f, 0.019442154094576835632f, -0.00089190102880820631981f, 0.0097747631371021270752f, -0.020782614126801490784f, -0.021586993709206581116f, -0.0097878649830818176270f, -0.011652265675365924835f, -0.0045745423994958400726f, -0.011908099055290222168f, -0.00052041345043107867241f, -0.0047295745462179183960f, -0.0010866695083677768707f, -0.0088971098884940147400f, -0.019103927537798881531f, -0.012201232835650444031f, -0.021890403702855110168f, 0.0043515646830201148987f, -0.0066577424295246601105f, -0.012999755330383777618f, -0.0076230452395975589752f, 0.012179275043308734894f, 0.012962397187948226929f, 0.016681402921676635742f, -0.0054986174218356609344f, 0.0069986130110919475555f, -0.0093464693054556846619f, -0.010819390416145324707f, 0.0060908491723239421844f, 0.0031432593241333961487f, 0.00064336898503825068474f, 0.021071869879961013794f, -0.0031572231091558933258f, -0.0011592016089707612991f, 0.0068158907815814018250f, -0.00070773513289168477058f, 0.0033418894745409488678f, 0.0017637007404118776321f, -0.021339755505323410034f, 0.016887767240405082703f, -0.0077483318746089935303f, -0.0079137869179248809814f, 0.016996677964925765991f, -0.011715645901858806610f, 0.0068042320199310779572f, 0.0029907270800322294235f, -0.020607993006706237793f, 0.016244055703282356262f, -0.0094250440597534179688f, -0.0085949245840311050415f, -0.013074497692286968231f, -0.0098383547738194465637f, 0.0090591358020901679993f, 0.0015899898717179894447f, 0.011663660407066345215f, -0.019671179354190826416f, -0.017172671854496002197f, 0.016794782131910324097f, -0.0061763781122863292694f, 0.00039688369724899530411f, -0.020868545398116111755f, 0.014317660592496395111f, 0.0016848096856847405434f, -0.0052050407975912094116f, -0.018597571179270744324f, 0.021779973059892654419f, -0.021440250799059867859f, -0.010690419003367424011f, -0.010168867185711860657f, 0.0041625546291470527649f, -0.017648031935095787048f, -0.0026323734782636165619f, -0.013668918050825595856f, -0.014023791998624801636f, -0.015764804556965827942f, 0.018623672425746917725f, -0.0096595389768481254578f, 0.0046719438396394252777f, 0.0024170137476176023483f, 0.010209808126091957092f, 0.0034564919769763946533f, -0.011069479398429393768f, 0.018421782180666923523f, 0.015018070116639137268f, 0.018334500491619110107f, 0.0049557555466890335083f, 0.019728783518075942993f, -0.0051696561276912689209f, 0.021345827728509902954f, 0.018830405548214912415f, -7.0040157879702746868e-05f, -0.020724777132272720337f, -0.0030867324676364660263f, -0.010176195763051509857f, -0.0083669917657971382141f, -0.012909050099551677704f, 0.014257454313337802887f, -0.017793094739317893982f, 0.020388169214129447937f, 0.010793541558086872101f, 0.021674443036317825317f, -0.013464501127600669861f, 0.015073324553668498993f, -0.0062276339158415794373f, 0.0037143516819924116135f, 0.015379940159618854523f, -0.0060497373342514038086f, -0.0093403365463018417358f, 0.017233796417713165283f, -0.014544139616191387177f, -0.0084189726039767265320f, -0.0054156119003891944885f, 0.017514282837510108948f, 0.0036499302368611097336f, 0.021718868985772132874f, -0.020010162144899368286f, 0.010700603015720844269f, -0.019509483128786087036f, -0.018273565918207168579f, -0.018312344327569007874f, -0.015371558256447315216f, -0.0052885022014379501343f, 0.0056673469953238964081f, -0.018888531252741813660f, 0.0059258439578115940094f, -0.012193464674055576324f, 0.0039385044947266578674f, -0.016341870650649070740f, 0.018588528037071228027f, -0.013584271073341369629f, 0.018318912014365196228f, -0.00044043982052244246006f, 0.0053203413262963294983f, -0.0082631427794694900513f, 0.017719926312565803528f, 0.0010596929350867867470f, -0.017139086499810218811f, -0.019917804747819900513f, -0.012386492453515529633f, -0.012786200270056724548f, 0.0092896977439522743225f, 0.0088371960446238517761f, -0.0074760396964848041534f, 0.0041712340898811817169f, -0.011755709536373615265f, 0.0057212579995393753052f, 0.0097785638645291328430f, -0.017870206385850906372f, 0.021083001047372817993f, -0.019079351797699928284f, -0.0090083777904510498047f, -0.0059661152772605419159f, 0.010919302701950073242f, 0.020294906571507453918f, 0.0032111841719597578049f, 0.021481713280081748962f, -0.020090438425540924072f, -0.0085320603102445602417f, -0.015361203812062740326f, -0.0088240327313542366028f, -0.015443553216755390167f, -0.019926803186535835266f, 0.013901787810027599335f, -0.012301355600357055664f, 0.018187023699283599854f, -0.017801050096750259399f, 0.014318471774458885193f, 0.0095798261463642120361f, 0.0053174304775893688202f, 0.016151852905750274658f, 0.011827901937067508698f, 0.00072758365422487258911f, 0.013345796614885330200f, 0.010756687261164188385f, -0.00056761532323434948921f, -0.0010233544744551181793f, -0.020741235464811325073f, 0.019862361252307891846f, -0.018555428832769393921f, 0.020701652392745018005f, 0.010505159385502338409f, 0.0028999296482652425766f, -0.017615968361496925354f, 0.017564056441187858582f, -0.012263297103345394135f, 0.0080721620470285415649f, -0.017855437472462654114f, 0.0053917090408504009247f, -0.0059581524692475795746f, 0.015442265197634696960f, 0.0051143779419362545013f, 0.014274125918745994568f, -0.0086623728275299072266f, 0.0074087493121623992920f, -0.017172032967209815979f, -0.010309661738574504852f, 0.020552262663841247559f, 0.0083336252719163894653f, -0.0040354789234697818756f, 0.0081580569967627525330f, -0.0046736323274672031403f, 0.0028830419760197401047f, 0.014750803820788860321f, -0.014394223690032958984f, 0.0096185663715004920959f, -0.012703420594334602356f, -0.0098646041005849838257f, -0.0028507364913821220398f, -0.0041970410384237766266f, -0.0032998400274664163589f, -0.020588371902704238892f, -0.016105290502309799194f, 0.013425117358565330505f, 0.013414100743830204010f, -0.00013102665252517908812f, -0.0054900115355849266052f, -0.00092982529895380139351f, 0.016584353521466255188f, 0.021720862016081809998f, -0.015933865681290626526f, 0.018187006935477256775f, -0.0051465043798089027405f, -0.021643133834004402161f, -0.019391153007745742798f, 0.015783069655299186707f, -0.013151544146239757538f, -0.018760807812213897705f, -0.021547140553593635559f, 0.018853420391678810120f, -0.015243445523083209991f, 0.021851520985364913940f, 0.0066058072261512279510f, 0.0067128050141036510468f, -0.014039995148777961731f, 0.0066848034039139747620f, 0.0095408298075199127197f, -0.021764943376183509827f, -0.018739987164735794067f, -0.014086548238992691040f, 0.015550727955996990204f, -0.0038604722358286380768f, -0.021986156702041625977f, -0.017089972272515296936f, 0.013593859970569610596f, 0.017091721296310424805f, -0.0047975177876651287079f, 0.019581979140639305115f, 0.0069994954392313957214f, 0.0084703518077731132507f, 0.0088817346841096878052f, 0.019107347354292869568f, -0.012097731232643127441f, -0.0080964649096131324768f, -0.0082164965569972991943f, -0.020900793373584747314f, -0.0078216539695858955383f, 0.00090654182713478803635f, -0.0097926883026957511902f, -0.019150594249367713928f, 0.017653465270996093750f, -0.0013182638213038444519f, 0.015426089055836200714f, 0.017193874344229698181f, -0.017222730442881584167f, 0.0059077208861708641052f, 0.0010217897361144423485f, 0.011844141408801078796f, 0.016328686848282814026f, 0.011985891498625278473f, -0.0028341093566268682480f, -0.0079070888459682464600f, 0.010510367341339588165f, -0.0062859361059963703156f, -0.019364677369594573975f, 0.0054118055850267410278f, -0.00083246082067489624023f, 0.018497396260499954224f, 0.0013072818983346223831f, -0.019644245505332946777f, -0.0062880567274987697601f, 0.019007079303264617920f, 0.010666171088814735413f, 0.019063275307416915894f, 0.018364090472459793091f, 0.0025351382791996002197f, -0.020238002762198448181f, -0.020509300753474235535f, 0.017964180558919906616f, 0.0085703451186418533325f, 0.014914607629179954529f, -0.020972605794668197632f, 0.0032264150213450193405f, 0.011326067149639129639f, 0.017660485580563545227f, -0.0076685664243996143341f, -0.0077382009476423263550f, -0.010722573846578598022f, -0.015269570983946323395f, -0.0027607080992311239243f, -0.0046414402313530445099f, -0.012545251287519931793f, -0.0034435028210282325745f, -0.0010433109709993004799f, -0.010960222221910953522f, -0.00061875261599197983742f, -0.0082151796668767929077f, -0.0073318472132086753845f, 0.017346123233437538147f, -0.014440527185797691345f, 0.017863258719444274902f, -0.014225187711417675018f, 0.014914913102984428406f, -0.019676582887768745422f, -0.014327857643365859985f, 0.016869299113750457764f, -0.020281078293919563293f, -0.013628035783767700195f, -0.020335480570793151855f, 0.0028570690192282199860f, -0.0095951622352004051208f, 0.015906250104308128357f, -0.015372517518699169159f, -0.020244987681508064270f, 3.8933148971409536898e-06f, -0.014431024901568889618f, -0.012609427794814109802f, -0.0099560627713799476624f, -0.015175267122685909271f, -0.00030920244171284139156f, -0.015813905745744705200f, -0.018441518768668174744f, -0.013360719196498394012f, 0.0046488973312079906464f, 0.0030185652431100606918f, 0.0016717704711481928825f, -0.013517676852643489838f, -0.0082983560860157012939f, 0.017703501507639884949f, -0.020990177989006042480f, -0.0015056960983201861382f, -0.0039969622157514095306f, 0.017801895737648010254f, 0.0095023885369300842285f, 0.0050653479993343353271f, 0.00086066231597214937210f, -0.0084297703579068183899f, 0.011268422938883304596f, -0.0097483312711119651794f, -0.00025191961321979761124f, -0.0086073745042085647583f, -0.0052251843735575675964f, -0.018195679411292076111f, -0.0090926717966794967651f, 0.021549686789512634277f, 0.012782283127307891846f, 0.016889864578843116760f, -0.014298460446298122406f, 0.0040373755618929862976f, -0.0025884935166686773300f, 0.015165774151682853699f, -0.011719157919287681580f, 0.016959609463810920715f, -0.0035981291439384222031f, 0.021637361496686935425f, 0.0085164662450551986694f, -0.00098751380573958158493f, 0.015744192525744438171f, -0.0039213900454342365265f, 0.016801590099930763245f, 0.014933412894606590271f, -0.014983947388827800751f, 0.020569041371345520020f, 0.012102019973099231720f, -0.018848521634936332703f, 0.011993623338639736176f, -0.016626575961709022522f, -0.0061106318607926368713f, -0.0022742701694369316101f, 0.017725143581628799438f, 0.0022471752017736434937f, 0.013887156732380390167f, 0.0098788915202021598816f, 0.013285094872117042542f, 0.019588537514209747314f, -0.00080152769805863499641f, -0.015132441185414791107f, 0.013935077935457229614f, 0.0076307551935315132141f, 0.017105558887124061584f, -0.019318355247378349304f, 0.0075190369971096515656f, 0.020622540265321731567f, 0.018907889723777770996f, -0.0016254669753834605217f, 0.0057822391390800476074f, -0.016495315358042716980f, 0.013903304934501647949f, 0.021863967180252075195f, 0.014658518135547637939f, -0.0087268976494669914246f, -0.018337909132242202759f, -0.0067258230410516262054f, 0.0038751445244997739792f, -0.019470727071166038513f, -0.012770118191838264465f, 0.0010604806011542677879f, -0.014840192161500453949f, 0.014288511127233505249f, 0.0098808780312538146973f, -0.011188626289367675781f, 0.014970976859331130981f, -0.011759676039218902588f, 0.0059407167136669158936f, 0.0024625770747661590576f, 0.0010578832589089870453f, -0.0038920638617128133774f, 0.0021015787497162818909f, -0.0041210791096091270447f, -0.0071613001637160778046f, 0.0058280238881707191467f, 0.010374504141509532928f, 0.0026083209086209535599f, -0.020508270710706710815f, 0.019480412825942039490f, -0.0067696110345423221588f, -0.015125560574233531952f, -0.0074691008776426315308f, -0.017330942675471305847f, -0.017156410962343215942f, 0.013582121580839157104f, -0.0092050638049840927124f, -0.020586561411619186401f, -0.012649388983845710754f, -0.011788386851549148560f, -0.010231281630694866180f, 0.011629124172031879425f, 0.018752392381429672241f, 0.014055979438126087189f, 0.011128340847790241241f, -0.0088237319141626358032f, -0.0022964051458984613419f, -0.016569938510656356812f, -0.0074149081483483314514f, 0.019228203222155570984f, 0.012054973281919956207f, -0.0030166001524776220322f, -0.012658805586397647858f, -0.019712459295988082886f, -0.0096499528735876083374f, -0.011083074845373630524f, -0.013334412127733230591f, 0.020905258134007453918f, -0.016930038109421730042f, -0.016655033454298973083f, -0.017643596976995468140f, 0.015144142322242259979f, 0.012344337999820709229f, 0.0036671499256044626236f, -0.0035042522940784692764f, -0.018745940178632736206f, 0.0018837032839655876160f, 0.015194674022495746613f, -0.0063725640065968036652f, -0.019657008349895477295f, 0.011547635309398174286f, -0.015187956392765045166f, -0.016126837581396102905f, 0.012588799931108951569f, -0.012453956529498100281f, -0.013613647781312465668f, -0.0028017880395054817200f, 0.021765772253274917603f, 0.021777115762233734131f, -0.011171111837029457092f, 0.019762467592954635620f, -0.019159166142344474792f, -0.0069764861837029457092f, 0.0067648850381374359131f, 0.013776748441159725189f, 0.018016476184129714966f, 0.014699946157634258270f, 0.00047848263056948781013f, -0.017884587869048118591f, 0.0066210958175361156464f, 0.010009475983679294586f, -0.016803700476884841919f, 0.0025536038447171449661f, 0.016935832798480987549f, 0.016708582639694213867f, 0.0017040470847859978676f, 0.016219822689890861511f, 0.0042882310226559638977f, 0.019685303792357444763f, 0.0012925278861075639725f, 0.0058901878073811531067f, -0.0039587346836924552917f, -0.010094006545841693878f, 0.0061436011455953121185f, 0.0075724371708929538727f, -0.0027778223156929016113f, 0.021366324275732040405f, 0.0065084481611847877502f, 0.018237631767988204956f, 0.0022561813239008188248f, -0.013747437857091426849f, 0.0058534727431833744049f, 0.019503802061080932617f, 1.6892983694560825825e-05f, 0.00079030607594177126884f, -0.0091471858322620391846f, 0.00098814337980002164841f, 0.018527524545788764954f, 0.0022034319117665290833f, 0.011921422556042671204f, 0.0024373969063162803650f, -0.0053177680820226669312f, -0.013165555894374847412f, -0.0034662727266550064087f, -0.016898501664400100708f, -0.016546586528420448303f, -0.0081167975440621376038f, 0.0026678927242755889893f, -0.020654803141951560974f, -0.0059622721746563911438f, -0.019908759742975234985f, 0.0088144047185778617859f, -0.021055158227682113647f, -0.017335930839180946350f, -0.0021776196081191301346f, -0.00078249839134514331818f, 0.010711608454585075378f, -0.017028747126460075378f, 0.0096902949735522270203f, -0.0057134767994284629822f, 0.0043310625478625297546f, 0.0049184341914951801300f, -0.0084919184446334838867f, -0.020836867392063140869f, -0.0092279287055134773254f, -0.0078408708795905113220f, -0.011610561050474643707f, -0.010948397219181060791f, 0.0081158736720681190491f, 0.013909785076975822449f, 0.0052227531559765338898f, 0.0077530522830784320831f, -0.016215892508625984192f, 0.017545295879244804382f, -0.0014290047110989689827f, -0.022025147452950477600f, -0.020843571051955223083f, -0.0045477026142179965973f, 0.0041435780003666877747f, 0.019488908350467681885f, 0.0047341156750917434692f, 0.021998818963766098022f, -0.0039880401454865932465f, -0.0028113133739680051804f, 0.0044200718402862548828f, -0.019895665347576141357f, 0.00059398077428340911865f, -0.017210120335221290588f, 0.0099699683487415313721f, 0.011881749145686626434f, 0.020889278501272201538f, -0.0080106593668460845947f, -0.0080843558534979820251f, 0.0037124971859157085419f, -0.0099953124299645423889f, -0.012191209942102432251f, -0.0064870002679526805878f, -0.019421704113483428955f, -0.021548684686422348022f, -0.017160134389996528625f, 0.0071117510087788105011f, 0.017556885257363319397f, 0.0016861610347405076027f, -0.014959388412535190582f, 0.017434513196349143982f, 0.021557103842496871948f, 0.010815020650625228882f, 0.020584696903824806213f, -0.012120519764721393585f, 0.010928382165729999542f, 0.0023057302460074424744f, -0.016123279929161071777f, 0.018757672980427742004f, -0.013047091662883758545f, 0.019688965752720832825f, -0.0047204731963574886322f, -0.0064676101319491863251f, 0.012116481550037860870f, 0.0083058793097734451294f, -0.018315715715289115906f, -0.014062469825148582458f, 0.0074458015151321887970f, -0.0053244298323988914490f, 0.0078495470806956291199f, -0.0031271406915038824081f, 0.0018486477201804518700f, 0.014322741888463497162f, -0.010289101861417293549f, -0.022026935592293739319f, -0.012560200877487659454f, 0.0060796905308961868286f, -0.018815733492374420166f, 0.0059473128058016300201f, 0.0050644627772271633148f, 0.014485934749245643616f, 0.0099758589640259742737f, -0.00063228700309991836548f, 0.00037813099334016442299f, 0.010806743986904621124f, 0.015434491448104381561f, -0.0011798904743045568466f, 0.013861823827028274536f, 0.0020364383235573768616f, -0.014341784641146659851f, 0.011773376725614070892f, -0.015566769987344741821f, 0.014556644484400749207f, 0.0079214340075850486755f, 0.0084067182615399360657f, -0.011369309388101100922f, -0.019705716520547866821f, 0.0097444616258144378662f, 0.019012844190001487732f, 0.014659853652119636536f, -0.0063741970807313919067f, -0.013843964785337448120f, -0.00086787471082061529160f, -0.018342379480600357056f, -0.014621623791754245758f, -0.020302666351199150085f, -0.013539438135921955109f, 0.014398545958101749420f, 0.00013780701556243002415f, 0.00036769435973837971687f, 0.0061861695721745491028f, 0.019275188446044921875f, -0.0058705871924757957458f, 0.0069323214702308177948f, -0.018759604543447494507f, 0.0058719990774989128113f, 0.021789290010929107666f, -0.021314920857548713684f, -0.014386963099241256714f, 0.015218821354210376740f, 0.00049935322022065520287f, 0.0026417223270982503891f, 0.017584320157766342163f, -0.010654462501406669617f, -0.00056949345162138342857f, 0.014573223888874053955f, 0.018920054659247398376f, 0.00018043328600469976664f, -0.0046414900571107864380f, 0.015353767201304435730f, 0.0032507178839296102524f, 0.017548946663737297058f, 0.0077517353929579257965f, -0.021104460582137107849f, 0.0074801226146519184113f, -0.011063558049499988556f, 0.014639812521636486053f, -0.014888047240674495697f, -0.0091236075386404991150f, -0.020859144628047943115f, 0.0051197567954659461975f, -0.015325358137488365173f, 0.0077560604549944400787f, 0.0018922275630757212639f, -0.0091853365302085876465f, 0.0038313986733555793762f, 0.018627317622303962708f, -0.0025643275585025548935f, 0.0095657752826809883118f, -0.018884109333157539368f, 0.015311157330870628357f, -0.012492855079472064972f, -0.0057220957241952419281f, -0.0072645833715796470642f, -0.0022403658367693424225f, 0.021141393110156059265f, 0.010978874750435352325f, -0.0024576405994594097137f, -0.017111415043473243713f, -0.020775107666850090027f, -0.0042221499606966972351f, -0.012150293216109275818f, -0.017811998724937438965f, 0.0023966883309185504913f, 0.016755750402808189392f, -0.010318717919290065765f, 0.017719637602567672729f, 0.0012363172136247158051f, -0.0082982061430811882019f, 0.018461614847183227539f, 0.018393788486719131470f, 0.0045748506672680377960f, -0.010700953193008899689f, -0.014216521754860877991f, -0.0038583963178098201752f, 0.014640276320278644562f, 0.011612860485911369324f, -0.017802717164158821106f, 0.0074466788209974765778f, -0.00090169755276292562485f, -0.019610894843935966492f, 0.012873004190623760223f, -0.018706899136304855347f, -0.0054289749823510646820f, -0.0053817681036889553070f, 0.0052206404507160186768f, 0.0061735911294817924500f, -0.00017026010027620941401f, 0.0093109626322984695435f, 0.0058456519618630409241f, 0.0085221556946635246277f, 0.019808752462267875671f, 0.0033623201306909322739f, -0.0074901720508933067322f, -0.018742173910140991211f, 0.0024776076897978782654f, 0.020712286233901977539f, 0.011805616319179534912f, 0.020892312750220298767f, 0.0060584251768887042999f, 0.016989523544907569885f, -0.019197238609194755554f, -0.015026552602648735046f, 0.017431406304240226746f, 0.017899839207530021667f, 0.014057617634534835815f, -0.0058152349665760993958f, -0.0032085657585412263870f, -0.015477731823921203613f, -0.0016890612896531820297f, -0.019538931548595428467f, 0.010802426375448703766f, -0.0029847079422324895859f, -0.020790366455912590027f, -0.013056790456175804138f, 0.017700467258691787720f, 0.013897457160055637360f, -0.012141558341681957245f, 0.010083214379847049713f, -0.0077016460709273815155f, -0.012696800753474235535f, 0.0075224880129098892212f, -0.010311871767044067383f, 0.021115377545356750488f, 0.012061071582138538361f, -0.0099475942552089691162f, 0.00049788336036726832390f, -0.018334381282329559326f, -0.010721786879003047943f, 0.016698963940143585205f, 0.0043015335686504840851f, -0.0011215724516659975052f, -0.010353405028581619263f, -0.0041408673860132694244f, -0.0078502111136913299561f, -0.0050183883868157863617f, 0.014057751744985580444f, -0.0050590839236974716187f, 0.012757292017340660095f, -0.011938557960093021393f, 0.010572976432740688324f, 0.0040281270630657672882f, 0.012559067457914352417f, -0.018811302259564399719f, 0.0026300344616174697876f, -0.020056601613759994507f, -0.015518877655267715454f, -0.0098256180062890052795f, 0.0088530872017145156860f, -0.017246244475245475769f, -0.0044593736529350280762f, -0.019539624452590942383f, -0.015277774073183536530f, 0.020735098049044609070f, -0.019450301304459571838f, -0.0013969388091936707497f, -0.010457910597324371338f, -0.017032602801918983459f, -0.0023440970107913017273f, 0.018929522484540939331f, -0.020539697259664535522f, 0.0031081035267561674118f, 0.016111308708786964417f, 0.0048672207631170749664f, 0.011403309181332588196f, 0.0077053341083228588104f, 0.013534433208405971527f, -0.011752015911042690277f, 0.010657425969839096069f, -0.0045030796900391578674f, 0.022013114765286445618f, 0.012248903512954711914f, 0.0034669945016503334045f, 0.016117762774229049683f, 0.015306077897548675537f, -0.010385523550212383270f, 0.0081363040953874588013f, 0.0045782723464071750641f, -0.013242391869425773621f, -0.00073001766577363014221f, 0.0041597462259232997894f, -0.0016500595957040786743f, 0.0028947244863957166672f, -0.0050450279377400875092f, -0.0052300812676548957825f, -0.014608002267777919769f, 0.014773982577025890350f, 0.018150882795453071594f, 0.0024694285821169614792f, 0.021079856902360916138f, -0.014474989846348762512f, -0.013617725111544132233f, 0.014168092049658298492f, 0.0044883047230541706085f, 0.011627572588622570038f, 0.021792206913232803345f, 0.0038359216414391994476f, 0.011191368103027343750f, 0.017701283097267150879f, -0.012141576968133449554f, 0.0063867727294564247131f, -0.013165758922696113586f, 0.015876973047852516174f, 0.012965658679604530334f, 0.0036231116391718387604f, -0.018673023208975791931f, -0.012295396998524665833f, -0.018724897876381874084f, -0.012173434719443321228f, -0.0059720636345446109772f, -0.0084281787276268005371f, -0.019732061773538589478f, -0.021099502220749855042f, 0.016022244468331336975f, -0.0075435587204992771149f, 0.0099737802520394325256f, 0.017538178712129592896f, 0.017298169434070587158f, 0.013447305187582969666f, -0.0076995124109089374542f, -0.021843146532773971558f, -0.0022402524482458829880f, 0.0063841962255537509918f, 0.015875974670052528381f, -0.0022048754617571830750f, -0.0023696327116340398788f, -0.010733895935118198395f, 0.010596686974167823792f, 0.0011854696786031126976f, 0.014055744744837284088f, -0.014014888554811477661f, 0.018229786306619644165f, 0.021384073421359062195f, -0.0067264051176607608795f, -0.011694543994963169098f, -0.00055936770513653755188f, 0.0073160394094884395599f, 0.0051516117528080940247f, -0.020234543830156326294f, -0.0028732428327202796936f, 0.014989531598985195160f, -0.014269149862229824066f, -0.014494554139673709869f, 0.021307792514562606812f, -0.0083357850089669227600f, 0.0022483184002339839935f, 0.013610204681754112244f, -0.0050545423291623592377f, 0.0098678441718220710754f, 0.0025005436036735773087f, 0.014770101755857467651f, -0.0093118986114859580994f, -0.019329765811562538147f, 0.0020065165590494871140f, 0.0061804479919373989105f, 0.013474184088408946991f, -0.015989651903510093689f, -0.017117908224463462830f, 0.0027589404489845037460f, -0.019776832312345504761f, 0.021267576143145561218f, 0.015898277983069419861f, -0.0093465512618422508240f, -0.012819635681807994843f, 0.014991057105362415314f, 0.0068302471190690994263f, -0.0019499898189678788185f, 0.014124733395874500275f, -0.012541619129478931427f, 0.0061565111391246318817f, 0.013858884572982788086f, -0.020570019260048866272f, 0.020821718499064445496f, 0.0067934449762105941772f, -0.013148388825356960297f, 0.010112211108207702637f, -0.0080504138022661209106f, 0.021035633981227874756f, -0.016555618494749069214f, 0.0021492152009159326553f, -0.0080560278147459030151f, -0.0027159007731825113297f, -0.0063854265026748180389f, -0.015048582106828689575f, -0.0088655157014727592468f, 0.0041462541557848453522f, -0.010157503187656402588f, 0.017778620123863220215f, 0.0080343484878540039062f, 0.0090969465672969818115f, 0.0056325970217585563660f, 0.00099156517535448074341f, -0.0062959515489637851715f, 0.0088094444945454597473f, -0.013163440860807895660f, -0.010389495640993118286f, -0.016013553366065025330f, 0.0044416114687919616699f, -0.012341176159679889679f, 0.016680134460330009460f, 0.0046052886173129081726f, 0.0063978969119489192963f, 0.017972672358155250549f, 0.018010625615715980530f, 0.020759008824825286865f, -0.020029261708259582520f, -0.0070302840322256088257f, -0.0040921033360064029694f, -0.0045141461305320262909f, 0.019446305930614471436f, -0.0030880810227245092392f, -0.0078127691522240638733f, -0.017557047307491302490f, 0.0093292864039540290833f, -0.013868380337953567505f, -0.0029434647876769304276f, -0.010406143963336944580f, -0.018171429634094238281f, -0.00074049376416951417923f, 0.022023560479283332825f, 0.014749447815120220184f, 0.0081585552543401718140f, -0.0024667049292474985123f, -0.0033814995549619197845f, -0.00051599333528429269791f, -0.0042376494966447353363f, -0.015012628398835659027f, 0.0018399680266156792641f, -0.020889557898044586182f, 0.019142154604196548462f, -0.015569069422781467438f, 0.0062303184531629085541f, -0.017107121646404266357f, -0.012985156849026679993f, -0.0013504534726962447166f, 0.017740080133080482483f, -0.0043411646038293838501f, 0.013424663804471492767f, -0.018277794122695922852f, 0.00018136842118110507727f, -0.0085559394210577011108f, -0.00056548160500824451447f, 0.012519096955657005310f, -0.011812633834779262543f, -0.0081229647621512413025f, -0.019332474097609519958f, 0.019234100356698036194f, -0.017911940813064575195f, 0.0073951333761215209961f, 0.0019272805657237768173f, 0.0011768243275582790375f, -0.0029526026919484138489f, -0.019828666001558303833f, 0.020645601674914360046f, -0.0024320706725120544434f, -0.0080907568335533142090f, -0.011987783014774322510f, -0.0037243561819195747375f, -0.00018689493299461901188f, 0.0095909629017114639282f, 0.019954156130552291870f, -0.019612345844507217407f, -0.0043259630911052227020f, -0.013750035315752029419f, 0.016791269183158874512f, 0.019946156069636344910f, -0.0042859157547354698181f, 0.0091827185824513435364f, 0.00037466175854206085205f, 0.0023345269728451967239f, -0.017377195879817008972f, 0.0055011752992868423462f, -0.0022667839657515287399f, -0.0042085996828973293304f, 0.011583244428038597107f, 0.017269873991608619690f, -0.0062546920962631702423f, -0.018312113359570503235f, 0.021683415398001670837f, -8.8079010311048477888e-05f, 0.012839770875871181488f, 0.016238169744610786438f, 0.0058798305690288543701f, 0.012617789208889007568f, -0.014673224650323390961f, -0.015439199283719062805f, 0.0049579497426748275757f, 0.0015606714878231287003f, 0.0094808861613273620605f, 0.021696669980883598328f, -0.011493874713778495789f, -0.0063404692336916923523f, -0.0042168130166828632355f, -0.018978923559188842773f, 0.0085374284535646438599f, 0.021173888817429542542f, -0.019134936854243278503f, -0.0023224914912134408951f, 0.0090797981247305870056f, 0.013642958365380764008f, -0.020785517990589141846f, -0.0052231508307158946991f, -0.012325178831815719604f, -0.017961442470550537109f, 0.013905817642807960510f, 0.0045294556766748428345f, 0.0092907352373003959656f, 0.012857100926339626312f, -0.00078980560647323727608f, -0.016766389831900596619f, 0.013800540007650852203f, -0.010616029612720012665f, 0.0097135258838534355164f, -0.014677565544843673706f, 0.0023769743274897336960f, -0.0085512241348624229431f, 0.014762196689844131470f, -0.012249372899532318115f, 0.016803069040179252625f, -0.0023867681156843900681f, -0.021869683638215065002f, 0.0022015222348272800446f, 0.0047937720082700252533f, 0.017663747072219848633f, -0.015602328814566135406f, -0.0074021769687533378601f, -0.0034476963337510824203f, -0.00067885662429034709930f, 0.016080413013696670532f, -0.0033108403440564870834f, -0.0015396717935800552368f, 0.021458564326167106628f, -0.021409749984741210938f, -0.0016720102867111563683f, 0.0068395747803151607513f, 0.021606193855404853821f, 0.020436402410268783569f, 0.00021231737628113478422f, 0.0049462406896054744720f, 0.0032627375330775976181f, -0.010235135443508625031f, 0.016902925446629524231f, -0.010257978923618793488f, 0.0077813197858631610870f, -0.0026651031803339719772f, 0.0028252692427486181259f, 0.015708543360233306885f, -0.010052776895463466644f, -0.013644576072692871094f, -0.0066492632031440734863f, -0.012533326633274555206f, 0.0017368479166179895401f, -0.0067999223247170448303f, 0.013731015846133232117f, 0.011357531882822513580f, 0.0063622482120990753174f, -0.016726708039641380310f, 0.0084259528666734695435f, -0.0022107732947915792465f, -0.013105883263051509857f, -0.0078844530507922172546f, 0.0035872894804924726486f, -0.0037016153801232576370f, -0.0099419802427291870117f, -0.0015205476665869355202f, 0.0026235806290060281754f, 0.020155604928731918335f, -0.018474617972970008850f, -0.012954679317772388458f, 0.016833513975143432617f, -0.010783971287310123444f, 0.0072211935184895992279f, 0.016127815470099449158f, -0.016903549432754516602f, 0.0030155647546052932739f, -0.0024271868169307708740f, 0.021802561357617378235f, 0.019171904772520065308f, 0.013046409003436565399f, 0.0055883927270770072937f, -0.013930924236774444580f, -0.018915686756372451782f, -0.0060237459838390350342f, 0.011054383590817451477f, -0.0089185656979680061340f, -0.0024578908924013376236f, 0.0089993160218000411987f, -0.0056319278664886951447f, 0.010933824814856052399f, 0.014167881570756435394f, 0.015919497236609458923f, -0.019171647727489471436f, -0.0079936953261494636536f, -0.016229230910539627075f, 0.0036663252394646406174f, 0.0076566361822187900543f, -0.020808294415473937988f, -0.016909504309296607971f, -0.010520124807953834534f, -0.0072288638912141323090f, -0.0074926665984094142914f, -0.0083444518968462944031f, 0.013467526994645595551f, 0.0038826044183224439621f, -0.0072548422031104564667f, 0.016165100038051605225f, -0.018987409770488739014f, 0.0079406192526221275330f, 0.021118478849530220032f, -0.010082466527819633484f, -0.0055142883211374282837f, -0.0044599687680602073669f, 0.018787452951073646545f, -0.015713686123490333557f, 0.011448632925748825073f, -0.014288390055298805237f, -0.00073309964500367641449f, -0.015221924521028995514f, -0.00025042338529601693153f, 0.0062075350433588027954f, -0.0054983696900308132172f, 0.011055503040552139282f, 0.016958571970462799072f, 0.0096976179629564285278f, 0.014595300890505313873f, -0.010175576433539390564f, -0.014555374160408973694f, -0.010123860090970993042f, -0.0038462239317595958710f, -0.00045980102731846272945f, -0.0060812053270637989044f, -0.0024639968760311603546f, 0.013439184054732322693f, -0.00045367921120487153530f, -0.0013605398125946521759f, 0.0023414944298565387726f, 0.010814699344336986542f, -0.0052902987226843833923f, -0.0012264995602890849113f, 0.0085592474788427352905f, 0.00012763119593728333712f, 0.0039470549672842025757f, 0.020994963124394416809f, 0.0042446800507605075836f, 0.017986269667744636536f, -0.015943583101034164429f, -0.016749452799558639526f, 0.0022298817057162523270f, 0.0025206764694303274155f, 0.020379878580570220947f, -0.012448493391275405884f, 0.0088427616283297538757f, 0.019192824140191078186f, -0.00089684280101209878922f, -0.014934727922081947327f, 0.0091132130473852157593f, 0.020802954211831092834f, 0.015495792031288146973f, 0.0048618023283779621124f, -0.0030486711766570806503f, -0.016330497339367866516f, -0.0045587848871946334839f, 0.010733666829764842987f, -0.0082948394119739532471f, -0.0098959216848015785217f, 0.015768645331263542175f, 0.00016789196524769067764f, -0.014502954669296741486f, -0.0078349355608224868774f, 0.0019323407905176281929f, 0.010559523478150367737f, 0.013354479335248470306f, -0.0026195293758064508438f, 0.014259543269872665405f, 0.0060539809055626392365f, 0.00069162185536697506905f, -0.019295301288366317749f, 0.010568079538643360138f, -0.0066105090081691741943f, -0.021682199090719223022f, 0.0044644577428698539734f, -0.015613036230206489563f, 0.011565524153411388397f, -0.0064045218750834465027f, 0.0011361736105754971504f, -0.019016899168491363525f, -0.0095375133678317070007f, 0.0095394439995288848877f, 0.021548880264163017273f, -0.0099137024953961372375f, 0.0088023720309138298035f, 0.019959963858127593994f, -0.0038709745276719331741f, -0.0034708455204963684082f, 0.0054612304084002971649f, -0.0037231813184916973114f, 0.011526259593665599823f, 0.015223941765725612640f, 0.0067029846832156181335f, 0.016343090683221817017f, 0.016941260546445846558f, 0.0068021141923964023590f, -0.010928749106824398041f, -0.018539244309067726135f, -0.0032822280190885066986f, -0.018770275637507438660f, 0.0080547258257865905762f, -0.018864581361413002014f, 0.018233511596918106079f, 0.014618536457419395447f, -0.013819248415529727936f, -0.0029344111680984497070f, 0.0036369990557432174683f, -0.00041127947042696177959f, -0.013465970754623413086f, 0.0092824557796120643616f, -0.015143459662795066833f, 0.014895130880177021027f, 3.8595975638600066304e-05f, -0.018823316320776939392f, 0.019472870975732803345f, 0.0019866549409925937653f, 0.010632680729031562805f, -0.017319735139608383179f, -0.019613383337855339050f, 0.012854019179940223694f, -0.0069719343446195125580f, 0.011322384700179100037f, -0.0089535471051931381226f, 0.015331651084125041962f, -0.0074733709916472434998f, -0.0049616610631346702576f, 0.0047351717948913574219f, 0.012157321907579898834f, 0.012138652615249156952f, -0.0019401168683543801308f, -0.0014809849672019481659f, 0.014382722787559032440f, 0.016744473949074745178f, -0.015928089618682861328f, 0.014292383566498756409f, 0.013685831800103187561f, -0.021422740072011947632f, 0.014541763812303543091f, -0.021589469164609909058f, 0.0048258458264172077179f, -0.021601568907499313354f, 0.0046271523460745811462f, -0.0090600391849875450134f, -0.0076031098142266273499f, 0.0018178831087425351143f, 0.018296178430318832397f, -0.020455403253436088562f, 0.012593270279467105865f, 0.010284752584993839264f, -0.0029648200143128633499f, 0.0024135760031640529633f, 0.0060792034491896629333f, -0.019765850156545639038f, -0.0088405143469572067261f, 0.0055095991119742393494f, 0.0061849500052630901337f, -0.014406740665435791016f, 0.012914186343550682068f, -0.0037927920930087566376f, -0.00091383850667625665665f, 0.0069291498512029647827f, -0.016229419037699699402f, -0.0094711761921644210815f, -0.010722788050770759583f, 0.0010227722814306616783f, 0.0085854474455118179321f, -0.0088550420477986335754f, -0.019404003396630287170f, -0.020706040784716606140f, -0.0062880092300474643707f, 0.0096994359046220779419f, -0.012192300520837306976f, 0.021100779995322227478f, -0.0027319849468767642975f, -0.020642334595322608948f, 0.020735045894980430603f, 0.0087507627904415130615f, -0.0035104637499898672104f, 0.019697334617376327515f, -0.0060120685957372188568f, 0.012244085781276226044f, 0.020678691565990447998f, 0.0075419358909130096436f, 0.020714322105050086975f, 0.0089008612558245658875f, -0.020512562245130538940f, 0.0073590977117419242859f, 0.00050086784176528453827f, -0.018792871385812759399f, 0.011442853137850761414f, 0.0061643612571060657501f, -0.014247372746467590332f, 0.015329967252910137177f, 0.0093037141487002372742f, 0.0022214497439563274384f, 0.011841117404401302338f, 0.0085076233372092247009f, 0.0013059173943474888802f, -0.019063888117671012878f, 0.019205093383789062500f, 0.0013350909575819969177f, -0.0032162971328943967819f, -0.0071049919351935386658f, -0.00055103318300098180771f, 0.0051874183118343353271f, -0.0016861873446032404900f, -0.021753504872322082520f, 0.021010305732488632202f, 0.018869744613766670227f, -0.0019062176579609513283f, -0.016525289043784141541f, -0.010526617988944053650f, -0.0089297899976372718811f, -0.0068912887945771217346f, 0.020149128511548042297f, 0.017897998914122581482f, 0.0086051346734166145325f, 0.014089907519519329071f, 0.011462904512882232666f, -0.014611148275434970856f, 0.011531938798725605011f, 0.0052557433955371379852f, -0.017294149845838546753f, 0.020563123747706413269f, -0.0038654506206512451172f, 0.016329485923051834106f, 0.0036356372293084859848f, -0.0088942199945449829102f, -0.021769179031252861023f, 0.013664705678820610046f, -0.0076606348156929016113f, 0.0036458182148635387421f, 0.010736456140875816345f, -0.010556873865425586700f, -0.0081103676930069923401f, -0.00077273085480555891991f, 0.014278001151978969574f, -0.0079676695168018341064f, -0.020515799522399902344f, -0.015623901970684528351f, -0.0091346157714724540710f, 0.0076556932181119918823f, 0.022067293524742126465f, -0.017821615561842918396f, -0.014451656490564346313f, 0.011909279040992259979f, -0.014687380753457546234f, -0.0057518542744219303131f, -0.0014263414777815341949f, 0.021607453003525733948f, -2.2951593564357608557e-05f, 0.0028343887533992528915f, 0.0027824267745018005371f, -0.0064746276475489139557f, -0.00048386162961833178997f, -0.00028544478118419647217f, -0.0092670880258083343506f, -0.0055240397341549396515f, -0.0069285095669329166412f, -0.0071571459993720054626f, 0.011409414932131767273f, 0.017357105389237403870f, 0.0025897840969264507294f, -0.0065666683949530124664f, 0.0054624131880700588226f, -0.0013008440146222710609f, 0.014493060298264026642f, -0.0070705027319490909576f, 0.021866595372557640076f, 0.021337492391467094421f, 0.0097740460187196731567f, -0.021339571103453636169f, -0.010946002788841724396f, 0.0057444521225988864899f, -0.018226072192192077637f, 0.018107131123542785645f, 0.0086065679788589477539f, 0.0096978368237614631653f, 0.014120653271675109863f, 0.0082911038771271705627f, -0.017607759684324264526f, 0.00058208219707012176514f, 0.0073031978681683540344f, 0.018533527851104736328f, 0.0014674057019874453545f, -0.019157599657773971558f, 0.0087714334949851036072f, -0.0052359583787620067596f, -0.016162486746907234192f, -0.0053155026398599147797f, -0.0088834231719374656677f, -0.0072213988751173019409f, -0.021303977817296981812f, -0.0022526199463754892349f, -0.016828000545501708984f, -0.012003532610833644867f, -0.012539914809167385101f, 0.00015473688836209475994f, -0.016275569796562194824f, 0.017548700794577598572f, -0.012100942432880401611f, 0.016709534451365470886f, -0.0039679571054875850677f, -0.0014150330098345875740f, -0.016563223674893379211f, -0.016970114782452583313f, 0.011787551455199718475f, 0.020914720371365547180f, -0.0029995779041200876236f, 0.016083123162388801575f, -0.0053340103477239608765f, 0.0021289347205311059952f, 0.013979145325720310211f, -0.018732003867626190186f, -0.013000856153666973114f, -0.018057296052575111389f, -0.019694998860359191895f, -0.0083982916548848152161f, 0.011449678801000118256f, -0.020377568900585174561f, 0.019236216321587562561f, -0.015775341540575027466f, -0.011520645581185817719f, 0.014038303866982460022f, -0.010923464782536029816f, -0.0030066743493080139160f, -0.022037237882614135742f, 0.019006149843335151672f, 0.0063798050396144390106f, 0.020381560549139976501f, 0.0084978770464658737183f, -0.021079152822494506836f, -0.0029801113996654748917f, -0.0097859948873519897461f, -0.00071729719638824462891f, -0.0095872487872838973999f, -0.011522577144205570221f, 0.018176700919866561890f, -0.0064413975924253463745f, 0.015910875052213668823f, 0.019085723906755447388f, -0.013561109080910682678f, 0.0039548259228467941284f, 0.0036255507729947566986f, -0.012411896139383316040f, -0.017704162746667861938f, -0.012003909796476364136f, 0.0075985575094819068909f, 0.021750459447503089905f, 0.0032912604510784149170f, 0.0060421060770750045776f, 0.021355723962187767029f, -0.0055288947187364101410f, -0.018254715949296951294f, 0.014850331470370292664f, -0.012754958122968673706f, -0.016220390796661376953f, -0.0025517414323985576630f, 0.0051003061234951019287f, 0.0039420104585587978363f, 2.5380304577993229032e-05f, -0.00034764036536216735840f, 0.0026744334027171134949f, -0.0013251547934487462044f, 0.014753267168998718262f, 0.0028576669283211231232f, 0.0034803946036845445633f, -0.0013041367055848240852f, 0.0052634747698903083801f, 0.013559560291469097137f, -0.0021963512990623712540f, 0.017574397847056388855f, -0.016457874327898025513f, -0.0077314781956374645233f, 0.00085994059918448328972f, -0.010312446393072605133f, -0.0052383313886821269989f, 0.00047406510566361248493f, 0.0034319546539336442947f, -0.011346642859280109406f, 0.020574465394020080566f, -0.0046100197359919548035f, -0.0035686211194843053818f, 0.021500563248991966248f, 0.012779988348484039307f, -0.014929835684597492218f, 0.019409079104661941528f, -0.0055106342770159244537f, 0.013776876963675022125f, 0.0053634736686944961548f, 0.014570779167115688324f, -0.0097038950771093368530f, -0.014216292649507522583f, -0.0072467657737433910370f, -0.010797398164868354797f, 0.011048321612179279327f, -0.0038706744089722633362f, 0.020332094281911849976f, -0.015157410874962806702f, 0.0014080023393034934998f, -0.020834008231759071350f, -0.010604378767311573029f, 0.0011172075755894184113f, -0.011568590998649597168f, -0.0070070950314402580261f, 0.014362642541527748108f, -0.019152468070387840271f, 0.020935690030455589294f, -0.0093246446922421455383f, -0.017162118107080459595f, 0.020696915686130523682f, 0.0065526599064469337463f, 0.015230877324938774109f, 0.021779278293251991272f, -0.0018261781660839915276f, -0.0029128082096576690674f, -0.015044214203953742981f, -0.00030673950095660984516f, 0.0041010333225131034851f, 0.020321018993854522705f, 0.0022186574060469865799f, 0.0059402901679277420044f, -0.0013602999970316886902f, 0.0033739104401320219040f, -0.016043953597545623779f, 0.0065696844831109046936f, 0.010987419635057449341f, -0.019688863307237625122f, -0.0038305346388369798660f, -0.014032924547791481018f, -0.00025979842757806181908f, -0.019450420513749122620f, 0.017733717337250709534f, -0.0036143530160188674927f, 0.0087283700704574584961f, 0.020675705745816230774f, 0.014780988916754722595f, 0.011523090302944183350f, 0.014966335147619247437f, 0.018358360975980758667f, -0.0082369372248649597168f, -0.018938502296805381775f, -0.021790247410535812378f},
  {-0.019395954906940460205f, -0.016322402283549308777f, -0.010210047475993633270f, 0.018264386802911758423f, 0.0040469379164278507233f, 0.013149679638445377350f, 0.013877094723284244537f, 0.014753833413124084473f, -0.0076671438291668891907f, 0.019340885803103446960f, 0.010286456905305385590f, -0.017817711457610130310f, 0.017320513725280761719f, -0.014277618378400802612f, 0.015487773343920707703f, -0.0073014302179217338562f, -0.0014106997987255454063f, 0.0042886631563305854797f, -0.021295569837093353271f, -0.00070905749453231692314f, 0.0028523353394120931625f, -9.9253193184267729521e-05f, -0.0097508896142244338989f, 0.0097039062529802322388f, 0.0042167790234088897705f, -0.019958663731813430786f, 0.010388473980128765106f, -0.0019121972145512700081f, 0.0011349382111802697182f, -0.016024466603994369507f, 0.017865488305687904358f, 0.00093268865020945668221f, -0.00066881778184324502945f, 0.021090071648359298706f, -0.0046111550182104110718f, -0.013188618235290050507f, 0.0055006244219839572906f, -0.019385548308491706848f, -0.0082623073831200599670f, 0.0073125464841723442078f, 0.010153434239327907562f, -0.0064632534049451351166f, -0.0044333585537970066071f, -0.0033325618132948875427f, -0.017871322110295295715f, -0.0096350647509098052979f, 0.0094950180500745773315f, -0.013643682934343814850f, -0.021711150184273719788f, -0.012555425055325031281f, 0.015358996577560901642f, -0.012429255992174148560f, 0.018779998645186424255f, -0.0085069695487618446350f, -0.0096262767910957336426f, -0.019015047699213027954f, 0.021056618541479110718f, 0.0042400229722261428833f, -0.0069975885562598705292f, -0.0054167946800589561462f, -0.00093406636733561754227f, -0.0090626683086156845093f, 0.015626516193151473999f, -0.011065425351262092590f, 0.011926846578717231750f, -0.021214034408330917358f, 0.0072130034677684307098f, 0.013508236035704612732f, -0.011346405372023582458f, -0.010944524779915809631f, -0.0081503624096512794495f, 0.019804537296295166016f, -0.011112437583506107330f, 0.011177183128893375397f, 0.016366703435778617859f, -0.00047323797480203211308f, 0.019094163551926612854f, 0.0045466651208698749542f, 0.021494630724191665649f, 0.016478992998600006104f, 0.013102140277624130249f, -0.010928235016763210297f, 0.0053047025576233863831f, -3.7220934245851822197e-06f, -0.0032219053246080875397f, 0.020344374701380729675f, 0.010007303208112716675f, -0.017973015084862709045f, -0.0099542764946818351746f, -0.0031748272012919187546f, 0.0012180517660453915596f, 0.018320985138416290283f, 0.011790522374212741852f, 0.0019208821468055248260f, 0.015595763921737670898f, 0.0051447311416268348694f, -0.0063680591993033885956f, -0.00028518401086330413818f, 0.0026107365265488624573f, -0.012381521984934806824f, 0.011068146675825119019f, -0.018379023298621177673f, -0.0083400784060359001160f, 0.0041037728078663349152f, 0.0015360155375674366951f, -0.012486851774156093597f, 0.021859534084796905518f, 0.010361039079725742340f, 0.020819922909140586853f, -0.0024838612880557775497f, 0.0045299986377358436584f, 0.0053722951561212539673f, 0.0011987379984930157661f, 0.00096156977815553545952f, -0.0082028824836015701294f, -0.021693576127290725708f, -0.018979173153638839722f, 0.016281846910715103149f, -0.0031083063222467899323f, -0.0062577743083238601685f, 0.0065264999866485595703f, 0.010027954354882240295f, 0.019393410533666610718f, -0.018110139295458793640f, 0.0055382829159498214722f, 0.014056956395506858826f, 0.0086094522848725318909f, -0.010443407110869884491f, -0.0017018975922837853432f, -0.0059140929952263832092f, -0.020507043227553367615f, 0.0085925301536917686462f, -0.017223043367266654968f, 0.016749441623687744141f, -0.011215500533580780029f, -0.013951707631349563599f, -0.0061694290488958358765f, -0.0082343723624944686890f, 0.00049183261580765247345f, -0.012128187343478202820f, -0.0068319011479616165161f, -0.010207800194621086121f, 0.021337252110242843628f, 0.015515466220676898956f, 0.021020567044615745544f, -0.012673799879848957062f, -0.00092033698456361889839f, -0.017794067040085792542f, -0.020582046359777450562f, 0.021305503323674201965f, -0.0090821981430053710938f, -0.010664450936019420624f, -0.012011646293103694916f, -0.0058270995505154132843f, -0.019790450111031532288f, -0.019045570865273475647f, -0.017805550247430801392f, -0.015315005555748939514f, 0.020846445113420486450f, -0.019983714446425437927f, 0.014484720304608345032f, 0.00070804596180096268654f, -0.0078290533274412155151f, -0.019667159765958786011f, 0.021136367693543434143f, -0.017205670475959777832f, -0.010905228555202484131f, -0.00068198604276403784752f, 0.0074234851635992527008f, -0.010295089334249496460f, 0.0099987760186195373535f, 0.0065543353557586669922f, -0.0066127348691225051880f, -0.010436555370688438416f, 0.015145080164074897766f, -0.011504911817610263824f, -0.010219975374639034271f, -0.0069934921339154243469f, 0.020876990631222724915f, 0.0095407161861658096313f, -0.015972757712006568909f, -0.016100367531180381775f, 0.0058684190735220909119f, -0.0073876418173313140869f, 0.019391760230064392090f, -0.0071635232307016849518f, 0.00080450432142242789268f, -0.010514537803828716278f, 0.0071303034201264381409f, -0.017207251861691474915f, 0.017677862197160720825f, 0.021204598248004913330f, -0.019235968589782714844f, -0.0047231419011950492859f, 0.021470444276928901672f, 0.0069394600577652454376f, 0.016668807715177536011f, 0.0032744833733886480331f, 0.017165686935186386108f, 0.020381841808557510376f, 0.0071652065962553024292f, -0.0053246007300913333893f, -0.0072244121693074703217f, 0.0090605895966291427612f, -0.016706012189388275146f, -0.016058510169386863708f, 0.0099110025912523269653f, 0.012878967449069023132f, 0.012118017300963401794f, 0.012987633235752582550f, -0.0068655372597277164459f, -0.0030482260044664144516f, 0.014782717451453208923f, -0.0075041539967060089111f, -0.012301853857934474945f, -0.0040251319296658039093f, -0.011659930460155010223f, -0.019283160567283630371f, -0.0020436111371964216232f, 0.015186818316578865051f, 0.0013415262801572680473f, 0.0020698686130344867706f, -0.0041589005850255489349f, 0.0038793091662228107452f, -0.0077997115440666675568f, -0.016864657402038574219f, 0.0046295993961393833160f, 0.019032081589102745056f, -0.021077949553728103638f, -0.016664166003465652466f, 0.0032692651730030775070f, -0.0038373335264623165131f, 0.0034641495440155267715f, 0.00010225088772131130099f, 0.0060008233413100242615f, 0.0053302142769098281860f, -0.0068202237598598003387f, -0.018433365970849990845f, -0.018124362453818321228f, 0.021381620317697525024f, -0.0088649597018957138062f, -0.0044197607785463333130f, 0.0063789542764425277710f, -0.0026253061369061470032f, -0.011052818968892097473f, 0.019572950899600982666f, 0.017040465027093887329f, 0.020962227135896682739f, -0.0077459006570279598236f, 0.0067528546787798404694f, 0.0065176202915608882904f, 0.010235064662992954254f, -0.010180326178669929504f, 0.012377109378576278687f, 0.016204535961151123047f, 0.00012967795191798359156f, 0.0079728690907359123230f, -0.0029235819820314645767f, 0.011409375816583633423f, 0.013226629234850406647f, 0.0075873387977480888367f, -0.016346869990229606628f, 0.012737577781081199646f, -0.0068225208669900894165f, -0.0096929008141160011292f, -0.0048771384172141551971f, 0.019872533157467842102f, -0.0031094548758119344711f, 0.017861953005194664001f, -0.00058747176080942153931f, 0.0058152615092694759369f, 0.017258031293749809265f, 0.0041666533797979354858f, -0.0027979291044175624847f, 0.0095573011785745620728f, 0.011189389973878860474f, 0.0072761974297463893890f, -0.018180849030613899231f, -0.0051292818970978260040f, -0.0066470243036746978760f, -0.0023674569092690944672f, -0.0063073704950511455536f, 0.013011567294597625732f, 0.020840907469391822815f, -0.012536601163446903229f, -0.014999950304627418518f, 0.0046207485720515251160f, -0.017266264185309410095f, -0.010192050598561763763f, 0.0064955851994454860687f, 0.0096995672211050987244f, 0.00035777140874415636063f, -0.0027987193316221237183f, 0.0047159795649349689484f, 0.021105837076902389526f, -0.017341446131467819214f, 0.015721935778856277466f, 0.014415077865123748779f, -0.020572271198034286499f, -0.011773748323321342468f, -0.011910425499081611633f, 0.0091980099678039550781f, -0.017728347331285476685f, -0.012538729235529899597f, -0.020248696208000183105f, 0.017868051305413246155f, 0.0057106898166239261627f, -0.019426785409450531006f, 0.010680546052753925323f, -0.0013716981047764420509f, 0.013038788922131061554f, 0.012091782875359058380f, -0.00094376539345830678940f, 0.020415809005498886108f, 0.0054948953911662101746f, -0.0060092685744166374207f, 0.0063681360334157943726f, -0.016607778146862983704f, -0.0098640406504273414612f, 0.014894321560859680176f, 0.021543309092521667480f, -0.020887872204184532166f, 0.0040404628962278366089f, -0.0011783732334151864052f, -0.014945873059332370758f, 0.010296056047081947327f, -0.0068013500422239303589f, 0.020389543846249580383f, -0.0010852707782760262489f, -0.011151526123285293579f, 0.011792890727519989014f, -0.014592716470360755920f, -0.0069202277809381484985f, -0.0027754094917327165604f, 0.016180537641048431396f, -0.0074158459901809692383f, -0.019039941951632499695f, -0.015839520841836929321f, 0.011773493140935897827f, -0.0049013230018317699432f, 0.011497531086206436157f, 0.0071082818321883678436f, -0.0071430080570280551910f, 0.010591808706521987915f, -0.010047798044979572296f, 0.017571981996297836304f, 0.00010398944141343235970f, -0.021784875541925430298f, -0.010122010484337806702f, -0.0067067435011267662048f, 0.010865665040910243988f, 0.015215188264846801758f, -0.0078213298693299293518f, -0.0034239070955663919449f, 0.0098667694255709648132f, 0.0069349636323750019073f, 0.0089729344472289085388f, 0.018221238628029823303f, -0.020800001919269561768f, 0.015990713611245155334f, 0.014508904889225959778f, -0.011496018618345260620f, -0.017297983169555664062f, 0.0092436885461211204529f, 0.020041782408952713013f, 0.011830944567918777466f, -0.0049932030960917472839f, 0.019652850925922393799f, 0.0013065759558230638504f, 0.014721037819981575012f, 0.011669993400573730469f, 0.0085641285404562950134f, 0.0072408388368785381317f, -0.0060341246426105499268f, -0.0010889586992561817169f, 0.019829431548714637756f, 0.018067300319671630859f, 0.018283020704984664917f, -0.015415328554809093475f, -0.0070675471797585487366f, 0.014092359691858291626f, 0.011610940098762512207f, 0.014064582064747810364f, -0.016360437497496604919f, 0.018385834991931915283f, 0.011850039474666118622f, -0.012991515919566154480f, -0.012993812561035156250f, 0.0023885171394795179367f, 0.013812997378408908844f, -0.0031474712304770946503f, -0.010282384231686592102f, -0.0067338468506932258606f, -0.0094194486737251281738f, -0.00010208493040408939123f, -0.010206338949501514435f, 0.0094239246100187301636f, 0.010056640952825546265f, 0.0097240023314952850342f, -0.010061553679406642914f, 0.0062332763336598873138f, 0.014321224763989448547f, -0.015550198033452033997f, 0.0084937280043959617615f, -0.0068985512480139732361f, -0.011184501461684703827f, 0.0064122662879526615143f, 0.0057808854617178440094f, 0.021718623116612434387f, 0.0068261087872087955475f, 0.0022151039447635412216f, -0.020884990692138671875f, 0.016507096588611602783f, 0.015184125863015651703f, -0.0082624601200222969055f, -0.0088102873414754867554f, 0.0073656276799738407135f, 0.015511475503444671631f, 0.0093931071460247039795f, 0.018178781494498252869f, -0.0093821492046117782593f, 0.018439656123518943787f, 0.013286261819303035736f, 0.0067142271436750888824f, 0.014081554487347602844f, -0.017612028867006301880f, -0.0064776884391903877258f, 0.019776741042733192444f, 0.011521304026246070862f, -0.018348118290305137634f, -0.013497701846063137054f, 0.019824888557195663452f, -0.018743317574262619019f, -0.0044397306628525257111f, -0.0056681293062865734100f, 0.019523657858371734619f, -0.013372185640037059784f, 0.022053437307476997375f, 0.013466318137943744659f, 0.013767736963927745819f, 0.0014702454209327697754f, 0.018500993028283119202f, -0.015317176468670368195f, -0.0066139781847596168518f, 0.0023648464120924472809f, -0.010970331728458404541f, -0.017399957403540611267f, -0.011681791394948959351f, 0.0043746056035161018372f, -0.017895167693495750427f, -0.016776250675320625305f, -0.0031740816775709390640f, 0.012949964031577110291f, -0.020727179944515228271f, 0.0060693174600601196289f, -0.012014841660857200623f, -0.0026966843288391828537f, -0.0098621780052781105042f, -0.0016414616256952285767f, -0.019368320703506469727f, 0.012858905829489231110f, -0.0017310843104496598244f, 0.0074988198466598987579f, 0.022022413089871406555f, -0.018203213810920715332f, -0.0030801126267760992050f, -0.011725145392119884491f, -0.015247410163283348083f, -0.021546723321080207825f, -0.0012459820136427879333f, 0.021805671975016593933f, -0.017881698906421661377f, 0.017186166718602180481f, -0.0043018814176321029663f, 0.0027533851098269224167f, 0.016652235761284828186f, 0.017138615250587463379f, 0.0060400804504752159119f, 0.016264969483017921448f, 0.013928835280239582062f, 0.011454886756837368011f, 0.019564568996429443359f, -0.0024056262336671352386f, -0.0070336214266717433929f, 0.012180386111140251160f, -0.0053872391581535339355f, -0.010177004151046276093f, -0.017899010330438613892f, 0.017393605783581733704f, -0.0026580172125250101089f, 0.017892014235258102417f, 0.015304426662623882294f, 0.016437567770481109619f, -0.014020206406712532043f, 0.011440432630479335785f, 0.0066801384091377258301f, 0.0056455703452229499817f, 0.0091747893020510673523f, -0.014264382421970367432f, 0.019413528963923454285f, -0.017734531313180923462f, 0.0068309819325804710388f, 0.016130041331052780151f, -0.0021914253011345863342f, 0.014413471333682537079f, -0.0035015048924833536148f, -0.010843602009117603302f, 0.0085258809849619865417f, -0.0037539696786552667618f, 0.013192809186875820160f, 0.021780602633953094482f, -0.021094108000397682190f, 0.0079325819388031959534f, -4.0168579289456829429e-05f, 0.021170096471905708313f, 0.0081453733146190643311f, -0.00024436478270217776299f, 0.012575194239616394043f, 0.011934509500861167908f, -0.017581736668944358826f, 0.020787626504898071289f, 0.0099010663107037544250f, -0.020886631682515144348f, -0.0078951604664325714111f, 0.0013892417773604393005f, 0.017103092744946479797f, -0.014370497316122055054f, 0.020175848156213760376f, -0.017685510218143463135f, 0.016467729583382606506f, 0.0028630115557461977005f, 0.0041961930692195892334f, 0.0030308351851999759674f, -0.015124725177884101868f, -0.019611138850450515747f, 0.015556970611214637756f, 0.011768243275582790375f, -0.019912483170628547668f, 0.017827179282903671265f, -0.0038453994784504175186f, 0.019634172320365905762f, 0.0031099342741072177887f, 0.0049411780200898647308f, 0.0055797002278268337250f, -0.021575411781668663025f, -0.0073161870241165161133f, 0.0041462304070591926575f, 0.0087966211140155792236f, 0.013229898177087306976f, -0.018748216331005096436f, -0.014183641411364078522f, 0.0096552688628435134888f, -0.0097387796267867088318f, 0.011671990156173706055f, -0.0021995070856064558029f, -0.0075215105898678302765f, 0.013689767569303512573f, 0.017882661893963813782f, -0.0076093422248959541321f, -0.0065037012100219726562f, -0.010396094061434268951f, -0.0032994160428643226624f, 0.015242974273860454559f, -0.017073877155780792236f, -0.020346935838460922241f, 0.0086049614474177360535f, 0.0054770251736044883728f, 0.017035141587257385254f, -0.016088481992483139038f, 0.015406846068799495697f, 0.016145475208759307861f, -0.018892116844654083252f, -0.0039394395425915718079f, 0.019246917217969894409f, 0.0099607380107045173645f, -0.0070167891681194305420f, 0.013178939931094646454f, -0.0073241423815488815308f, 0.016310961917042732239f, -0.0043046101927757263184f, 0.019409922882914543152f, -0.019020983949303627014f, -0.0031940066255629062653f, 0.013368194922804832458f, -0.014644006267189979553f, -0.015378594398498535156f, 0.00053026003297418355942f, 0.020767746493220329285f, 0.0031164775136858224869f, 0.0093556148931384086609f, 0.013449267484247684479f, 0.017141845077276229858f, -0.019576912745833396912f, 0.015328478999435901642f, -0.0037837042473256587982f, -0.00095204723766073584557f, 0.016926722601056098938f, -0.0099964942783117294312f, -0.014896086417138576508f, -0.00077430345118045806885f, 0.0012322921538725495338f, 0.017064698040485382080f, 0.0036326262634247541428f, -0.012305602431297302246f, -0.010053069330751895905f, -0.0097445221617817878723f, 0.020534722134470939636f, 0.021454200148582458496f, -0.011691148392856121063f, -0.0040110708214342594147f, -0.015852775424718856812f, 0.0010747973574325442314f, -0.020267488434910774231f, -0.0014591529034078121185f, -0.0050964416004717350006f, -0.0056616626679897308350f, 0.015540175139904022217f, -0.0041875736787915229797f, 0.0084016919136047363281f, -0.018445359542965888977f, 0.019936067983508110046f, 0.0089347651228308677673f, 0.016712931916117668152f, -0.010250772349536418915f, -0.010700576007366180420f, 0.015502871945500373840f, -0.017752807587385177612f, 0.00032099039526656270027f, 0.013501008041203022003f, -0.0086641777306795120239f, 0.014501771889626979828f, 0.013697385787963867188f, 0.020120315253734588623f, 0.00051780825015157461166f, 0.0050220130942761898041f, 0.0059913825243711471558f, -0.017848916351795196533f, -0.0066762347705662250519f, -0.0068105040118098258972f, 0.010659664869308471680f, -0.0072932750917971134186f, 0.018895627930760383606f, -0.018718451261520385742f, -0.021438309922814369202f, -0.015053117647767066956f, -0.0040117185562849044800f, 0.010555761866271495819f, 0.0054288483224809169769f, -0.010396204888820648193f, -0.00046938416198827326298f, 0.013072090223431587219f, -0.0042598820291459560394f, 0.020129643380641937256f, 0.015271348878741264343f, -0.017623251304030418396f, -0.018207732588052749634f, -0.012688803486526012421f, -0.0071549043059349060059f, -0.011496293358504772186f, -0.0025529977865517139435f, -0.020339289680123329163f, -0.0059806588105857372284f, 0.0065551465377211570740f, 0.020917907357215881348f, 0.014082565903663635254f, 0.0046117631718516349792f, 0.010128424502909183502f, -0.017113098874688148499f, 0.0029338605236262083054f, -0.018954651430249214172f, -0.0047759911976754665375f, 0.016554966568946838379f, -0.017632396891713142395f, -0.021915888413786888123f, -0.016975680366158485413f, 0.012853207997977733612f, -0.0082637351006269454956f, -0.0012436297256499528885f, -0.014862106181681156158f, 0.015237674117088317871f, 0.021567191928625106812f, 0.00016283697914332151413f, -0.021342568099498748779f, -0.011535684578120708466f, -0.021159196272492408752f, 0.013878751546144485474f, 0.0020069908350706100464f, 0.018860951066017150879f, 0.021120818331837654114f, -0.019826048985123634338f, 0.020890561863780021667f, -0.0010527492268010973930f, 0.015602670609951019287f, -0.0075327218510210514069f, 0.0082517731934785842896f, -0.0059080081991851329803f, -0.0011276757577434182167f, -0.019320238381624221802f, 0.0045363074168562889099f, -0.018587302416563034058f, 0.017890362069010734558f, 0.0071704378351569175720f, -0.015201854519546031952f, -0.0089078499004244804382f, 0.0084799220785498619080f, 0.00081309961387887597084f, -0.0061422130092978477478f, 0.0055478424765169620514f, -0.00059465778758749365807f, -0.019886350259184837341f, -0.0055666160769760608673f, 0.010983476415276527405f, -0.017698546871542930603f, 0.013612233102321624756f, 0.0019094788003712892532f, 0.015067964792251586914f, -0.021141964942216873169f, 0.0018372179474681615829f, -0.0061966930516064167023f, -0.014756388030946254730f, -0.0056376573629677295685f, -0.0022591552697122097015f, -0.011033320799469947815f, -0.020260676741600036621f, 0.013855905272066593170f, -0.0057277935557067394257f, -0.0047545991837978363037f, -0.010387148708105087280f, -0.0092656947672367095947f, 0.0066814473830163478851f, 0.00019885935762431472540f, 0.020878592506051063538f, 0.020041689276695251465f, -0.0083314357325434684753f, -0.0045719821937382221222f, 0.014501726254820823669f, -0.017534535378217697144f, -0.0017151844222098588943f, 0.016236746683716773987f, -0.0084274541586637496948f, -0.0084903296083211898804f, -0.013890426605939865112f, -0.0017892047762870788574f, 0.021858891472220420837f, -0.018979789689183235168f, 0.0010454762959852814674f, 0.0028942029457539319992f, -0.00082875718362629413605f, 0.013194031082093715668f, -0.0027941963635385036469f, 0.018832094967365264893f, 0.0085086924955248832703f, 0.018690813332796096802f, 0.020166832953691482544f, 0.0023618277627974748611f, -0.0045713973231613636017f, 0.0032391168642789125443f, 0.0010437245946377515793f, 0.0029220303986221551895f, 0.00012770231114700436592f, -0.0031962983775883913040f, 0.011283551342785358429f, 0.010951313190162181854f, -0.010429111309349536896f, -0.0096487700939178466797f, -0.0026660619769245386124f, -0.010832559317350387573f, -0.017858222126960754395f, -0.021915810182690620422f, 0.017069470137357711792f, -0.016210820525884628296f, -0.021651415154337882996f, -0.012090503238141536713f, 0.0020819199271500110626f, 0.014861344359815120697f, -0.0030828732997179031372f, 0.0086697936058044433594f, 0.015981320291757583618f, -0.021492321044206619263f, 0.020770717412233352661f, -0.010443427599966526031f, 0.020704278722405433655f, -0.018283009529113769531f, 0.018728490918874740601f, -0.013164920732378959656f, -0.018076745793223381042f, 0.0023455009795725345612f, 0.0074826697818934917450f, 0.0071781692095100879669f, 0.0032306585926562547684f, -0.0056949215941131114960f, 0.0087955519556999206543f, -0.010476207360625267029f, 0.012477550655603408813f, -0.0046423990279436111450f, -0.0019161801319569349289f, -0.020288188010454177856f, 0.0065213819034397602081f, -0.017889173701405525208f, -0.0047286655753850936890f, 0.0012494380353018641472f, -0.017994396388530731201f, -0.0021889861673116683960f, 0.018103564158082008362f, -0.00093661097344011068344f, -0.0085648298263549804688f, 0.0023111486807465553284f, -0.0040975743904709815979f, 0.019749918952584266663f, -0.0074210166931152343750f, -0.016056379303336143494f, -0.0080023221671581268311f, -0.0096645960584282875061f, -0.0031699433457106351852f, 0.012190675362944602966f, 0.0088241035118699073792f, -0.016198711469769477844f, 0.0089984992519021034241f, 0.021496338769793510437f, 0.016792787238955497742f, 0.0058614807203412055969f, 0.0098640797659754753113f, -0.0014477494405582547188f, -0.0051846234127879142761f, -0.0038937102071940898895f, 0.0034273606725037097931f, 0.019432114437222480774f, -0.019704839214682579041f, 0.010751081630587577820f, -0.013716054148972034454f, -0.0055814860388636589050f, -0.00068776542320847511292f, 0.0035519783850759267807f, 0.014624889940023422241f, -0.013342092745006084442f, -0.016988908872008323669f, 0.0097415037453174591064f, -0.0061546987853944301605f, -0.021577956154942512512f, -0.020876590162515640259f, 0.014183554798364639282f, -0.019849829375743865967f, 0.0045016864314675331116f, 0.0053158951923251152039f, -0.017425579950213432312f, 0.0063693397678434848785f, -0.012929978780448436737f, -0.018797304481267929077f, -0.0019873450510203838348f, -0.010859562084078788757f, 0.00044879279448650777340f, 0.0023125922307372093201f, 0.0091940052807331085205f, -0.022036831825971603394f, -0.0099653117358684539795f, -0.0047721560113131999969f, 0.0041660922579467296600f, 0.011314813978970050812f, -0.016482191160321235657f, -0.014432576484978199005f, -0.013663149438798427582f, -0.0044468347914516925812f, 0.019895691424608230591f, -0.021325441077351570129f, 0.019189072772860527039f, -0.010941646061837673187f, 0.0050455229356884956360f, 0.00017624758766032755375f, 0.018579294905066490173f, -0.0075113768689334392548f, 0.015501455403864383698f, 0.018102079629898071289f, -0.017155256122350692749f, -0.010238617658615112305f, 0.012592155486345291138f, 0.012051812373101711273f, 0.00065986945992335677147f, 0.016170550137758255005f, -0.015949746593832969666f, -0.0081496434286236763000f, -0.0091446861624717712402f, -0.010000435635447502136f, 0.0029580895788967609406f, -0.018010389059782028198f, -0.013657201081514358521f, 0.00076833966886624693871f, 0.0058509833179414272308f, 0.00082432123599573969841f, 0.019632710143923759460f, -0.0091579044237732887268f, -0.012980370782315731049f, -0.012927038595080375671f, 0.020135853439569473267f, -0.019256001338362693787f, -0.00033454850199632346630f, 0.021299088373780250549f, -0.010879797860980033875f, -0.00027836940716952085495f, 0.0099214045330882072449f, -0.0097699398174881935120f, -0.0092423297464847564697f, -0.016201579943299293518f, 0.018449308350682258606f, 0.0060058599337935447693f, -0.020875405520200729370f, -0.021155631169676780701f, 0.010155314579606056213f, 0.021739227697253227234f, 0.010413658805191516876f, -0.018008569255471229553f, -0.0078192856162786483765f, 0.016720818355679512024f, -0.011007819324731826782f, 0.021328622475266456604f, 0.020437283441424369812f, 0.0057895095087587833405f, -0.019069101661443710327f, 0.013311278074979782104f, 0.0029779251199215650558f, 0.011234382167458534241f, 0.0048480806872248649597f, -0.017305165529251098633f, 0.014468639157712459564f, -0.012392753735184669495f, 0.0017839943757280707359f, -0.017644161358475685120f, 0.00014129994087852537632f, 0.021117081865668296814f, 0.018336528912186622620f, 0.013601704500615596771f, 0.0055218483321368694305f, -0.0033647883683443069458f, 0.017405057325959205627f, 0.0034675290808081626892f, 0.020841423422098159790f, 0.015084262005984783173f, -0.0032969871535897254944f, 0.013977295719087123871f, 0.0062474561855196952820f, 0.013597574084997177124f, -0.0091232545673847198486f, -0.0071805375628173351288f, 0.013723656535148620605f, 0.0097101358696818351746f, -0.019514027982950210571f, -0.019389973953366279602f, 0.015968093648552894592f, 0.0063094068318605422974f, 0.019069762900471687317f, -0.021797014400362968445f, 0.0058064027689397335052f, -0.016663879156112670898f, -0.011127779260277748108f, -0.017707087099552154541f, -0.010946798138320446014f, -0.010070523247122764587f, 0.014060454443097114563f, 0.014271296560764312744f, 0.0072868107818067073822f, -0.010358022525906562805f, -0.011010526679456233978f, -0.011743371374905109406f, 0.0095781162381172180176f, -0.013062954880297183990f, 0.00018801972328219562769f, -0.019537456333637237549f, 0.012796589173376560211f, -0.0074746618047356605530f, 0.013826302252709865570f, -0.013698320835828781128f, 0.010993254370987415314f, -0.0016491666901856660843f, -0.0027534377295523881912f, 0.013439194299280643463f, 0.0054561966098845005035f, -0.014840940013527870178f, 0.019567614421248435974f, -0.0087645296007394790649f, -0.0010867353994399309158f, 0.016502304002642631531f, 0.0063712545670568943024f, 0.020945062860846519470f, -1.2654591046157293022e-05f, 0.016514439135789871216f, 0.0050893980078399181366f, -0.0056626871228218078613f, 0.012906697578728199005f, -0.0013882934581488370895f, 0.014597702771425247192f, 0.013484997674822807312f, 0.016298344358801841736f, 0.00075473153265193104744f, -0.00078520365059375762939f, -0.0041318531148135662079f, 0.0062673441134393215179f, 0.0077167847193777561188f, 0.019367674365639686584f, 0.011544060893356800079f, 0.011439837515354156494f, -0.012021329253911972046f, -0.014556122012436389923f, -0.012977754697203636169f, 0.0068838526494801044464f, -0.0036593130789697170258f, 0.0035162535496056079865f, -0.0039958716370165348053f, 0.011646538972854614258f, 0.013122684322297573090f, 0.0012195506133139133453f, 0.014194486662745475769f, 0.0031122048385441303253f, 6.9281515607144683599e-05f, -0.0038093321491032838821f, -0.0028101068455725908279f, 0.0099772280082106590271f, 0.0089911632239818572998f, -0.0074766399338841438293f, -0.0039715077728033065796f, -0.0098708653822541236877f, 0.021395603194832801819f, 0.017954483628273010254f, -0.019034551456570625305f, 0.0036672104615718126297f, -0.0070844031870365142822f, -0.010087389498949050903f, -0.0081089194864034652710f, -0.021495969966053962708f, -0.0072611011564731597900f, 0.00019994200556538999081f, 0.0096810702234506607056f, -0.022014148533344268799f, 0.0092366104945540428162f, -0.0041888090781867504120f, -0.020682269707322120667f, 0.0040233670733869075775f, -0.0052539287135004997253f, 0.022048462182283401489f, 0.020737681537866592407f, -0.00064283423125743865967f, 0.014065746217966079712f, 0.016278980299830436707f, 0.015433603897690773010f, 0.0020368939731270074844f, -0.0082053560763597488403f, 0.010075562633574008942f, -0.015488692559301853180f, 0.0048166997730731964111f, 0.0091595351696014404297f, 0.021186143159866333008f, 0.020772522315382957458f, 0.011407563462853431702f, 0.0041953553445637226105f, 0.020695269107818603516f, 0.0089647350832819938660f, -0.010278109461069107056f, 0.016274489462375640869f, -0.0094738267362117767334f, 0.0038706164341419935226f, 0.013575589284300804138f, -0.010774314403533935547f, 0.0084403567016124725342f, -0.019258972257375717163f, -0.0054418561048805713654f, -0.0066871428862214088440f, -0.0034249739255756139755f, 0.010613632388412952423f, 0.021208966150879859924f, 0.0064243413507938385010f, -0.0056744143366813659668f, -0.0092517780140042304993f, 0.0082626705989241600037f, -0.00035760545870289206505f, 0.0012967188376933336258f, 0.0046148481778800487518f, -0.019523903727531433105f, -0.016193056479096412659f, -0.014595063403248786926f, 0.012628383934497833252f, 0.012880099937319755554f, -0.00079777400242164731026f, -0.0038477489724755287170f, 0.020281132310628890991f, 0.0036811162717640399933f, 0.016684550791978836060f, -0.0094682555645704269409f, 0.0069192429073154926300f, 8.1909762229770421982e-05f, 0.00027886987663805484772f, 0.0066961804404854774475f, -0.018259834498167037964f, 0.0050318092107772827148f, -0.0010113900061696767807f, -0.0017267194343730807304f, -0.021113755181431770325f, -0.017335701733827590942f, -0.012893387116491794586f, 0.0059523466043174266815f, 0.010573248378932476044f, 0.015572482720017433167f, -0.0021975999698042869568f, 0.019542437046766281128f, 0.0096666775643825531006f, 0.019725333899259567261f, 0.0039782249368727207184f, 0.0031252494081854820251f, 0.0066926162689924240112f, 0.016421940177679061890f, -0.017024895176291465759f, 0.019432863220572471619f, -0.0041718925349414348602f, -0.013454472646117210388f, -0.00060016318457201123238f, -0.0097386902198195457458f, -0.0020512316841632127762f, -0.020103748887777328491f, -0.0095665520057082176208f, -0.0037758334074169397354f, 0.00069224619073793292046f, -0.0060373148880898952484f, 0.0022405711933970451355f, -0.0081703169271349906921f, -0.00058670254657045006752f, -0.0029052770696580410004f, -0.0099968183785676956177f, -0.011538861319422721863f, 0.0070551424287259578705f, -0.0013556586345657706261f, 0.012662656605243682861f, -0.0060443794354796409607f, -0.0047541144303977489471f, -0.014099813997745513916f, -0.015272542834281921387f, -0.020806293934583663940f, 0.014855051413178443909f, -2.7419158868724480271e-05f, 0.013491208665072917938f, 0.0076368348672986030579f, -0.020174268633127212524f, 0.021672790870070457458f, -0.012492539361119270325f, 0.010300542227923870087f, -0.0085482634603977203369f, 0.021659012883901596069f, 0.0022250032052397727966f, 0.014427742920815944672f, 0.017607258632779121399f, 0.0086236586794257164001f, -0.0077873016707599163055f, 0.0068392795510590076447f, 0.015048584900796413422f, -0.012605697847902774811f, 0.011670241132378578186f, 0.015791887417435646057f, 0.0094927269965410232544f, -0.0051635764539241790771f, 0.0080565148964524269104f, 0.013322958722710609436f, 0.020965024828910827637f, -0.0091545162722468376160f, 0.0032685750629752874374f, -0.015815148130059242249f, 0.0079183625057339668274f, -0.0042369514703750610352f, -0.019825521856546401978f, -0.014295747503638267517f, 0.018060037866234779358f, -0.010605026967823505402f, -0.0021810070611536502838f, -0.00069641083246096968651f, 0.011136342771351337433f, 0.0048706186935305595398f, 0.010521725751459598541f, 0.014617864973843097687f, 0.020063459873199462891f, 0.0067817964591085910797f, 0.0044082757085561752319f, 0.020234270021319389343f, 0.0083495434373617172241f, 0.017411304637789726257f, 0.016565272584557533264f, 0.0021843500435352325439f, -0.011165313422679901123f, 0.00026427916600368916988f, -0.016489377245306968689f, -0.0078016291372478008270f, 0.021469112485647201538f, 0.0092968782410025596619f, -0.016372403129935264587f, -0.016990981996059417725f, 0.010680148378014564514f, -0.020993882790207862854f, -0.012763825245201587677f, -0.020479612052440643311f, -0.016895532608032226562f, -0.015239230357110500336f, 0.015299097634851932526f, 0.0034098275937139987946f, -0.0026954016648232936859f, -0.013015262782573699951f, 0.019627317786216735840f, 0.011510317213833332062f, 0.016229966655373573303f, 0.018501752987504005432f, -0.016115142032504081726f, 0.0062330313958227634430f, -0.0028543714433908462524f, 0.0041246404871344566345f, -0.0091376947239041328430f, -0.0029891571030020713806f, -0.020540364086627960205f, 0.021820969879627227783f, -0.0013764791656285524368f, -0.0091535337269306182861f, 0.0033084906172007322311f, 0.021356623619794845581f, 0.011015471071004867554f, 0.0056387502700090408325f, 0.011249401606619358063f, 0.00039804537664167582989f, 0.0082744089886546134949f, -0.0063431086018681526184f, -0.0043591535650193691254f, 0.00044094823533669114113f, 0.0079630380496382713318f, 0.018965272232890129089f, 0.0077434876002371311188f, -0.010769067332148551941f, 0.019105825573205947876f, 0.016871331259608268738f, -0.016098201274871826172f, -0.0080164466053247451782f, -0.018074749037623405457f, -0.012952166609466075897f, -0.0036159255541861057281f, 0.0059541827067732810974f, -0.0013707366306334733963f, 0.018665798008441925049f, 0.012721423059701919556f, -0.016471495851874351501f, 0.020349167287349700928f, 0.017436765134334564209f, 0.012803409248590469360f, -0.0035459091886878013611f, -0.0085034165531396865845f, 0.0018220108468085527420f, 0.0081452550366520881653f, -0.016817895695567131042f, -0.0059605729766190052032f, -0.0059644109569489955902f, 0.011725181713700294495f, -0.011760769411921501160f, -0.0025770505890250205994f, 0.0067879394628107547760f, -0.0046788719482719898224f, -0.011604025959968566895f, 0.020058980211615562439f, 0.017321933060884475708f, -0.00030160020105540752411f, -0.015537883155047893524f, -0.013638643547892570496f, -0.016031324863433837891f, -0.014071233570575714111f, 0.021243438124656677246f, 0.0048185698688030242920f, -0.013529190793633460999f, 0.0099404705688357353210f, 0.016667660325765609741f, -0.010402076877653598785f, 0.013302940875291824341f, -0.011663249693810939789f, -0.015814317390322685242f, 0.010560667142271995544f, -0.019051335752010345459f, -0.012892846949398517609f, 0.014337778091430664062f, -0.014705311506986618042f, -0.015989497303962707520f, -0.019862072542309761047f, -0.014473266899585723877f, 0.015988841652870178223f, -0.0013858515303581953049f, 0.012904340401291847229f, 0.0072318036109209060669f, 0.0044733872637152671814f, -0.0047975624911487102509f, -0.0023419316858053207397f, 6.4289750298485159874e-05f, -0.014490589499473571777f, -0.014609794132411479950f, 0.016069943085312843323f, 0.012594889849424362183f, 0.018232882022857666016f, 0.020520417019724845886f, -0.019077472388744354248f, 0.0082816975191235542297f, 0.0086636766791343688965f, -0.017131352797150611877f, -0.013681090436875820160f, 0.015749922022223472595f, -0.0051752165891230106354f, -0.013709837570786476135f, -0.0042544924654066562653f, 0.020239518955349922180f, -0.0059782434254884719849f, 0.0036866480950266122818f, 0.0063940403051674365997f, -0.014892409555613994598f, 0.0037825610488653182983f, -0.0076598706655204296112f, -0.017376283183693885803f, 0.0038190074265003204346f, 0.021911013871431350708f, -0.011349018663167953491f, 0.00056302658049389719963f, -0.018828496336936950684f, -0.013530471362173557281f, 0.017588809132575988770f, -0.011681085452437400818f, -0.020902398973703384399f, 0.011728382669389247894f, 0.0091659221798181533813f, -0.012170518748462200165f, -0.0093134231865406036377f, 0.0077038221061229705811f, 0.021878186613321304321f, 0.0099868746474385261536f, 0.010439458303153514862f, -0.0068733897060155868530f, -0.011007184162735939026f, 0.020656567066907882690f, -0.0092646274715662002563f, -0.0055523728951811790466f, 0.0080811707302927970886f, 0.0040051676332950592041f, -0.0089755505323410034180f, -0.020085448399186134338f, -0.0042969738133251667023f, 0.012595240026712417603f, 0.0031031537801027297974f, -0.0059122648090124130249f, 0.0024153620470315217972f, -0.0054430784657597541809f, 0.00069945328868925571442f, 0.0027904296293854713440f, 0.0097309350967407226562f, -0.012325073592364788055f, -0.017893863841891288757f, 0.0085598062723875045776f, 0.017853667959570884705f, 0.0045762439258396625519f, 0.0044741593301296234131f, -0.017447423189878463745f, 0.011579667218029499054f, -0.021431455388665199280f, -0.0074063707143068313599f, -0.015486040152609348297f, 0.012737567536532878876f, 0.0050864503718912601471f, -0.015657970681786537170f, -0.012601646594703197479f, 0.016933467239141464233f, 0.015439986251294612885f, 0.013908975757658481598f, 0.0074651208706200122833f, 0.0044770911335945129395f, 0.018137574195861816406f, 0.021253498271107673645f, 0.010152996517717838287f, -0.018517928197979927063f, 0.0086755417287349700928f, -0.016659755259752273560f, -0.0059503787197172641754f, -0.020918758586049079895f, -0.0041537536308169364929f, 0.0080677941441535949707f, -0.011578436940908432007f, -0.0034265993162989616394f, -0.014807854779064655304f, -0.021442225202918052673f, 0.011150707490742206573f, -0.0010189658496528863907f, 0.00066460308153182268143f, -0.011357044801115989685f, 0.0019654813222587108612f, 0.013378595001995563507f, 0.014829192310571670532f, -0.014637813903391361237f, -0.0036171872634440660477f, -0.011242885142564773560f, 0.014864987693727016449f, -0.019039060920476913452f, -0.015454777516424655914f, -0.0031950683332979679108f, 0.0026702845934778451920f, 0.018181029707193374634f, 0.020128520205616950989f, 0.016580836847424507141f, 0.00037799665005877614021f, 0.016557646915316581726f, -0.0027539355214685201645f, -0.017881561070680618286f, -0.020238539204001426697f, 0.0065278988331556320190f, 0.017589297145605087280f, 0.0062766587361693382263f, -0.015206464566290378571f, 0.013239415362477302551f, -0.0026779950130730867386f, -0.0049998490139842033386f, -0.0028703899588435888290f, -0.012449601665139198303f, 0.020945273339748382568f, 0.021656958386301994324f, -0.010223755612969398499f, 0.021072799339890480042f, -0.014851734973490238190f, -0.0050642360001802444458f, 0.0024097145069390535355f, 0.011505844071507453918f, -0.012875664047896862030f, 0.011250031180679798126f, -0.0069729774259030818939f, -0.0018912371015176177025f, -0.012239852920174598694f, -0.0066375173628330230713f, 0.018204251304268836975f, -0.018212029710412025452f, 0.020353671163320541382f, 0.0091689331457018852234f, 0.0093540791422128677368f, -0.018416792154312133789f, 0.021663483232259750366f, 0.011748491786420345306f, -0.014147980138659477234f, 0.010982567444443702698f, 0.0017452219035476446152f, 0.0020049018785357475281f, 0.021681722253561019897f, -0.0049706464633345603943f, 0.0066220019944012165070f, -0.010361958295106887817f, -0.0017175235552713274956f, 0.0092110726982355117798f, -0.0099012190476059913635f, -0.011015407741069793701f, 0.014506504870951175690f, 0.019132364541292190552f, -0.0055076396092772483826f, -0.019367169588804244995f, 0.00092376931570470333099f, 0.017922915518283843994f, 0.018831972032785415649f, 0.014107787981629371643f, -0.011642663739621639252f, -0.0038357188459485769272f, -0.014535230584442615509f, 0.0049977125599980354309f, 0.0029586348682641983032f, 0.012642887420952320099f, -0.0087362984195351600647f, -0.011001022532582283020f, 0.016633477061986923218f, 0.0049009700305759906769f, 0.0016987050184980034828f, -0.0025825665798038244247f, 0.0087298024445772171021f, 0.0057433033362030982971f, 0.0015130059327930212021f, 0.0012960708700120449066f, 0.015293209813535213470f, -0.0099891666322946548462f, 0.020982919260859489441f, 0.021856291219592094421f, -0.0091289253905415534973f, -0.017100369557738304138f, 0.018769158050417900085f, 0.0083042699843645095825f, 0.015515303239226341248f, 0.0039055850356817245483f, -0.013089443556964397430f, -0.0099583882838487625122f, 0.018794722855091094971f, 0.010632611811161041260f, 0.00070966070052236318588f, -0.011817106977105140686f, 0.0037452899850904941559f, -0.013693192042410373688f, 0.0072275572456419467926f, 0.0049567641690373420715f, -0.017566818743944168091f, -0.0058122691698372364044f, 0.014017699286341667175f, -0.019266434013843536377f, -0.0097472202032804489136f, 0.0057849157601594924927f, -1.1081986485805828124e-05f, -0.011289904825389385223f, -0.0089148618280887603760f, 0.0017052246257662773132f, -0.017097095027565956116f, -0.00010229830513708293438f, -0.0096328593790531158447f, 0.021283838897943496704f, -0.0042357924394309520721f, 0.0016926858806982636452f, -0.010879992507398128510f, -0.0043823607265949249268f, -0.00045027321903035044670f, 0.0073745260015130043030f, 0.017238942906260490417f, 0.020622247830033302307f, 0.0069981836713850498199f, -0.0097052445635199546814f, 0.017552146688103675842f, 0.010545489378273487091f, 0.010723638348281383514f, 0.010673064738512039185f, -0.021429251879453659058f, -0.0092929638922214508057f, 0.016566190868616104126f, 0.020017784088850021362f, -0.00025631341850385069847f, 0.021262159571051597595f, -0.0081533994525671005249f, 0.020054623484611511230f, 0.011832633055746555328f, -0.0037701330147683620453f, 3.0556464025721652433e-07f, 0.013161003589630126953f, -3.9409937016898766160e-05f, -0.0058357762172818183899f, -0.00084970414172857999802f, 0.0082289986312389373779f, 0.017326351255178451538f, -0.016584405675530433655f, 0.016829589381814002991f, -0.016218846663832664490f, 0.011067424900829792023f, 0.016941452398896217346f, 0.019035745412111282349f, 0.018410835415124893188f, 0.0061671347357332706451f, 0.014803753234446048737f, 0.013160740025341510773f, 0.017588522285223007202f, -0.015492870472371578217f, -0.013592184521257877350f, -0.013457114808261394501f, 0.0061981128528714179993f, -0.019415928050875663757f, -0.0047751981765031814575f, -0.019879693165421485901f, 0.0028435213025659322739f, -0.019841782748699188232f, -0.0090284235775470733643f, -0.016667529940605163574f, -0.012949995696544647217f, -0.011695007793605327606f, -0.021011577919125556946f, 0.014098360203206539154f, -0.00015323540719691663980f, -0.0047867149114608764648f, -0.014781442470848560333f, 0.0043818443082273006439f, -0.0022114345338195562363f, -0.017789945006370544434f, -0.017490427941083908081f, 0.0077624903060495853424f, -0.018349433317780494690f, 0.0012480551376938819885f, -0.0013981242664158344269f, -0.014340101741254329681f, -0.00061607890529558062553f, -0.00047822709893807768822f, -0.016585566103458404541f, 0.0099445171654224395752f, -0.018134448677301406860f, -0.017926344648003578186f, 0.0031483143102377653122f, 3.8472167943837121129e-05f, -0.017767088487744331360f, 0.013183995150029659271f, -0.0028398125432431697845f, 0.019285967573523521423f, 0.0085989609360694885254f, -0.0087570380419492721558f, 0.013682626187801361084f, 0.0025763155426830053329f, -0.013556957244873046875f, 0.0041933557949960231781f, -0.0080892862752079963684f, 0.0098809441551566123962f, 0.010154908522963523865f, -0.016169048845767974854f, 0.017584471032023429871f, -0.0014698344748467206955f, 0.019273448735475540161f, 0.0097926910966634750366f, 0.012777104042470455170f, -0.00099173642229288816452f, 0.0083661312237381935120f, -0.0071148383431136608124f, 0.0059404796920716762543f, -0.011790493503212928772f, 0.013664837926626205444f, -0.0044750208035111427307f, 0.0049476660788059234619f, -0.011535542085766792297f, -0.017277956008911132812f, 0.020170960575342178345f, -0.011436028406023979187f, 0.011533382348716259003f, -0.019547732546925544739f, -0.018993863835930824280f, -0.0018866430036723613739f, -0.010498313233256340027f, 0.0088667171075940132141f, 0.015859661623835563660f, 0.0030123537871986627579f, 0.021247131749987602234f, -0.012244941666722297668f, 0.0044178166426718235016f, 0.021502370014786720276f, 0.017347728833556175232f, 0.014222222380340099335f, -0.0020522642880678176880f, -0.021660631522536277771f, -0.019161617383360862732f, -0.021544573828577995300f, -0.011574709787964820862f, 0.017424773424863815308f, 0.016454298049211502075f, -0.020819265395402908325f, 