// This file is computer-generated by onnx2c 
// (TODO: add creating command line here)
// (TODO: print creation date here )

// ONNX model:
// produced by pytorch, version 2.5.1
// ONNX IR version: 17
// Model documentation: 
/*

*/

#include <float.h>
#include <math.h>
#include <stdbool.h>
#include <stdint.h>
#include <string.h>

#define MAX(X,Y) ( X > Y ? X : Y)
#define MIN(X,Y) ( X < Y ? X : Y)
#define CLIP(X,L) ( MAX(MIN(X,L), -L) )

#if __STDC_VERSION__ < 199901L
#define FUNC_PREFIX
#else
#define FUNC_PREFIX static inline
#endif

static const float tensor_fc1_weight[4][2048] = 
{
  {0.020060416311025619507f, 0.0038814402651041746140f, -0.016006572172045707703f, 0.021002948284149169922f, -0.0023594333324581384659f, -0.019146587699651718140f, -0.013231592252850532532f, -0.016518345102667808533f, 0.0086987698450684547424f, -0.014449469745159149170f, -0.0077537870965898036957f, 0.0057720108889043331146f, -0.016640383750200271606f, -0.0033130741212517023087f, 0.014848382212221622467f, -0.0054617966525256633759f, -0.0068047400563955307007f, 0.019722931087017059326f, -0.019577842205762863159f, 0.021349441260099411011f, 0.014662717469036579132f, 0.0085023734718561172485f, -0.013364731334149837494f, -0.0097139552235603332520f, 0.014748469926416873932f, -0.015717707574367523193f, -0.014943552203476428986f, 0.0051897126249969005585f, 0.0057912981137633323669f, 0.015586135908961296082f, 0.021294966340065002441f, 0.017444334924221038818f, 0.015135602094233036041f, 0.016944246366620063782f, -0.0087626539170742034912f, -0.0019907378591597080231f, 0.013856108300387859344f, -0.0015420635463669896126f, 0.010426529683172702789f, 0.0020734509453177452087f, 0.020388908684253692627f, -0.012754086405038833618f, -0.0024875465314835309982f, 0.0086619649082422256470f, 0.021560028195381164551f, -0.017174432054162025452f, 0.016665101051330566406f, -0.011918867938220500946f, 0.015581966377794742584f, -0.0099343042820692062378f, -0.00088885595323517918587f, -0.0022194241173565387726f, 0.021122992038726806641f, -0.0039290925487875938416f, 0.013083606027066707611f, -0.017829289659857749939f, 0.0099043278023600578308f, -0.0010258463444188237190f, -0.0064803306013345718384f, -0.013667935505509376526f, 0.0064319013617932796478f, -0.0065248142927885055542f, -0.0022329427301883697510f, 0.018736526370048522949f, 0.016989249736070632935f, 0.0010858819587156176567f, 0.0045136087574064731598f, 0.0032770307734608650208f, -0.021803285926580429077f, 0.0012810139451175928116f, 0.0017687767976894974709f, 0.0023840020876377820969f, -0.021951435133814811707f, 0.013386297039687633514f, -0.0060470928438007831573f, 0.0030492139048874378204f, -0.0022616526111960411072f, -0.0051226043142378330231f, -0.0012680353829637169838f, 0.018823793157935142517f, -0.017968557775020599365f, 0.0052519082091748714447f, -0.021194603294134140015f, 0.0025166752748191356659f, 0.016028014943003654480f, -0.0024445250164717435837f, -0.013791610486805438995f, 0.014394441619515419006f, -0.0036473881918936967850f, -0.017961265519261360168f, -0.012831568717956542969f, 0.0030291334260255098343f, -0.0068385130725800991058f, 0.020477086305618286133f, 0.0049249827861785888672f, -0.019134262576699256897f, -0.016551529988646507263f, -0.0048544872552156448364f, 0.00013860517356079071760f, 0.012228710576891899109f, -0.019666694104671478271f, -0.0029746112413704395294f, 0.020113987848162651062f, 0.0010371470125392079353f, -0.013742271810770034790f, 0.014557873830199241638f, 0.019560737535357475281f, 0.013439613394439220428f, 0.010179973207414150238f, 0.0090845320373773574829f, 0.018982373178005218506f, -0.015357863157987594604f, -0.016089495271444320679f, 0.014260388910770416260f, -0.021857025101780891418f, 0.0099709695205092430115f, -0.010394516400992870331f, -0.0034667151048779487610f, -0.022066047415137290955f, -0.011816669255495071411f, 0.021358441561460494995f, -0.0097073465585708618164f, -0.017410317435860633850f, 0.012882034294307231903f, 0.019440565258264541626f, 0.0094154505059123039246f, 0.0079358667135238647461f, -0.0094271432608366012573f, 0.0048934360966086387634f, -0.010067109018564224243f, -0.011139748618006706238f, -0.011169286444783210754f, -0.0052639567293226718903f, 0.012454865500330924988f, -0.016453273594379425049f, -0.018779981881380081177f, 0.0013161038514226675034f, -0.0093751531094312667847f, -0.015799030661582946777f, 0.013699103146791458130f, 0.016849398612976074219f, -0.018388710916042327881f, 0.011190306395292282104f, 0.0090695507824420928955f, 0.011560925282537937164f, 0.012388923205435276031f, -0.0026964526623487472534f, 0.016533460468053817749f, -0.015164928510785102844f, -0.00089273607591167092323f, 0.0015946391504257917404f, -0.012632387690246105194f, 0.015333143994212150574f, 0.0081818038597702980042f, 0.0026558598037809133530f, -0.00091830344172194600105f, -0.021330555900931358337f, 0.013766448944807052612f, 0.016941953450441360474f, 0.012365137226879596710f, -0.010682012885808944702f, -0.021061887964606285095f, -0.0020868773572146892548f, 0.020535329356789588928f, 0.013831992633640766144f, -0.018331175670027732849f, -0.010670454241335391998f, 0.012702799402177333832f, -0.00052740192040801048279f, 0.0099297761917114257812f, 0.016291609033942222595f, -0.0046693361364305019379f, 0.014354154467582702637f, -0.0066401991061866283417f, 0.014348087832331657410f, 0.0046452647075057029724f, -0.010055050253868103027f, 0.014532828703522682190f, -0.017847217619419097900f, -0.0069539505057036876678f, -0.016638513654470443726f, 0.019624434411525726318f, -0.021946856752038002014f, 0.013640843331813812256f, 0.00021967463544569909573f, -0.0033895864617079496384f, 0.0066624656319618225098f, -0.0087331216782331466675f, 0.0082848686724901199341f, 0.0078275306150317192078f, -0.012474068440496921539f, -0.00066831463482230901718f, 0.012373192235827445984f, 0.0011806016555055975914f, -0.014531071297824382782f, -0.015657722949981689453f, -0.018778251484036445618f, -0.0029345348011702299118f, -0.018448358401656150818f, -0.0039190142415463924408f, 0.0049779429100453853607f, 0.0015308156143873929977f, 0.0043086088262498378754f, -0.011542965658009052277f, -0.0068484148941934108734f, 0.0088872928172349929810f, 0.013076847419142723083f, 0.019638644531369209290f, 0.014627076685428619385f, 0.013382875360548496246f, -0.013205911032855510712f, -0.011254211887717247009f, 0.0093010142445564270020f, -0.0036582674365490674973f, -0.017104133963584899902f, 0.011471205390989780426f, -0.0041257389821112155914f, 0.0065418281592428684235f, 0.013982172124087810516f, -0.0059958631172776222229f, -0.0082967653870582580566f, 0.0043265451677143573761f, 0.0034262700937688350677f, 0.0010699583217501640320f, -0.0077621825039386749268f, 0.015283919870853424072f, -0.019869754090905189514f, -0.019971230998635292053f, -0.015265885740518569946f, -0.0068051195703446865082f, -0.0086149917915463447571f, -0.0096251098439097404480f, -0.0039812335744500160217f, 0.011822852306067943573f, 0.015007723122835159302f, 0.015960020944476127625f, 0.0093006584793329238892f, 0.017267720773816108704f, 0.013720737770199775696f, -0.0026320917531847953796f, -0.0040012951940298080444f, 0.010591937229037284851f, 0.0012707116547971963882f, 0.016695231199264526367f, -0.012564728967845439911f, -0.020030623301863670349f, 0.0085718790069222450256f, -0.0090245939791202545166f, 0.012487325817346572876f, 0.0011598075507208704948f, -0.013561760075390338898f, -0.0031535641755908727646f, 0.015997434034943580627f, -0.010358493775129318237f, 0.016885846853256225586f, -0.0041456562466919422150f, -0.0037622700911015272141f, 0.020281268283724784851f, -0.012662440538406372070f, -0.020005833357572555542f, 0.011313929222524166107f, 0.018219348043203353882f, 0.0014469644520431756973f, 0.019582901149988174438f, 0.020335691049695014954f, -0.0094703128561377525330f, 0.0089834034442901611328f, 0.0097880419343709945679f, -0.016764014959335327148f, -0.012482152320444583893f, -0.0089472858235239982605f, 0.00081103440606966614723f, -0.0020239364821463823318f, -0.00054969498887658119202f, 0.011019865050911903381f, 0.010719737038016319275f, 0.0080090202391147613525f, -0.019860176369547843933f, 0.012530948035418987274f, -0.019978882744908332825f, -0.013611081987619400024f, -0.018198978155851364136f, 0.0036819907836616039276f, -0.0060893003828823566437f, 0.015084243379533290863f, 0.013788559474050998688f, 0.0065742051228880882263f, -0.0066219652071595191956f, -0.0082795377820730209351f, 0.015391825698316097260f, -0.010468139313161373138f, -0.020615287125110626221f, 0.019685596227645874023f, 0.0078370561823248863220f, 0.0020750237163156270981f, -0.013390551321208477020f, 0.0022901676129549741745f, 0.020804854109883308411f, -0.022022636607289314270f, -0.019334524869918823242f, 0.0074856355786323547363f, -0.014235337264835834503f, -0.021509377285838127136f, -0.0020087372977286577225f, -0.010133258998394012451f, -0.0071508502587676048279f, -0.0058428542688488960266f, 0.0069330614060163497925f, -0.021773941814899444580f, 0.017553323879837989807f, -0.010585262440145015717f, 0.012467282824218273163f, 0.022069867700338363647f, 0.021618995815515518188f, -0.021846421062946319580f, -0.0018557335715740919113f, 0.014148377813398838043f, 0.0027586640790104866028f, -0.0018535867566242814064f, 0.013037149794399738312f, 0.0079488456249237060547f, -0.017146907746791839600f, 0.0014190211659297347069f, -0.0093548195436596870422f, 0.0087097063660621643066f, -0.012386742979288101196f, 0.015120026655495166779f, -0.016336798667907714844f, -0.013025154359638690948f, 0.0045536402612924575806f, 0.013219051063060760498f, 0.021967703476548194885f, 0.0045177787542343139648f, -0.021925477311015129089f, -0.0062386947683990001678f, 0.0073454896919429302216f, 0.017248053103685379028f, -0.0018957810243591666222f, 0.016418399289250373840f, -0.0055791572667658329010f, -0.018420653417706489563f, 0.0080058462917804718018f, 0.014420451596379280090f, -0.00044106939458288252354f, -0.00046241414383985102177f, -0.0045971963554620742798f, -0.0047786016948521137238f, 0.0043714735656976699829f, 0.0018365040887147188187f, 0.0088355913758277893066f, 0.018125407397747039795f, -0.0036184780765324831009f, 0.021822504699230194092f, -0.0047996407374739646912f, 0.013668507337570190430f, 0.016568297520279884338f, 0.0080753285437822341919f, 0.012950466945767402649f, -0.0014297711895778775215f, 0.011621292680501937866f, 0.020689934492111206055f, -0.0011629158398136496544f, -0.011833715252578258514f, 0.013113894499838352203f, 0.0080360500141978263855f, 0.0019466548692435026169f, 0.0091020595282316207886f, -0.019229110330343246460f, 0.0023020582739263772964f, -0.0015659714117646217346f, 0.020960457623004913330f, -0.014086980372667312622f, 0.0047607314772903919220f, -0.015325146727263927460f, 0.017351983115077018738f, -0.020479116588830947876f, -0.017841139808297157288f, -0.0041734469123184680939f, 0.017450394108891487122f, -0.020830370485782623291f, -0.014050059951841831207f, 0.017912741750478744507f, 0.017910629510879516602f, -0.0070753730833530426025f, 0.012124110013246536255f, 0.0014189078938215970993f, 0.0080505460500717163086f, -0.021655898541212081909f, 0.013659171760082244873f, 0.0017112304922193288803f, 0.0075221746228635311127f, -0.0097030233591794967651f, -0.0080286953598260879517f, 0.0097509156912565231323f, -0.019140275195240974426f, -0.014783686026930809021f, 0.011381761170923709869f, -0.012293123640120029449f, 0.011750873178243637085f, 0.010196320712566375732f, 0.019827924668788909912f, -0.0022503149230033159256f, 0.020002601668238639832f, -0.0095064695924520492554f, -0.015205047093331813812f, 0.018116824328899383545f, 0.0086208507418632507324f, 0.019844787195324897766f, -0.0048088897019624710083f, -0.0034573322627693414688f, 0.015330504626035690308f, 0.0069761960767209529877f, 0.0074095055460929870605f, 0.0027468653861433267593f, 0.0078788949176669120789f, 0.0020811744034290313721f, -0.015310324728488922119f, 0.013753428123891353607f, 0.0028131019789725542068f, 0.0086757335811853408813f, 0.0019779277499765157700f, -0.013018992729485034943f, 0.00017172732623293995857f, 0.019190544262528419495f, 0.021790603175759315491f, 0.011342204175889492035f, -0.0087866066023707389832f, -0.0050637777894735336304f, -0.0073630781844258308411f, 0.00064270256552845239639f, -0.018625292927026748657f, 0.0078561222180724143982f, -0.0083291176706552505493f, 0.015839833766222000122f, 0.021226337179541587830f, 0.010066008195281028748f, -0.020642461255192756653f, -0.021831294521689414978f, 0.013115501031279563904f, -0.0057760621421039104462f, -0.017839211970567703247f, -0.018544605001807212830f, -0.013452670536935329437f, 0.0024216945748776197433f, -0.0079673901200294494629f, -0.012440450489521026611f, 3.5008226404897868633e-05f, 0.0015874004457145929337f, -0.015548480674624443054f, 0.012475319206714630127f, 0.015109028667211532593f, -0.0049155922606587409973f, 0.0022338118869811296463f, 0.013577019795775413513f, 0.0079582780599594116211f, 0.0052990256808698177338f, 0.010733545757830142975f, -0.010226066224277019501f, 0.0099143423140048980713f, -0.00070584908826276659966f, 0.017645338550209999084f, 0.013453047722578048706f, -0.0096071474254131317139f, 0.0092048244550824165344f, 0.0090035647153854370117f, -0.021161422133445739746f, 0.0052972817793488502502f, -0.0031396897975355386734f, 0.0083134844899177551270f, -0.0027676096651703119278f, -0.020912086591124534607f, -0.017045836895704269409f, 0.0083567844703793525696f, 0.015023884363472461700f, 0.0056112441234290599823f, 0.017461884766817092896f, -0.015532150864601135254f, -0.010360330343246459961f, 0.021183077245950698853f, 0.019893454387784004211f, -0.014765995554625988007f, 0.021783346310257911682f, 0.015290302224457263947f, 0.0069342576898634433746f, -0.010751260444521903992f, -0.010866703465580940247f, 0.021773483604192733765f, 0.0086574051529169082642f, -0.0076610324904322624207f, -0.00062737165717408061028f, -0.012534888461232185364f, 0.019694708287715911865f, -0.0049018338322639465332f, -0.0075185894966125488281f, 0.0049216137267649173737f, 0.018862897530198097229f, 0.016824519261717796326f, 0.0040975981391966342926f, 0.0066545712761580944061f, -0.00085897382814437150955f, 0.0038400862831622362137f, 0.011793994344770908356f, -0.0025252152699977159500f, 0.011642552912235260010f, 0.0097033446654677391052f, 0.012713725678622722626f, 0.019662560895085334778f, 0.0028714437503367662430f, 0.017255572602152824402f, 0.0095161572098731994629f, -0.0050465501844882965088f, -0.0021012206561863422394f, -0.0064096348360180854797f, -0.0086556160822510719299f, -0.0096363760530948638916f, -0.012764283455908298492f, 0.021544639021158218384f, -0.012478920631110668182f, -0.0033853242639452219009f, -0.0073384800925850868225f, 0.020473146811127662659f, 0.019207930192351341248f, -0.0080706998705863952637f, -0.0021724014077335596085f, 0.00066882831742987036705f, 0.010809249244630336761f, -0.0054656243883073329926f, 0.0021264427341520786285f, -0.00049162452341988682747f, 0.0085900258272886276245f, -0.011120925657451152802f, 0.0098165590316057205200f, -0.014149848371744155884f, 0.018229780718684196472f, -0.015795107930898666382f, -0.0088955452665686607361f, 0.013257644139230251312f, -0.0024589339736849069595f, -0.015115311369299888611f, 0.0085773682221770286560f, 0.013235511258244514465f, 0.0051373159512877464294f, -0.011569391004741191864f, 0.017029920592904090881f, 0.0095721073448657989502f, 0.0029463043902069330215f, 0.010033953003585338593f, -0.012955229729413986206f, 0.0039538275450468063354f, -0.0085166348144412040710f, 0.013019798323512077332f, 0.017018485814332962036f, 0.012086182832717895508f, -0.0084959585219621658325f, 0.0093319127336144447327f, 0.011442537419497966766f, -0.0072208349592983722687f, 0.018081005662679672241f, -0.022089704871177673340f, 0.016268068924546241760f, 0.015873685479164123535f, -0.020928246900439262390f, 0.0068820719607174396515f, 0.0068574342876672744751f, 0.0098836040124297142029f, 0.017045335844159126282f, 0.0029980607796460390091f, -0.0039760046638548374176f, 0.020251017063856124878f, -0.012551905587315559387f, 0.017129313200712203979f, 0.014127747155725955963f, 0.019214808940887451172f, 0.010645819827914237976f, -0.0098532931879162788391f, 0.011323193088173866272f, -0.020295832306146621704f, 0.0051365918479859828949f, -0.015069441869854927063f, 0.0066122212447226047516f, 0.017739275470376014709f, 0.013748894445598125458f, 0.0016540082870051264763f, 0.0065505341626703739166f, 0.017798185348510742188f, 0.0072997077368199825287f, 0.0081629827618598937988f, 0.015831574797630310059f, -0.0062236539088189601898f, -0.017541881650686264038f, -0.0090200100094079971313f, -0.011845561675727367401f, -0.018633337691426277161f, 0.014523742720484733582f, -0.015209145843982696533f, 0.013917328789830207825f, 0.010682237334549427032f, -0.0035868627019226551056f, 0.010877740569412708282f, 0.017186520621180534363f, 0.0055686705745756626129f, 0.0034909390378743410110f, -0.0053141615353524684906f, -0.0060412897728383541107f, 0.015420164912939071655f, -0.013814356178045272827f, 0.0038743885233998298645f, 0.0089168455451726913452f, -0.0060860179364681243896f, -0.0052013159729540348053f, -0.017543949186801910400f, -0.0026789326220750808716f, -0.020476358011364936829f, -0.021289262920618057251f, 0.0046155247837305068970f, -0.0049112774431705474854f, -0.0070725623518228530884f, 0.015595674514770507812f, -0.00065182731486856937408f, -0.00028780766297131776810f, 0.018389219418168067932f, -0.0026593606453388929367f, 0.0061817676760256290436f, -0.015139545314013957977f, -0.0078591722995042800903f, -0.0075392727740108966827f, 0.017599375918507575989f, 0.019260240718722343445f, -0.015637317672371864319f, -0.0079900100827217102051f, 0.010292747989296913147f, 0.0053733251988887786865f, 0.015360642224550247192f, -0.012852019630372524261f, 0.0086795510724186897278f, -0.020078064873814582825f, 0.016268171370029449463f, 0.021979220211505889893f, 0.010112967342138290405f, 0.010596776381134986877f, 0.0016171903116628527641f, -0.010873188264667987823f, 0.018307309597730636597f, -0.012548443861305713654f, 0.021417429670691490173f, -0.021887490525841712952f, 0.019065402448177337646f, 0.020465513691306114197f, 0.00095171271823346614838f, 0.012879107147455215454f, 0.016791883856058120728f, 0.015021328814327716827f, -2.8910102628287859261e-05f, 0.0033274146262556314468f, 0.018700348213315010071f, -0.0098488172516226768494f, -0.0010015802690759301186f, -0.0082993013784289360046f, -0.0064686690457165241241f, -0.0064953691326081752777f, -0.012897372245788574219f, 0.021929139271378517151f, -0.0080615729093551635742f, 0.013667751103639602661f, -0.012220863252878189087f, -0.0055902553722262382507f, -0.0061073391698300838470f, 0.012608748860657215118f, -0.021117823198437690735f, -0.019347969442605972290f, -0.021705465391278266907f, 0.021038668230175971985f, 0.0090819215402007102966f, 0.017569506540894508362f, -0.0045401188544929027557f, -0.020679514855146408081f, -0.0023055747151374816895f, -0.0054605193436145782471f, 0.021287579089403152466f, 0.017469938844442367554f, -0.0043793814256787300110f, 0.011380373500287532806f, 0.0053323637694120407104f, 0.0069831740111112594604f, 0.0057691186666488647461f, -0.00012012905062874779105f, -0.018553361296653747559f, -0.020953737199306488037f, 0.0010185471037402749062f, -0.013682170771062374115f, 0.0098169781267642974854f, -0.011038196273148059845f, 0.016386156901717185974f, 0.0017529716715216636658f, -0.017395894974470138550f, 0.0018128149677067995071f, 0.0089904125779867172241f, -0.0022619054652750492096f, -0.016882896423339843750f, -0.019165173172950744629f, 0.0096043366938829421997f, -0.011238040402531623840f, -0.0040745097212493419647f, -0.019062831997871398926f, -0.0026458157226443290710f, 0.019545514136552810669f, 0.014505464583635330200f, 0.00068812107201665639877f, -0.0060565229505300521851f, -0.012920071370899677277f, -0.014634807594120502472f, -0.014270819723606109619f, 0.011155604384839534760f, -0.017718447372317314148f, -0.020552143454551696777f, -0.017751840874552726746f, 0.013556212186813354492f, 0.021917827427387237549f, 0.00097219872986897826195f, -0.0082507198676466941833f, 0.0028294497169554233551f, 0.00055510294623672962189f, -0.012865681201219558716f, 0.018076140433549880981f, -0.013558201491832733154f, 0.0019247648306190967560f, -0.0018861873541027307510f, -0.021909970790147781372f, -0.010071410797536373138f, 0.015650410205125808716f, -0.019918410107493400574f, -0.016794782131910324097f, 0.0090227732434868812561f, 0.011598528362810611725f, 0.015396229922771453857f, 0.013627285137772560120f, -0.0088704759255051612854f, -0.010546352714300155640f, -0.013666039332747459412f, 0.021735424175858497620f, 0.0026532809715718030930f, 0.0071472758427262306213f, -0.0084656393155455589294f, 0.012691959738731384277f, 0.0054425750859081745148f, 0.017637657001614570618f, -0.011217549443244934082f, -0.0071565322577953338623f, 0.0035202258732169866562f, -0.012227261438965797424f, -0.017022734507918357849f, -0.0027994911652058362961f, -0.018364906311035156250f, -0.014943912625312805176f, -0.012962508015334606171f, -0.019775604829192161560f, -0.0037701989058405160904f, 0.010186145082116127014f, 0.0072257583960890769958f, 0.00036637199809774756432f, -0.017299510538578033447f, -0.016917670145630836487f, -0.016538269817829132080f, -0.00054416846251115202904f, 0.014420723542571067810f, -0.0097071379423141479492f, 0.021692873910069465637f, -0.019715568050742149353f, -0.011431315913796424866f, 0.011181398294866085052f, -0.0077108605764806270599f, 0.012834168039262294769f, -0.013424996286630630493f, -0.020978106185793876648f, -0.016614107415080070496f, -0.0088461441919207572937f, 0.0025725725572556257248f, -0.015205457806587219238f, 0.0013941492652520537376f, -0.015549273230135440826f, 0.018100164830684661865f, 0.0051141194999217987061f, -0.020504307001829147339f, 0.020949514582753181458f, -0.016911288723349571228f, 0.0073706251569092273712f, -0.00080018158769235014915f, -0.0050535122863948345184f, -0.0022637967485934495926f, 0.0079643474891781806946f, -0.020666006952524185181f, 0.011454598978161811829f, -0.0038953064940869808197f, -0.0034251899924129247665f, -0.015730522572994232178f, -0.015331498347222805023f, 0.0092411022633314132690f, 0.014067830517888069153f, 0.0010159286903217434883f, -0.017231961712241172791f, 0.0084006357938051223755f, -0.013659132644534111023f, 0.0077759562991559505463f, 0.0092234713956713676453f, -0.012649942189455032349f, -0.0024435608647763729095f, 0.016042694449424743652f, -0.00031006117933429777622f, 0.0011780676431953907013f, 0.0042002205736935138702f, -0.0033266481477767229080f, 0.011613026261329650879f, -0.0013279760023579001427f, -0.010356731712818145752f, 0.021290121600031852722f, 0.014652836136519908905f, 0.0029077532235532999039f, 0.0083472803235054016113f, -0.019993474707007408142f, -0.012956952676177024841f, -0.021010654047131538391f, 0.0025403064209967851639f, 0.0059893331490457057953f, -0.015365423634648323059f, 0.012243980541825294495f, 0.00039234236464835703373f, 0.0078823221847414970398f, 0.0091013722121715545654f, 0.0026822017971426248550f, -0.016699442639946937561f, -0.0011923448182642459869f, -0.013945096172392368317f, -0.0050036446191370487213f, 0.0053517911583185195923f, 0.0086965309455990791321f, 0.013558664359152317047f, -0.0096102105453610420227f, 0.010228794999420642853f, -0.021823097020387649536f, 7.7447468356695026159e-05f, -0.015538610517978668213f, -0.012206261977553367615f, 0.0066500166431069374084f, 0.0037651807069778442383f, 0.013446263968944549561f, 0.019164055585861206055f, 0.015877870842814445496f, 0.013063441962003707886f, 0.0025914041325449943542f, 0.0067308228462934494019f, 0.013563451357185840607f, 0.010533245280385017395f, 0.020350378006696701050f, 0.0080102616921067237854f, 0.020067276433110237122f, -0.0035981500986963510513f, -0.0020541187841445207596f, -0.0056400992907583713531f, -0.018729226663708686829f, 0.014610994607210159302f, 0.016358125954866409302f, 0.0030471275094896554947f, -0.015354415401816368103f, 0.0028350288048386573792f, -0.0090004615485668182373f, -0.011209217831492424011f, 0.013986223377287387848f, -0.0030456129461526870728f, -0.011879554949700832367f, 0.0077399918809533119202f, 0.00065295741660520434380f, 0.00058814871590584516525f, 0.019570503383874893188f, -0.0072702863253653049469f, -0.012870053760707378387f, -0.0035435226745903491974f, -0.0028886895161122083664f, -0.0010793834226205945015f, -0.0092575419694185256958f, 0.0096193756908178329468f, 0.0054944106377661228180f, 0.019892336800694465637f, -0.021029938012361526489f, 0.021319083869457244873f, -0.0053691449575126171112f, 0.012864571996033191681f, 0.00061830214690417051315f, -0.011186663992702960968f, 0.0082404622808098793030f, -0.012930030934512615204f, 0.0051041571423411369324f, 0.014057182706892490387f, -0.015222269110381603241f, 0.018390450626611709595f, -0.013973734341561794281f, 0.013479265384376049042f, -0.014748633839190006256f, 0.0046298732049763202667f, 0.016183029860258102417f, 0.0079823676496744155884f, 0.020077567547559738159f, -0.021914752200245857239f, -0.020776700228452682495f, -0.0030305560212582349777f, -0.010258000344038009644f, -0.021285785362124443054f, 0.0047452319413423538208f, -0.021600751206278800964f, -0.013144236989319324493f, 0.012520775198936462402f, -0.0023762288037687540054f, -0.016621109098196029663f, -0.018042271956801414490f, -0.011995611712336540222f, -0.0081666475161910057068f, -0.014818633906543254852f, 0.021942164748907089233f, -0.0023015735205262899399f, 0.0027442786376923322678f, 0.021983044221997261047f, 0.00026546718436293303967f, -0.0086677595973014831543f, 0.018712602555751800537f, -0.0087990947067737579346f, -0.019178263843059539795f, 0.0015553109114989638329f, -0.016894996166229248047f, 0.0077684121206402778625f, -0.010011340491473674774f, 0.018724655732512474060f, -0.021954398602247238159f, -0.012722810730338096619f, 0.022031929343938827515f, 0.021302653476595878601f, 0.0061023421585559844971f, 0.0035147203598171472549f, 0.0060487627051770687103f, 0.016344806179404258728f, -0.019326182082295417786f, -0.0089432420209050178528f, -0.0092158904299139976501f, 0.0021497684065252542496f, 0.0034749049227684736252f, -0.010102899745106697083f, 0.00043859853758476674557f, 0.00026357322349213063717f, -0.018285455182194709778f, -0.020828651264309883118f, -0.011402400210499763489f, 0.015056034550070762634f, -0.021580692380666732788f, -0.011483804322779178619f, -0.018227903172373771667f, -0.018867943435907363892f, -0.0099881812930107116699f, -0.012656982988119125366f, -0.017424402758479118347f, 0.0051222089678049087524f, -0.021869091317057609558f, 0.018973132595419883728f, 0.0091984309256076812744f, -0.0068094078451395034790f, 0.0043483613990247249603f, -0.017110969871282577515f, -0.0040135993622243404388f, 0.012221693061292171478f, 0.017824107781052589417f, -0.0077106789685785770416f, -0.014624950475990772247f, 0.0028513527940958738327f, -0.0038328554946929216385f, 0.017603963613510131836f, -0.011115127243101596832f, 0.015423575416207313538f, 0.021116519346833229065f, -0.0013972285669296979904f, 0.0032919191289693117142f, -0.013852035626769065857f, 0.021768853068351745605f, 0.0024119375739246606827f, 0.017506930977106094360f, -0.00060222315369173884392f, 0.0010068776318803429604f, 0.011563574895262718201f, 0.015329954214394092560f, 0.018459595739841461182f, 0.016579454764723777771f, 0.015901967883110046387f, 0.012674258090555667877f, -0.013286084868013858795f, 0.013941500335931777954f, -0.018314443528652191162f, 0.0059688338078558444977f, -0.020647635683417320251f, -0.0089897485449910163879f, -0.011727573350071907043f, -0.015210291370749473572f, 0.0029671592637896537781f, -0.0013305364409461617470f, 0.012227474711835384369f, 0.016457229852676391602f, -0.021830314770340919495f, -0.0090158637613058090210f, -0.0032136470545083284378f, 0.0070353257469832897186f, 0.019442114979028701782f, 0.021986838430166244507f, 0.0010903232032433152199f, 0.0032899749930948019028f, -0.014016208238899707794f, 0.00015815868391655385494f, -0.017502235248684883118f, -0.00042982934974133968353f, 0.0085828555747866630554f, -0.010123259387910366058f, 0.0028655219357460737228f, -0.013127529062330722809f, 0.00095990236150100827217f, -0.0055643087252974510193f, -0.0014364857925102114677f, -0.0041601494885981082916f, 0.0054631638340651988983f, 0.011450184509158134460f, 0.018258918076753616333f, -0.0083633381873369216919f, -0.0028522352222353219986f, -0.018716210499405860901f, -0.0017289611278101801872f, -0.020812740549445152283f, -0.017487112432718276978f, 0.0025446817744523286819f, -0.013026481494307518005f, -0.0088036283850669860840f, -0.0063143144361674785614f, -0.021412203088402748108f, 0.020431382581591606140f, -0.0088984295725822448730f, -0.019961282610893249512f, -0.012988541275262832642f, -0.0075424918904900550842f, -0.018706783652305603027f, -0.021960217505693435669f, 0.013191062025725841522f, -0.0079095466062426567078f, -0.019102439284324645996f, 0.020068226382136344910f, 0.0013544047251343727112f, -0.0034542898647487163544f, -0.0058687063865363597870f, 0.022065017372369766235f, -0.0074652736075222492218f, 0.010715891607105731964f, -0.015251092612743377686f, -0.018284618854522705078f, -0.016759596765041351318f, -0.019955828785896301270f, -0.0067038857378065586090f, 0.00018299107614438980818f, 0.0024948746431618928909f, -0.022061789408326148987f, 0.0053367391228675842285f, 0.0094123054295778274536f, 0.017212873324751853943f, -0.020087296143174171448f, 0.013433770276606082916f, 0.0018391909543424844742f, 0.0036330397706478834152f, -0.0090365717187523841858f, 0.0032066560816019773483f, 0.0066560092382133007050f, -0.016405818983912467957f, -0.021102854982018470764f, -0.00093261228175833821297f, -0.0072992942295968532562f, 0.0074452012777328491211f, 0.011611174792051315308f, -0.020694319158792495728f, 0.0019941860809922218323f, 0.019471444189548492432f, -0.019987059757113456726f, -0.018375365063548088074f, 0.012629055418074131012f, 0.013480200432240962982f, 0.0075441724620759487152f, -0.016989137977361679077f, -0.021519750356674194336f, -0.00033842073753476142883f, 0.011365695856511592865f, -0.0035765788052231073380f, 0.0086945658549666404724f, 0.0051086009480059146881f, -0.0021325778216123580933f, -0.016813283786177635193f, -0.0092993881553411483765f, 0.0039921994321048259735f, -0.0070511358790099620819f, -0.021356951445341110229f, -0.0055822869762778282166f, 0.015194768086075782776f, -0.012941190041601657867f, -0.016012169420719146729f, -0.0033401797991245985031f, 0.013962357304990291595f, 0.017613923177123069763f, -0.010012473911046981812f, 6.4566338551230728626e-05f, -0.0065901996567845344543f, 0.0015442183939740061760f, 0.0071119698695838451385f, 0.0062570236623287200928f, 0.0043968884274363517761f, 0.019988724961876869202f, 0.018648441880941390991f, -0.0063688047230243682861f, -0.0047890832647681236267f, 0.010821195319294929504f, 0.020396869629621505737f, -0.021498203277587890625f, -0.0053473892621695995331f, -0.00059714179951697587967f, 0.013323419727385044098f, -0.017289170995354652405f, 0.0097972163930535316467f, 0.015645559877157211304f, -0.0070621836930513381958f, 0.012898083776235580444f, 0.018164988607168197632f, 0.020559871569275856018f, 0.0086785182356834411621f, -0.0033807461149990558624f, 0.00054938415996730327606f, -0.015091953799128532410f, -0.010842363350093364716f, -0.00063776347087696194649f, -0.014021236449480056763f, 0.0053276484832167625427f, -0.00094028830062597990036f, -0.0043097496964037418365f, 0.020250665023922920227f, -0.015626290813088417053f, -0.022051364183425903320f, 0.011084344238042831421f, -0.016259677708148956299f, -0.020864523947238922119f, 0.019757151603698730469f, -0.018958684056997299194f, 0.0059621590189635753632f, -0.0062666963785886764526f, -0.019507162272930145264f, 0.021434476599097251892f, -0.018052451312541961670f, 0.0076757022179663181305f, 0.013851192779839038849f, 0.0081900889053940773010f, 0.0074653262272477149963f, -0.0016396362334489822388f, -0.014630495570600032806f, 0.010284968651831150055f, 0.021841924637556076050f, 0.0070929536595940589905f, 0.010767560452222824097f, 0.016394041478633880615f, 0.020066700875759124756f, 0.010385873727500438690f, -0.013404054567217826843f, -0.00011005331907654181123f, 0.00094812229508534073830f, -0.015669824555516242981f, 0.0047890199348330497742f, -0.019230352714657783508f, 0.0056965653784573078156f, 0.018641954287886619568f, 0.011597313918173313141f, -0.0052162995561957359314f, -0.0015885963803157210350f, -0.019525850191712379456f, -0.013093126006424427032f, -0.0071906000375747680664f, 0.0078859915956854820251f, -0.0053425263613462448120f, 0.014298075810074806213f, -0.012400419451296329498f, 0.016872018575668334961f, 0.0071826525963842868805f, -0.018556412309408187866f, 0.0086512072011828422546f, -0.0094468286260962486267f, -0.013667114078998565674f, 0.0074141151271760463715f, 0.0052805072627961635590f, 0.016127225011587142944f, -0.0052848248742520809174f, -0.020276421681046485901f, 0.0031716977246105670929f, -0.0045285918749868869781f, -0.0096967704594135284424f, 0.0072144311852753162384f, 0.0084433592855930328369f, 0.0074614803306758403778f, 0.012189838103950023651f, -0.012592202983796596527f, 0.016371104866266250610f, 0.0085858348757028579712f, 0.0020975775551050901413f, -0.017200695350766181946f, 0.00096858199685811996460f, 0.0030030841007828712463f, 4.7415204562639701180e-07f, 0.020365299656987190247f, 0.0033941515721380710602f, -0.011632137931883335114f, -0.016181549057364463806f, -0.0044314065016806125641f, -0.0075501729734241962433f, -0.021914571523666381836f, -0.021239131689071655273f, -0.0010425654472783207893f, -0.017837069928646087646f, 0.00027386494912207126617f, -0.014537361450493335724f, -0.00067910953657701611519f, 0.0023530321195721626282f, -0.018299529328942298889f, -0.014303913339972496033f, -0.0010227353777736425400f, -0.011165326461195945740f, 0.015889303758740425110f, -0.0073890457861125469208f, -0.0053610499016940593719f, -0.0029663899913430213928f, -0.0073126624338328838348f, 0.0064750807359814643860f, 0.0093267653137445449829f, -0.014189708046615123749f, -0.0077279196120798587799f, -0.0022064743097871541977f, 0.018956385552883148193f, 0.0075078206136822700500f, -0.012760284356772899628f, -0.020345004275441169739f, -0.021854670718312263489f, 0.019212838262319564819f, -0.0078603131696581840515f, 0.00078575685620307922363f, -0.019448151811957359314f, -0.0016954044112935662270f, -0.018730580806732177734f, -0.010601634159684181213f, -0.0016919957706704735756f, 0.0068432837724685668945f, 0.0015373483765870332718f, -0.015682283788919448853f, -0.0064478591084480285645f, 0.0077176042832434177399f, -0.00081175094237551093102f, 0.0084861787036061286926f, 0.020845210179686546326f, 0.0061726877465844154358f, -0.013741205446422100067f, 0.010079152882099151611f, -0.012667953968048095703f, -0.017946572974324226379f, 0.010056440718472003937f, 0.0075714020058512687683f, -0.021652031689882278442f, 0.017317056655883789062f, 0.017092609778046607971f, 0.0023121049162000417709f, 0.0093291681259870529175f, 0.015052464790642261505f, 0.019230868667364120483f, -0.019493037834763526917f, -0.0074858227744698524475f, 0.020981337875127792358f, -0.015061434358358383179f, -0.021499957889318466187f, -0.0060309371910989284515f, 0.015092551708221435547f, 0.020036960020661354065f, 0.0097804497927427291870f, -0.0017896895296871662140f, -0.014961416833102703094f, 0.010633470490574836731f, 0.0074398536235094070435f, -0.0017460411181673407555f, 0.0031049265526235103607f, 0.010586953721940517426f, -0.018022658303380012512f, 0.00087188923498615622520f, -0.013882286846637725830f, 0.0037636766210198402405f, -0.010896535590291023254f, 0.0075061297975480556488f, -0.020940635353326797485f, 0.00088686449453234672546f, -0.0084369108080863952637f, 0.022065831348299980164f, -0.016276972368359565735f, 0.00031410466181114315987f, -0.014332301914691925049f, 0.0048898747190833091736f, -0.0055687944404780864716f, -0.00069800973869860172272f, 0.010352121666073799133f, -0.012208640575408935547f, 0.0071221878752112388611f, -0.020469309762120246887f, 0.0096443919464945793152f, -0.019146142527461051941f, 0.0019929320551455020905f, -0.020353613421320915222f, -0.012891841121017932892f, -0.021407047286629676819f, 0.0022909049876034259796f, 0.011782243847846984863f, 0.013090139254927635193f, 0.0029255470726639032364f, -0.020577652379870414734f, 0.0072433045133948326111f, 0.0090097319334745407104f, -0.0050763455219566822052f, -0.0037355779204517602921f, -0.0060290698893368244171f, 0.0079657230526208877563f, -0.0074292197823524475098f, -0.0036580197047442197800f, 0.017985491082072257996f, 0.014940146356821060181f, -0.010288817808032035828f, 0.021284967660903930664f, 0.0077424049377441406250f, -0.017161991447210311890f, 0.0041148071177303791046f, 0.010914761573076248169f, -0.017453823238611221313f, 0.0070600868202745914459f, -0.0034697945229709148407f, 0.0094976918771862983704f, 0.0067177335731685161591f, -0.014517961069941520691f, -0.0065141879022121429443f, -0.0078795347362756729126f, 0.0095351608470082283020f, -0.0015706206904724240303f, 0.00094129191711544990540f, -0.0060813478194177150726f, 0.014797123149037361145f, 0.0097082341089844703674f, -0.014508796855807304382f, 0.0055529922246932983398f, -0.013539946638047695160f, 0.015947548672556877136f, 0.019208833575248718262f, -0.013905948959290981293f, -0.015038495883345603943f, -0.016293151304125785828f, 0.0011490916367620229721f, -0.0081081818789243698120f, 0.018685700371861457825f, 0.00021433252550195902586f, 0.017681416124105453491f, -0.012601855210959911346f, -0.011872843839228153229f, -0.0096193756908178329468f, 0.011530010029673576355f, 0.016788171604275703430f, -0.0095828818157315254211f, -0.0046411184594035148621f, -0.016791902482509613037f, -0.010122942738234996796f, 0.0084981080144643783569f, -0.0028064821381121873856f, 0.020437361672520637512f, 0.0034121035132557153702f, 0.021039737388491630554f, -0.019611800089478492737f, -0.020081320777535438538f, -0.0038151221815496683121f, 0.021380387246608734131f, -0.0080770850181579589844f, 0.0081588895991444587708f, -0.010866395197808742523f, 0.0074282791465520858765f, 0.015161920338869094849f, 0.013968832790851593018f, 0.0022586970590054988861f, 0.012664216570556163788f, 0.017339726909995079041f, 0.0097091244533658027649f, -0.018838413059711456299f, 0.011073449626564979553f, -0.015165352262556552887f, -0.0074350647628307342529f, 0.0043492200784385204315f, 0.0040240464732050895691f, 0.017061883583664894104f, 0.0092492755502462387085f, -0.0050454651936888694763f, 0.014967788942158222198f, -0.0040566157549619674683f, -0.016578070819377899170f, -0.014126032590866088867f, -0.0072516389191150665283f, -0.011144490912556648254f, 0.017245156690478324890f, 0.0059642265550792217255f, 0.021989744156599044800f, 0.013903185725212097168f, 0.012682233937084674835f, 0.015218812972307205200f, 0.0050547532737255096436f, -0.0093207387253642082214f, 0.021954219788312911987f, 0.017853520810604095459f, -0.0094218645244836807251f, 0.013916752301156520844f, -0.0063504762947559356689f, 0.0060349544510245323181f, -0.020593931898474693298f, 0.0081777526065707206726f, -0.0073700929060578346252f, -0.019814204424619674683f, 0.016111491248011589050f, -0.0035093598999083042145f, -0.0065588317811489105225f, 0.0088183246552944183350f, 0.0082839606329798698425f, -0.017666773870587348938f, 0.0063506397418677806854f, -0.016482850536704063416f, -0.0025180659722536802292f, 0.014933718368411064148f, 0.00065969827119261026382f, -0.010842595249414443970f, -0.0022918770555406808853f, 0.021183161064982414246f, 0.0060933539643883705139f, -0.012842531315982341766f, 0.020169615745544433594f, 0.0091195870190858840942f, -0.016255013644695281982f, 0.014056178741157054901f, -0.018907289952039718628f, 0.019287468865513801575f, -0.016820430755615234375f, 0.020433498546481132507f, -0.012400893494486808777f, -0.00013161406968720257282f, -0.012783605605363845825f, 0.013862496241927146912f, 0.012900264933705329895f, -0.021228114143013954163f, -0.0012995848665013909340f, 0.0060312664136290550232f, 0.0093936659395694732666f, -0.019204234704375267029f, -0.012728253379464149475f, 0.010444663465023040771f, -0.020116332918405532837f, 0.0038813611026853322983f, -0.0074580586515367031097f, 0.014270980842411518097f, -0.018831416964530944824f, -0.013340520672500133514f, 0.021004397422075271606f, 0.017059937119483947754f, 0.011487439274787902832f, 0.017933795228600502014f, 0.017654279246926307678f, -0.014816526323556900024f, -0.0064226551912724971771f, 0.013004836626350879669f, 0.0059276302345097064972f, -0.010960103012621402740f, -0.0069362358190119266510f, -0.0052507752552628517151f, -0.017084710299968719482f, 0.019679363816976547241f, -0.0093140080571174621582f, -0.0061036273837089538574f, -0.0036019538529217243195f, -0.0090771503746509552002f, 0.011204631067812442780f, -0.019421577453613281250f, -0.011527118273079395294f, -0.0087724681943655014038f, -0.0095323948189616203308f, 1.9819555745925754309e-05f, 0.011782108806073665619f, -0.0090280994772911071777f, 0.017521921545267105103f, 0.00093299162108451128006f, -0.016474310308694839478f, 0.014572335407137870789f, 0.011095729656517505646f, -0.012593641877174377441f, 0.020143408328294754028f, -0.00067524256883189082146f, 0.0083344392478466033936f, -0.020318737253546714783f, -0.0064633376896381378174f, 0.014739982783794403076f, 0.021963847801089286804f, -0.0018117771251127123833f, 0.015638243407011032104f, -0.0065504182130098342896f, -0.0027886515017598867416f, -0.015506012365221977234f, 0.016966564580798149109f, -0.013072269037365913391f, 0.0035478267818689346313f, -0.013969122432172298431f, 0.00081109500024467706680f, 0.016104737296700477600f, -0.018332727253437042236f, -0.019963618367910385132f, 0.010685645975172519684f, 0.012563603930175304413f, 0.0034135626628994941711f, 0.012445695698261260986f, 0.010848975740373134613f, 0.0033892914652824401855f, 0.010979422368109226227f, 0.0041908058337867259979f, 0.021250825375318527222f, -0.020193455740809440613f, 0.021174052730202674866f, 0.014976574108004570007f, -0.019207915291190147400f, 0.012322026304900646210f, -0.011320266872644424438f, -0.0014764436054974794388f, -0.015278856270015239716f, -0.011327829211950302124f, 0.0077290362678468227386f, -0.021639762446284294128f, 0.020251592621207237244f, -0.018528424203395843506f, -0.022020034492015838623f, -0.020777087658643722534f, 0.0073441909626126289368f, 0.019231488928198814392f, -0.012653345242142677307f, -0.012344400398433208466f, -0.0022552383597940206528f, 0.0022096484899520874023f, 0.0042721703648567199707f, -0.020318910479545593262f, 0.010448572225868701935f, -0.012735405005514621735f, -0.016717961058020591736f, -0.0075006214901804924011f, 0.014196554198861122131f, 0.019008275121450424194f, 0.0038019039202481508255f, -0.010868502780795097351f, 0.011517016217112541199f, -0.018776807934045791626f, -0.0021947233472019433975f, -0.017498798668384552002f, -0.0046073221601545810699f, 0.00026640758733265101910f, 0.011841800063848495483f, -0.013367336243391036987f, 0.017760267481207847595f, 0.014485362917184829712f, -0.0034568950068205595016f, 0.012370199896395206451f, 0.011615700088441371918f, 0.018236394971609115601f, -0.021881692111492156982f, 0.0073844413273036479950f, -0.011126422323286533356f, -0.0013182295951992273331f, -0.0033303464297205209732f, 0.016432560980319976807f, -0.013827634975314140320f, -0.017542855814099311829f, -0.0011736737797036767006f, 0.0073835351504385471344f, -0.0044500697404146194458f, -0.018569393083453178406f, -0.021481275558471679688f, 0.0066850325092673301697f, -0.0083190742880105972290f, 0.0024041773285716772079f, -0.021869035437703132629f, -0.017000291496515274048f, 0.013286574743688106537f, 0.0051350481808185577393f, 0.011592545546591281891f, -0.0098277283832430839539f, 0.0011302914936095476151f, 0.0032922483514994382858f, -5.2125113143119961023e-05f, 0.0045537822879850864410f, -0.0066591915674507617950f, -0.017383093014359474182f, 0.015436436049640178680f, 0.014490894973278045654f, -0.0023208740167319774628f, -0.017328565940260887146f, -0.013254777528345584869f, -0.014202254824340343475f, -0.012855363078415393829f, 0.0085654770955443382263f, -0.0088197309523820877075f, -0.0051420261152088642120f, 0.011877147480845451355f, 0.012966606765985488892f, 0.0046372176147997379303f, -0.021090263500809669495f, 0.0071084927767515182495f, 0.016006484627723693848f, 0.0017244461923837661743f, 0.0052460208535194396973f, 0.013587595894932746887f, -0.0019948023837059736252f, 0.0061384751461446285248f, -0.010596057400107383728f, -0.0015488835051655769348f, -0.021955071017146110535f, 0.00038224557647481560707f, 0.0036218024324625730515f, 0.011343682184815406799f, 0.00090598076349124312401f, -0.0016455288277938961983f, 0.011309742927551269531f, -0.018153784796595573425f, -0.011492023244500160217f, 2.1015472157159820199e-05f, -0.011718685738742351532f, 0.015813194215297698975f, -0.020552188158035278320f, -0.017112132161855697632f, -0.0084840841591358184814f, -0.0014414564939215779305f, 0.0019148709252476692200f, -0.021962597966194152832f, 0.020478157326579093933f, 0.011314099654555320740f, -0.014535196125507354736f, 0.0092471735551953315735f, -0.020993057638406753540f, 0.014851587824523448944f, 0.013488695956766605377f, -0.00087614078074693679810f, 0.012685110792517662048f, 0.013840639963746070862f, -0.0024108786601573228836f, 0.0023758073803037405014f, 0.0083538768813014030457f, 0.0020322208292782306671f, -0.011965703219175338745f, 0.0062075350433588027954f, 0.0085983201861381530762f, -0.0024932203814387321472f, 0.0017492390470579266548f, -0.020598504692316055298f, 0.019172461703419685364f, -0.020766584202647209167f, 0.019659165292978286743f, 0.012391452677547931671f, -0.014259848743677139282f, -0.0064266854897141456604f, 0.0039050951600074768066f, 0.016390290111303329468f, 0.022096317261457443237f, -0.010279689915478229523f, -0.017720181494951248169f, 0.0013877666788175702095f, -0.0020311172120273113251f, -0.018820034340023994446f, -0.0092190438881516456604f, -0.0033817023504525423050f, -0.0057032085023820400238f, 0.011263131164014339447f, 0.010638907551765441895f, -0.020927719771862030029f, -0.014632044360041618347f, 0.012561343610286712646f, -0.019404431805014610291f, -0.015389357693493366241f, -0.019346235319972038269f, 0.00046914711128920316696f, -0.022084411233663558960f, 0.0084695667028427124023f, 0.012202271260321140289f, -0.018713805824518203735f, -0.0042418246157467365265f, 0.0014916269574314355850f, 0.016444606706500053406f, -0.018107302486896514893f, -0.0066453567706048488617f, 0.0029469234868884086609f, 0.00011593017552513629198f, 0.0016094353049993515015f, -0.0080932276323437690735f, -0.014562051743268966675f, -0.021975994110107421875f, 0.0066529591567814350128f, -0.012539056129753589630f, -0.0048944763839244842529f, -0.00088470976334065198898f, -0.017404884099960327148f, -0.015570338815450668335f, -0.0035210188943892717361f, -0.015975825488567352295f, -0.017041543498635292053f, -0.0024323605466634035110f, 0.0039986241608858108521f, -0.0049256966449320316315f, 0.011560569517314434052f, 0.011869492940604686737f, 0.010442908853292465210f, -0.021677246317267417908f, 0.015266800299286842346f, 0.021796423941850662231f, 0.0087969163432717323303f, 0.020075323060154914856f, -0.020235566422343254089f, 0.0056766271591186523438f, 0.00079183391062542796135f, -0.012596107088029384613f, -0.022049652412533760071f, 0.015880355611443519592f, 0.0082293013110756874084f, -0.021556533873081207275f, -0.0017792792059481143951f, 0.016112845391035079956f, 0.013440574519336223602f, -0.011709816753864288330f, -0.010327118448913097382f, 0.014891942963004112244f, 0.016989903524518013000f, 0.018589412793517112732f, -0.020142223685979843140f, 0.0088573601096868515015f, -0.014105491340160369873f, -0.017435800284147262573f, 0.0024475201498717069626f, -0.015548830851912498474f, -0.015549539588391780853f, -0.018170451745390892029f, -0.014591359533369541168f, 0.00038137100636959075928f, 0.0050460286438465118408f, 0.014762784354388713837f, -0.015253844670951366425f, -0.021461520344018936157f, 0.0070279762148857116699f, -0.0047788834199309349060f, 0.014977843500673770905f, 0.0022934945300221443176f, 0.0086455829441547393799f, 0.015729138627648353577f, -0.021797420457005500793f, 0.0061221141368150711060f, -0.011009365320205688477f, -0.013933961279690265656f, 0.015087570063769817352f, -0.0065124966204166412354f, 0.0040266332216560840607f, 0.017248697578907012939f, 0.00038791168481111526489f, -0.00021480931900441646576f, -0.020075304433703422546f, -0.015516382642090320587f, -0.0080795455724000930786f, 0.014083263464272022247f, -0.0052016610279679298401f, -0.013936421833932399750f, -0.017522675916552543640f, -0.016418851912021636963f, 0.0021476452238857746124f, -0.0071592163294553756714f, -0.0010968453716486692429f, -0.017843112349510192871f, -0.010260307230055332184f, 0.0023691111709922552109f, 0.020953603088855743408f, -0.0015649045817553997040f, -0.016681691631674766541f, 0.018288284540176391602f, -0.014166730456054210663f, 0.016346821561455726624f, -0.0062829386442899703979f, -0.0010353847173973917961f, 0.012367734685540199280f, -0.0078775938600301742554f, -0.0043555842712521553040f, -0.0076264403760433197021f, 0.013394236564636230469f, -0.0094427745789289474487f, 0.020362876355648040771f, -0.0014359509805217385292f, -0.017779922112822532654f, 0.0073381140828132629395f, 0.010696127079427242279f, -0.015035951510071754456f, 0.021497808396816253662f, -0.0048551326617598533630f, -0.018610566854476928711f, -0.0091609703376889228821f, 0.0092260632663965225220f, -0.012158290483057498932f, 0.016219547018408775330f, -0.0067860903218388557434f, -0.013015502132475376129f, 0.0036557437852025032043f, -0.017102548852562904358f, -0.0029472080059349536896f, 0.0073777795769274234772f, 0.018174635246396064758f, -0.012689164839684963226f, 0.021434348076581954956f, -0.0061489143408834934235f, 0.020295193418860435486f, -0.019643614068627357483f, -0.00067352509358897805214f, -0.013677526265382766724f, 0.020252807065844535828f, 0.016045732423663139343f, 0.013952508568763732910f, 0.011887165717780590057f, 0.018293088302016258240f, 0.019102254882454872131f, -0.013769828714430332184f, 0.0050410632975399494171f, 0.0061437748372554779053f, -0.0054298285394906997681f, -0.014803463593125343323f, -0.0098258499056100845337f, -0.017744118347764015198f, 0.0065902285277843475342f, 0.0039119226858019828796f, -0.0081803081557154655457f, -0.0022232541814446449280f, 0.0043330620974302291870f, 0.014648679643869400024f, 0.0082455566152930259705f, 0.0051885535940527915955f, 0.020243313163518905640f, -0.021812627092003822327f, 0.0096100103110074996948f, 0.010433162562549114227f, -0.020133290439844131470f, -0.012567236088216304779f, 0.011035185307264328003f, 0.018733119592070579529f, 0.0034260093234479427338f, 0.0037608211860060691833f, -0.00056061364011839032173f, -0.015579184517264366150f, 0.015479583293199539185f, 0.0085424259305000305176f, 0.0012227880069985985756f, -0.017861081287264823914f, -0.011040720157325267792f, 0.0020169005729258060455f, -0.014497019350528717041f, -0.022057373076677322388f, 0.020870713517069816589f, 0.0053317369893193244934f, -0.0087448675185441970825f, -0.013131843879818916321f, 0.0020977198146283626556f, -0.00032473355531692504883f, 0.012531949207186698914f, 0.015390593558549880981f, 0.021961221471428871155f, -0.0025626916904002428055f, 0.013165934942662715912f, -0.0098662478849291801453f, 0.020509591326117515564f, 0.019120717421174049377f, -0.0026398361660540103912f, 0.0065373526886105537415f, -0.014357568696141242981f, -0.013896980322897434235f, -0.014037297107279300690f, 0.018586715683341026306f, 0.017241148278117179871f, -0.020257145166397094727f, 0.0041452976875007152557f, 0.0041172965429723262787f, 0.0026820488274097442627f, 0.013916415162384510040f, -0.017148802056908607483f, -0.0035885670222342014313f, 0.0087459133937954902649f, 0.020937677472829818726f, -0.00015918337157927453518f, -0.0056675812229514122009f, -0.0044817640446126461029f, -0.016679950058460235596f, 0.020120194181799888611f, 0.0090928105637431144714f, -0.0028754475060850381851f, 0.015983406454324722290f, 0.011932926252484321594f, 0.0040904940105974674225f, 0.018567522987723350525f, 0.014764024876058101654f, 0.0072912648320198059082f, -0.011777267791330814362f, -0.0091251926496624946594f, 0.0031052401755005121231f, -0.010804018005728721619f, -0.016326593235135078430f, 0.017447270452976226807f, 0.0066721490584313869476f, 0.021490316838026046753f, -0.013268338516354560852f, 0.0023223913740366697311f, 0.018620258197188377380f, -0.021435117349028587341f, 0.011907019652426242828f, 0.0087501779198646545410f, 0.019527230411767959595f, 0.017256734892725944519f, 0.0071856924332678318024f, 0.010950899682939052582f, 0.012232068926095962524f, 0.015589120797812938690f, 0.0033600204624235630035f, -0.011201431043446063995f, 0.0024007186293601989746f, 0.00039031406049616634846f, -0.016399288550019264221f, -0.012683756649494171143f, 0.00037227521534077823162f, -0.0026643893215805292130f, -0.0021640772465616464615f, -0.0021081089507788419724f, 0.0065070702694356441498f, 0.016979973763227462769f, 0.0021922576706856489182f, -0.0014817382907494902611f, 0.019409351050853729248f, 0.011798320338129997253f, 0.010755232535302639008f, 0.018797246739268302917f, -0.0013514228630810976028f, 0.0053447391837835311890f, -0.015240231528878211975f, 0.018266636878252029419f, -0.0082649234682321548462f, 0.021279780194163322449f, 0.018291776999831199646f, -0.020769149065017700195f, -0.0093147903680801391602f, -0.018467694520950317383f, -0.0075256833806633949280f, -0.011197416111826896667f, -0.015514652244746685028f, -0.0053117065690457820892f, -0.0089328456670045852661f, -0.0021324881818145513535f, 0.011824229732155799866f, -0.0040297047235071659088f, -0.018967727199196815491f, -0.0085754767060279846191f, -0.021280009299516677856f, -0.0019267352763563394547f, -0.015377691015601158142f, -0.016741661354899406433f, 0.0039804484695196151733f, 0.011235814541578292847f, 0.0011502322740852832794f, 0.0037977418396621942520f, -0.010802142322063446045f, -0.019190492108464241028f, -0.011914081871509552002f, -0.010464766994118690491f, -0.0013672516215592622757f, -0.0041646459139883518219f, -0.017714075744152069092f, -0.012135215103626251221f, 0.0086519392207264900208f, 0.018900716677308082581f, 0.0016825179336592555046f, 0.018738364800810813904f, -0.0020551988855004310608f, -0.015394133515655994415f, 0.020119814202189445496f, 0.012070179916918277740f, 0.00067602487979456782341f, 0.021228492259979248047f, -0.012987672351300716400f, -0.012309145182371139526f, -0.0052818218246102333069f, 0.016709268093109130859f, 0.0088519761338829994202f, -0.00093449046835303306580f, -0.00064277101773768663406f, -0.014266389422118663788f, 0.015417612157762050629f, -0.0064139757305383682251f, -0.011676086112856864929f, 0.017150435596704483032f, 0.020599748939275741577f, -0.0047119413502514362335f, 0.0073875021189451217651f, 0.0080917757004499435425f, -0.00048475986113771796227f, -0.0086547313258051872253f, 0.013647162355482578278f, 0.0016507998807355761528f, 0.011633436195552349091f, 0.020655898377299308777f, -0.00011495289072627201676f, 0.010905509814620018005f, -0.0061198249459266662598f, -0.021990375593304634094f, 0.0017288347007706761360f, 0.015243513509631156921f, 0.010567092336714267731f, -0.0089861899614334106445f, -0.018377244472503662109f, -0.013940997421741485596f, -0.017791867256164550781f, -0.0080754971131682395935f, 0.018427690491080284119f, -0.0068029570393264293671f, -0.014565792866051197052f, 0.012793030589818954468f, 0.012502864934504032135f, -0.0084213484078645706177f, 0.018450358882546424866f, -0.010231516323983669281f, -0.0045826951973140239716f, 0.011149052530527114868f, 0.0056861815974116325378f, 0.011167013086378574371f, 0.0064306077547371387482f, 0.011784561909735202789f, -0.0082781836390495300293f, -0.017480533570051193237f, -0.0066132619976997375488f, -0.013277861289680004120f, -0.016977434977889060974f, 0.014468312263488769531f, 0.015220564790070056915f, 0.012455312535166740417f, 0.011598712764680385590f, -0.0053313733078539371490f, 0.0041616405360400676727f},
  {0.010981005616486072540f, -0.011319547891616821289f, 0.018066221848130226135f, -0.0065033663995563983917f, 0.014927119947969913483f, -0.015125642530620098114f, -0.021274283528327941895f, 0.00036149087827652692795f, -0.0033909589983522891998f, 0.0081838751211762428284f, -0.0061826342716813087463f, -0.0079373950138688087463f, -0.019993843510746955872f, 0.021438200026750564575f, 0.012462580576539039612f, 0.018526569008827209473f, 0.016942309215664863586f, 0.021707011386752128601f, -0.018357057124376296997f, -0.017074497416615486145f, 0.020152352750301361084f, 0.016409462317824363708f, 0.014506618492305278778f, -0.0022655194625258445740f, -0.017185937613248825073f, -0.017640948295593261719f, -0.019767032936215400696f, 0.020993864163756370544f, -0.018468655645847320557f, 0.0049846051260828971863f, 0.017663011327385902405f, 0.016558203846216201782f, -0.017035063356161117554f, 0.0093382447957992553711f, 0.010376925580203533173f, 0.017025545239448547363f, 0.0048018298111855983734f, -0.014924488961696624756f, -0.011271365918219089508f, -0.017740068957209587097f, 0.017536982893943786621f, -0.013164230622351169586f, 0.0031038203742355108261f, -0.0069921514950692653656f, 0.0046812188811600208282f, -0.014682394452393054962f, 0.0023585981689393520355f, -0.017493512481451034546f, -0.013527813367545604706f, 0.010882827453315258026f, -0.015934830531477928162f, -0.015968400985002517700f, 0.0020744230132550001144f, 0.0092568332329392433167f, -0.010533848777413368225f, 0.00056560279335826635361f, -0.016688732430338859558f, -0.020288480445742607117f, 0.0096096843481063842773f, -0.0018144771456718444824f, 0.021421534940600395203f, 0.0045451214537024497986f, -0.0011210903758183121681f, 0.017000323161482810974f, 0.0057933609932661056519f, -0.0023036228958517313004f, -0.0069102682173252105713f, 0.012544432654976844788f, 0.0051150466315448284149f, -0.0054080518893897533417f, 0.0020561972633004188538f, 0.016108723357319831848f, -0.022001089528203010559f, 0.018527401611208915710f, -0.021670164540410041809f, -0.0077769970521330833435f, 0.0028706218581646680832f, -0.013797160238027572632f, -0.00037713261554017663002f, -0.0051759439520537853241f, 0.018579704686999320984f, 0.017424289137125015259f, -0.0026000100187957286835f, -0.0024718442000448703766f, -0.0078601660206913948059f, -0.021233648061752319336f, -0.020992381498217582703f, -0.021522056311368942261f, -0.0056601637043058872223f, 0.020108787342905998230f, -0.013383307494223117828f, 0.0083372974768280982971f, 0.015283998101949691772f, 0.010648888535797595978f, 0.0023796111345291137695f, -0.0071531604044139385223f, 0.0097558498382568359375f, -0.015797289088368415833f, -0.013208542950451374054f, 0.0067717079073190689087f, -0.015819119289517402649f, 0.010202460922300815582f, 0.021623335778713226318f, 0.0080461753532290458679f, 0.0076165911741554737091f, -0.013801124878227710724f, -0.013646440580487251282f, -0.0037747060414403676987f, -0.0033549680374562740326f, -0.015012267045676708221f, 0.0059089539572596549988f, 0.0072440002113580703735f, -0.021670894697308540344f, -0.015802202746272087097f, -0.015590398572385311127f, 0.0093340380117297172546f, 0.021559242159128189087f, 0.014666712842881679535f, -0.012384474277496337891f, -0.021290326490998268127f, 0.012868407182395458221f, 0.0063326377421617507935f, -0.020279161632061004639f, -0.021994281560182571411f, -0.012785847298800945282f, -0.00094854115741327404976f, -0.00049211451550945639610f, 0.010860305279493331909f, 0.0071159787476062774658f, 0.0078581925481557846069f, 0.012168037705123424530f, 0.020828129723668098450f, 0.012396330945193767548f, 0.00090110750170424580574f, 0.014569812454283237457f, -0.0051476843655109405518f, -1.6692785720806568861e-05f, 0.0045827901922166347504f, -0.0069707804359495639801f, -0.0069585787132382392883f, 0.0024260673671960830688f, 0.0050602136179804801941f, 0.0055992216803133487701f, 0.013221153058111667633f, 0.0096095101907849311829f, -0.019253522157669067383f, -0.010567679069936275482f, -0.0082184718921780586243f, 0.010855950415134429932f, -0.0049509136006236076355f, 0.016065837815403938293f, -0.020519472658634185791f, 0.017889171838760375977f, -0.021419089287519454956f, -0.017955260351300239563f, 0.0029783202335238456726f, -0.021695192903280258179f, 0.0024938420392572879791f, 0.0031676464714109897614f, -0.0078974077478051185608f, 0.013066516257822513580f, 0.0025958190672099590302f, -0.0057103475555777549744f, 0.0023909590672701597214f, -0.010593702085316181183f, -0.011480961926281452179f, -0.021541101858019828796f, 0.012634228914976119995f, -0.0047091860324144363403f, -0.010179438628256320953f, -0.014352739788591861725f, -0.011454548686742782593f, 0.0050034602172672748566f, 0.0022889715619385242462f, -0.0077027026563882827759f, -0.0036652532871812582016f, -0.0055012991651892662048f, -0.014852317050099372864f, 0.016145525500178337097f, 0.0062745749019086360931f, 0.013094285503029823303f, -0.011577860452234745026f, 0.011968999169766902924f, -0.016210826113820075989f, 0.019770387560129165649f, 0.021557759493589401245f, -0.014964517205953598022f, 0.011134991422295570374f, 0.0063785989768803119659f, -0.013342909514904022217f, -0.0098463967442512512207f, 0.0069372053258121013641f, -0.012094799429178237915f, 0.011039637029170989990f, 0.020304379984736442566f, -0.0055559845641255378723f, 0.0057203546166419982910f, -0.00036524722236208617687f, -0.013379505835473537445f, 0.0058635063469409942627f, -0.0032067375723272562027f, 0.018311142921447753906f, 0.016764277592301368713f, -0.0098433168604969978333f, -0.00077937688911333680153f, 0.020739205181598663330f, -0.019406599923968315125f, 0.016359120607376098633f, -0.0097902882844209671021f, -0.0070835049264132976532f, -0.014407831244170665741f, 0.0028108970727771520615f, -0.016965612769126892090f, -0.015951905399560928345f, 0.0059213582426309585571f, 0.0038449305575340986252f, -0.0066102482378482818604f, -0.015665870159864425659f, 0.016246929764747619629f, 0.0057775950990617275238f, -0.0079239550977945327759f, 0.016268562525510787964f, -0.017802987247705459595f, 0.011311779730021953583f, 0.0056599527597427368164f, -0.0059739258140325546265f, 0.018964530900120735168f, 0.021448502317070960999f, -0.016039259731769561768f, -0.019815323874354362488f, -0.0021169150713831186295f, -0.018821157515048980713f, 0.014787293039262294769f, 0.00015089624503161758184f, 0.019025774672627449036f, -0.0029687369242310523987f, 0.020275291055440902710f, 0.015856636688113212585f, -0.020757723599672317505f, -0.010163662023842334747f, 0.0061853607185184955597f, -0.0073936055414378643036f, 0.020125562325119972229f, 0.011948120780289173126f, -0.00080952770076692104340f, -0.010607471689581871033f, 0.010702702216804027557f, 0.010562132112681865692f, 0.0029610872734338045120f, 0.0039330963045358657837f, -0.0034661199897527694702f, -0.021748179569840431213f, 0.010574870742857456207f, 2.8596636184374801815e-05f, -0.015392450615763664246f, 0.0060639912262558937073f, -0.017676863819360733032f, -0.017571922391653060913f, -0.014030424878001213074f, 0.017392048612236976624f, -0.019240841269493103027f, 0.013660046271979808807f, 0.0026800732593983411789f, -0.010117205791175365448f, 0.00071098835906013846397f, 0.015382785350084304810f, 0.0034351998474448919296f, -0.015548557043075561523f, -0.0093089295551180839539f, 0.0074599473737180233002f, 0.011942828074097633362f, -0.0063529233448207378387f, -0.011842166073620319366f, 0.016512911766767501831f, -0.00024858210235834121704f, 0.0068882093764841556549f, -0.014690212905406951904f, -0.00050534331239759922028f, 0.0070129851810634136200f, 0.0096631264314055442810f, 0.0093098413199186325073f, 0.0017852192977443337440f, -0.016662454232573509216f, -0.020554237067699432373f, 0.020930778235197067261f, 0.0074722701683640480042f, -0.011501840315759181976f, 0.018538627773523330688f, 0.015656081959605216980f, 0.0096741216257214546204f, 0.00075141241541132330894f, -0.013058547861874103546f, 0.014449651353061199188f, -6.0480724641820415854e-06f, 0.011027095839381217957f, 0.017374899238348007202f, -0.0075340890325605869293f, 0.013401657342910766602f, 0.0030940501019358634949f, 0.014166601002216339111f, -0.0050167785957455635071f, -0.020076543092727661133f, -0.014531925320625305176f, -0.012008074671030044556f, -0.021034292876720428467f, -0.013646282255649566650f, -0.017243202775716781616f, 0.0071392441168427467346f, -9.7756979812402278185e-05f, 0.0042141051962971687317f, -0.014413173310458660126f, -0.010983866639435291290f, -0.0036206117365509271622f, 0.0064081172458827495575f, -0.00081744336057454347610f, 0.018091332167387008667f, -0.018456442281603813171f, 0.00070374435745179653168f, 0.0038466162513941526413f, -0.0035421554930508136749f, -0.013023760169744491577f, 0.017382895573973655701f, 0.012188043445348739624f, 0.013228483498096466064f, -0.015070986002683639526f, -0.021746011450886726379f, -0.013899219222366809845f, -0.010457183234393596649f, -0.019158180803060531616f, 0.0018168083624914288521f, -0.0026055497583001852036f, -0.012172417715191841125f, 0.012931008823215961456f, 0.010124207474291324615f, -0.0033208343666046857834f, 0.0019084172090515494347f, 0.017933441326022148132f, 0.0054241041652858257294f, 0.0087385689839720726013f, 0.012745090760290622711f, -0.0019376381533220410347f, -0.021612165495753288269f, -0.021893817931413650513f, 0.0057721398770809173584f, -0.012321989051997661591f, -0.0045139091089367866516f, 0.019575793296098709106f, 0.0036671734414994716644f, -0.013295757584273815155f, 0.0044906940311193466187f, 0.018917025998234748840f, -0.014765365980565547943f, -0.0013867814559489488602f, -0.014632497914135456085f, -0.010526077821850776672f, 0.0088896239176392555237f, -0.0020084686111658811569f, 0.0099922744557261466980f, 0.0031633474864065647125f, -0.0043515698052942752838f, -0.00095249770674854516983f, 0.011359205469489097595f, 0.012593101710081100464f, -0.0026536025106906890869f, -0.017306059598922729492f, 0.0047965142875909805298f, -0.010990243405103683472f, -0.020006818696856498718f, 0.00088231527479365468025f, -0.021771308034658432007f, -0.0059725954197347164154f, -0.00028211518656462430954f, 0.0085797235369682312012f, -0.014573023654520511627f, 0.010360464453697204590f, 0.017207056283950805664f, 0.00034712933120317757130f, 0.0086918259039521217346f, -0.016909087076783180237f, -0.013655015267431735992f, -0.00096542621031403541565f, 0.014427221380174160004f, -0.020214570686221122742f, -0.020368110388517379761f, 0.014973560348153114319f, 0.021065808832645416260f, 0.017953766509890556335f, 0.010277664288878440857f, 0.021342961117625236511f, 0.0059657311066985130310f, -0.016069339588284492493f, -0.0033369187731295824051f, -0.010055413469672203064f, 0.011735215783119201660f, 0.0048027178272604942322f, 0.012591971084475517273f, 0.0019294142257422208786f, 0.019691154360771179199f, 0.00017835228936746716499f, 0.0063186236657202243805f, -0.0096631264314055442810f, 0.0099045224487781524658f, -0.00024290545843541622162f, 0.0086043188348412513733f, -0.020360844209790229797f, 0.015306442044675350189f, -0.016793651506304740906f, 0.011148994788527488708f, 0.018095931038260459900f, 0.010019831359386444092f, 0.012352930381894111633f, -0.014302005991339683533f, -0.0073906606994569301605f, 0.015409617684781551361f, -0.00059009803226217627525f, 0.0028249609749764204025f, 0.0057307146489620208740f, 0.0058711613528430461884f, -0.011108270846307277679f, 0.013027044944465160370f, -0.0043590296991169452667f, 0.012357964180409908295f, 0.0040164049714803695679f, 0.00061357644153758883476f, -0.012475748546421527863f, 0.010049509815871715546f, 0.0074217543005943298340f, -0.018245393410325050354f, 0.0041541699320077896118f, 0.0037412939127534627914f, -0.0030599005986005067825f, 0.0054340064525604248047f, 0.020677253603935241699f, -0.0045379535295069217682f, -0.011886240914463996887f, 0.0026216446422040462494f, 0.018949855118989944458f, -0.00083625141996890306473f, -0.019093528389930725098f, -0.010433955118060112000f, 0.015268565155565738678f, -0.0055117858573794364929f, -0.011113773100078105927f, 0.0072027170099318027496f, 0.015514086000621318817f, -0.019413623958826065063f, -0.0011803014203906059265f, 0.00079432583879679441452f, 0.013487749733030796051f, 0.0088435253128409385681f, -0.0057474575005471706390f, -0.021988105028867721558f, 0.014053563587367534637f, 0.016232652589678764343f, -0.0081855291500687599182f, 0.00037216456257738173008f, -0.0087099093943834304810f, -0.013636423274874687195f, -0.00072716485010460019112f, -0.011652257293462753296f, 0.013322911225259304047f, -0.00019189986051060259342f, 0.0045849028974771499634f, 0.0083979386836290359497f, -0.0024299924261868000031f, 0.020681431517004966736f, -0.015636300668120384216f, 0.0060018189251422882080f, -0.012542169541120529175f, -0.014176063239574432373f, 0.0034051912371069192886f, 0.019345356151461601257f, -0.0040964679792523384094f, 0.011409594677388668060f, 0.021913945674896240234f, -0.021194279193878173828f, 0.0021647252142429351807f, -0.010781553573906421661f, 0.0030975535046309232712f, -0.0041710389778017997742f, -0.013058937154710292816f, 0.018420297652482986450f, 9.3323658802546560764e-05f, -0.021131157875061035156f, 0.0070462417788803577423f, -0.0032775469589978456497f, 0.015846518799662590027f, 0.012182543985545635223f, 0.0012766332365572452545f, -0.0031734153162688016891f, -0.0028034660499542951584f, 0.0011264351196587085724f, -0.010173867456614971161f, 0.0013077059993520379066f, 0.0027303097303956747055f, -0.021028792485594749451f, 0.010161015205085277557f, 0.016011793166399002075f, 0.0096198832616209983826f, -0.020797031000256538391f, 0.0078780101612210273743f, -0.015207857824862003326f, -0.011058403179049491882f, -0.00044637464452534914017f, -0.020374000072479248047f, 0.0081414198502898216248f, 0.019393796101212501526f, -0.00059761072043329477310f, -0.0038682087324559688568f, 0.0091073252260684967041f, -0.011857923120260238647f, 0.0052376547828316688538f, -0.021481107920408248901f, -0.0094494605436921119690f, -0.013220786117017269135f, 0.019470615312457084656f, -0.020249160006642341614f, 0.014903713017702102661f, 0.0083288410678505897522f, -0.0011769296834245324135f, -0.019351925700902938843f, 0.0081323580816388130188f, -0.0098835863173007965088f, -0.021254178136587142944f, 0.013234976679086685181f, -0.0056395144201815128326f, -0.012229840271174907684f, -0.010142169892787933350f, 0.018213380128145217896f, -0.0037725749425590038300f, -0.012963190674781799316f, -0.0058858757838606834412f, -0.0099495062604546546936f, 0.016619943082332611084f, -0.019597319886088371277f, 0.011758415028452873230f, 0.016336942091584205627f, -0.016700496897101402283f, 0.0094357049092650413513f, 0.0024017854593694210052f, -0.0075968140736222267151f, -0.0036643154453486204147f, -0.0090998578816652297974f, -0.0033013732172548770905f, -0.00025286001618951559067f, -0.013325357809662818909f, 0.011264724656939506531f, 0.0079437512904405593872f, -0.011129107326269149780f, 0.012342090718448162079f, -0.015069183893501758575f, 0.010023800656199455261f, 0.017822638154029846191f, -0.0071028266102075576782f, -0.018361940979957580566f, 0.011110612191259860992f, 0.016096336767077445984f, 0.019589116796851158142f, 0.011058731935918331146f, 0.012088540010154247284f, -0.017551619559526443481f, 0.021583998575806617737f, -0.0051776613108813762665f, -0.00043977602035738527775f, 0.016941910609602928162f, -0.00053188792662695050240f, 0.012591594830155372620f, -0.018155850470066070557f, -0.0076787895523011684418f, -0.0010581177193671464920f, -0.0026530360337346792221f, -0.011017778888344764709f, -0.0097377635538578033447f, -0.0082035735249519348145f, 0.014226049184799194336f, 0.0090628759935498237610f, -0.0020767385140061378479f, -0.00057014409685507416725f, 0.0036480282433331012726f, -0.0050257402472198009491f, -0.00066259060986340045929f, -0.00044672234798781573772f, -0.018674110993742942810f, -0.0083263674750924110413f, -0.0092715108767151832581f, 0.020808735862374305725f, 0.010412120260298252106f, 0.020801587030291557312f, -0.011261745356023311615f, 0.0097498167306184768677f, -0.0081499759107828140259f, -0.021056910976767539978f, -0.014755798503756523132f, -0.020428463816642761230f, 0.0061831083148717880249f, 0.016077250242233276367f, 0.017773240804672241211f, -0.016464853659272193909f, -0.0027700804639607667923f, 0.0019115782342851161957f, 0.016770003363490104675f, 0.013967027887701988220f, 0.019648721441626548767f, -0.0067938663996756076813f, -0.00093302584718912839890f, 0.010919650085270404816f, -0.0018471067305654287338f, 0.0070567284710705280304f, 0.0040653534233570098877f, 0.0042048855684697628021f, -0.0038551590405404567719f, -0.0021963934414088726044f, 0.0043579787015914916992f, 0.017051942646503448486f, -0.0031591695733368396759f, -0.011669590137898921967f, -0.0064927903003990650177f, 0.0077137765474617481232f, 0.011525919660925865173f, 0.015100886113941669464f, 0.012411390431225299835f, -0.019965091720223426819f, -0.017445486038923263550f, -0.013514842838048934937f, -0.021829048171639442444f, -0.0065893591381609439850f, -0.017212301492691040039f, -0.014352384954690933228f, -0.018571566790342330933f, 0.013440853916108608246f, 0.0020803632214665412903f, -0.012479105032980442047f, 0.014789118431508541107f, -0.0023070790339261293411f, -0.022047938778996467590f, 0.0069194454699754714966f, 0.012017491273581981659f, -0.0033508983906358480453f, 0.011733390390872955322f, -0.012196115218102931976f, -0.016312802210450172424f, 0.011539480648934841156f, -0.0032874962780624628067f, 0.00030787481227889657021f, 0.019487285986542701721f, -0.010712778195738792419f, 0.014656505547463893890f, -0.010358441621065139771f, -0.0021730703301727771759f, -0.021778717637062072754f, -0.021529631689190864563f, -0.0051818862557411193848f, -0.018507579341530799866f, 4.4522876123664900661e-05f, -0.012106310576200485229f, 0.0091071119531989097595f, 0.016151687130331993103f, -0.0069499965757131576538f, 0.015305920504033565521f, 0.0028064558282494544983f, -0.0029272222891449928284f, 0.0081004742532968521118f, -0.0030187442898750305176f, 0.012031860649585723877f, -0.0072216149419546127319f, 0.018806489184498786926f, 0.020989336073398590088f, 0.013185301795601844788f, 0.021576926112174987793f, -0.0061343708075582981110f, -0.0044567841105163097382f, 0.0028855574782937765121f, 0.011619935743510723114f, -0.015729198232293128967f, -0.0074183535762131214142f, 0.0035626546014100313187f, -0.011715762317180633545f, -0.015785258263349533081f, 0.021442918106913566589f, 0.021054059267044067383f, 0.0076988963410258293152f, 0.00085082894656807184219f, 0.017888683825731277466f, 0.018389148637652397156f, 0.011530489660799503326f, -0.00052647205302491784096f, -0.010225228033959865570f, 0.0068265381269156932831f, 0.010311410762369632721f, 0.00041739078005775809288f, -0.018727807328104972839f, -0.00029043920221738517284f, 0.018972361460328102112f, -0.014752487652003765106f, -0.0063250381499528884888f, -0.0094881718978285789490f, -0.0045009041205048561096f, 0.012428699992597103119f, 0.021429445594549179077f, 0.0035656918771564960480f, 0.015546407550573348999f, -0.0096530029550194740295f, 0.016188515350222587585f, 0.011523522436618804932f, 0.0010103152599185705185f, -0.0016378080472350120544f, 0.0034046170767396688461f, -0.018834909424185752869f, -0.011625175364315509796f, -0.0060260379686951637268f, 0.0023854798637330532074f, -0.0032028495334088802338f, -0.018955323845148086548f, -0.0093431286513805389404f, 0.017085812985897064209f, 0.0039762048982083797455f, 0.011683962307870388031f, -0.0025195386260747909546f, -0.012281417846679687500f, -0.0067288102582097053528f, -0.021091656759381294250f, -0.0018185442313551902771f, 0.0083880573511123657227f, 0.018458224833011627197f, -0.014750285074114799500f, -0.016996692866086959839f, 0.020571874454617500305f, 0.0095868408679962158203f, -0.0011675071436911821365f, -0.017912071198225021362f, -6.8161993112880736589e-05f, 0.0076534962281584739685f, 0.010544815100729465485f, 0.013316889293491840363f, 0.016110239550471305847f, 0.017083911225199699402f, -0.020146965980529785156f, 0.011568875052034854889f, -0.019955484196543693542f, 0.00061388988979160785675f, 0.0046230796724557876587f, -0.012275456450879573822f, 0.00079378846567124128342f, -0.010041075758635997772f, 0.010258411057293415070f, 0.0060569262132048606873f, 0.0091996928676962852478f, 0.0035963985137641429901f, 0.010385043919086456299f, -0.020712127909064292908f, -0.016515294089913368225f, -0.0059970170259475708008f, -0.012176052667200565338f, 0.014409380033612251282f, -0.0010915744351223111153f, -0.0042381393723189830780f, -0.0098046660423278808594f, 0.0065469308756291866302f, 0.010199461132287979126f, -0.0090477773919701576233f, 0.0049893674440681934357f, -0.012782338075339794159f, -0.0030510050710290670395f, -0.0012233885936439037323f, 0.0077331722714006900787f, -0.0092915305867791175842f, 0.0023741293698549270630f, 0.016816519200801849365f, 0.017670946195721626282f, 0.013254635967314243317f, -0.015744136646389961243f, -0.015906654298305511475f, -0.012417810037732124329f, 0.0039171357639133930206f, -0.022019518539309501648f, 0.0040780077688395977020f, 0.018816988915205001831f, -0.015668440610170364380f, 0.021509515121579170227f, 0.015553332865238189697f, 0.016123311594128608704f, -0.013932323083281517029f, -0.018303744494915008545f, 0.017839957028627395630f, -0.019599633291363716125f, -0.017250431701540946960f, -0.0096369395032525062561f, 0.0054944185540080070496f, -0.0042734113521873950958f, -0.016952147707343101501f, 0.00056595314526930451393f, -0.015213002450764179230f, -0.013603827916085720062f, 0.010688090696930885315f, -0.012053505517542362213f, 0.0079180859029293060303f, 0.0058793271891772747040f, 0.014044933952391147614f, -0.0057812067680060863495f, -0.0096623040735721588135f, -0.018110651522874832153f, 0.0060836127959191799164f, -0.014422534964978694916f, 0.010268894955515861511f, 0.022039959207177162170f, 0.020495023578405380249f, -0.0060395509935915470123f, -0.0018844092264771461487f, -0.019288536161184310913f, -0.018913289532065391541f, 0.016971768811345100403f, -0.013276704587042331696f, 0.018104452639818191528f, -0.017535930499434471130f, 0.020410586148500442505f, 0.010706097818911075592f, -0.0071443491615355014801f, -0.017591191455721855164f, -0.00048916420200839638710f, 0.010206812992691993713f, -0.012587061151862144470f, 0.0073653538711369037628f, 0.015775322914123535156f, -0.0082043241709470748901f, 0.0035036779008805751801f, 0.0041435803286731243134f, -0.0022380976006388664246f, 0.0093505969271063804626f, -0.017651336267590522766f, -0.020017843693494796753f, -0.0092692142352461814880f, -0.0097890291363000869751f, -0.021745333448052406311f, 0.017792597413063049316f, 0.0022809293586760759354f, 0.020512865856289863586f, 0.0066452776081860065460f, -0.021518457680940628052f, -0.016110282391309738159f, -0.0011286714579910039902f, -0.015120850875973701477f, -0.015063765458762645721f, 0.020193295553326606750f, 0.015000379644334316254f, 0.020243957638740539551f, -0.021288983523845672607f, -0.0017909090965986251831f, -0.012530089356005191803f, -0.010154427029192447662f, 0.016247769817709922791f, -0.012499598786234855652f, 0.018107945099472999573f, 0.018624452874064445496f, -0.0034177326597273349762f, -0.018749607726931571960f, -0.013820791617035865784f, -0.018807880580425262451f, -0.014923100359737873077f, 0.014065472409129142761f, -0.013096168637275695801f, -0.0080039156600832939148f, -0.019668933004140853882f, -0.0095427995547652244568f, -0.0063855713233351707458f, 0.0053715421818196773529f, 0.0094539755955338478088f, 0.0040297550149261951447f, 0.0043267714790999889374f, 0.0016834900015965104103f, 0.011029347777366638184f, 0.012441288679838180542f, -0.0086548943072557449341f, -0.0077795283868908882141f, 0.017265664413571357727f, -0.021461261436343193054f, -0.015903016552329063416f, 0.014505104161798954010f, -0.016938634216785430908f, 0.019031239673495292664f, 0.0043762284331023693085f, 0.0075508262962102890015f, -0.016321813687682151794f, 0.0094310976564884185791f, -0.017555352300405502319f, -0.0034330294001847505569f, -0.021386958658695220947f, 0.016837934032082557678f, -0.017550900578498840332f, 0.018842782825231552124f, -0.012807941995561122894f, -0.011533213779330253601f, 0.0094553874805569648743f, -0.012443830259144306183f, 0.0089653059840202331543f, 0.015580043196678161621f, -0.019724966958165168762f, -0.013243985362350940704f, -0.021444775164127349854f, 0.017039494588971138000f, -0.010679729282855987549f, 0.0058705578558146953583f, 0.021244836971163749695f, 0.015320766717195510864f, -0.0055562793277204036713f, 0.015564698725938796997f, -0.00081954809138551354408f, 0.011017979122698307037f, 0.0057612368836998939514f, 0.0076227234676480293274f, 0.0071311704814434051514f, -0.0043659470975399017334f, -0.0071163452230393886566f, 0.0042172134853899478912f, -0.0045077842660248279572f, -0.020568326115608215332f, -0.017458930611610412598f, 0.013961593620479106903f, -0.0036145795602351427078f, -0.010024206712841987610f, 0.0050942287780344486237f, -0.017058314755558967590f, -0.0063561373390257358551f, -0.016276409849524497986f, -0.0077573382295668125153f, 0.0017763632349669933319f, 0.0032868587877601385117f, 0.0016323421150445938110f, 0.0010059267515316605568f, 0.011257143691182136536f, -0.018463971093297004700f, -0.0011521710548549890518f, -0.0012727294815704226494f, 0.020567616447806358337f, 0.0030101831071078777313f, 0.0021864073351025581360f, 0.018301114439964294434f, -0.0023753594141453504562f, -0.013159695081412792206f, -0.015764456242322921753f, 0.0020128069445490837097f, -0.00056498905178159475327f, 0.0080522447824478149414f, 0.016167366877198219299f, 0.0044491109438240528107f, 0.013084298931062221527f, -0.014987282454967498779f, -0.010471774265170097351f, -0.0039226622320711612701f, -0.0049740658141672611237f, 0.017975682392716407776f, 0.0071846968494355678558f, -0.0088880825787782669067f, -0.0026518322993069887161f, 0.018086405470967292786f, 0.014385733753442764282f, 0.00056465447414666414261f, -0.0066282399930059909821f, -0.013796278275549411774f, 0.015897596254944801331f, -0.0061210920102894306183f, 0.0022223847918212413788f, -0.014448858797550201416f, 0.014265356585383415222f, 0.00032177538378164172173f, -0.0079872645437717437744f, 0.013412246480584144592f, -0.0042901355773210525513f, -0.0066069238819181919098f, -0.0018774602795019745827f, -0.011087855324149131775f, -0.0057751033455133438110f, -0.019063690677285194397f, 0.0034907520748674869537f, 0.00041492254240438342094f, -0.0072370483539998531342f, -0.0011132378131151199341f, 0.019612671807408332825f, -0.018479678779840469360f, 0.0088364658877253532410f, 0.015406422317028045654f, 0.0010337857529520988464f, -0.0057007535360753536224f, 0.0059304093010723590851f, -0.018118465319275856018f, 0.0056030363775789737701f, 0.0095090055838227272034f, 0.0023168807383626699448f, -0.017567992210388183594f, -0.018957367166876792908f, -0.0042948848567903041840f, -0.0031296564266085624695f, 0.011189171113073825836f, 0.0029946493450552225113f, 0.016744393855333328247f, 0.012366876006126403809f, 0.012306800112128257751f, 0.015369820408523082733f, -0.015080065466463565826f, 0.0012208598200231790543f, -0.019897555932402610779f, -0.011991349980235099792f, 0.0019049032125622034073f, -0.010756439529359340668f, -0.018238039687275886536f, -0.014244008809328079224f, -0.0082846349105238914490f, 0.017008950933814048767f, 0.017820445820689201355f, 0.00042918924009427428246f, 0.021623345091938972473f, -0.019734969362616539001f, 0.018870385363698005676f, -0.00030474804225377738476f, -0.0033716345205903053284f, -0.017109163105487823486f, 0.012064592912793159485f, 0.0039409305900335311890f, -0.017868498340249061584f, -0.016396198421716690063f, -0.0017613668460398912430f, -0.0017453562468290328979f, -0.016802687197923660278f, 0.021149570122361183167f, 0.0085710491985082626343f, -0.0017760760383680462837f, -0.0039184265770018100739f, 0.019768567755818367004f, 0.015460991300642490387f, 0.0073568532243371009827f, -0.0090847844257950782776f, -0.012404678389430046082f, -0.010821371339261531830f, -0.018104899674654006958f, 0.019471140578389167786f, 0.00066034361952915787697f, -0.014538323506712913513f, 0.0029876662883907556534f, 0.00050026993267238140106f, 0.0096001904457807540894f, 0.015219903551042079926f, 0.016327312216162681580f, -0.00066075456561520695686f, -0.021030241623520851135f, 0.0055849286727607250214f, -0.0044993865303695201874f, -0.013512785546481609344f, 0.011196616105735301971f, -0.015315813943743705750f, 0.020706266164779663086f, 0.020615361630916595459f, -0.018835781142115592957f, 0.020892901346087455750f, -0.010787541046738624573f, -0.018248010426759719849f, 0.0058664963580667972565f, -0.0062598949298262596130f, -0.0010072201257571578026f, -0.019752368330955505371f, 0.0012923119356855750084f, 0.0080419136211276054382f, 0.021139593794941902161f, 0.019936552271246910095f, 0.020488971844315528870f, 0.021215906366705894470f, -0.014867461286485195160f, -0.0095155276358127593994f, -0.010892650112509727478f, -0.015508472919464111328f, 0.0059405164793133735657f, -0.013578969053924083710f, 0.019892629235982894897f, 0.012112243101000785828f, -0.00076130905654281377792f, 0.0031324406154453754425f, -0.019353725016117095947f, 0.0058030728250741958618f, 0.0026906179264187812805f, -0.016331827268004417419f, 0.021400617435574531555f, -0.016274476423859596252f, 0.016628339886665344238f, -0.017819536849856376648f, 0.0087092006579041481018f, -0.0095219817012548446655f, -0.020562138408422470093f, -0.0097803445532917976379f, 0.011768721975386142731f, 0.00061154813738539814949f, -0.022016704082489013672f, 0.011901716701686382294f, -0.012852536514401435852f, 0.017473656684160232544f, -0.016150705516338348389f, -0.0062124426476657390594f, 0.0050388216041028499603f, -0.014711892232298851013f, -0.0036375680938363075256f, -0.015255027450621128082f, 0.021215418353676795959f, 0.015291526913642883301f, 0.011739372275769710541f, -0.0063465330749750137329f, -0.019728891551494598389f, -0.0016599720111116766930f, -0.0058887787163257598877f, -0.019485261291265487671f, -0.0020885316189378499985f, -0.010398119688034057617f, -0.0023633476812392473221f, -0.017530420795083045959f, 0.0092548811808228492737f, 0.016532724723219871521f, -0.010403791442513465881f, 0.017011292278766632080f, -0.012367325834929943085f, -5.7820207075565122068e-06f, 0.00022295155213214457035f, 0.015520175918936729431f, -0.0052929986268281936646f, -0.014918524771928787231f, 0.011716652661561965942f, 0.0024478547275066375732f, 0.019580045714974403381f, 0.015134021639823913574f, 0.0060385288670659065247f, 0.010772932320833206177f, 0.010017870925366878510f, -0.012495655566453933716f, -0.011690516024827957153f, -0.0031172626186162233353f, -0.013848284259438514709f, 0.021647142246365547180f, 0.0089332303032279014587f, 0.0011543495347723364830f, 0.0067033744417130947113f, -0.016233928501605987549f, -0.0078326910734176635742f, 0.0016907735262066125870f, 0.013932275585830211639f, 0.0034660012461245059967f, 0.011250787414610385895f, -0.0091681508347392082214f, -0.0031994779128581285477f, -0.021746372804045677185f, -0.018921485170722007751f, -0.014141721650958061218f, -0.012540668249130249023f, 0.00014928150631021708250f, -0.0072861416265368461609f, -0.016754580661654472351f, 0.0038612650241702795029f, -0.021898875012993812561f, -0.0046198847703635692596f, 0.0017605370376259088516f, -0.019434181973338127136f, 0.0050628744065761566162f, 0.010452650487422943115f, 0.021619457751512527466f, 0.0051397210918366909027f, 0.014641754329204559326f, -0.0041230865754187107086f, 0.0017546733142808079720f, 0.0071572591550648212433f, 0.0014759588520973920822f, 0.0062328656204044818878f, 0.0071302722208201885223f, 0.017768878489732742310f, -0.019904537126421928406f, 0.0053646853193640708923f, -0.015468361787497997284f, 0.018730258569121360779f, 0.00014093905338086187840f, 0.0075940797105431556702f, 0.0028926751110702753067f, -0.019657231867313385010f, 0.0030069695785641670227f, 0.020215258002281188965f, 0.019390011206269264221f, 0.013642220757901668549f, 0.016963755711913108826f, 0.0069925570860505104065f, 0.0040806131437420845032f, 0.020669501274824142456f, 0.0077161341905593872070f, -0.0044167130254209041595f, -0.017195267602801322937f, 0.021840315312147140503f, 0.0043582422658801078796f, -0.021217716857790946960f, -0.0092730997130274772644f, 0.0024683775845915079117f, -0.014745153486728668213f, 0.0047923862002789974213f, -0.0014194373507052659988f, -0.015077199786901473999f, 0.016271917149424552917f, 0.018303135409951210022f, -0.014826086349785327911f, -0.016271432861685752869f, -0.0083987889811396598816f, -0.019364334642887115479f, -0.00032979118986986577511f, -0.013760020956397056580f, 0.0063260416500270366669f, -0.0085643557831645011902f, 0.011257496662437915802f, 0.012806074693799018860f, 0.0027802195399999618530f, -0.013332944363355636597f, 0.016210336238145828247f, 0.0026140185073018074036f, -0.020193368196487426758f, -0.0090380199253559112549f, -0.019027810543775558472f, -0.017203582450747489929f, 0.014964862726628780365f, 0.014115092344582080841f, 0.013589434325695037842f, -0.021480290219187736511f, -0.0052047432400286197662f, -0.0063480767421424388885f, -0.014816423878073692322f, -0.020501112565398216248f, -0.0059138955548405647278f, -0.015451203100383281708f, 0.010606467723846435547f, -0.017420332878828048706f, 0.021594369783997535706f, -0.020569127053022384644f, -0.0034614705946296453476f, -0.0032505888957530260086f, 0.0088889021426439285278f, -0.0029936695937067270279f, 0.0022322156000882387161f, 0.0042259828187525272369f, 0.017501348629593849182f, -0.012830018997192382812f, -0.0027102029416710138321f, 0.015255873091518878937f, 0.018444098532199859619f, -0.020261915400624275208f, -0.0072503904812037944794f, 0.011596736498177051544f, -0.018900582566857337952f, -0.016441488638520240784f, -0.010918863117694854736f, 0.0045279436744749546051f, -0.016012506559491157532f, 0.0016188393346965312958f, 0.012113401666283607483f, -0.014891316182911396027f, 0.012171985581517219543f, -0.0063767204992473125458f, 0.0044751102104783058167f, 0.00010760089935502037406f, -0.0047114538028836250305f, 0.0090502826496958732605f, 0.015582068823277950287f, 0.0012310699094086885452f, 0.011572860181331634521f, 0.016687816008925437927f, 0.016557443886995315552f, 0.013474362902343273163f, 0.013437877409160137177f, -0.010861011222004890442f, -0.0086300019174814224243f, -0.021807787939906120300f, -0.0014758167089894413948f, 0.017469009384512901306f, -0.0077503784559667110443f, -0.011924894526600837708f, -0.0032938157673925161362f, 0.0020443988032639026642f, -0.0044500250369310379028f, -0.0027158374432474374771f, 0.0029531796462833881378f, 0.019010359421372413635f, 0.020979506894946098328f, 6.0356920585036277771e-05f, 0.017939848825335502625f, 0.021407173946499824524f, 0.014859095215797424316f, 0.0067023234441876411438f, -0.018967336043715476990f, 0.011762971989810466766f, 0.021690463647246360779f, 0.016326537355780601501f, -0.015401272103190422058f, 0.0093532074242830276489f, 0.0038093558978289365768f, -0.011445363983511924744f, 0.014547134749591350555f, 0.018820324912667274475f, 0.012923058122396469116f, -0.019647659733891487122f, -0.016850505024194717407f, 0.012651472352445125580f, -0.019595170393586158752f, -0.020918512716889381409f, 0.016720002517104148865f, 0.0014539477415382862091f, 0.0059065488167107105255f, -0.013750622048974037170f, 0.013352113775908946991f, -0.0048346281982958316803f, -0.019707141444087028503f, -0.010064861737191677094f, 0.018666826188564300537f, 0.00068182271206751465797f, 0.019183630123734474182f, -0.012061092071235179901f, -0.0053991638123989105225f, 0.0090866051614284515381f, 0.0089279720559716224670f, 0.0083888107910752296448f, -0.013599853031337261200f, -0.0058307084254920482635f, 0.016129856929183006287f, -0.017359562218189239502f, 0.0097567867487668991089f, -0.0040432973764836788177f, -0.0041188322938978672028f, -0.012371851131319999695f, -0.014071051962673664093f, -0.013356088660657405853f, 0.0058516524732112884521f, 0.011701577343046665192f, 0.00033138750586658716202f, -0.017322784289717674255f, 0.0045223408378660678864f, 0.015685483813285827637f, -0.015678638592362403870f, 0.017929429188370704651f, 0.012375436723232269287f, 0.012122914195060729980f, -0.0087902918457984924316f, -0.014595358632504940033f, -0.021559681743383407593f, 0.013242368586361408234f, 0.0078167989850044250488f, -0.0087342699989676475525f, -0.017026351764798164368f, 0.016666324809193611145f, -0.0057417862117290496826f, 0.0033711472060531377792f, -0.015036461874842643738f, -0.014480779878795146942f, 0.015227756462991237640f, -0.0084484228864312171936f, 0.012597426772117614746f, -0.021431941539049148560f, -0.00048209409578703343868f, 0.016828306019306182861f, 0.017290987074375152588f, 0.012354336678981781006f, -0.020220469683408737183f, 0.013353175483644008636f, 0.014932448975741863251f, -0.015126432292163372040f, -0.015606772154569625854f, -0.017803948372602462769f, -0.021396758034825325012f, 0.020426392555236816406f, 0.021057168021798133850f, -0.0042603798210620880127f, -0.0092678358778357505798f, 0.0097258510068058967590f, 0.0074876667931675910950f, -0.011839776299893856049f, 0.012925595045089721680f, 0.0052934568375349044800f, -0.0096643352881073951721f, -0.0011565568856894969940f, 0.0030858709942549467087f, 0.0079624773934483528137f, 0.0065529812127351760864f, -0.014446985907852649689f, 0.0096974018961191177368f, 8.7744469055905938148e-05f, 0.00028429628582671284676f, -0.016436999663710594177f, 0.021325973793864250183f, 0.019962100312113761902f, 0.0038741698954254388809f, 0.017845757305622100830f, -0.020463518798351287842f, -0.00076520763104781508446f, -0.021082192659378051758f, 0.0062651159241795539856f, -0.0053994352929294109344f, 0.012591707520186901093f, 0.0055286600254476070404f, 0.0050336034037172794342f, 0.0036918637342751026154f, 0.014600292779505252838f, 0.019414873793721199036f, 0.0075208283960819244385f, 0.0014887925935909152031f, -0.011738519184291362762f, -0.012710435315966606140f, -0.0076485467143356800079f, -0.0010876152664422988892f, 0.019487528130412101746f, 0.015233314596116542816f, -0.015295804478228092194f, 0.013944316655397415161f, -0.0039254440926015377045f, 0.017564710229635238647f, 0.018879972398281097412f, -0.013421031646430492401f, -0.0047805220820009708405f, -0.021811729297041893005f, -0.0077481446787714958191f, -0.0095624085515737533569f, 0.013252270407974720001f, -0.0016601353418081998825f, 0.010387714952230453491f, -0.014532928355038166046f, -0.012792535126209259033f, 0.018657851964235305786f, -0.016522141173481941223f, 0.017579184845089912415f, -0.0044647892937064170837f, -0.019672315567731857300f, 0.014065939001739025116f, -0.0019310578936710953712f, -0.016548914834856987000f, -0.014280200004577636719f, 0.0010082316584885120392f, -0.019069643691182136536f, 0.017649164423346519470f, -0.0082957930862903594971f, -0.0090834256261587142944f, -0.020701095461845397949f, 0.016940105706453323364f, 0.0040531172417104244232f, 0.0034354263916611671448f, -0.020260317251086235046f, 0.012763967737555503845f, 0.0075606964528560638428f, -0.021661641076207160950f, -0.0064203529618680477142f, -0.018032513558864593506f, -6.1415856180246919394e-05f, -0.0076609165407717227936f, -0.020309943705797195435f, 0.017863465473055839539f, -0.014988085255026817322f, 0.016858562827110290527f, -0.0020784796215593814850f, 0.0062476485036313533783f, 0.0045748692937195301056f, -0.0048916367813944816589f, 0.0078296037390828132629f, 0.0058909836225211620331f, -0.0088401064276695251465f, 0.0049415095709264278412f, -0.018223980441689491272f, 0.0031585558317601680756f, 0.014508014544844627380f, -0.0020802102517336606979f, -0.012069595046341419220f, -0.011592189781367778778f, 0.0019877296872437000275f, -0.012133168987929821014f, 0.0094659077003598213196f, -0.015030229464173316956f, 0.0063504446297883987427f, 0.013880303129553794861f, -0.018616260960698127747f, 0.0055024740286171436310f, -0.019163750112056732178f, -0.0027402669657021760941f, 0.012799683958292007446f, 0.018696231767535209656f, 0.0061300825327634811401f, -0.0067667104303836822510f, -0.0067229387350380420685f, -0.017376288771629333496f, -0.0086500132456421852112f, -0.010171504691243171692f, 0.0051498785614967346191f, 0.0077558760531246662140f, 0.010395496152341365814f, -0.018019238486886024475f, -0.011213825084269046783f, 0.010176996700465679169f, 0.014319383539259433746f, -0.0094672879204154014587f, 0.010658121667802333832f, -0.015657404437661170959f, -0.016061211004853248596f, 0.015624038875102996826f, -0.015124768018722534180f, -0.017656566575169563293f, -0.0043416810221970081329f, 0.019067417830228805542f, -0.0080063445493578910828f, 0.021942367777228355408f, -0.0023326436057686805725f, 0.017458515241742134094f, 0.014378178864717483521f, -0.0051320213824510574341f, 0.0027924473397433757782f, -0.013046665117144584656f, 0.015504782088100910187f, -0.019155675545334815979f, 0.0019903560169041156769f, -0.020829884335398674011f, 0.0052771908231079578400f, 0.0077608628198504447937f, 0.021494830027222633362f, -0.0073351608589291572571f, -0.00097905541770160198212f, -0.017341876402497291565f, -0.0019561327062547206879f, -0.019612843170762062073f, 0.017141414806246757507f, 0.010379739105701446533f, 0.0065937349572777748108f, -0.019205952063202857971f, -0.021560847759246826172f, 0.020471123978495597839f, 0.018923146650195121765f, 0.010952184908092021942f, -0.00061619479674845933914f, 0.0096715139225125312805f, 0.017098272219300270081f, -0.018686674535274505615f, -0.016574403271079063416f, -0.0049821157008409500122f, 0.016269497573375701904f, -0.0019608398433774709702f, 0.019132161512970924377f, -0.00068389321677386760712f, 0.0063862144015729427338f, -0.0085430368781089782715f, -0.0054224263876676559448f, -0.019849702715873718262f, -0.018258348107337951660f, 0.010465119965374469757f, -0.017667494714260101318f, -0.012214158661663532257f, -0.015635872259736061096f, -0.0045466702431440353394f, -0.0058112652041018009186f, 0.0092660505324602127075f, 0.014851474203169345856f, -0.010674463585019111633f, -0.0062577086500823497772f, 0.00094699225155636668205f, -0.019126310944557189941f, -0.0084198229014873504639f, -0.0061042490415275096893f, -0.0064616859890520572662f, -0.015500527806580066681f, 0.015990057960152626038f, 0.0052463472820818424225f, -0.0048282481729984283447f, 0.0028579172212630510330f, -0.021287634968757629395f, -0.0045471102930605411530f, 0.016337689012289047241f, 0.015734348446130752563f, -0.0044782683253288269043f, -0.013642631471157073975f, 0.013354096561670303345f, 0.021599026396870613098f, 0.014052831567823886871f, -0.010370137169957160950f, 0.019029948860406875610f, -0.015827972441911697388f, 0.0054389559663832187653f, -0.0032754843123257160187f, -0.014597094617784023285f, -0.021816384047269821167f, 0.018639896064996719360f, 0.011207502335309982300f, -0.018577698618173599243f, 0.017036179080605506897f, -0.019938735291361808777f, 0.0051977992989122867584f, 0.016177291050553321838f, 0.015318274497985839844f, 0.020705757662653923035f, 0.0077336672693490982056f, 0.00011390975851099938154f, -0.00054226134670898318291f, 0.010828044265508651733f, -0.0039632814005017280579f, 0.016050228849053382874f, 0.016838677227497100830f, 0.0080075114965438842773f, 0.0073227486573159694672f, 0.0029122787527740001678f, -0.0020648136269301176071f, -0.0075571117922663688660f, -0.0015764501877129077911f, 0.014563158154487609863f, 0.011745138093829154968f, -0.0081829661503434181213f, -0.0029157532844692468643f, 0.0065402686595916748047f, -0.013633775524795055389f, -0.018934121355414390564f, -0.0029315820429474115372f, 0.010144859552383422852f, -0.0030701898504048585892f, -0.017355449497699737549f, 0.0035607290919870138168f, -0.021598162129521369934f, 0.021337144076824188232f, -0.00012121960025979205966f, -0.020971937105059623718f, -0.011688319034874439240f, -0.0019143229583278298378f, -0.021179435774683952332f, -0.011593038216233253479f, 0.0031599546782672405243f, -0.017516946420073509216f, 0.018631460145115852356f, -0.018222961574792861938f, -0.015016900375485420227f, 0.00080224417615681886673f, -0.016917288303375244141f, -0.00092160404892638325691f, -0.0019082301296293735504f, 0.0050768563523888587952f, -0.0015604791697114706039f, 0.0013907854445278644562f, 0.0023825534153729677200f, -0.017604930326342582703f, 0.020018856972455978394f, -0.0039473790675401687622f, 