// This file is computer-generated by onnx2c 
// (TODO: add creating command line here)
// (TODO: print creation date here )

// ONNX model:
// produced by pytorch, version 2.5.1
// ONNX IR version: 17
// Model documentation: 
/*

*/

#include <float.h>
#include <math.h>
#include <stdbool.h>
#include <stdint.h>
#include <string.h>

#define MAX(X,Y) ( X > Y ? X : Y)
#define MIN(X,Y) ( X < Y ? X : Y)
#define CLIP(X,L) ( MAX(MIN(X,L), -L) )

#if __STDC_VERSION__ < 199901L
#define FUNC_PREFIX
#else
#define FUNC_PREFIX static inline
#endif

static const float tensor_cv1_weight[1][1][5][3][5] = 
{
  {
    {
      {
        {0.046888854354619979858f, -0.054943051189184188843f, 0.023435294628143310547f, 0.036782197654247283936f, -0.034621231257915496826f},
        {-0.090186491608619689941f, -0.11211516708135604858f, -0.087624005973339080811f, 0.070673808455467224121f, 0.015519919805228710175f},
        {0.00094639213057234883308f, 0.083176277577877044678f, 0.00085120642324909567833f, 0.036791227757930755615f, 0.095780804753303527832f}
      },
      {
        {0.073715716600418090820f, 0.036714047193527221680f, 0.081973791122436523438f, 0.076402999460697174072f, 0.074436061084270477295f},
        {-0.085876524448394775391f, -0.051565423607826232910f, 0.047770053148269653320f, 0.059168111532926559448f, -0.029831262305378913879f},
        {-0.087109178304672241211f, -0.080453775823116302490f, -0.066472999751567840576f, 0.075263455510139465332f, 0.075007893145084381104f}
      },
      {
        {-0.095346435904502868652f, -0.060206919908523559570f, -0.024655198678374290466f, 0.055143263190984725952f, 0.059366673231124877930f},
        {-0.074764549732208251953f, 0.047758452594280242920f, 0.034017588943243026733f, 0.018405580893158912659f, -0.022412134334444999695f},
        {-0.019923582673072814941f, -0.059120085090398788452f, -0.042727086693048477173f, 0.023628404363989830017f, -0.10975449532270431519f}
      },
      {
        {-0.076564885675907135010f, 0.0065359049476683139801f, 0.023298317566514015198f, 0.032921515405178070068f, -0.020413124933838844299f},
        {-0.041863698512315750122f, -0.096477128565311431885f, 0.094215646386146545410f, 0.10339223593473434448f, 0.093235842883586883545f},
        {0.031269054859876632690f, -0.055181585252285003662f, 0.090522043406963348389f, -0.090972997248172760010f, 0.0064886491745710372925f}
      },
      {
        {-0.061100427061319351196f, -0.0028489909600466489792f, -0.0031478726305067539215f, -0.00082265760283917188644f, -0.057135637849569320679f},
        {0.077814385294914245605f, 0.076384387910366058350f, -0.090961575508117675781f, 0.020369503647089004517f, -0.0024094160180538892746f},
        {0.082812868058681488037f, 0.025629824027419090271f, 0.039438907057046890259f, 0.087756030261516571045f, -0.052566833794116973877f}
      }
    }
  }
};
static const float tensor_cv1_bias[1] = 
{-0.043028239160776138306f};
static const float tensor_fc1_weight[128][343] = 
{
  {-0.053022157400846481323f, 0.017290325835347175598f, 0.051072858273983001709f, -0.038608945906162261963f, -0.0034985956735908985138f, -0.0081635396927595138550f, -0.0022548777051270008087f, -0.041272949427366256714f, 0.0078797331079840660095f, 0.0067511354573071002960f, 0.010259875096380710602f, -0.0019582360982894897461f, -0.034190651029348373413f, 0.047249458730220794678f, -0.046321216970682144165f, 0.0067070443183183670044f, -0.033674117177724838257f, -0.048285104334354400635f, 0.026851458474993705750f, -0.0063526397570967674255f, 0.022729719057679176331f, -0.033867340534925460815f, -0.032448694109916687012f, -0.041237737983465194702f, -0.00062972132582217454910f, 0.036787509918212890625f, 0.041793439537286758423f, -0.014559897594153881073f, -0.012305715121328830719f, -0.042637616395950317383f, -0.028885010629892349243f, 0.052968353033065795898f, 0.049853786826133728027f, 0.048310209065675735474f, 0.015278657898306846619f, -0.012719343416392803192f, 0.053923539817333221436f, -0.0057190177030861377716f, -0.032057039439678192139f, -0.052799139171838760376f, -0.0022546912077814340591f, 0.00098300585523247718811f, 0.027717227116227149963f, 0.023366257548332214355f, -0.022203216329216957092f, 0.0066030207090079784393f, -0.049732092767953872681f, -0.0056230141781270503998f, 0.033310592174530029297f, 0.032757036387920379639f, 0.036289516836404800415f, 0.052089441567659378052f, -0.027536310255527496338f, 0.023008583113551139832f, -0.020763084292411804199f, -0.052333053201436996460f, 0.028703495860099792480f, 0.041049741208553314209f, -0.053510479629039764404f, -0.025476368144154548645f, -0.050023451447486877441f, 0.0077754328958690166473f, -0.027282923460006713867f, 0.0010154983028769493103f, 0.043397109955549240112f, 0.015409593470394611359f, -0.025808867067098617554f, -0.043725818395614624023f, 0.052218537777662277222f, 0.028236404061317443848f, -0.048126515001058578491f, -0.018467621877789497375f, -0.035142887383699417114f, -0.0022847054060548543930f, 0.047684393823146820068f, -0.0040877787396311759949f, 0.035988517105579376221f, -0.014749104157090187073f, -0.0037750517949461936951f, -0.046296048909425735474f, -0.0053559364750981330872f, 0.042884323745965957642f, 0.00075971044134348630905f, 0.035214290022850036621f, -0.011015196330845355988f, 0.034548658877611160278f, 0.048047449439764022827f, 0.042163148522377014160f, 0.013186364434659481049f, -0.018239151686429977417f, -0.048026967793703079224f, 0.0045535508543252944946f, 0.0045493347570300102234f, -0.0080393953248858451843f, -0.053035095334053039551f, 0.033758528530597686768f, -0.052520979195833206177f, 0.035702418535947799683f, -0.011816359125077724457f, -0.011903929524123668671f, 0.021326487883925437927f, -0.019294364377856254578f, 0.035618025809526443481f, 0.0053097084164619445801f, -0.023101670667529106140f, -0.020248759537935256958f, -0.019002383574843406677f, 0.016720309853553771973f, -0.034032899886369705200f, 0.020612008869647979736f, -0.012694047763943672180f, 0.0023125633597373962402f, -0.020328156650066375732f, 0.046050380915403366089f, -0.037727426737546920776f, 0.050959952175617218018f, 0.016747273504734039307f, 0.032289322465658187866f, 0.037789408117532730103f, 0.044878192245960235596f, 0.031068235635757446289f, -0.038488220423460006714f, -0.038646452128887176514f, 0.042454771697521209717f, -0.018642906099557876587f, 0.053652316331863403320f, 0.044191602617502212524f, 0.029902607202529907227f, 0.0068000610917806625366f, -0.0047785132192075252533f, -0.00021947847562842071056f, 0.0095865065231919288635f, 0.038611922413110733032f, 0.019979732111096382141f, -0.032622568309307098389f, -0.0055871102958917617798f, 0.013623467646539211273f, 0.010003713890910148621f, -0.036539927124977111816f, -0.013968564569950103760f, 0.010693843476474285126f, 0.037030257284641265869f, 0.039805050939321517944f, -0.031366795301437377930f, 0.045983586460351943970f, 0.043441195040941238403f, 0.049733411520719528198f, 0.028621459379792213440f, 0.038965966552495956421f, -0.014727895148098468781f, 0.047209195792675018311f, -0.0099074402824044227600f, 0.0072345766238868236542f, -0.020672492682933807373f, 0.0098248384892940521240f, 0.013668640516698360443f, 0.051979240030050277710f, 0.043257676064968109131f, 0.016990046948194503784f, 0.040374003350734710693f, -0.024918949231505393982f, 0.051625233143568038940f, 0.040936619043350219727f, -0.024655070155858993530f, 0.046714339405298233032f, -0.00098014797549694776535f, -0.042693827301263809204f, -0.020266357809305191040f, 0.042963203042745590210f, 0.0073729073628783226013f, -0.0045919395051896572113f, 0.041856769472360610962f, 0.021536130458116531372f, -0.031337451189756393433f, -0.024623673409223556519f, -0.014833901077508926392f, -0.053548552095890045166f, -0.030912691727280616760f, 0.021905610337853431702f, -0.0054833060130476951599f, 0.049332998692989349365f, 0.0079794442281126976013f, -0.041752055287361145020f, 0.052809663116931915283f, -0.016296267509460449219f, 0.044269867241382598877f, -0.0029348633252084255219f, -0.043242562562227249146f, 0.044352166354656219482f, 0.0023207960184663534164f, -0.044485792517662048340f, -0.0097129046916961669922f, -0.035420890897512435913f, -0.020627282559871673584f, -0.039758343249559402466f, 0.036725491285324096680f, 0.023414848372340202332f, 0.051474139094352722168f, 0.0084532042965292930603f, 0.017290428280830383301f, 0.049719091504812240601f, -0.00029614596860483288765f, -0.039835304021835327148f, 0.032817266881465911865f, 0.027125809341669082642f, 0.045093160122632980347f, -0.021129107102751731873f, 0.033768698573112487793f, 0.029265522956848144531f, -0.037954185158014297485f, 0.032949544489383697510f, -0.035165101289749145508f, 0.026186669245362281799f, 0.040573965758085250854f, 0.048545442521572113037f, -0.021569639444351196289f, 0.027946166694164276123f, 2.0288467567297630012e-05f, 0.039722297340631484985f, -0.029219299554824829102f, -0.035440914332866668701f, -0.0091007873415946960449f, -0.038683746010065078735f, 0.017659192904829978943f, 0.046902913600206375122f, -0.017339784651994705200f, 0.023042524233460426331f, 0.053350988775491714478f, 0.049575917422771453857f, 0.041659593582153320312f, 0.038812384009361267090f, -0.047458786517381668091f, -0.051277182996273040771f, 0.045576646924018859863f, 0.026023628190159797668f, -0.050194967538118362427f, 0.035545613616704940796f, -0.027032097801566123962f, 0.030034553259611129761f, -0.048632491379976272583f, -0.014177339151501655579f, 0.028725180774927139282f, 0.0051439823582768440247f, -0.018891286104917526245f, -0.023168805986642837524f, 0.036329828202724456787f, -0.025163028389215469360f, -0.0046561388298869132996f, 0.047179587185382843018f, -0.0022566607221961021423f, 0.050326373428106307983f, -0.0051827379502356052399f, -0.044591907411813735962f, -0.031119463965296745300f, -0.044349785894155502319f, -0.015569976530969142914f, -0.031505983322858810425f, -0.039207875728607177734f, -0.053547218441963195801f, 0.049250453710556030273f, -0.029259124770760536194f, 0.0089530972763895988464f, -0.014738953672349452972f, 0.012692470103502273560f, -0.031818501651287078857f, -0.020090153440833091736f, -0.021806092932820320129f, -0.0098536815494298934937f, 0.0080763418227434158325f, 0.040113363415002822876f, 0.018750714138150215149f, 0.0014458558289334177971f, -0.033748622983694076538f, -0.023430572822690010071f, 0.034762389957904815674f, -0.053923290222883224487f, -0.027517952024936676025f, -0.0017669375520199537277f, -0.0077333496883511543274f, -0.027160497382283210754f, -0.019793819636106491089f, -0.034288946539163589478f, -0.0054000150412321090698f, 0.045802097767591476440f, 0.0020741545595228672028f, 0.042861331254243850708f, 0.032490435987710952759f, 0.041219193488359451294f, 0.019724613055586814880f, -0.035365715622901916504f, -0.042095910757780075073f, 0.037826091051101684570f, -0.023214073851704597473f, 0.0010613919002935290337f, -0.053595792502164840698f, 0.025334464386105537415f, 0.013384685851633548737f, -0.012308759614825248718f, -0.024801112711429595947f, -0.019101612269878387451f, -0.0045028040185570716858f, 0.046627275645732879639f, -0.010996921919286251068f, -0.0041336915455758571625f, 0.0042495909146964550018f, -0.052823849022388458252f, -0.0053513664752244949341f, -0.0010161806130781769753f, -0.025797925889492034912f, 0.012570244260132312775f, 0.017383612692356109619f, -0.037151996046304702759f, 0.0029622579459100961685f, 0.040562972426414489746f, -0.045067675411701202393f, -0.051450144499540328979f, 0.042350586503744125366f, -0.047581586986780166626f, 0.0035048970021307468414f, 0.0019865834619849920273f, -0.037469871342182159424f, 0.011160581372678279877f, 0.049984145909547805786f, 0.0012280186638236045837f, 0.023750109598040580750f, -0.017239989712834358215f, 0.029163526371121406555f, 0.044484324753284454346f, 0.0043229563161730766296f, -0.038803040981292724609f, -0.044025432318449020386f, -0.0088330786675214767456f, -0.023280436173081398010f, 0.053701926022768020630f, 0.018176959827542304993f, -0.012920361943542957306f, -0.0049739377573132514954f, 0.014693400822579860687f, 0.052039597183465957642f, 0.0053876242600381374359f, 0.013851339928805828094f, 0.041027020663022994995f, 0.0029304218478500843048f},
  {-0.043282382190227508545f, -0.0036259456537663936615f, 0.012315916828811168671f, -0.018089614808559417725f, -0.053705483675003051758f, 0.031435653567314147949f, 0.0083066727966070175171f, 0.038594722747802734375f, -0.019791502505540847778f, -0.021589240059256553650f, 0.048918467015027999878f, -0.052594453096389770508f, 0.037956517189741134644f, -0.0026660216972231864929f, -0.053541231900453567505f, -0.016847794875502586365f, -0.044988743960857391357f, 0.020773928612470626831f, 0.014416848309338092804f, 0.032301198691129684448f, -0.051077660173177719116f, 0.023789348080754280090f, 0.016759734600782394409f, -0.036395926028490066528f, 0.020510667935013771057f, 0.037231422960758209229f, 0.021546481177210807800f, -0.051193427294492721558f, -0.019072530791163444519f, 0.043693672865629196167f, -0.019743517041206359863f, 0.043543968349695205688f, -0.021281430497765541077f, 0.031913772225379943848f, 0.020482713356614112854f, 0.053175095468759536743f, 0.014849207364022731781f, 0.012264172546565532684f, -0.053476050496101379395f, 0.0034132513683289289474f, -0.038089428097009658813f, -0.021701097488403320312f, 0.053703572601079940796f, -0.026108032092452049255f, 0.035780023783445358276f, -0.013939283788204193115f, 0.013587203808128833771f, -0.0028003235347568988800f, -0.032030850648880004883f, 0.048895116895437240601f, 0.032835595309734344482f, 0.017107304185628890991f, 0.011156790889799594879f, -0.017015960067510604858f, -0.032360903918743133545f, 0.018393781036138534546f, -0.045081529766321182251f, 0.023035405203700065613f, -0.0079832160845398902893f, -0.038368936628103256226f, -0.051232166588306427002f, -0.0047735506668686866760f, 0.017691427841782569885f, 0.0086687365546822547913f, 0.027516864240169525146f, 0.035909131169319152832f, -0.025698935613036155701f, 0.011900216341018676758f, 0.0045789112336933612823f, 0.012146342545747756958f, 0.028196509927511215210f, -0.021654425188899040222f, 0.035755809396505355835f, -0.0087296152487397193909f, 0.035572778433561325073f, -0.020257815718650817871f, -0.0060013635084033012390f, -0.051267225295305252075f, 0.0080235032364726066589f, -0.036211412400007247925f, 0.011797087267041206360f, 0.011191014200448989868f, 0.0054565486498177051544f, -0.050008002668619155884f, 0.050270896404981613159f, -0.040361382067203521729f, 0.015713900327682495117f, -0.026668874546885490417f, -0.0014649471268057823181f, 0.012470069341361522675f, 0.033869639039039611816f, 0.041395187377929687500f, 0.0063553173094987869263f, -0.028675585985183715820f, -0.030782504007220268250f, -0.015548438765108585358f, -0.0056040585041046142578f, 0.016892524436116218567f, -0.053136713802814483643f, 0.023932918906211853027f, -0.025004383176565170288f, -0.050218425691127777100f, 0.044873539358377456665f, -0.0027413696516305208206f, 0.012423512525856494904f, -0.051401842385530471802f, 0.017454955726861953735f, 0.025038853287696838379f, 0.013511166907846927643f, 0.035255048424005508423f, -0.041813217103481292725f, -0.030466655269265174866f, -0.0061860708519816398621f, 0.045981056988239288330f, -0.042581617832183837891f, 0.037876579910516738892f, -0.038085564970970153809f, -0.053086623549461364746f, 0.043812010437250137329f, -0.026352299377322196960f, 0.030658848583698272705f, -0.047196350991725921631f, -0.027596300467848777771f, -0.033823635429143905640f, -0.028614006936550140381f, 0.027404833585023880005f, 0.053216703236103057861f, -0.038302555680274963379f, 0.011135729961097240448f, -0.0088636018335819244385f, 0.048593949526548385620f, 0.029218649491667747498f, 0.047369554638862609863f, 0.0050914334133267402649f, -0.0099354470148682594299f, -0.038361784070730209351f, -0.013133840635418891907f, 0.012628116644918918610f, -0.036459252238273620605f, 0.023737166076898574829f, -0.023957706987857818604f, 0.030064316466450691223f, 0.031041162088513374329f, 0.034427508711814880371f, 0.035190261900424957275f, 0.045572500675916671753f, -0.0029936046339571475983f, -0.027369013056159019470f, 0.010473039001226425171f, -0.037451300770044326782f, 0.0017863570246845483780f, -0.022101111710071563721f, -0.049434382468461990356f, -0.018334550783038139343f, -0.020078953355550765991f, -0.022359764203429222107f, 0.050083633512258529663f, 0.024904254823923110962f, -0.016280645504593849182f, -0.033274076879024505615f, 0.029784223064780235291f, 0.044334311038255691528f, 0.035999689251184463501f, -0.051637984812259674072f, 0.0059432978741824626923f, 0.036408755928277969360f, 0.021624712273478507996f, -0.0099836895242333412170f, -0.046163856983184814453f, 0.049897864460945129395f, 0.043372992426156997681f, 0.010492401197552680969f, -0.0057239742018282413483f, 0.015096511691808700562f, -0.046415545046329498291f, -0.038248751312494277954f, -0.0016464812215417623520f, -0.036860547959804534912f, 0.039163764566183090210f, -0.051204424351453781128f, -0.048397153615951538086f, -0.019990835338830947876f, 0.017597535625100135803f, 0.030442491173744201660f, -0.051051564514636993408f, 0.053990300744771957397f, 0.028398672118782997131f, -0.026933809742331504822f, -0.021222406998276710510f, 0.0044642803259193897247f, -0.044810902327299118042f, 0.049951147288084030151f, -0.0093316650018095970154f, -0.018841201439499855042f, 0.041540693491697311401f, -0.0059803863987326622009f, 0.017121464014053344727f, 0.031637147068977355957f, 0.016465963795781135559f, 0.025059835985302925110f, -0.022331377491354942322f, 0.0077953352592885494232f, 0.0070309196598827838898f, 0.0066144396550953388214f, -0.0037106911186128854752f, -0.0013954951427876949310f, 0.016699615865945816040f, -0.017842710018157958984f, -0.035026218742132186890f, -0.022885205224156379700f, 0.037111032754182815552f, 0.020489118993282318115f, 0.041051041334867477417f, -0.034490168094635009766f, 0.035738732665777206421f, -0.028620725497603416443f, -0.014295072294771671295f, 0.018690891563892364502f, -0.0051644383929669857025f, 0.012810654938220977783f, 0.0081675881519913673401f, 0.020171891897916793823f, 0.016347251832485198975f, -0.013856856152415275574f, -0.0015369544271379709244f, 0.016569774597883224487f, 0.010735476389527320862f, -0.041049994528293609619f, -0.013197584077715873718f, 0.0034574652090668678284f, -0.025733873248100280762f, 0.0087759979069232940674f, -0.052719786763191223145f, 0.017682248726487159729f, -0.028314808383584022522f, -0.022606996819376945496f, 0.017029605805873870850f, 0.0015054467367008328438f, -0.031652495265007019043f, -0.045126341283321380615f, 0.051187515258789062500f, 0.028413368389010429382f, -0.0050309607759118080139f, -0.012757873162627220154f, 0.0057278489693999290466f, 0.022712964564561843872f, 0.030463866889476776123f, -0.034858934581279754639f, 0.00079327780986204743385f, 0.026218241080641746521f, 0.044767007231712341309f, 0.012622322887182235718f, 0.020964751020073890686f, 0.010417587123811244965f, -0.052264597266912460327f, -0.0077991583384573459625f, -0.0094483494758605957031f, 0.0053849853575229644775f, 0.0050542550161480903625f, 0.029936412349343299866f, -0.025393398478627204895f, -0.040478993207216262817f, 0.022527819499373435974f, -0.00059715809766203165054f, -0.019521772861480712891f, 0.035088114440441131592f, 0.021430550143122673035f, 0.038650289177894592285f, -0.0047283652238547801971f, -0.0098419990390539169312f, 0.0026317848823964595795f, 0.034854661673307418823f, -0.049422737210988998413f, -0.051331270486116409302f, -0.050491154193878173828f, -0.020942699164152145386f, 0.050491653382778167725f, 0.046583551913499832153f, 0.0051236106082797050476f, -0.018171958625316619873f, -0.0030698857735842466354f, 0.037429563701152801514f, -0.019650379195809364319f, 0.017388613894581794739f, 0.0072231772355735301971f, 0.035326223820447921753f, -0.014375492930412292480f, -0.0033050698693841695786f, -0.048963371664285659790f, 0.018229316920042037964f, 0.046836514025926589966f, -0.0068290838971734046936f, -0.031287096440792083740f, 0.028286416083574295044f, 0.0046685421839356422424f, -0.041067328304052352905f, -0.051561813801527023315f, 0.012675947509706020355f, -0.0053627467714250087738f, 0.00079964369069784879684f, 0.027661735191941261292f, -0.028944903984665870667f, 0.037773970514535903931f, 0.035361506044864654541f, -0.045831982046365737915f, -0.044355940073728561401f, 0.011157060973346233368f, 0.00089659320656210184097f, -0.0068046501837670803070f, 0.0049993563443422317505f, -0.023742290213704109192f, 0.030946034938097000122f, -0.0062915617600083351135f, -0.033394947648048400879f, -0.046789377927780151367f, -0.0030922084115445613861f, 0.032999966293573379517f, -0.043049089610576629639f, -0.015054017305374145508f, -0.044810466468334197998f, -0.016998466104269027710f, 0.0064157773740589618683f, 0.030818317085504531860f, 0.035293180495500564575f, 0.018815841525793075562f, 0.00071757577825337648392f, 0.0045246691443026065826f, -0.0075102346017956733704f, 0.042172979563474655151f, 0.0039287279359996318817f, 0.047550633549690246582f, 0.043526459485292434692f, -0.0045261946506798267365f, -0.028458083048462867737f, -0.015310043469071388245f, -0.011799333617091178894f, 0.022121690213680267334f, -0.047686383128166198730f, 0.034743349999189376831f, -0.0052210427820682525635f, 0.0070601035840809345245f, -0.014724580571055412292f, 0.036894101649522781372f},
  {-0.053833428770303726196f, -0.012492938898503780365f, 0.033279743045568466187f, -0.029313288629055023193f, 0.024667970836162567139f, 0.050798885524272918701f, 0.043127115815877914429f, 0.021926600486040115356f, -0.048213470727205276489f, -0.036172501742839813232f, -0.023641645908355712891f, -0.021586220711469650269f, 0.049293696880340576172f, -0.011197985149919986725f, -0.024300504475831985474f, -0.052750390022993087769f, 0.0017612989759072661400f, 0.041712656617164611816f, 0.039033781737089157104f, -0.018248330801725387573f, -0.042972229421138763428f, -0.028181852772831916809f, -0.010750995017588138580f, -0.017419682815670967102f, 0.0031545669771730899811f, 0.0070692501030862331390f, -0.015829619020223617554f, -0.049333442002534866333f, 0.051810149103403091431f, -0.020975211635231971741f, 0.030536325648427009583f, -0.0087286885827779769897f, -0.042178254574537277222f, -0.012693667784333229065f, 0.016284797340631484985f, 0.035853177309036254883f, -0.020291216671466827393f, -0.0011144560994580388069f, -0.036300305277109146118f, 0.0064401272684335708618f, -0.0096992393955588340759f, 0.013996004126965999603f, 0.026477994397282600403f, -0.033734969794750213623f, -0.012539695017039775848f, 0.011008688248693943024f, -0.030498253181576728821f, 0.046502616256475448608f, 0.025962190702557563782f, -0.023441515862941741943f, -0.0036336181219667196274f, 0.035063210874795913696f, -0.033092711120843887329f, 0.046551823616027832031f, -0.051759202033281326294f, 0.0094409920275211334229f, 0.036021325737237930298f, -0.034934449940919876099f, -0.039143577218055725098f, -0.0048906663432717323303f, -0.022079665213823318481f, -0.044104192405939102173f, 0.044479910284280776978f, -0.030455403029918670654f, -0.021563204005360603333f, 0.026599738746881484985f, 0.027100507169961929321f, 0.043146431446075439453f, -0.016434958204627037048f, -0.020141839981079101562f, -0.048546619713306427002f, 0.031289767473936080933f, 0.019781596958637237549f, 0.025072574615478515625f, -0.0072494773194193840027f, 0.037589766085147857666f, 0.044494237750768661499f, -0.037594188004732131958f, -0.022989008575677871704f, 0.050595715641975402832f, 0.021636318415403366089f, -0.023145349696278572083f, 0.030721342191100120544f, -0.039499625563621520996f, -0.0099227530881762504578f, 0.024855438619852066040f, -0.027009511366486549377f, 0.052783023566007614136f, -0.031420812010765075684f, 0.040343496948480606079f, 0.0030055125243961811066f, 0.033446528017520904541f, 0.048847407102584838867f, 0.028501633554697036743f, -0.0023529150057584047318f, -0.042497701942920684814f, 0.046280238777399063110f, -0.028276227414608001709f, 0.020351346582174301147f, 0.031494330614805221558f, -0.010414356365799903870f, -0.0035374604631215333939f, 0.010731427930295467377f, -0.020898653194308280945f, -0.034991193562746047974f, 0.032465204596519470215f, 0.051004845649003982544f, 0.047471377998590469360f, 0.044009786099195480347f, 0.037564232945442199707f, -0.011823335662484169006f, 0.029108691960573196411f, -0.027938751503825187683f, 0.00082604057388380169868f, -0.0010092417942360043526f, -0.028095878660678863525f, -0.0064581115730106830597f, 0.013304136693477630615f, 0.050010003149509429932f, 0.038752987980842590332f, 0.027038650587201118469f, 0.050506968051195144653f, 0.031828820705413818359f, -0.032415397465229034424f, -0.022674873471260070801f, 0.039059456437826156616f, 0.023672251030802726746f, 0.022656792774796485901f, 0.016835642978549003601f, -0.035999201238155364990f, 0.035446707159280776978f, -0.029349559918045997620f, 0.020505776628851890564f, -0.0045121242292225360870f, -0.0046192565932869911194f, 0.015537458471953868866f, 0.028615873306989669800f, -0.038156613707542419434f, 0.0099652288481593132019f, 0.024169750511646270752f, -0.019813548773527145386f, 0.046497277915477752686f, 0.017627060413360595703f, 0.033171076327562332153f, 0.046298101544380187988f, -0.016003938391804695129f, -0.042786937206983566284f, 0.012908253818750381470f, 0.052967742085456848145f, 0.033738780766725540161f, -0.051035124808549880981f, 0.00011287390952929854393f, 0.052172102034091949463f, 0.036700356751680374146f, -0.011174716986715793610f, 0.051112338900566101074f, 0.045969475060701370239f, -0.016176441684365272522f, -0.015200535766780376434f, -0.0063998079858720302582f, 0.024420253932476043701f, -0.035100765526294708252f, -0.034440148621797561646f, 0.015283073298633098602f, 0.00021036411635577678680f, 0.027571653947234153748f, -0.031096993014216423035f, 0.016356483101844787598f, 0.036875769495964050293f, 0.024124145507812500000f, 0.024200027808547019958f, 0.0091274548321962356567f, -0.053123999387025833130f, -0.035582482814788818359f, -0.012471002526581287384f, 0.017787771299481391907f, -0.051021911203861236572f, 0.0065981545485556125641f, -0.010512168519198894501f, 0.016714220866560935974f, 0.012962212786078453064f, -0.0072515821084380149841f, 0.0093679483979940414429f, -0.034289922565221786499f, -0.050837762653827667236f, -0.024561211466789245605f, -0.023152263835072517395f, 0.023307355120778083801f, 0.039375428110361099243f, -0.027091393247246742249f, -0.048860866576433181763f, -0.028052687644958496094f, -0.033041752874851226807f, 0.011009415611624717712f, -0.019197292625904083252f, 0.010026062838733196259f, -0.013969671912491321564f, 0.021801246330142021179f, -0.032667607069015502930f, -0.046053837984800338745f, 0.050951533019542694092f, 0.043786000460386276245f, -0.045082718133926391602f, 0.0080115562304854393005f, 0.012300166301429271698f, -0.042554344981908798218f, -0.0069614676758646965027f, 0.040633603930473327637f, -0.030983630567789077759f, -0.0052064247429370880127f, -0.00076739583164453506470f, -0.051362521946430206299f, 0.053102456033229827881f, 0.027367288246750831604f, -0.025212701410055160522f, -0.037760622799396514893f, 0.050908688455820083618f, -0.044219288975000381470f, 0.020759440958499908447f, 0.0079309558495879173279f, -0.048963878303766250610f, 0.0048617399297654628754f, -0.0086328331381082534790f, -0.026392012834548950195f, -0.0055232327431440353394f, -0.011796546168625354767f, -0.026464432477951049805f, -0.018639579415321350098f, -0.051904425024986267090f, -0.045269742608070373535f, 0.027698861435055732727f, -0.037941552698612213135f, -0.051361329853534698486f, 0.0079817678779363632202f, -0.028909007087349891663f, -0.023779151961207389832f, 0.014746612869203090668f, 0.040426343679428100586f, -0.019378723576664924622f, 0.0014595788670703768730f, -0.019656429067254066467f, 0.035465437918901443481f, 0.0044158119708299636841f, -0.035972669720649719238f, 0.051509346812963485718f, 0.00056959612993523478508f, -0.047231789678335189819f, -0.039931416511535644531f, -0.043260380625724792480f, 0.036190968006849288940f, -0.018540505319833755493f, 0.049551676958799362183f, -0.013573300093412399292f, 0.022813737392425537109f, -0.041558761149644851685f, 0.012479286640882492065f, 0.036221079528331756592f, 0.0013725546887144446373f, -0.030134830623865127563f, -0.012674422003328800201f, -0.051709935069084167480f, -0.019880020990967750549f, -0.0065402113832533359528f, 0.046398892998695373535f, 0.033901616930961608887f, -0.010518437251448631287f, 0.035508345812559127808f, 0.048711843788623809814f, -0.026093762367963790894f, -0.033142484724521636963f, -0.028387235477566719055f, -0.029273200780153274536f, -0.025122169405221939087f, 0.026094147935509681702f, -0.018137516453862190247f, -0.015951575711369514465f, -0.0069512459449470043182f, -0.041455175727605819702f, 0.021581772714853286743f, 0.042113304138183593750f, 0.012304247356951236725f, 0.016533562913537025452f, -0.00036077684490010142326f, 0.045389980077743530273f, 0.051448944956064224243f, -0.015958791598677635193f, -0.0086410334333777427673f, -0.021201886236667633057f, 0.0029168662149459123611f, -0.050871498882770538330f, 0.0027301120571792125702f, -0.0056773466058075428009f, 0.052416123449802398682f, 0.0057592275552451610565f, 0.031867891550064086914f, -0.029028760269284248352f, -0.010119381360709667206f, 0.047333169728517532349f, 0.030293719843029975891f, -0.040726464241743087769f, -0.047327283769845962524f, -0.028930949047207832336f, -0.021302755922079086304f, 0.050408169627189636230f, 0.052107013761997222900f, 0.053905233740806579590f, 0.026917807757854461670f, -0.022353025153279304504f, -0.043659757822751998901f, -0.0077622695825994014740f, 0.033526286482810974121f, 0.020637059584259986877f, -0.047697782516479492188f, 0.040287651121616363525f, 0.028882339596748352051f, 0.022142145782709121704f, 0.014546251855790615082f, -0.036840084940195083618f, 0.052641235291957855225f, 0.037227947264909744263f, -0.0046017616987228393555f, 0.034108337014913558960f, -0.033646188676357269287f, -0.011946689337491989136f, -0.014620177447795867920f, -0.0053120767697691917419f, 0.0073511516675353050232f, 0.012369386851787567139f, -0.0061608389951288700104f, 0.011766364797949790955f, -0.00059913413133472204208f, -0.028091205283999443054f, -0.041516177356243133545f, -0.039081282913684844971f, -0.020481001585721969604f, -0.036927353590726852417f, -0.037446975708007812500f, -0.025446096435189247131f, -0.012316644191741943359f, 0.026403142139315605164f, -0.041318334639072418213f, -0.0082253320142626762390f, 0.041573967784643173218f},
  {0.017899191007018089294f, 0.017561463639140129089f, 0.042084686458110809326f, 0.011697363108396530151f, -0.023261584341526031494f, -0.018801776692271232605f, -0.037469305098056793213f, -0.043198499828577041626f, 0.029440136626362800598f, -0.016884800046682357788f, -0.038533341139554977417f, 0.00097006163559854030609f, 0.016881568357348442078f, -0.028995547443628311157f, -0.0031879090238362550735f, 0.042845014482736587524f, 0.033000130206346511841f, -0.047146573662757873535f, 0.012971365824341773987f, -0.045761585235595703125f, -0.048902008682489395142f, 0.011737573891878128052f, -0.039712674915790557861f, -0.043677795678377151489f, -0.0071353353559970855713f, -0.026833333075046539307f, -0.051958758383989334106f, -0.038764432072639465332f, -0.0038843210786581039429f, 0.053768493235111236572f, -0.021004594862461090088f, -0.014817301183938980103f, 0.027009492740035057068f, 0.023263560608029365540f, 0.0071024890057742595673f, 0.047647181898355484009f, -0.048860087990760803223f, -0.039952047169208526611f, 0.043666630983352661133f, -0.0089952452108263969421f, -0.023791974410414695740f, 0.015836339443922042847f, -0.046947527676820755005f, 0.044122055172920227051f, 0.0079610282555222511292f, -0.0042660301551222801208f, -0.012760203331708908081f, -0.00064868381014093756676f, -0.031183721497654914856f, 0.042723935097455978394f, -0.046446751803159713745f, -0.048094179481267929077f, -0.040177311748266220093f, -0.046302020549774169922f, 0.016128057613968849182f, 0.0019942431244999170303f, 0.014879833906888961792f, 0.051184847950935363770f, -0.0093731433153152465820f, -0.016376456245779991150f, -0.031556006520986557007f, -0.053974468261003494263f, -0.044959772378206253052f, -0.053203068673610687256f, -0.0083500044420361518860f, 0.010125721804797649384f, -0.037922423332929611206f, 0.051244575530290603638f, 0.0044229952618479728699f, -0.027290003374218940735f, 0.028372468426823616028f, -0.011009956710040569305f, 0.034458622336387634277f, 0.0090768812224268913269f, 0.052734375000000000000f, -0.026195069774985313416f, 0.043353177607059478760f, -0.0098918834701180458069f, 0.0016012440901249647141f, -0.0071159033104777336121f, -0.015101403929293155670f, 0.0028802608139812946320f, 0.051000732928514480591f, 0.032607648521661758423f, -0.028189687058329582214f, -0.045095205307006835938f, -0.048859238624572753906f, -0.044914502650499343872f, -0.022910274565219879150f, 0.0085438136011362075806f, 0.0053883902728557586670f, -0.035231195390224456787f, 0.027216836810111999512f, -0.046548411250114440918f, -0.018874615430831909180f, -0.022396730259060859680f, 0.0011627248022705316544f, -0.037438493221998214722f, 0.0026886081323027610779f, -0.033654067665338516235f, -0.019873222336173057556f, 0.032946828752756118774f, 0.0087052006274461746216f, -0.042575605213642120361f, -0.040229436010122299194f, 0.0087212277576327323914f, 0.0022636058274656534195f, -0.053879283368587493896f, 0.016832785680890083313f, 0.036978028714656829834f, 0.032942228019237518311f, -0.050320263952016830444f, 0.011787007562816143036f, -0.012152818031609058380f, -0.012312248349189758301f, 0.037437133491039276123f, 0.051920782774686813354f, -0.011861975304782390594f, 0.014158704318106174469f, -0.033502530306577682495f, -0.052562281489372253418f, -0.028810486197471618652f, -0.035714242607355117798f, -0.051753550767898559570f, 0.028136732056736946106f, -0.033492717891931533813f, -0.0032632055226713418961f, -0.011054588481783866882f, -0.010289690457284450531f, -0.011752680875360965729f, -0.0024689815472811460495f, 0.052178308367729187012f, 0.013378281146287918091f, 0.038882087916135787964f, 0.0013058705953881144524f, -0.016526713967323303223f, 0.042210362851619720459f, 0.019092742353677749634f, 0.042246393859386444092f, 0.015311806462705135345f, -0.033472470939159393311f, 0.044115625321865081787f, 0.047821868211030960083f, -0.015423811972141265869f, 0.030638739466667175293f, 0.048390183597803115845f, -0.052979290485382080078f, -0.030375491827726364136f, -0.033843725919723510742f, 0.020325260236859321594f, -0.013942020013928413391f, -0.037566278129816055298f, 0.030656717717647552490f, -0.014581447467207908630f, -0.0061767310835421085358f, -0.027179948985576629639f, 0.049207154661417007446f, -0.052378352731466293335f, 0.051867648959159851074f, -0.029190385714173316956f, -0.0056013935245573520660f, -0.017891377210617065430f, -0.028432762250304222107f, -0.029971666634082794189f, -0.039933040738105773926f, 0.028355173766613006592f, -0.0083266841247677803040f, -0.044604029506444931030f, -0.048384640365839004517f, 0.042860444635152816772f, 0.027921777218580245972f, -0.017163831740617752075f, -0.052264615893363952637f, 0.031830273568630218506f, 0.036717124283313751221f, 0.014008414000272750854f, -0.0048948116600513458252f, 0.044594381004571914673f, 0.049466669559478759766f, 0.050470046699047088623f, -0.034903708845376968384f, 0.00039865678991191089153f, 0.021544583141803741455f, 0.034920822829008102417f, 0.028150223195552825928f, -0.038978189229965209961f, 0.051357474178075790405f, -0.034325383603572845459f, 0.021016696467995643616f, 0.038864832371473312378f, 0.0025945487432181835175f, -0.038789052516222000122f, -0.014429953880608081818f, 0.019752006977796554565f, -0.047896288335323333740f, 0.013126039877533912659f, -0.026107208803296089172f, 0.026629140600562095642f, 0.029379682615399360657f, 0.046287689357995986938f, 0.0015352615155279636383f, -0.042723592370748519897f, 0.026585359126329421997f, -0.034543544054031372070f, -0.039044551551342010498f, -0.0035943286493420600891f, -0.049730401486158370972f, -0.032517857849597930908f, -0.034935072064399719238f, 0.053804744035005569458f, -0.023918151855468750000f, -0.041175033897161483765f, -0.00028100042254664003849f, 0.0010079223429784178734f, 0.011236078105866909027f, 0.025644551962614059448f, -0.021692549809813499451f, 0.043072577565908432007f, -0.047268297523260116577f, -0.041761465370655059814f, -0.045569032430648803711f, -0.0091120582073926925659f, -0.0012683188542723655701f, 0.019888728857040405273f, 0.012643783353269100189f, -0.019690884277224540710f, 0.051596242934465408325f, -0.015346706844866275787f, -0.049459293484687805176f, -0.035010214895009994507f, 0.017731733620166778564f, -0.023810306563973426819f, -0.031901381909847259521f, 0.040107846260070800781f, 0.0012873779051005840302f, -0.019698048010468482971f, 0.016659194603562355042f, 0.042995497584342956543f, 0.024660317227244377136f, 0.043356351554393768311f, -0.039037398993968963623f, 0.046278819441795349121f, 0.031257003545761108398f, 0.033548191189765930176f, -0.034432914108037948608f, -0.028289744630455970764f, -0.051464814692735671997f, -0.027076305821537971497f, 0.047225747257471084595f, 0.0081542581319808959961f, -0.038012485951185226440f, 0.029209684580564498901f, -0.033941987901926040649f, -0.043736543506383895874f, -0.017846500501036643982f, -0.041819859296083450317f, -0.041003860533237457275f, 0.047095268964767456055f, 0.021171486005187034607f, 0.039673272520303726196f, 0.033632487058639526367f, -0.0099489185959100723267f, -0.0051391101442277431488f, 0.024626273661851882935f, 0.046329468488693237305f, -0.029642151668667793274f, -0.023077275604009628296f, -0.052207227796316146851f, -0.013173941522836685181f, -0.022890798747539520264f, -0.015792157500982284546f, -0.0039255996234714984894f, 0.041524577885866165161f, -0.033513721078634262085f, 0.047459997236728668213f, -0.027896270155906677246f, -0.033118031919002532959f, 0.034648835659027099609f, -0.023738080635666847229f, 0.024082140997052192688f, 0.046268288046121597290f, 0.033320900052785873413f, 0.038160867989063262939f, 0.016868283972144126892f, 0.038709707558155059814f, 0.020590888336300849915f, -0.011877114884555339813f, 0.011167983524501323700f, 0.0097488276660442352295f, -0.0047719352878630161285f, -0.032529488205909729004f, 0.051769655197858810425f, 0.050465051084756851196f, -0.021453991532325744629f, -0.0019125356338918209076f, 0.048289719969034194946f, 0.016480104997754096985f, -0.045924015343189239502f, -0.0028841872699558734894f, -0.030026692897081375122f, 0.033199515193700790405f, -0.012868514284491539001f, -0.042898863554000854492f, 0.049685135483741760254f, 0.035792604088783264160f, 0.038242962211370468140f, -0.017351312562823295593f, 0.0069831847213208675385f, 0.052371770143508911133f, 0.0048188394866883754730f, 0.019012624397873878479f, -0.043963197618722915649f, 0.050225567072629928589f, 0.038560532033443450928f, -0.026458974927663803101f, -0.029085339978337287903f, -0.014735451899468898773f, -0.049498699605464935303f, 0.017874319106340408325f, -0.020287932828068733215f, -0.036122638732194900513f, 0.0093443263322114944458f, -0.016397690400481224060f, -0.013577979989349842072f, 0.038032844662666320801f, -0.034114368259906768799f, 0.0088282125070691108704f, -0.0094535825774073600769f, -0.023708000779151916504f, -0.0047050705179572105408f, 0.0031336799729615449905f, 0.038767438381910324097f, 0.036081641912460327148f, -0.026529211550951004028f, -0.042081538587808609009f, 0.039693929255008697510f, -0.047608003020286560059f, 0.0014797321055084466934f, 0.011693437583744525909f, 0.029708463698625564575f, 0.010726612992584705353f, 0.053927693516016006470f, -0.035238042473793029785f},
  {-0.0024923919700086116791f, 0.029992887750267982483f, -0.017289083451032638550f, -0.012196335941553115845f, -0.039475440979003906250f, -0.032631162554025650024f, 0.018196566030383110046f, 0.038104176521301269531f, -0.0017699177842587232590f, -0.049320403486490249634f, 0.0075598806142807006836f, -0.018601801246404647827f, -0.00027239456539973616600f, -0.0025224382989108562469f, 0.032840069383382797241f, -0.0048646428622305393219f, 0.018421014770865440369f, -0.030057203024625778198f, -0.00054094643564894795418f, -0.048436559736728668213f, -0.034917410463094711304f, -0.0069795418530702590942f, 0.048061557114124298096f, 0.027583260089159011841f, 0.022241432219743728638f, -0.0089649604633450508118f, 0.049144119024276733398f, 0.037990894168615341187f, 0.018297996371984481812f, -0.0028048097155988216400f, -0.036895729601383209229f, 0.050957303494215011597f, -0.052423186600208282471f, -0.028606604784727096558f, 0.0086596999317407608032f, 0.037082035094499588013f, -0.044103272259235382080f, 0.00060405180556699633598f, 0.011291787028312683105f, 0.052271995693445205688f, -0.012743185274302959442f, -0.022729776799678802490f, -0.0048276125453412532806f, 0.0016610281309112906456f, 0.032799705862998962402f, 0.028441218659281730652f, -0.052139159291982650757f, 0.014619907364249229431f, -0.050275761634111404419f, 0.050177179276943206787f, -0.036921642720699310303f, 0.040936019271612167358f, 0.0094124199822545051575f, 0.040892712771892547607f, -0.024963317438960075378f, 0.045307576656341552734f, -0.032609172165393829346f, 0.051555447280406951904f, -0.00067037547705695033073f, 0.021946605294942855835f, -0.040959589183330535889f, -0.017281262204051017761f, -0.027629770338535308838f, 0.0052712489850819110870f, 0.042905744165182113647f, 0.044580880552530288696f, -0.00019012714619748294353f, 0.025756370276212692261f, 0.012793520465493202209f, -0.018089601770043373108f, 0.031339745968580245972f, 0.0075705205090343952179f, 0.012959393672645092010f, 0.028774576261639595032f, -0.025850268080830574036f, 0.026354139670729637146f, -0.012865830212831497192f, -0.022019777446985244751f, -0.048938769847154617310f, 0.041830692440271377563f, -0.0070974943228065967560f, -0.033120568841695785522f, 0.0076411762274801731110f, -0.051652770489454269409f, -0.048296742141246795654f, 0.034235995262861251831f, 0.042223293334245681763f, -0.042030043900012969971f, -0.018264448270201683044f, -0.017002101987600326538f, -0.045885067433118820190f, 0.0041653085500001907349f, -0.038009800016880035400f, 0.027244308963418006897f, -0.028081305325031280518f, -0.019183337688446044922f, 0.014544153586030006409f, -0.022533072158694267273f, -0.0083612753078341484070f, 0.024198934435844421387f, -0.0052621089853346347809f, 0.042149163782596588135f, -0.042314149439334869385f, 0.016746809706091880798f, -0.039349861443042755127f, 0.031087666749954223633f, 0.044077228754758834839f, -0.047839805483818054199f, 0.026056172326207160950f, 0.026873046532273292542f, -0.025918805971741676331f, 0.0056099994108080863953f, -0.025616295635700225830f, -0.031082602217793464661f, 0.0030128438957035541534f, 0.020566642284393310547f, 0.043324843049049377441f, -0.033569637686014175415f, -0.018489269539713859558f, -0.050779130309820175171f, 0.050502959638833999634f, -0.028416818007826805115f, -0.011790907941758632660f, 0.028623294085264205933f, -0.00045125104952603578568f, -0.039176393300294876099f, 0.052321195602416992188f, 0.041807089000940322876f, -0.025535294786095619202f, 0.010879279114305973053f, -0.026759864762425422668f, 0.0020689666271209716797f, 0.019868047907948493958f, 0.011256996542215347290f, 0.037734348326921463013f, 0.026478618383407592773f, -0.045529734343290328979f, 0.012576731853187084198f, 0.034879460930824279785f, -0.051196858286857604980f, -0.0082788271829485893250f, -0.0057338154874742031097f, 0.0025695099029690027237f, 0.019205126911401748657f, -0.031511563807725906372f, -0.014490716159343719482f, -0.040442761033773422241f, -0.047047834843397140503f, -0.015425742603838443756f, 0.047376550734043121338f, -0.051114842295646667480f, -0.017267312854528427124f, -0.022549401968717575073f, 0.043126091361045837402f, 0.0053338459692895412445f, -0.0087270149961113929749f, -0.011924604885280132294f, -0.028450578451156616211f, 0.029430506750941276550f, -0.027200635522603988647f, -0.024143101647496223450f, -0.040658101439476013184f, 0.0060674939304590225220f, -0.00077604030957445502281f, 0.00045484272413887083530f, -0.041895136237144470215f, 0.030127955600619316101f, 0.043375030159950256348f, -0.027187762781977653503f, -0.037956297397613525391f, -0.042072016745805740356f, -0.015672132372856140137f, -0.00062211317708715796471f, -0.023034973070025444031f, -0.031606439501047134399f, -0.013878894969820976257f, 0.038205571472644805908f, 0.051130715757608413696f, -0.0024977407883852720261f, -0.0033442692365497350693f, -0.048915352672338485718f, 0.053578745573759078979f, -0.031607843935489654541f, 0.047104459255933761597f, 0.018198806792497634888f, -0.014309574849903583527f, 0.051545348018407821655f, -0.044230319559574127197f, 0.010087610222399234772f, -0.020612845197319984436f, 0.020328413695096969604f, -0.023337209597229957581f, -0.016288157552480697632f, -0.027136320248246192932f, -0.035561975091695785522f, -0.0059482990764081478119f, -0.025437638163566589355f, 0.00089049764210358262062f, 0.036285590380430221558f, 0.046960495412349700928f, 0.00050636206287890672684f, -0.014169408939778804779f, 0.023495608940720558167f, 0.015307957306504249573f, -0.013198935426771640778f, -0.011127728968858718872f, 0.014564525336027145386f, -0.020186625421047210693f, 0.032983943819999694824f, 0.010520079173147678375f, 0.030178252607583999634f, 0.011091046035289764404f, 0.0083235111087560653687f, 0.016815006732940673828f, 0.044557001441717147827f, -0.0050708553753793239594f, -0.033848863095045089722f, -0.051702756434679031372f, 0.034782517701387405396f, -0.015926131978631019592f, 0.033686406910419464111f, 0.033717282116413116455f, -0.051844287663698196411f, -0.050544984638690948486f, 0.042799852788448333740f, 0.040020175278186798096f, 0.026381392031908035278f, -0.046578042209148406982f, 0.043210901319980621338f, 0.019750418141484260559f, -0.0055387001484632492065f, 0.036959704011678695679f, 0.025511691346764564514f, 0.044584177434444427490f, 0.050328750163316726685f, 0.011752674356102943420f, -0.0067908950150012969971f, 0.00029720802558586001396f, -0.026980191469192504883f, 0.020485488697886466980f, 0.020370593294501304626f, -0.013918248936533927917f, 0.026681523770093917847f, 0.0021101678721606731415f, -0.025383105501532554626f, -0.012207549065351486206f, -0.020811565220355987549f, -0.041916631162166595459f, 0.020011741667985916138f, 0.049608610570430755615f, 0.053905613720417022705f, -0.026723477989435195923f, -0.0035546850413084030151f, 0.036796696484088897705f, 0.031038818880915641785f, -0.036819126456975936890f, 0.035355299711227416992f, -0.017298826947808265686f, 0.00054552935762330889702f, 0.032389070838689804077f, -0.035932332277297973633f, 0.039718400686979293823f, -0.0081728408113121986389f, 0.034405827522277832031f, 0.045277912169694900513f, 0.00030009166221134364605f, -0.014991150237619876862f, -0.0064447489567101001740f, -0.034014020115137100220f, 0.025025580078363418579f, -1.6381392924813553691e-05f, -0.034488148987293243408f, -0.030209245160222053528f, -0.045084882527589797974f, -0.023175157606601715088f, -0.037098523229360580444f, 0.0053069144487380981445f, -0.012622606009244918823f, -0.0066298940218985080719f, 0.0070323678664863109589f, 0.028443330898880958557f, 0.0054136095568537712097f, 0.053404789417982101440f, 0.0055365050211548805237f, -0.025113092735409736633f, -0.035178709775209426880f, 0.030843632295727729797f, 0.043771523982286453247f, 0.014732168987393379211f, 0.030664730817079544067f, 0.030406266450881958008f, 0.018709231168031692505f, -0.027774486690759658813f, -0.015397369861602783203f, 0.043860659003257751465f, 0.020991090685129165649f, 0.026954265311360359192f, -0.031441755592823028564f, 0.021488621830940246582f, -0.042433019727468490601f, 0.038230545818805694580f, -0.0071914377622306346893f, 0.035546410828828811646f, 0.00014533416833728551865f, -0.045883603394031524658f, -0.019529845565557479858f, 0.046910256147384643555f, -0.0076862652786076068878f, 0.031400188803672790527f, -0.011156198568642139435f, 0.019298471510410308838f, 0.034592982381582260132f, -0.038657266646623611450f, -0.038514673709869384766f, -0.0085365660488605499268f, 0.024196418002247810364f, -0.031258825212717056274f, 0.028019100427627563477f, 0.027296215295791625977f, -0.051944579929113388062f, 0.0063216919079422950745f, -0.020272973924875259399f, 0.014821420423686504364f, -0.019622307270765304565f, 0.028288714587688446045f, -0.0033101290464401245117f, -0.048058185726404190063f, -0.049187682569026947021f, -0.050541069358587265015f, 0.043992027640342712402f, -0.013897780328989028931f, -0.030813347548246383667f, 0.035952933132648468018f, 0.022830208763480186462f, -0.050668869167566299438f, 0.041347768157720565796f, -0.030104892328381538391f, -0.026905868202447891235f, -0.025930868461728096008f, 0.053859379142522811890f, 0.023161962628364562988f, 0.052921809256076812744f, -0.0077974013984203338623f},
  {-0.030058497563004493713f, 0.015651671215891838074f, -0.020071048289537429810f, -0.0037804841995239257812f, -0.023288946598768234253f, 0.014485173858702182770f, 0.030497480183839797974f, 0.018918095156550407410f, -0.030019948258996009827f, 0.052838448435068130493f, -0.043923120945692062378f, 0.020034965127706527710f, -0.029631936922669410706f, -0.030665226280689239502f, 0.016179267317056655884f, 0.052830494940280914307f, 0.023673616349697113037f, 0.0026634149253368377686f, 0.035626344382762908936f, 1.1405826626287307590e-05f, -0.019616598263382911682f, -0.015245881862938404083f, -0.010927476920187473297f, 0.046216201037168502808f, 0.0029204771853983402252f, 0.051413185894489288330f, 0.049457430839538574219f, 0.026909407228231430054f, -0.046372033655643463135f, 0.038792721927165985107f, 0.026460500434041023254f, -0.019379412755370140076f, -0.010624533519148826599f, -0.053387694060802459717f, -0.013242795132100582123f, -0.038340814411640167236f, -0.049949873238801956177f, 0.047816596925258636475f, -0.038095325231552124023f, 0.0018511102534830570221f, -0.046817570924758911133f, 0.039981309324502944946f, 0.035732515156269073486f, -0.010571012273430824280f, -0.033687353134155273438f, -0.024660728871822357178f, -0.021966462954878807068f, 0.020116401836276054382f, 0.028596993535757064819f, -0.029970005154609680176f, 0.031874146312475204468f, -0.032072808593511581421f, -0.023020246997475624084f, 0.033204495906829833984f, -0.045009836554527282715f, -0.052682004868984222412f, 0.022622980177402496338f, 0.010758410207927227020f, -0.036116529256105422974f, 0.013886297121644020081f, 0.018712578341364860535f, -0.030585417523980140686f, -0.039757035672664642334f, 0.043792240321636199951f, -0.046190913766622543335f, -0.031829748302698135376f, 0.0038665751926600933075f, 0.0029194280505180358887f, -0.040806770324707031250f, 0.0093167768791317939758f, -0.030665265396237373352f, -0.034456275403499603271f, -0.040540523827075958252f, 0.022267738357186317444f, -0.053640164434909820557f, 0.030559837818145751953f, 0.030548214912414550781f, 0.0028922073543071746826f, 0.018750669434666633606f, 0.030969740822911262512f, -0.053714677691459655762f, -0.0067750802263617515564f, -0.050112210214138031006f, 0.046715624630451202393f, -0.040474005043506622314f, -0.023586245253682136536f, -0.0084614753723144531250f, 0.019304353743791580200f, -0.0046795620582997798920f, 0.0014809294370934367180f, 0.0091746421530842781067f, 0.029085673391819000244f, 0.0046094022691249847412f, 0.048964638262987136841f, -0.013880265876650810242f, -0.035784061998128890991f, -0.0028419559821486473083f, -0.040751080960035324097f, -0.044908542186021804810f, -0.045491628348827362061f, 0.0097536100074648857117f, 0.040352411568164825439f, 0.023349618539214134216f, 0.0039103832095861434937f, 0.0049305032007396221161f, -0.050219062715768814087f, 0.047541428357362747192f, 0.051218699663877487183f, 0.034495338797569274902f, -0.051718652248382568359f, 0.032147992402315139771f, -0.034661676734685897827f, -0.032608084380626678467f, 0.047042224556207656860f, -0.031052291393280029297f, -0.015494390390813350677f, 0.026454558596014976501f, 0.011617181822657585144f, 0.035558093339204788208f, 0.050560895353555679321f, 0.051915619522333145142f, -0.017220582813024520874f, 0.038518313318490982056f, 0.023053994402289390564f, -0.0017442224780097603798f, -0.051034707576036453247f, -0.040362488478422164917f, 0.011249923147261142731f, 0.042700652033090591431f, -0.026065118610858917236f, 0.044809918850660324097f, -0.039904698729515075684f, 0.046381458640098571777f, 0.027812018990516662598f, -0.048391014337539672852f, -0.047746088355779647827f, -0.049291964620351791382f, 0.017515357583761215210f, 0.0068777520209550857544f, -0.052512925118207931519f, 0.035594526678323745728f, -0.028024502098560333252f, -0.050402894616127014160f, 0.013723629526793956757f, -0.036917526274919509888f, -0.0055765220895409584045f, 0.0019104436505585908890f, 0.011425052769482135773f, -0.045113954693078994751f, 0.032087281346321105957f, -0.019427044317126274109f, 0.032253757119178771973f, -0.027226608246564865112f, 0.0035314548294991254807f, 0.0045387079007923603058f, -0.050534110516309738159f, 0.031645014882087707520f, 0.014277867041528224945f, 0.028986260294914245605f, 0.017409520223736763000f, -0.028348691761493682861f, 0.034620262682437896729f, -0.020370753481984138489f, -0.0014898828230798244476f, -0.050404701381921768188f, -0.0030436562374234199524f, -0.047341484576463699341f, -0.030891077592968940735f, -0.040512330830097198486f, 0.028795231133699417114f, 0.020411273464560508728f, -0.010420406237244606018f, -0.012742199935019016266f, 0.038646068423986434937f, 0.031792756170034408569f, -0.018185418099164962769f, 0.041111599653959274292f, 0.038825221359729766846f, -0.013027918525040149689f, 0.053964350372552871704f, 0.025671625509858131409f, 0.0076908674091100692749f, -0.00084632902871817350388f, 0.0020583332516252994537f, 0.044186595827341079712f, -0.052533105015754699707f, 0.032979417592287063599f, 0.037374474108219146729f, -0.0034149701241403818130f, -0.049605458974838256836f, -0.023030312731862068176f, -0.039356078952550888062f, -0.039543930441141128540f, 0.0084182983264327049255f, 0.035411287099123001099f, -0.036108773201704025269f, 0.0032962579280138015747f, 0.012466947548091411591f, -0.045543018728494644165f, 0.019425833597779273987f, 0.052544426172971725464f, -0.022076994180679321289f, 0.051848150789737701416f, -0.013720223680138587952f, 0.037149485200643539429f, 0.013372172601521015167f, -0.0066783302463591098785f, 0.027109498158097267151f, 0.017982637509703636169f, 0.019646039232611656189f, -0.010066870599985122681f, -0.032055154442787170410f, 0.026118382811546325684f, -0.016738854348659515381f, -0.016711337491869926453f, -0.0069146919995546340942f, 0.021836970001459121704f, -0.036996651440858840942f, 0.017728438600897789001f, 0.0069500487297773361206f, -0.042578201740980148315f, 0.041425380855798721313f, -0.035605121403932571411f, -0.023365363478660583496f, 0.020486086606979370117f, 0.040482372045516967773f, -0.025100741535425186157f, -0.029583495110273361206f, -0.043087657541036605835f, -0.019129417836666107178f, 0.015487103722989559174f, -0.0071265753358602523804f, 0.032633885741233825684f, 0.014407482929527759552f, -0.0084318732842803001404f, 0.010693663731217384338f, -0.029948770999908447266f, 0.046850346028804779053f, 0.053540613502264022827f, 0.023532813414931297302f, 0.021484334021806716919f, -0.040455166250467300415f, 0.047231212258338928223f, -0.014541392214596271515f, 0.021760147064924240112f, -0.010198816657066345215f, 0.049572173506021499634f, 0.0052495314739644527435f, -0.025759112089872360229f, -0.051611468195915222168f, 0.053297139704227447510f, 0.037327285856008529663f, -0.035557165741920471191f, -0.034818954765796661377f, -0.036830436438322067261f, -0.038756430149078369141f, 0.049104664474725723267f, 0.050574596971273422241f, -0.00055020238505676388741f, -0.033781953155994415283f, -0.0060420497320592403412f, 0.038418363779783248901f, 0.0020286277867853641510f, 0.047724634408950805664f, 0.045717835426330566406f, -0.051483426243066787720f, 0.0062679392285645008087f, -0.029496856033802032471f, -0.053467970341444015503f, -0.024487774819135665894f, -0.027890346944332122803f, -0.044583745300769805908f, -0.017057206481695175171f, -0.025126321241259574890f, -0.051435597240924835205f, 0.017237182706594467163f, 0.011919789947569370270f, -0.034942541271448135376f, -0.016617188230156898499f, -0.015119889751076698303f, -0.029961161315441131592f, -0.050684742629528045654f, 0.031552176922559738159f, 0.032697040587663650513f, 0.044006507843732833862f, 0.0017754983855411410332f, -0.033539239317178726196f, 0.044069252908229827881f, 0.024593986570835113525f, -0.039948552846908569336f, 0.018358686938881874084f, 0.041021350771188735962f, -0.021189939230680465698f, 0.045555744320154190063f, 0.044465117156505584717f, -0.053875200450420379639f, 0.043855059891939163208f, -0.0091384807601571083069f, 0.021599737927317619324f, 0.021751096472144126892f, -0.042133431881666183472f, 0.045107938349246978760f, 0.023347765207290649414f, -0.049335405230522155762f, 0.024313122034072875977f, -0.034855630248785018921f, -0.0070040915161371231079f, 0.049228627234697341919f, 0.017726173624396324158f, -0.042856208980083465576f, -0.028806816786527633667f, -0.016737978905439376831f, -0.022603148594498634338f, -0.052365880459547042847f, -0.0041099982336163520813f, 0.033666104078292846680f, -0.026335692033171653748f, 0.030193680897355079651f, -0.046911545097827911377f, 0.052654705941677093506f, -0.0050469622947275638580f, 0.0043603791855275630951f, -0.0082829017192125320435f, 0.0036204357165843248367f, -0.048805654048919677734f, -0.0062163942493498325348f, 0.037602055817842483521f, 0.035354722291231155396f, -0.021494517102837562561f, 0.024348020553588867188f, -0.030079049989581108093f, -0.029188802465796470642f, 0.019879737868905067444f, 0.028294520452618598938f, 0.010988078080117702484f, 0.044428661465644836426f, -0.033984214067459106445f, 0.046189367771148681641f, -0.048147752881050109863f, -0.028157014399766921997f, -0.021401995792984962463f, 0.015948466956615447998f, -0.035422660410404205322f},
  {-0.035206887871026992798f, 0.019954480230808258057f, 0.025614157319068908691f, -0.0032393641304224729538f, -0.013192499056458473206f, 0.021113144233822822571f, -0.053086295723915100098f, -0.010536325164139270782f, 0.052840664982795715332f, -0.029951211065053939819f, -0.041422415524721145630f, -0.017632994800806045532f, 0.0025457842275500297546f, 0.0016639053355902433395f, -0.032811094075441360474f, 0.045014012604951858521f, -0.021457571536302566528f, -0.0015428890474140644073f, -0.0066741076298058032990f, 0.010840954259037971497f, -0.021079299971461296082f, 0.036531463265419006348f, -0.013211177662014961243f, -0.016804508864879608154f, 0.037162717431783676147f, -0.014943003654479980469f, 0.029204972088336944580f, -0.050183124840259552002f, -0.00088625587522983551025f, -0.0027572491671890020370f, 0.015297266654670238495f, 0.0074221868999302387238f, -0.046204764395952224731f, -0.028968539088964462280f, -0.044390611350536346436f, -0.015768336132168769836f, 0.044712699949741363525f, -0.014573923312127590179f, -0.0084668500348925590515f, -0.024295890703797340393f, -0.0079774288460612297058f, -0.033087916672229766846f, -0.027077373117208480835f, 0.043576397001743316650f, 0.0072088297456502914429f, 5.7846591516863554716e-05f, -0.048080939799547195435f, -0.033383425325155258179f, -0.030042611062526702881f, -0.0087855244055390357971f, 0.021938964724540710449f, 0.040730457752943038940f, -0.019082952290773391724f, -0.027551332488656044006f, -0.029840273782610893250f, -0.048140838742256164551f, -0.039825864136219024658f, 0.039950005710124969482f, -0.026215402409434318542f, 0.0084400670602917671204f, 0.0024532438255846500397f, -0.015803614631295204163f, 0.016414843499660491943f, -0.036625627428293228149f, 0.047367557883262634277f, -0.045351091772317886353f, -0.0036711313296109437943f, 0.0088312570005655288696f, -0.049241095781326293945f, 0.024414068087935447693f, -0.051996927708387374878f, 0.014824303798377513885f, -0.021904869005084037781f, 0.019642725586891174316f, 0.019546683877706527710f, -0.022861234843730926514f, 0.0022402149625122547150f, -0.0032276043202728033066f, -0.053380031138658523560f, 0.048067364841699600220f, -0.043967541307210922241f, 0.019118320196866989136f, -0.034967161715030670166f, 0.0045770318247377872467f, -0.036832194775342941284f, -0.051536317914724349976f, 0.028183462098240852356f, 0.0080244299024343490601f, -0.019416939467191696167f, 0.013556493446230888367f, 0.045032661408185958862f, 0.024202454835176467896f, 0.023258892819285392761f, -0.021641969680786132812f, 0.0015383511781692504883f, -0.018356749787926673889f, -0.028060721233487129211f, 0.00051541201537474989891f, -0.0049170055426657199860f, 0.035090833902359008789f, 0.018704898655414581299f, -0.0098290797322988510132f, -0.025119401514530181885f, 0.0013647341402247548103f, 0.0039589158259332180023f, -0.0053760511800646781921f, 0.015058091841638088226f, 0.015460778027772903442f, 0.0074468846432864665985f, 0.023946680128574371338f, 0.0029944349080324172974f, 0.021848574280738830566f, 0.014816245064139366150f, -0.040792249143123626709f, -0.016452016308903694153f, 0.0013820424210280179977f, -0.040073998272418975830f, 0.023337556049227714539f, -0.053844425827264785767f, 0.053127329796552658081f, 0.027849435806274414062f, -0.0087438598275184631348f, 0.017774203792214393616f, -0.039129745215177536011f, 0.011357538402080535889f, 0.013746138662099838257f, 0.013766149990260601044f, -0.010849779471755027771f, 0.019051173701882362366f, -0.042635783553123474121f, -0.020547576248645782471f, 0.034762538969516754150f, -0.011658453382551670074f, 0.024685529991984367371f, -0.0030189394019544124603f, 0.010754027403891086578f, -0.053120486438274383545f, 0.040049545466899871826f, -0.0042926650494337081909f, 0.0031549981795251369476f, -0.036966603249311447144f, 0.040491167455911636353f, -0.025083137676119804382f, 0.033748958259820938110f, -0.040603362023830413818f, -0.045336961746215820312f, -0.026503343135118484497f, -0.049051638692617416382f, -0.0015970924869179725647f, -0.044560112059116363525f, -0.043214172124862670898f, -0.028644077479839324951f, 0.0029507232829928398132f, 0.0030178322922438383102f, -0.049935992807149887085f, 0.034656088799238204956f, 0.021271150559186935425f, -0.016525529325008392334f, 0.048873178660869598389f, -0.048121832311153411865f, -0.021515436470508575439f, -0.053764134645462036133f, 0.023623565211892127991f, 0.031297020614147186279f, 0.017140002921223640442f, -0.053454127162694931030f, 0.032908510416746139526f, -0.0010363338515162467957f, -0.016790766268968582153f, -0.032263237982988357544f, 0.045077066868543624878f, -0.020567001774907112122f, -0.025335429236292839050f, 0.052258174866437911987f, -0.051184333860874176025f, -0.052006546407938003540f, -0.030793124809861183167f, -0.0044111837632954120636f, 0.0083244508132338523865f, 0.016797538846731185913f, 0.043270375579595565796f, -0.012313676998019218445f, 0.0082903103902935981750f, -0.020982652902603149414f, 0.020620008930563926697f, -0.023200891911983489990f, -0.042582821100950241089f, -0.034842599183320999146f, -0.0039373338222503662109f, -0.025369768962264060974f, -0.038602292537689208984f, -0.037649068981409072876f, -0.049110647290945053101f, 0.020836861804127693176f, 0.024037534371018409729f, -0.035047013312578201294f, 0.046704579144716262817f, 0.00013844047498423606157f, 0.0067319800145924091339f, 0.053933255374431610107f, 0.044098388403654098511f, 0.036740411072969436646f, -0.046293944120407104492f, -0.0035542601253837347031f, -0.0094720749184489250183f, -0.026193067431449890137f, 0.0094935027882456779480f, -0.045290231704711914062f, 0.036472715437412261963f, 0.0047559784725308418274f, -0.020648619160056114197f, -0.022634791210293769836f, -0.019188519567251205444f, 0.027221363037824630737f, -0.0027362010441720485687f, -0.046342063695192337036f, 0.014933508820831775665f, 0.0018860808340832591057f, 0.039191327989101409912f, -0.024311384186148643494f, -0.011127078905701637268f, -0.047643721103668212891f, 0.044680174440145492554f, 0.031422927975654602051f, -0.030426090583205223083f, -0.035829290747642517090f, -0.043850071728229522705f, 0.018473705276846885681f, 0.040163055062294006348f, 0.014118629507720470428f, 0.022817702963948249817f, 0.0094853155314922332764f, -0.037416979670524597168f, -0.049200538545846939087f, -0.035856004804372787476f, 0.050746083259582519531f, 0.040579076856374740601f, -0.0034084431827068328857f, -0.045303221791982650757f, 0.020882535725831985474f, 0.026985110715031623840f, -0.034058526158332824707f, -0.046901267021894454956f, -0.023613162338733673096f, -0.033863790333271026611f, 0.046236753463745117188f, 0.030203960835933685303f, -0.047706034034490585327f, -0.013766941614449024200f, -0.047291066497564315796f, 0.0053510703146457672119f, -0.023998154327273368835f, 0.037733286619186401367f, -0.040393359959125518799f, -0.0082337772473692893982f, 0.051800202578306198120f, -0.024510605260729789734f, 0.015323559753596782684f, -0.034378055483102798462f, 0.049217697232961654663f, 0.037206105887889862061f, -0.025562368333339691162f, 0.012404628098011016846f, -0.021743398159742355347f, 0.025736274197697639465f, 0.024990133941173553467f, 0.019161002710461616516f, -0.047631494700908660889f, 0.036642003804445266724f, 0.021002940833568572998f, 0.029986077919602394104f, -0.037176266312599182129f, 0.042066849768161773682f, -0.021357839927077293396f, -0.0093868728727102279663f, 0.015884678810834884644f, 0.018778476864099502563f, 0.043659977614879608154f, -0.051237925887107849121f, -0.015014836564660072327f, -0.020265553146600723267f, 0.0071236076764762401581f, -0.012225095182657241821f, 0.045178290456533432007f, 0.024726936593651771545f, 0.0083958078175783157349f, 0.0023632845841348171234f, -0.028438489884138107300f, 0.011267939582467079163f, 0.052878394722938537598f, 0.041259359568357467651f, -0.017007078975439071655f, -0.047680310904979705811f, -0.031326636672019958496f, 0.00028156040934845805168f, 0.050527319312095642090f, -0.0011312880087643861771f, 0.016141761094331741333f, 0.028752613812685012817f, -0.048336841166019439697f, 0.022111417725682258606f, 0.045679926872253417969f, -0.023558760061860084534f, -0.032911822199821472168f, -0.019158929586410522461f, -0.017867496237158775330f, 0.039455495774745941162f, -0.032625444233417510986f, -0.013320556841790676117f, -0.010530738160014152527f, 0.046741455793380737305f, 0.043877981603145599365f, -0.032154981046915054321f, -0.032854773104190826416f, -0.026509741321206092834f, -0.030907928943634033203f, -0.026354016736149787903f, -0.031142070889472961426f, -0.033507805317640304565f, -0.034973945468664169312f, 0.030419956892728805542f, -0.037899617105722427368f, 0.029415175318717956543f, 0.0057801790535449981689f, 0.016045454889535903931f, -0.0095169907435774803162f, 0.00068475509760901331902f, -0.046819791197776794434f, -0.010315121151506900787f, 0.022668771445751190186f, 0.035504598170518875122f, 0.048970662057399749756f, -0.045764759182929992676f, -0.035008691251277923584f, 0.0092863375321030616760f, -0.012130539864301681519f, -0.0038956110365688800812f, 0.027543570846319198608f, 0.028025962412357330322f, 0.033024713397026062012f, 0.034216873347759246826f, -0.052174497395753860474f, -0.013413013890385627747f},
  {-0.030268693342804908752f, 0.023327501490712165833f, -0.031270187348127365112f, -0.016998987644910812378f, 0.0090014049783349037170f, -0.039914503693580627441f, 0.0097584184259176254272f, 0.018931772559881210327f, 0.034084822982549667358f, -0.015888728201389312744f, -0.031115885823965072632f, 0.026175418868660926819f, 0.019106496125459671021f, -0.025564704090356826782f, -0.0076506510376930236816f, 0.048923399299383163452f, -0.052601430565118789673f, -0.012044539675116539001f, -0.052968520671129226685f, 0.0062561728991568088531f, 0.039448786526918411255f, -0.035608299076557159424f, -0.049247950315475463867f, 0.048412825912237167358f, -0.050632201135158538818f, 0.015511807985603809357f, 0.017031531780958175659f, -0.048582512885332107544f, -0.038321658968925476074f, 0.014489023014903068542f, -0.0094509115442633628845f, 0.046411730349063873291f, 0.00080316455569118261337f, -0.015399191528558731079f, -0.0081323413178324699402f, 0.020699160173535346985f, 0.0024280250072479248047f, -0.018443509936332702637f, 0.045679721981287002563f, -0.024146571755409240723f, 0.050316590815782546997f, 0.021769486367702484131f, -0.0036827172152698040009f, 0.0060046073049306869507f, 0.037749532610177993774f, 0.040167264640331268311f, 0.013118386268615722656f, 0.0031116085592657327652f, -0.050398137420415878296f, 0.040771245956420898438f, -0.037790905684232711792f, 0.043626610189676284790f, 0.0017010322771966457367f, -0.016347574070096015930f, 0.033419180661439895630f, -0.030682077631354331970f, 0.023507537320256233215f, -0.020682193338871002197f, 0.022123524919152259827f, 0.034134272485971450806f, -0.036641813814640045166f, -0.020760875195264816284f, -0.042144816368818283081f, -0.028990391641855239868f, 0.0070519158616662025452f, 0.037999100983142852783f, -0.034824393689632415771f, -0.0055690105073153972626f, 0.049557581543922424316f, -0.037981640547513961792f, 0.030087713152170181274f, -0.051508992910385131836f, -0.0027454376686364412308f, 0.0043991087004542350769f, 0.0033811065368354320526f, 0.014390754513442516327f, 0.044803783297538757324f, -0.023532344028353691101f, 0.053457479923963546753f, 0.011600542813539505005f, 0.025474725291132926941f, -0.029659453779458999634f, 0.016539502888917922974f, 0.016436999663710594177f, 0.018540345132350921631f, 0.047898471355438232422f, -0.0078737083822488784790f, 0.0061200819909572601318f, 0.013137786649167537689f, -0.043420389294624328613f, 0.0049612191505730152130f, 0.041296165436506271362f, 0.0038582074921578168869f, -0.035034932196140289307f, -0.012390003539621829987f, 0.032824654132127761841f, 0.030560353770852088928f, 0.036406721919775009155f, -0.045761603862047195435f, 0.041548065841197967529f, 0.040881607681512832642f, 0.017485884949564933777f, -0.035065501928329467773f, 0.020924123004078865051f, 0.018645809963345527649f, 0.049182906746864318848f, -0.031805872917175292969f, 0.029411982744932174683f, 0.035747334361076354980f, 0.030043454840779304504f, 0.050639506429433822632f, 0.023696936666965484619f, -0.021257635205984115601f, -0.016128938645124435425f, -0.011748644523322582245f, -0.039103116840124130249f, 0.028638968244194984436f, 0.047940958291292190552f, 0.0082607660442590713501f, -0.025409096851944923401f, 0.017337866127490997314f, -0.045652490109205245972f, 0.042618840932846069336f, 0.015714544802904129028f, -0.031322754919528961182f, 0.0071101295761764049530f, 0.027698444202542304993f, 0.017707204446196556091f, -0.016728162765502929688f, -0.048243258148431777954f, 0.012624215334653854370f, -0.019059168174862861633f, 0.028604865074157714844f, 0.035455074161291122437f, -0.0051726065576076507568f, -0.0068147685378789901733f, -0.027582023292779922485f, -0.053190335631370544434f, 0.0017663389444351196289f, 0.0018735936610028147697f, -0.043900277465581893921f, -0.017472986131906509399f, 0.028683496639132499695f, -0.024062572047114372253f, -0.019618729129433631897f, -0.0086370622739195823669f, 0.017776282504200935364f, 0.038145780563354492188f, 0.016194207593798637390f, 0.027537411078810691833f, -0.0086404094472527503967f, -0.0062378090806305408478f, -0.019033156335353851318f, 0.0041023255325853824615f, -0.0077183716930449008942f, -0.028860673308372497559f, -0.014687813818454742432f, -0.038415029644966125488f, -0.025946665555238723755f, -0.0032174922525882720947f, 0.050247911363840103149f, 0.050801165401935577393f, -0.039948552846908569336f, 0.031857676804065704346f, -0.029127925634384155273f, 0.035198360681533813477f, 0.032258432358503341675f, -0.051019471138715744019f, -0.024308383464813232422f, -0.0094471462070941925049f, 0.024299109354615211487f, -0.043794862926006317139f, -0.0051406743004918098450f, 0.046534869819879531860f, -0.022676082327961921692f, -0.053009103983640670776f, 0.0098709706217050552368f, 0.040245961397886276245f, 0.049913518130779266357f, 0.018495216965675354004f, 0.0093880118802189826965f, -0.034536268562078475952f, 0.029566695913672447205f, -0.017759045585989952087f, 0.050616953521966934204f, 0.049606591463088989258f, 0.033546421676874160767f, 0.015039425343275070190f, 0.038920469582080841064f, 0.037936922162771224976f, -0.0031276808585971593857f, 0.039447404444217681885f, -0.017699781805276870728f, 0.025864442810416221619f, 0.023073574528098106384f, -0.042186792939901351929f, -0.029303003102540969849f, -0.034676261246204376221f, -0.039429064840078353882f, -0.045626092702150344849f, 0.022271234542131423950f, -0.0020245213527232408524f, -0.047079015523195266724f, -0.024751029908657073975f, 0.0023617076221853494644f, 0.038582440465688705444f, -0.047197129577398300171f, -0.052974108606576919556f, -0.036363620311021804810f, 0.0089385565370321273804f, -0.0042865374125540256500f, 0.033173251897096633911f, -0.048842195421457290649f, -0.027298454195261001587f, -0.015420084819197654724f, 0.034687034785747528076f, 0.0079385964199900627136f, -0.041456643491983413696f, 0.041189592331647872925f, 0.029398040845990180969f, -0.044681325554847717285f, 0.043532814830541610718f, -0.031232608482241630554f, -0.035655956715345382690f, -0.0023235508706420660019f, 0.027489438652992248535f, 0.053446479141712188721f, -0.013213636353611946106f, 0.045295327901840209961f, -0.021925345063209533691f, 0.031097328290343284607f, 0.019390316680073738098f, -0.038591761142015457153f, -0.039833586663007736206f, 0.032486233860254287720f, 0.027458522468805313110f, -0.038220152258872985840f, -0.012095589190721511841f, 0.0057044965215027332306f, 0.012713840231299400330f, -0.012267081998288631439f, -0.036371976137161254883f, 0.018824061378836631775f, 0.019025575369596481323f, -0.042915992438793182373f, 0.0094251194968819618225f, -0.051447685807943344116f, -0.033016938716173171997f, -0.012951695360243320465f, -0.024599142372608184814f, -0.053343273699283599854f, -0.0027062061708420515060f, -0.0044959937222301959991f, -0.035618394613265991211f, -0.049471851438283920288f, 0.0019778874702751636505f, 0.026490958407521247864f, -0.023627175018191337585f, 0.047506719827651977539f, 0.015452217310667037964f, -0.025106733664870262146f, 0.026453271508216857910f, -0.019152197986841201782f, 0.0026303625199943780899f, -0.035877179354429244995f, 0.021737143397331237793f, 0.049283482134342193604f, -0.017977686598896980286f, -0.036160312592983245850f, -0.00011680673196678981185f, 0.011353566311299800873f, 0.0012908987700939178467f, 0.030469898134469985962f, 0.035073772072792053223f, -0.018275152891874313354f, 0.049187090247869491577f, -0.042056124657392501831f, 0.0031389838550239801407f, 0.0019153098110109567642f, -0.024762408807873725891f, 0.029631325975060462952f, 0.047693874686956405640f, 0.027089133858680725098f, -0.049020446836948394775f, 0.048666428774595260620f, -0.010318784043192863464f, 0.034055732190608978271f, -0.041496649384498596191f, 0.0036558955907821655273f, 0.049067348241806030273f, -0.048276763409376144409f, -0.041932754218578338623f, 0.035520870238542556763f, -0.037093155086040496826f, 0.0067069670185446739197f, -0.022326029837131500244f, 0.050266571342945098877f, 0.041177716106176376343f, -0.032242074608802795410f, -0.027395835146307945251f, -0.017987295985221862793f, 0.018402617424726486206f, -0.015215101651847362518f, 0.015691688284277915955f, -0.048714980483055114746f, 0.037200585007667541504f, -0.0085459761321544647217f, -0.049128100275993347168f, 0.041547574102878570557f, -0.026159455999732017517f, 0.011247850023210048676f, -0.015183227136731147766f, 0.035551458597183227539f, 0.039356831461191177368f, -0.025197600945830345154f, 0.035572372376918792725f, 0.0086083095520734786987f, -0.048437081277370452881f, 0.022425817325711250305f, 0.046599622815847396851f, 0.053946964442729949951f, 0.033148363232612609863f, -0.043291792273521423340f, -0.012598198838531970978f, 0.030009442940354347229f, -0.048204112797975540161f, -0.030729033052921295166f, -0.045529272407293319702f, 0.052001271396875381470f, -0.018777195364236831665f, 0.051411729305982589722f, 0.011065105907618999481f, -0.014837016351521015167f, 0.0033663215581327676773f, -0.020762613043189048767f, 0.042465295642614364624f, 0.0073097702115774154663f, 0.046393044292926788330f, 0.010873067192733287811f, 0.051974959671497344971f, -0.022749461233615875244f, -0.013564198277890682220f, 0.034147549420595169067f},
  {0.017446486279368400574f, 0.039981804788112640381f, 0.045267112553119659424f, -0.025713747367262840271f, -0.025482289493083953857f, 0.0072083789855241775513f, 0.0024947156198322772980f, 0.041319753974676132202f, -0.0046872734092175960541f, -0.025328792631626129150f, -0.028593530878424644470f, 0.014976158738136291504f, 0.0070421127602458000183f, 0.0051676179282367229462f, -0.043286643922328948975f, -0.021157698705792427063f, -0.0043104626238346099854f, 0.018624696880578994751f, -0.040544107556343078613f, -0.024895932525396347046f, 0.019173663109540939331f, -0.0079745715484023094177f, -0.0092395693063735961914f, -0.015536183491349220276f, -0.019515626132488250732f, 0.043401204049587249756f, 0.038341082632541656494f, -0.030834788456559181213f, -0.045259855687618255615f, 0.045894585549831390381f, -0.026216644793748855591f, 0.024167897179722785950f, -0.010301012545824050903f, 0.024334479123353958130f, -0.00057430780725553631783f, -0.042229574173688888550f, 0.017200184985995292664f, 0.049863953143358230591f, 0.053789723664522171021f, -0.012243909761309623718f, 0.0021193854045122861862f, -0.0080879088491201400757f, 0.029514737427234649658f, 0.020810406655073165894f, 0.043959051370620727539f, -0.024709299206733703613f, -0.037040743976831436157f, 0.0056267539039254188538f, -0.0023343644570559263229f, 0.011485757306218147278f, -0.043950155377388000488f, 0.037626519799232482910f, 0.011874816380441188812f, 0.052740681916475296021f, 0.049154181033372879028f, -0.044172368943691253662f, 0.018366882577538490295f, -0.026546778157353401184f, -0.051602404564619064331f, -0.0031451049726456403732f, -0.020682746544480323792f, -0.050376974046230316162f, 0.024794567376375198364f, -0.031876754015684127808f, -0.00031485100043937563896f, -0.020438140258193016052f, 0.053017284721136093140f, 0.018660640344023704529f, 0.025183832272887229919f, 0.043993752449750900269f, 0.037619143724441528320f, -0.015347337350249290466f, -0.0032405548263341188431f, -0.016174877062439918518f, -0.014050046913325786591f, 0.0072472761385142803192f, -0.0029429283458739519119f, -0.044319488108158111572f, 0.033800683915615081787f, 0.014538547024130821228f, 0.0031965472735464572906f, -0.028725998476147651672f, 0.049515400081872940063f, 0.040330294519662857056f, 0.044175602495670318604f, -0.033223453909158706665f, -0.051305048167705535889f, 0.021312301978468894958f, 0.023820482194423675537f, 0.029303479939699172974f, 0.053900942206382751465f, 0.030942866578698158264f, -0.036674514412879943848f, 0.031412314623594284058f, -0.0083894096314907073975f, -0.026978988200426101685f, -0.051615379750728607178f, 0.019923752173781394958f, -0.050628036260604858398f, 0.015437824651598930359f, 0.0093269469216465950012f, 0.012002900242805480957f, 0.022493641823530197144f, -0.025023397058248519897f, -0.019963046535849571228f, 0.0018345100106671452522f, 0.013956817798316478729f, -0.033912520855665206909f, -0.0081027196720242500305f, -0.0033684263471513986588f, -0.0097314929589629173279f, 0.024330757558345794678f, -0.0036759651266038417816f, -0.016874637454748153687f, -0.053017001599073410034f, -0.024792455136775970459f, -7.9827907029539346695e-05f, 0.015682077035307884216f, -0.0039416914805769920349f, -0.028661541640758514404f, -0.022572863847017288208f, -0.036753330379724502563f, 0.039432946592569351196f, 0.021911256015300750732f, 0.028887024149298667908f, -0.019251573830842971802f, 0.017070351168513298035f, -0.019704941660165786743f, 0.031988296657800674438f, -0.0049708355218172073364f, -0.031647305935621261597f, 0.0074866889044642448425f, 0.026788152754306793213f, -0.034842316061258316040f, 0.034128278493881225586f, -0.034795481711626052856f, 0.0016344639007002115250f, 0.033624053001403808594f, 0.032784018665552139282f, 0.048711709678173065186f, 0.0053299386054277420044f, 0.027406765148043632507f, 0.011946869082748889923f, -0.035233613103628158569f, -0.046152241528034210205f, -0.0086402995511889457703f, 0.046404860913753509521f, -0.037727300077676773071f, 0.044420387595891952515f, 0.048586819320917129517f, 0.011237449012696743011f, -0.0029752985574305057526f, 0.037638571113348007202f, 0.030566951259970664978f, -0.0031983300577849149704f, 0.020624365657567977905f, -0.049274984747171401978f, -0.029494572430849075317f, -0.0040806275792419910431f, 0.050255745649337768555f, 0.015557366423308849335f, 0.027860963717103004456f, 0.0040314123034477233887f, 0.0034671910107135772705f, -0.016538815572857856750f, -0.018850959837436676025f, 0.031799573451280593872f, 0.046096112579107284546f, -0.022059518843889236450f, 0.047099761664867401123f, 0.0092501249164342880249f, 0.030518244951963424683f, 0.038415260612964630127f, 0.0053394008427858352661f, 0.046672016382217407227f, -0.030325677245855331421f, -0.0061719487421214580536f, 0.0081094456836581230164f, 0.023268124088644981384f, 0.031987633556127548218f, 0.050422642379999160767f, 0.020536066964268684387f, -0.030905412510037422180f, -0.034400802105665206909f, -0.043260883539915084839f, -0.049381311982870101929f, 0.034443594515323638916f, -0.025023732334375381470f, 0.032565571367740631104f, -0.013844072818756103516f, -0.018364010378718376160f, -0.030750403180718421936f, 0.018983678892254829407f, -0.016929142177104949951f, -0.0014427211135625839233f, 0.026906164363026618958f, 0.036329094320535659790f, 0.017301654443144798279f, -0.045760478824377059937f, 0.047463525086641311646f, -0.044607594609260559082f, -0.025954794138669967651f, -0.014658404514193534851f, -0.034495651721954345703f, 0.0042842458933591842651f, -0.037500463426113128662f, 0.038568358868360519409f, 0.013102166354656219482f, 0.043017607182264328003f, 0.051328122615814208984f, -0.039979118853807449341f, -0.046528857201337814331f, -0.00062089663697406649590f, 0.036771159619092941284f, 0.045721638947725296021f, -0.030298199504613876343f, -0.011169747449457645416f, 0.045418579131364822388f, 0.039337698370218276978f, 0.021182704716920852661f, 0.042306128889322280884f, 0.033159948885440826416f, 0.0077984440140426158905f, 0.052691813558340072632f, 0.051237393170595169067f, -0.043668873608112335205f, 0.045825552195310592651f, -0.012982166372239589691f, 0.0034448876976966857910f, -0.042159654200077056885f, 0.0067457030527293682098f, -0.013017407618463039398f, -0.013741201721131801605f, 0.030831666663289070129f, -0.0020656518172472715378f, 0.032228805124759674072f, 0.034174345433712005615f, 0.028663601726293563843f, -0.036604076623916625977f, -0.027446035295724868774f, -0.0098796272650361061096f, 0.025947365909814834595f, 0.028663801029324531555f, 0.024724818766117095947f, 0.0026391872670501470566f, -0.035563539713621139526f, 0.038276240229606628418f, 0.053018167614936828613f, 0.029895745217800140381f, 0.042184449732303619385f, 0.035439189523458480835f, 0.047210671007633209229f, 0.037374425679445266724f, 0.039998959749937057495f, -0.035116992890834808350f, -0.0081622591242194175720f, -0.047834336757659912109f, 0.032535556703805923462f, 0.040438726544380187988f, -0.021009236574172973633f, 0.00020162308646831661463f, -0.034683831036090850830f, -0.011558865197002887726f, 0.0062393215484917163849f, 0.0010287321638315916061f, 0.0024554580450057983398f, -0.0081322966143488883972f, 0.023408122360706329346f, -0.025190005078911781311f, 0.031519770622253417969f, 0.024009779095649719238f, -0.020525395870208740234f, 0.031744658946990966797f, 0.011580749414861202240f, 0.0082452669739723205566f, 0.051035609096288681030f, 0.014823087491095066071f, 0.0099731786176562309265f, 0.053972214460372924805f, -0.029876204207539558411f, 0.0067357709631323814392f, -0.017278648912906646729f, -0.040072441101074218750f, -0.014570556581020355225f, -0.017436882480978965759f, -0.0078279823064804077148f, -0.034806396812200546265f, 0.038285244256258010864f, -0.045098319649696350098f, -0.020238712430000305176f, 0.016531631350517272949f, 0.030903603881597518921f, 0.019035313278436660767f, -0.0065815481357276439667f, -0.022312119603157043457f, -0.026070769876241683960f, -0.0078294174745678901672f, 0.0073278830386698246002f, -0.0040938290767371654510f, -0.027487333863973617554f, 0.030074911192059516907f, -0.020467434078454971313f, -0.043681342154741287231f, 0.029298227280378341675f, 0.027194231748580932617f, 0.033250443637371063232f, -0.041094753891229629517f, -0.0089525887742638587952f, 0.052063714712858200073f, 0.032890275120735168457f, -0.012258817441761493683f, -0.014387496747076511383f, -0.039732042700052261353f, -0.028339428827166557312f, -0.027911556884646415710f, 0.037554480135440826416f, -0.043890334665775299072f, -0.038602769374847412109f, -0.014337683096528053284f, -0.053257342427968978882f, -0.051815148442983627319f, 0.046624179929494857788f, 0.048342756927013397217f, -0.0026797705795615911484f, -0.028383018448948860168f, 0.052833750844001770020f, -0.011590038426220417023f, 0.038961917161941528320f, 0.00098925584461539983749f, 0.041421409696340560913f, -0.050636179745197296143f, -0.013157193548977375031f, 0.011253257282078266144f, 0.022705376148223876953f, -0.039660006761550903320f, -0.0075705721974372863770f, -0.050128743052482604980f, -0.0031010394450277090073f, 0.046484477818012237549f, -0.041384249925613403320f, 0.012014654465019702911f, -0.031414251774549484253f, -0.023853341117501258850f},
  {-0.033957216888666152954f, -0.0073732356540858745575f, 0.022842850536108016968f, -0.039809301495552062988f, -0.050722256302833557129f, -0.051250927150249481201f, -0.047161933034658432007f, 0.011663867160677909851f, -0.022654281929135322571f, -0.0072438325732946395874f, -0.025540463626384735107f, -0.037952624261379241943f, 0.020805276930332183838f, 0.038278441876173019409f, -0.044447474181652069092f, -0.016386741772294044495f, -0.0020467857830226421356f, 0.018231673166155815125f, -0.012419651262462139130f, 0.044358320534229278564f, 0.017653258517384529114f, 0.033368278294801712036f, -0.038280468434095382690f, 0.048989672213792800903f, -0.0069228797219693660736f, 0.045191004872322082520f, -0.038666438311338424683f, -0.0043687662109732627869f, -0.033654294908046722412f, 0.037723928689956665039f, 1.1869268746522720903e-05f, -0.0023351176641881465912f, -0.0019144923426210880280f, -0.024877671152353286743f, 0.026311464607715606689f, -0.034559410065412521362f, -0.014457006938755512238f, 0.044228799641132354736f, 0.050308197736740112305f, -0.0075539266690611839294f, 0.017280580475926399231f, 0.052031736820936203003f, -0.041573766618967056274f, 0.042160581797361373901f, 0.00056747201597318053246f, -0.051314350217580795288f, 0.0012492147507146000862f, 0.023943725973367691040f, -0.0076925926841795444489f, 0.036640770733356475830f, -0.052427493035793304443f, 0.044581491500139236450f, 0.0058885603211820125580f, 0.034189909696578979492f, -0.0087771369144320487976f, 0.042574562132358551025f, 0.0044288979843258857727f, -0.040234528481960296631f, -0.052497323602437973022f, 0.044766888022422790527f, -0.019820049405097961426f, -0.024933632463216781616f, -0.016967969015240669250f, 0.026731472462415695190f, -0.0053025954402983188629f, -0.034875638782978057861f, -0.033126208931207656860f, 0.018580947071313858032f, 0.052260465919971466064f, -0.0032321163453161716461f, -0.051804341375827789307f, -0.018951153382658958435f, 0.050469294190406799316f, 0.039680249989032745361f, 0.031692724674940109253f, -0.0063089216127991676331f, 0.042783632874488830566f, -0.00035745551576837897301f, -0.052829831838607788086f, 0.034157179296016693115f, -0.032597400248050689697f, -0.015811745077371597290f, -0.00097316416213288903236f, -0.012078892439603805542f, 0.033711198717355728149f, 0.048278898000717163086f, 0.045044053345918655396f, -0.017849242314696311951f, -0.011902327649295330048f, -0.051032111048698425293f, 0.012395011261105537415f, 0.042010903358459472656f, 0.0010454289149492979050f, 0.017926296219229698181f, 0.010666622780263423920f, 0.031577643007040023804f, 0.0062469104304909706116f, 0.049877032637596130371f, -0.015366196632385253906f, 0.00053501175716519355774f, 0.017093220725655555725f, 0.0022411870304495096207f, -0.052910380065441131592f, -0.032548274844884872437f, 0.039703585207462310791f, -0.0056498362682759761810f, -0.028078608214855194092f, 0.010337335057556629181f, 0.00076032831566408276558f, 0.023558206856250762939f, -0.013171071186661720276f, -0.022323718294501304626f, 0.023440690711140632629f, -0.050156664103269577026f, 0.018570475280284881592f, 0.013530000112950801849f, 0.023165361955761909485f, -0.021319130435585975647f, -0.032913453876972198486f, -0.0036450368352234363556f, 0.041775036603212356567f, -0.047543302178382873535f, -0.0089468667283654212952f, 0.010523940436542034149f, -0.044348586350679397583f, -0.049863580614328384399f, -0.028710756450891494751f, 0.0079777576029300689697f, 0.0061874482780694961548f, 0.016783325001597404480f, 0.0040616006590425968170f, -0.030652817338705062866f, -0.0072521488182246685028f, -0.047481030225753784180f, -0.030359366908669471741f, -0.024444017559289932251f, 0.0088082971051335334778f, 0.013607034459710121155f, 0.028514778241515159607f, 0.020887557417154312134f, -0.047798037528991699219f, -0.050486139953136444092f, -0.0053942864760756492615f, -0.0093153547495603561401f, -0.044327210634946823120f, -0.022473745048046112061f, -0.0051638204604387283325f, -0.024342589080333709717f, -0.012028724886476993561f, -0.00040892334072850644588f, -0.0011910141911357641220f, -0.026752848178148269653f, 0.035984635353088378906f, -0.0034792146179825067520f, -0.013727632351219654083f, 0.041617974638938903809f, -0.052242502570152282715f, 0.014876184053719043732f, -0.046810507774353027344f, 0.0065689706243574619293f, -0.042962901294231414795f, -0.041849967092275619507f, -0.045990597456693649292f, -0.010654760524630546570f, -0.051760688424110412598f, -0.035299655050039291382f, -0.0012814883375540375710f, -0.018708875402808189392f, -0.018415948376059532166f, -0.031384617090225219727f, 0.032537758350372314453f, 0.022943900898098945618f, -0.029111703857779502869f, 0.035607572644948959351f, 0.038671910762786865234f, -0.040042906999588012695f, -0.030351348221302032471f, -0.026977675035595893860f, 0.036883216351270675659f, -0.028493164107203483582f, -0.029856089502573013306f, -0.041474364697933197021f, 0.040999684482812881470f, -0.041203748434782028198f, 0.011204936541616916656f, -0.030413679778575897217f, -0.036014616489410400391f, 0.035292431712150573730f, 0.049410078674554824829f, -0.033315401524305343628f, 0.0078242812305688858032f, -0.053519889712333679199f, -0.018031897023320198059f, -0.031696088612079620361f, -0.0068847937509417533875f, 0.038107581436634063721f, 0.027270892634987831116f, -0.024425556883215904236f, 0.041114252060651779175f, -0.051219016313552856445f, 0.016407757997512817383f, -0.041505053639411926270f, -0.042487919330596923828f, 0.0096900863572955131531f, -0.036591153591871261597f, 0.049748849123716354370f, 0.016546171158552169800f, 0.042926024645566940308f, -0.0070196744054555892944f, -0.050028298050165176392f, -0.051505144685506820679f, -0.037380054593086242676f, -0.049425501376390457153f, 0.050196312367916107178f, -0.038517616689205169678f, 0.0080532599240541458130f, 0.025793708860874176025f, -0.048384729772806167603f, 0.013525314629077911377f, -0.023442950099706649780f, 0.0075832461006939411163f, 0.0018716111080721020699f, -0.034761805087327957153f, 0.010173231363296508789f, -0.030180040746927261353f, -0.035241421312093734741f, 0.0025756440591067075729f, -0.021364355459809303284f, -0.030566733330488204956f, 0.0075066941790282726288f, -0.00038685832987539470196f, -0.040944114327430725098f, -0.050628107041120529175f, 0.0041501182131469249725f, 0.033164877444505691528f, -0.0062136780470609664917f, -0.051030032336711883545f, -0.0066626826301217079163f, -0.045637909322977066040f, 0.0052311224862933158875f, 0.018612615764141082764f, -0.020015526562929153442f, 0.046067699790000915527f, 0.020787047222256660461f, -0.039900481700897216797f, -0.00047146869474090635777f, 0.043112035840749740601f, -0.040577799081802368164f, 0.031388126313686370850f, 0.018879700452089309692f, 0.0095636947080492973328f, -0.018625328317284584045f, -0.015576399862766265869f, -0.025357307866215705872f, 0.049753725528717041016f, 0.051518347114324569702f, -0.021244972944259643555f, 0.0085950298234820365906f, -0.032694827765226364136f, 0.047151371836662292480f, -0.050448361784219741821f, -0.039781473577022552490f, 0.034982491284608840942f, 0.019836945459246635437f, -0.017832519486546516418f, 0.037506856024265289307f, 0.010912672616541385651f, 0.0025712221395224332809f, 0.021712090820074081421f, 0.043403074145317077637f, 0.018237825483083724976f, -0.0090893302112817764282f, -0.048374883830547332764f, -0.0031461284961551427841f, -0.0035140244290232658386f, -0.038554307073354721069f, 0.042749345302581787109f, 0.00099941296502947807312f, 0.023645617067813873291f, -0.013990107923746109009f, 0.030515883117914199829f, 0.032244034111499786377f, -0.030178431421518325806f, -0.043238915503025054932f, 0.011971489526331424713f, 0.049050491303205490112f, 0.021645162254571914673f, 0.0014331819256767630577f, 0.048375211656093597412f, -0.027989331632852554321f, -0.018318001180887222290f, 0.013678379356861114502f, 0.036467213183641433716f, 0.0068526617251336574554f, -0.033397894352674484253f, -0.032188195735216140747f, -0.027691608294844627380f, -0.014363965019583702087f, 0.014916581101715564728f, -0.0096978032961487770081f, 0.048259526491165161133f, 0.0073250895366072654724f, -0.029948931187391281128f, -0.018147088587284088135f, -0.011635558679699897766f, -0.025188338011503219604f, 0.040239606052637100220f, 0.0066504529677331447601f, 0.034653816372156143188f, 0.024576220661401748657f, -0.027639368548989295959f, 0.046500071883201599121f, -0.035540580749511718750f, 0.037388026714324951172f, 0.017644582316279411316f, -0.0085151894018054008484f, -0.0032253449317067861557f, 0.046771198511123657227f, 0.050870809704065322876f, 0.0074631823226809501648f, -0.035775937139987945557f, 0.044733915477991104126f, 0.049778778105974197388f, 0.030122445896267890930f, -0.052494503557682037354f, 0.0058147250674664974213f, -0.015029538422822952271f, 0.0032697003334760665894f, 0.00099830585531890392303f, -0.0048709763213992118835f, 0.039558593183755874634f, 0.0093712117522954940796f, 0.026622280478477478027f, -0.012701191939413547516f, 0.020458446815609931946f, -0.053563550114631652832f, 0.0025635880883783102036f, -0.031884789466857910156f, -0.021697910502552986145f, -0.044939108192920684814f, -0.0075354082509875297546f, 0.020054267719388008118f, -0.039001721888780593872f},
