// This file is computer-generated by onnx2c 
// (TODO: add creating command line here)
// (TODO: print creation date here )

// ONNX model:
// produced by pytorch, version 2.5.1
// ONNX IR version: 17
// Model documentation: 
/*

*/

#include <float.h>
#include <math.h>
#include <stdbool.h>
#include <stdint.h>
#include <string.h>

#define MAX(X,Y) ( X > Y ? X : Y)
#define MIN(X,Y) ( X < Y ? X : Y)
#define CLIP(X,L) ( MAX(MIN(X,L), -L) )

#if __STDC_VERSION__ < 199901L
#define FUNC_PREFIX
#else
#define FUNC_PREFIX static inline
#endif

static const float tensor_cv1_weight[1][1][5][3][5] = 
{
  {
    {
      {
        {0.27694079279899597168f, 0.38743689656257629395f, 0.30684822797775268555f, 0.43022605776786804199f, 0.35131877660751342773f},
        {0.22178624570369720459f, 0.27388671040534973145f, 0.44604802131652832031f, 0.45683249831199645996f, 0.32322379946708679199f},
        {0.27972525358200073242f, 0.31828495860099792480f, 0.45112189650535583496f, 0.36224851012229919434f, 0.43407502770423889160f}
      },
      {
        {0.081556946039199829102f, 0.29795086383819580078f, 0.24352125823497772217f, 0.20705386996269226074f, 0.39637452363967895508f},
        {0.057086359709501266479f, 0.20768918097019195557f, 0.22740435600280761719f, 0.39567303657531738281f, 0.29476803541183471680f},
        {0.035488095134496688843f, 0.16541051864624023438f, 0.20665501058101654053f, 0.31501528620719909668f, 0.24162483215332031250f}
      },
      {
        {0.12275925278663635254f, -0.028957257047295570374f, 0.15316998958587646484f, 0.11594872176647186279f, 0.10064977407455444336f},
        {0.083632946014404296875f, 0.10019525885581970215f, 0.17525584995746612549f, 0.11840178817510604858f, 0.13185687363147735596f},
        {0.028154250234365463257f, 0.034080065786838531494f, 0.14643913507461547852f, 0.22274109721183776855f, 0.23837417364120483398f}
      },
      {
        {-0.014803247526288032532f, 0.13821968436241149902f, 0.10750087350606918335f, 0.15636882185935974121f, 0.10533513128757476807f},
        {-0.080553039908409118652f, 0.022378552705049514771f, -0.0070588714443147182465f, 0.19386284053325653076f, 0.22953480482101440430f},
        {0.075190022587776184082f, 0.10161329060792922974f, 0.095602355897426605225f, 0.21345257759094238281f, 0.10038741677999496460f}
      },
      {
        {-0.0053758723661303520203f, -0.051132597029209136963f, 0.061416320502758026123f, 0.035623840987682342529f, 0.18573227524757385254f},
        {-0.022370109334588050842f, 0.14212486147880554199f, -0.028523292392492294312f, -0.0074007213115692138672f, 0.074354931712150573730f},
        {0.097795151174068450928f, 0.071587979793548583984f, 0.16355131566524505615f, -0.033159840852022171021f, 0.024568663910031318665f}
      }
    }
  }
};
static const float tensor_cv1_bias[1] = 
{-0.19784197211265563965f};
static const float tensor_fc1_weight[128][343] = 
{
  {-0.031680002808570861816f, 0.032230280339717864990f, 0.035390973091125488281f, 0.069283314049243927002f, 0.0022916649468243122101f, -0.010977643541991710663f, 0.049863073974847793579f, -0.0084055289626121520996f, 0.049831129610538482666f, -0.0097141880542039871216f, 0.051968228071928024292f, -0.0053461077623069286346f, 0.0011081991251558065414f, 0.022158509120345115662f, 0.039946116507053375244f, 0.060560781508684158325f, 0.11333801597356796265f, 0.10481927543878555298f, 0.039235200732946395874f, 0.047540336847305297852f, 0.098581001162528991699f, 0.032258041203022003174f, 0.077709682285785675049f, 0.058550745248794555664f, 0.061792075634002685547f, 0.099906638264656066895f, 0.073618099093437194824f, 0.025567412376403808594f, 0.035244759172201156616f, 0.020253334194421768188f, 0.024927588179707527161f, 0.027468031272292137146f, 0.0080422926694154739380f, 0.021550072357058525085f, 0.081877700984477996826f, 0.021997723728418350220f, 0.0097541222348809242249f, -0.051730364561080932617f, -0.041611220687627792358f, -0.015240920707583427429f, 0.010128959082067012787f, -0.076611541211605072021f, -0.014202896505594253540f, -0.025783900171518325806f, 0.0047134622000157833099f, -0.0051988121122121810913f, 0.025530435144901275635f, -0.016004722565412521362f, -0.069389373064041137695f, -0.016356391832232475281f, -0.0054982095025479793549f, -0.071579441428184509277f, 0.028754258528351783752f, -0.0067819356918334960938f, 0.056952714920043945312f, -0.00030969121144153177738f, -0.033308520913124084473f, 0.039360880851745605469f, -0.050701856613159179688f, -0.035861112177371978760f, -0.039424300193786621094f, -0.047339003533124923706f, -0.0070327664725482463837f, -0.0065950169228017330170f, 0.027332503348588943481f, -0.063259482383728027344f, 0.034063953906297683716f, -0.011935967952013015747f, 0.020088585093617439270f, -0.019244715571403503418f, 0.047705270349979400635f, 0.066350035369396209717f, 0.043901376426219940186f, -0.037385769188404083252f, 0.041033737361431121826f, 0.0095888245850801467896f, -0.054838307201862335205f, -0.022126553580164909363f, 0.071890570223331451416f, -0.032705750316381454468f, 0.043928943574428558350f, 0.041325803846120834351f, 0.034168064594268798828f, -0.097759693861007690430f, 0.060266323387622833252f, 0.017633328214287757874f, -0.011537502519786357880f, -0.044909905642271041870f, 0.040339317172765731812f, 0.0015910789370536804199f, -0.089344032108783721924f, 0.061001770198345184326f, 0.016332369297742843628f, -0.049234002828598022461f, -0.034327842295169830322f, 0.022316243499517440796f, 0.039763677865266799927f, -0.058879379183053970337f, -0.027771404013037681580f, 0.015407039783895015717f, -0.029879393056035041809f, 0.039416067302227020264f, 0.062131520360708236694f, -0.055730000138282775879f, -0.023070728406310081482f, 0.033032637089490890503f, 0.023694632574915885925f, -0.0093621602281928062439f, 0.056922428309917449951f, 0.062013942748308181763f, 0.053421996533870697021f, -0.030401850119233131409f, -0.0083071943372488021851f, 0.010824235156178474426f, -0.011976432055234909058f, -0.0022435246501117944717f, 0.074590802192687988281f, 0.085045963525772094727f, -0.019677335396409034729f, 0.012404127977788448334f, 0.010952633805572986603f, -0.026395576074719429016f, 0.013743360526859760284f, 0.037815034389495849609f, -0.025288319215178489685f, -0.069167084991931915283f, 0.066400870680809020996f, 0.031211599707603454590f, -0.0031841176096349954605f, -0.017940416932106018066f, -0.012736228294670581818f, -0.028709890320897102356f, -0.065862648189067840576f, 0.028550190851092338562f, 0.049372091889381408691f, 0.022798215970396995544f, -0.034471888095140457153f, -0.018634999170899391174f, 0.0046573742292821407318f, 0.011160669848322868347f, 0.0087067615240812301636f, -0.0017037005163729190826f, 0.0050008930265903472900f, -0.033058568835258483887f, -0.029020143672823905945f, 0.050281994044780731201f, -0.070696242153644561768f, -0.0050134868361055850983f, -0.016389062628149986267f, 0.060688484460115432739f, 0.074981786310672760010f, 0.038572210818529129028f, 0.0047692605294287204742f, -0.047681268304586410522f, -0.034876234829425811768f, 0.075164914131164550781f, 0.058978237211704254150f, 0.095402553677558898926f, 0.068160407245159149170f, 0.060047429054975509644f, -0.0089930156245827674866f, -0.020673759281635284424f, -0.018882248550653457642f, -0.040257569402456283569f, 0.061251308768987655640f, 0.033520165830850601196f, 0.042059559375047683716f, -0.034797761589288711548f, 0.016106370836496353149f, -0.027008654549717903137f, -0.055149197578430175781f, 0.026857342571020126343f, 0.029192354530096054077f, 0.069280549883842468262f, -0.022399343550205230713f, -0.022035358473658561707f, -0.0048563750460743904114f, -0.021593248471617698669f, 0.0080105895176529884338f, -0.012632597237825393677f, 0.065154246985912322998f, -0.026078086346387863159f, 0.045173332095146179199f, 0.043727241456508636475f, 0.065814949572086334229f, 0.0075084296986460685730f, 0.071853466331958770752f, 0.0096795056015253067017f, 0.014331936836242675781f, 0.064343474805355072021f, 0.012734709307551383972f, 0.017728796228766441345f, 0.0097864679992198944092f, -0.010881180875003337860f, 0.078230381011962890625f, -0.077281109988689422607f, 0.046460151672363281250f, 0.056041691452264785767f, 0.048220407217741012573f, -0.029677335172891616821f, -0.042505439370870590210f, 0.045730583369731903076f, 0.020553361624479293823f, -0.045047856867313385010f, -0.00071688898606225848198f, -0.016324728727340698242f, -0.0022424848284572362900f, -0.010802126489579677582f, 0.0038779622409492731094f, -0.020420392975211143494f, -0.048663981258869171143f, 0.058842372149229049683f, 0.043966047465801239014f, -0.023250687867403030396f, 0.019806396216154098511f, -0.014100133441388607025f, -0.064055532217025756836f, -0.038057170808315277100f, 0.025513900443911552429f, -0.062254171818494796753f, -0.074612833559513092041f, 0.0090669244527816772461f, -0.021398827433586120605f, -0.057791277766227722168f, 0.0061211651191115379333f, -0.0036920916754752397537f, -0.031802188605070114136f, -0.042029850184917449951f, -0.020668001845479011536f, 0.044026043266057968140f, -0.067027196288108825684f, 0.026525553315877914429f, 0.0059300679713487625122f, 0.015371495857834815979f, 0.049727533012628555298f, 0.055416777729988098145f, -0.013694045133888721466f, -0.023006120696663856506f, 0.069557897746562957764f, 0.023272160440683364868f, 0.034660700708627700806f, 0.034302953630685806274f, 0.017115576192736625671f, 0.069858744740486145020f, -0.097625181078910827637f, 0.0056766285561025142670f, 0.075778707861900329590f, 0.039530068635940551758f, -0.039073374122381210327f, -0.038664225488901138306f, -0.0025968530680984258652f, -0.080272458493709564209f, -0.022368730977177619934f, 0.029504541307687759399f, 0.059797197580337524414f, 0.0064784055575728416443f, -0.038353942334651947021f, -0.057919844985008239746f, -0.023739153519272804260f, -0.021460939198732376099f, 0.020880749449133872986f, 0.0097427498549222946167f, -0.064165703952312469482f, -0.032567583024501800537f, -0.076298512518405914307f, -0.10077740252017974854f, -0.0023146602325141429901f, -0.032820980995893478394f, -0.10917560756206512451f, -0.10830103605985641479f, -0.0024524049367755651474f, -0.12637487053871154785f, -0.15467830002307891846f, 0.028502039611339569092f, 0.024981709197163581848f, -0.0051953336223959922791f, 0.00084310176316648721695f, -0.0038242887239903211594f, -0.10642023384571075439f, -0.10992256551980972290f, 0.040999237447977066040f, 0.014957103878259658813f, -0.022459913045167922974f, 0.042867001146078109741f, -0.0078274868428707122803f, -0.023912435397505760193f, -0.13823626935482025146f, 0.023631863296031951904f, 0.049297969788312911987f, 0.024968156591057777405f, -0.00033748487476259469986f, -0.020359924063086509705f, 0.00097775401081889867783f, -0.075171887874603271484f, 0.068246029317378997803f, 0.053418014198541641235f, -0.015843532979488372803f, 0.00013995084736961871386f, -0.036880064755678176880f, 0.0098491488024592399597f, 0.036719787865877151489f, 0.048541653901338577271f, 0.062659308314323425293f, -0.040121003985404968262f, 0.042733319103717803955f, -0.035187318921089172363f, 0.0040186448022723197937f, 0.0050605256110429763794f, 0.017193885520100593567f, 0.069892533123493194580f, -0.038823101669549942017f, -0.013067800551652908325f, 0.036215309053659439087f, -0.051674898713827133179f, -0.066695041954517364502f, -0.0031943705398589372635f, 0.056154258549213409424f, 0.017797773703932762146f, 0.013774625957012176514f, -0.033375509083271026611f, -0.10584153980016708374f, -0.074896395206451416016f, 0.027769317850470542908f, -0.0091976029798388481140f, -0.0091369021683931350708f, 0.033584989607334136963f, 0.012562756426632404327f, -0.035972502082586288452f, -0.092592559754848480225f, -0.041024345904588699341f, -0.044772081077098846436f, -0.010111078619956970215f, -0.028677403926849365234f, 0.019793214276432991028f, -0.046779565513134002686f, -0.097986511886119842529f, 0.071618139743804931641f, 0.030251927673816680908f, 0.062387619167566299438f, -0.029604732990264892578f, -0.0085348589345812797546f, 0.058380354195833206177f, -0.087557621300220489502f},
  {-0.012001264840364456177f, 0.015951493754982948303f, -0.016675416380167007446f, -0.044088821858167648315f, 0.020096043124794960022f, 0.057972282171249389648f, -0.0020431969314813613892f, 0.0012702662497758865356f, -0.044334720820188522339f, -0.013077459298074245453f, 0.0023835853207856416702f, -0.0029059473890811204910f, -0.0055044954642653465271f, -0.020748695358633995056f, 0.023751353845000267029f, -0.092006765305995941162f, -0.040026314556598663330f, -0.085358656942844390869f, -0.081282861530780792236f, -0.073854990303516387939f, -0.022339524701237678528f, -0.042108174413442611694f, -0.030193492770195007324f, -0.10611161589622497559f, -0.050874836742877960205f, -0.043541610240936279297f, -0.10550312697887420654f, -0.079840466380119323730f, 0.028609393164515495300f, 0.0095623889937996864319f, -0.10374947637319564819f, -0.059185869991779327393f, -0.11163336038589477539f, -0.084740974009037017822f, -0.0014555172529071569443f, 0.020674139261245727539f, 0.038767263293266296387f, -0.0038557932712137699127f, 0.065995834767818450928f, 0.018947657197713851929f, -0.0072374660521745681763f, 0.023784006014466285706f, 0.028262747451663017273f, 0.038895748555660247803f, -0.023345017805695533752f, 0.023397648707032203674f, -0.039322867989540100098f, -0.027649218216538429260f, -0.0035918976645916700363f, 0.059313733130693435669f, 0.051738966256380081177f, 0.079175963997840881348f, 0.077449977397918701172f, 0.074970014393329620361f, 0.031908627599477767944f, -0.010331432335078716278f, 0.036019887775182723999f, -0.014010193757712841034f, -0.0036052078939974308014f, 0.025557132437825202942f, 0.040526662021875381470f, 0.070582590997219085693f, 0.0021482824813574552536f, -0.016896786168217658997f, 0.017584787681698799133f, -0.0075966571457684040070f, -0.00044197298120707273483f, 0.029271611943840980530f, 0.0098724402487277984619f, 0.082143425941467285156f, 0.050324399024248123169f, 0.014018155634403228760f, 0.035166256129741668701f, 0.039466660469770431519f, 0.00077498878818005323410f, 0.010699166916310787201f, 0.050891853868961334229f, 0.016975013539195060730f, 0.046313285827636718750f, -0.0086337886750698089600f, -0.0033713213633745908737f, -0.0063744122162461280823f, 0.0059288335032761096954f, 0.075567387044429779053f, 0.044032916426658630371f, 0.048526518046855926514f, 0.054186236113309860229f, -0.0058191828429698944092f, -0.0099560776725411415100f, 0.026376310735940933228f, 0.049036677926778793335f, 0.0097954897210001945496f, -0.037908367812633514404f, 0.049523208290338516235f, 0.0022943138610571622849f, -0.022830894216895103455f, -0.0090483874082565307617f, 0.087479345500469207764f, -0.032097216695547103882f, 0.026019463315606117249f, -0.0086512174457311630249f, 0.0030064375605434179306f, 0.065143816173076629639f, 0.041435744613409042358f, 0.069329395890235900879f, 0.057296428829431533813f, -0.042362533509731292725f, 0.016029203310608863831f, 0.022709839046001434326f, 0.029971795156598091125f, 0.035331916064023971558f, 0.046746168285608291626f, -0.0076174004934728145599f, 0.010200365446507930756f, 0.065537162125110626221f, 0.068446919322013854980f, 0.0072159152477979660034f, -0.020524976775050163269f, 0.039454903453588485718f, -0.042110275477170944214f, 0.055380295962095260620f, 0.0038377484306693077087f, 0.042851068079471588135f, 0.0092946030199527740479f, 0.051782123744487762451f, 0.11879228800535202026f, 0.0012742583639919757843f, 0.042811028659343719482f, 0.053335774689912796021f, 0.077556967735290527344f, 0.0039697703905403614044f, 0.032174631953239440918f, 0.091061390936374664307f, -0.0063303164206445217133f, 0.030476149171590805054f, -0.0025491367559880018234f, -0.0024919572751969099045f, 0.056732960045337677002f, 0.053180404007434844971f, 0.076438248157501220703f, 0.072789587080478668213f, 0.043685875833034515381f, 0.075395368039608001709f, 0.050721280276775360107f, -0.0051146005280315876007f, -0.0045710285194218158722f, 0.012604993768036365509f, -0.029247993603348731995f, -0.039300356060266494751f, -0.063846141099929809570f, -0.043564110994338989258f, -0.0045688245445489883423f, -0.040811449289321899414f, -0.027272613719105720520f, 0.035673227161169052124f, 0.032654970884323120117f, -0.037435680627822875977f, -0.021315967664122581482f, 0.041695795953273773193f, -0.017242703586816787720f, -0.00082342210225760936737f, 0.037042293697595596313f, -0.051999330520629882812f, 0.010436640121042728424f, 0.055556904524564743042f, 0.0064883790910243988037f, 0.029708838090300559998f, 8.5805942944716662169e-05f, -0.0090476367622613906860f, 0.012011313810944557190f, 0.040924742817878723145f, 0.055094603449106216431f, 0.057722944766283035278f, -0.0068714045919477939606f, 0.037903700023889541626f, -0.029199002310633659363f, -0.029489653185009956360f, 0.0012805808801203966141f, -0.025242630392313003540f, 0.052292887121438980103f, 0.040630217641592025757f, -0.0059572933241724967957f, 0.025619052350521087646f, -0.051111921668052673340f, -0.039665076881647109985f, -0.011123119853436946869f, -0.030776606872677803040f, -0.010245136916637420654f, 0.020025754347443580627f, 0.045962110161781311035f, 0.051387589424848556519f, 0.027352321892976760864f, -0.0083679361268877983093f, -0.029630064964294433594f, 0.045654572546482086182f, 0.049895446747541427612f, 0.0098404530435800552368f, 0.010635520331561565399f, -0.025382600724697113037f, 0.022843599319458007812f, 0.092161618173122406006f, -0.0017050188034772872925f, 0.0094734579324722290039f, -0.032471410930156707764f, -0.025101959705352783203f, -0.0088622905313968658447f, -0.019487340003252029419f, 0.024727154523134231567f, 0.027801437303423881531f, -0.044796735048294067383f, 0.031273704022169113159f, -0.036311056464910507202f, -0.024281730875372886658f, 0.039349924772977828979f, 0.056674364954233169556f, -0.015136424452066421509f, -0.0024047391489148139954f, -0.051226112991571426392f, -0.026490014046430587769f, -0.023964511230587959290f, 0.023440953344106674194f, 0.025745065882802009583f, -0.042583003640174865723f, 0.090786516666412353516f, 0.038343824446201324463f, -0.055457718670368194580f, -0.022122666239738464355f, 0.036023493856191635132f, 0.0049707773141562938690f, 0.0066271382384002208710f, 0.025639841333031654358f, 0.043221771717071533203f, -0.045759368687868118286f, 0.029093164950609207153f, 0.019703939557075500488f, 0.022195832803845405579f, 0.032443463802337646484f, 0.039576184004545211792f, -0.030871747061610221863f, -0.0047658733092248439789f, 0.049088805913925170898f, 0.0097952308133244514465f, 0.015597979538142681122f, -0.082163281738758087158f, 0.083330646157264709473f, 0.027135683223605155945f, -0.011198837310075759888f, 0.022222211584448814392f, 0.025404401123523712158f, 0.056532952934503555298f, -0.037415262311697006226f, 0.015255434438586235046f, 0.024615498259663581848f, 0.027641827240586280823f, 0.0026126385200768709183f, -0.035686545073986053467f, 0.067199580371379852295f, 0.014197629876434803009f, 0.022235307842493057251f, -0.049322616308927536011f, -0.022826079279184341431f, 0.039971854537725448608f, 0.028578301891684532166f, -0.00041836404125206172466f, 0.073545090854167938232f, 0.041221644729375839233f, 0.038451548665761947632f, -0.056508656591176986694f, 0.029124010354280471802f, -0.00078829051926732063293f, 0.024262253195047378540f, 0.095531016588211059570f, 0.13327750563621520996f, 0.0063747400417923927307f, 0.045108698308467864990f, 0.024830481037497520447f, 0.049557492136955261230f, 0.071418024599552154541f, 0.081612460315227508545f, 0.050586108118295669556f, 0.055759545415639877319f, 0.022608203813433647156f, -0.049335546791553497314f, -0.021578766405582427979f, -0.037722546607255935669f, 0.0016082727815955877304f, 0.020007157698273658752f, 0.023449821397662162781f, 0.0096708526834845542908f, -0.062421679496765136719f, 0.044028852134943008423f, -0.0053522614762187004089f, -0.014195806346833705902f, 0.087612114846706390381f, -0.021879635751247406006f, 0.070916123688220977783f, 0.068309172987937927246f, 0.049109283834695816040f, -0.030250994488596916199f, -0.020706705749034881592f, -0.033334027975797653198f, 0.011242088861763477325f, 0.047693535685539245605f, 0.032865416258573532104f, 0.054376136511564254761f, -0.0076642222702503204346f, 0.053313314914703369141f, 0.047194350510835647583f, -0.019447395578026771545f, -0.039531193673610687256f, -0.019449116662144660950f, 0.033456835895776748657f, -0.052573673427104949951f, -0.0038122227415442466736f, 0.065991282463073730469f, 0.052106570452451705933f, 0.058367621153593063354f, -0.020873906090855598450f, -0.043102420866489410400f, 0.021709989756345748901f, 0.087624266743659973145f, 0.079816147685050964355f, 0.036062680184841156006f, 0.034283354878425598145f, 0.060455456376075744629f, -0.036163721233606338501f, -0.039411015808582305908f, 0.059529587626457214355f, 0.0095239523798227310181f, 0.0014722136547788977623f, 0.067477576434612274170f, 0.022533675655722618103f, 0.025710659101605415344f, -0.021764272823929786682f, 0.023351477459073066711f, 0.10062189400196075439f, -0.0085369059816002845764f, 0.030937438830733299255f, 0.036717433482408523560f, -0.011928429827094078064f, 0.051224537193775177002f, -0.043450251221656799316f, 0.023301597684621810913f},
  {-0.0076951752416789531708f, -0.041445013135671615601f, -0.042939469218254089355f, 0.054398294538259506226f, 0.056386485695838928223f, -0.020348412916064262390f, -0.051328327506780624390f, 0.072868973016738891602f, 0.027229772880673408508f, 0.038415368646383285522f, -0.032395694404840469360f, -0.013812584802508354187f, -0.015420867130160331726f, -0.067686997354030609131f, 0.0021672789007425308228f, 0.059725157916545867920f, 0.083852037787437438965f, 0.058449950069189071655f, 0.10609655827283859253f, 0.025368414819240570068f, -0.054885134100914001465f, 0.048134714365005493164f, 0.039531257003545761108f, 0.041679158806800842285f, 0.13717038929462432861f, 0.15487770736217498779f, 0.057215645909309387207f, -0.0052365101873874664307f, 0.0030136965215206146240f, 0.079421341419219970703f, 0.10881333053112030029f, 0.023327253758907318115f, 0.11436931043863296509f, -0.016577359288930892944f, -0.093863673508167266846f, 0.013763542287051677704f, -0.032567016780376434326f, 0.071704797446727752686f, -0.010614072903990745544f, 0.017295535653829574585f, -0.079847007989883422852f, -0.024891447275876998901f, -0.0070752422325313091278f, -0.037618603557348251343f, 0.018207313492894172668f, 0.066844917833805084229f, 0.088600948452949523926f, -0.031447011977434158325f, -0.049583181738853454590f, 0.011745801195502281189f, 0.0071556400507688522339f, 0.00026828912086784839630f, 0.017243517562747001648f, -0.012201732955873012543f, 0.046778686344623565674f, 0.026902923360466957092f, -0.010402673855423927307f, 0.025203188881278038025f, 0.011501030065119266510f, 0.017674416303634643555f, -0.030598649755120277405f, -0.020700018852949142456f, -0.044898577034473419189f, 0.014475101605057716370f, 0.029243348166346549988f, -0.060228623449802398682f, 0.011037093587219715118f, 0.013853256590664386749f, 0.046782057732343673706f, -0.043023876845836639404f, -0.041329432278871536255f, -0.030908724293112754822f, -0.073875576257705688477f, 0.027607962489128112793f, 0.015340626239776611328f, 0.024648591876029968262f, -0.027196351438760757446f, -0.019190346822142601013f, 0.016651751473546028137f, -0.051628269255161285400f, -0.028834696859121322632f, -0.0085763558745384216309f, 0.0045907581225037574768f, -0.052815701812505722046f, 0.021011963486671447754f, -0.010563941672444343567f, 0.022391615435481071472f, 0.040882889181375503540f, 0.021486280485987663269f, -0.024720473214983940125f, -0.079546228051185607910f, 0.024145347997546195984f, -0.021011136472225189209f, 0.020303780212998390198f, 0.030766937881708145142f, 0.030145112425088882446f, 0.051983825862407684326f, 0.036415606737136840820f, 0.0070901345461606979370f, -0.027155244722962379456f, 0.050460092723369598389f, -0.036650676280260086060f, -0.041244044899940490723f, 0.032566081732511520386f, 0.0084369974210858345032f, 0.020191159099340438843f, 0.014319133944809436798f, -0.041240554302930831909f, -0.0038103449624031782150f, 0.069982349872589111328f, 0.021990388631820678711f, -0.038613982498645782471f, -0.0095926290377974510193f, -0.020171403884887695312f, 0.019869923591613769531f, 0.016617590561509132385f, 0.074515685439109802246f, 0.0040353476069867610931f, -0.034577675163745880127f, 0.021257238462567329407f, -0.010772665031254291534f, -0.0044026239775121212006f, 0.037078633904457092285f, 0.10263632982969284058f, 0.070316977798938751221f, -0.075176835060119628906f, -0.039334569126367568970f, 0.0027224563527852296829f, 0.0023648117203265428543f, -0.0083383023738861083984f, 0.034096270799636840820f, 0.028159845620393753052f, -0.019700778648257255554f, 0.025147007778286933899f, -0.010793887078762054443f, -0.0058478661812841892242f, -0.037550527602434158325f, -0.011192222125828266144f, 0.065058134496212005615f, -0.017863249406218528748f, 0.052943415939807891846f, 0.013622329570353031158f, 0.0061230207793414592743f, -0.027415374293923377991f, -0.069608770310878753662f, 0.0048917722888290882111f, -0.029398240149021148682f, -0.035823535174131393433f, -0.034302774816751480103f, 0.061993386596441268921f, 0.049486517906188964844f, 0.062578111886978149414f, 0.083780623972415924072f, -0.050903581082820892334f, -0.0043905130587518215179f, 0.038809657096862792969f, 0.015620609745383262634f, 0.0092556504532694816589f, -0.014061086811125278473f, 0.029752092435956001282f, -0.076652094721794128418f, 0.011187599971890449524f, 0.068064868450164794922f, -0.0046904999762773513794f, 0.0031699948012828826904f, 0.051662869751453399658f, -0.021035123616456985474f, -0.072404302656650543213f, 0.052398901432752609253f, -0.023336054757237434387f, -0.042701009660959243774f, -0.037935201078653335571f, -0.012430157512426376343f, -0.041513130068778991699f, -0.11356930434703826904f, 0.029301846399903297424f, 0.027034349739551544189f, -0.0076117408461868762970f, -0.050835177302360534668f, -0.0023097924422472715378f, -0.031716223806142807007f, -0.10965263098478317261f, -0.032626170665025711060f, 0.039878547191619873047f, -0.0058938558213412761688f, -0.042219065129756927490f, -0.018687387928366661072f, 0.036809757351875305176f, -0.10336477309465408325f, -0.013446361757814884186f, 0.064749814569950103760f, 0.040602862834930419922f, 0.030576165765523910522f, -0.019263381138443946838f, -0.018401110544800758362f, -0.056931275874376296997f, 0.028598252683877944946f, 0.0046331225894391536713f, -0.050481900572776794434f, -0.024262588471174240112f, -0.0060244882479310035706f, 0.033721290528774261475f, -0.026509990915656089783f, 0.044883523136377334595f, 0.030080197378993034363f, 0.0087196808308362960815f, 0.010187481530010700226f, 0.0021879230625927448273f, 0.041191089898347854614f, -0.0039963237941265106201f, 0.021279554814100265503f, -0.0012289438163861632347f, 0.058642223477363586426f, -0.017506321892142295837f, -0.040374483913183212280f, 0.023566514253616333008f, 0.0065971859730780124664f, 0.056962616741657257080f, 0.031565513461828231812f, -0.0087647186592221260071f, 0.0040183411911129951477f, 0.0053261681459844112396f, -0.081559628248214721680f, -0.057650070637464523315f, -0.029254205524921417236f, 0.033541515469551086426f, 0.044939953833818435669f, -0.013334469869732856750f, -0.022234261035919189453f, 0.0020330434199422597885f, -0.062597021460533142090f, -0.041838128119707107544f, 0.062624379992485046387f, -0.00096835702424868941307f, -0.0027015828527510166168f, 0.020446833223104476929f, -0.00075404328526929020882f, -0.095028966665267944336f, 0.019200487062335014343f, -0.030250877141952514648f, -0.032580379396677017212f, 0.020018316805362701416f, 0.025324514135718345642f, 0.0032193816732615232468f, -0.043770145624876022339f, -0.026947820559144020081f, -0.013466561213135719299f, -0.015275094658136367798f, 0.0055304593406617641449f, -0.0044030607677996158600f, 0.017318777740001678467f, 0.0041396529413759708405f, 0.018183743581175804138f, 0.053974296897649765015f, -0.0041491547599434852600f, 0.019753005355596542358f, 0.052680052816867828369f, 0.073389530181884765625f, -0.038706474006175994873f, -0.0069805667735636234283f, -0.025611780583858489990f, -0.0023898945655673742294f, 0.018826371058821678162f, -0.012358980253338813782f, 0.054410602897405624390f, -0.018162192776799201965f, 0.016322832554578781128f, -0.019941583275794982910f, 0.028747621923685073853f, -0.050085674971342086792f, -0.040888529270887374878f, -0.022288564592599868774f, 0.015157903544604778290f, 0.066124632954597473145f, 0.056066527962684631348f, -0.0039042215794324874878f, 0.0018033585511147975922f, -0.014003931544721126556f, -0.018272290006279945374f, 0.054934695363044738770f, 0.015081763267517089844f, 0.041157159954309463501f, 0.026055524125695228577f, -0.0030327744316309690475f, 0.034489814192056655884f, 0.047168042510747909546f, 0.019357305020093917847f, -0.026868715882301330566f, 0.057008832693099975586f, 0.0068237357772886753082f, 0.0021538177970796823502f, 0.033435929566621780396f, 0.083999536931514739990f, 0.0041910344734787940979f, -0.026284560561180114746f, -0.027264548465609550476f, -0.019877770915627479553f, -0.049431964755058288574f, 0.0040510455146431922913f, 0.086768016219139099121f, 0.050728656351566314697f, 0.042331676930189132690f, -0.038201540708541870117f, 0.033490095287561416626f, -0.044318608939647674561f, 0.043746870011091232300f, 0.058080930262804031372f, 0.031952247023582458496f, 0.031697377562522888184f, 0.037926651537418365479f, 0.014677518978714942932f, 0.023264128714799880981f, -0.015089692547917366028f, 0.028679486364126205444f, -0.036441978067159652710f, -0.022389251738786697388f, -0.056481946259737014771f, -0.024572927504777908325f, -0.028523692861199378967f, -0.027689021080732345581f, -0.047374412417411804199f, -0.069315493106842041016f, -0.0022076277527958154678f, 0.043664086610078811646f, 0.053571391850709915161f, 0.052565246820449829102f, -0.014313031919300556183f, -0.060146488249301910400f, 0.0041243447922170162201f, 0.023648083209991455078f, -0.043589498847723007202f, 0.028879785910248756409f, 0.062968976795673370361f, 0.019227713346481323242f, -0.033045407384634017944f, 0.028196999803185462952f, 0.0093329614028334617615f, 0.027848474681377410889f, -0.033742669969797134399f, 0.067117944359779357910f, 0.015678485855460166931f, 0.087557882070541381836f, -0.022949898615479469299f},
  {0.036088731139898300171f, 0.00080334412632510066032f, 0.017208648845553398132f, 0.0098914382979273796082f, 0.044873621314764022827f, -0.014255987480282783508f, -0.097226269543170928955f, -0.012355249375104904175f, 0.039065815508365631104f, 0.0080314707010984420776f, 0.026329115033149719238f, -0.012169810943305492401f, 0.039008382707834243774f, -0.029655987396836280823f, 0.039810277521610260010f, -0.024794112890958786011f, -0.0076768831349909305573f, 0.029190808534622192383f, 0.0029049846343696117401f, 0.045306660234928131104f, -0.14101828634738922119f, 0.025756306946277618408f, 0.060264933854341506958f, 0.068616583943367004395f, 0.066718786954879760742f, 0.0079088676720857620239f, 0.067264959216117858887f, -0.10110380500555038452f, -0.036749232560396194458f, 0.060811609029769897461f, 0.028184354305267333984f, 0.041759539395570755005f, 0.092945680022239685059f, -0.030396094545722007751f, -0.11517749726772308350f, 0.030715001747012138367f, -0.0058368202298879623413f, 0.039560779929161071777f, -0.011312131769955158234f, 0.015710983425378799438f, -0.036617364734411239624f, -0.080949328839778900146f, -0.039957124739885330200f, 0.020590333268046379089f, 0.018417563289403915405f, -0.0023944571148604154587f, 0.067765586078166961670f, 0.010854866355657577515f, -0.024335579946637153625f, -0.030991824343800544739f, -0.012211970053613185883f, 0.047120586037635803223f, 0.057983510196208953857f, -0.031812842935323715210f, 0.057183798402547836304f, -0.026852214708924293518f, 0.028158701956272125244f, 0.018403114750981330872f, 0.050134338438510894775f, -0.029062956571578979492f, 0.053982026875019073486f, -0.032470654696226119995f, -0.036285012960433959961f, -0.027583573013544082642f, -0.028884826228022575378f, -0.013803332112729549408f, 0.0040695290081202983856f, 0.0027466798201203346252f, -0.0025821020826697349548f, 0.0027800588868558406830f, 0.035071391612291336060f, 0.014469058252871036530f, 0.0033967690542340278625f, 0.052220467478036880493f, 0.017585700377821922302f, 0.0010081820655614137650f, -0.036267306655645370483f, -0.038848556578159332275f, -0.058544635772705078125f, 0.0054415673948824405670f, -0.0031706099398434162140f, 0.019258059561252593994f, -0.0095581170171499252319f, -0.032657623291015625000f, 0.048338204622268676758f, -0.026743266731500625610f, 0.047852076590061187744f, 0.059507098048925399780f, -0.039490588009357452393f, -0.048451576381921768188f, -0.083014748990535736084f, -0.022493327036499977112f, -0.024373870342969894409f, -0.0031438479200005531311f, 0.010851045139133930206f, -0.023670148104429244995f, -0.018674232065677642822f, -0.055270321667194366455f, 0.054817471653223037720f, -0.037603177130222320557f, -0.043546639382839202881f, 0.017392223700881004333f, -0.018150258809328079224f, 0.031370393931865692139f, -0.011663812212646007538f, 0.056492041796445846558f, -0.049569122493267059326f, 0.029269402846693992615f, 0.044879008084535598755f, -0.037331063300371170044f, 0.028465988114476203918f, -0.023421149700880050659f, 0.0072152120992541313171f, 0.012101220898330211639f, -0.034837365150451660156f, -0.038910329341888427734f, -0.0011970645282417535782f, -0.020869126543402671814f, -0.11786413192749023438f, 0.028799330815672874451f, -0.067218698561191558838f, 0.022419853135943412781f, 0.052988570183515548706f, 0.014267692342400550842f, -0.053203169256448745728f, -0.045004051178693771362f, 0.016960661858320236206f, 0.0040075145661830902100f, 0.019813364371657371521f, 0.044370792806148529053f, -0.020159786567091941833f, -0.025105757638812065125f, -0.055907022207975387573f, 0.019708558917045593262f, 0.041703425347805023193f, -0.0093117412179708480835f, -0.011160886846482753754f, 0.0076389187015593051910f, -0.016864430159330368042f, -0.026178015395998954773f, 0.019782861694693565369f, -0.043623331934213638306f, -0.0016938762273639440536f, -0.032485071569681167603f, 0.00085998803842812776566f, -0.011294385418295860291f, -0.095827370882034301758f, -0.011229270137846469879f, -0.024658454582095146179f, -0.017874425277113914490f, 0.044837180525064468384f, -2.6677185815060511231e-05f, 0.030383139848709106445f, -0.043830491602420806885f, -0.036245852708816528320f, 0.010558178648352622986f, 0.048179388046264648438f, -0.034432400017976760864f, -0.043008167296648025513f, 0.029410662129521369934f, -0.029235361143946647644f, -0.025196578353643417358f, 0.034516826272010803223f, -0.0032493032049387693405f, -0.051858488470315933228f, -0.027592863887548446655f, -0.026586059480905532837f, -0.11758172512054443359f, 0.024527164176106452942f, -0.045334093272686004639f, 0.042661406099796295166f, 0.033141829073429107666f, -0.0063610994257032871246f, -0.036319416016340255737f, -0.097126074135303497314f, -0.022192545235157012939f, 0.0094112511724233627319f, 0.0021521300077438354492f, -0.045515242964029312134f, -0.059822063893079757690f, -0.0012819671537727117538f, -0.086756706237792968750f, -0.029849803075194358826f, 0.034011527895927429199f, 0.039748772978782653809f, 0.037008643150329589844f, 0.028885746374726295471f, 0.039166245609521865845f, -0.11337051540613174438f, 0.047380670905113220215f, 0.048142936080694198608f, -0.050606876611709594727f, -0.042603079229593276978f, 0.014762489125132560730f, 0.018492858856916427612f, -0.085048884153366088867f, -0.0012150537222623825073f, -0.015241165645420551300f, 0.0061717568896710872650f, -0.032788597047328948975f, 0.055252749472856521606f, 0.045067448168992996216f, -0.076612196862697601318f, 0.0074208700098097324371f, 0.0024975831620395183563f, 0.029588298872113227844f, 0.062248650938272476196f, 0.027008999139070510864f, -0.019166413694620132446f, -0.0070858406834304332733f, -0.0038557269144803285599f, -0.0061677484773099422455f, 0.025154905393719673157f, -0.026805983856320381165f, -0.0031498034950345754623f, -0.057932816445827484131f, -0.055430479347705841064f, 0.020770732313394546509f, 0.028442787006497383118f, -0.013723334297537803650f, -0.038333326578140258789f, 0.0033362857066094875336f, 0.021512430161237716675f, -0.11258013546466827393f, 0.051651101559400558472f, -0.0063263322226703166962f, 0.039724763482809066772f, 0.065400362014770507812f, 0.030012656003236770630f, -0.059209439903497695923f, -0.030864996835589408875f, 0.047962054610252380371f, 0.013779975473880767822f, 0.083192855119705200195f, -0.0019235048675909638405f, -0.0080998763442039489746f, -0.043247882276773452759f, -0.051333379000425338745f, 0.016802746802568435669f, -0.0050458130426704883575f, -0.021851833909749984741f, 0.0087181050330400466919f, 0.045418225228786468506f, -0.059009328484535217285f, -0.048578899353742599487f, -0.00025769797503016889095f, -0.031850352883338928223f, 0.010976607911288738251f, 0.012932594865560531616f, 0.070710338652133941650f, 0.013356356881558895111f, -0.047186966985464096069f, 0.054557420313358306885f, 0.0080334972590208053589f, 0.0023820491041988134384f, -0.017601067200303077698f, 0.043984860181808471680f, -0.014195013791322708130f, 0.020498743280768394470f, 0.044890500605106353760f, -0.041437398642301559448f, -0.0015369905158877372742f, -0.012493794783949851990f, 0.074573017656803131104f, 0.10593311488628387451f, 0.035369034856557846069f, 0.065292894840240478516f, -0.0050563346594572067261f, -0.022233637049794197083f, 0.052402324974536895752f, 0.046562299132347106934f, 0.12495312839746475220f, 0.043560713529586791992f, 0.065335310995578765869f, 0.064135693013668060303f, 0.080891884863376617432f, -0.017376482486724853516f, 0.073242612183094024658f, 0.0087137101218104362488f, 0.086962774395942687988f, 0.025160808116197586060f, -0.027163852006196975708f, 0.062565505504608154297f, 0.032131589949131011963f, -0.014278408139944076538f, 0.0043933442793786525726f, 0.025777747854590415955f, 0.049746546894311904907f, -0.024921283125877380371f, 0.052550286054611206055f, 0.061129290610551834106f, 0.044702082872390747070f, 0.0083521492779254913330f, -0.032157804816961288452f, -0.088564075529575347900f, -0.049077332019805908203f, -0.072733126580715179443f, -0.027555603533983230591f, 0.037422314286231994629f, -0.017876805737614631653f, -0.060094915330410003662f, -0.040280789136886596680f, -0.027000162750482559204f, -0.030988140031695365906f, 0.0048811649903655052185f, 0.014721885323524475098f, 0.043142601847648620605f, -0.0039890175685286521912f, -0.051030859351158142090f, -0.032574113458395004272f, 0.012079043313860893250f, -0.020384265109896659851f, 0.027175296097993850708f, 0.029584154486656188965f, 0.020905749872326850891f, -0.018675653263926506042f, 0.023883387446403503418f, 0.012743446044623851776f, -0.010017722845077514648f, 0.048157848417758941650f, -0.0068867760710418224335f, 0.0086935553699731826782f, -0.034059491008520126343f, -0.025982918217778205872f, -0.00066557055106386542320f, 0.097291640937328338623f, 0.065007150173187255859f, 0.036379616707563400269f, 0.062689110636711120605f, -0.062892980873584747314f, 0.00038650206988677382469f, 0.041889972984790802002f, 0.075695797801017761230f, -0.0089551452547311782837f, 0.034366503357887268066f, -0.027661703526973724365f, -0.025290647521615028381f, -0.034405030310153961182f, -0.057596892118453979492f, -0.011424879543483257294f, 0.0042205885984003543854f, 0.035755164921283721924f, 0.019386254251003265381f},
  {-0.044475819915533065796f, -0.032602194696664810181f, -0.0038511988241225481033f, -0.036051809787750244141f, 0.049150567501783370972f, 0.062718614935874938965f, 0.0028765327297151088715f, -0.024862183257937431335f, 0.011197445914149284363f, 0.0086426921188831329346f, 0.070078961551189422607f, 0.014351278543472290039f, -0.015535935759544372559f, 0.0091660590842366218567f, 0.018414955586194992065f, -0.0052549284882843494415f, -0.0041980263777077198029f, 0.018728332594037055969f, 0.11121815443038940430f, 0.074046216905117034912f, 0.094492800533771514893f, 0.089190199971199035645f, 0.026116838678717613220f, 0.047051589936017990112f, 0.051342297345399856567f, 0.10247038304805755615f, 0.037485983222723007202f, 0.095350563526153564453f, 0.020264968276023864746f, 0.028288181871175765991f, 0.014375969767570495605f, 0.014972951263189315796f, 0.040786739438772201538f, 0.090449787676334381104f, -0.014143793843686580658f, -0.021431297063827514648f, -0.034702684730291366577f, -0.023150881752371788025f, 0.023267699405550956726f, 0.049989815801382064819f, 0.0068075945600867271423f, -0.018875956535339355469f, -0.013887543231248855591f, -0.045518394559621810913f, -0.031135838478803634644f, -0.039019703865051269531f, -0.012780840508639812469f, -0.027688292786478996277f, -0.12029299139976501465f, 0.029674934223294258118f, 0.036306083202362060547f, 0.019295148551464080811f, 0.014871358871459960938f, -0.017560273408889770508f, -0.019169554114341735840f, -0.10928258299827575684f, 0.039055310189723968506f, -0.048761993646621704102f, -0.016807211562991142273f, -0.017098138108849525452f, 0.010065830312669277191f, -0.0035211301874369382858f, -0.10408332943916320801f, 0.052816487848758697510f, 0.022963138297200202942f, 0.010944589041173458099f, -0.015984378755092620850f, 0.042107149958610534668f, 0.041151631623506546021f, -0.058018390089273452759f, 0.069534964859485626221f, -0.0044457912445068359375f, 0.024915641173720359802f, -0.011256900615990161896f, 0.034974638372659683228f, 0.058107629418373107910f, -0.095269918441772460938f, 0.0033320325892418622971f, -0.00077417644206434488297f, 0.0080725280568003654480f, -0.0054133716039359569550f, -0.013211452402174472809f, 0.033837638795375823975f, -0.10193982720375061035f, -0.019349178299307823181f, -0.0085530020296573638916f, -0.025866216048598289490f, -0.052883960306644439697f, 0.013930956833064556122f, -0.027953999117016792297f, -0.15693183243274688721f, -0.0021637291647493839264f, -0.033758651465177536011f, 0.025702191516757011414f, -0.010033908300101757050f, 0.064180187880992889404f, -0.00096067332196980714798f, -0.10122240334749221802f, 0.021823111921548843384f, 0.028401661664247512817f, -0.044736474752426147461f, -0.032686863094568252563f, -0.020353764295578002930f, -0.042108334600925445557f, -0.096026197075843811035f, 0.019598992541432380676f, 0.040277816355228424072f, 0.014578114263713359833f, -0.018087230622768402100f, -0.033825535327196121216f, -0.045695766806602478027f, -0.11170468479394912720f, 0.016108561307191848755f, 0.013135883025825023651f, 0.039443247020244598389f, -0.037727344781160354614f, 0.010998056270182132721f, -0.0090641956776380538940f, -0.057420231401920318604f, 0.054985158145427703857f, -0.00025809943326748907566f, -0.021582655608654022217f, -0.026031577959656715393f, 0.019024197012186050415f, -0.025195956230163574219f, -0.12699641287326812744f, 0.036861941218376159668f, -0.018048767000436782837f, -0.035491023212671279907f, 0.0025346132460981607437f, -0.0027619423344731330872f, -0.021140947937965393066f, -0.11987582594156265259f, -0.0040970663540065288544f, -0.050919186323881149292f, 0.0047975461930036544800f, -0.0084064891561865806580f, 0.025213262066245079041f, -0.022498011589050292969f, -0.090524092316627502441f, 0.0050228293985128402710f, 0.031554479151964187622f, -0.041982267051935195923f, 0.0064693926833570003510f, -0.0013579108053818345070f, -0.063610546290874481201f, -0.10104384273290634155f, -0.033510830253362655640f, -0.0066534611396491527557f, -0.029982157051563262939f, -0.034771177917718887329f, 0.030236002057790756226f, -0.039161801338195800781f, -0.017782568931579589844f, -0.052343662828207015991f, -0.0029292386025190353394f, 0.0061544720083475112915f, 0.044098228216171264648f, -0.013487038202583789825f, 0.025443963706493377686f, -0.056983318179845809937f, 0.042447995394468307495f, 1.6649339158902876079e-05f, 0.00023539917310699820518f, -0.034551706165075302124f, -0.0059026894159615039825f, 0.061588671058416366577f, -0.092551119625568389893f, 0.024569097906351089478f, -0.0070396945811808109283f, 0.015138243325054645538f, -0.029874591156840324402f, -0.016470937058329582214f, -0.018251296132802963257f, -0.024591783061623573303f, 0.038194999098777770996f, 0.022715250030159950256f, -0.022922186180949211121f, 0.020457029342651367188f, -0.036666065454483032227f, 0.015732469037175178528f, -0.0019187574507668614388f, 0.046458039432764053345f, -0.046287834644317626953f, -0.011498905718326568604f, 0.021420888602733612061f, -0.034983273595571517944f, -0.048225942999124526978f, -0.10836467146873474121f, 0.0093031926080584526062f, 0.017386415973305702209f, 0.010491348803043365479f, -0.018189977854490280151f, 0.031525645405054092407f, -0.0082812542095780372620f, -0.079255424439907073975f, 0.0060871532186865806580f, -0.029849695041775703430f, 0.018889665603637695312f, -0.067544601857662200928f, -0.018435854464769363403f, -0.047242235392332077026f, -0.062010206282138824463f, -0.019040910527110099792f, -0.00072677334537729620934f, -0.040936406701803207397f, 0.019858496263623237610f, -0.059152934700250625610f, 0.035470094531774520874f, -0.097384922206401824951f, 0.024671394377946853638f, -0.036350581794977188110f, -0.020978419110178947449f, -0.037441723048686981201f, 0.037904053926467895508f, 0.017026942223310470581f, -0.13603846728801727295f, 0.026780087500810623169f, -0.043138287961483001709f, -0.0035839478950947523117f, -0.040115844458341598511f, -0.012311914935708045959f, -0.046932864934206008911f, -0.12603081762790679932f, -0.026000065729022026062f, 0.018132057040929794312f, -0.0065415240824222564697f, -0.0048371381126344203949f, 0.017619187012314796448f, -0.063561759889125823975f, -0.10827590525150299072f, 0.00023672450333833694458f, -0.0055930484086275100708f, -0.021017579361796379089f, 0.0047174715436995029449f, 0.048364333808422088623f, 0.032641239464282989502f, -0.10853274911642074585f, -0.026608180254697799683f, -0.0049879723228514194489f, -0.069016195833683013916f, -0.038879472762346267700f, -0.033443335443735122681f, 0.030366593971848487854f, -0.10278077423572540283f, 0.070744968950748443604f, -0.019249264150857925415f, -0.029236808419227600098f, -0.0018796700751408934593f, 0.0020190337672829627991f, -0.0071204025298357009888f, -0.10638049989938735962f, -0.017563382163643836975f, 0.041646517813205718994f, 0.061150159686803817749f, -0.026730228215456008911f, 0.0028609822038561105728f, -0.0087581109255552291870f, -0.082954570651054382324f, 0.012941820546984672546f, 0.015341747552156448364f, 0.023990921676158905029f, 0.0081747453659772872925f, 0.010044677183032035828f, -0.11735344678163528442f, -0.17836944758892059326f, 0.074142627418041229248f, -0.0088807381689548492432f, -0.024867927655577659607f, -0.073320083320140838623f, -0.034218866378068923950f, -0.18990328907966613770f, -0.27223536372184753418f, 0.054464925080537796021f, -0.041162442415952682495f, -0.066444173455238342285f, -0.063199557363986968994f, -0.0042256419546902179718f, -0.056018043309450149536f, -0.29970455169677734375f, 0.018062682822346687317f, -0.032328885048627853394f, -0.032181188464164733887f, 0.020285226404666900635f, 0.020386174321174621582f, -0.0075310203246772289276f, -0.19009512662887573242f, 0.034594349563121795654f, 0.020024852827191352844f, -0.019285036250948905945f, -0.074665799736976623535f, 0.038728736340999603271f, 0.063870273530483245850f, -0.13634505867958068848f, 0.0048821959644556045532f, 0.042062159627676010132f, 0.047738045454025268555f, 0.042162589728832244873f, 0.0072884848341345787048f, 0.061843309551477432251f, -0.0096155414357781410217f, 0.039202898740768432617f, 0.066445991396903991699f, 0.061912957578897476196f, -0.0014059903332963585854f, 0.055888138711452484131f, -0.0069218794815242290497f, -0.083367824554443359375f, 0.072704158723354339600f, -0.010226259008049964905f, 0.040282413363456726074f, 0.081195153295993804932f, -0.014231825247406959534f, -0.068732015788555145264f, -0.13340519368648529053f, 0.020499620586633682251f, -0.031065260991454124451f, -0.016727693378925323486f, 0.043627899140119552612f, 0.070248134434223175049f, -0.0063875210471451282501f, -0.082483910024166107178f, 0.040707901120185852051f, -0.026336275041103363037f, -0.034344032406806945801f, 0.015299657359719276428f, 0.080719344317913055420f, -0.014063018374145030975f, -0.11915209889411926270f, -0.022249531000852584839f, -0.023934194818139076233f, -0.026082115247845649719f, 0.051067557185888290405f, 0.0062292465008795261383f, -0.059986140578985214233f, -0.11111973971128463745f, 0.027309559285640716553f, 0.0014957012608647346497f, 0.042307078838348388672f, 0.022937893867492675781f, -0.039124306291341781616f, -0.0078436071053147315979f, -0.090571291744709014893f},
  {-0.027155622839927673340f, -0.035774175077676773071f, 0.038974918425083160400f, -0.010272656567394733429f, -0.0083236722275614738464f, 0.0014268570812419056892f, -0.051063518971204757690f, 0.058885455131530761719f, -0.0059590642340481281281f, -0.039303939789533615112f, -0.074545755982398986816f, 0.0040192119777202606201f, -0.040759146213531494141f, -0.060015097260475158691f, -0.0021235200110822916031f, -0.048224199563264846802f, -0.043065544217824935913f, 0.0056415009312331676483f, -0.047229427844285964966f, -0.051250267773866653442f, -0.14113610982894897461f, -0.048934347927570343018f, 0.0056218933314085006714f, -0.080498650670051574707f, 0.018541490659117698669f, -0.0042145554907619953156f, -0.067054003477096557617f, -0.12990525364875793457f, 0.033665042370557785034f, -0.059192754328250885010f, -0.010487325489521026611f, -0.0097131123766303062439f, 0.013852889649569988251f, -0.0098813949152827262878f, -0.091816060245037078857f, 0.040697850286960601807f, -0.020785963162779808044f, -0.023951115086674690247f, 0.034531228244304656982f, 0.010375506244599819183f, -0.043608792126178741455f, -0.034287765622138977051f, -0.022751104086637496948f, 0.048988923430442810059f, -0.0042679337784647941589f, 0.015610186383128166199f, 0.028294648975133895874f, 0.033991686999797821045f, -0.0047404700890183448792f, -0.022316915914416313171f, 0.032416619360446929932f, 0.033915337175130844116f, -0.018154788762331008911f, -0.030532285571098327637f, 0.050399716943502426147f, 0.059555519372224807739f, 0.014162735082209110260f, 0.041494727134704589844f, -0.036673363298177719116f, 0.022483205422759056091f, -0.014513548463582992554f, 0.062303971499204635620f, 0.057538565248250961304f, 0.030684301629662513733f, 0.048876792192459106445f, -0.045475181192159652710f, -0.045100644230842590332f, -0.030205057933926582336f, 0.048005774617195129395f, 0.035132184624671936035f, -0.056252624839544296265f, 0.015292906202375888824f, 0.029089538380503654480f, -0.038592372089624404907f, 0.078685790300369262695f, 0.029303275048732757568f, 0.044406447559595108032f, 0.033921923488378524780f, 0.035947065800428390503f, 0.017028670758008956909f, 0.058921150863170623779f, 0.059515118598937988281f, 0.039108775556087493896f, 0.019564848393201828003f, 0.0072800070047378540039f, -0.042470380663871765137f, 0.030180066823959350586f, 0.023246277123689651489f, 0.014287352561950683594f, -0.020047591999173164368f, 0.032229539006948471069f, 0.032312363386154174805f, 0.035269789397716522217f, 0.039931777864694595337f, 0.0055481204763054847717f, -0.0023023118264973163605f, 0.0043914392590522766113f, 0.098123371601104736328f, -0.011642472818493843079f, 0.018820112571120262146f, 0.021222304552793502808f, -0.068386577069759368896f, 0.010673394426703453064f, 0.019835669547319412231f, 0.0088331438601016998291f, 0.046572592109441757202f, 0.0070852315984666347504f, 0.037497114390134811401f, -0.033340323716402053833f, 0.054608747363090515137f, -0.013375578448176383972f, -0.0029000020585954189301f, 0.025819048285484313965f, 0.063480176031589508057f, 0.029569374397397041321f, -0.010424321517348289490f, 0.049285151064395904541f, 0.010725323110818862915f, 0.013866097666323184967f, -0.069417528808116912842f, -0.023383172228932380676f, 0.042407363653182983398f, -0.0058928662911057472229f, 0.013635061681270599365f, 0.070815868675708770752f, 0.047607608139514923096f, -0.022346038371324539185f, 0.054119799286127090454f, -0.024589737877249717712f, -0.00090972083853557705879f, 0.019411332905292510986f, 0.047436393797397613525f, 0.026844190433621406555f, 0.042049638926982879639f, 0.010430119931697845459f, 0.031894143670797348022f, -0.016393542289733886719f, 0.083568856120109558105f, 0.094628639519214630127f, -0.0051177428103983402252f, 0.0024199394974857568741f, -0.028553521260619163513f, 0.036042716354131698608f, -0.054024875164031982422f, -0.011765252798795700073f, 0.076096646487712860107f, 0.0075734928250312805176f, 0.049303364008665084839f, -0.0082619972527027130127f, 0.035844307392835617065f, -0.029628969728946685791f, 0.089219987392425537109f, 0.034305952489376068115f, 0.013502068817615509033f, 0.053809057921171188354f, -0.056362066417932510376f, -0.050876941531896591187f, 0.052584607154130935669f, 0.0016210878966376185417f, -0.018147554248571395874f, 0.015464570373296737671f, -0.0090178381651639938354f, -0.0033893953077495098114f, -0.024167452007532119751f, 0.036900252103805541992f, -0.033142700791358947754f, 0.023713661357760429382f, 0.032995082437992095947f, -0.013238741084933280945f, 0.013497959822416305542f, 0.029131421819329261780f, 0.0070333704352378845215f, 0.0044298414140939712524f, 0.0045158634893596172333f, -0.053759630769491195679f, -0.039291016757488250732f, 0.081913568079471588135f, 0.0012125022476539015770f, 0.028738843277096748352f, 0.064217247068881988525f, 0.024187700822949409485f, -0.069532468914985656738f, -0.039824061095714569092f, 0.0028437315486371517181f, 0.020946668460965156555f, -0.051383081823587417603f, 0.027871690690517425537f, 0.048566229641437530518f, 0.033725004643201828003f, 0.017650181427597999573f, 0.026832025498151779175f, 0.034313656389713287354f, 0.041294977068901062012f, 0.049660958349704742432f, -0.014341849833726882935f, -0.015129288658499717712f, -0.030554043129086494446f, -0.018265524879097938538f, 0.013893721625208854675f, -0.0034856765996664762497f, 0.084275037050247192383f, 0.070869915187358856201f, 0.014624400995671749115f, -0.054138943552970886230f, -0.025401808321475982666f, -0.027774855494499206543f, 0.024254748597741127014f, 0.0043100873008370399475f, 0.012685939669609069824f, 0.013151852414011955261f, -0.023916263133287429810f, 0.025638261809945106506f, -0.020311215892434120178f, -0.015107257291674613953f, -0.048427421599626541138f, -0.0064484500326216220856f, 0.040299821645021438599f, -0.024803323671221733093f, -0.023441700264811515808f, 0.036126878112554550171f, -0.021092884242534637451f, -0.064473330974578857422f, -0.046663124114274978638f, 0.031077310442924499512f, -0.061134964227676391602f, 0.046585243195295333862f, -0.015309612266719341278f, -0.022262999787926673889f, -0.0060557234100997447968f, 0.0086393402889370918274f, 0.039039868861436843872f, 0.019117766991257667542f, -0.043279167264699935913f, 0.012346680276095867157f, 0.0029308185912668704987f, -0.026468390598893165588f, -0.036803904920816421509f, 0.062638767063617706299f, -0.014634744264185428619f, 0.031413000077009201050f, 0.027119711041450500488f, 0.011676065623760223389f, 0.020010750740766525269f, -0.032976575195789337158f, 0.029565943405032157898f, -0.027608020231127738953f, -0.066263139247894287109f, 0.014444726519286632538f, 0.034578669816255569458f, 0.056774787604808807373f, -0.0089898910373449325562f, 0.020066540688276290894f, -0.029504720121622085571f, -0.013651100918650627136f, -0.011752309277653694153f, -0.012495041824877262115f, 0.084000468254089355469f, 0.068885684013366699219f, 0.093272723257541656494f, -0.018328784033656120300f, 0.0077948332764208316803f, 0.027062309905886650085f, -0.073697648942470550537f, -0.027938775718212127686f, 0.072150811553001403809f, 0.13122329115867614746f, -0.0033589955419301986694f, -0.053446918725967407227f, -0.025789981707930564880f, -0.018857788294553756714f, -0.019706837832927703857f, 0.10521335154771804810f, 0.11985635012388229370f, 0.028729252517223358154f, -0.0010253345826640725136f, 0.052493754774332046509f, -0.053178645670413970947f, 0.012429203838109970093f, 0.052684433758258819580f, 0.10385102778673171997f, 0.024897104129195213318f, -0.055501561611890792847f, 0.034520138055086135864f, -0.0018159657483920454979f, 0.017251055687665939331f, 0.015998341143131256104f, 0.11109647899866104126f, 0.0026217531412839889526f, 0.021442435681819915771f, -0.064330346882343292236f, 0.069407865405082702637f, 0.030736802145838737488f, -0.045174557715654373169f, 0.10476777702569961548f, 0.065193198621273040771f, -0.0069133103825151920319f, -0.024289885535836219788f, 0.047089453786611557007f, 0.021801749244332313538f, 0.043884769082069396973f, 0.0050176866352558135986f, 0.035249102860689163208f, 0.059221129864454269409f, -0.026635177433490753174f, -0.042612090706825256348f, 0.035329554229974746704f, 0.026700651273131370544f, 0.030526190996170043945f, -0.025857307016849517822f, 0.060024149715900421143f, -0.0044204136356711387634f, -0.046053066849708557129f, -0.044526889920234680176f, 0.0013108247658237814903f, 0.048348475247621536255f, 0.0095826974138617515564f, 0.050846468657255172729f, -0.018682759255170822144f, -0.050841018557548522949f, -0.019314600154757499695f, -0.014948477968573570251f, 0.016509016975760459900f, 0.040419176220893859863f, 0.060890443623065948486f, 0.0033767654094845056534f, 0.017860475927591323853f, -0.00041712980601005256176f, -0.0073855598457157611847f, 0.054221760481595993042f, 0.041750658303499221802f, 0.030923401936888694763f, 0.039679307490587234497f, 0.044884227216243743896f, 0.0097295204177498817444f, -0.012801468372344970703f, 0.096181139349937438965f, -0.027427978813648223877f, 0.064717300236225128174f, 0.029148166999220848083f, 0.068482533097267150879f, 0.023082224652171134949f, -0.050929822027683258057f, 0.092187203466892242432f},
  {-0.017608378082513809204f, 0.0082354592159390449524f, 0.045102503150701522827f, -0.019805574789643287659f, 0.040258120745420455933f, 0.012539622373878955841f, 0.029818015173077583313f, -0.018383637070655822754f, 0.039331048727035522461f, 0.063722290098667144775f, 0.054691448807716369629f, 0.083742149174213409424f, 0.034554101526737213135f, -0.075492247939109802246f, 0.068011328577995300293f, 0.034703914076089859009f, 0.065943129360675811768f, 0.0051788655109703540802f, 0.075901880860328674316f, 0.040133811533451080322f, 0.020202856510877609253f, 0.055627189576625823975f, 0.073171131312847137451f, 0.11125732213258743286f, 0.048933286219835281372f, 0.094527035951614379883f, 0.067849785089492797852f, -0.047427184879779815674f, 0.067492023110389709473f, 0.044468060135841369629f, 0.11031097173690795898f, 0.059574246406555175781f, 0.029820438474416732788f, 0.036583080887794494629f, 0.0097225159406661987305f, 0.057199575006961822510f, 0.024464640766382217407f, 0.015064737759530544281f, -0.024212813004851341248f, -0.0091434828937053680420f, 0.034026205539703369141f, -0.044098652899265289307f, 0.037150789052248001099f, 0.017429700121283531189f, -0.0019096453906968235970f, 0.074064426124095916748f, 0.018632188439369201660f, 0.013295597396790981293f, -0.024526664987206459045f, -0.049803167581558227539f, 0.0038921509403735399246f, 0.017733410000801086426f, -0.013650511391460895538f, 0.037957582622766494751f, -0.030564060434699058533f, -0.062823675572872161865f, -0.029791217297315597534f, -0.026432352140545845032f, 0.0071273697540163993835f, -0.0053966804407536983490f, 0.032271239906549453735f, -0.034322015941143035889f, -0.014177377335727214813f, 0.011176403611898422241f, 0.012938388623297214508f, 0.048065479844808578491f, 0.041044164448976516724f, -0.0026024740654975175858f, -0.025005485862493515015f, -0.044972807168960571289f, -0.021050743758678436279f, 0.013490790501236915588f, -0.017651557922363281250f, 0.049044877290725708008f, 0.053533449769020080566f, 0.017455799505114555359f, -0.030828798189759254456f, 0.025002883747220039368f, -0.0073221386410295963287f, 0.048497393727302551270f, -0.034666322171688079834f, 0.051284074783325195312f, -0.012234271503984928131f, -0.077320158481597900391f, 0.0044849398545920848846f, 0.031612306833267211914f, 0.042626127600669860840f, 0.011420358903706073761f, -0.0018579423194751143456f, 0.0059933490119874477386f, -0.047462306916713714600f, 0.0032245719339698553085f, 0.0012455588439479470253f, 0.048162881284952163696f, 0.035886038094758987427f, -0.032950837165117263794f, 0.013366366736590862274f, -0.047001026570796966553f, -0.012129109352827072144f, -0.038072746247053146362f, 0.024743219837546348572f, -0.032785914838314056396f, 0.041697673499584197998f, 0.038746289908885955811f, -0.070567399263381958008f, -0.052197206765413284302f, 0.0084740351885557174683f, -0.0017238454893231391907f, 0.025542559102177619934f, -0.037815485149621963501f, 0.018628677353262901306f, -0.094705373048782348633f, -0.032408282160758972168f, -0.032726123929023742676f, 0.023803815245628356934f, 0.0063031134195625782013f, -0.056199088692665100098f, -0.050261311233043670654f, -0.090081162750720977783f, -0.050074059516191482544f, -0.0082325888797640800476f, -0.0028985431417822837830f, -0.016350526362657546997f, -0.018530944362282752991f, -0.0085406126454472541809f, -0.10884871333837509155f, -0.028188362717628479004f, -0.0090790400281548500061f, 0.054226614534854888916f, -0.021061604842543601990f, 0.028857860714197158813f, -0.025160443037748336792f, -0.077303282916545867920f, -0.046983517706394195557f, 0.047613121569156646729f, 0.070179201662540435791f, -0.018990317359566688538f, 0.026795353740453720093f, 0.049290180206298828125f, -0.023795494809746742249f, 0.031532414257526397705f, -0.044377617537975311279f, -0.048885375261306762695f, -0.062353197485208511353f, 0.0042562545277178287506f, -0.038255084306001663208f, -0.068917877972126007080f, -0.031219122931361198425f, -0.053505346179008483887f, 0.0093035493046045303345f, 0.010231338441371917725f, -0.022776719182729721069f, 0.052000563591718673706f, -0.054499205201864242554f, -0.013844101689755916595f, 0.050411693751811981201f, 0.063850358128547668457f, 0.0078167561441659927368f, -0.035951998084783554077f, -0.026793127879500389099f, -0.046076398342847824097f, 0.034455135464668273926f, 0.034930340945720672607f, -0.017060158774256706238f, -0.038179125636816024780f, -0.059712279587984085083f, -0.039434522390365600586f, -0.080132335424423217773f, -0.019316595047712326050f, -0.048046149313449859619f, 0.0058660190552473068237f, -0.049924191087484359741f, -0.065315037965774536133f, -0.077282562851905822754f, -0.10963491350412368774f, 0.055108323693275451660f, 0.031740393489599227905f, 0.00050964206457138061523f, -0.00045201883767731487751f, 0.0083196954801678657532f, -0.024053001776337623596f, -0.14233626425266265869f, -0.020216193050146102905f, -0.022247610613703727722f, 0.022622993215918540955f, -0.057722236961126327515f, -0.0097980173304677009583f, -0.015778137370944023132f, -0.021276947110891342163f, 0.050894606858491897583f, 0.042535621672868728638f, 0.0096228960901498794556f, -0.022051436826586723328f, 0.022695139050483703613f, -0.021535232663154602051f, -0.060161788016557693481f, -0.018868509680032730103f, -0.020419644191861152649f, -0.068321458995342254639f, 0.0064532696269452571869f, 0.056999646127223968506f, 0.00092074566055089235306f, -0.0027720574289560317993f, -0.0038527436554431915283f, 0.0050511802546679973602f, 0.010363856330513954163f, 0.054397311061620712280f, 0.0094864834100008010864f, -0.019339215010404586792f, -0.051074109971523284912f, 0.035760078579187393188f, 0.030201260000467300415f, 0.010584722273051738739f, -0.00062120961956679821014f, -0.031775716692209243774f, -0.018168224021792411804f, -0.072079852223396301270f, 0.019672492519021034241f, 0.029016854241490364075f, 0.052700221538543701172f, -0.012742022983729839325f, -0.014910112135112285614f, 0.028270896524190902710f, -0.030175212770700454712f, 0.021914161741733551025f, 0.039679314941167831421f, 0.024779116734862327576f, -0.039957966655492782593f, -0.0091558620333671569824f, -0.015258028171956539154f, -0.0066536595113575458527f, 0.058514624834060668945f, 0.026338525116443634033f, 0.071514002978801727295f, -0.018907889723777770996f, 0.049302443861961364746f, 0.058033060282468795776f, -0.047675386071205139160f, -0.042209368199110031128f, -0.019344847649335861206f, -0.013392974622547626495f, 0.0086351456120610237122f, -0.018860165029764175415f, 0.039889398962259292603f, -0.045743040740489959717f, -0.012441700324416160583f, -0.024851059541106224060f, -0.019367851316928863525f, -0.049059651792049407959f, -0.0060681775212287902832f, 0.043233018368482589722f, 0.033174436539411544800f, 0.064985752105712890625f, -0.022495396435260772705f, 0.042349968105554580688f, -0.014713609591126441956f, -0.025258829817175865173f, 0.038732323795557022095f, -0.018249901011586189270f, -0.028029561042785644531f, -0.032198924571275711060f, -0.010908145457506179810f, 0.060685958713293075562f, 0.040607977658510208130f, 0.024831274524331092834f, -0.0092014810070395469666f, -0.025238404050469398499f, -0.015089653432369232178f, -0.017481606453657150269f, 0.043246541172266006470f, 0.023351259529590606689f, 0.030503863468766212463f, 0.072408199310302734375f, -0.012481975369155406952f, -0.010758504271507263184f, 0.034131746739149093628f, -0.0083101820200681686401f, 0.028516711667180061340f, 0.096134379506111145020f, 0.0077100675553083419800f, -0.016355007886886596680f, 0.048294965177774429321f, -0.0090524489060044288635f, 0.078255064785480499268f, -0.00077324104495346546173f, 0.067600019276142120361f, -0.018805457279086112976f, -0.028688754886388778687f, 0.012431622482836246490f, 0.037522003054618835449f, 0.074878014624118804932f, 0.087281987071037292480f, 0.032207947224378585815f, 0.0089412666857242584229f, -0.027649380266666412354f, -0.029493784531950950623f, -0.0064274687319993972778f, -0.052773974835872650146f, -0.0052276095375418663025f, 0.082834467291831970215f, -0.029265508055686950684f, 0.019534612074494361877f, 0.0029425080865621566772f, 0.028676141053438186646f, 0.062813259661197662354f, -0.0053408951498568058014f, 0.024477452039718627930f, 0.022578358650207519531f, 0.00020048416627105325460f, -0.051063869148492813110f, 0.046010639518499374390f, 0.0033808217849582433701f, 0.040174994617700576782f, 0.069445028901100158691f, 0.015734333544969558716f, -0.030854098498821258545f, -0.010889423079788684845f, 0.063471630215644836426f, 0.075227297842502593994f, 0.044540133327245712280f, -0.0012482462916523218155f, 0.0045781731605529785156f, 0.031547952443361282349f, 0.046920392662286758423f, 0.054768856614828109741f, 0.010499413125216960907f, 0.088045574724674224854f, 0.027155205607414245605f, 0.075244031846523284912f, 0.037528470158576965332f, 0.010910713113844394684f, -0.0019817873835563659668f, 0.093155629932880401611f, 0.010288511402904987335f, 0.063753299415111541748f, -0.027684554457664489746f, -0.035798538476228713989f, -0.057808872312307357788f, -0.018892735242843627930f, 0.062109198421239852905f, 0.012717804871499538422f, -0.0068391496315598487854f, 0.060244493186473846436f},
  {0.0093090785667300224304f, 0.0093860160559415817261f, -0.024034678936004638672f, -0.030750367790460586548f, -0.042679168283939361572f, 0.026890911161899566650f, 0.059410072863101959229f, -0.044146109372377395630f, -0.047907128930091857910f, -0.039427503943443298340f, 0.018557647243142127991f, 0.032124679535627365112f, 0.036185253411531448364f, 0.083512067794799804688f, 0.033272523432970046997f, 0.040650263428688049316f, 0.012557270005345344543f, -0.027261441573500633240f, -0.030697662383317947388f, 0.053525704890489578247f, 0.15673305094242095947f, 0.045473039150238037109f, 0.058938477188348770142f, 0.10679300129413604736f, -0.029994215816259384155f, -0.066425696015357971191f, -0.0066571286879479885101f, 0.081655740737915039062f, -0.045058965682983398438f, -0.011016622185707092285f, 0.027780666947364807129f, -0.017949910834431648254f, -0.048517715185880661011f, -0.010733766481280326843f, 0.16980417072772979736f, -0.042373277246952056885f, 0.010527291335165500641f, 0.023218946531414985657f, -0.067871764302253723145f, -0.032135855406522750854f, 0.062166430056095123291f, 0.13292840123176574707f, -0.029990283772349357605f, 0.036183424293994903564f, -0.044451948255300521851f, -0.077209047973155975342f, 0.012952097691595554352f, 0.0057208547368645668030f, 0.10195682197809219360f, -0.0072445776313543319702f, -0.023881265893578529358f, 0.043014202266931533813f, 0.027890220284461975098f, 0.0058340197429060935974f, -0.027916353195905685425f, 0.059350475668907165527f, -0.050472896546125411987f, 0.017927372828125953674f, -0.019515061751008033752f, -0.0069244443438947200775f, 0.023284405469894409180f, 0.031510218977928161621f, 0.038301900029182434082f, 0.014733116142451763153f, 0.010744825005531311035f, -0.033575337380170822144f, 0.014577306807041168213f, -0.0067424210719764232635f, 0.0086262831464409828186f, 0.041638050228357315063f, -0.031091799959540367126f, -0.053006265312433242798f, 0.054231073707342147827f, 0.014153136871755123138f, -0.045223243534564971924f, 0.070864513516426086426f, 0.055373288691043853760f, -0.019785337150096893311f, -0.033700395375490188599f, -0.00048874836647883057594f, -0.0012806664453819394112f, -0.00098615873139351606369f, 0.015098643489181995392f, 0.032321136444807052612f, 0.0076280715875327587128f, 0.022329656407237052917f, -0.0032801774796098470688f, -0.042573887854814529419f, -0.00010985843255184590816f, 0.019216584041714668274f, 0.099949270486831665039f, -0.010469925589859485626f, -0.0046845157630741596222f, -0.0017102537676692008972f, 0.011077891103923320770f, -0.012438452802598476410f, 0.057690974324941635132f, 0.069822072982788085938f, -0.065275579690933227539f, 0.012729593552649021149f, -0.020227562636137008667f, -0.024767020717263221741f, 0.023741809651255607605f, 0.054060086607933044434f, 0.060604438185691833496f, 0.014178285375237464905f, -0.048624545335769653320f, -0.014346490614116191864f, -0.012587033212184906006f, -0.0021451932843774557114f, 0.032547887414693832397f, 0.12541164457798004150f, -0.051106791943311691284f, -0.042018987238407135010f, 0.015893980860710144043f, 0.0065169590525329113007f, 0.0052504828199744224548f, 0.066820815205574035645f, 0.11083231121301651001f, 0.039578173309564590454f, 0.044359877705574035645f, 0.066013656556606292725f, -0.042702876031398773193f, -0.068899005651473999023f, 0.0077198166400194168091f, 0.11172402650117874146f, 0.016240358352661132812f, -0.013994909822940826416f, 0.059071119874715805054f, -0.0050167120061814785004f, -0.016203403472900390625f, 0.034296482801437377930f, 0.079977601766586303711f, 0.023749396204948425293f, 0.0022622083779424428940f, 0.038710124790668487549f, -0.035518195480108261108f, -0.029838725924491882324f, 0.034384094178676605225f, 0.11845523864030838013f, 0.0015711034648120403290f, 0.012396923266351222992f, -0.043741367757320404053f, 0.020216908305883407593f, -0.023455578833818435669f, -0.0063651278614997863770f, 0.057000376284122467041f, -0.051991116255521774292f, 0.076997913420200347900f, 0.0016691394848749041557f, 0.027665134519338607788f, -0.0013239425607025623322f, -0.0063572344370186328888f, 0.10890255123376846313f, -0.028413005173206329346f, 0.039463791996240615845f, 0.078293904662132263184f, -0.0067922957241535186768f, -0.027744993567466735840f, 0.093599818646907806396f, 0.091255351901054382324f, -0.030664730817079544067f, 0.050812240689992904663f, -0.0028774342499673366547f, -0.00095747306477278470993f, 0.054124016314744949341f, 0.083700112998485565186f, 0.080971129238605499268f, -0.0026852970477193593979f, -0.029387073591351509094f, -0.010944990441203117371f, 0.026914067566394805908f, 0.0040566553361713886261f, 0.039898730814456939697f, 0.13960528373718261719f, -0.0083723692223429679871f, -0.031254634261131286621f, -0.011729416437447071075f, -0.043963272124528884888f, 0.026087027043104171753f, 0.025348111987113952637f, 0.14723582565784454346f, -0.038288410753011703491f, -0.026357427239418029785f, 0.0082795210182666778564f, -0.011029166169464588165f, -0.021999239921569824219f, 0.048877794295549392700f, 0.065142005681991577148f, -0.065826259553432464600f, 0.048413284122943878174f, 0.036340247839689254761f, -0.023048833012580871582f, -0.011245627887547016144f, 0.099480219185352325439f, 0.024943100288510322571f, -0.032495707273483276367f, -0.016145106405019760132f, 0.029091719537973403931f, 0.0018521540332585573196f, -0.086463019251823425293f, 0.054793708026409149170f, 0.016601696610450744629f, 0.034912534058094024658f, -0.024437459185719490051f, 0.024997642263770103455f, 0.020490786060690879822f, -0.037809710949659347534f, 0.089023694396018981934f, 0.034854117780923843384f, -0.029409157112240791321f, -0.026577208191156387329f, 0.045832831412553787231f, 0.070347011089324951172f, 0.082904770970344543457f, 0.060620091855525970459f, 0.040659856051206588745f, 0.033156823366880416870f, 0.010868393816053867340f, 0.052175730466842651367f, -0.010757926851511001587f, 0.017191600054502487183f, 0.012992521747946739197f, 0.11464910209178924561f, -0.017420811578631401062f, -0.035440094769001007080f, 0.025728398934006690979f, -0.020433200523257255554f, 0.023587878793478012085f, 0.076005212962627410889f, 0.037499599158763885498f, -0.011259175837039947510f, -0.021551012992858886719f, 0.041284628212451934814f, -0.057687886059284210205f, 0.0089940400794148445129f, 0.11707261949777603149f, 0.10806319862604141235f, 0.0079999305307865142822f, 0.054114967584609985352f, 0.082296676933765411377f, -0.025042239576578140259f, -0.014191676862537860870f, 0.058266222476959228516f, 0.081476062536239624023f, 0.033291842788457870483f, -0.0094455424696207046509f, 0.027938356623053550720f, -0.030807150527834892273f, -0.029609486460685729980f, -0.039823327213525772095f, 0.070115543901920318604f, -0.039567604660987854004f, 0.029430869966745376587f, 0.036978747695684432983f, -0.025345508009195327759f, 0.00038181847776286303997f, 0.034841451793909072876f, -0.016239870339632034302f, 0.025449305772781372070f, 0.046266917139291763306f, 0.026788746938109397888f, -0.00084850046550855040550f, 0.033809520304203033447f, -0.021548032760620117188f, -0.031145326793193817139f, 0.0044705704785883426666f, 0.011928289197385311127f, -0.0045044547878205776215f, -0.059602193534374237061f, 0.068641155958175659180f, -0.040086172521114349365f, -0.0029554164502769708633f, 0.0083179092034697532654f, -0.0057070231996476650238f, 0.037364695221185684204f, 0.0086706541478633880615f, 0.027784764766693115234f, -0.017980420961976051331f, -0.0034003013279289007187f, -0.023441584780812263489f, 0.024876274168491363525f, -0.0089642275124788284302f, 0.011022583581507205963f, 0.022529728710651397705f, -0.0093042869120836257935f, 0.026065850630402565002f, -0.056586254388093948364f, -0.025440018624067306519f, -0.025548128411173820496f, -0.040153063833713531494f, -0.084169432520866394043f, 0.019028201699256896973f, -0.026740033179521560669f, 0.020901957526803016663f, -0.037046454846858978271f, -0.018999624997377395630f, -0.0094954185187816619873f, -0.041260164231061935425f, -0.039759427309036254883f, 0.091029599308967590332f, -0.038381490856409072876f, -0.044801250100135803223f, -0.018233973532915115356f, -0.044927258044481277466f, 0.010559075511991977692f, -0.046312019228935241699f, 0.039670225232839584351f, 0.022199613973498344421f, -0.045608885586261749268f, 0.026418000459671020508f, -0.050923060625791549683f, -0.040737789124250411987f, -0.037109591066837310791f, 0.015908667817711830139f, -0.010812652297317981720f, -0.037387304008007049561f, 0.0014385852264240384102f, -0.036123592406511306763f, 0.027278302237391471863f, 0.038321897387504577637f, 0.053686462342739105225f, 0.010487852618098258972f, 0.026436131447553634644f, 0.033105939626693725586f, 0.0020424281246960163116f, -0.076477266848087310791f, -0.015733079984784126282f, -0.064539402723312377930f, -0.010661759413778781891f, -0.024325029924511909485f, 0.030065776780247688293f, -0.025884578004479408264f, -0.032725140452384948730f, -0.048676993697881698608f, -0.047862146049737930298f, 0.012643923051655292511f, -0.017011098563671112061f, -0.031646795570850372314f, -0.0027755843475461006165f, -0.074532657861709594727f, -0.023249488323926925659f, 0.054167665541172027588f},
  {0.017095617949962615967f, 0.00015005934983491897583f, 0.036421470344066619873f, 0.0097164874896407127380f, -0.095993921160697937012f, -0.0093392524868249893188f, 0.054011330008506774902f, -0.025096736848354339600f, 0.063580922782421112061f, -0.031379673629999160767f, 0.023499703034758567810f, -0.045755982398986816406f, -0.026947349309921264648f, 0.12024421989917755127f, -0.053200814872980117798f, -0.00017420445510651916265f, 0.010525699704885482788f, -0.096813060343265533447f, -0.15018346905708312988f, -0.027930596843361854553f, 0.13658861815929412842f, -0.013347468338906764984f, 0.039349760860204696655f, -0.0030456450767815113068f, -0.070251017808914184570f, -0.18278335034847259521f, -0.041464578360319137573f, 0.099382035434246063232f, -0.0045878915116190910339f, 0.048235028982162475586f, -0.073426306247711181641f, -0.043743692338466644287f, -0.11166302859783172607f, -0.036309264600276947021f, 0.10658591985702514648f, 0.0080928821116685867310f, 0.027252690866589546204f, -0.048605829477310180664f, -0.043209977447986602783f, -0.0044148359447717666626f, 0.033205833286046981812f, 0.040584038943052291870f, 0.047692995518445968628f, 0.022002326324582099915f, -0.029964575543999671936f, -0.015848444774746894836f, -0.026972627267241477966f, -0.017256412655115127563f, 0.080235160887241363525f, -0.028558827936649322510f, 0.036598794162273406982f, 0.080612167716026306152f, 0.059303946793079376221f, 0.032703012228012084961f, -0.0044814785942435264587f, 0.055497732013463973999f, 0.014103176072239875793f, 0.025407763198018074036f, 0.011507061310112476349f, 0.045740433037281036377f, -0.016175257042050361633f, -0.012649210169911384583f, 0.011771088466048240662f, -0.053884960711002349854f, -0.021055910736322402954f, 0.089824065566062927246f, 0.034273874014616012573f, -0.075729474425315856934f, -0.016772115603089332581f, 0.084104694426059722900f, -0.014425949193537235260f, 0.012212356552481651306f, 0.033229764550924301147f, 0.00069469568552449345589f, -0.039715789258480072021f, -0.00041200971463695168495f, 0.10436011105775833130f, 0.032207924872636795044f, 0.069302894175052642822f, 0.019049692898988723755f, -0.020327912643551826477f, -0.034711480140686035156f, -0.031309045851230621338f, 0.087906815111637115479f, -0.014991719275712966919f, -0.00024402038252446800470f, -0.030219169333577156067f, 0.045335881412029266357f, 0.030965512618422508240f, 0.073258116841316223145f, 0.043116528540849685669f, 0.018349397927522659302f, 0.014485778287053108215f, -0.010740181431174278259f, -0.013513986952602863312f, 0.022334096953272819519f, -0.010343226604163646698f, 0.088770613074302673340f, 0.026493020355701446533f, 0.018939394503831863403f, 0.049298163503408432007f, 0.050380546599626541138f, 0.055557090789079666138f, 0.065829835832118988037f, 0.048134893178939819336f, -0.033151526004076004028f, -0.020108561962842941284f, 0.030557468533515930176f, 0.046367727220058441162f, 0.033486824482679367065f, 0.00065313052618876099586f, 0.070483565330505371094f, -0.036326084285974502563f, 0.042245861142873764038f, -0.019046155735850334167f, -0.023341463878750801086f, 0.011149681173264980316f, 0.022302422672510147095f, 0.065375834703445434570f, -0.032487023621797561646f, 0.00059394346317276358604f, 0.090230725705623626709f, -0.038513489067554473877f, -0.0029123323038220405579f, 0.036429662257432937622f, 0.093479290604591369629f, -0.010209310799837112427f, 0.063458375632762908936f, 0.034268293529748916626f, 0.062019146978855133057f, 0.0059883934445679187775f, -0.039333477616310119629f, 0.11909547448158264160f, 0.018584100529551506042f, -0.036429658532142639160f, 0.019467761740088462830f, 0.0087768090888857841492f, -0.033884704113006591797f, 0.0071917506866157054901f, 0.068027019500732421875f, -0.013578438200056552887f, -0.035812012851238250732f, 0.040676940232515335083f, 0.11544659733772277832f, 0.022584339603781700134f, -0.011012057773768901825f, 0.056707214564085006714f, -0.036254297941923141479f, -0.031123602762818336487f, -0.0096256779506802558899f, 0.042353969067335128784f, -0.065270751714706420898f, -0.0096383271738886833191f, 0.036500487476587295532f, -0.050835900008678436279f, -0.014246545732021331787f, -0.0090544242411851882935f, -0.0096495309844613075256f, 0.027435913681983947754f, 0.034384720027446746826f, 0.11454249173402786255f, 0.013465516269207000732f, 0.0074818166904151439667f, 0.032055176794528961182f, -0.038827039301395416260f, 0.024421941488981246948f, 0.052088454365730285645f, 0.079133160412311553955f, -0.0041160518303513526917f, -0.030262654647231101990f, -0.033339217305183410645f, 0.017719898372888565063f, 0.019136702641844749451f, 0.026462743058800697327f, 0.13681946694850921631f, -0.050216872245073318481f, -0.038512036204338073730f, 0.039924792945384979248f, -0.027505131438374519348f, 0.0077815372496843338013f, 0.074626334011554718018f, 0.16518150269985198975f, 0.0028448258526623249054f, -0.062031310051679611206f, -0.0071687614545226097107f, 0.0080319950357079505920f, -0.022265696898102760315f, 0.055930431932210922241f, 0.084961764514446258545f, -0.045562874525785446167f, -0.045284140855073928833f, 0.042771141976118087769f, 0.029684001579880714417f, 0.031797390431165695190f, 0.017154626548290252686f, 0.019963355734944343567f, 0.030760759487748146057f, 0.067080654203891754150f, 0.059060715138912200928f, 0.046616714447736740112f, -0.066803149878978729248f, -0.045467432588338851929f, 0.083336822688579559326f, -0.028545508161187171936f, 0.017418827861547470093f, -0.0071874842979013919830f, 0.030586991459131240845f, 0.0060790106654167175293f, -0.028571430593729019165f, 0.039694301784038543701f, 0.045636679977178573608f, 0.0051877433434128761292f, 0.029715675860643386841f, -0.00062377710128203034401f, 0.088690258562564849854f, 0.028157154098153114319f, 0.058782923966646194458f, 0.012163823470473289490f, -0.020608583465218544006f, -0.020239215344190597534f, 0.028707629069685935974f, 0.060956262052059173584f, 0.027905127033591270447f, 0.10964111983776092529f, -0.055209998041391372681f, 0.021629974246025085449f, 0.047690469771623611450f, 0.031840406358242034912f, 0.029622638598084449768f, 0.0044459346681833267212f, 0.11895682662725448608f, 0.045483771711587905884f, 0.040374170988798141479f, 0.0035951312165707349777f, 0.039690688252449035645f, 0.056848041713237762451f, 0.036527778953313827515f, 0.057390265166759490967f, -0.042233418673276901245f, 0.042703591287136077881f, 0.046153273433446884155f, 0.062504284083843231201f, -0.074035279452800750732f, 0.020596152171492576599f, 0.044613171368837356567f, -0.0068217678926885128021f, 0.044465705752372741699f, -0.030227648094296455383f, 0.048131376504898071289f, -0.011962947435677051544f, -0.050627000629901885986f, 0.064558856189250946045f, -0.020692851394414901733f, 0.0046634310856461524963f, -0.026947552338242530823f, -0.050782449543476104736f, -0.015183842740952968597f, 0.018438488245010375977f, 0.025031782686710357666f, -0.039123367518186569214f, -0.0097258482128381729126f, -0.014666493982076644897f, 0.0030581066384911537170f, -0.013096957467496395111f, -0.021321507170796394348f, 0.023038061335682868958f, 0.0098150121048092842102f, 0.028967311605811119080f, -0.013671522960066795349f, 0.046982668340206146240f, 0.081606157124042510986f, -0.0067672473378479480743f, 0.012845796532928943634f, 0.015192412771284580231f, 0.0085708647966384887695f, -0.011539746075868606567f, -0.035675194114446640015f, 0.059768602252006530762f, -0.031040521338582038879f, 0.059519521892070770264f, -0.011781604029238224030f, 0.0025951303541660308838f, -0.078082136809825897217f, -0.027196301147341728210f, 0.013406690210103988647f, 0.046547226607799530029f, 0.020078811794519424438f, 0.045888379216194152832f, 0.00068660086253657937050f, -0.024498412385582923889f, -0.045283216983079910278f, -0.051527965813875198364f, -0.018204154446721076965f, 0.060294717550277709961f, -0.023453330621123313904f, -0.011664380319416522980f, -0.039485190063714981079f, 0.039104308933019638062f, -0.064019568264484405518f, -0.081779986619949340820f, 0.024076409637928009033f, -0.0060984622687101364136f, 0.0096250949427485466003f, -0.0070090992376208305359f, 0.029933838173747062683f, -0.036258544772863388062f, -0.018916562199592590332f, 0.030863504856824874878f, 0.0019462013151496648788f, 0.033959321677684783936f, -0.011460945010185241699f, 0.028350014239549636841f, 0.027226714417338371277f, -0.020065169781446456909f, 0.046681918203830718994f, -0.015634004026651382446f, 0.027857305482029914856f, -0.0077820373699069023132f, -0.0013623272534459829330f, -0.0011000293307006359100f, -0.010554949752986431122f, 0.016408136114478111267f, -0.059918850660324096680f, -0.036978304386138916016f, 0.013683944009244441986f, -0.029880130663514137268f, 0.017883773893117904663f, -0.030587542802095413208f, 0.044417206197977066040f, -0.055527459830045700073f, -0.0023965286090970039368f, 0.012755511328577995300f, -0.077353708446025848389f, 0.023134931921958923340f, -0.0044621769338846206665f, 0.094114705920219421387f, -0.0061716265045106410980f, 0.039056807756423950195f, 0.048268225044012069702f, -0.062999375164508819580f, -0.074640460312366485596f, 0.0081771453842520713806f, -0.015368169173598289490f},
  {0.027163436636328697205f, -0.012653616257011890411f, 0.062549151480197906494f, -0.037208192050457000732f, -0.057015188038349151611f, 0.022673487663269042969f, 0.014361864887177944183f, 0.025415876880288124084f, 0.046786285936832427979f, 0.062783718109130859375f, -0.027931233868002891541f, 0.0099287107586860656738f, 0.026913462206721305847f, 0.10253980010747909546f, -0.074787020683288574219f, -0.0037033956032246351242f, -0.026415523141622543335f, -0.064106546342372894287f, -0.13476620614528656006f, 0.013672097586095333099f, 0.076125636696815490723f, 0.026320133358240127563f, -0.022363979369401931763f, -0.014501428231596946716f, -0.085898451507091522217f, -0.14263288676738739014f, -0.085624128580093383789f, 0.033640496432781219482f, 0.025436576455831527710f, -0.044751327484846115112f, 0.0032518641091883182526f, -0.056069545447826385498f, -0.034891292452812194824f, 0.046910833567380905151f, 0.059724479913711547852f, 0.034066800028085708618f, 0.017210565507411956787f, -0.031530190259218215942f, 0.044558387249708175659f, 0.053430441766977310181f, 0.11709418147802352905f, 0.037135031074285507202f, 0.051603339612483978271f, 0.058549817651510238647f, 0.065862581133842468262f, 0.0083701787516474723816f, -0.063417524099349975586f, 0.063342720270156860352f, 0.099720127880573272705f, -0.0082306684926152229309f, 0.0078500732779502868652f, 0.076105162501335144043f, 0.084071062505245208740f, 0.047244507819414138794f, 0.037541851401329040527f, 0.0098251616582274436951f, -0.0076429564505815505981f, -0.0067552807740867137909f, 0.060720536857843399048f, 0.071990117430686950684f, -0.030124327167868614197f, 0.0038331567775458097458f, 0.013581413775682449341f, -0.053827885538339614868f, 0.059449203312397003174f, 0.015232034958899021149f, 0.063244655728340148926f, -0.035203848034143447876f, -0.0077566257677972316742f, 0.068958312273025512695f, 0.053564257919788360596f, 0.0066652237437665462494f, 0.091792471706867218018f, 0.048245631158351898193f, -0.010930946096777915955f, -0.062971621751785278320f, 0.040901128202676773071f, -0.033879891037940979004f, 0.0042390534654259681702f, 0.0010492476867511868477f, 0.015832155942916870117f, 0.012644223868846893311f, 0.019312057644128799438f, 0.020826000720262527466f, -0.025772314518690109253f, 0.061338238418102264404f, 0.015851482748985290527f, 0.040349271148443222046f, -0.020558211952447891235f, 0.015413114801049232483f, 0.068734429776668548584f, -0.015439099632203578949f, 0.047957163304090499878f, 0.043265894055366516113f, -0.0049694515764713287354f, -0.018846021965146064758f, 0.0059062531217932701111f, 0.046551343053579330444f, -0.0074726887978613376617f, 0.046815041452646255493f, -0.038846150040626525879f, -0.0036652968265116214752f, -0.0083010420203208923340f, 0.043785613030195236206f, 0.069874733686447143555f, -0.018494764342904090881f, 0.035110898315906524658f, -0.042689166963100433350f, 0.027614086866378784180f, -0.054688863456249237061f, -0.018303163349628448486f, 0.014109219424426555634f, -0.039115060120820999146f, -0.042477499693632125854f, 0.038390759378671646118f, -0.030090890824794769287f, -0.031048612669110298157f, -0.061748132109642028809f, 0.062790468335151672363f, 0.023773467168211936951f, 0.078075230121612548828f, 0.027489818632602691650f, 0.028400851413607597351f, -0.059104114770889282227f, -0.016173247247934341431f, 0.11353088915348052979f, 0.026853512972593307495f, 0.0010041601490229368210f, -0.010024813935160636902f, 0.017710933461785316467f, -0.029199104756116867065f, -0.042974390089511871338f, 0.10277774184942245483f, -0.034728333353996276855f, 0.029804242774844169617f, -0.017153238877654075623f, -0.0062355664558708667755f, -0.040184255689382553101f, -0.058050692081451416016f, 0.072783909738063812256f, -0.024851711466908454895f, -0.017995474860072135925f, 0.0027780639939010143280f, 0.026614874601364135742f, 0.036580000072717666626f, 0.010302654467523097992f, 0.063654862344264984131f, 0.053908932954072952271f, -0.026335731148719787598f, 0.028996158391237258911f, -0.0041280859149992465973f, -0.073907330632209777832f, -0.049228619784116744995f, 0.065149039030075073242f, 0.011174311861395835876f, -0.0072600790299475193024f, -0.038947563618421554565f, 0.013224173337221145630f, -0.028796387836337089539f, -0.064925529062747955322f, 0.056619942188262939453f, -0.025179587304592132568f, -0.024138743057847023010f, -0.033888839185237884521f, -0.061066340655088424683f, 0.020157463848590850830f, -0.055714786052703857422f, 0.13474281132221221924f, -0.031609375029802322388f, -0.00056652375496923923492f, -0.010702651925384998322f, -0.018674233928322792053f, 0.0031860850285738706589f, 0.039269521832466125488f, 0.067997351288795471191f, -0.021941946819424629211f, 0.020233193412423133850f, -0.0089493114501237869263f, 0.025387149304151535034f, 0.0025497451424598693848f, -0.017508937045931816101f, 0.081547394394874572754f, 0.011405104771256446838f, -0.035892628133296966553f, -0.057732738554477691650f, -0.019071426242589950562f, -0.054785624146461486816f, 0.042786862701177597046f, 0.10223173350095748901f, 0.024871762841939926147f, 0.0022051616106182336807f, -0.040709625929594039917f, 0.047806445509195327759f, -0.044073615223169326782f, -0.022693229839205741882f, 0.10407000780105590820f, -0.0032398358453065156937f, 0.027782123535871505737f, -0.035164952278137207031f, 0.049876861274242401123f, -0.017931712791323661804f, -0.078390412032604217529f, 0.063206098973751068115f, 0.015609654597938060760f, -0.024191647768020629883f, 0.037100605666637420654f, 0.029863595962524414062f, 0.0053556789644062519073f, -0.025239156559109687805f, 0.018107648938894271851f, -0.025379784405231475830f, 0.021679067984223365784f, 0.014015914872288703918f, -0.0092920251190662384033f, 0.087480165064334869385f, 0.059385180473327636719f, 0.041451059281826019287f, 0.041833378374576568604f, -0.014850233681499958038f, 0.021677643060684204102f, 0.085989184677600860596f, 0.016229838132858276367f, 0.022745318710803985596f, 0.072664685547351837158f, 0.019360831007361412048f, -0.044635262340307235718f, -0.034555409103631973267f, 0.021568199619650840759f, 0.032141342759132385254f, 0.054886352270841598511f, 0.084755934774875640869f, 0.023934492841362953186f, 0.0053594456985592842102f, 0.0055028474889695644379f, 0.018847426399588584900f, 0.014420952647924423218f, 0.057927649468183517456f, 0.041637875139713287354f, -0.0086875613778829574585f, 0.049981314688920974731f, -0.020113198086619377136f, 0.045251917093992233276f, -0.029530875384807586670f, 0.0030837052036076784134f, 0.026690177619457244873f, 0.019533226266503334045f, -0.028908645734190940857f, -0.037518210709095001221f, 0.067494034767150878906f, -0.086690835654735565186f, -0.076401010155677795410f, -0.0013617810327559709549f, 0.0025416938588023185730f, 0.013712142594158649445f, -0.038189206272363662720f, 0.012500957585871219635f, -0.018441691994667053223f, 0.034021683037281036377f, 0.064040236175060272217f, 0.017136320471763610840f, 0.00043500823085196316242f, 0.031476479023694992065f, -0.0047622420825064182281f, 0.060910005122423171997f, -0.020687155425548553467f, 0.063344694674015045166f, -0.039977710694074630737f, 0.024778110906481742859f, -0.031602084636688232422f, 0.089715927839279174805f, 0.071835353970527648926f, 0.067946240305900573730f, -0.021011224016547203064f, 0.029701825231313705444f, -0.045406270772218704224f, -0.029948120936751365662f, 0.060059435665607452393f, 0.038464359939098358154f, -0.023518644273281097412f, -0.025965502485632896423f, -0.018525877967476844788f, 0.012208712287247180939f, 0.035798624157905578613f, 0.058236751705408096313f, 0.0047140885144472122192f, -0.018515856936573982239f, -0.025493834167718887329f, 0.060432910919189453125f, -0.0071546873077750205994f, 0.0036478287074714899063f, -0.050037007778882980347f, -0.088387310504913330078f, 0.012210956774652004242f, 0.0085793677717447280884f, -0.011703345924615859985f, 0.0011319022160023450851f, 0.013169562444090843201f, -0.0068564666435122489929f, -0.045761395245790481567f, -0.016318712383508682251f, 0.050531208515167236328f, 0.021430166438221931458f, -0.041476894170045852661f, -0.032411001622676849365f, 0.017980037257075309753f, -5.4336378525476902723e-05f, 0.044994022697210311890f, 0.089992947876453399658f, -0.0060664755292236804962f, -0.036526918411254882812f, 0.0042989389039576053619f, 0.068138137459754943848f, 0.045068077743053436279f, -0.00077685731230303645134f, 0.058208711445331573486f, -0.052128423005342483521f, -0.0022193233016878366470f, 0.074325695633888244629f, 0.018425455316901206970f, 0.084152027964591979980f, 0.017604820430278778076f, 0.10849377512931823730f, 0.012179693207144737244f, 0.039654321968555450439f, 0.033800642937421798706f, 0.021887358278036117554f, 0.0021176538430154323578f, 0.024826634675264358521f, 0.014040182344615459442f, 0.031254421919584274292f, -0.0098791951313614845276f, 0.010581620037555694580f, -0.038338895887136459351f, 0.030860591679811477661f, 0.024399783462285995483f, 0.0015981934266164898872f, -0.0024371922481805086136f, -0.035488806664943695068f, 0.0016347685595974326134f, -0.066712632775306701660f, -0.0063416901975870132446f, -0.045429896563291549683f, 0.032966371625661849976f},
