// This file is computer-generated by onnx2c 
// (TODO: add creating command line here)
// (TODO: print creation date here )

// ONNX model:
// produced by pytorch, version 2.6.0
// ONNX IR version: 17
// Model documentation: 
/*

*/

#include <float.h>
#include <math.h>
#include <stdbool.h>
#include <stdint.h>
#include <string.h>

#define MAX(X,Y) ( X > Y ? X : Y)
#define MIN(X,Y) ( X < Y ? X : Y)
#define CLIP(X,L) ( MAX(MIN(X,L), -L) )

#if __STDC_VERSION__ < 199901L
#define FUNC_PREFIX
#else
#define FUNC_PREFIX static inline
#endif

static const float tensor_cv1_weight[32][1][5][3][5] = 
{
  {
    {
      {
        {-0.045438721776008605957f, 0.0032889561261981725693f, 0.039096977561712265015f, 0.055798277258872985840f, -0.017100410535931587219f},
        {0.046221680939197540283f, 0.053058959543704986572f, 0.10002739727497100830f, 0.10203571617603302002f, 0.081595987081527709961f},
        {-0.049745168536901473999f, 0.026556247845292091370f, -0.089895367622375488281f, -0.024884266778826713562f, -0.047642547637224197388f}
      },
      {
        {0.017928350716829299927f, 0.073812715709209442139f, -0.00062837247969582676888f, -0.12366157025098800659f, -0.072648294270038604736f},
        {0.040131647139787673950f, -0.12803666293621063232f, -0.092991486191749572754f, -0.032665178179740905762f, -0.091300845146179199219f},
        {-0.091245867311954498291f, 0.049946293234825134277f, -0.0065937777981162071228f, -0.063027165830135345459f, -0.00071962672518566250801f}
      },
      {
        {0.033203337341547012329f, -0.034770887345075607300f, -0.0086708944290876388550f, 0.083273753523826599121f, 0.088932283222675323486f},
        {0.065579585731029510498f, -0.039763905107975006104f, 0.010508333332836627960f, -0.068009912967681884766f, 0.036961760371923446655f},
        {0.0064050080254673957825f, -0.060059744864702224731f, 0.033299364149570465088f, -0.073154576122760772705f, 0.037027295678853988647f}
      },
      {
        {0.026784420013427734375f, 0.016339369118213653564f, -0.11059274524450302124f, -0.070239998400211334229f, 0.10654334723949432373f},
        {-0.11893766373395919800f, -0.11005265265703201294f, 0.026368990540504455566f, 0.020639555528759956360f, -0.12187019735574722290f},
        {0.038510967046022415161f, -0.094944760203361511230f, 0.050736505538225173950f, -0.096857249736785888672f, 0.0099984975531697273254f}
      },
      {
        {-0.10077567398548126221f, 0.054677128791809082031f, -0.064606338739395141602f, -0.0073545654304325580597f, -0.0043032672256231307983f},
        {0.080478601157665252686f, -0.040506303310394287109f, -0.10215062648057937622f, 0.0097368368878960609436f, -0.11883890628814697266f},
        {0.00079772720346227288246f, -0.078368201851844787598f, 0.099901549518108367920f, -0.068002551794052124023f, -0.093021817505359649658f}
      }
    }
  },
  {
    {
      {
        {0.074648529291152954102f, 0.12400407344102859497f, 0.078931070864200592041f, 0.11849365383386611938f, -0.032848455011844635010f},
        {-0.049298007041215896606f, 0.0017552438657730817795f, 0.033677194267511367798f, 0.17981275916099548340f, 0.089794114232063293457f},
        {0.020992562174797058105f, 0.030455412343144416809f, -0.0098262997344136238098f, 0.15390908718109130859f, 0.033928733319044113159f}
      },
      {
        {0.030488712713122367859f, 0.055074129253625869751f, 0.053244527429342269897f, 0.062974721193313598633f, 0.0088135171681642532349f},
        {0.073667831718921661377f, 0.0036544217728078365326f, 0.070964284241199493408f, 0.11026699841022491455f, 0.16466838121414184570f},
        {0.11397568881511688232f, 0.14556100964546203613f, 0.065590426325798034668f, 0.077958509325981140137f, 0.19420316815376281738f}
      },
      {
        {0.079289563000202178955f, -0.078319407999515533447f, -0.024736030027270317078f, 0.082261651754379272461f, 0.12776525318622589111f},
        {0.0070140259340405464172f, 0.075126446783542633057f, 0.13650593161582946777f, 0.0081675713881850242615f, 0.14283278584480285645f},
        {-0.020053274929523468018f, -0.018427910283207893372f, 0.10252458602190017700f, 0.024831710383296012878f, 0.025595748797059059143f}
      },
      {
        {-0.041265591979026794434f, 0.026363637298345565796f, 0.030249705538153648376f, 0.033573720604181289673f, 0.0015603669453412294388f},
        {0.081518217921257019043f, -0.074636220932006835938f, -0.016793649643659591675f, 0.0097066331654787063599f, 0.047557316720485687256f},
        {0.096115946769714355469f, 0.026144558563828468323f, -0.070497117936611175537f, -0.029346896335482597351f, -0.024211170151829719543f}
      },
      {
        {-0.074727348983287811279f, 0.039653535932302474976f, 0.11161956936120986938f, 0.11062705516815185547f, 0.12112909555435180664f},
        {0.12041976302862167358f, -0.011151434853672981262f, 0.11787161976099014282f, -0.023008527234196662903f, -0.0093946987763047218323f},
        {-0.061076387763023376465f, 0.015736918896436691284f, 0.015534174628555774689f, -0.031702820211648941040f, 0.11354847997426986694f}
      }
    }
  },
  {
    {
      {
        {-0.029070543125271797180f, -0.12250874191522598267f, -0.016449624672532081604f, -0.070734076201915740967f, -0.067705281078815460205f},
        {0.0076023754663765430450f, 0.058788344264030456543f, -0.049266334623098373413f, -0.099334083497524261475f, -0.0047673447988927364349f},
        {0.057094909250736236572f, -0.11845830082893371582f, -0.088075041770935058594f, -0.062823444604873657227f, 0.0051032579503953456879f}
      },
      {
        {-0.019090399146080017090f, -0.022625796496868133545f, -0.072251282632350921631f, 0.095714315772056579590f, 0.00074595346814021468163f},
        {0.096560925245285034180f, -0.071854911744594573975f, 0.10021534562110900879f, -0.012552523985505104065f, 0.0084811151027679443359f},
        {-0.086323723196983337402f, -0.070102430880069732666f, 0.096491031348705291748f, -0.0063904086127877235413f, 0.028918629512190818787f}
      },
      {
        {0.050422061234712600708f, -0.0010192570043727755547f, -0.099181801080703735352f, -0.095406539738178253174f, -0.021881125867366790771f},
        {0.099431052803993225098f, -0.11820673197507858276f, -0.061226557940244674683f, 0.0024863665457814931870f, -0.0072426395490765571594f},
        {0.10689434409141540527f, -0.074349030852317810059f, 0.0033371199388056993484f, -0.097797006368637084961f, -0.12926764786243438721f}
      },
      {
        {-0.085723496973514556885f, -0.018680267035961151123f, 0.096374243497848510742f, -0.077570445835590362549f, 0.087402470409870147705f},
        {0.095332175493240356445f, 0.084421195089817047119f, -0.092262305319309234619f, -0.034766107797622680664f, 0.070899233222007751465f},
        {-0.062874406576156616211f, -0.12305045127868652344f, -0.045055549591779708862f, 0.079998500645160675049f, -0.071446552872657775879f}
      },
      {
        {0.081285543739795684814f, -0.0016419270541518926620f, -0.064738191664218902588f, -0.037971559911966323853f, 0.038174711167812347412f},
        {0.027409708127379417419f, 0.029920380562543869019f, 0.0070820180699229240417f, 0.038350664079189300537f, -0.087485693395137786865f},
        {0.050751559436321258545f, -0.12305188179016113281f, -0.012401803396642208099f, 0.094738557934761047363f, 0.012583958916366100311f}
      }
    }
  },
  {
    {
      {
        {0.031485613435506820679f, -0.089186012744903564453f, -0.050403378903865814209f, -0.029701534658670425415f, -0.13424880802631378174f},
        {-0.10976209491491317749f, 0.065567702054977416992f, -0.069871447980403900146f, -0.060925249010324478149f, -0.16490340232849121094f},
        {0.029370183125138282776f, 0.029699482023715972900f, -0.12309179455041885376f, -0.013616640120744705200f, -0.17504964768886566162f}
      },
      {
        {-0.11112423241138458252f, -0.11236502975225448608f, -0.022469680756330490112f, 0.044691231101751327515f, -0.10320312529802322388f},
        {0.088181681931018829346f, -0.10752060264348983765f, 0.058581173419952392578f, 0.026711758226156234741f, -0.17074994742870330811f},
        {0.020579792559146881104f, -0.090373635292053222656f, -0.058731030672788619995f, -0.029951432719826698303f, -0.13169027864933013916f}
      },
      {
        {0.024628443643450737000f, -0.12248969078063964844f, 0.010984871536493301392f, -0.043284110724925994873f, 0.030382525175809860229f},
        {-0.071308359503746032715f, 0.034248709678649902344f, -0.026565747335553169250f, 0.030711581930518150330f, 0.079233378171920776367f},
        {-0.074400834739208221436f, -0.043564900755882263184f, -0.10226774960756301880f, -0.0010670766932889819145f, -0.0059709013439714908600f}
      },
      {
        {-0.051338303834199905396f, -0.091857142746448516846f, 0.022161750122904777527f, -0.064679518342018127441f, -0.041330557316541671753f},
        {-0.093344122171401977539f, -0.094732046127319335938f, -0.10262842476367950439f, 0.029532061889767646790f, -0.11617727577686309814f},
        {-0.0021825337316840887070f, 0.021984582766890525818f, 0.065662413835525512695f, 0.053742676973342895508f, 0.071205526590347290039f}
      },
      {
        {0.050104588270187377930f, -0.11559879034757614136f, -0.080382950603961944580f, -0.13162703812122344971f, -0.052548822015523910522f},
        {0.011274436488747596741f, -0.016375288367271423340f, -0.090098671615123748779f, -0.042575806379318237305f, 0.015655005350708961487f},
        {-0.073009051382541656494f, 0.018487194553017616272f, -0.061764471232891082764f, -0.10957171022891998291f, -0.12432852387428283691f}
      }
    }
  },
  {
    {
      {
        {-0.068982332944869995117f, -0.026896413415670394897f, -0.062433421611785888672f, -0.014082175679504871368f, -0.11289242655038833618f},
        {-0.054582651704549789429f, -0.11626026034355163574f, 0.056691333651542663574f, 0.067731514573097229004f, 0.068652547895908355713f},
        {0.046856991946697235107f, -0.027772232890129089355f, 0.0096726501360535621643f, -0.026687212288379669189f, -0.022441938519477844238f}
      },
      {
        {-0.099534533917903900146f, -0.090470008552074432373f, -0.045502323657274246216f, 0.063398458063602447510f, -0.0011135132517665624619f},
        {-0.11394643783569335938f, -0.051784567534923553467f, 0.060593049973249435425f, -0.11950436234474182129f, 0.0025471707340329885483f},
        {-0.0049683847464621067047f, -0.12136273086071014404f, -0.031299013644456863403f, -0.051558617502450942993f, -0.11964324861764907837f}
      },
      {
        {0.094544224441051483154f, 0.053944807499647140503f, 0.016715234145522117615f, -0.029550708830356597900f, -0.096325300633907318115f},
        {-0.019936306402087211609f, -0.084651477634906768799f, 0.062979161739349365234f, 0.079238556325435638428f, -0.11503652483224868774f},
        {-0.0014175674878060817719f, 0.039888236671686172485f, -0.10799181461334228516f, -0.13239695131778717041f, 0.089505381882190704346f}
      },
      {
        {-0.0043120947666466236115f, 0.039324548095464706421f, -0.088327296078205108643f, 0.038563672453165054321f, -0.059208702296018600464f},
        {-0.015641421079635620117f, 0.039373751729726791382f, -0.046072471886873245239f, -0.079393006861209869385f, -0.089787475764751434326f},
        {-0.015012629330158233643f, 0.032401755452156066895f, -0.095909699797630310059f, -0.045720335096120834351f, -0.022244507446885108948f}
      },
      {
        {0.059692639857530593872f, 0.010421453043818473816f, -0.012435708194971084595f, -0.095284037292003631592f, -0.070701681077480316162f},
        {-0.022115608677268028259f, -0.061381820589303970337f, -0.12318301200866699219f, -0.11538758873939514160f, 0.018673572689294815063f},
        {-0.12688365578651428223f, -0.11360996216535568237f, -0.028118077665567398071f, -0.094222597777843475342f, 0.055040761828422546387f}
      }
    }
  },
  {
    {
      {
        {-0.061160240322351455688f, 0.096645124256610870361f, 0.14203238487243652344f, 0.017199419438838958740f, 0.11819379031658172607f},
        {-0.073018424212932586670f, 0.029167773202061653137f, 0.057873379439115524292f, 0.088858164846897125244f, 0.022232774645090103149f},
        {0.077028356492519378662f, 0.023067621514201164246f, 0.11381500214338302612f, -0.00077953800791874527931f, 0.11468324810266494751f}
      },
      {
        {-0.059444073587656021118f, 0.13256372511386871338f, 0.11310765892267227173f, 0.11185672134160995483f, 0.079856082797050476074f},
        {0.080655239522457122803f, -0.020709007978439331055f, -0.061248663812875747681f, 0.15225110948085784912f, 0.16074584424495697021f},
        {0.0022266255691647529602f, 0.0062005072832107543945f, 0.15307198464870452881f, 0.062213346362113952637f, 0.15542711317539215088f}
      },
      {
        {-0.088883839547634124756f, 0.0055191488936543464661f, 0.12620058655738830566f, 0.048180654644966125488f, -0.051128622144460678101f},
        {0.034421499818563461304f, 0.056308351457118988037f, 0.12447217851877212524f, -0.017593519762158393860f, 0.072029724717140197754f},
        {-0.093621626496315002441f, 0.095260977745056152344f, 0.0054286923259496688843f, 0.011455897241830825806f, -0.0017298395978286862373f}
      },
      {
        {-0.033695921301841735840f, -0.027894511818885803223f, -0.061819568276405334473f, 0.028309468179941177368f, 0.085239239037036895752f},
        {0.068911544978618621826f, -0.041441649198532104492f, -0.050090618431568145752f, -0.0028733196668326854706f, 0.11751356720924377441f},
        {-0.048173911869525909424f, -0.075807712972164154053f, 0.023502569645643234253f, -0.054576981812715530396f, 0.032425750046968460083f}
      },
      {
        {0.037394478917121887207f, -0.036073174327611923218f, -0.0077502257190644741058f, -0.039490602910518646240f, 0.15257443487644195557f},
        {-0.012243804521858692169f, 0.077744767069816589355f, -0.035500433295965194702f, 0.13720050454139709473f, 0.15711358189582824707f},
        {0.067962929606437683105f, 0.041629064828157424927f, 0.028184143826365470886f, 0.097171537578105926514f, 0.10073602944612503052f}
      }
    }
  },
  {
    {
      {
        {0.041215837001800537109f, -0.010511254891753196716f, -0.12359491735696792603f, 0.047415673732757568359f, 0.013221675530076026917f},
        {-0.0086208544671535491943f, 0.0097850710153579711914f, 0.052090112119913101196f, 0.086909547448158264160f, -0.082015514373779296875f},
        {0.0095385182648897171021f, -0.037208225578069686890f, 0.082333564758300781250f, -0.018060624599456787109f, 0.092890225350856781006f}
      },
      {
        {-0.063025295734405517578f, -0.048901017755270004272f, -0.13159614801406860352f, -0.13173253834247589111f, 0.021302770823240280151f},
        {-0.049909807741641998291f, 0.020790370181202888489f, -0.098964914679527282715f, 0.075649425387382507324f, 0.047963049262762069702f},
        {-0.030252508819103240967f, -0.079888783395290374756f, 0.065830029547214508057f, 0.069783322513103485107f, -0.079460971057415008545f}
      },
      {
        {-0.098375543951988220215f, -0.0063047665171325206757f, -0.013382576406002044678f, 0.033285796642303466797f, -0.11560761183500289917f},
        {-0.030921638011932373047f, 0.036089986562728881836f, -0.10783941298723220825f, -0.12743797898292541504f, 0.079361088573932647705f},
        {0.049941707402467727661f, -0.013499170541763305664f, -0.049265149980783462524f, -0.11692024767398834229f, 0.069712601602077484131f}
      },
      {
        {0.017508404329419136047f, 0.089585013687610626221f, -0.073001943528652191162f, -0.0046386369504034519196f, -0.095577873289585113525f},
        {0.098361968994140625000f, 0.029716020449995994568f, 0.069321803748607635498f, -0.028305385261774063110f, -0.091797932982444763184f},
        {-0.11689916998147964478f, -0.10654029995203018188f, 0.069194927811622619629f, -0.11865413933992385864f, -0.060610394924879074097f}
      },
      {
        {-0.075866185128688812256f, 0.022226775065064430237f, -0.047996558248996734619f, -0.078668177127838134766f, 0.017399234697222709656f},
        {0.034648977220058441162f, -0.033780917525291442871f, -0.061644215136766433716f, -0.092528246343135833740f, 0.070710018277168273926f},
        {-0.010675366036593914032f, -0.059082601219415664673f, -0.035772200673818588257f, -0.065965615212917327881f, -0.12058142572641372681f}
      }
    }
  },
  {
    {
      {
        {-0.092065989971160888672f, -0.036354821175336837769f, -0.059133496135473251343f, -0.10809851437807083130f, -0.044688444584608078003f},
        {-0.060028273612260818481f, -0.11794636398553848267f, -0.095364838838577270508f, -0.0068581509403884410858f, 0.028944207355380058289f},
        {-0.087827533483505249023f, -0.015735920518636703491f, 0.011875120922923088074f, 0.048522226512432098389f, 0.0064658969640731811523f}
      },
      {
        {-0.013912579976022243500f, -0.066229581832885742188f, -0.020955171436071395874f, 0.083163708448410034180f, 0.059036947786808013916f},
        {-0.087810613214969635010f, 0.094139747321605682373f, -0.036809638142585754395f, -0.093131631612777709961f, -0.021270990371704101562f},
        {0.093630291521549224854f, -0.082980230450630187988f, 0.024587765336036682129f, 0.040400363504886627197f, -0.030966455116868019104f}
      },
      {
        {-0.064030364155769348145f, -0.060133464634418487549f, 0.0040964973159134387970f, -0.0032338171731680631638f, 0.018577264621853828430f},
        {-0.035206396132707595825f, 0.012264250777661800385f, -0.056023843586444854736f, -0.11762965470552444458f, -0.047718852758407592773f},
        {-0.040932558476924896240f, 0.0056347241625189781189f, -0.034311331808567047119f, 0.0098864967003464698792f, -0.068931140005588531494f}
      },
      {
        {-0.037299867719411849976f, 0.049924910068511962891f, 0.084944173693656921387f, -0.12573054432868957520f, -0.078731559216976165771f},
        {0.022025408223271369934f, 0.0024008201435208320618f, 0.064497672021389007568f, -0.12260517477989196777f, 0.0046902052126824855804f},
        {-0.079477578401565551758f, -0.0011321848724037408829f, -0.085414662957191467285f, -0.062239348888397216797f, -0.065967649221420288086f}
      },
      {
        {-0.032807152718305587769f, -0.044180378317832946777f, -0.13082715868949890137f, -0.012340559624135494232f, -0.057879559695720672607f},
        {-0.043145503848791122437f, -0.071837879717350006104f, -0.080349527299404144287f, 0.043452091515064239502f, -0.075505293905735015869f},
        {0.042527142912149429321f, -0.11933864653110504150f, 0.022054182365536689758f, -0.058743480592966079712f, 0.025364385917782783508f}
      }
    }
  },
  {
    {
      {
        {0.095071576535701751709f, -0.041549742221832275391f, 0.12326173484325408936f, 0.088608145713806152344f, -0.042719852179288864136f},
        {-0.095276065170764923096f, -0.015669401735067367554f, 0.099106922745704650879f, 0.12439073622226715088f, -0.082021184265613555908f},
        {0.0080874096602201461792f, -0.086545385420322418213f, 0.027920281514525413513f, 0.057643752545118331909f, -0.049429334700107574463f}
      },
      {
        {0.089768148958683013916f, 0.033958405256271362305f, -0.033922471106052398682f, 0.037120819091796875000f, 0.098166801035404205322f},
        {-0.082532756030559539795f, 0.056162491440773010254f, 0.10306131839752197266f, 0.033410910516977310181f, -0.075489610433578491211f},
        {0.025651356205344200134f, -0.061686702072620391846f, -0.015358675271272659302f, -0.022045008838176727295f, 0.13267460465431213379f}
      },
      {
        {0.037080377340316772461f, 0.0098183257505297660828f, -0.025881033390760421753f, -0.049455266445875167847f, -0.015288433991372585297f},
        {0.10718423128128051758f, 0.072324186563491821289f, -0.064310900866985321045f, 0.0064576836302876472473f, -0.019511295482516288757f},
        {-0.074425861239433288574f, -0.034249026328325271606f, 0.073222570121288299561f, -0.095025971531867980957f, 0.093205735087394714355f}
      },
      {
        {0.10814540088176727295f, -0.011071998625993728638f, 0.029100669547915458679f, 0.094923146069049835205f, 0.037379708141088485718f},
        {-0.062561213970184326172f, 0.072405964136123657227f, -0.0016612645704299211502f, 0.093039192259311676025f, -0.062322359532117843628f},
        {-0.095390051603317260742f, 0.12016347795724868774f, -0.062842540442943572998f, 0.11148725450038909912f, 0.00060430506709963083267f}
      },
      {
        {0.070003561675548553467f, 0.047250814735889434814f, -0.055287200957536697388f, -0.00060384470270946621895f, -0.018242280930280685425f},
        {-0.026396444067358970642f, 0.080055363476276397705f, -0.0016155188204720616341f, -0.031537588685750961304f, -0.041431475430727005005f},
        {0.0086797485128045082092f, 0.11104670166969299316f, 0.10287959128618240356f, 0.12016882002353668213f, 0.070676304399967193604f}
      }
    }
  },
  {
    {
      {
        {-0.10760887712240219116f, -0.031640343368053436279f, -0.12544924020767211914f, 0.048161216080188751221f, 0.053295329213142395020f},
        {0.075394280254840850830f, 0.043463818728923797607f, -0.033523991703987121582f, -0.083231993019580841064f, -0.0078648794442415237427f},
        {-0.068167164921760559082f, -0.11530286073684692383f, 0.010226204991340637207f, -0.080920159816741943359f, -0.076994247734546661377f}
      },
      {
        {-0.0079951519146561622620f, 0.026846799999475479126f, 0.024857291951775550842f, -0.029552746564149856567f, -0.12146642804145812988f},
        {-0.10671853274106979370f, -0.015567017719149589539f, 0.046766165643930435181f, 0.071286730468273162842f, -0.058362837880849838257f},
        {-0.093679696321487426758f, -0.094309493899345397949f, -0.11980100721120834351f, -0.084838472306728363037f, -0.028273509815335273743f}
      },
      {
        {0.022726718336343765259f, 0.061543185263872146606f, -0.00084738095756620168686f, -0.071856327354907989502f, 0.053611118346452713013f},
        {-0.049407809972763061523f, 0.015243182890117168427f, -0.071043282747268676758f, 0.061583571135997772217f, 0.031346347182989120483f},
        {-0.070067569613456726074f, -0.078918807208538055420f, -0.11223759502172470093f, 0.048089496791362762451f, 0.00054607982747256755829f}
      },
      {
        {-0.062393054366111755371f, 0.00066821445943787693977f, 0.088845685124397277832f, -0.032518684864044189453f, 0.033568121492862701416f},
        {-0.059128556400537490845f, 0.041274551302194595337f, 0.037117395550012588501f, -0.044467441737651824951f, 0.043230786919593811035f},
        {-0.029492359608411788940f, -0.011629734188318252563f, 0.067830376327037811279f, -0.0067324349656701087952f, -0.015104231424629688263f}
      },
      {
        {-0.10576770454645156860f, -0.013330098241567611694f, 0.093256138265132904053f, -0.075214326381683349609f, 0.067806653678417205811f},
        {-0.086540430784225463867f, -0.024862492457032203674f, 0.015227883122861385345f, -0.038875080645084381104f, -0.047522190958261489868f},
        {0.040906179696321487427f, 0.048827897757291793823f, -0.050347246229648590088f, 0.034053012728691101074f, -0.11985539644956588745f}
      }
    }
  },
  {
    {
      {
        {0.089679382741451263428f, 0.025129890069365501404f, 0.10343549400568008423f, -0.078226208686828613281f, -0.016550881788134574890f},
        {-0.049483515322208404541f, 0.089993178844451904297f, -0.082268163561820983887f, 0.069427244365215301514f, -0.043356049805879592896f},
        {-0.016628164798021316528f, 0.029368909075856208801f, 0.091378271579742431641f, -0.064716480672359466553f, -0.0040604206733405590057f}
      },
      {
        {0.017009327188134193420f, 0.098164014518260955811f, -0.019725274294614791870f, -0.056456364691257476807f, -0.0092723779380321502686f},
        {-0.0093645695596933364868f, -0.019641034305095672607f, -0.088742412626743316650f, 0.059750963002443313599f, 0.10741700232028961182f},
        {0.12582540512084960938f, -0.025474207475781440735f, -0.084623366594314575195f, 0.093908332288265228271f, 0.12552195787429809570f}
      },
      {
        {0.035093270242214202881f, 0.054884199053049087524f, -0.0024933165404945611954f, 0.029867548495531082153f, 0.075649835169315338135f},
        {-0.069108672440052032471f, 0.10410761833190917969f, -0.040485847741365432739f, 0.12043646723031997681f, 0.094552017748355865479f},
        {-0.0030799910891801118851f, -0.070192672312259674072f, 0.013496569357812404633f, 0.019151926040649414062f, 0.0077858148142695426941f}
      },
      {
        {-0.019017565995454788208f, 0.10386846214532852173f, -0.095283709466457366943f, -0.0090753426775336265564f, 0.054091367870569229126f},
        {0.070432402193546295166f, 0.071594752371311187744f, -0.027988251298666000366f, 0.074835963547229766846f, 0.035514112561941146851f},
        {0.022104822099208831787f, -0.091753363609313964844f, 0.089944534003734588623f, 0.0037667027208954095840f, 0.027508482336997985840f}
      },
      {
        {-0.072425052523612976074f, 0.012654472142457962036f, 0.057497389614582061768f, -0.052439432591199874878f, -0.10014553368091583252f},
        {-0.086130633950233459473f, -0.024782637134194374084f, -0.018552049994468688965f, -0.025551706552505493164f, 0.0058333934284746646881f},
        {0.082794159650802612305f, 0.039777591824531555176f, 0.051040370017290115356f, 0.056306786835193634033f, 0.092046119272708892822f}
      }
    }
  },
  {
    {
      {
        {0.037512764334678649902f, 0.012752978131175041199f, 0.071832053363323211670f, -0.10254975408315658569f, -0.064848415553569793701f},
        {-0.077574864029884338379f, -0.011029756627976894379f, 0.061659768223762512207f, -0.12201481312513351440f, 0.015303426422178745270f},
        {-0.037998966872692108154f, -0.020302347838878631592f, -0.12544682621955871582f, -0.099055118858814239502f, 0.074588872492313385010f}
      },
      {
        {0.045116886496543884277f, 0.013176211155951023102f, 0.044355422258377075195f, -0.077219367027282714844f, -0.12114067375659942627f},
        {0.053024478256702423096f, -0.11497493088245391846f, -0.14258028566837310791f, -0.078895904123783111572f, -0.075916059315204620361f},
        {-0.091210953891277313232f, 0.055817104876041412354f, -0.068512097001075744629f, -0.029709089547395706177f, -0.027724057435989379883f}
      },
      {
        {-0.0051163537427783012390f, 0.0031541262287646532059f, 0.0066669187508523464203f, -0.084531210362911224365f, -0.11910034716129302979f},
        {-0.013768875971436500549f, -0.012094190344214439392f, -0.12948788702487945557f, 0.034891251474618911743f, 0.019221575930714607239f},
        {-0.076674327254295349121f, -0.0022239664103835821152f, 0.088706880807876586914f, -0.014578862115740776062f, -0.0015138341113924980164f}
      },
      {
        {-0.031661793589591979980f, -0.035534046590328216553f, -0.12832558155059814453f, -0.0056970901787281036377f, 0.027554083615541458130f},
        {-0.11376068741083145142f, 0.0044753728434443473816f, -0.12658546864986419678f, -0.10618304461240768433f, -0.046407055109739303589f},
        {-0.046836093068122863770f, 0.010966217145323753357f, -0.079125910997390747070f, -0.13950999081134796143f, -0.10199751704931259155f}
      },
      {
        {0.088763371109962463379f, -0.022978382185101509094f, -0.10466685891151428223f, 0.059884220361709594727f, -0.0069769178517162799835f},
        {0.086459673941135406494f, -0.10399566590785980225f, -0.039386007934808731079f, -0.087123796343803405762f, -0.016909811645746231079f},
        {-0.074641831219196319580f, 0.063736923038959503174f, -0.022675860673189163208f, 0.056097030639648437500f, -0.10565444082021713257f}
      }
    }
  },
  {
    {
      {
        {0.10132707655429840088f, -0.036932434886693954468f, 0.079167172312736511230f, -0.079329788684844970703f, 0.034688778221607208252f},
        {0.091709934175014495850f, 0.049844786524772644043f, -0.099438071250915527344f, -0.089587517082691192627f, -0.023510182276368141174f},
        {0.084435008466243743896f, 0.12234500795602798462f, -0.099642232060432434082f, -0.044162500649690628052f, 0.040907721966505050659f}
      },
      {
        {0.074005596339702606201f, -0.031893607228994369507f, -0.071478500962257385254f, 0.12921175360679626465f, -0.024654190987348556519f},
        {0.12802830338478088379f, 0.12805968523025512695f, 0.11405008286237716675f, -0.034950014203786849976f, 0.0057584652677178382874f},
        {0.0077179297804832458496f, -0.019048782065510749817f, -0.093878872692584991455f, 0.097443483769893646240f, -0.025092016905546188354f}
      },
      {
        {0.083968274295330047607f, 0.10757471621036529541f, 0.095304183661937713623f, 0.027180153876543045044f, 0.025664485991001129150f},
        {-0.060353700071573257446f, -0.058427296578884124756f, -0.028871593996882438660f, -0.051294934004545211792f, 0.10805945098400115967f},
        {-0.035451218485832214355f, 0.027849631384015083313f, 0.096183858811855316162f, -0.066620118916034698486f, 0.027436681091785430908f}
      },
      {
        {-0.010958245955407619476f, -0.024339696392416954041f, 0.029759472236037254333f, -0.021146353334188461304f, -0.031317021697759628296f},
        {0.034556318074464797974f, 0.094795636832714080811f, -0.089466139674186706543f, 0.10713659226894378662f, 0.068748876452445983887f},
        {0.083396300673484802246f, 0.066298581659793853760f, 0.053432576358318328857f, 0.065164804458618164062f, 0.095009796321392059326f}
      },
      {
        {0.068460360169410705566f, 0.045004744082689285278f, 0.10355892777442932129f, 0.0097409402951598167419f, 0.039431493729352951050f},
        {0.030349766835570335388f, -0.0021713408641517162323f, -0.059420425444841384888f, -0.079007178544998168945f, 0.086952723562717437744f},
        {-0.074513681232929229736f, -0.086671888828277587891f, 0.077540330588817596436f, 0.11789873987436294556f, -0.048820406198501586914f}
      }
    }
  },
  {
    {
      {
        {-0.051433876156806945801f, 0.059080593287944793701f, -0.13426755368709564209f, -0.00018210412235930562019f, -0.10611274838447570801f},
        {-0.086451575160026550293f, 0.017444966360926628113f, -0.14240717887878417969f, -0.055800069123506546021f, -0.10667404532432556152f},
        {-0.0048585343174636363983f, 0.012334474362432956696f, 0.056057479232549667358f, -0.031065886840224266052f, -0.10779750347137451172f}
      },
      {
        {-0.10852665454149246216f, -0.057251945137977600098f, -0.13864697515964508057f, -0.073446050286293029785f, -0.0090128323063254356384f},
        {0.079573236405849456787f, -0.085139065980911254883f, -0.026045862585306167603f, -0.024535607546567916870f, 0.020743351429700851440f},
        {-0.13560067117214202881f, 0.072503745555877685547f, -0.035080559551715850830f, -0.044406216591596603394f, -0.13886632025241851807f}
      },
      {
        {0.030155561864376068115f, -0.022763404995203018188f, -0.11797524988651275635f, -0.057904738932847976685f, 0.050459153950214385986f},
        {-0.033386040478944778442f, -0.022427583113312721252f, -0.12135717272758483887f, -0.10878258198499679565f, 0.0023347882088273763657f},
        {0.076234653592109680176f, 0.046226993203163146973f, 0.056129902601242065430f, -0.13180504739284515381f, -0.051875501871109008789f}
      },
      {
        {0.056536495685577392578f, 0.0017710302490741014481f, 0.066004887223243713379f, 0.052329905331134796143f, 0.0012308525620028376579f},
        {-0.061661001294851303101f, -0.076852224767208099365f, -0.099134713411331176758f, 0.0044559277594089508057f, -0.11358559876680374146f},
        {0.054748229682445526123f, -0.12649832665920257568f, -0.10337355732917785645f, 0.0051683308556675910950f, -0.028449907898902893066f}
      },
      {
        {0.016937470063567161560f, 0.034761145710945129395f, -0.089603804051876068115f, -0.076495558023452758789f, -0.037023462355136871338f},
        {0.021489018574357032776f, -0.086878441274166107178f, 0.029155995696783065796f, -0.016309818252921104431f, -0.14152054488658905029f},
        {-0.083546049892902374268f, 0.016216350719332695007f, -0.093517810106277465820f, 0.044112432748079299927f, -0.090138837695121765137f}
      }
    }
  },
  {
    {
      {
        {0.059626489877700805664f, 0.072330407798290252686f, 0.0088068265467882156372f, 0.14706031978130340576f, 0.083480298519134521484f},
        {-0.047193296253681182861f, 0.0071522658690810203552f, -0.077237471938133239746f, 0.064860455691814422607f, 0.055741738528013229370f},
        {0.11717598140239715576f, -0.048282768577337265015f, 0.046189934015274047852f, 0.087188467383384704590f, 0.11386961489915847778f}
      },
      {
        {-0.069280907511711120605f, 0.024252003058791160583f, 0.044564001262187957764f, 0.0096641844138503074646f, 0.0098100015893578529358f},
        {0.089568689465522766113f, 0.091947473585605621338f, 0.043074123561382293701f, 0.15005682408809661865f, 0.13674025237560272217f},
        {0.095117025077342987061f, 0.031785111874341964722f, -0.011487716808915138245f, 0.054481651633977890015f, -0.032021842896938323975f}
      },
      {
        {0.0099062416702508926392f, 0.10723469406366348267f, 0.014933153986930847168f, 0.069610714912414550781f, -0.045233644545078277588f},
        {-0.095843292772769927979f, -0.075288325548171997070f, -0.053125772625207901001f, 0.083886623382568359375f, 0.0077044270001351833344f},
        {-0.039673205465078353882f, 0.011181241832673549652f, -0.071862682700157165527f, -0.0051720999181270599365f, 0.037137366831302642822f}
      },
      {
        {-0.074541695415973663330f, 0.12117856740951538086f, -0.089767530560493469238f, 0.017598759382963180542f, -0.039718270301818847656f},
        {-0.0056654415093362331390f, 0.041298374533653259277f, 0.084684774279594421387f, 0.092788740992546081543f, 0.13276419043540954590f},
        {0.027989484369754791260f, 0.10060001164674758911f, 0.0067710308358073234558f, 0.019690055400133132935f, -0.066549494862556457520f}
      },
      {
        {-0.042277816683053970337f, -0.029170507565140724182f, 0.040578547865152359009f, -0.043407466262578964233f, -0.048196796327829360962f},
        {0.096941396594047546387f, 0.10174895823001861572f, -0.013741093687713146210f, 0.078481681644916534424f, -0.064134061336517333984f},
        {0.085206747055053710938f, 0.065691493451595306396f, 0.10786060988903045654f, -0.064958117902278900146f, 0.10635487735271453857f}
      }
    }
  },
  {
    {
      {
        {0.10482826828956604004f, -0.048035662621259689331f, -0.017629556357860565186f, 0.068748742341995239258f, -0.013221987523138523102f},
        {0.12460169196128845215f, -0.082075349986553192139f, 0.087071530520915985107f, 0.027836713939905166626f, 0.056018836796283721924f},
        {0.020844267681241035461f, 0.062962636351585388184f, -0.069777898490428924561f, 0.079457476735115051270f, 0.13753843307495117188f}
      },
      {
        {-0.077858299016952514648f, 0.052396439015865325928f, 0.13471291959285736084f, 0.15454223752021789551f, 0.11935319006443023682f},
        {-0.0015064822509884834290f, -0.0098070381209254264832f, 0.038186941295862197876f, 0.058209810405969619751f, -0.035898778587579727173f},
        {-0.046529907733201980591f, 0.076264791190624237061f, -0.040313046425580978394f, 0.13066487014293670654f, 0.13537141680717468262f}
      },
      {
        {-0.079916454851627349854f, -0.056002397090196609497f, 0.078390672802925109863f, 0.10151363909244537354f, -0.079542122781276702881f},
        {0.070552609860897064209f, 0.11904428154230117798f, 0.050375543534755706787f, 0.12400020658969879150f, 0.0091548105701804161072f},
        {-0.015905972570180892944f, 0.097663246095180511475f, 0.060372266918420791626f, 0.12980106472969055176f, 0.0058557521551847457886f}
      },
      {
        {0.085813239216804504395f, 0.012800772674381732941f, 0.021425236016511917114f, 0.063258476555347442627f, -0.00081943231634795665741f},
        {0.035662937909364700317f, 0.072487421333789825439f, 0.022282440215349197388f, 0.10107036679983139038f, 0.13743978738784790039f},
        {0.075063027441501617432f, 0.051819846034049987793f, 0.095030233263969421387f, 0.043520994484424591064f, -0.014545912854373455048f}
      },
      {
        {0.045605380088090896606f, -0.061540562659502029419f, -0.069202542304992675781f, 0.10482535511255264282f, 0.10302985459566116333f},
        {-0.0042738681659102439880f, 0.11562902480363845825f, 0.019521711394190788269f, -0.040146294981241226196f, -0.0017231164965778589249f},
        {0.018292658030986785889f, 0.032079685479402542114f, -0.092646494507789611816f, 0.034747529774904251099f, 0.063215576112270355225f}
      }
    }
  },
  {
    {
      {
        {-0.077646747231483459473f, 0.016331542283296585083f, -0.085864134132862091064f, -0.047615196555852890015f, -0.060545906424522399902f},
        {-0.13270744681358337402f, 0.017009196802973747253f, -0.12760724127292633057f, 0.045935198664665222168f, -0.043414287269115447998f},
        {0.065107181668281555176f, 0.027042271569371223450f, -0.035508103668689727783f, -0.12168239802122116089f, -0.061619911342859268188f}
      },
      {
        {0.010708850808441638947f, -0.050474643707275390625f, 0.030831657350063323975f, -0.065542943775653839111f, -0.024586038663983345032f},
        {-0.12404943257570266724f, -0.014723048545420169830f, -0.015762118622660636902f, -0.12430208176374435425f, 0.035775560885667800903f},
        {0.060222677886486053467f, -0.093229569494724273682f, -0.097867541015148162842f, -0.11809543520212173462f, -0.065267167985439300537f}
      },
      {
        {-0.068446330726146697998f, -0.11011955887079238892f, -0.042749937623739242554f, -0.12147862464189529419f, 0.044183712452650070190f},
        {0.045397724956274032593f, -0.061526525765657424927f, -0.12854333221912384033f, 0.077666588127613067627f, -0.12630094587802886963f},
        {0.063934631645679473877f, -0.063098549842834472656f, 0.054417803883552551270f, 0.051935229450464248657f, -0.11030742526054382324f}
      },
      {
        {0.091109678149223327637f, 0.0015055420808494091034f, -0.086367987096309661865f, -0.13445626199245452881f, 0.083524227142333984375f},
        {0.053571466356515884399f, -0.13311959803104400635f, -0.034233238548040390015f, 0.032917890697717666626f, 0.037969075143337249756f},
        {0.010115599259734153748f, -0.095106527209281921387f, -0.031726688146591186523f, -0.14080178737640380859f, -0.13350802659988403320f}
      },
      {
        {-0.083193935453891754150f, -0.00024724888498894870281f, -0.070054098963737487793f, -0.12922410666942596436f, 0.023938152939081192017f},
        {0.036140903830528259277f, -0.046020641922950744629f, 0.00097427639411762356758f, 0.023750007152557373047f, -0.11543806642293930054f},
        {0.028782211244106292725f, -0.047362029552459716797f, -0.0022200262174010276794f, 0.052149839699268341064f, 0.018829112872481346130f}
      }
    }
  },
  {
    {
      {
        {0.053487967699766159058f, -0.060438353568315505981f, -0.039602931588888168335f, -0.12371602654457092285f, -0.018017765134572982788f},
        {0.041502714157104492188f, -0.092642530798912048340f, -0.040335442870855331421f, 0.035515390336513519287f, 0.056723453104496002197f},
        {-0.10006364434957504272f, 0.074249863624572753906f, -0.0074693909846246242523f, 0.029330024495720863342f, -0.10847483575344085693f}
      },
      {
        {-0.012067223899066448212f, -0.016331160441040992737f, -0.052116252481937408447f, -0.089560262858867645264f, -0.12040929496288299561f},
        {0.026429783552885055542f, -0.033001352101564407349f, -0.019756248220801353455f, -0.13903355598449707031f, -0.093830682337284088135f},
        {-0.073862388730049133301f, 0.043273314833641052246f, 0.024845845997333526611f, -0.11751368641853332520f, 0.044517129659652709961f}
      },
      {
        {0.072996810078620910645f, 0.022108858451247215271f, -0.041670832782983779907f, -0.046242874115705490112f, 0.028985962271690368652f},
        {-0.037596728652715682983f, 0.033927492797374725342f, -0.085802786052227020264f, -0.068325303494930267334f, -0.039573319256305694580f},
        {-0.090730272233486175537f, -0.074738100171089172363f, -0.012244387529790401459f, -0.087916634976863861084f, 0.016213551163673400879f}
      },
      {
        {0.098341949284076690674f, -0.083471409976482391357f, 0.0071364142931997776031f, -0.044152915477752685547f, 0.060328427702188491821f},
        {-0.063167557120323181152f, 0.056563854217529296875f, -0.11393134295940399170f, -0.11212875694036483765f, -0.093945510685443878174f},
        {0.071017839014530181885f, -0.085911162197589874268f, -0.041385278105735778809f, 0.048560965806245803833f, -0.12512473762035369873f}
      },
      {
        {0.018688933923840522766f, -0.077558003365993499756f, -0.097844779491424560547f, 0.085826851427555084229f, 0.038655668497085571289f},
        {-0.096088595688343048096f, 0.026630032807588577271f, 0.053900144994258880615f, -0.087433114647865295410f, -0.055737592279911041260f},
        {0.050168313086032867432f, -0.054907895624637603760f, 0.048223134130239486694f, 0.086304716765880584717f, -0.13469552993774414062f}
      }
    }
  },
  {
    {
      {
        {-0.12368585914373397827f, 0.034655187278985977173f, -0.11883135139942169189f, -0.035930782556533813477f, -0.051604479551315307617f},
        {-0.082975909113883972168f, 0.059456959366798400879f, 0.058891173452138900757f, -0.14232203364372253418f, 0.046687223017215728760f},
        {-0.058352604508399963379f, -0.11499290913343429565f, -0.060885973274707794189f, -0.092958122491836547852f, -0.078137539327144622803f}
      },
      {
        {-0.018227543681859970093f, -0.099843353033065795898f, 0.039720401167869567871f, 0.0092754820361733436584f, 0.0090116234496235847473f},
        {-0.095018252730369567871f, 0.059943683445453643799f, 0.014248481020331382751f, -0.11789791285991668701f, -0.12149333208799362183f},
        {-0.013955692760646343231f, 0.039874363690614700317f, -0.10218141973018646240f, 0.00018714609905146062374f, -0.090431392192840576172f}
      },
      {
        {-0.11308508366346359253f, -0.0096595874056220054626f, 0.0039546545594930648804f, -0.073224976658821105957f, -0.14399072527885437012f},
        {-0.066448129713535308838f, -0.10418759286403656006f, 0.022341297939419746399f, -0.099776849150657653809f, 0.069997817277908325195f},
        {0.066159583628177642822f, 0.053810883313417434692f, 0.056110538542270660400f, 0.012594372965395450592f, -0.11063611507415771484f}
      },
      {
        {-0.062438938766717910767f, -0.042872138321399688721f, 0.0027903555892407894135f, -0.071333281695842742920f, -0.014979149214923381805f},
        {0.022634809836745262146f, 0.077816814184188842773f, -0.091231860220432281494f, 0.037131197750568389893f, -0.062437683343887329102f},
        {-0.063497520983219146729f, -0.050907939672470092773f, -0.082648195326328277588f, -0.048929497599601745605f, 0.047760955989360809326f}
      },
      {
        {-0.087077774107456207275f, -0.0085146911442279815674f, -0.060087539255619049072f, 0.024487005546689033508f, -0.039824787527322769165f},
        {0.076783157885074615479f, -0.13000462949275970459f, 0.090754821896553039551f, -0.14237725734710693359f, 0.014070580713450908661f},
        {-0.080769196152687072754f, 0.050506483763456344604f, -0.098552823066711425781f, -0.027600085362792015076f, -0.11775539070367813110f}
      }
    }
  },
  {
    {
      {
        {0.0053958366625010967255f, -0.019135542213916778564f, 0.071341983973979949951f, 0.046786393970251083374f, -0.063774257898330688477f},
        {0.093458309769630432129f, 0.039799053221940994263f, 0.031040482223033905029f, -0.085519976913928985596f, 0.077742412686347961426f},
        {-0.089439056813716888428f, 0.050654970109462738037f, 0.043487969785928726196f, 0.0084887901321053504944f, -0.032873407006263732910f}
      },
      {
        {0.062547586858272552490f, 0.013641552999615669250f, -0.056764069944620132446f, -0.090382739901542663574f, 0.072403527796268463135f},
        {-0.0011601656442508101463f, -0.069606021046638488770f, -0.012859345413744449615f, 0.087239623069763183594f, 0.084262952208518981934f},
        {-0.073498681187629699707f, 0.072807841002941131592f, -0.10605568438768386841f, 0.061259236186742782593f, 0.066859833896160125732f}
      },
      {
        {0.10565647482872009277f, 0.017010772600769996643f, 0.050235446542501449585f, -0.079855643212795257568f, 0.064921468496322631836f},
        {-0.088513366878032684326f, -0.026084342971444129944f, 0.064490534365177154541f, 0.085300706326961517334f, -0.10673645138740539551f},
        {0.096560984849929809570f, -0.063327014446258544922f, -0.0099606271833181381226f, 0.095088042318820953369f, -0.013728420250117778778f}
      },
      {
        {-0.066305920481681823730f, 0.021197851747274398804f, -0.094241835176944732666f, 0.045947827398777008057f, 0.036727629601955413818f},
        {0.061774067580699920654f, -0.087040483951568603516f, -0.047094933688640594482f, 0.051248889416456222534f, -0.088907711207866668701f},
        {0.095095723867416381836f, -0.041064366698265075684f, -0.10335925221443176270f, -0.075810432434082031250f, 0.020181860774755477905f}
      },
      {
        {-0.046615786850452423096f, -0.039577171206474304199f, -0.059611890465021133423f, -0.079425066709518432617f, 0.00062047940446063876152f},
        {0.040099762380123138428f, -0.072855994105339050293f, -0.084984518587589263916f, -0.082228437066078186035f, 0.050728272646665573120f},
        {-0.11694920808076858521f, -0.064362384378910064697f, -0.057588044553995132446f, 0.068690173327922821045f, -0.094300091266632080078f}
      }
    }
  },
  {
    {
      {
        {0.067346379160881042480f, 0.0048027564771473407745f, -0.056841216981410980225f, -0.032723195850849151611f, -0.044719703495502471924f},
        {0.095475941896438598633f, -0.069801382720470428467f, 0.033893320709466934204f, 0.095911286771297454834f, 7.4802475864998996258e-05f},
        {0.064402796328067779541f, 0.12367303669452667236f, 0.10059930384159088135f, -0.064913190901279449463f, 0.095846436917781829834f}
      },
      {
        {0.037381187081336975098f, -0.055995352566242218018f, 0.076923258602619171143f, -0.029065668582916259766f, 0.016389342024922370911f},
        {-0.017409749329090118408f, -0.026800632476806640625f, 0.030414404347538948059f, 0.098671130836009979248f, -0.071538269519805908203f},
        {0.067615434527397155762f, 0.084106475114822387695f, 0.027362404391169548035f, 0.019703820347785949707f, 0.054641067981719970703f}
      },
      {
        {0.097498662769794464111f, -0.019473912194371223450f, 0.049608010798692703247f, -0.063143588602542877197f, 0.052909225225448608398f},
        {-0.066000670194625854492f, -0.011434333398938179016f, 0.066997177898883819580f, 0.053706739097833633423f, 0.090061083436012268066f},
        {0.11664140224456787109f, 0.021399192512035369873f, 0.090506404638290405273f, -0.048377625644207000732f, 0.036353260278701782227f}
      },
      {
        {-0.060749191790819168091f, 0.022882740944623947144f, -0.054176375269889831543f, -0.049049083143472671509f, -0.074949339032173156738f},
        {-0.024012342095375061035f, -0.070712603628635406494f, -0.015480224974453449249f, -0.051492262631654739380f, 0.042428839951753616333f},
        {0.10416604578495025635f, 0.11710198223590850830f, 0.0061495816335082054138f, 0.083975158631801605225f, 0.030514163896441459656f}
      },
      {
        {0.0067465659230947494507f, -0.080529220402240753174f, -0.047494228929281234741f, 0.058479458093643188477f, 0.021767200902104377747f},
        {-0.045817822217941284180f, 0.050697870552539825439f, 0.057781614363193511963f, -0.070945098996162414551f, 0.023756861686706542969f},
        {-0.029190124943852424622f, 0.019232545047998428345f, -0.088094837963581085205f, -0.026950338855385780334f, 0.087828680872917175293f}
      }
    }
  },
  {
    {
      {
        {0.015024744905531406403f, 0.037208389490842819214f, -0.096107624471187591553f, -0.022533884271979331970f, -0.10161577165126800537f},
        {-0.11291846632957458496f, -0.10823027044534683228f, 0.072223722934722900391f, -0.10290294885635375977f, -0.13769073784351348877f},
        {-0.033990476280450820923f, -0.081541001796722412109f, -0.061851236969232559204f, -0.11970761418342590332f, 0.057810842990875244141f}
      },
      {
        {0.026328628882765769958f, -0.060044527053833007812f, -0.051376745104789733887f, -0.096637919545173645020f, -0.080355972051620483398f},
        {0.082681059837341308594f, 0.010170838795602321625f, -0.070464260876178741455f, -0.045800972729921340942f, -0.030446581542491912842f},
        {-0.090649820864200592041f, 0.084766760468482971191f, -0.075126767158508300781f, -0.088024921715259552002f, 0.024916457012295722961f}
      },
      {
        {0.079343847930431365967f, -0.083236560225486755371f, -0.11362814903259277344f, -0.12902988493442535400f, -0.057821780443191528320f},
        {0.034542139619588851929f, -0.022202065214514732361f, -0.11722126603126525879f, -0.047353211790323257446f, -0.035358760505914688110f},
        {0.039897371083498001099f, 0.056015465408563613892f, 0.050966463983058929443f, 0.0016626241849735379219f, 0.022984540089964866638f}
      },
      {
        {0.045483559370040893555f, -0.11186052113771438599f, -0.071436673402786254883f, -0.0011109716724604368210f, 0.026527816429734230042f},
        {-0.0017264902126044034958f, 0.038713440299034118652f, -0.081448480486869812012f, 0.010529976338148117065f, -0.12931112945079803467f},
        {0.039160262793302536011f, 0.031005015596747398376f, -0.073537357151508331299f, -0.10103027522563934326f, -0.11844565719366073608f}
      },
      {
        {0.063256591558456420898f, -0.12823496758937835693f, -0.091787740588188171387f, 0.058822739869356155396f, -0.12607973814010620117f},
        {-0.032460477203130722046f, 0.022107230499386787415f, -0.083746381103992462158f, -0.043832454830408096313f, -0.10775968432426452637f},
        {-0.060810383409261703491f, 0.0078142415732145309448f, -0.041675716638565063477f, -0.036029282957315444946f, -0.049404829740524291992f}
      }
    }
  },
  {
    {
      {
        {0.018437616527080535889f, 0.099516160786151885986f, 0.088378585875034332275f, -0.046548604965209960938f, 0.10511416196823120117f},
        {-0.036009687930345535278f, 0.098980456590652465820f, 0.11676014214754104614f, -0.067400664091110229492f, 0.038547500967979431152f},
        {0.055165007710456848145f, -0.0047577251680195331573f, 0.095731474459171295166f, 0.11563818156719207764f, 0.034315399825572967529f}
      },
      {
        {0.096698664128780364990f, 0.090470097959041595459f, 0.016908893361687660217f, -0.011299358680844306946f, -0.064530059695243835449f},
        {-0.011129540391266345978f, -0.046015545725822448730f, -0.053292762488126754761f, 0.0011082434793934226036f, 0.091584809124469757080f},
        {0.077099062502384185791f, 0.068895839154720306396f, 0.037691961973905563354f, -0.00060629099607467651367f, 0.093145400285720825195f}
      },
      {
        {-0.031413070857524871826f, 0.033524751663208007812f, 0.11775088310241699219f, -0.069553807377815246582f, 0.10941749066114425659f},
        {0.042482580989599227905f, 0.049961857497692108154f, -0.068883486092090606689f, -0.0099514545872807502747f, 0.038422424346208572388f},
        {0.028559548780322074890f, 0.11270243674516677856f, -0.070881307125091552734f, 0.033220000565052032471f, 0.035133913159370422363f}
      },
      {
        {0.086964316666126251221f, -0.068235851824283599854f, 0.099227294325828552246f, 0.081541001796722412109f, 0.055555041879415512085f},
        {-0.095511257648468017578f, -0.014704812318086624146f, -0.021702462807297706604f, 0.00099711189977824687958f, -0.049030318856239318848f},
        {-0.051607489585876464844f, -0.027077643200755119324f, 0.074932754039764404297f, 0.13792070746421813965f, -0.046237207949161529541f}
      },
      {
        {0.022101493552327156067f, 0.099483631551265716553f, 0.079552426934242248535f, -0.0095500126481056213379f, 0.069907233119010925293f},
        {-0.026282561942934989929f, 0.062863782048225402832f, 0.019993821159005165100f, 0.11716563254594802856f, -0.035844970494508743286f},
        {0.040494468063116073608f, 0.093624822795391082764f, -0.0059072510339319705963f, 0.066228471696376800537f, 0.13788549602031707764f}
      }
    }
  },
  {
    {
      {
        {0.048905134201049804688f, 0.12420276552438735962f, 0.035560216754674911499f, -0.026456415653228759766f, 0.12470177561044692993f},
        {0.11223980784416198730f, 0.014177008531987667084f, -0.075241781771183013916f, 0.094568967819213867188f, -0.018575226888060569763f},
        {0.064823582768440246582f, 0.021314831450581550598f, 0.093534596264362335205f, 0.10670852661132812500f, 0.025088127702474594116f}
      },
      {
        {-0.0024567842483520507812f, -0.086072996258735656738f, -0.030407415702939033508f, -0.042584277689456939697f, -0.023427551612257957458f},
        {-0.069744743406772613525f, -0.023149667307734489441f, 0.16087694466114044189f, 0.10171806812286376953f, 0.10865396261215209961f},
        {0.063036032021045684814f, 0.036152143031358718872f, -0.0054616387933492660522f, 0.048239570111036300659f, 0.046292774379253387451f}
      },
      {
        {-0.053924925625324249268f, -0.010146406479179859161f, 0.032992362976074218750f, -0.023008834570646286011f, 0.13744097948074340820f},
        {0.082623288035392761230f, -0.011347752064466476440f, 0.065009959042072296143f, 0.14854340255260467529f, -0.066709861159324645996f},
        {0.068193711340427398682f, -0.010403275489807128906f, 0.12243687361478805542f, 0.14214040338993072510f, 0.078672669827938079834f}
      },
      {
        {0.080475658178329467773f, -0.046425301581621170044f, 0.010444848798215389252f, -0.068266116082668304443f, 0.021461104974150657654f},
        {-0.089167840778827667236f, 0.070524409413337707520f, 0.024305166676640510559f, 0.096824944019317626953f, 0.11783754080533981323f},
        {0.11421803385019302368f, -0.041213195770978927612f, 0.12534348666667938232f, 0.098921306431293487549f, 0.14939253032207489014f}
      },
      {
        {0.054364345967769622803f, 0.032862726598978042603f, 0.091045074164867401123f, 0.042176671326160430908f, -0.025989886373281478882f},
        {0.063623100519180297852f, -0.075811237096786499023f, -0.037854697555303573608f, 0.031704545021057128906f, -0.037701498717069625854f},
        {0.058840069919824600220f, -0.079205527901649475098f, -0.058008246123790740967f, 0.050919927656650543213f, 0.019864764064550399780f}
      }
    }
  },
  {
    {
      {
        {0.032049961388111114502f, -0.060285605490207672119f, 0.00063359364867210388184f, -0.066185705363750457764f, -0.084133170545101165771f},
        {0.083523392677307128906f, -0.042946700006723403931f, 0.13652193546295166016f, -0.052376102656126022339f, 0.0080857044085860252380f},
        {-0.043719105422496795654f, 0.011285899206995964050f, 0.014170710928738117218f, 0.13926677405834197998f, 0.065427646040916442871f}
      },
      {
        {0.11987205594778060913f, 0.11238905787467956543f, 0.083807513117790222168f, 0.0029446829576045274734f, 0.050387267023324966431f},
        {0.016793144866824150085f, -0.058675918728113174438f, 0.14270207285881042480f, 0.022198479622602462769f, 0.039382267743349075317f},
        {0.018647141754627227783f, -0.0074550616554915904999f, 0.088209271430969238281f, 0.13382212817668914795f, 0.010165899991989135742f}
      },
      {
        {0.078696027398109436035f, 0.041468765586614608765f, -0.025063358247280120850f, -0.048864379525184631348f, 0.064678385853767395020f},
        {0.066867634654045104980f, 0.091771818697452545166f, 0.11958405375480651855f, -0.045553419739007949829f, -0.031937975436449050903f},
        {-0.0020234277471899986267f, -0.026665166020393371582f, -0.085389718413352966309f, -0.078374840319156646729f, 0.017850592732429504395f}
      },
      {
        {-0.036266155540943145752f, -0.033227019011974334717f, 0.051839485764503479004f, 0.12721471488475799561f, 0.094102472066879272461f},
        {0.095038399100303649902f, 0.11464912444353103638f, 0.074677139520645141602f, 0.11959594488143920898f, 0.10043558478355407715f},
        {0.073542870581150054932f, 0.11446449160575866699f, -0.0066779791377484798431f, 0.0060198609717190265656f, -0.040139082819223403931f}
      },
      {
        {-0.10263942182064056396f, 0.10431272536516189575f, 0.061271063983440399170f, 0.14209675788879394531f, 0.059441704303026199341f},
        {-0.062836661934852600098f, -0.093514412641525268555f, 0.088099926710128784180f, -0.00090035732137039303780f, -0.022942079231142997742f},
        {-0.064885579049587249756f, -0.021909773349761962891f, -0.0055667879059910774231f, -0.025245467200875282288f, 0.12796473503112792969f}
      }
    }
  },
  {
    {
      {
        {0.036576278507709503174f, -0.13526868820190429688f, -0.10666868090629577637f, 0.020946856588125228882f, -0.12376606464385986328f},
        {-0.11032383888959884644f, 0.061576336622238159180f, -0.14641109108924865723f, -0.14994391798973083496f, -0.10385973751544952393f},
        {0.085258096456527709961f, -0.14419229328632354736f, 0.016850398853421211243f, -0.044641628861427307129f, -0.15796488523483276367f}
      },
      {
        {-0.087859787046909332275f, -0.084578052163124084473f, -0.077885746955871582031f, -0.0063971038907766342163f, -0.073134616017341613770f},
        {0.051688820123672485352f, -0.11601244658231735229f, -0.067285060882568359375f, 0.0042450726032257080078f, 0.041360855102539062500f},
        {-0.036497838795185089111f, -0.012900833040475845337f, 0.0080543356016278266907f, -0.018194802105426788330f, -0.18227517604827880859f}
      },
      {
        {-0.10230376571416854858f, -0.12188714742660522461f, 0.026208790019154548645f, -0.015148284845054149628f, -0.087037064135074615479f},
        {0.021703433245420455933f, -0.056096892803907394409f, -0.073199987411499023438f, -0.088283553719520568848f, -0.089574567973613739014f},
        {0.019120618700981140137f, -0.028517451137304306030f, -0.031937092542648315430f, -0.097068510949611663818f, -0.14749191701412200928f}
      },
      {
        {0.031868871301412582397f, -0.12190961092710494995f, -0.058369915932416915894f, -0.13516275584697723389f, -0.025613572448492050171f},
        {-0.071057476103305816650f, -0.044125288724899291992f, 0.010001700371503829956f, -0.062728524208068847656f, -0.13461044430732727051f},
        {0.028314240276813507080f, -0.088768564164638519287f, -0.038472078740596771240f, 0.042358007282018661499f, -0.13322654366493225098f}
      },
      {
        {0.0027917083352804183960f, -0.090129144489765167236f, -0.033831547945737838745f, 0.048843216150999069214f, -0.022134989500045776367f},
        {-0.11664229631423950195f, -0.037259429693222045898f, -0.029950985684990882874f, 0.059854678809642791748f, 0.024399792775511741638f},
        {-0.022579481825232505798f, -0.11689763516187667847f, -0.033157642930746078491f, 0.064478777348995208740f, -0.10958041995763778687f}
      }
    }
  },
  {
    {
      {
        {0.072973281145095825195f, 0.076717674732208251953f, 0.11895260214805603027f, 0.035992063581943511963f, -0.023278312757611274719f},
        {0.035225186496973037720f, -0.024443635717034339905f, -0.079231336712837219238f, 0.11964163929224014282f, 0.10734704881906509399f},
        {-0.037052240222692489624f, -0.041517082601785659790f, 0.039998874068260192871f, 0.10032974183559417725f, -0.067653089761734008789f}
      },
      {
        {-0.049085069447755813599f, -0.070748299360275268555f, -0.054279506206512451172f, 0.10182654112577438354f, 0.073851257562637329102f},
        {0.083239287137985229492f, 0.053859420120716094971f, 0.020951539278030395508f, -0.053969342261552810669f, 0.083369374275207519531f},
        {0.0014905559364706277847f, 0.031669307500123977661f, 0.090071514248847961426f, 0.10436043888330459595f, -0.058710552752017974854f}
      },
      {
        {0.083975329995155334473f, -0.099263831973075866699f, -0.094693616032600402832f, 0.025333223864436149597f, 0.13376042246818542480f},
        {0.098829261958599090576f, 0.092040084302425384521f, 0.12406029552221298218f, 0.11065403372049331665f, 0.021067267283797264099f},
        {-0.0061384844593703746796f, -0.083935759961605072021f, 0.066670142114162445068f, -0.069756187498569488525f, 0.085996016860008239746f}
      },
      {
        {0.069550707936286926270f, 0.11364062875509262085f, 0.060971956700086593628f, -0.064299963414669036865f, 0.024254191666841506958f},
        {0.078378312289714813232f, -0.040838204324245452881f, -0.078454464673995971680f, 0.086662836372852325439f, 0.060642637312412261963f},
        {0.044922176748514175415f, 0.031790185719728469849f, 0.081517539918422698975f, 0.010547526180744171143f, 0.083072751760482788086f}
      },
      {
        {0.044830579310655593872f, 0.058873735368251800537f, 0.053412713110446929932f, -0.015176870860159397125f, 0.10637670010328292847f},
        {0.039875879883766174316f, -0.029417727142572402954f, -0.010381144471466541290f, 0.0067985276691615581512f, -0.070492237806320190430f},
        {0.12081211060285568237f, -0.0087347496300935745239f, -0.025753393769264221191f, -0.089285127818584442139f, 0.073428079485893249512f}
      }
    }
  },
  {
    {
      {
        {0.074749656021595001221f, -0.11396365612745285034f, 0.038666892796754837036f, 0.082934096455574035645f, -0.13778160512447357178f},
        {0.076716974377632141113f, -0.017868245020508766174f, -0.045311979949474334717f, -0.10615026950836181641f, -0.0017894412158057093620f},
        {-0.051917325705289840698f, -0.096117123961448669434f, 0.091202147305011749268f, -0.026425415650010108948f, -0.11964396387338638306f}
      },
      {
        {0.0047123762778937816620f, -0.0078535266220569610596f, -0.10379800200462341309f, -0.14248336851596832275f, 0.042723722755908966064f},
        {-0.050119530409574508667f, -0.11147918552160263062f, -0.12128676474094390869f, -0.094353079795837402344f, -0.10273557156324386597f},
        {0.023296073079109191895f, -0.11240015923976898193f, -0.012920808978378772736f, -0.052549764513969421387f, 0.064796552062034606934f}
      },
      {
        {-0.11989141255617141724f, 0.094720110297203063965f, 0.0028550953138619661331f, 0.064801126718521118164f, 0.0029404677916318178177f},
        {-0.070920072495937347412f, -0.037455089390277862549f, -0.070952564477920532227f, -0.086895033717155456543f, 0.051412485539913177490f},
        {0.055446509271860122681f, 0.057050105184316635132f, 0.030571362003684043884f, -0.12589746713638305664f, -0.048324570059776306152f}
      },
      {
        {0.060760591179132461548f, 0.025225419551134109497f, -0.034186370670795440674f, -0.058601155877113342285f, -0.10437260568141937256f},
        {-0.088728018105030059814f, -0.0051096780225634574890f, 0.030059741809964179993f, -0.13873258233070373535f, -0.062124993652105331421f},
        {0.024290071800351142883f, 0.049912255257368087769f, 0.0098352013155817985535f, -0.050785224884748458862f, -0.017124010249972343445f}
      },
      {
        {0.018074797466397285461f, 0.026973349973559379578f, -0.099139153957366943359f, -0.062831960618495941162f, 0.045062705874443054199f},
        {-0.077205315232276916504f, -0.11146664619445800781f, -0.11899279057979583740f, -0.017232023179531097412f, -0.13105332851409912109f},
        {0.022794775664806365967f, 0.017620425671339035034f, -0.071577169001102447510f, -0.052678294479846954346f, 0.082275345921516418457f}
      }
    }
  },
  {
    {
      {
        {-0.046665877103805541992f, -0.059233959764242172241f, 0.021361336112022399902f, 0.060158871114253997803f, -0.14767703413963317871f},
        {0.072157867252826690674f, 0.025973087176680564880f, -0.10285581648349761963f, 0.014292928390204906464f, -0.17270044982433319092f},
        {-0.090198166668415069580f, 0.073732212185859680176f, 0.0026789961848407983780f, -0.074206724762916564941f, -0.055682748556137084961f}
      },
      {
        {-0.063771076500415802002f, 0.044885624200105667114f, -0.12391380220651626587f, 0.0029730638489127159119f, -0.14667865633964538574f},
        {-0.028763867914676666260f, -0.098093524575233459473f, -0.010157038457691669464f, -0.15266951918601989746f, 0.0091442437842488288879f},
        {0.0057954713702201843262f, -0.013995354995131492615f, 0.020128654316067695618f, -0.13759808242321014404f, -0.15539962053298950195f}
      },
      {
        {-0.10856650024652481079f, -0.12980937957763671875f, 0.076848357915878295898f, -0.072342202067375183105f, -0.15159332752227783203f},
        {0.0053752050735056400299f, -0.089482448995113372803f, 0.081695117056369781494f, 0.059023484587669372559f, 0.053032916039228439331f},
        {-0.072021968662738800049f, 0.061227496713399887085f, -0.021561274304986000061f, -0.095833808183670043945f, -0.11788925528526306152f}
      },
      {
        {-0.048141423612833023071f, -0.13467498123645782471f, -0.10139326751232147217f, -0.061913982033729553223f, -0.024894673377275466919f},
        {-0.060213688760995864868f, -0.11168304830789566040f, -0.11963099241256713867f, -0.016067437827587127686f, -0.099497854709625244141f},
        {0.049681160598993301392f, -0.073226384818553924561f, -0.095649600028991699219f, -0.065389022231101989746f, -0.024143068119883537292f}
      },
      {
        {0.059667475521564483643f, 0.014634304679930210114f, -0.045940749347209930420f, 0.023987159132957458496f, -0.12098269164562225342f},
        {0.083849295973777770996f, -0.036187417805194854736f, -0.086705431342124938965f, -0.090721711516380310059f, -0.16565217077732086182f},
        {0.10189983993768692017f, -0.10891470313072204590f, 0.076550759375095367432f, 0.023608077317476272583f, -0.028937941417098045349f}
      }
    }
  },
  {
    {
      {
        {0.067600488662719726562f, 0.037988968193531036377f, 0.10697937756776809692f, 0.059117987751960754395f, 0.065543383359909057617f},
        {-0.050570771098136901855f, 0.024201955646276473999f, 0.057076603174209594727f, 0.080009452998638153076f, 0.10421892255544662476f},
        {0.086884595453739166260f, -0.054459348320960998535f, -0.043685320764780044556f, 0.034142531454563140869f, -0.017087679356336593628f}
      },
      {
        {0.041964311152696609497f, -0.075118362903594970703f, 0.095077611505985260010f, -0.092759169638156890869f, 0.073970578610897064209f},
        {-0.070923328399658203125f, 0.0087877325713634490967f, 0.010542859323322772980f, 0.12520851194858551025f, -0.10748519003391265869f},
        {-0.084641851484775543213f, 0.055191896855831146240f, 0.047426205128431320190f, -0.039288818836212158203f, 0.046917647123336791992f}
      },
      {
        {0.0011940161930397152901f, -0.0096546141430735588074f, 0.097033485770225524902f, -0.077817335724830627441f, -0.021082954481244087219f},
        {0.097761258482933044434f, -0.019368063658475875854f, -0.0077690770849585533142f, 0.065955936908721923828f, -0.066968783736228942871f},
        {-0.088998258113861083984f, -0.00075181922875344753265f, -0.041809167712926864624f, -0.0051818029023706912994f, 0.063920833170413970947f}
      },
      {
        {-0.088327847421169281006f, 0.0019956668838858604431f, -0.015305498614907264709f, 0.065711632370948791504f, 0.039492312818765640259f},
        {0.10098459571599960327f, -0.0034636480268090963364f, 0.0024671286810189485550f, -0.013837260194122791290f, 0.011943359859287738800f},
        {-0.0011922694975510239601f, -0.068474814295768737793f, 0.087046675384044647217f, 0.042436502873897552490f, 0.071422904729843139648f}
      },
      {
        {0.040250275284051895142f, 0.018257761374115943909f, 0.10406828671693801880f, -0.095358602702617645264f, -0.010314946062862873077f},
        {-0.066464699804782867432f, -0.053328882902860641479f, -0.064565628767013549805f, -0.062033358961343765259f, 0.096389576792716979980f},
        {-0.087304271757602691650f, -0.0031916343141347169876f, 0.059091791510581970215f, 0.042630981653928756714f, -0.073208898305892944336f}
      }
    }
  },
  {
    {
      {
        {0.056796722114086151123f, 0.011902725324034690857f, 0.043017875403165817261f, 0.076231583952903747559f, -0.041373446583747863770f},
        {-0.048230055719614028931f, 0.031161658465862274170f, -0.073468849062919616699f, -0.075671672821044921875f, -0.0047521409578621387482f},
        {-0.093747906386852264404f, 0.089525535702705383301f, 0.055854436010122299194f, 0.0020606208126991987228f, 0.039004515856504440308f}
      },
      {
        {-0.092099174857139587402f, 0.046307414770126342773f, 0.060033731162548065186f, 0.069565370678901672363f, 0.046148758381605148315f},
        {-0.061778508126735687256f, 0.098791137337684631348f, -0.021634632721543312073f, -0.087831772863864898682f, -0.020793722942471504211f},
        {0.10836042463779449463f, 0.046886198222637176514f, -0.10698948800563812256f, -0.053775597363710403442f, 0.026454964652657508850f}
      },
      {
        {-0.041319679468870162964f, -0.080258592963218688965f, -0.11279784142971038818f, -0.033999599516391754150f, -0.057115841656923294067f},
        {-0.042796868830919265747f, 0.048847176134586334229f, 0.0050226179882884025574f, -0.068512484431266784668f, -0.0021268841810524463654f},
        {0.093898013234138488770f, -0.080604970455169677734f, -0.0078371483832597732544f, 0.096899047493934631348f, -0.0085167754441499710083f}
      },
      {
        {-0.033438857644796371460f, -0.00076838536188006401062f, 0.032626856118440628052f, -0.014385450631380081177f, -0.066499434411525726318f},
        {-0.094603382050991058350f, 0.090796671807765960693f, 0.061222612857818603516f, 0.11273456364870071411f, -0.097699023783206939697f},
        {-0.091305956244468688965f, 0.024588586762547492981f, -0.0049229185096919536591f, 0.10936546325683593750f, 0.10647261142730712891f}
      },
      {
        {0.095084391534328460693f, 0.051366716623306274414f, 0.022744666785001754761f, 0.10289052128791809082f, -0.098370820283889770508f},
        {-0.076925128698348999023f, -0.060649298131465911865f, -0.041473343968391418457f, 0.030898338183760643005f, 0.11834927648305892944f},
        {0.085596404969692230225f, -0.042806614190340042114f, -0.035877477377653121948f, 0.037734240293502807617f, 0.092983700335025787354f}
      }
    }
  },
  {
    {
      {
        {-0.013848964124917984009f, -0.022616695612668991089f, 0.071032308042049407959f, 0.012625838629901409149f, -0.097906224429607391357f},
        {-0.10403437167406082153f, -0.00020573995425365865231f, 0.051907174289226531982f, 0.038194585591554641724f, -0.096347525715827941895f},
        {-0.084427118301391601562f, 0.024636769667267799377f, -0.083100154995918273926f, -0.081317804753780364990f, -0.082389891147613525391f}
      },
      {
        {0.012608318589627742767f, 0.092011325061321258545f, -0.043798867613077163696f, 0.016969667747616767883f, -0.0096553377807140350342f},
        {0.051369499415159225464f, 0.018879190087318420410f, 0.066002815961837768555f, -0.071315877139568328857f, 0.070276364684104919434f},
        {0.049287296831607818604f, -0.12220422923564910889f, -0.11468022316694259644f, -0.13057230412960052490f, 0.038165986537933349609f}
      },
      {
        {-0.074151448905467987061f, -0.025519602000713348389f, -0.053567353636026382446f, -0.045221846550703048706f, 0.043967399746179580688f},
        {0.050906751304864883423f, -0.075646616518497467041f, 0.057549796998500823975f, -0.087576188147068023682f, -0.018593266606330871582f},
        {0.028001459315419197083f, 0.093027934432029724121f, 0.048113930970430374146f, 0.0078790476545691490173f, -0.10008300095796585083f}
      },
      {
        {-0.0083604967221617698669f, -0.10456559807062149048f, -0.10950843989849090576f, 0.076495595276355743408f, 0.034316856414079666138f},
        {0.072113178670406341553f, -0.050926148891448974609f, 0.0071002114564180374146f, 0.062973931431770324707f, -0.088457174599170684814f},
        {0.035752914845943450928f, -0.016428403556346893311f, -0.023669863119721412659f, 0.028010925278067588806f, -0.11849907040596008301f}
      },
      {
        {0.098674267530441284180f, -0.099089458584785461426f, 0.10055531561374664307f, -0.049362245947122573853f, 0.068394988775253295898f},
        {0.10664058476686477661f, -0.027203867211937904358f, -0.097749613225460052490f, 0.059946607798337936401f, -0.024682352319359779358f},
        {0.10565184801816940308f, -0.026427688077092170715f, -0.094883359968662261963f, 0.012871880084276199341f, -0.044658072292804718018f}
      }
    }
  }
};
static const float tensor_cv1_bias[32] = 
{-0.10114858299493789673f, 0.014188812114298343658f, 0.081689082086086273193f, -0.038651660084724426270f, -0.064147882163524627686f, 0.047429870814085006714f, 0.049230419099330902100f, 0.052068553864955902100f, -0.077344968914985656738f, -0.067769296467304229736f, 0.11451607942581176758f, -0.074652247130870819092f, 0.084967210888862609863f, -0.023863572627305984497f, -0.025750283151865005493f, 0.015608912333846092224f, -0.10183305293321609497f, 0.031823858618736267090f, 0.0098126204684376716614f, -0.10297244042158126831f, -0.11887349933385848999f, -0.0058442461304366588593f, -0.0032941559329628944397f, 0.020218966528773307800f, -0.021788697689771652222f, -0.026646802201867103577f, -0.037068672478199005127f, 0.022851064801216125488f, -0.032425947487354278564f, 0.12097384035587310791f, 0.056371126323938369751f, 0.093904264271259307861f};
static const float tensor_cv2_bias[32] = 
{0.016579620540142059326f, -0.019177991896867752075f, -0.0055905557237565517426f, 0.020398020744323730469f, -0.035720024257898330688f, 0.00054092647042125463486f, -0.0087873563170433044434f, -0.043286323547363281250f, 0.018130838871002197266f, 0.032122801989316940308f, 0.028259010985493659973f, 0.039638262242078781128f, -0.00065955758327618241310f, 0.026223203167319297791f, 0.013631523586809635162f, -0.0073703392408788204193f, -0.026023283600807189941f, 0.018040290102362632751f, -0.014223342761397361755f, -0.0071592614986002445221f, 0.015234834514558315277f, 0.015373861417174339294f, -0.011975714936852455139f, 0.014148589223623275757f, 0.030288621783256530762f, 0.014559560455381870270f, -0.025644419714808464050f, 0.021050769835710525513f, 0.026489755138754844666f, 0.027254605665802955627f, -0.016889831051230430603f, -0.0083472328260540962219f};
static const float tensor_fc1_bias[128] = 
{0.0047159790992736816406f, 0.010639162734150886536f, 0.011705306358635425568f, 0.0096363071352243423462f, -0.0046506603248417377472f, 0.0076831560581922531128f, -0.012856436893343925476f, -0.0033228013198822736740f, -0.013128831982612609863f, 0.0063567529432475566864f, -0.0091347964480519294739f, -0.0077182599343359470367f, -0.00086051417747512459755f, 0.0085453344509005546570f, 0.0023647744674235582352f, -0.0017772032879292964935f, -0.0036624826025217771530f, 0.013181383721530437469f, -0.016562027856707572937f, -0.0051758768968284130096f, 0.0086422301828861236572f, -5.9453243011375889182e-05f, -0.0056375083513557910919f, -0.0065866177901625633240f, 0.015821041539311408997f, 0.0013399875024333596230f, 0.0067286998964846134186f, 0.0079820277169346809387f, 0.0020615663379430770874f, 0.014162082225084304810f, 0.011149759404361248016f, 0.014645465649664402008f, 0.0012100400635972619057f, 0.0040259314700961112976f, -0.0044890819117426872253f, 0.0024769855663180351257f, 0.0046495744027197360992f, 0.0090056480839848518372f, 0.018285186961293220520f, -0.0037182739470154047012f, 0.00097656168509274721146f, 0.0026249827351421117783f, 0.0077329380437731742859f, 0.0088673001155257225037f, 0.00052296463400125503540f, -0.013598330318927764893f, 0.0013440202455967664719f, -0.0079113002866506576538f, -0.0093716084957122802734f, -0.0074892947450280189514f, 0.00030731104197911918163f, -0.0048502148129045963287f, -0.0097374338656663894653f, 0.0082644317299127578735f, -0.0095147844403982162476f, 0.0051124677993357181549f, 0.0031369559001177549362f, -0.010782172903418540955f, -0.0027467370964586734772f, 0.0089830514043569564819f, 0.018846694380044937134f, -0.0023444970138370990753f, 0.015654604882001876831f, 0.0025482829660177230835f, 0.0049048084765672683716f, 0.017764652147889137268f, 0.0083676222711801528931f, 0.0013048406690359115601f, -0.0080662481486797332764f, -0.0021617466118186712265f, 0.0078654196113348007202f, 0.00074546522228047251701f, 0.017965542152523994446f, -0.011561616323888301849f, -0.0035587407182902097702f, -0.0018650253769010305405f, -0.013287410140037536621f, -0.0033514276146888732910f, 0.013754418119788169861f, 0.011733779683709144592f, 0.0097275208681821823120f, -0.0078376596793532371521f, -0.0089670838788151741028f, 0.0095708835870027542114f, 0.018477270379662513733f, 0.0023948757443577051163f, 0.0017539984546601772308f, 0.0077608074061572551727f, -0.00051422935212031006813f, -0.0086151547729969024658f, -0.0011524270521476864815f, 0.0012535644927993416786f, 0.0017214358085766434669f, 0.013547910377383232117f, -0.0011624583275988698006f, -0.0016995366895571351051f, 0.0084200222045183181763f, -0.0022857945878058671951f, -0.0079960804432630538940f, 0.0063389129936695098877f, 0.010406499728560447693f, 0.0075719556771218776703f, -0.0027447515167295932770f, 0.0013339521829038858414f, 0.0056412736885249614716f, -0.0088977487757802009583f, 0.0063897864893078804016f, 0.0013557048514485359192f, 0.013355907984077930450f, 0.0094781443476676940918f, 0.0037209081929177045822f, -0.0074771516956388950348f, 0.0081743746995925903320f, 0.012971361167728900909f, -0.0017357126343995332718f, 0.010014960542321205139f, 0.0053586391732096672058f, -0.0065950569696724414825f, 0.0020378758199512958527f, 0.011078442446887493134f, 0.00060649774968624114990f, -0.00022249709581956267357f, -0.011149319820106029510f, 0.0014922310365363955498f, 0.0071182260289788246155f, -0.00097896670922636985779f, 0.0016177524812519550323f, -0.0051874700002372264862f};
static const float tensor_fc2_weight[4][128] = 
{
  {-0.030708892270922660828f, 0.080384314060211181641f, -0.00013009349640924483538f, -0.055863425135612487793f, -0.051445230841636657715f, 0.045969940721988677979f, 0.037447240203619003296f, -0.022374302148818969727f, -0.064452938735485076904f, 0.083487957715988159180f, -0.050585366785526275635f, -0.012237230315804481506f, 0.035694129765033721924f, 0.041666451841592788696f, -0.0050209327600896358490f, 0.075450763106346130371f, 0.058936432003974914551f, -0.063683420419692993164f, -0.085214197635650634766f, -0.040707461535930633545f, 0.081557512283325195312f, 0.10095301270484924316f, 0.11202931404113769531f, -0.092341750860214233398f, 0.094123154878616333008f, -0.026245327666401863098f, -0.0063102655112743377686f, 0.078696176409721374512f, 0.059990536421537399292f, 0.10463756322860717773f, 0.056874364614486694336f, 0.083163537085056304932f, 0.019182959571480751038f, 0.095923975110054016113f, -0.056417234241962432861f, -0.087497301399707794189f, -0.086668483912944793701f, 0.024272821843624114990f, 0.089636512100696563721f, 0.053492739796638488770f, -0.054789945483207702637f, 0.044768769294023513794f, -0.087335087358951568604f, -0.0091568622738122940063f, 0.019475251436233520508f, -0.042209714651107788086f, 0.052494384348392486572f, 0.013829872012138366699f, -0.10222534835338592529f, -0.078727506101131439209f, 0.076514735817909240723f, -0.0090388366952538490295f, -0.081254541873931884766f, 0.027671765536069869995f, 0.064174823462963104248f, -0.010732334107160568237f, -0.031892411410808563232f, -0.088679246604442596436f, -0.066046558320522308350f, 0.047904100269079208374f, 0.091657362878322601318f, 0.028413090854883193970f, -0.057007323950529098511f, 0.0075740879401564598083f, 0.11898627132177352905f, 0.085562564432621002197f, 0.028988545760512351990f, -0.032339684665203094482f, -0.012785908766090869904f, -0.0025952928699553012848f, 0.011441040784120559692f, 0.080352440476417541504f, 0.091037884354591369629f, 0.00011008975707227364182f, 0.038781668990850448608f, -0.098106995224952697754f, -0.044555276632308959961f, 0.048835597932338714600f, 0.098631307482719421387f, 0.051361858844757080078f, 0.081555306911468505859f, 0.052374079823493957520f, -0.0045217536389827728271f, 0.010898932814598083496f, 0.037374384701251983643f, -0.043802082538604736328f, 0.041254110634326934814f, -0.040915597230195999146f, 0.037600453943014144897f, 0.018021319061517715454f, -0.0086771845817565917969f, -0.00082742940867319703102f, -0.074032709002494812012f, 0.039253275841474533081f, 0.083817526698112487793f, -0.012685259804129600525f, 0.059118703007698059082f, 0.051527824252843856812f, -0.10096983611583709717f, 0.0027244789525866508484f, -0.037948764860630035400f, -0.012732560746371746063f, -0.076396353542804718018f, 0.063448265194892883301f, -0.012381757609546184540f, 0.020503586158156394958f, -0.079066857695579528809f, 0.0077237095683813095093f, 0.077889427542686462402f, 0.038910619914531707764f, -0.036178238689899444580f, 0.046792220324277877808f, 0.061104681342840194702f, 0.015866560861468315125f, -0.076187573373317718506f, -0.082367345690727233887f, -0.072008922696113586426f, 0.076074011623859405518f, 0.063007578253746032715f, -0.024408226832747459412f, 0.078540489077568054199f, -0.061477147042751312256f, -0.015021772123873233795f, 0.024443633854389190674f, 0.037736974656581878662f, -0.052804354578256607056f, -0.026659864932298660278f, 0.010985436849296092987f},
  {-0.10257299989461898804f, 0.084579899907112121582f, 0.083045341074466705322f, 0.0056114494800567626953f, -0.042226828634738922119f, -0.096197597682476043701f, -0.048759929835796356201f, -0.00030110735679045319557f, 0.017399173229932785034f, 0.029056767001748085022f, -0.00038735315320082008839f, 0.056241735816001892090f, -0.0049996282905340194702f, 0.018757045269012451172f, -0.064099870622158050537f, -0.045151300728321075439f, 0.019157765433192253113f, 0.048892177641391754150f, -0.027712123468518257141f, 0.087301142513751983643f, 0.035242747515439987183f, 0.043586235493421554565f, -0.12156067788600921631f, 0.0032003128435462713242f, 0.085580408573150634766f, -0.089391663670539855957f, 0.038856912404298782349f, -0.0039738495834171772003f, 0.035584669560194015503f, -0.11527171730995178223f, -0.045673944056034088135f, 0.0043622269295156002045f, 0.057137195020914077759f, 0.069015145301818847656f, 0.059268407523632049561f, 0.052495233714580535889f, -0.019956739619374275208f, 0.070559255778789520264f, 0.028006728738546371460f, 0.095101721584796905518f, -0.025301016867160797119f, -0.060323737561702728271f, -0.036134291440248489380f, -0.058048367500305175781f, -0.042471688240766525269f, -0.12245389819145202637f, 0.087689839303493499756f, 0.086264468729496002197f, -0.051683548837900161743f, 0.083791859447956085205f, 0.065902210772037506104f, 0.071955680847167968750f, -0.016536589711904525757f, 0.012273356318473815918f, -0.019412528723478317261f, 0.067013815045356750488f, -0.040486961603164672852f, 0.036594994366168975830f, 0.061357777565717697144f, 0.018811229616403579712f, 0.072913132607936859131f, 0.0073279803618788719177f, 0.0044348849914968013763f, -0.051796432584524154663f, -0.088692791759967803955f, 0.082106970250606536865f, -0.014640239067375659943f, 0.0098024364560842514038f, -0.089599825441837310791f, 0.062346532940864562988f, 0.037239335477352142334f, 0.038498178124427795410f, 0.034806068986654281616f, -0.040868580341339111328f, 0.033297751098871231079f, -0.076771005988121032715f, -0.077756620943546295166f, -0.064676508307456970215f, -0.13576333224773406982f, -0.12575674057006835938f, -0.019140904769301414490f, 0.074415653944015502930f, -0.095789030194282531738f, 0.034313697367906570435f, -0.11933095008134841919f, 0.082462899386882781982f, 0.069450110197067260742f, -0.031246704980731010437f, -0.054894231259822845459f, -0.048220746219158172607f, -0.066463641822338104248f, 0.0064926766790449619293f, -0.023425564169883728027f, 0.056793265044689178467f, 0.086316302418708801270f, 0.095025114715099334717f, -0.047545559704303741455f, 0.058486133813858032227f, -0.074405431747436523438f, -0.13206948339939117432f, -0.078357949852943420410f, 0.019678756594657897949f, 0.0010680695995688438416f, 0.074671648442745208740f, 0.0019218066008761525154f, -0.056318361312150955200f, 0.0099661229178309440613f, 0.039582077413797378540f, 0.073736950755119323730f, 0.013225886970758438110f, 0.029457373544573783875f, -0.065961308777332305908f, -0.070689789950847625732f, -0.012218322604894638062f, -0.053444679826498031616f, 0.038934007287025451660f, 0.087507963180541992188f, -0.055780686438083648682f, -0.13199369609355926514f, -0.027365367859601974487f, -0.051082193851470947266f, -0.12106924504041671753f, 0.029353912919759750366f, -0.10564393550157546997f, 0.095082230865955352783f, 0.068704485893249511719f, -0.058463200926780700684f, -0.069207951426506042480f},
  {0.065681986510753631592f, 0.064276129007339477539f, -0.074615851044654846191f, -0.084779664874076843262f, -0.014542497694492340088f, -0.035397436469793319702f, 0.062480445951223373413f, 0.017995342612266540527f, -0.056434940546751022339f, -0.059469040483236312866f, -0.048189405351877212524f, -0.030133457854390144348f, -0.070138812065124511719f, -0.090016841888427734375f, 0.057365283370018005371f, -0.0081784734502434730530f, -0.011040935292840003967f, -0.032754451036453247070f, -0.084661111235618591309f, 0.042589388787746429443f, -0.020034214481711387634f, 0.0015644826926290988922f, -0.033161256462335586548f, -0.020114265382289886475f, 0.083485238254070281982f, 0.029238499701023101807f, -0.031839422881603240967f, 0.074670903384685516357f, 0.074621304869651794434f, -0.021917248144745826721f, -0.035446725785732269287f, 0.044013239443302154541f, -0.040396321564912796021f, -0.063117921352386474609f, -0.088660672307014465332f, 0.084068670868873596191f, 0.062769018113613128662f, -0.062576495110988616943f, 0.049518994987010955811f, 0.034678015857934951782f, 0.0025266504380851984024f, -0.011735004372894763947f, -0.058895915746688842773f, 0.059688873589038848877f, -0.044723689556121826172f, -0.034172806888818740845f, -0.052046719938516616821f, -0.046835064888000488281f, 0.00053615315118804574013f, 0.0098390942439436912537f, -0.067243687808513641357f, -0.052075665444135665894f, -0.050686758011579513550f, -0.045501913875341415405f, -0.021500390022993087769f, -0.025771077722311019897f, 0.073399819433689117432f, 0.052746277302503585815f, -0.079800613224506378174f, 0.012003267183899879456f, -0.087864853441715240479f, -0.043029300868511199951f, -0.019309267401695251465f, 0.070848383009433746338f, -0.055382866412401199341f, 0.058409031480550765991f, 0.063746929168701171875f, 0.0094444323331117630005f, -0.0032771306578069925308f, -0.038247145712375640869f, -0.096571333706378936768f, 0.074834488332271575928f, -0.067775174975395202637f, -0.011704185977578163147f, 0.088359683752059936523f, -0.031210111454129219055f, 0.0080963931977748870850f, -0.00035890119033865630627f, -0.026489207521080970764f, -0.021494209766387939453f, -0.040776699781417846680f, -0.093435689806938171387f, -0.015694838017225265503f, 0.065016023814678192139f, -0.016889631748199462891f, 0.077459923923015594482f, 0.053045336157083511353f, -0.062154576182365417480f, -0.059755768626928329468f, -0.0013166723074391484261f, 0.073058731853961944580f, 0.039082903414964675903f, 0.074144169688224792480f, -0.0060797715559601783752f, -0.080426715314388275146f, -0.033116847276687622070f, -0.037741761654615402222f, -0.0049366494640707969666f, -0.0097046438604593276978f, 0.032041482627391815186f, -0.032606177031993865967f, -0.035558018833398818970f, 0.023744123056530952454f, -0.096563711762428283691f, 0.075132153928279876709f, -0.077763468027114868164f, -0.075496368110179901123f, -0.10257262736558914185f, 0.061861887574195861816f, -0.049859505146741867065f, -0.095397926867008209229f, 0.073437876999378204346f, 0.017401592805981636047f, -0.083945438265800476074f, 0.015167617239058017731f, 0.036243386566638946533f, -0.0024796840734779834747f, -0.077336244285106658936f, 0.011938611045479774475f, -0.061598647385835647583f, -0.089702509343624114990f, -0.016184471547603607178f, -0.040723949670791625977f, -0.039124704897403717041f, 0.011944672092795372009f, -0.060351982712745666504f, -0.041965227574110031128f, -0.036728143692016601562f},
  {-0.018276631832122802734f, -0.060030754655599594116f, 0.079339742660522460938f, 0.013758217915892601013f, -0.031929362565279006958f, 0.064363598823547363281f, 0.072042115032672882080f, -0.085647650063037872314f, 0.059968635439872741699f, -0.016999544575810432434f, 0.027070684358477592468f, 0.069364875555038452148f, 6.3732995840837247670e-06f, 0.046080440282821655273f, -0.068690136075019836426f, 0.055201355367898941040f, 0.086169488728046417236f, -0.080887109041213989258f, -0.0089861489832401275635f, -0.073842398822307586670f, -0.049368306994438171387f, -0.030623167753219604492f, -0.044630382210016250610f, -0.028205202892422676086f, -0.056707382202148437500f, -0.046447381377220153809f, -0.0076964306645095348358f, 0.080098703503608703613f, -0.063590385019779205322f, 0.0077625378035008907318f, -0.057040907442569732666f, -0.024749515578150749207f, 0.028031298890709877014f, 0.075840435922145843506f, 0.084692701697349548340f, -0.021535895764827728271f, 0.0044295489788055419922f, -0.038140363991260528564f, -0.017358310520648956299f, -0.055725865066051483154f, -0.039973225444555282593f, 0.075497806072235107422f, 0.028587993234395980835f, -0.055762268602848052979f, -0.059548240154981613159f, -0.054723776876926422119f, -0.016484728083014488220f, -0.041796367615461349487f, 0.037251424044370651245f, 0.052852481603622436523f, 0.026938872411847114563f, 0.0038758027367293834686f, 0.030155148357152938843f, 0.0068060355260968208313f, 0.0029804648365825414658f, 0.071877464652061462402f, -0.043945644050836563110f, -0.053845424205064773560f, 0.050086319446563720703f, -0.062821179628372192383f, 0.034960523247718811035f, -0.078006125986576080322f, -0.029102176427841186523f, -0.055241227149963378906f, 0.010164991952478885651f, 0.037619665265083312988f, -0.0021330153103917837143f, -0.0024830193724483251572f, 0.081669226288795471191f, 0.058511540293693542480f, 0.035045813769102096558f, -0.029415916651487350464f, -0.084561780095100402832f, 0.026805523782968521118f, -0.057633489370346069336f, -0.063405312597751617432f, 0.072653047740459442139f, 0.068328879773616790771f, 0.016802513971924781799f, -0.071258068084716796875f, 0.043046183884143829346f, 0.068577021360397338867f, 0.049250055104494094849f, -0.056692127138376235962f, -0.070796318352222442627f, 0.065539635717868804932f, -0.0054171448573470115662f, -0.051643703132867813110f, -0.050019305199384689331f, -0.032013531774282455444f, 0.077861070632934570312f, 0.071454621851444244385f, -0.059815239161252975464f, -0.093311287462711334229f, -0.035589519888162612915f, 0.094443142414093017578f, 0.0041957637295126914978f, 0.041632100939750671387f, 0.089014731347560882568f, -0.034542493522167205811f, -0.089701667428016662598f, -0.053348604589700698853f, 0.088025487959384918213f, -0.057462390512228012085f, 0.059454865753650665283f, 0.00010571216989774256945f, 0.017599772661924362183f, 0.037524774670600891113f, -0.034590948373079299927f, -0.016488274559378623962f, 0.022692598402500152588f, 0.055012077093124389648f, 0.081026434898376464844f, -0.0090388040989637374878f, 0.031137501820921897888f, -0.046981915831565856934f, 0.056509621441364288330f, -0.086968839168548583984f, -0.056776065379381179810f, -0.095661267638206481934f, 0.061036989092826843262f, 0.022399516776204109192f, 0.017345581203699111938f, 0.0085393609479069709778f, -0.043420281261205673218f, 0.074211567640304565430f, 0.053221903741359710693f, 0.057252656668424606323f}
};
static const float tensor_fc2_bias[4] = 
{0.039868023246526718140f, 0.044212505221366882324f, 0.026557035744190216064f, 0.0093258209526538848877f};
union tensor_union_0 {
float tensor__cv1_Conv_output_0[1][32][14][14][14];
float tensor__pol1_MaxPool_output_0[1][32][6][6][6];
float tensor__fc1_Gemm_output_0[1][128];
};
static union tensor_union_0 tu0;

union tensor_union_1 {
float tensor__cv2_Conv_output_0[1][32][12][12][12];
float tensor__Flatten_output_0[1][6912];
float tensor__act1_Relu_output_0[1][128];
};
static union tensor_union_1 tu1;


/*
 * Operand:           Conv
 * Name in ONNX file: /cv1/Conv
 */
FUNC_PREFIX void node__cv1_Conv( const float x[1][1][32][16][32], const float w[32][1][5][3][5], const float bias[32], float y[1][32][14][14][14] )
{
	/* Conv
	 *
	 * auto_pad: NOTSET
	 * dilations: 1 1 1 
	 * group: 1
	 * kernel_shape: 5 3 5 
	 * pads: 0 0 0 0 0 0 
	 * strides: 2 1 2 
	 */
	for( uint32_t b=0; b<1; b++ ) {
	for( uint32_t m=0; m<32; m++) {
		for( int32_t o0=0, i0=0; o0<14; o0++, i0+=2) {
		for( int32_t o1=0, i1=0; o1<14; o1++, i1+=1) {
		for( int32_t o2=0, i2=0; o2<14; o2++, i2+=2) {
			y[b][m][o0][o1][o2] = bias[m];
			for( int32_t c=0; c<1; c++ ) {
			for( uint32_t k0=0; k0<5; k0++ ) {
			for( uint32_t k1=0; k1<3; k1++ ) {
			for( uint32_t k2=0; k2<5; k2++ ) {
				int ii0 = i0+k0 * 1;
				if( ii0<0) continue;
				if( ii0>=32) continue;
				int ii1 = i1+k1 * 1;
				if( ii1<0) continue;
				if( ii1>=16) continue;
				int ii2 = i2+k2 * 1;
				if( ii2<0) continue;
				if( ii2>=32) continue;
				y[b][m][o0][o1][o2] += x[b][c][ii0][ii1][ii2] *w[m][c][k0][k1][k2];
			} /* k */
			} /* k */
			} /* k */
			} /* c */
		} /* o */
		} /* o */
		} /* o */
	} /* m */
	} /* b */
}

/*
 * Operand:           Conv
 * Name in ONNX file: /cv2/Conv
 */
FUNC_PREFIX void node__cv2_Conv( const float x[1][32][14][14][14], const float w[32][32][3][3][3], const float bias[32], float y[1][32][12][12][12] )
{
	/* Conv
	 *
	 * auto_pad: NOTSET
	 * dilations: 1 1 1 
	 * group: 1
	 * kernel_shape: 3 3 3 
	 * pads: 0 0 0 0 0 0 
	 * strides: 1 1 1 
	 */
	for( uint32_t b=0; b<1; b++ ) {
	for( uint32_t m=0; m<32; m++) {
		for( int32_t o0=0, i0=0; o0<12; o0++, i0+=1) {
		for( int32_t o1=0, i1=0; o1<12; o1++, i1+=1) {
		for( int32_t o2=0, i2=0; o2<12; o2++, i2+=1) {
			y[b][m][o0][o1][o2] = bias[m];
			for( int32_t c=0; c<32; c++ ) {
			for( uint32_t k0=0; k0<3; k0++ ) {
			for( uint32_t k1=0; k1<3; k1++ ) {
			for( uint32_t k2=0; k2<3; k2++ ) {
				int ii0 = i0+k0 * 1;
				if( ii0<0) continue;
				if( ii0>=14) continue;
				int ii1 = i1+k1 * 1;
				if( ii1<0) continue;
				if( ii1>=14) continue;
				int ii2 = i2+k2 * 1;
				if( ii2<0) continue;
				if( ii2>=14) continue;
				y[b][m][o0][o1][o2] += x[b][c][ii0][ii1][ii2] *w[m][c][k0][k1][k2];
			} /* k */
			} /* k */
			} /* k */
			} /* c */
		} /* o */
		} /* o */
		} /* o */
	} /* m */
	} /* b */
}

/*
 * Operand:           MaxPool
 * Name in ONNX file: /pol1/MaxPool
 */
FUNC_PREFIX void node__pol1_MaxPool( const float x[1][32][12][12][12], float y[1][32][6][6][6] )
{
	/* MaxPool
	 *
	 * auto_pad: NOTSET
	 * dilations: 1 1 1 
	 * group: 1
	 * kernel_shape: 2 2 2 
	 * pads: 0 0 0 0 0 0 
	 * strides: 2 2 2 
	 */
	for( uint32_t b=0; b<1; b++ ) {
	for( uint32_t m=0, c=0; m<32; m++, c=m) {
		for( int32_t o0=0, i0=0; o0<6; o0++, i0+=2) {
		for( int32_t o1=0, i1=0; o1<6; o1++, i1+=2) {
		for( int32_t o2=0, i2=0; o2<6; o2++, i2+=2) {
			float curmax = -FLT_MAX;
			for( uint32_t k0=0; k0<2; k0++ ) {
			for( uint32_t k1=0; k1<2; k1++ ) {
			for( uint32_t k2=0; k2<2; k2++ ) {
				int ii0 = i0+k0 * 1;
				if( ii0<0) continue;
				if( ii0>=12) continue;
				int ii1 = i1+k1 * 1;
				if( ii1<0) continue;
				if( ii1>=12) continue;
				int ii2 = i2+k2 * 1;
				if( ii2<0) continue;
				if( ii2>=12) continue;
				if( curmax < x[b][c][ii0][ii1][ii2]) {
				curmax = MAX( curmax, x[b][c][ii0][ii1][ii2]);
				}
			} /* k */
			} /* k */
			} /* k */
			y[b][m][o0][o1][o2]= curmax;
		} /* o */
		} /* o */
		} /* o */
	} /* m */
	} /* b */
}

/*
 * Operand:           Flatten
 * Name in ONNX file: /Flatten
 */
FUNC_PREFIX void node__Flatten( const float input[1][32][6][6][6], float output[1][6912] )
{
	/* Flatten*/
	float *input_ = (float*)input;
	float *output_ = (float*)output;
	for( uint32_t i=0; i<6912; i++ )
		output_[i] = input_[i];

}

/*
 * Operand:           Gemm
 * Name in ONNX file: /fc1/Gemm
 */
FUNC_PREFIX void node__fc1_Gemm( const float A[1][6912], const float B[128][6912], const float C[128], float Y[1][128] )
{
	/* Gemm */
	/* alpha   = 1.0000000000000000000
	   beta    = 1.0000000000000000000
	   transA  = 0
	   transB  = 1
	 */
	const int M = 1;
	const int K = 6912;
	const int N = 128;
	float alpha = 1.0000000000000000000;
	float beta = 1.0000000000000000000;
	float (*C_)[128]  = (float(*)[128])C;
	for( uint32_t r=0; r<M; r++ )
		for( uint32_t c=0; c<N; c++ ) {
			float ABrc = 0;
			for( uint32_t i=0; i<K; i++ ) {
				float B_el = B[c][i];
				ABrc += A[r][i] * B_el;
			}
			float tmp = ABrc * alpha;
			tmp += C_[0][c] * beta;
			Y[r][c] = tmp;
	}
}

/*
 * Operand:           Relu
 * Name in ONNX file: /act1/Relu
 */
FUNC_PREFIX void node__act1_Relu( const float X[1][128], float Y[1][128] )
{
	/*Relu*/
	float *X_ptr = (float*)X;
	float *Y_ptr = (float*)Y;
	uint32_t i;
	for( i=0; i<128; i++ )
		Y_ptr[i] = X_ptr[i] > 0 ? X_ptr[i] : 0;

}

/*
 * Operand:           Gemm
 * Name in ONNX file: /fc2/Gemm
 */
FUNC_PREFIX void node__fc2_Gemm( const float A[1][128], const float B[4][128], const float C[4], float Y[1][4] )
{
	/* Gemm */
	/* alpha   = 1.0000000000000000000
	   beta    = 1.0000000000000000000
	   transA  = 0
	   transB  = 1
	 */
	const int M = 1;
	const int K = 128;
	const int N = 4;
	float alpha = 1.0000000000000000000;
	float beta = 1.0000000000000000000;
	float (*C_)[4]  = (float(*)[4])C;
	for( uint32_t r=0; r<M; r++ )
		for( uint32_t c=0; c<N; c++ ) {
			float ABrc = 0;
			for( uint32_t i=0; i<K; i++ ) {
				float B_el = B[c][i];
				ABrc += A[r][i] * B_el;
			}
			float tmp = ABrc * alpha;
			tmp += C_[0][c] * beta;
			Y[r][c] = tmp;
	}
}


void entry(const float tensor_input[1][1][32][16][32], float tensor_output[1][4], const float tensor_cv2_weight[32][32][3][3][3], const float tensor_fc1_weight[128][6912]){
	#pragma HLS INTERFACE m_axi port=tensor_input depth=16384 offset=slave
	#pragma HLS INTERFACE m_axi port=tensor_cv2_weight depth=27648 offset=slave
	#pragma HLS INTERFACE m_axi port=tensor_fc1_weight depth=884736 offset=slave
	#pragma HLS INTERFACE s_axilite port=tensor_output
	#pragma HLS INTERFACE s_axilite port=return
	#pragma HLS INLINE recursive
	node__cv1_Conv( tensor_input, tensor_cv1_weight, tensor_cv1_bias, tu0.tensor__cv1_Conv_output_0);
	node__cv2_Conv( tu0.tensor__cv1_Conv_output_0, tensor_cv2_weight, tensor_cv2_bias, tu1.tensor__cv2_Conv_output_0);
	node__pol1_MaxPool( tu1.tensor__cv2_Conv_output_0, tu0.tensor__pol1_MaxPool_output_0);
	node__Flatten( tu0.tensor__pol1_MaxPool_output_0, tu1.tensor__Flatten_output_0);
	node__fc1_Gemm( tu1.tensor__Flatten_output_0, tensor_fc1_weight, tensor_fc1_bias, tu0.tensor__fc1_Gemm_output_0);
	node__act1_Relu( tu0.tensor__fc1_Gemm_output_0, tu1.tensor__act1_Relu_output_0);
	node__fc2_Gemm( tu1.tensor__act1_Relu_output_0, tensor_fc2_weight, tensor_fc2_bias, tensor_output);
}
