// This file is computer-generated by onnx2c 
// (TODO: add creating command line here)
// (TODO: print creation date here )

// ONNX model:
// produced by pytorch, version 2.5.1
// ONNX IR version: 17
// Model documentation: 
/*

*/

#include <float.h>
#include <math.h>
#include <stdbool.h>
#include <stdint.h>
#include <string.h>

#define MAX(X,Y) ( X > Y ? X : Y)
#define MIN(X,Y) ( X < Y ? X : Y)
#define CLIP(X,L) ( MAX(MIN(X,L), -L) )

#if __STDC_VERSION__ < 199901L
#define FUNC_PREFIX
#else
#define FUNC_PREFIX static inline
#endif

static const float tensor_fc1_weight[4][2048] = 
{
  {0.0094375647604465484619f, 0.018420288339257240295f, 0.0095736589282751083374f, 0.015424871817231178284f, -0.021741937845945358276f, -0.0078371800482273101807f, -0.016636256128549575806f, -0.017906609922647476196f, -0.0068490682169795036316f, 0.010045506060123443604f, -0.019555062055587768555f, 0.013749431818723678589f, -0.00020360351481940597296f, -0.0078009259887039661407f, -0.0056449198164045810699f, 0.0010657014790922403336f, 0.0084455069154500961304f, -0.019333746284246444702f, 0.022014075890183448792f, -0.021567462012171745300f, -0.013963110744953155518f, -0.012445366010069847107f, -0.015901850536465644836f, 0.016190668568015098572f, 0.019661284983158111572f, -0.0084828063845634460449f, -0.012736424803733825684f, -0.0019473634893074631691f, 0.00024190446129068732262f, -0.0022342018783092498779f, 0.0072877430357038974762f, -0.0052278027869760990143f, -0.014965447597205638885f, 0.010061295703053474426f, -0.0014509632019326090813f, 0.0027086779009550809860f, -0.0034382818266749382019f, 0.013291951268911361694f, -0.00085523858433589339256f, -0.014557020738720893860f, -0.012534211389720439911f, -0.0083265993744134902954f, 0.012953354045748710632f, -0.0099936574697494506836f, -0.0066849193535745143890f, -0.012677721679210662842f, 0.0036690542474389076233f, 0.0041809515096247196198f, 0.0024091505911201238632f, 0.0014663388719782233238f, 0.0091340150684118270874f, -0.0072594336234033107758f, 0.0055715972557663917542f, 0.014024129137396812439f, 0.0063879131339490413666f, 0.0024103650357574224472f, 0.020671000704169273376f, -0.010023266077041625977f, -0.0061695133335888385773f, 0.0063177808187901973724f, 0.016962561756372451782f, -0.0072299204766750335693f, 0.0085628693923354148865f, 0.015474549494683742523f, 0.019816102460026741028f, -0.0052701551467180252075f, -0.021552620455622673035f, 0.010951307602226734161f, 0.0014561340212821960449f, -0.011533385142683982849f, 0.019615519791841506958f, 6.7593005951493978500e-05f, 0.017061823979020118713f, 0.015265869908034801483f, -0.0046662827953696250916f, 0.0046250345185399055481f, 0.015255544334650039673f, -0.0095231430605053901672f, -0.0062941759824752807617f, 0.0076745380647480487823f, -0.011994565837085247040f, -0.015485658310353755951f, 0.0029430221766233444214f, -0.010368598625063896179f, -0.012908319942653179169f, -0.0031283393036574125290f, -0.0017281761392951011658f, 0.015456262975931167603f, -0.013405060395598411560f, 0.013260567560791969299f, 0.0094696851447224617004f, -0.015836058184504508972f, -0.018959783017635345459f, -0.0077064377255737781525f, -0.018593663349747657776f, 0.020994044840335845947f, 0.020944464951753616333f, 0.0043252594769001007080f, 0.0056986673735082149506f, -0.014753999188542366028f, -0.018427660688757896423f, -0.016204906627535820007f, -0.0066786473616957664490f, 0.0093558281660079956055f, 0.010469414293766021729f, -0.0043553840368986129761f, 0.015863973647356033325f, 0.0095174666494131088257f, -0.0056211170740425586700f, 0.013485558331012725830f, 0.0072428858838975429535f, -0.014942340552806854248f, -0.010987886227667331696f, -0.0087068909779191017151f, 0.0072876773774623870850f, -0.0045641716569662094116f, -0.015224023722112178802f, 0.0049584186635911464691f, -0.0031386362388730049133f, 0.021852355450391769409f, 0.015705145895481109619f, -0.011349959298968315125f, 0.012937428429722785950f, -0.0017171547515317797661f, -0.013195143081247806549f, -0.017781583592295646667f, -0.00021445369930006563663f, -0.0045007457956671714783f, -0.0018360826652497053146f, -0.019160389900207519531f, 0.0054430123418569564819f, -0.014582308940589427948f, 0.0072230845689773559570f, 0.0065636970102787017822f, -0.0085264574736356735229f, 0.0061922096647322177887f, 0.014769280329346656799f, 0.0049575837329030036926f, 0.013212784193456172943f, -0.013188404962420463562f, 0.019294029101729393005f, 0.016201205551624298096f, -0.00010555414337432011962f, -0.019193772226572036743f, -0.0079113980755209922791f, -0.020577814429998397827f, -0.0013160669477656483650f, 0.018481643870472908020f, -0.0059630731120705604553f, 0.0019575103651732206345f, -0.021917983889579772949f, -0.0071801948361098766327f, -0.013133234344422817230f, 0.014603487215936183929f, -6.3536375819239765406e-05f, -0.0094391340389847755432f, 0.018017925322055816650f, -0.018519915640354156494f, 0.0056691383942961692810f, 0.018559204414486885071f, 0.0053785094060003757477f, -0.014068578369915485382f, 0.00042637067963369190693f, -0.0043658865615725517273f, 0.021579515188932418823f, -0.0013285266468301415443f, 0.011940589174628257751f, -0.021299170330166816711f, -0.017894065007567405701f, -0.010551716201007366180f, -0.0036575298290699720383f, 0.0030860633123666048050f, 0.015203529968857765198f, 0.012146976776421070099f, 0.00045532820513471961021f, 0.011257939040660858154f, -0.020663833245635032654f, -0.016897208988666534424f, 0.021819783374667167664f, 0.0089573534205555915833f, -0.021039098501205444336f, 8.6411571828648447990e-05f, 0.0017410493455827236176f, 0.0061681279912590980530f, 0.013891142792999744415f, -0.017802376300096511841f, -0.0040371911600232124329f, 0.0010215711081400513649f, -0.010767747648060321808f, -0.0039504477754235267639f, 0.017654756084084510803f, 0.0023243881296366453171f, 0.020509077236056327820f, 0.018540160730481147766f, -0.0077319052070379257202f, 0.021058617159724235535f, -0.018219228833913803101f, 0.0055567012168467044830f, 0.0070046163164079189301f, 0.015778755769133567810f, 0.010672629810869693756f, -0.015721399337053298950f, 0.0057738176546990871429f, -0.0094608291983604431152f, 0.0012196270981803536415f, -0.00093315489357337355614f, -0.0097727738320827484131f, -0.0027679994236677885056f, -0.0061435247771441936493f, 0.0067442175932228565216f, -0.0017332601128146052361f, -0.0023051903117448091507f, -0.021584756672382354736f, 0.0079736569896340370178f, -0.0094153638929128646851f, -0.020760098472237586975f, 0.0099044833332300186157f, 0.017877701669931411743f, -0.00027838782989419996738f, -0.020556461066007614136f, -0.0078502269461750984192f, 0.00069774896837770938873f, 0.018335226923227310181f, -0.0082655372098088264465f, 0.017846794798970222473f, 0.0073506077751517295837f, -0.019201237708330154419f, -0.0039536799304187297821f, -0.017836833372712135315f, -0.019974498078227043152f, -0.0093563422560691833496f, 0.0062520871870219707489f, 0.015672948211431503296f, 0.0011106668971478939056f, -0.0024755687918514013290f, -0.016415117308497428894f, -0.0043862801976501941681f, -0.0089558130130171775818f, 0.019139666110277175903f, 0.017726317048072814941f, 0.011006805114448070526f, 0.013821537606418132782f, 0.010571124963462352753f, -0.0013965989928692579269f, 0.011433491483330726624f, 0.016550337895750999451f, 0.00078329653479158878326f, 0.020713632926344871521f, -0.014192698523402214050f, 0.0058097429573535919189f, 0.00055189977865666151047f, -0.018756801262497901917f, -0.0090132961049675941467f, -0.0016998640494421124458f, -0.015315434895455837250f, 0.014250502921640872955f, 0.017852917313575744629f, -0.0075366203673183917999f, -0.0077471281401813030243f, 0.019387578591704368591f, 0.0034688699524849653244f, -0.0093127591535449028015f, -0.018767546862363815308f, -0.018931273370981216431f, -0.0035940592642873525620f, 0.017572782933712005615f, -0.010924128815531730652f, 0.0097863664850592613220f, -0.012576946057379245758f, 0.0054731210693717002869f, 0.0032564525026828050613f, 0.00049033644609153270721f, 0.0061845835298299789429f, 0.011543513275682926178f, 0.0070849456824362277985f, 0.0054924376308917999268f, 0.013268304057419300079f, 0.016334576532244682312f, 0.019773757085204124451f, 0.014216821640729904175f, -0.011784029193222522736f, -0.0051179784350097179413f, -0.017707983031868934631f, 0.020758025348186492920f, 0.0011884646955877542496f, -0.014272042550146579742f, 0.0080467052757740020752f, -0.021843224763870239258f, -0.012462962418794631958f, -0.021216375753283500671f, 0.016592297703027725220f, 0.0055182790383696556091f, -0.0054550403729081153870f, 0.0029405565001070499420f, 0.0068275760859251022339f, 0.0071747475303709506989f, 0.014644033275544643402f, 0.012117990292608737946f, 0.0021657843608409166336f, -0.021756306290626525879f, 0.014000265859067440033f, -0.0072046006098389625549f, -0.018991330638527870178f, 0.0074031595140695571899f, 0.0088603477925062179565f, -0.011716523207724094391f, -0.016138607636094093323f, -0.0072916494682431221008f, -0.011119368486106395721f, 0.0013163014082238078117f, 0.018227349966764450073f, 0.0047971438616514205933f, 0.021304531022906303406f, 0.011948322877287864685f, -0.018131092190742492676f, -0.010082826949656009674f, -0.017898000776767730713f, -0.0099422335624694824219f, -0.0069062588736414909363f, -0.015286121517419815063f, -0.020144989714026451111f, 0.0062743644230067729950f, 0.0038682613521814346313f, -0.00081862352089956402779f, 0.019238431006669998169f, -0.013441251590847969055f, 0.019509660080075263977f, 0.017676962539553642273f, -0.0013145681004971265793f, -0.015681354328989982605f, -0.0077267340384423732758f, -0.011676604859530925751f, -0.013529556803405284882f, -0.0085108792409300804138f, 0.019338661804795265198f, -0.0042124353349208831787f, -0.0046619973145425319672f, 0.011107601225376129150f, -0.0057970643974840641022f, -0.0022426943760365247726f, 0.011223342269659042358f, 0.0053558582440018653870f, 0.019355647265911102295f, 0.012079152278602123260f, -0.0027046133764088153839f, -0.011789806187152862549f, 0.013608405366539955139f, 0.0017915808130055665970f, 0.0091705610975623130798f, -0.0055437143892049789429f, -0.0013188197044655680656f, -0.020086374133825302124f, -0.0074261822737753391266f, 0.011106602847576141357f, 0.0073266234248876571655f, -0.0058625526726245880127f, -0.0057602571323513984680f, -0.0027728253044188022614f, 0.013377211987972259521f, 0.0018645080272108316422f, 0.013379479758441448212f, 0.018745079636573791504f, 0.0028942583594471216202f, -0.0035015626344829797745f, -0.021607801318168640137f, 0.016764400526881217957f, -0.021743940189480781555f, -0.0074256951920688152313f, 0.019626509398221969604f, 0.0068196444772183895111f, -0.013241710141301155090f, -0.0060559804551303386688f, 0.0016407583607360720634f, -0.019699573516845703125f, 0.022086413577198982239f, 0.0052840160205960273743f, 0.010577470995485782623f, -0.015272371470928192139f, 0.019346624612808227539f, -0.00026578592951409518719f, 0.011474745348095893860f, 0.018225627020001411438f, -0.00052949611563235521317f, 0.00036910365452058613300f, -0.00042050701449625194073f, 0.0066369459964334964752f, 0.0078369090333580970764f, -0.0063736331649124622345f, 0.00052393798250705003738f, -0.0032951985485851764679f, -0.0025123525410890579224f, 0.011646833270788192749f, 0.014825904741883277893f, -0.0096630686894059181213f, -0.019766116514801979065f, -0.0048954328522086143494f, 0.021304352208971977234f, 0.00054587016347795724869f, 0.021915430203080177307f, -0.010304109193384647369f, -0.0025302702561020851135f, -0.019264763221144676208f, -0.011122595518827438354f, 0.017465529963374137878f, 0.00059444439830258488655f, 0.017149383202195167542f, -0.0066590467467904090881f, 0.013134659267961978912f, 0.0021502478048205375671f, 0.017090618610382080078f, 0.0029852269217371940613f, -0.015628401190042495728f, 0.0056666359305381774902f, 0.018109375610947608948f, -0.0097324419766664505005f, -0.0036554671823978424072f, -0.016425732523202896118f, -0.020904360339045524597f, 0.0021397427190095186234f, 0.011362782679498195648f, 0.013665140606462955475f, 0.021006550639867782593f, 0.0077322921715676784515f, -0.014961909502744674683f, -0.011812051758170127869f, -0.0086654685437679290771f, 0.016061760485172271729f, 0.0022914793808013200760f, -0.016300812363624572754f, -0.011777586303651332855f, -0.0037103793583810329437f, -0.015636449679732322693f, 0.0022717809770256280899f, 0.021905623376369476318f, -0.018640536814928054810f, 0.0099269598722457885742f, 0.0090751852840185165405f, -0.0010563554242253303528f, 0.013497504405677318573f, 0.0016072805738076567650f, -0.019476961344480514526f, -0.0049542328342795372009f, 0.0044771409593522548676f, 0.018848668783903121948f, -0.0082305027171969413757f, -0.0021836254745721817017f, 0.0019093891605734825134f, 0.00011804805399151518941f, 0.0062978216446936130524f, -0.0073791937902569770813f, -0.0026319862809032201767f, 0.016159638762474060059f, 0.00055440224241465330124f, -0.0034142371732741594315f, 0.016394235193729400635f, 0.0058611198328435420990f, 0.013223881833255290985f, -0.019868556410074234009f, 0.0018745100824162364006f, 0.0050061815418303012848f, -0.0037295904476195573807f, 0.0067139663733541965485f, 0.0050217416137456893921f, 0.013994779437780380249f, 0.0076703680679202079773f, 0.014140564948320388794f, -0.014059674926102161407f, -0.010310975834727287292f, -0.0069021414965391159058f, 0.017681682482361793518f, -0.0095674265176057815552f, -0.0093653611838817596436f, 0.018619367852807044983f, -0.022007616236805915833f, -0.016589915379881858826f, 0.010745744220912456512f, -0.0065091880969703197479f, -0.0058836708776652812958f, -0.0077182599343359470367f, 0.020921410992741584778f, 0.020931987091898918152f, -0.020866556093096733093f, 0.014440982602536678314f, 0.0036383846309036016464f, -0.0061278329230844974518f, 0.016943518072366714478f, -0.020946154370903968811f, 0.019717482849955558777f, 0.015421655029058456421f, 0.017105318605899810791f, -0.011944268830120563507f, -0.018773425370454788208f, 0.0034217550419270992279f, -0.021351233124732971191f, -0.019747827202081680298f, 0.011867029592394828796f, 0.018600210547447204590f, 0.011130234226584434509f, -0.021441442891955375671f, -0.010357730090618133545f, -0.0038303239271044731140f, -0.016075689345598220825f, -0.019607108086347579956f, -0.00019547708507161587477f, 0.018337326124310493469f, 0.0074482620693743228912f, -0.016420759260654449463f, 0.0099265202879905700684f, 0.0050206640735268592834f, -0.017074028030037879944f, 0.00019344876636750996113f, 0.019972281530499458313f, 0.021518535912036895752f, -0.010081109590828418732f, -0.013172723352909088135f, -0.011419453658163547516f, -0.0056126695126295089722f, 0.021530088037252426147f, 0.021852305158972740173f, -0.0083814403042197227478f, -0.0024860554840415716171f, 0.015034386888146400452f, -0.021628361195325851440f, -0.0091539183631539344788f, -0.011089596897363662720f, 0.021893240511417388916f, -0.0053207920864224433899f, 0.016634501516819000244f, -0.00047487381380051374435f, -0.0020522484555840492249f, -0.012160390615463256836f, -0.0092729888856410980225f, -0.021079570055007934570f, -0.0082601159811019897461f, -0.017033252865076065063f, 0.010315353982150554657f, -0.0061453105881810188293f, 0.020882995799183845520f, -0.020202996209263801575f, -0.014060372486710548401f, 0.0058835525996983051300f, 0.0022939764894545078278f, 0.014331551268696784973f, -0.015210963785648345947f, 0.0077377976849675178528f, 0.0030975721310824155807f, 0.013906568288803100586f, 0.021215802058577537537f, -0.017608534544706344604f, 0.0034736141096800565720f, 0.0096138035878539085388f, -0.010374299250543117523f, -0.018211627379059791565f, -0.0071224113926291465759f, -0.016445545479655265808f, 0.0072319195605814456940f, 0.011632295325398445129f, 0.011634239926934242249f, 0.0014387959381565451622f, -0.0058474508114159107208f, -0.014854106120765209198f, -0.016002558171749114990f, 0.018596664071083068848f, -0.0024566871579736471176f, -0.021380582824349403381f, -0.0063029373995959758759f, -0.0038707270286977291107f, 0.021820386871695518494f, -0.0085826572030782699585f, -0.012177691794931888580f, 0.010248948819935321808f, -0.0092086121439933776855f, -0.017857586964964866638f, 0.011399647220969200134f, -0.0094143701717257499695f, 0.012008084915578365326f, -0.0025628022849559783936f, -0.0092749614268541336060f, -0.0058399173431098461151f, 0.0090959426015615463257f, 0.019279237836599349976f, 0.0020521061960607767105f, 0.016732892021536827087f, -0.014520071446895599365f, 0.021413786336779594421f, -0.014210687018930912018f, -0.012651187367737293243f, 0.0082415398210287094116f, -0.015782782807946205139f, 0.0080314297229051589966f, -0.012904118746519088745f, -0.010764984413981437683f, 0.019578589126467704773f, 0.016178999096155166626f, 0.013822253793478012085f, -0.011290648020803928375f, 0.016613524407148361206f, -0.0068129906430840492249f, 0.017847169190645217896f, 0.015112513676285743713f, -0.021583726629614830017f, 0.019937625154852867126f, -0.0036261198110878467560f, 0.0080753648653626441956f, 0.0026918665971606969833f, -0.016301134601235389709f, -0.0095775285735726356506f, -0.0056933909654617309570f, 0.011607168242335319519f, -0.019215367734432220459f, -0.015554357320070266724f, -0.0019590090960264205933f, -0.014748917892575263977f, 0.018504891544580459595f, -0.020941918715834617615f, 0.00046966076479293406010f, 0.0032917847856879234314f, 0.019509596750140190125f, 0.014974016696214675903f, -0.0034020014572888612747f, -0.011509840376675128937f, 0.017931992188096046448f, -0.022062480449676513672f, -0.014312666840851306915f, 0.020774876698851585388f, -0.017299992963671684265f, 0.019228266552090644836f, -0.014590430073440074921f, 0.013091540895402431488f, 0.012826107442378997803f, 0.014485015533864498138f, -0.013043276965618133545f, 3.1283496355172246695e-05f, 0.0045599676668643951416f, 0.017134577035903930664f, 0.010055929422378540039f, -0.0096166357398033142090f, 0.0098544806241989135742f, 0.0094537409022450447083f, -0.018422998487949371338f, -0.0062074959278106689453f, 0.0020120036788284778595f, -0.015755550935864448547f, 0.021121188998222351074f, 0.011667411774396896362f, 0.012754658237099647522f, -0.0085842674598097801208f, -0.016301818192005157471f, -0.0023095656652003526688f, 0.019413404166698455811f, 0.0060794455930590629578f, 0.015687193721532821655f, 0.014348119497299194336f, 0.010710365138947963715f, 0.014554436318576335907f, -0.0059068752452731132507f, 0.010988576337695121765f, -0.011408371850848197937f, 0.011302309110760688782f, 0.0059212632477283477783f, 0.010701922699809074402f, 0.0015698041534051299095f, -0.013255555182695388794f, -0.0088995778933167457581f, 0.021254569292068481445f, -0.015568115748465061188f, -0.021597517654299736023f, -0.0048717777244746685028f, 0.0087540764361619949341f, 0.011453508399426937103f, 0.0052053490653634071350f, 0.010654496960341930389f, -0.013568352907896041870f, 0.014410180971026420593f, 0.0050682188011705875397f, -0.012280100956559181213f, 0.021436505019664764404f, -0.012917253188788890839f, 0.0050900746136903762817f, 0.0067437486723065376282f, 0.018698314204812049866f, 0.016622608527541160583f, -0.0080972546711564064026f, 0.014607307501137256622f, -0.017327204346656799316f, 0.017053546383976936340f, -0.0027742926031351089478f, -0.017666395753622055054f, -0.020211642608046531677f, 0.0092898895964026451111f, -0.016765672713518142700f, 0.0035312708932906389236f, 0.021227065473794937134f, 0.0041596172377467155457f, -0.019114512950181961060f, -0.013687849976122379303f, 0.010581140406429767609f, -0.016449151560664176941f, -0.022048842161893844604f, -0.017420662567019462585f, -0.0054002124816179275513f, 0.018250167369842529297f, -0.0090764900669455528259f, 0.019950715824961662292f, 0.013990606181323528290f, -0.014781932346522808075f, 0.011119005270302295685f, -0.015142037533223628998f, 0.015338344499468803406f, -0.010612286627292633057f, 0.0030188653618097305298f, -0.016842994838953018188f, -0.0012898199493065476418f, 0.0087391305714845657349f, -0.016585500910878181458f, -0.021030979230999946594f, 0.0031655286438763141632f, -0.0099630588665604591370f, 0.019779734313488006592f, -0.015747450292110443115f, -0.017962897196412086487f, 0.015120168216526508331f, 0.0097712147980928421021f, 0.010838470421731472015f, -0.011483272537589073181f, -0.020367972552776336670f, 0.013761351816356182098f, -0.0061960504390299320221f, 0.018619893118739128113f, 0.017007030546665191650f, -0.016715925186872482300f, -0.0084022926166653633118f, 0.0096281841397285461426f, -0.014257488772273063660f, 0.013286522589623928070f, 0.021650739014148712158f, 0.0018858396215364336967f, -0.016636390239000320435f, 0.0096697350963950157166f, 0.0064659663476049900055f, 0.021005777642130851746f, -0.013840023428201675415f, 0.021188136190176010132f, 0.0057174069806933403015f, 0.012702280655503273010f, -0.0091071957722306251526f, -0.0016825100174173712730f, -0.0076915128156542778015f, 0.0083609120920300483704f, -0.0096411807462573051453f, -0.0029242010787129402161f, -0.020779181271791458130f, -0.0072715324349701404572f, 0.012450300157070159912f, -0.0081862350925803184509f, 0.012497822754085063934f, -0.016477027907967567444f, 0.0062911729328334331512f, 0.019138712435960769653f, -0.0022341886069625616074f, -0.012737525627017021179f, -0.015053855255246162415f, 0.012029078789055347443f, 0.014128866605460643768f, 0.020597662776708602905f, -0.0021030434872955083847f, 0.017638070508837699890f, -0.0054421722888946533203f, -0.015090860426425933838f, 0.0039255074225366115570f, -0.0057130791246891021729f, -0.0085794040933251380920f, -0.020675759762525558472f, -0.0075552463531494140625f, 0.0067280963994562625885f, 0.017553774639964103699f, 0.0084993569180369377136f, -0.0077861612662672996521f, -0.017288722097873687744f, 0.0097644971683621406555f, -0.0058814818039536476135f, 0.0019506536191329360008f, -0.00041769107338041067123f, -0.0030729423742741346359f, -0.0064014215022325515747f, 0.011425576172769069672f, -0.010209889151155948639f, 0.0081827705726027488708f, 5.8052013628184795380e-05f, -0.0057226014323532581329f, 0.014996109530329704285f, -0.0044358661398291587830f, -0.0048720911145210266113f, 0.017876822501420974731f, 0.015492401085793972015f, -0.0029632868245244026184f, 0.015476602129638195038f, 0.0097966240718960762024f, -0.021617906168103218079f, -0.013625825755298137665f, -0.019537901505827903748f, -0.0076944758184254169464f, -0.018917057663202285767f, -0.011891414411365985870f, -0.021297708153724670410f, 0.0053605022840201854706f, -0.0081797968596220016479f, 0.016037121415138244629f, -0.0087009137496352195740f, -0.016631713137030601501f, 0.00035984980058856308460f, -0.0038672129157930612564f, -0.018300451338291168213f, 0.019840519875288009644f, -0.018590284511446952820f, 0.014732237905263900757f, 0.014120784588158130646f, -0.010890711098909378052f, -0.021068966016173362732f, 0.017543053254485130310f, -0.0097811399027705192566f, 0.012375871650874614716f, 0.013769059441983699799f, 0.0066609694622457027435f, 0.0060577034018933773041f, -0.0060994182713329792023f, 0.0098501686006784439087f, -0.0081751262769103050232f, -0.010340942069888114929f, -0.015379076823592185974f, -0.019610567018389701843f, 0.020080218091607093811f, -0.020109612494707107544f, 0.0066644358448684215546f, -0.0048728920519351959229f, -0.0091757457703351974487f, 0.0044717751443386077881f, 0.013788836076855659485f, 0.0042578116990625858307f, -0.0051319189369678497314f, 0.0053364546038210391998f, 0.012436860240995883942f, -0.0030937208794057369232f, -0.013621761463582515717f, 0.015281493775546550751f, -0.0045654703862965106964f, -0.018390150740742683411f, -0.015402263030409812927f, 0.010116457939147949219f, -0.012678733095526695251f, 0.016368355602025985718f, -0.0046979091130197048187f, 0.013662896119058132172f, -0.0096856877207756042480f, 0.019589066505432128906f, 0.019894162192940711975f, -0.021119153127074241638f, -0.0074993385933339595795f, 0.016952307894825935364f, 0.021623572334647178650f, -0.0050754444673657417297f, -0.0014129783958196640015f, -0.019501011818647384644f, 0.0059899203479290008545f, -0.018938567489385604858f, 0.0035445473622530698776f, 0.0069288890808820724487f, -0.017847348004579544067f, -0.00053390307584777474403f, -0.016529105603694915771f, 0.020029008388519287109f, -0.014713432639837265015f, 0.010366709902882575989f, -0.0042168712243437767029f, -0.016444535925984382629f, 0.017236584797501564026f, -0.0079861739650368690491f, 0.0040817665867507457733f, 0.010952706448733806610f, -0.0082858698442578315735f, -0.0061927260830998420715f, -0.0050940550863742828369f, -0.0083790775388479232788f, -0.022091934457421302795f, -0.019853493198752403259f, -0.0034210490994155406952f, -0.00012471778609324246645f, 0.020479327067732810974f, 0.012539875693619251251f, -0.0051317578181624412537f, -0.021678078919649124146f, 0.019813720136880874634f, 0.015210370533168315887f, 0.0011177554260939359665f, -0.015048518776893615723f, 0.0086939670145511627197f, 0.017533510923385620117f, 0.019315866753458976746f, 0.018772883340716362000f, -0.013497309759259223938f, -0.016916772350668907166f, 0.0072112991474568843842f, -0.011407850310206413269f, -0.0031658103689551353455f, 0.018427914008498191833f, -0.015481319278478622437f, -0.0020595951937139034271f, 0.012937428429722785950f, -0.00030541975866071879864f, 0.010324618779122829437f, 0.019144469872117042542f, 0.011585478670895099640f, -0.010830791667103767395f, -0.011191226541996002197f, 0.00098691589664667844772f, -0.010452712886035442352f, -0.0015685739926993846893f, 0.0085591897368431091309f, 0.012299056164920330048f, -0.00040838189306668937206f, 0.020106421783566474915f, -0.0056116343475878238678f, 0.0099781025201082229614f, 0.018231712281703948975f, -0.019190238788723945618f, -0.010107177309691905975f, -0.015171440318226814270f, -0.0034278873354196548462f, 0.013696721754968166351f, 0.019915884360671043396f, 0.010296306572854518890f, 0.0075249508954584598541f, -0.010247307829558849335f, 0.0016479021869599819183f, 0.0044720070436596870422f, -0.014676404185593128204f, -0.00075041409581899642944f, -0.0030687463004142045975f, -0.0067277327179908752441f, 0.020256675779819488525f, -0.00054814870236441493034f, -0.0033267403487116098404f, 0.00082747696433216333389f, 0.011116678826510906219f, -0.0017897527432069182396f, -0.015087509527802467346f, 0.0046302499249577522278f, 0.014606771990656852722f, -0.0025897605810314416885f, -0.0055472361855208873749f, -0.019257210195064544678f, -0.010793112218379974365f, -0.013858115300536155701f, -0.020235415548086166382f, 0.010055805556476116180f, -0.0059220115654170513153f, -0.014548216946423053741f, 0.019250411540269851685f, 0.0010071041760966181755f, 0.0015018844278529286385f, 0.020990820601582527161f, -0.015659837052226066589f, -0.0048845931887626647949f, 0.010477324016392230988f, 0.011604870669543743134f, -0.0049869571812450885773f, 0.012883338145911693573f, 0.016970489174127578735f, 0.0026848199777305126190f, -0.0026034081820398569107f, -0.013156488537788391113f, -0.0091612702235579490662f, -0.0099843880161643028259f, -0.0076594599522650241852f, -0.021017342805862426758f, -0.0070398775860667228699f, 0.0069686914794147014618f, -0.011788662523031234741f, -0.0032472461462020874023f, 0.018131200224161148071f, 0.018064539879560470581f, -0.010560056194663047791f, 0.0047599594108760356903f, -0.00028977010515518486500f, 0.019779002293944358826f, -0.019885042682290077209f, 0.020678395405411720276f, 0.0074740136042237281799f, 0.0014061083784326910973f, 0.0040903910994529724121f, 0.016863416880369186401f, -0.00017496210057288408279f, 0.010495977476239204407f, 0.00043330120388418436050f, 0.022018084302544593811f, -0.020779481157660484314f, -0.0029400035273283720016f, 0.020592546090483665466f, 0.014847938902676105499f, -0.013530945405364036560f, -0.00026670526131056249142f, 0.021112456917762756348f, 0.0068150321021676063538f, 0.014712395146489143372f, -0.0034096904564648866653f, 0.0016943349037319421768f, 0.017928371205925941467f, 0.0042394963093101978302f, -0.019190300256013870239f, -0.018321037292480468750f, -0.015105187892913818359f, -0.014448394998908042908f, -0.017717855051159858704f, 0.018475720658898353577f, -0.013394363224506378174f, 0.020593639463186264038f, -0.018531478941440582275f, 0.015680838376283645630f, -0.017651310190558433533f, 0.0022518138866871595383f, 0.012025733478367328644f, -0.014067297801375389099f, 0.00034464005148038268089f, -0.017138617113232612610f, -0.011302064172923564911f, 0.020642256364226341248f, -0.0030866111628711223602f, 0.0018813140923157334328f, -0.014997357502579689026f, 0.0073180468752980232239f, 0.019277121871709823608f, 0.0050473539158701896667f, 0.0090619046241044998169f, -0.0056848512031137943268f, 0.0026935865171253681183f, 0.0087205776944756507874f, -0.015662040561437606812f, 0.0026920852251350879669f, -0.016900721937417984009f, 0.0078179007396101951599f, -0.0049434038810431957245f, -0.019137155264616012573f, 0.0035810517147183418274f, 0.0074483067728579044342f, -0.0079547408968210220337f, -0.020218232646584510803f, -0.013466202653944492340f, 0.010399835184216499329f, -0.0046452595852315425873f, -0.013942282646894454956f, -0.0025223307311534881592f, -0.0069029214791953563690f, 0.00079536897828802466393f, -0.017485683783888816833f, 0.012655183672904968262f, -0.0053365863859653472900f, 0.0076669622212648391724f, -0.017821185290813446045f, 0.0089857950806617736816f, -0.010815529152750968933f, -0.00034014612901955842972f, 0.010687652975320816040f, -0.0076827909797430038452f, -0.0071671768091619014740f, 0.020432176068425178528f, -0.0094731524586677551270f, -0.012888498604297637939f, -0.0042626005597412586212f, -0.00058697123313322663307f, 0.021237241104245185852f, -0.021099500358104705811f, -0.010448793880641460419f, -0.0044215759262442588806f, -0.019380683079361915588f, -0.017345767468214035034f, -0.0019739291165024042130f, -0.017664307728409767151f, 0.0069217504933476448059f, 0.0029063150286674499512f, 0.018948400393128395081f, -0.0029813467990607023239f, -0.016549430787563323975f, -0.00041108456207439303398f, -0.011144746094942092896f, 0.015683881938457489014f, -0.017975857481360435486f, -0.015283482149243354797f, 0.014750466682016849518f, 0.0030703872907906770706f, -0.020358460023999214172f, 0.015851631760597229004f, 0.0089962026104331016541f, -0.020683143287897109985f, -0.0084249386563897132874f, -0.020337563008069992065f, -0.017392791807651519775f, 0.0057775084860622882843f, -0.011358112096786499023f, 0.013325626961886882782f, -0.010248761624097824097f, 0.015459406189620494843f, -0.0080071315169334411621f, -0.0095190182328224182129f, -0.016571059823036193848f, 0.0026032447349280118942f, 0.00089007819769904017448f, 0.019786018878221511841f, -0.011272448115050792694f, -0.019879207015037536621f, -0.012792500667273998260f, -0.015808645635843276978f, -0.0010450205300003290176f, 0.0024542873725295066833f, -0.012334831058979034424f, -0.0045202784240245819092f, 0.0065582785755395889282f, -0.0045132637023925781250f, -0.018638748675584793091f, -0.0099857002496719360352f, -0.016524648293852806091f, 0.019526042044162750244f, -0.0011267117224633693695f, -0.0016708379844203591347f, -0.021528758108615875244f, 0.011951107531785964966f, 0.020111279562115669250f, -0.010304587893187999725f, -0.022072121500968933105f, -4.5887381929787807167e-06f, -0.014674982056021690369f, 0.015365842729806900024f, 0.0035543648991733789444f, 0.0099057871848344802856f, 0.014920363202691078186f, 0.017556767910718917847f, -0.0011991594219580292702f, 0.015538117848336696625f, 0.013064877130091190338f, -0.011506956070661544800f, 0.017184782773256301880f, 0.0096263559535145759583f, -0.0058763399720191955566f, 0.021870670840144157410f, 0.0086518153548240661621f, 0.0033857696689665317535f, 0.020496794953942298889f, -0.0078552346676588058472f, 0.020773012191057205200f, -0.015131703577935695648f, -0.010656285099685192108f, -0.010360317304730415344f, -0.015207035467028617859f, -0.021018672734498977661f, 0.0038189284969121217728f, -0.020686646923422813416f, 0.0013034334406256675720f, 0.016358831897377967834f, 0.0088797351345419883728f, 0.018338546156883239746f, -0.0029722405597567558289f, 0.0068560568615794181824f, -0.0055704540573060512543f, -0.018245425075292587280f, -0.021151937544345855713f, -0.020231345668435096741f, 0.011014128103852272034f, 0.016314350068569183350f, 0.0042188861407339572906f, -0.014149513095617294312f, 0.0031744900625199079514f, -0.021718977019190788269f, -0.0094924839213490486145f, -0.019202925264835357666f, -0.0017675992567092180252f, 0.015675526112318038940f, -0.013966350816190242767f, 0.0023932692129164934158f, 0.015486042946577072144f, -0.015569464303553104401f, -0.013621682301163673401f, -0.0022499831393361091614f, 0.015133884735405445099f, 0.0093079656362533569336f, 0.013217844069004058838f, -0.0074142338708043098450f, -0.015164362266659736633f, 0.0065261838026344776154f, -0.021827101707458496094f, -0.012668275274336338043f, -0.0082249995321035385132f, -0.0041428795084357261658f, 0.0052288062870502471924f, 0.011528711766004562378f, 0.0091649927198886871338f, -0.015857359394431114197f, -0.0065818810835480690002f, -0.012346355244517326355f, 0.019614808261394500732f, -0.0093794120475649833679f, -0.00036414875648915767670f, 0.0038876384496688842773f, -0.0028823886532336473465f, -0.013386141508817672729f, 0.021779136732220649719f, -0.0016378476284444332123f, -0.015718605369329452515f, -0.018157336860895156860f, -0.017592476680874824524f, 0.019370021298527717590f, -0.020608766004443168640f, 0.0043326593004167079926f, -0.0062991282902657985687f, -0.011544440872967243195f, -0.0069756456650793552399f, 0.020283596590161323547f, 0.0092947864904999732971f, -0.0035334152635186910629f, 0.018196702003479003906f, 0.018488289788365364075f, 0.0031817734707146883011f, 0.0041759544983506202698f, -0.017545321956276893616f, 0.019519899040460586548f, -0.0091265654191374778748f, 0.012659322470426559448f, -0.0059925229288637638092f, -0.010524513199925422668f, 0.015072693116962909698f, 0.020564785227179527283f, -0.016672525554895401001f, -0.0081890616565942764282f, -0.021615650504827499390f, 0.0041814967989921569824f, 0.018861580640077590942f, -0.0022714517544955015182f, -0.0016262492863461375237f, 0.00041927420534193515778f, -0.0058462498709559440613f, -0.018905160948634147644f, 0.021952580660581588745f, -0.011309487745165824890f, -0.0072174393571913242340f, 0.016427703201770782471f, -0.0067332144826650619507f, -0.010159600526094436646f, -0.011420234106481075287f, -0.0069565004669129848480f, -0.0094557115808129310608f, 0.011097667738795280457f, -0.013274726457893848419f, -0.018883893266320228577f, 0.0013962065568193793297f, 0.021197229623794555664f, 0.011233272962272167206f, -0.019116280600428581238f, 0.013735870830714702606f, 0.017040500417351722717f, 0.021748224273324012756f, 0.019582223147153854370f, -0.0040289144963026046753f, -0.0063121044076979160309f, 0.017406782135367393494f, -0.019792351871728897095f, 0.0088705522939562797546f, 0.016737407073378562927f, 0.017019726336002349854f, -0.012514566071331501007f, -0.0063899387605488300323f, -0.021665126085281372070f, -0.0025722275022417306900f, -0.014636633917689323425f, 0.0095469458028674125671f, -0.020598784089088439941f, -0.016396453604102134705f, -0.012644696980714797974f, -0.0097448993474245071411f, -0.0047365762293338775635f, 0.0073937769047915935516f, 0.020078204572200775146f, 0.015478825196623802185f, -0.010890914127230644226f, 0.010272990912199020386f, -0.015649680048227310181f, -0.0043299538083374500275f, -0.016264803707599639893f, 0.019832491874694824219f, -0.020852031186223030090f, 0.0034410029184073209763f, -0.018083581700921058655f, -0.0062847719527781009674f, -0.018771260976791381836f, 0.011362803168594837189f, -0.0069941272959113121033f, -0.021169718354940414429f, 0.0053551970049738883972f, 0.018489474430680274963f, 0.012023719027638435364f, -0.010535771958529949188f, 0.017137888818979263306f, -0.016725536435842514038f, -0.0016215130453929305077f, 0.0062530855648219585419f, 0.0032622581347823143005f, 0.0018667813856154680252f, -0.019158484414219856262f, 0.012388831004500389099f, 0.010985438711941242218f, -0.0016034215223044157028f, -0.020583838224411010742f, 0.0017724698409438133240f, -0.0049820891581475734711f, 0.017261065542697906494f, 0.0078648179769515991211f, -0.018161792308092117310f, -0.0098307998850941658020f, 0.012965020723640918732f, 0.018335802480578422546f, -0.010446362197399139404f, -0.016843022778630256653f, 0.019263803958892822266f, -0.019206084311008453369f, -0.0059305303730070590973f, 0.016850596293807029724f, 0.0049725300632417201996f, -0.018622921779751777649f, 0.0098585560917854309082f, -0.016521252691745758057f, -0.018967065960168838501f, -0.014730147086083889008f, 0.0047624777071177959442f, -0.015382472425699234009f, 0.0067939087748527526855f, 0.017371766269207000732f, -0.017344698309898376465f, -0.0032824729569256305695f, 0.018279986456036567688f, -0.0086161987856030464172f, 0.021902281790971755981f, -0.0049444073811173439026f, -0.011439869180321693420f, -0.016021966934204101562f, 0.017575662583112716675f, 0.00068961200304329395294f, 0.010941555723547935486f, 0.0049362308345735073090f, 0.00077446410432457923889f, -0.0092721460387110710144f, -0.0076223546639084815979f, 0.021901162341237068176f, -0.019667617976665496826f, -0.0076131802052259445190f, -0.019516978412866592407f, 0.020747011527419090271f, -0.019780516624450683594f, -0.016683194786310195923f, 0.0083166081458330154419f, 0.015317742712795734406f, 0.020559499040246009827f, -0.0071213711053133010864f, 0.00075687043135985732079f, -0.017410639673471450806f, -0.017396993935108184814f, -0.010066597722470760345f, 0.018330845981836318970f, 0.0035620355047285556793f, -0.012460007332265377045f, 0.016586367040872573853f, -0.015769248828291893005f, 0.0037344319280236959457f, 0.015144808217883110046f, 0.0054436260834336280823f, 0.017579108476638793945f, -0.0035276280250400304794f, -0.016686514019966125488f, 0.0074854120612144470215f, -0.015968097373843193054f, -0.020912526175379753113f, -0.0086928000673651695251f, -0.0063822763040661811829f, -0.0048012635670602321625f, -0.016033232212066650391f, 0.015498536638915538788f, -0.0055969273671507835388f, 0.017565429210662841797f, 0.010260312817990779877f, -0.019381199032068252563f, -0.016431784257292747498f, -0.00066137622343376278877f, -0.0049232020974159240723f, 0.0041318479925394058228f, 0.012167502194643020630f, 0.010553122498095035553f, -0.0094726542010903358459f, 0.0068660983815789222717f, 0.0011644251644611358643f, -0.017328955233097076416f, 0.017912149429321289062f, -0.018543114885687828064f, 0.0080354968085885047913f, -0.00055884610628709197044f, 0.0069011882878839969635f, -0.014125998131930828094f, 0.0013589066220447421074f, -0.019633395597338676453f, -0.0032579407561570405960f, 0.0027759126387536525726f, 0.00067822972778230905533f, -0.014868972823023796082f, -0.0043407590128481388092f, 0.014684159308671951294f, -0.00048810263979248702526f, -0.0023730124812573194504f, 0.019542194902896881104f, 0.0085807219147682189941f, 0.013258647173643112183f, -0.018181286752223968506f, -0.0099963126704096794128f, -0.00099660176783800125122f, 0.0086402064189314842224f, 0.0080758836120367050171f, -0.015410139225423336029f, 0.0055075604468584060669f, 0.0040162233635783195496f, 0.0025937985628843307495f, -0.0078083411790430545807f, 0.0031606131233274936676f, -0.019226484000682830811f, -0.015415470115840435028f, -0.00044717540731653571129f, 0.0077514084987342357635f, 0.020659193396568298340f, -0.0010121276136487722397f, 0.019340401515364646912f, -0.0031421687453985214233f, -0.0038683325983583927155f, -0.020694106817245483398f, -0.017682844772934913635f, 0.013244012370705604553f, -0.0066589387133717536926f, -0.0010196665534749627113f, -0.0064045004546642303467f, 0.017075734212994575500f, -0.012850237078964710236f, 0.0037287422455847263336f, 0.019352409988641738892f, 0.014298173598945140839f, 0.0020335775334388017654f, -0.0030926803592592477798f, 0.015472023747861385345f, 0.0060668596997857093811f, 0.012905022129416465759f, 0.0086171654984354972839f, -0.0043483930639922618866f, 0.0089070806279778480530f, 0.015567517839372158051f, 0.022079890593886375427f, -0.015816552564501762390f, 0.012252686545252799988f, 0.016629073768854141235f, 0.013653537258505821228f, -0.0079654566943645477295f, 0.014268406666815280914f, -0.016512582078576087952f, -0.019892742857336997986f, 0.020073516294360160828f, 0.00057293107965961098671f, 0.0068871029652655124664f, -0.0055858641862869262695f, 0.014336426742374897003f, -0.015586549416184425354f, -0.017946435138583183289f, -0.0051504266448318958282f, 0.018690785393118858337f, 0.0049849078059196472168f, 0.017284901812672615051f, -0.019295373931527137756f, -0.0090052327141165733337f, -0.0014126648893579840660f, -0.020122915506362915039f, 0.018297245725989341736f, 0.0042327814735472202301f, 0.015803977847099304199f, 0.0083243185654282569885f, 0.0020673607941716909409f, -0.011076584458351135254f, -0.0030642470810562372208f, 0.010902675800025463104f, -0.0068805916234850883484f, 0.019470818340778350830f, -0.019333045929670333862f, -0.020713627338409423828f, -0.018870234489440917969f, 0.020174225792288780212f, -0.014036080799996852875f, 0.00083391490625217556953f, 0.014614498242735862732f, -0.012643374502658843994f, 0.012941461056470870972f, 0.018154792487621307373f, -0.012196615338325500488f, 0.011521006934344768524f, 0.018313894048333168030f, -0.0020129519980400800705f, 0.016735501587390899658f, -0.021007008850574493408f, 0.0070480331778526306152f, -0.0036848778836429119110f, -0.021737832576036453247f, -0.0067611709237098693848f, -0.014365650713443756104f, -0.0054376623593270778656f, 0.018725600093603134155f, -0.0048787952400743961334f, 0.015571458265185356140f, -0.0024260331410914659500f, 0.020930049940943717957f, -0.020812142640352249146f, 0.013082673773169517517f, 0.010324368253350257874f, 0.010716197080910205841f, 0.014753875322639942169f, -0.018825184553861618042f, -0.015445344150066375732f, 0.0031149839051067829132f, 0.0043726433068513870239f, -0.0013137725181877613068f, -0.011438519693911075592f, 0.0034141791984438896179f, -0.0014457475626841187477f, 0.014340515248477458954f, 0.0043040309101343154907f, -0.014454503543674945831f, -0.0044240546412765979767f, 0.0094719743356108665466f, 0.019217040389776229858f, 0.0030845170840620994568f, 0.0057011907920241355896f, -0.0076355785131454467773f, -0.0068266433663666248322f, -0.0068371011875569820404f, 0.0091776838526129722595f, -0.0071992506273090839386f, 0.0081705776974558830261f, 0.015918722376227378845f, 0.015206261537969112396f, -0.010762537829577922821f, 0.0059432480484247207642f, 0.0096972836181521415710f, 0.0020936261862516403198f, 0.0023063281551003456116f, -0.00020541320554912090302f, -0.0069242003373801708221f, 0.019039176404476165771f, -0.021850021556019783020f, 0.0022614181507378816605f, 0.0035953368060290813446f, 0.0011510804761201143265f, 0.014892946928739547729f, 0.011214130558073520660f, 0.0049527711234986782074f, -0.014021352864801883698f, -0.017500940710306167603f, -0.0019645120482891798019f, 0.0047538746148347854614f, -0.0072336266748607158661f, -0.00093712197849527001381f, -0.014488223940134048462f, 0.0079446863383054733276f, -0.0065239737741649150848f, -0.0064605427905917167664f, 0.011129865422844886780f, -0.0025365289766341447830f, -0.012296820059418678284f, -0.0099072465673089027405f, -0.0046069193631410598755f, -0.018772637471556663513f, -0.0045985267497599124908f, -0.010570063255727291107f, -0.0036028178874403238297f, -0.017764884978532791138f, 0.021275127306580543518f, 0.0035122311674058437347f, -0.013081841170787811279f, -0.012220012024044990540f, -0.0070036733523011207581f, 0.00073594192508608102798f, -0.0096100401133298873901f, 0.016282619908452033997f, -0.0091278981417417526245f, 0.0076466235332190990448f, 0.020363017916679382324f, -0.014759433455765247345f, -0.019189560785889625549f, 0.0063691553659737110138f, -0.0082266665995121002197f, -0.021394185721874237061f, -0.0086125740781426429749f, 0.020889105275273323059f, 0.0052261799573898315430f, -0.015937983989715576172f, 0.019281260669231414795f, -0.0021457986440509557724f, -0.0022697579115629196167f, -0.021182749420404434204f, -0.016467381268739700317f, 0.015893068164587020874f, 0.0054192389361560344696f, -3.3483036531833931804e-05f, -0.011016179807484149933f, -0.014470882713794708252f, 0.0014314702711999416351f, 0.013316373340785503387f, 0.0076130852103233337402f, -0.0027655153535306453705f, -0.020619839429855346680f, 0.016584990546107292175f, -0.0051266294904053211212f, -0.0077839987352490425110f, -0.016212601214647293091f, -0.021214850246906280518f, 0.0078937066718935966492f, 0.0097732562571763992310f, -0.0021490415092557668686f, -0.013884604908525943756f, 0.017106065526604652405f, -0.00037296008667908608913f, 0.020911764353513717651f, -0.00089664256665855646133f, -0.016277289018034934998f, -0.012407850474119186401f, -0.0025711106136441230774f, 0.021488659083843231201f, 0.011798980645835399628f, 0.012547769583761692047f, -0.015957104042172431946f, -0.0060590780340135097504f, 0.0076199234463274478912f, -0.0055422447621822357178f, -0.0037245301064103841782f, 0.00070634164148941636086f, -0.0046445271000266075134f, -0.018870476633310317993f, -0.017060862854123115540f, -0.0073313335888087749481f, -0.013842874206602573395f, -0.017434895038604736328f, -0.011275009252130985260f, 0.021816037595272064209f, 0.0048848432488739490509f, -0.0067280512303113937378f, -0.0017225601477548480034f, 0.011375031433999538422f, -0.0026182122528553009033f, -0.010291633196175098419f, 0.021112266927957534790f, 0.015726171433925628662f, -0.0047938353382050991058f, -0.0021213113795965909958f, 0.016741678118705749512f, 0.015384943224489688873f, -0.019487470388412475586f, 0.019447498023509979248f, 0.011705122888088226318f, 0.0093835582956671714783f, -0.0074605559930205345154f, 0.0050970660522580146790f, -0.0060576638206839561462f, -0.00034530123230069875717f, -0.015793649479746818542f, -0.011273420415818691254f, 0.015507603064179420471f, 0.0066249235533177852631f, -0.019560948014259338379f, 0.0057650748640298843384f, 0.011109482496976852417f, 0.016320971772074699402f, -0.0099593000486493110657f, 0.013393295928835868835f, 0.016355281695723533630f, -0.019447794184088706970f, 0.0050957542844116687775f, 0.0036047357134521007538f, -0.018472800031304359436f, -0.0092753414064645767212f, 0.017325615510344505310f, -0.0099605405703186988831f, 0.018865790218114852905f, -0.0081978887319564819336f, 0.011410408653318881989f, -0.00028648530133068561554f, -0.0088005224242806434631f, -0.0039029798936098814011f, 0.0029282523319125175476f, -0.021094840019941329956f, -0.0041067916899919509888f, -0.020690392702817916870f, -0.018168937414884567261f, -0.0099214650690555572510f, 0.0014249796513468027115f, 0.019009819254279136658f, 0.020708285272121429443f, -0.00070154218701645731926f, -0.014322387054562568665f, 0.021346267312765121460f, 0.016827959567308425903f, 0.0048740855418145656586f, -0.0087009612470865249634f, -0.0050155855715274810791f, 0.0067079314030706882477f, 0.013215376064181327820f, -0.015416976995766162872f, -0.010487379506230354309f, 0.014742495492100715637f, -0.017750114202499389648f, -0.013961606658995151520f, -0.017355121672153472900f, -0.015258006751537322998f, 0.0055583156645298004150f, -0.0064113889820873737335f, 0.011188388802111148834f, 0.017747903242707252502f, 0.012605316005647182465f, 0.015320856124162673950f, -0.0040313829667866230011f, -0.0080140121281147003174f, 0.019741378724575042725f, 0.016411695629358291626f, -0.0081249345093965530396f, 0.0067961029708385467529f, 0.0052857361733913421631f, 0.0036508836783468723297f, -0.020307168364524841309f, 0.012690252624452114105f, 0.0043955789878964424133f, 0.013999260030686855316f, -0.00046621524961665272713f, -0.0046046352945268154144f, -0.0038988916203379631042f, 0.021040109917521476746f, -0.0031228521838784217834f, -0.0011528584873303771019f, 0.0097857341170310974121f, 0.013847504742443561554f, 0.0037579815834760665894f, -0.018298352137207984924f, -0.019122725352644920349f, -0.012060391716659069061f, -0.019815266132354736328f, 0.0090617910027503967285f, 0.0043927184306085109711f, -0.013234142214059829712f, 0.0026763617061078548431f, 0.00053886853856965899467f, -0.0048426650464534759521f, 0.0093759689480066299438f, -0.0085436189547181129456f, 0.0077293710783123970032f, -0.0060840975493192672729f, 0.012043001130223274231f, 0.0085587184876203536987f, -0.0074199023656547069550f, -0.0069852815940976142883f, -0.018180478364229202271f, 0.0095794778317213058472f, 0.013892699033021926880f, 0.0095159364864230155945f, -0.0081911478191614151001f, 0.0031927712261676788330f, -0.012365397997200489044f, 0.0010076652979478240013f, 0.021822540089488029480f, 0.011375036090612411499f, -0.013726498931646347046f, -0.015687214210629463196f, 0.010852631181478500366f, 0.0098449029028415679932f, 0.021610653027892112732f, -0.0075216921977698802948f, 0.0089629273861646652222f, -0.014717718586325645447f, -0.014814890921115875244f, 0.010929004289209842682f, 0.0049588507972657680511f, 0.0032625822350382804871f, 0.0059281778521835803986f, 0.0026409213896840810776f, -0.0014616579283028841019f, 0.0082950182259082794189f, 0.016350004822015762329f, -0.0081268390640616416931f, 0.013978123664855957031f, -0.0077097988687455654144f, -0.015254087746143341064f, -0.017596509307622909546f, 0.0090468078851699829102f, -0.0035864384844899177551f, -0.014446137472987174988f, 0.0035955791827291250229f, -0.0073123490437865257263f, -0.011668620631098747253f, 0.0028584913816303014755f, 0.016614809632301330566f, 0.0099496534094214439392f, 0.0050234012305736541748f, -0.0037757621612399816513f, 0.0087280431762337684631f, 0.0060845795087516307831f, 0.010558973066508769989f, -0.0081979837268590927124f, 0.0047850501723587512970f, -0.018793037161231040955f, -0.0054396013729274272919f, -0.014734395779669284821f, -0.0034295180812478065491f, -0.013538560830056667328f, -0.018410049378871917725f, -0.0060313427820801734924f, -0.0036624320782721042633f, -0.010202761739492416382f, 0.00087044306565076112747f, 0.018198961392045021057f, 0.010370805859565734863f, -0.010692739859223365784f, -0.018086759373545646667f, 0.0021494128741323947906f, -0.017845151945948600769f, 0.017662310972809791565f, -0.0045118569396436214447f, 0.0049745002761483192444f, -0.0099766459316015243530f, -0.011405901052057743073f, -0.014203474856913089752f, -0.013561077415943145752f, -0.0032830471172928810120f, -0.019330855458974838257f, 0.0064979903399944305420f, -0.0086437519639730453491f, -0.014835269190371036530f, 0.013090813532471656799f, -0.014217959716916084290f, 0.019264826551079750061f, 0.018401190638542175293f, -0.021105688065290451050f, -0.0011848584981635212898f, 0.0085745705291628837585f, 0.0045398529618978500366f, 0.0020642736926674842834f, 0.0062258481048047542572f, 0.012197423726320266724f, 0.0039631337858736515045f, -0.0088930055499076843262f, 0.0087247109040617942810f, -0.010189437307417392731f, 0.0045719030313193798065f, -0.010171604342758655548f, 0.0074944710358977317810f, 0.00092215719632804393768f, 0.011787943542003631592f, 0.0055679725483059883118f, 0.012780254706740379333f, -0.016406215727329254150f, 0.019537420943379402161f, -0.021859301254153251648f, -0.012477556243538856506f, -0.021933590993285179138f, 0.012661358341574668884f, 0.0082574263215065002441f, 0.020678268745541572571f, -0.0057125338353216648102f, -0.0033808224834501743317f, 0.021039120852947235107f, 0.012358920648694038391f, -0.019773475825786590576f, -0.021289257332682609558f, -0.020054884254932403564f, -0.017604582011699676514f, 0.0089286332949995994568f, 0.013556762598454952240f, -0.0034634883049875497818f, 0.0026869722642004489899f, -0.012496730312705039978f, -0.0052670179866254329681f, -0.0056895292364060878754f, 0.012693005613982677460f, -0.010757224634289741516f, -0.0029955634381622076035f, 0.0088111488148570060730f, -0.012319931760430335999f, 0.016290359199047088623f, -0.0092842765152454376221f, -0.015934647992253303528f, -0.013993040658533573151f, -0.0095420386642217636108f, 0.017968360334634780884f, -0.012123206630349159241f, -0.0025788866914808750153f, -0.0084439627826213836670f, -0.0018395386869087815285f, -0.011451390571892261505f, -0.012368593364953994751f, 0.017509033903479576111f, 0.011765771545469760895f, 0.010967608541250228882f, -0.010019651614129543304f, 0.020660661160945892334f, 0.021225303411483764648f, 0.0024969847872853279114f, -0.015306960791349411011f, -0.017242986708879470825f, 0.013161235488951206207f, -0.0090635903179645538330f, -0.011839473620057106018f, -0.0019955900497734546661f, 0.0015708288410678505898f, 0.0036553512327373027802f, -0.019609816372394561768f, -0.010709519498050212860f, 0.0040494324639439582825f, -0.010665525682270526886f, 0.013839723542332649231f, -0.013167578727006912231f, 0.0078411707654595375061f, -0.017530694603919982910f, 0.0046954224817454814911f, 0.0013566148700192570686f, -0.019755689427256584167f, -0.00094979500863701105118f, -0.013649075292050838470f, 0.014735963195562362671f, 0.010172339156270027161f, -0.0094936955720186233521f, -0.0078069502487778663635f, -0.0029665376059710979462f, -0.020668653771281242371f, -0.013429376296699047089f, 0.014487417414784431458f, 0.013657209463417530060f, 0.012033259496092796326f, -0.019250091165304183960f, -0.021078228950500488281f, -0.0056547555141150951385f, -0.021121073514223098755f, 0.021676087751984596252f, 0.0073819020763039588928f, -0.018402272835373878479f, 0.0018614867003634572029f, 0.012750664725899696350f, 0.015205468051135540009f, -0.012294467538595199585f, -0.022062217816710472107f, 0.0056482860818505287170f, 0.014038432389497756958f, 0.018280217424035072327f, 0.014708330854773521423f, 0.021247353404760360718f, -0.017525367438793182373f, 0.0074203265830874443054f, 0.0050269835628569126129f, 0.0097396094352006912231f, -0.010498124174773693085f, 0.019942548125982284546f, 0.0039062802679836750031f, -0.0053340499289333820343f, 0.019618477672338485718f, -0.0014275953872129321098f, 0.011115951463580131531f, 0.017787186428904533386f, 0.018202556297183036804f, 0.0026906337589025497437f, 0.0090050585567951202393f, 0.012587095610797405243f, -0.0061235576868057250977f, 0.0084402458742260932922f, -0.0020149617921561002731f, 0.00060438050422817468643f, -0.0031807173509150743484f, -0.0074441819451749324799f, 0.015801288187503814697f, 0.013253444805741310120f, 0.019494004547595977783f, 0.0085812294855713844299f, -0.020512664690613746643f, 0.018615340813994407654f, 0.017060127109289169312f, 0.0072161592543125152588f, 0.0080806333571672439575f, -0.019842201843857765198f, 0.017456196248531341553f, 0.018275383859872817993f, 0.011867538094520568848f, 0.020354524254798889160f, 0.0019225020660087466240f, 0.012525450438261032104f, 0.018559034913778305054f, -0.014094588346779346466f, -0.010984946042299270630f, -0.0097354603931307792664f, 0.00095584045629948377609f, -0.012919992208480834961f, -0.016470767557621002197f, 0.010437284596264362335f, 0.021364394575357437134f, -0.012261748313903808594f, 0.0058849724009633064270f, 0.014089952223002910614f, 0.0057193008251488208771f, 0.015997687354683876038f, 0.010264322161674499512f, -0.011173126287758350372f, -0.0043864673934876918793f, -0.010793338529765605927f, -0.015020670369267463684f, 0.021706959232687950134f, 0.0047311414964497089386f, 0.019492687657475471497f, 0.017860263586044311523f, 0.021111337468028068542f, -0.011235183104872703552f, 0.012565284967422485352f, 0.019789800047874450684f, 0.0070606479421257972717f, 0.0023533087223768234253f, 0.00036841348628513514996f, 0.017209671437740325928f, -0.0024536945857107639313f, 0.015894634649157524109f, -0.012496861629188060760f, 0.011287663131952285767f, -0.0083020832389593124390f, -0.00034570426214486360550f, 0.013344816863536834717f, -0.021995449438691139221f, 0.0077950172126293182373f, -0.0088166594505310058594f, 0.010225268080830574036f, 0.019591284915804862976f, 0.012137249112129211426f, -0.0071460506878793239594f, -0.0086742136627435684204f, -0.021596398204565048218f, -0.015956753864884376526f, -0.017009288072586059570f, 0.0076295039616525173187f, 0.021167561411857604980f, -0.0031733468640595674515f, 0.015578539110720157623f, 0.014241187833249568939f, 0.0062141520902514457703f},
  {0.018656492233276367188f, 0.012308436445891857147f, 0.0057481611147522926331f, -0.0012988605303689837456f, 0.0059176622889935970306f, -0.014232268556952476501f, -0.0044137206859886646271f, 0.012206736020743846893f, -0.010136585682630538940f, -0.0086803017184138298035f, -0.013602080754935741425f, 0.013758777640759944916f, 0.0017620517173781991005f, 0.011939079500734806061f, 0.020492294803261756897f, -0.0044555803760886192322f, -0.0067928573116660118103f, 0.012052178382873535156f, -0.0073517905548214912415f, -0.012726282700896263123f, -0.021861454471945762634f, -0.011956426315009593964f, 0.0060003991238772869110f, 0.0051312814466655254364f, -0.0052924663759768009186f, 0.016194801777601242065f, 0.019842812791466712952f, -0.0083401817828416824341f, -0.011489088647067546844f, 0.018523592501878738403f, -0.020785698667168617249f, -0.0015230843564495444298f, 0.0031940436456352472305f, 0.00040214150794781744480f, 0.0047187637537717819214f, -0.021320046856999397278f, 0.0029698195867240428925f, -0.010384430177509784698f, -0.017887964844703674316f, 0.0010939161293208599091f, -0.00021275464678183197975f, -0.010973243042826652527f, -0.016713703051209449768f, 0.0024563893675804138184f, 0.00032569502945989370346f, -0.020204501226544380188f, 0.016736924648284912109f, 0.010870491154491901398f, 0.019736381247639656067f, 0.021606447175145149231f, -0.0091819725930690765381f, -0.0045267399400472640991f, 0.00024414877407252788544f, -0.0067730168811976909637f, 0.00061953230760991573334f, 0.016850270330905914307f, 0.0061764069832861423492f, -0.021265517920255661011f, -0.0036591470707207918167f, -0.017781162634491920471f, 0.017794691026210784912f, 0.013447612524032592773f, -0.0085155069828033447266f, -0.0050753788091242313385f, 0.0099265286698937416077f, 0.015461362898349761963f, -0.010120553895831108093f, 0.015333091840147972107f, 0.010154819115996360779f, -0.020536884665489196777f, -0.011600029654800891876f, 0.0064512230455875396729f, 0.0031386651098728179932f, 0.020726568996906280518f, 0.015992503613233566284f, 0.016410419717431068420f, -0.0049831299111247062683f, -0.018550416454672813416f, 0.017223896458745002747f, 0.021287057548761367798f, 0.0076382416300475597382f, -0.0057490989565849304199f, -0.021793000400066375732f, -0.0033117281273007392883f, -0.0023532586637884378433f, -0.0046909283846616744995f, -0.0064215040765702724457f, 0.020557699725031852722f, 0.014041541144251823425f, -0.010454896837472915649f, 0.0035100316163152456284f, 0.011958596296608448029f, -0.0061542298644781112671f, 0.0088481986895203590393f, -0.017897574231028556824f, 0.0025944781955331563950f, -0.014609680511057376862f, -0.0028732875362038612366f, 0.014713291078805923462f, -0.015762394294142723083f, -0.013182846829295158386f, -0.019664540886878967285f, -0.0036917373072355985641f, -0.0065675587393343448639f, -0.015026473440229892731f, 0.0064947237260639667511f, -0.0092972861602902412415f, -0.019133396446704864502f, 0.0037170911673456430435f, 0.0048881098628044128418f, 9.0428693511057645082e-05f, -0.0064878752455115318298f, 0.011380686424672603607f, -0.021650480106472969055f, -0.011280005797743797302f, -0.0059481477364897727966f, 0.014087510295212268829f, -0.015358416363596916199f, -0.0049368762411177158356f, 0.0026659066788852214813f, 0.021396875381469726562f, -0.0079183736816048622131f, -0.018413389101624488831f, -0.017426999285817146301f, 0.0085102859884500503540f, -0.020874492824077606201f, -0.010487421415746212006f, 0.0060191624797880649567f, -0.011174385435879230499f, -0.0068496502935886383057f, 0.0024920166470110416412f, 0.014409678056836128235f, -0.013228578492999076843f, -0.011352919973433017731f, -0.015460188500583171844f, -0.013925213366746902466f, -0.010687462985515594482f, 0.021766655147075653076f, -0.014537055976688861847f, -0.017719680443406105042f, -0.00065792282111942768097f, -0.010180676355957984924f, 0.0091117871925234794617f, 0.0082622785121202468872f, -0.018651043996214866638f, 0.0081898281350731849670f, 0.0093057630583643913269f, 0.0083953281864523887634f, -0.016451733186841011047f, 0.0082669146358966827393f, 0.016054548323154449463f, 0.0032091715838760137558f, -0.021498057991266250610f, -0.00066600448917597532272f, -0.011595556512475013733f, 0.015423217788338661194f, 0.015399253927171230316f, 0.014994189143180847168f, 0.010255424305796623230f, -0.0033767421264201402664f, -0.018990121781826019287f, 0.00090889411512762308121f, -0.017517188563942909241f, -0.0035600599367171525955f, 0.021228509023785591125f, -0.0053747082129120826721f, -0.011492088437080383301f, 0.0067290761508047580719f, 0.019157301634550094604f, -0.015242899768054485321f, 0.013149890117347240448f, -0.0031791629735380411148f, -0.0080629345029592514038f, 0.010590617544949054718f, 0.00048403546679764986038f, 0.0075878258794546127319f, -0.012530292384326457977f, -0.00043037990690208971500f, 0.0068866577930748462677f, 0.0027553976979106664658f, -0.016583433374762535095f, -0.0066480091772973537445f, -0.010795617476105690002f, -0.020578783005475997925f, -0.020895106717944145203f, 0.0028201905079185962677f, -0.014367396943271160126f, 0.016161730512976646423f, -0.016171911731362342834f, 0.0064728972502052783966f, -0.021677112206816673279f, -0.020555276423692703247f, -0.0072130798362195491791f, 0.0090490123257040977478f, -0.012222288176417350769f, -0.00018613891734275966883f, -0.014039942063391208649f, 0.0052524218335747718811f, -0.018059387803077697754f, 0.0059622433036565780640f, 0.0028955964371562004089f, -0.010597911663353443146f, 0.0084682153537869453430f, 0.019633747637271881104f, 0.0045597148127853870392f, -0.0060938652604818344116f, 3.0993738619145005941e-05f, -0.021307168528437614441f, 0.021367350593209266663f, -0.013219453394412994385f, 0.0018130046082660555840f, 0.020125918090343475342f, 0.0027729228604584932327f, 0.010434824973344802856f, -0.014731314033269882202f, 0.015230933204293251038f, 0.0073058898560702800751f, -0.012179535813629627228f, 0.012527176178991794586f, 0.0086158085614442825317f, -0.0085295289754867553711f, 0.016035767272114753723f, -0.021577131003141403198f, -0.0095811374485492706299f, 0.018410164862871170044f, -0.010047202929854393005f, -0.018575595691800117493f, -0.0092552136629819869995f, 0.0013141623931005597115f, 0.020217940211296081543f, 0.014699432067573070526f, 0.0022714096121490001678f, -0.018798276782035827637f, -0.018302679061889648438f, -0.015149431303143501282f, 0.0013870816910639405251f, 0.018251439556479454041f, -0.022021150216460227966f, -0.00061237526824697852135f, 0.018435770645737648010f, -0.015118558891117572784f, 0.011260502040386199951f, -0.0066077853552997112274f, -0.012710783630609512329f, 0.014720555394887924194f, -0.011830166913568973541f, 0.0056856861338019371033f, 0.0077148959971964359283f, 0.0084349457174539566040f, 0.0021016814280301332474f, -0.0054696835577487945557f, -0.0062815239652991294861f, -0.014148225076496601105f, 0.0087640238925814628601f, 0.019359545782208442688f, 0.0079833241179585456848f, 0.0041296747513115406036f, -0.0089550828561186790466f, -0.021340925246477127075f, -0.016240023076534271240f, -0.012538502924144268036f, -0.010960095562040805817f, 0.0018889453494921326637f, 0.016795393079519271851f, -0.0089755877852439880371f, 0.015615064650774002075f, 0.0014675452839583158493f, 0.020815804600715637207f, -0.018035225570201873779f, -0.020667539909482002258f, -0.0092820553109049797058f, -0.012369628064334392548f, 0.017288463190197944641f, -0.012121718376874923706f, -0.011145446449518203735f, -0.016781926155090332031f, -0.016763960942625999451f, -0.0042737429030239582062f, 0.0049682836979627609253f, 0.0052120951004326343536f, 0.018084906041622161865f, -0.0057237921282649040222f, 0.0020918429363518953323f, -0.011965416371822357178f, 0.0045986585319042205811f, 0.018630392849445343018f, 0.0049752560444176197052f, 0.0010677535319700837135f, -0.011836808174848556519f, 0.0070661958307027816772f, -0.021452879533171653748f, -0.010897038504481315613f, -0.016050836071372032166f, 0.0069069778546690940857f, 0.0015539095038548111916f, 0.021865349262952804565f, 0.013948699459433555603f, 0.0026729267556220293045f, -0.020512552931904792786f, 0.00071431003743782639503f, -0.0054622208699584007263f, 0.0054600187577307224274f, -0.012161104008555412292f, -0.0084073692560195922852f, -0.0062998421490192413330f, 0.018194688484072685242f, -0.0061498992145061492920f, -0.00082241144264116883278f, 0.016365451738238334656f, 0.00017166147881653159857f, 0.0044353022240102291107f, -0.0086282184347510337830f, 0.021328832954168319702f, 0.013652822934091091156f, 0.017856989055871963501f, -0.0042386059649288654327f, 0.010192427784204483032f, 0.017183734104037284851f, -0.014398587867617607117f, -0.018109355121850967407f, -0.0037902239710092544556f, 0.017455859109759330750f, 0.018793379887938499451f, 0.0086168153211474418640f, -0.011984090320765972137f, 0.021972671151161193848f, -0.0068544233217835426331f, 0.020442169159650802612f, -0.0038804314099252223969f, 0.00056621391559019684792f, 0.0013763948809355497360f, -0.0071654329076409339905f, -0.0066139204427599906921f, -0.020821178331971168518f, -0.0070833363570272922516f, 0.020099299028515815735f, 0.0013336711563169956207f, 0.012603417038917541504f, 0.020853709429502487183f, 0.00055598275503143668175f, -0.0092992624267935752869f, -0.0089153302833437919617f, -0.021791419014334678650f, -0.018116636201739311218f, -0.018494270741939544678f, 0.0010585787240415811539f, -0.0047631366178393363953f, -0.0031410807278007268906f, -0.0076101059094071388245f, 0.015286598354578018188f, -0.018215948715806007385f, -0.0064008049666881561279f, -0.020693285390734672546f, -0.015192308463156223297f, -0.0075545483268797397614f, 0.019997203722596168518f, -0.0044804788194596767426f, 0.0016230909386649727821f, 0.017690345644950866699f, 0.012878931127488613129f, 0.0066226948983967304230f, 0.017541127279400825500f, -0.0046610673889517784119f, -0.00074708712054416537285f, -0.0077345762401819229126f, -0.018932355567812919617f, 0.013590643182396888733f, -0.013282313011586666107f, -0.012759713456034660339f, 0.0065747424960136413574f, -0.017213257029652595520f, -0.00054528535110875964165f, -0.0018544771010056138039f, 0.010423202998936176300f, 0.0079892324283719062805f, 0.0011165884789079427719f, 0.010942528024315834045f, -0.020204253494739532471f, -0.011983544565737247467f, -0.015605665743350982666f, 0.0075573460198938846588f, 0.010910177603363990784f, 0.0090993698686361312866f, 0.020977698266506195068f, -0.0039324271492660045624f, -0.015978114679455757141f, 0.00083863799227401614189f, -0.014932349324226379395f, 0.016553824767470359802f, 0.019410168752074241638f, 0.011812175624072551727f, -0.0078890575096011161804f, 0.0044934651814401149750f, 0.00094634690321981906891f, -0.017656797543168067932f, 0.0059932819567620754242f, -0.0074901189655065536499f, -0.0088755860924720764160f, -0.0082852244377136230469f, 0.0091670155525207519531f, -0.0083850705996155738831f, -0.0097044249996542930603f, 0.011597922071814537048f, -0.017866648733615875244f, -0.012765202671289443970f, -0.012084565125405788422f, -0.0093022622168064117432f, 0.018596796318888664246f, -0.014650212600827217102f, -0.018272135406732559204f, 0.021022412925958633423f, -0.020963996648788452148f, -0.0050253607332706451416f, -0.012259745970368385315f, 0.017385408282279968262f, -0.0061554340645670890808f, 0.0031484591308981180191f, 0.0037050056271255016327f, -0.012756235897541046143f, -0.0034659302327781915665f, 0.013095351867377758026f, 0.018543042242527008057f, 0.010816769674420356750f, -0.0083469357341527938843f, -0.0079284915700554847717f, -0.0057292687706649303436f, 0.0058831018395721912384f, 0.021616734564304351807f, -0.0059927813708782196045f, -0.016356665641069412231f, -0.0031001826282590627670f, 0.0098616303876042366028f, 0.019410038366913795471f, 0.010238172486424446106f, -0.020078150555491447449f, 0.016131104901432991028f, 0.0047993222251534461975f, -0.019214477390050888062f, 0.0091690728440880775452f, -0.010334356687963008881f, -0.011828227899968624115f, 0.018727485090494155884f, 0.0013998574577271938324f, 0.010788065381348133087f, 0.0094890808686614036560f, 0.0053159715607762336731f, -0.00088968832278624176979f, 0.0036289806012064218521f, -0.0098304674029350280762f, 0.0017822769004851579666f, -0.0084184166043996810913f, 0.0042700157500803470612f, 0.0089224688708782196045f, 0.011200134642422199249f, 0.0023676308337599039078f, -0.017730114981532096863f, -0.0033078084234148263931f, 0.0044098696671426296234f, 0.011958844028413295746f, 0.0068613854236900806427f, -0.0043101473711431026459f, -0.010349016636610031128f, -0.0075869988650083541870f, -0.00010923145600827410817f, 0.013995129615068435669f, 0.015892602503299713135f, -0.0021045105531811714172f, -0.014219397678971290588f, 0.020568497478961944580f, -0.0035918517969548702240f, -0.0049879080615937709808f, -0.012692475691437721252f, -0.014362658374011516571f, -0.0083427838981151580811f, 0.012971643358469009399f, -0.0011892970651388168335f, -0.014726172201335430145f, 0.0070264986716210842133f, 0.013692660257220268250f, 0.021220548078417778015f, -0.015403058379888534546f, 0.010429311543703079224f, 0.011857349425554275513f, -0.020974848419427871704f, 0.0018397836247459053993f, 0.00096413551364094018936f, -0.012072421610355377197f, -0.019989507272839546204f, 0.0028961363714188337326f, -0.012023837305605411530f, -0.010576406493782997131f, -0.014195361174643039703f, -0.0033309706486761569977f, 0.017290223389863967896f, -0.0020522142294794321060f, 0.0012292285682633519173f, -0.012973900884389877319f, -0.019186548888683319092f, -0.020722094923257827759f, 0.0046356869861483573914f, 0.012417412362992763519f, -0.021929338574409484863f, -0.018129050731658935547f, -0.010781400837004184723f, -0.021283654496073722839f, -0.017524775117635726929f, -0.0036868718452751636505f, 0.00011904640268767252564f, 5.4453728807857260108e-05f, 0.0072975237853825092316f, -0.020000243559479713440f, 0.021313287317752838135f, -0.010085864923894405365f, -0.0097544398158788681030f, -0.018500048667192459106f, 0.016910785809159278870f, -0.0098013523966073989868f, 0.017180556431412696838f, 0.0080242250114679336548f, 0.010039661079645156860f, 0.016707561910152435303f, -0.017993761226534843445f, -0.0090549103915691375732f, 0.010691485367715358734f, 0.0059202173724770545959f, -0.011104024015367031097f, 0.012967057526111602783f, -0.010396513156592845917f, -0.015261152759194374084f, 0.0083359060809016227722f, -0.00015647543477825820446f, 0.0058804624713957309723f, 0.011956135742366313934f, 0.014720147475600242615f, 0.019463766366243362427f, -0.00038075988413766026497f, 0.0064301127567887306213f, 0.00037723535206168889999f, -0.0041811014525592327118f, -0.0029275752604007720947f, 0.021433372050523757935f, 0.015956915915012359619f, -0.021672049537301063538f, -0.015692899003624916077f, 0.014618850313127040863f, -0.018169853836297988892f, 0.016144210472702980042f, 0.0021930006332695484161f, -0.013718317262828350067f, -0.0041864411905407905579f, -0.0029709313530474901199f, 0.014848614111542701721f, 0.014638279564678668976f, 0.018171196803450584412f, 0.0035029088612645864487f, -0.0030429048929363489151f, -0.016358872875571250916f, 0.015487702563405036926f, -0.019765777513384819031f, -0.017058961093425750732f, 0.014867898076772689819f, 0.020629726350307464600f, -0.0057420101948082447052f, 0.020558955147862434387f, -0.0041444050148129463196f, 0.0061204782687127590179f, -0.0064821746200323104858f, -0.012306952849030494690f, -0.017926285043358802795f, 0.018703205510973930359f, 0.011132070794701576233f, 0.018319398164749145508f, 0.011449510231614112854f, -0.015969159081578254700f, -0.00015742900723125785589f, -0.013885421678423881531f, -0.0012441538274288177490f, -0.00039339077193289995193f, -0.010337428189814090729f, 0.0051466147415339946747f, -0.013394013047218322754f, -0.017019024118781089783f, -0.017149647697806358337f, -0.018825815990567207336f, 0.021386232227087020874f, -0.020506000146269798279f, 0.00049295480130240321159f, 0.021459657698869705200f, -0.0052536232396960258484f, -0.016589455306529998779f, 0.0029200864955782890320f, -0.0073514562100172042847f, 0.0096735106781125068665f, 0.016453351825475692749f, -0.0070330393500626087189f, 0.015990840271115303040f, 0.013867142610251903534f, 0.0053334096446633338928f, -0.0092459069564938545227f, -0.0021519996225833892822f, 0.014941342175006866455f, 0.014233079738914966583f, -0.0019003038760274648666f, -0.00081243581371381878853f, 0.0036706584505736827850f, 0.017571378499269485474f, -0.015513224527239799500f, -0.012687684036791324615f, 0.0066094924695789813995f, -0.018921639770269393921f, 0.019927784800529479980f, -0.016801320016384124756f, 0.010377249680459499359f, 0.00026178461848758161068f, -0.00078929984010756015778f, -0.0086909588426351547241f, 0.0045554712414741516113f, -0.020223474130034446716f, -0.010387253947556018829f, 0.010090542957186698914f, -0.021121637895703315735f, 0.011086296290159225464f, 0.011574640870094299316f, 0.015397971495985984802f, -0.0055721532553434371948f, -0.0050341249443590641022f, 0.018654657527804374695f, 0.0022038219030946493149f, -0.0074147344566881656647f, 0.016995564103126525879f, 0.0059901340864598751068f, 0.014604820869863033295f, -0.010069974698126316071f, 0.011909000575542449951f, -0.0014183652820065617561f, 0.018762085586786270142f, 0.0096809575334191322327f, -0.019439097493886947632f, -0.0078237224370241165161f, 0.00016075334860943257809f, -0.0032115529756993055344f, -0.010005679912865161896f, 0.021095961332321166992f, -0.016898699104785919189f, -0.00014830421423539519310f, 0.0099827228114008903503f, 0.010024237446486949921f, -0.015267197974026203156f, 0.020537000149488449097f, 0.017900384962558746338f, -0.010784799233078956604f, -0.0026385032106190919876f, 0.017537435516715049744f, -0.017466736957430839539f, -0.013369907625019550323f, 0.018541567027568817139f, -0.013323635794222354889f, 0.020206823945045471191f, 0.0088872844353318214417f, -0.00040396436816081404686f, 0.013701935298740863800f, 0.016398876905441284180f, 0.014727017842233181000f, 0.013541202992200851440f, 0.019870581105351448059f, -0.011087650433182716370f, -0.016412911936640739441f, -0.012803448364138603210f, 0.0076939570717513561249f, -0.010530482046306133270f, -0.010957322083413600922f, -0.0032501542009413242340f, 0.00033033383078873157501f, 0.0022299950942397117615f, -0.020068224519491195679f, 0.0094313006848096847534f, 0.020276840776205062866f, 0.018597116693854331970f, 0.022054161876440048218f, -0.018514493480324745178f, -0.0020188498310744762421f, 0.016439978033304214478f, 0.012247410602867603302f, 0.015229233540594577789f, -0.0036434684880077838898f, 0.0018725527916103601456f, 0.015340240672230720520f, 0.0035015626344829797745f, -0.00027816393412649631500f, 0.014758371748030185699f, -0.011469732969999313354f, 0.011603145860135555267f, -0.015965389087796211243f, 0.019435379654169082642f, 0.0083495853468775749207f, 0.0051325219683349132538f, -0.0025402326136827468872f, -0.017230231314897537231f, 0.011445339769124984741f, -0.0016847201623022556305f, 0.018948290497064590454f, -0.0052351444028317928314f, -0.00088797084754332900047f, 0.0031052769627422094345f, -0.019889086484909057617f, 0.0019156216876581311226f, -0.011947491206228733063f, -0.019694602116942405701f, -0.010199273936450481415f, 0.0048252264969050884247f, 0.0038527513388544321060f, -0.0080437362194061279297f, 0.016235422343015670776f, 0.017016734927892684937f, 0.0051998565904796123505f, 0.013257712125778198242f, 0.0042114132083952426910f, 0.00037989325937815010548f, 0.0073290336877107620239f, -0.0010104838293045759201f, -0.018149789422750473022f, 0.013603767380118370056f, -0.018416354432702064514f, 0.0078268274664878845215f, 0.0070546264760196208954f, 0.011813316494226455688f, 0.010051346383988857269f, -0.010794442147016525269f, -0.0071708331815898418427f, 0.018424035981297492981f, 0.010690555907785892487f, -0.0068939072079956531525f, -0.012560361064970493317f, 0.00019546654948499053717f, 0.018486179411411285400f, -0.016815511509776115417f, 0.015234262682497501373f, 0.0037583371158689260483f, -0.0076514966785907745361f, 0.0077219610102474689484f, -0.0026267205830663442612f, -0.0028192605823278427124f, -0.0014992582146078348160f, -0.019880481064319610596f, 0.0064861471764743328094f, 0.0093989679589867591858f, 0.010135392658412456512f, -0.0011159878922626376152f, -0.010227019898593425751f, 0.011438335292041301727f, -0.0053007300011813640594f, -0.020168904215097427368f, 0.016843512654304504395f, -0.010638056322932243347f, 0.019775703549385070801f, -0.019327098503708839417f, -0.014151168055832386017f, 0.013711655512452125549f, -0.0051419287919998168945f, -0.018686700612306594849f, 0.011919176205992698669f, -0.014378352090716362000f, 0.0080439941957592964172f, -0.0046630850993096828461f, -0.016721040010452270508f, -0.0075098806992173194885f, -0.0057735755108296871185f, 0.018341541290283203125f, -0.0030707535333931446075f, 0.016319943591952323914f, -0.0078467577695846557617f, -0.018021736294031143188f, 0.0050235856324434280396f, 0.015882542356848716736f, -0.012220128439366817474f, -0.0083678197115659713745f, 0.0030100673902779817581f, -0.013612454757094383240f, 0.020731156691908836365f, 0.0027043025474995374680f, -0.0094956113025546073914f, 0.0042453780770301818848f, 0.011028378270566463470f, -0.010868080891668796539f, 0.016553087159991264343f, 0.016330137848854064941f, 0.021915186196565628052f, -0.011080780066549777985f, -0.016902016475796699524f, 0.018515927717089653015f, 0.017430083826184272766f, 0.017474178224802017212f, 0.0044875619933009147644f, 0.011554800905287265778f, -0.017831142991781234741f, 0.0088391788303852081299f, 0.016645589843392372131f, 0.0053173913620412349701f, 0.015477308072149753571f, 0.0060746013186872005463f, 0.012523077428340911865f, 0.0092389574274420738220f, 0.019389607012271881104f, -0.013037811033427715302f, 0.0027982108294963836670f, 0.017386958003044128418f, -0.013110970146954059601f, 0.015579445287585258484f, -0.019544072449207305908f, -0.0011682658223435282707f, 0.019326768815517425537f, -0.00044283166062086820602f, 0.0037281361874192953110f, 0.0065653990022838115692f, 0.011917189694941043854f, 0.0085435798391699790955f, -0.00052806577878072857857f, 0.020182410255074501038f, 0.0094306552782654762268f, 0.010331868194043636322f, 0.0030765486881136894226f, -0.0090700648725032806396f, -0.017232295125722885132f, -0.021842326968908309937f, 0.013589395210146903992f, 0.012031739577651023865f, -0.010801315307617187500f, 0.0020060925744473934174f, -0.021204205229878425598f, 0.014896084554493427277f, -0.0035564801655709743500f, -0.0083822151646018028259f, 0.020354306325316429138f, 0.012786800041794776917f, -0.019243625923991203308f, -0.021668082103133201599f, -0.020618630573153495789f, -0.011670934036374092102f, -0.014250297099351882935f, -0.0028977959882467985153f, 0.0071054999716579914093f, 0.0017870895098894834518f, 0.010096785612404346466f, -0.0032073250040411949158f, -0.0092397453263401985168f, -0.0025834122207015752792f, 0.019346920773386955261f, -0.013582727871835231781f, -0.020766537636518478394f, 0.0052727893926203250885f, -0.019676508381962776184f, 0.0072007863782346248627f, -0.018275102600455284119f, -0.019294900819659233093f, 0.0074973655864596366882f, 0.0018876809626817703247f, 0.012900169938802719116f, -0.0080365473404526710510f, -0.013717721216380596161f, 0.020824573934078216553f, -0.016701759770512580872f, 0.018964929506182670593f, -0.0047579472884535789490f, -0.0062385397031903266907f, -0.010054096579551696777f, 0.012159233912825584412f, -0.011354434303939342499f, 0.0052602714858949184418f, -0.016910266131162643433f, 0.010899193584918975830f, -0.016933586448431015015f, 0.0095243081450462341309f, -0.0030847382731735706329f, 0.015164970420300960541f, 0.016795305535197257996f, 0.017548304051160812378f, 0.021132139489054679871f, -0.015055602416396141052f, 0.0033421318512409925461f, -0.018513390794396400452f, -0.017459012567996978760f, -0.010226121172308921814f, -0.0072459755465388298035f, -0.0049353563226759433746f, 0.014334131963551044464f, 0.019003158435225486755f, -0.013653147034347057343f, 0.014276549220085144043f, 0.0089970193803310394287f, -0.0061576017178595066071f, -0.0032897142227739095688f, -0.0047922939993441104889f, 0.015281878411769866943f, 0.0030483945738524198532f, -0.017144773155450820923f, 0.0092977369204163551331f, 0.0093700978904962539673f, 0.0012648005504161119461f, 0.0035967698786407709122f, 0.019517729058861732483f, 0.0058944551274180412292f, 0.0069735725410282611847f, 0.019856570288538932800f, 0.020436011254787445068f, -0.014094330370426177979f, -0.00015231080760713666677f, 0.011434184387326240540f, 0.0060876458883285522461f, 0.020419472828507423401f, 0.012676609680056571960f, -0.0029683550819754600525f, 0.017562307417392730713f, 0.0025178631767630577087f, 0.015277520753443241119f, -0.010082956403493881226f, -0.0021781227551400661469f, 0.0013955163303762674332f, -0.0068825669586658477783f, 0.0084054563194513320923f, -0.00039038254180923104286f, -0.013781115412712097168f, 0.018426420167088508606f, -0.012430852279067039490f, -0.0011029277229681611061f, 0.0084804967045783996582f, 0.0021613957360386848450f, 0.0051569752395153045654f, 0.014531074091792106628f, 0.013691388070583343506f, -0.014526988379657268524f, -0.0059827528893947601318f, -0.020925581455230712891f, -0.020777851343154907227f, -0.014254772104322910309f, 0.017106983810663223267f, 0.021026127040386199951f, 0.012380433268845081329f, 0.018364675343036651611f, -0.011418149806559085846f, 0.017914554104208946228f, 0.0076985140331089496613f, 0.0011253656120970845222f, 0.0064849881455302238464f, 0.019198516383767127991f, 0.0092273671180009841919f, -0.0032855286262929439545f, -0.0080972388386726379395f, 0.0018529650988057255745f, -0.0030297788325697183609f, 0.013497736304998397827f, -0.0098950555548071861267f, -0.019388832151889801025f, 0.0047118780203163623810f, 0.0082885492593050003052f, -0.020427078008651733398f, 0.021246705204248428345f, 0.0040642283856868743896f, 0.0036254192236810922623f, -0.010075122117996215820f, 0.010748025961220264435f, 0.0025051033589988946915f, -0.018540969118475914001f, -0.010863263159990310669f, 0.017996309325098991394f, -0.0084432810544967651367f, -0.015540335327386856079f, 0.012548452243208885193f, 0.0053788968361914157867f, 0.012860333546996116638f, 0.0028532389551401138306f, -0.021220056340098381042f, -0.015110501088201999664f, -0.020887412130832672119f, -0.017487583681941032410f, -0.0015263876412063837051f, -0.010024614632129669189f, -0.016232652589678764343f, -0.0024647556710988283157f, -0.0021533826366066932678f, -0.016710648313164710999f, 0.00042546188342384994030f, -0.0076319826766848564148f, -0.012033472768962383270f, -0.0064968075603246688843f, -0.020595766603946685791f, 0.0073123383335769176483f, -0.018787078559398651123f, 0.021700816228985786438f, 0.017723591998219490051f, -0.012564286589622497559f, -0.00086647068383172154427f, 0.0050945500843226909637f, 0.010579561814665794373f, 0.0024487846530973911285f, 0.0065449681133031845093f, 0.0051137348636984825134f, 0.011942841112613677979f, -0.0065867700614035129547f, 0.022056575864553451538f, 0.019950499758124351501f, -0.0028386218473315238953f, -0.021907802671194076538f, 0.00078435282921418547630f, -0.010372404940426349640f, -0.020000675693154335022f, 0.0079108765348792076111f, -0.015307613648474216461f, 0.0061380402185022830963f, 0.017412314191460609436f, 0.018949761986732482910f, -0.0018064113100990653038f, -0.018012667074799537659f, 0.021812912076711654663f, 0.021810488775372505188f, 0.010860920883715152740f, -0.015140936709940433502f, 0.0055447998456656932831f, -0.018933141604065895081f, -0.021788824349641799927f, 0.013910708948969841003f, -0.020107584074139595032f, 0.0040679560042917728424f, -0.0055257338099181652069f, -0.020636674016714096069f, -0.014847572892904281616f, 0.011985462158918380737f, 0.019550863653421401978f, 0.018778340891003608704f, -0.00021535459381993860006f, -0.020050032064318656921f, 0.017921177670359611511f, -0.00019958903430961072445f, -0.015255156904458999634f, -0.0020400339271873235703f, 0.012831465341150760651f, 0.016319403424859046936f, -0.016401290893554687500f, -0.021784627810120582581f, -0.0066361161880195140839f, 0.010093914344906806946f, 0.011730955913662910461f, -0.0010660149855539202690f, 0.0072778859175741672516f, 0.022051827982068061829f, -0.0058371173217892646790f, -0.021823603659868240356f, -0.014313198626041412354f, -0.0037851161323487758636f, -0.010820781812071800232f, -0.0065154652111232280731f, 0.015531173907220363617f, -0.0078930724412202835083f, -0.0081144012510776519775f, -0.012867464683949947357f, 0.019678400829434394836f, 0.015849310904741287231f, 0.0087502021342515945435f, 0.016178868710994720459f, 0.018263917416334152222f, -0.015867104753851890564f, 0.00035516358911991119385f, -0.012678325176239013672f, 0.012013758532702922821f, 0.011930068023502826691f, 0.017852269113063812256f, 0.0093921273946762084961f, -0.010316729545593261719f, -0.0085755167528986930847f, -0.014660241082310676575f, -0.0025314819067716598511f, 0.0063001108355820178986f, 0.015792533755302429199f, 0.019137315452098846436f, -0.0019802511669695377350f, -0.012875282205641269684f, -0.0039232629351317882538f, 0.015961738303303718567f, 0.0041459091007709503174f, -0.0025565435644239187241f, -0.00039415995706804096699f, 0.0020959654357284307480f, 0.016346303746104240417f, 0.0050838240422308444977f, -0.0039213006384670734406f, 0.0059091406874358654022f, 0.0086805177852511405945f, -0.021314753219485282898f, 0.0099650975316762924194f, -0.020328249782323837280f, 0.0025197309441864490509f, 0.010890339501202106476f, 0.0072426800616085529327f, -0.0065672136843204498291f, 0.0048151537775993347168f, -0.0069555602967739105225f, -0.016428127884864807129f, -0.021668549627065658569f, 0.0052003283053636550903f, -0.0057251672260463237762f, 0.0025107613764703273773f, 0.0076176105067133903503f, -0.010981927625834941864f, 0.021276295185089111328f, -0.0037486250512301921844f, -0.021604372188448905945f, -0.020256737247109413147f, 0.011575900018215179443f, -0.011988759972155094147f, 0.018924256786704063416f, 0.017372790724039077759f, 0.012678891420364379883f, -0.0073880366981029510498f, -0.0030814376659691333771f, 0.016562512144446372986f, 0.0091804312542080879211f, 0.019299061968922615051f, 0.014104903675615787506f, -0.0024416116066277027130f, -0.0026667707134038209915f, -0.013577897101640701294f, -0.019135270267724990845f, -0.014809040352702140808f, -0.00044905094546265900135f, 0.011799761094152927399f, 0.00047819287283346056938f, -0.0090586375445127487183f, -0.016000341624021530151f, 0.013300172984600067139f, 0.019520523026585578918f, -0.010305586270987987518f, 0.0061913244426250457764f, 0.018621211871504783630f, 0.0019973681773990392685f, 0.019505254924297332764f, -0.0082737738266587257385f, 0.013257243670523166656f, 0.0016318074194714426994f, 0.0064683612436056137085f, -0.0086745060980319976807f, -0.011945628561079502106f, -0.0048234825953841209412f, -0.0078859226778149604797f, 0.0032633277587592601776f, -0.0037738261744379997253f, -0.0023516835644841194153f, -0.0019111619330942630768f, -0.0094258869066834449768f, -0.012487204745411872864f, -0.0013137883506715297699f, 0.0029916858766227960587f, -0.018823379650712013245f, -0.016936657950282096863f, -0.013588367961347103119f, 2.5978262783610261977e-05f, 0.016809448599815368652f, -0.014083277434110641479f, 0.016301948577165603638f, 0.019513513892889022827f, 0.0058980826288461685181f, 0.020271882414817810059f, -0.0057957526296377182007f, -0.010965568944811820984f, -0.0095975724980235099792f, -0.0037780117709189653397f, 0.013800242915749549866f, -0.0081064430996775627136f, -0.012440411373972892761f, -0.019250024110078811646f, -0.017218330875039100647f, -0.0010837008012458682060f, -0.019401172176003456116f, 0.014346429146826267242f, 0.0060646496713161468506f, 0.0078761866316199302673f, -0.014991112053394317627f, 0.016811629757285118103f, 0.0039678858593106269836f, -0.012789178639650344849f, -0.0042057600803673267365f, -0.010423273779451847076f, 0.010341835208237171173f, -0.016167875379323959351f, 0.019605860114097595215f, 0.0034930070396512746811f, 0.019064117223024368286f, -0.011993125081062316895f, -0.019390486180782318115f, 0.0087739992886781692505f, -0.020305437967181205750f, 0.0082195466384291648865f, 0.00029463807004503905773f, 0.00080572394654154777527f, -0.0071170721203088760376f, 0.0011074268259108066559f, 0.011978819034993648529f, -0.014658787287771701813f, -0.0071605388075113296509f, 0.016044251620769500732f, -0.016169300302863121033f, -0.0035191406495869159698f, -0.014359597116708755493f, 0.021688515320420265198f, -0.0058389925397932529449f, -0.020400291308760643005f, -0.018002167344093322754f, -0.015804365277290344238f, 0.0087551511824131011963f, 0.018353475257754325867f, -0.014946570619940757751f, -0.018183575943112373352f, -0.0098863020539283752441f, -0.022033905610442161560f, 0.00086983456276357173920f, -0.013184134848415851593f, 0.0030884339939802885056f, -0.015557081438601016998f, -0.016891449689865112305f, 0.00030638123280368745327f, -0.021445745602250099182f, -0.020380930975079536438f, 0.0089440587908029556274f, -0.016632542014122009277f, 0.013811290264129638672f, -0.019388400018215179443f, -0.0072911493480205535889f, -0.0093512581661343574524f, -0.0064531066454946994781f, 0.012751294299960136414f, -0.0093148276209831237793f, 0.017409006133675575256f, -0.0046231537126004695892f, -0.0040009738877415657043f, -0.010815060697495937347f, -0.015759805217385292053f, -0.014383810572326183319f, -0.0099496357142925262451f, -0.020682390779256820679f, 0.016439212486147880554f, 0.0082035912200808525085f, 0.0090422369539737701416f, -0.0092385075986385345459f, -0.0039392709732055664062f, 0.021295845508575439453f, -0.015709580853581428528f, 0.016348438337445259094f, 0.011358377523720264435f, 0.017015693709254264832f, -0.019649650901556015015f, -0.014054024592041969299f, 0.021039098501205444336f, 0.015574875287711620331f, 0.010196252726018428802f, 0.020463274791836738586f, 0.0064207483083009719849f, 0.0081895748153328895569f, 0.011088627390563488007f, 0.0058320858515799045563f, -0.0043150205165147781372f, 0.0099923117086291313171f, -0.0037398319691419601440f, -0.0014865219127386808395f, 0.0025055219884961843491f, 0.019126307219266891479f, -0.017403531819581985474f, 0.0026170848868787288666f, -0.010151924565434455872f, 0.0094203501939773559570f, -0.013510833494365215302f, -0.0035451424773782491684f, 0.0073766573332250118256f, 0.019932620227336883545f, 0.0014606280019506812096f, 0.0079432874917984008789f, -0.014040103182196617126f, 0.0083704907447099685669f, 0.019622500985860824585f, -0.012933234684169292450f, -0.0038192288484424352646f, 0.015749350190162658691f, -0.016505300998687744141f, -0.0095159122720360755920f, -0.021728128194808959961f, 0.0092311343178153038025f, 0.011310082860291004181f, 0.011363390833139419556f, -0.011106170713901519775f, 0.0048035080544650554657f, -0.018479403108358383179f, 0.0018082867609336972237f, 0.00011838522914331406355f, -0.016336545348167419434f, -0.013961609452962875366f, -0.011648137122392654419f, 0.00060374569147825241089f, -0.011537048965692520142f, -0.017902830615639686584f, -0.021974610164761543274f, -0.020934071391820907593f, -0.0058696465566754341125f, -0.018724255263805389404f, -0.0082087386399507522583f, -0.014490001834928989410f, 4.0065846405923366547e-05f, -0.013346081599593162537f, -0.014554006978869438171f, -0.018306398764252662659f, 0.0079668136313557624817f, -0.0070963623002171516418f, -0.0074340244755148887634f, -0.016823200508952140808f, 8.0816578702069818974e-05f, -0.019708735868334770203f, 0.018630798906087875366f, -0.020958295091986656189f, -0.0067958263680338859558f, -0.0093857180327177047729f, 0.018896497786045074463f, 0.017923429608345031738f, -0.0051677329465746879578f, -0.010989766567945480347f, 0.020979110151529312134f, -0.0064718774519860744476f, -0.0058486023917794227600f, 0.021113796159625053406f, -0.015278347767889499664f, 0.0042315144091844558716f, -0.0053370739333331584930f, -0.0074546602554619312286f, -0.021765852347016334534f, 0.00023759758914820849895f, -0.0043993117287755012512f, 0.0028344176243990659714f, -0.020046407356858253479f, -0.014627795666456222534f, 0.0082184402272105216980f, 0.017122233286499977112f, -0.0052382973954081535339f, -0.00074310950003564357758f, -0.0092325117439031600952f, 0.0068798670545220375061f, 0.0081681013107299804688f, 0.0043361363932490348816f, 0.013747232034802436829f, 0.014596681110560894012f, -0.019465550780296325684f, -0.011545446701347827911f, -0.018824422731995582581f, -0.018439941108226776123f, -0.013002155348658561707f, 0.0044131148606538772583f, 0.0047577177174389362335f, 0.0065249088220298290253f, -0.015389570966362953186f, -0.0049216928891837596893f, 0.0043556736782193183899f, -0.0039055191446095705032f, 0.0089593185111880302429f, -0.014928697608411312103f, 0.016893118619918823242f, 0.0071787829510867595673f, 0.016520129516720771790f, -0.0055312919430434703827f, -0.018159095197916030884f, 0.021150339394807815552f, 0.0088239591568708419800f, -0.0034619946964085102081f, 0.0028432817198336124420f, 0.0043945014476776123047f, -0.012927346862852573395f, 0.0025790315121412277222f, 0.017761539667844772339f, -0.016036767512559890747f, -0.0036635119467973709106f, 0.0095278955996036529541f, 0.0061950702220201492310f, 0.0068572708405554294586f, 0.017412632703781127930f, 0.013683945871889591217f, -0.018987623974680900574f, 0.0063278670422732830048f, -0.012769612483680248260f, 0.0082523608580231666565f, -0.018029723316431045532f, 0.020957026630640029907f, 0.00055383594008162617683f, 0.015848618000745773315f, 0.019826253876090049744f, 0.014404599554836750031f, 0.020043898373842239380f, -0.0085121113806962966919f, -0.0076014581136405467987f, 0.0015020030550658702850f, 0.020732318982481956482f, -0.0039167408831417560577f, 0.0050864713266491889954f, 0.018047994002699851990f, 0.0059649697504937648773f, -0.0043730437755584716797f, -0.0093269608914852142334f, -0.0064376438967883586884f, -0.010062049143016338348f, 0.011765869334340095520f, -0.0072491341270506381989f, -0.010718473233282566071f, -0.015958569943904876709f, -0.0081991553306579589844f, -0.0097355265170335769653f, -0.0061740260571241378784f, -0.0027370085008442401886f, -0.012696416117250919342f, 0.0077434745617210865021f, 0.017290599644184112549f, -0.0075801317580044269562f, 0.014907103031873703003f, -0.00088914309162646532059f, 0.015001106075942516327f, -0.0017906245775520801544f, -0.011291391216218471527f, -0.015973178669810295105f, -0.0015438890550285577774f, -0.0097746569663286209106f, -0.012157692573964595795f, 0.0041104266420006752014f, 0.0095654511824250221252f, 0.010424580425024032593f, 0.021017301827669143677f, 0.014047551900148391724f, 0.010183629579842090607f, -0.020867459475994110107f, 0.0035962956026196479797f, 0.0074184960685670375824f, 0.014569354243576526642f, -0.0075237364508211612701f, -0.0024354555644094944000f, -0.011001480743288993835f, 0.0037842416204512119293f, 0.0053318450227379798889f, -0.021722251549363136292f, 0.018735332414507865906f, -0.0067437379620969295502f, -0.00069792545400559902191f, -0.0010157759534195065498f, 0.0061689470894634723663f, -0.020262207835912704468f, 0.014807344414293766022f, 0.013408405706286430359f, 0.0084735443815588951111f, -0.0066852644085884094238f, 0.0044634379446506500244f, 0.0030544637702405452728f, 0.020032394677400588989f, 0.012609109282493591309f, 0.015791064128279685974f, -0.0086869047954678535461f, -0.018159627914428710938f, -0.015661220997571945190f, -0.019556783139705657959f, 0.016466764733195304871f, -0.0036461343988776206970f, 0.017080202698707580566f, -0.0081154517829418182373f, 0.0092018814757466316223f, -0.020818574354052543640f, 0.011929475702345371246f, -0.0052484786137938499451f, 0.0020141953136771917343f, 0.0042770490981638431549f, 0.010808574967086315155f, -0.0025484960060566663742f, -0.014583594165742397308f, -0.016804566606879234314f, -0.017929945141077041626f, 0.0031056194566190242767f, 0.0041955239139497280121f, 0.018916742876172065735f, -0.015785301104187965393f, 0.016281014308333396912f, 0.011584169231355190277f, 0.019015572965145111084f, -0.0053143617697060108185f, -0.017194706946611404419f, -0.018302761018276214600f, -0.021613635122776031494f, 0.011924797669053077698f, -0.015234488993883132935f, 0.0033002062700688838959f, -0.010379135608673095703f, -0.0036525987088680267334f, -0.011510354466736316681f, -0.012772054411470890045f, 0.021938920021057128906f, 0.0093414299190044403076f, -0.017482196912169456482f, 0.0011989461490884423256f, -0.020834349095821380615f, 0.010895404964685440063f, -0.017620865255594253540f, -0.0077363066375255584717f, 0.019489843398332595825f, -0.0028036925941705703735f, 0.018687255680561065674f, 0.020662136375904083252f, -0.0090475715696811676025f, 0.011514241807162761688f, 0.021925471723079681396f, -0.015112529508769512177f, -0.0022380608133971691132f, -0.019104862585663795471f, -0.010108365677297115326f, 0.017539000138640403748f, 0.0052590812556445598602f, -0.010757854208350181580f, 0.020445985719561576843f, 0.0081355795264244079590f, -0.020331863313913345337f, -0.020466657355427742004f, 0.0093471119180321693420f, 0.0074786734767258167267f, -0.014851782470941543579f, 0.012816758826375007629f, 0.0031123629305511713028f, 0.013424382545053958893f, -0.012793156318366527557f, -0.016547897830605506897f, 0.017207706347107887268f, 0.0058993468992412090302f, 0.0098442528396844863892f, 0.016633620485663414001f, 0.010256988927721977234f, 0.0079220030456781387329f, -0.020767558366060256958f, -0.0072819874621927738190f, 0.021468676626682281494f, 0.0085425786674022674561f, -0.017038540914654731750f, 0.018073659390211105347f, 0.013480279594659805298f, 0.010872493498027324677f, -0.010203820653259754181f, -0.0053071258589625358582f, 0.011904806829988956451f, -0.0052257166244089603424f, -0.018632430583238601685f, -0.019895303994417190552f, 0.010892284102737903595f, 0.019240666180849075317f, -0.015995284542441368103f, -0.012690560892224311829f, -0.0021994358394294977188f, 0.019541192799806594849f, -0.016094788908958435059f, -0.0022825335618108510971f, -0.020372021943330764771f, 0.0068497401662170886993f, -0.00015175763110164552927f, -0.0080835074186325073242f, -0.018212985247373580933f, 0.0043337182141840457916f, -0.016032060608267784119f, -0.015573655255138874054f, 0.014195553958415985107f, 0.015608895570039749146f, 0.014159115031361579895f, -0.0063978442922234535217f, -0.014009095728397369385f, 0.0041943462565541267395f, 0.015344418585300445557f, -0.0044107018038630485535f, -0.015310293063521385193f, 0.016035398468375205994f, 0.011727450415492057800f, -0.0033128922805190086365f, 0.011201354674994945526f, -0.014390482567250728607f, 0.020511386916041374207f, 0.019717473536729812622f, 0.014475132338702678680f, -0.0039387810975313186646f, 0.017970941960811614990f, 0.0093507887795567512512f, 0.0079678930342197418213f, -0.0036828126758337020874f, -0.0031218854710459709167f, -0.016679275780916213989f, -0.0010919800261035561562f, 0.019786927849054336548f, -0.0085919564589858055115f, -0.0074549713172018527985f, -0.014347674325108528137f, -0.0026239443104714155197f, 0.011199210770428180695f, 0.0076700677163898944855f, -0.014042562805116176605f, 0.015834739431738853455f, -0.021512022241950035095f, -0.0044589233584702014923f, -0.020891757681965827942f, 0.013771089725196361542f, -0.014608118683099746704f, -0.012185370549559593201f, -0.011078409850597381592f, 0.011610505171120166779f, 0.0084371091797947883606f, -0.019585313275456428528f, 0.011229213327169418335f, -0.00042508519254624843597f, -0.0029139881953597068787f, 0.0021551605314016342163f, -0.0012422204017639160156f, 0.015771690756082534790f, 0.0073216869495809078217f, 0.020432904362678527832f, 0.0091311251744627952576f, -0.0077458848245441913605f, -0.019584212452173233032f, 0.0089238705113530158997f, -0.0090833250433206558228f, -0.00089350790949538350105f, 0.018953053280711174011f, 0.018182519823312759399f, 0.0092280153185129165649f, 0.00019635952776297926903f, -0.010101174004375934601f, -0.0058459467254579067230f, -0.0031644906848669052124f, 0.0051957159303128719330f, 0.0038502963725477457047f, 0.020403381437063217163f, -0.020676834508776664734f, 0.0091462135314941406250f, -0.0093042850494384765625f, 0.0088244462385773658752f, -0.00018613628344610333443f, 