// This file is computer-generated by onnx2c 
// (TODO: add creating command line here)
// (TODO: print creation date here )

// ONNX model:
// produced by pytorch, version 2.5.1
// ONNX IR version: 17
// Model documentation: 
/*

*/

#include <float.h>
#include <math.h>
#include <stdbool.h>
#include <stdint.h>
#include <string.h>

#define MAX(X,Y) ( X > Y ? X : Y)
#define MIN(X,Y) ( X < Y ? X : Y)
#define CLIP(X,L) ( MAX(MIN(X,L), -L) )

#if __STDC_VERSION__ < 199901L
#define FUNC_PREFIX
#else
#define FUNC_PREFIX static inline
#endif

static const float tensor_fc1_weight[4][2048] = 
{
  {-0.0092713925987482070923f, 0.0059941192157566547394f, 0.0093324286863207817078f, 0.016865039244294166565f, 0.0063116694800555706024f, 0.0075948908925056457520f, -0.0037686235737055540085f, 0.0059995907358825206757f, -0.00019810072262771427631f, -0.017567466944456100464f, -0.0069283726625144481659f, -0.018275778740644454956f, -0.0046952958218753337860f, 0.021947683766484260559f, -0.021761573851108551025f, -0.017310779541730880737f, -0.0063539822585880756378f, -0.017688533291220664978f, 0.010772692039608955383f, 0.0084532564505934715271f, -0.0017035545315593481064f, 0.0038420751225203275681f, 0.0075927623547613620758f, 0.0053397738374769687653f, 0.0046075489372014999390f, 0.0016441327752545475960f, 0.019220035523176193237f, 0.011281283572316169739f, -0.013411174528300762177f, 0.014540372416377067566f, 0.0032877174671739339828f, 0.0033248937688767910004f, 0.010047479532659053802f, -0.018889537081122398376f, -0.0054550874046981334686f, 0.015620851889252662659f, 0.016229575499892234802f, 0.015544658526778221130f, -0.0024819329846650362015f, -0.0056614018976688385010f, -0.0065234494395554065704f, -0.0017356256721541285515f, -0.0061502708122134208679f, 0.0097029739990830421448f, -0.0036129120271652936935f, 0.0012021439615637063980f, -0.0040463949553668498993f, -0.016717784106731414795f, 0.018946735188364982605f, -0.017012635245919227600f, 0.019680995494127273560f, 0.018032273277640342712f, 0.010252976790070533752f, -0.0082771005108952522278f, 0.0045045209117233753204f, 0.0075111477635800838470f, 0.020180251449346542358f, -0.013432566076517105103f, -0.0023645146284252405167f, -0.017893744632601737976f, -0.0097860926762223243713f, 0.018953990191221237183f, 0.014908696524798870087f, 0.0014911080943420529366f, -0.0074811787344515323639f, 0.014873348176479339600f, -0.020111437886953353882f, 0.017973041161894798279f, -0.0081886006519198417664f, 0.0019192172912880778313f, -0.0023029115982353687286f, -0.019256886094808578491f, 0.019246194511651992798f, -0.010237519629299640656f, -0.010342604480683803558f, 0.0079551888629794120789f, -0.0077553675509989261627f, -0.015634695068001747131f, 0.0055377217940986156464f, 0.021563844755291938782f, 0.0039435173384845256805f, -0.0070045003667473793030f, 0.0046508442610502243042f, -0.012336366809904575348f, -0.0040871510282158851624f, 0.0012256145710125565529f, 0.010058398358523845673f, 0.0022550092544406652451f, -0.017400689423084259033f, -0.013615065254271030426f, -0.017411747947335243225f, 0.017958879470825195312f, -0.0082366345450282096863f, 0.0017691060202196240425f, -0.012790264561772346497f, -0.017681747674942016602f, -0.0079379482194781303406f, -0.0060717356391251087189f, -0.0068925903178751468658f, 0.00083873281255364418030f, -0.0017176948022097349167f, 0.0034130043350160121918f, 0.011379506438970565796f, 0.019106680527329444885f, 0.0097600035369396209717f, 0.0053150756284594535828f, -0.017938902601599693298f, 0.018130833283066749573f, -0.0078900633379817008972f, 0.012985022738575935364f, 0.0087932916358113288879f, -0.017266470938920974731f, -0.019741501659154891968f, -0.013470441102981567383f, -0.014849754050374031067f, 0.00082437129458412528038f, 0.021063838154077529907f, -0.010739185847342014313f, 0.014046100899577140808f, -0.021856006234884262085f, 0.016269937157630920410f, -0.0084035415202379226685f, 0.0043697166256606578827f, -0.0053231152705848217010f, 0.0040520480833947658539f, 0.013280716724693775177f, -0.00049694295739755034447f, -0.020723734050989151001f, 0.022040788084268569946f, 0.021357208490371704102f, 0.014592326246201992035f, -0.011972992680966854095f, 0.0047680307179689407349f, -0.021398443728685379028f, 0.011757827363908290863f, -0.0064252894371747970581f, 0.0023116755764931440353f, 0.0047435513697564601898f, -0.011914734728634357452f, 0.016651691868901252747f, 0.010703566484153270721f, 0.010475952178239822388f, -0.016036843881011009216f, -0.0091897984966635704041f, -0.020171346142888069153f, 0.017263669520616531372f, 0.0022387588396668434143f, 0.014513572677969932556f, 0.0041144201532006263733f, 0.0077160946093499660492f, -0.0014751660637557506561f, -0.018040839582681655884f, -0.0024753108154982328415f, 0.019190032035112380981f, -0.012758317403495311737f, -0.0032382635399699211121f, -0.010869308374822139740f, 0.0016250138869509100914f, 0.020791193470358848572f, -0.0043372372165322303772f, 0.0041285259649157524109f, -0.0041585187427699565887f, 0.0055075418204069137573f, -0.016529830172657966614f, -0.021342262625694274902f, 0.021588316187262535095f, 0.0086652785539627075195f, 0.015294948592782020569f, -0.00037253863411024212837f, -0.010626197792589664459f, 0.0066404938697814941406f, -0.011173745617270469666f, 0.021848881617188453674f, -0.0078392447903752326965f, 0.020579069852828979492f, -0.012949218973517417908f, 0.014206006191670894623f, 0.012046525254845619202f, -0.0055166482925415039062f, -0.018479572609066963196f, -0.00092317664530128240585f, -0.0084183774888515472412f, 0.0053964005783200263977f, 0.0055244085378944873810f, -0.018552783876657485962f, -0.019974265247583389282f, -0.0036919401027262210846f, -0.0043349480256438255310f, 0.011688274331390857697f, 0.0076410206966102123260f, 0.018142214044928550720f, 0.0031625151168555021286f, 0.0028189392760396003723f, -0.015417812392115592957f, -0.019491141662001609802f, -0.0097156725823879241943f, 0.0075805243104696273804f, -0.018967306241393089294f, 0.020933877676725387573f, -0.0086569674313068389893f, -0.0015964857302606105804f, 0.0064434022642672061920f, -0.0036609964445233345032f, -0.011955406516790390015f, 0.016388393938541412354f, -0.012600545771420001984f, 0.0012614472070708870888f, 0.00087792676640674471855f, 0.017715601250529289246f, -7.2250237280968576670e-05f, -0.020953565835952758789f, -0.0022448727395385503769f, -0.015178352594375610352f, 0.021487779915332794189f, 0.021121596917510032654f, 0.017699018120765686035f, -0.020338580012321472168f, 0.021143484860658645630f, 0.014623881317675113678f, 0.016575260087847709656f, -0.019257420673966407776f, 0.016630588099360466003f, 3.7373716622823849320e-05f, -0.021608080714941024780f, -0.0074841580353677272797f, 0.019038345664739608765f, 0.010435596108436584473f, 0.0063014752231538295746f, -0.015138584189116954803f, 0.0091024627909064292908f, -0.018975704908370971680f, 0.011384953744709491730f, -0.0015217883046716451645f, -0.015918398275971412659f, 0.017712488770484924316f, 0.018591994419693946838f, 0.0096295429393649101257f, -0.022045601159334182739f, 0.021605608984827995300f, 0.0078930826857686042786f, -0.016571914777159690857f, -0.014410905539989471436f, -0.0078846290707588195801f, -0.013960284180939197540f, -0.016598679125308990479f, 0.013014904223382472992f, 0.0017204738687723875046f, -0.010569697245955467224f, 0.017407773062586784363f, 0.019609237089753150940f, 0.0043086325749754905701f, 0.010185549966990947723f, 0.021692089736461639404f, -0.016303686425089836121f, 0.0010220900876447558403f, 0.00071589055005460977554f, -0.016992220655083656311f, 0.0041721719317138195038f, -0.017483323812484741211f, 0.017266858369112014771f, -0.0046510286629199981689f, -0.016230650246143341064f, 0.0031259157694876194000f, -0.0086664697155356407166f, 0.014441590756177902222f, 0.020357007160782814026f, -0.021100152283906936646f, 0.016630368307232856750f, -0.0061741182580590248108f, -0.018296087160706520081f, -0.017036030068993568420f, 0.0037611953448504209518f, 0.019422121345996856689f, 0.015316127799451351166f, 0.014859442599117755890f, 0.011783703230321407318f, 0.012186795473098754883f, -0.013389930129051208496f, 0.016554249450564384460f, 0.021564854308962821960f, -0.015128552913665771484f, -0.020416881889104843140f, -0.0045879688113927841187f, -0.0059591005556285381317f, 0.0066029359586536884308f, 0.0044733663089573383331f, 0.0049751694314181804657f, -0.0071016936562955379486f, -0.011332305148243904114f, 0.011813645251095294952f, 0.015263048931956291199f, -0.011152095161378383636f, -0.0050029256381094455719f, -0.0088136279955506324768f, -0.013491822406649589539f, 0.011587685905396938324f, -0.0043191350996494293213f, -0.0072478274814784526825f, -0.0058181113563477993011f, -0.0040840376168489456177f, 0.0053616613149642944336f, -3.0358900403371080756e-05f, -0.0077004949562251567841f, -0.012929775752127170563f, -0.020875159651041030884f, 0.016966031864285469055f, 0.0025201470125466585159f, -0.0098737999796867370605f, -0.015353743918240070343f, 0.0029107138980180025101f, -0.0081027047708630561829f, -0.015053842216730117798f, -0.018150350078940391541f, 0.0029496261849999427795f, -0.0093214791268110275269f, 0.011627680622041225433f, -0.0088550550863146781921f, -0.0053021605126559734344f, -0.0077158049680292606354f, -0.019426016137003898621f, -0.0048323730006814002991f, 0.018906570971012115479f, 0.0019204211421310901642f, 0.0030587285291403532028f, -0.0026459870859980583191f, 0.017228340730071067810f, 0.0056658061221241950989f, -0.021698689088225364685f, 0.017701048403978347778f, -0.021065160632133483887f, 0.021675156429409980774f, 0.0012997771846130490303f, 0.014012504369020462036f, 0.020343648269772529602f, 0.0026552276685833930969f, -0.014148654416203498840f, 0.013376856222748756409f, -0.016989797353744506836f, -0.010062863118946552277f, -0.015485489740967750549f, 0.00048545002937316894531f, -0.012407049536705017090f, 0.011709553189575672150f, 0.015867209061980247498f, 0.020054401829838752747f, 0.0049108848907053470612f, 0.018474485725164413452f, 0.010044763796031475067f, 0.0087327873334288597107f, -0.0020476386416703462601f, 0.0062191258184611797333f, -0.012377728708088397980f, 0.0057107899338006973267f, -0.020956300199031829834f, -0.012610194273293018341f, 0.017046600580215454102f, 0.016239292919635772705f, -0.00089216971537098288536f, -0.019936570897698402405f, -0.0089378235861659049988f, -0.014292676001787185669f, -0.0073288101702928543091f, 0.019972940906882286072f, 0.021730553358793258667f, -0.0025263268034905195236f, -0.0010773129761219024658f, -0.0079402076080441474915f, 0.017653647810220718384f, 0.010110775940120220184f, -0.020124863833189010620f, -0.0078968442976474761963f, -0.00075778190512210130692f, 0.014146199449896812439f, -0.018553081899881362915f, -0.0061436328105628490448f, -0.016815116629004478455f, 0.017834296450018882751f, -0.0037049977108836174011f, 0.0088057806715369224548f, -0.017421973869204521179f, 0.0029851109720766544342f, 0.010895239189267158508f, 0.0072622257284820079803f, -0.00057864724658429622650f, -0.00044574242201633751392f, -0.018495952710509300232f, -0.014217904768884181976f, -0.018219621852040290833f, 0.016000682488083839417f, -0.010063210502266883850f, -0.011144090443849563599f, 0.020375106483697891235f, 0.019534047693014144897f, 0.018174037337303161621f, -0.0087204463779926300049f, 0.00085664261132478713989f, -0.019716426730155944824f, 0.020054992288351058960f, -0.0067565771751105785370f, 0.0072278180159628391266f, 0.0014129967894405126572f, 0.0039113722741603851318f, -0.020626893267035484314f, -0.021152729168534278870f, 0.0018811428453773260117f, 0.016277754679322242737f, -0.012509100139141082764f, 0.014372714795172214508f, -0.00099220266565680503845f, 0.019225969910621643066f, -0.013406662270426750183f, 0.017532316967844963074f, -0.014243429526686668396f, 0.0052944975905120372772f, 0.021187752485275268555f, -0.0060867792926728725433f, -0.015034388750791549683f, 0.014268999919295310974f, -0.013166243210434913635f, 0.014917115680873394012f, -0.012412172742187976837f, -0.0033106375485658645630f, 0.017036983743309974670f, 0.012790793552994728088f, 0.0042622080072760581970f, -0.014060799963772296906f, 0.021799264475703239441f, -0.00014149486378300935030f, -0.011168343015015125275f, -0.0084100505337119102478f, 0.011419933289289474487f, 0.0083343945443630218506f, 0.013274595141410827637f, -0.0078245596960186958313f, -0.0055836723186075687408f, 0.018248820677399635315f, 0.014396926388144493103f, -0.018891632556915283203f, 0.017646837979555130005f, -0.018450330942869186401f, -0.021713064983487129211f, 0.016465827822685241699f, -0.0018108657095581293106f, -0.020634714514017105103f, -0.020724993199110031128f, 0.0040944949723780155182f, -0.018755273893475532532f, -0.0086103454232215881348f, -0.0088450107723474502563f, -0.0074312584474682807922f, -0.0050634774379432201385f, 0.0076387422159314155579f, -0.0012575723230838775635f, 0.0055465330369770526886f, 0.015542846173048019409f, -0.0082214884459972381592f, -0.0091986916959285736084f, -0.0032068535219877958298f, -0.017241315916180610657f, -0.015784714370965957642f, 0.019566705450415611267f, 0.022084806114435195923f, -0.0078114890493452548981f, 0.0059639369137585163116f, -0.0031129715498536825180f, -0.0070690512657165527344f, 0.012313180603086948395f, 0.013832776807248592377f, -0.015038261190056800842f, -0.012655470520257949829f, -0.021611649543046951294f, -0.011815033853054046631f, -0.013146671466529369354f, -0.0050742458552122116089f, -0.018594000488519668579f, -0.020962996408343315125f, 0.017991438508033752441f, -0.010301748290657997131f, 0.010757463984191417694f, 0.016484955325722694397f, -0.020889565348625183105f, -0.014693107455968856812f, 0.014490542002022266388f, 0.00086060439934954047203f, 0.0081488480791449546814f, -0.0098346406593918800354f, 0.020799743011593818665f, -0.018089624121785163879f, -0.0059299799613654613495f, -0.016057522967457771301f, 0.014088919386267662048f, -0.019239956513047218323f, 0.013915432617068290710f, 0.017173241823911666870f, -0.00087054842151701450348f, 0.013206338509917259216f, -0.013915967196226119995f, -0.0059514273889362812042f, -0.0098102344200015068054f, -0.0043985266238451004028f, 0.012282342649996280670f, -0.00066403939854353666306f, 0.018987229093909263611f, -0.018568642437458038330f, -0.0095530068501830101013f, -0.012206617742776870728f, 0.0079337675124406814575f, 0.0071555022150278091431f, 0.0027348694857209920883f, -0.019084861502051353455f, 0.012523967772722244263f, 0.0066995392553508281708f, 0.0044070770964026451111f, -0.0086444346234202384949f, 0.0052747544832527637482f, 0.0025335366372019052505f, -0.010863023810088634491f, -0.013393889181315898895f, 0.0079398993402719497681f, -0.0048403097316622734070f, 0.014904658310115337372f, -0.0066164964810013771057f, -0.00015554031415376812220f, 0.020308563485741615295f, -0.018642622977495193481f, -0.018854990601539611816f, 0.015371958725154399872f, 0.019192019477486610413f, -0.0066081094555556774139f, -0.020203568041324615479f, 0.012120424769818782806f, -0.00035028244019486010075f, 0.014982862398028373718f, -0.0018201458733528852463f, -0.018932595849037170410f, -0.021969510242342948914f, -0.013194228522479534149f, -0.011556394398212432861f, -0.012646817602217197418f, -0.021997956559062004089f, 0.016228137537837028503f, -0.014114605262875556946f, -0.018449353054165840149f, 0.0079030292108654975891f, 0.0064601451158523559570f, -0.010485982522368431091f, 0.0015839154366403818130f, -0.014099782332777976990f, -0.012654454447329044342f, 0.0083496412262320518494f, 0.0096110487356781959534f, 0.0034588759299367666245f, -0.0092874821275472640991f, -0.020050788298249244690f, 0.0051432955078780651093f, -0.012979640625417232513f, 0.0026685777120292186737f, -0.019205346703529357910f, 0.013299835845828056335f, 0.017635548487305641174f, 0.0059786355122923851013f, 0.019818233326077461243f, 0.0046502067707479000092f, 0.018306378275156021118f, 0.0054569076746702194214f, -0.012976181693375110626f, 0.0053280754946172237396f, 0.0019320694264024496078f, -0.014274879358708858490f, -0.016069894656538963318f, -0.0063681649044156074524f, -0.0066475537605583667755f, -0.0025503083597868680954f, 0.011309147812426090240f, 0.013758195564150810242f, -0.0079179517924785614014f, 0.0095381503924727439880f, 0.0065997722558677196503f, -0.011466816067695617676f, -0.018819244578480720520f, -0.020486731082201004028f, 0.011462973430752754211f, 0.0075633176602423191071f, -0.0012132760602980852127f, 0.018340785056352615356f, 0.00089738017413765192032f, -0.021679172292351722717f, 0.018459750339388847351f, 0.0048058261163532733917f, -0.017117705196142196655f, -0.015607178211212158203f, -0.0093893166631460189819f, -0.0012663836823776364326f, 0.011205002665519714355f, -0.0014288624515756964684f, 0.0034855389967560768127f, -0.020536996424198150635f, 0.0048495610244572162628f, -0.012051783502101898193f, 0.0015924712643027305603f, -0.014436601661145687103f, -0.015012014657258987427f, 0.0019528056727722287178f, 0.019010527059435844421f, -0.0085936207324266433716f, 0.018857959657907485962f, 0.00041144015267491340637f, -0.015602765604853630066f, -0.011520801112055778503f, -0.015570099465548992157f, -0.012623380869626998901f, -0.0082394378259778022766f, -0.0025614562910050153732f, 0.0045846654102206230164f, 0.021482728421688079834f, 0.0075544300489127635956f, 0.017724443227052688599f, -0.0057883108966052532196f, 0.0014992344658821821213f, -0.018383463844656944275f, -0.019072746858000755310f, 0.0020727082155644893646f, 0.018755516037344932556f, 0.010594324208796024323f, -0.0041878689080476760864f, 0.0074014184065163135529f, 0.021311344578862190247f, -0.0098732234910130500793f, 0.015772752463817596436f, 0.013423375785350799561f, -0.020630050450563430786f, -0.0096330177038908004761f, -0.020474432036280632019f, -0.015048089437186717987f, -0.0047107506543397903442f, 0.012915079481899738312f, -0.021010665223002433777f, 0.0073776291683316230774f, -0.010794387198984622955f, -0.0015052352100610733032f, 0.011663399636745452881f, -0.0036676160525530576706f, -0.015001038089394569397f, -0.018733631819486618042f, 0.0083205439150333404541f, -0.0034906889777630567551f, 0.019734632223844528198f, -0.014414704404771327972f, -0.019006907939910888672f, 0.0058564650826156139374f, 0.016814189031720161438f, 0.021786611527204513550f, -0.020696349442005157471f, 0.0028428286314010620117f, 0.0025298250839114189148f, -0.0091258408501744270325f, -0.021925298497080802917f, 0.021702663972973823547f, 0.019947266206145286560f, -0.021258277818560600281f, -0.017595607787370681763f, 0.014648593030869960785f, -0.0065336623229086399078f, 0.020683623850345611572f, 0.0033076556865125894547f, -0.0063453265465795993805f, -0.014036454260349273682f, -0.0047940644435584545135f, 0.00089244107948616147041f, -0.0098826773464679718018f, -0.013393873348832130432f, -0.019920667633414268494f, -0.0024071040097624063492f, -0.020021127536892890930f, 0.0080428458750247955322f, 0.0084414919838309288025f, 0.014309827238321304321f, -0.0082931118085980415344f, 0.0035572124179452657700f, 0.0031932531856000423431f, -0.013353085145354270935f, -0.013156617991626262665f, 0.020450219511985778809f, -0.016332522034645080566f, -0.014134084805846214294f, 0.0027498975396156311035f, 0.017640015110373497009f, 0.018815707415342330933f, 0.0072827222757041454315f, -0.0015035098185762763023f, -0.016731489449739456177f, -0.011200239881873130798f, -0.014114141464233398438f, -0.0076050511561334133148f, -0.016355015337467193604f, -0.0076978453435003757477f, 0.0066154561936855316162f, -0.013658307492733001709f, -0.017307998612523078918f, -0.014813794754445552826f, -0.018484780564904212952f, 0.0082550738006830215454f, 0.0037822423037141561508f, 0.017941638827323913574f, 0.012431518174707889557f, 0.010984577238559722900f, -0.0035808831453323364258f, -0.013147851452231407166f, -0.017792312428355216980f, -0.0084194699302315711975f, -0.0030247818212956190109f, -0.017135372385382652283f, 0.016859816387295722961f, -0.012266495265066623688f, 0.0073638814501464366913f, 0.0099639650434255599976f, 0.010510332882404327393f, 0.0067141563631594181061f, 0.012766543775796890259f, 0.019014647230505943298f, -0.012037371285259723663f, 0.0075760777108371257782f, -0.013645913451910018921f, 0.0059873443096876144409f, -0.0089829470962285995483f, 0.013151573948562145233f, 0.010108468122780323029f, -0.017822260037064552307f, -0.0051460615359246730804f, 0.018312247470021247864f, -0.0041369502432644367218f, 0.0048554590903222560883f, -0.011507146060466766357f, 0.0096308598294854164124f, 0.0018539449665695428848f, 0.0051822788082063198090f, -0.00013239115651231259108f, 0.0022698026150465011597f, -0.0032746256329119205475f, 0.0062457835301756858826f, 0.013600000180304050446f, -0.0071826791390776634216f, -0.015839776024222373962f, -0.0049067991785705089569f, -0.0032418486662209033966f, -0.0091363824903964996338f, -0.0061482870951294898987f, -0.0095141613855957984924f, -0.0088127218186855316162f, -0.015916138887405395508f, 0.0012931996025145053864f, 0.0065569328144192695618f, 0.0095097646117210388184f, 0.0094369193539023399353f, -0.017376707866787910461f, -0.0011759207118302583694f, -0.0051969117484986782074f, -0.0025296879466623067856f, -0.0046155988238751888275f, 0.0045457826927304267883f, -0.017235694453120231628f, -0.0036544846370816230774f, 0.018448911607265472412f, -0.0049717449583113193512f, 0.015399177558720111847f, 0.00031239507370628416538f, -0.013801656663417816162f, 0.013851946219801902771f, 0.010745536535978317261f, -0.015992581844329833984f, -0.0055935187265276908875f, 0.016872800886631011963f, 0.0024808451998978853226f, 0.011212602257728576660f, -0.017546214163303375244f, -0.0090172151103615760803f, -0.014770206995308399200f, -0.0047242245636880397797f, 0.0050535202026367187500f, 0.0053467676043510437012f, 0.00050786952488124370575f, 0.016137246042490005493f, -0.012587251141667366028f, 0.011948178522288799286f, -0.0078042447566986083984f, 0.013884483836591243744f, -0.018535261973738670349f, 0.019305406138300895691f, -0.011248799040913581848f, 0.012443072162568569183f, 0.0070811500772833824158f, 0.0064677628688514232635f, 0.0073518985882401466370f, 0.0055289813317358493805f, -0.016470776870846748352f, 0.013486785814166069031f, 0.012338990345597267151f, -0.0042050303891301155090f, -0.0072404937818646430969f, 0.00040336378151550889015f, -0.0095238760113716125488f, 0.0040523139759898185730f, -0.018048100173473358154f, -0.011150314472615718842f, -0.0063617136329412460327f, 0.010803309269249439240f, -0.0083485161885619163513f, 0.016541657969355583191f, 0.0063165347091853618622f, -0.015901328995823860168f, 0.014179402962327003479f, 0.018923813477158546448f, -0.0064131119288504123688f, -0.0035281153395771980286f, 0.013260952197015285492f, -0.0040837633423507213593f, 0.010476494207978248596f, 0.0018109210068359971046f, 0.0095270629972219467163f, 0.019416863098740577698f, 0.0024821411352604627609f, -0.0027581159956753253937f, 0.0072027463465929031372f, -0.0071882107295095920563f, -0.0085639869794249534607f, 0.0070390291512012481689f, -0.0027489096391946077347f, 0.0070648258551955223083f, 0.0087347785010933876038f, -0.00097688753157854080200f, 0.012948628515005111694f, 0.012498226016759872437f, 0.0023137617390602827072f, -0.012119768187403678894f, 0.021933665499091148376f, -0.0066341138444840908051f, -0.019634556025266647339f, -0.019162891432642936707f, -0.010279718786478042603f, -0.011257702484726905823f, -0.014583549462258815765f, 0.010835367254912853241f, -0.0023870498407632112503f, -0.0093284724280238151550f, 0.00053453003056347370148f, 0.017658978700637817383f, -0.0086636291816830635071f, 0.018186351284384727478f, -0.020247753709554672241f, 0.0018647687975317239761f, 0.0016653799684718251228f, 0.012612043879926204681f, 0.0075944485142827033997f, -0.021658018231391906738f, -0.00087331427494063973427f, -0.011339938268065452576f, -0.00099299289286136627197f, 0.021193586289882659912f, 0.0035178998950868844986f, 0.017301207408308982849f, 0.0016106971306726336479f, 0.010271753184497356415f, -0.0049693426117300987244f, -0.0019147866405546665192f, -0.013248266652226448059f, -0.0071727694012224674225f, -0.0044367038644850254059f, 0.0034270733594894409180f, -0.0059988107532262802124f, -0.0019833068363368511200f, -0.0029906535055488348007f, 0.0072372695431113243103f, 0.018784822896122932434f, 0.018507050350308418274f, 0.018941568210721015930f, 0.010219151154160499573f, -0.021979613229632377625f, -0.0062851198017597198486f, 0.022078489884734153748f, -0.017111003398895263672f, 0.0054594762623310089111f, -0.010305413044989109039f, -0.012786842882633209229f, -0.016629531979560852051f, 0.0066158589906990528107f, -0.011232237331569194794f, 0.0050787716172635555267f, -0.019070623442530632019f, -0.0020492956973612308502f, 0.019377874210476875305f, -0.016521580517292022705f, -0.014305751770734786987f, 0.0074686110019683837891f, -0.010930323973298072815f, -0.011261587962508201599f, 0.012177014723420143127f, -0.011805930174887180328f, 0.016611009836196899414f, -0.0034421752206981182098f, -0.020019304007291793823f, -0.0026573983486741781235f, -0.018983714282512664795f, 0.015712536871433258057f, -0.0062453700229525566101f, -0.011919660493731498718f, 0.00013730653154198080301f, 0.014180320315062999725f, 0.020645545795559883118f, -0.0092585403472185134888f, -0.014720439910888671875f, -0.0090927295386791229248f, 0.019424576312303543091f, -0.0070955958217382431030f, 0.016950165852904319763f, 0.00026564893778413534164f, 0.0028759639244526624680f, -0.0076442160643637180328f, 0.012762263417243957520f, 0.011989268474280834198f, -0.016269046813249588013f, 0.0015347115695476531982f, -0.012642295099794864655f, -0.011764425784349441528f, -0.021735899150371551514f, 0.0047624385915696620941f, 0.014665393158793449402f, 0.0098233241587877273560f, 0.013311862945556640625f, 0.0039081666618585586548f, -0.00071463402127847075462f, -0.020822724327445030212f, 0.0050816847942769527435f, 0.011671984568238258362f, -0.019921652972698211670f, 0.018963193520903587341f, 0.0084147974848747253418f, 0.0032987652812153100967f, 0.0069162738509476184845f, -0.021707398816943168640f, -0.0057129207998514175415f, -0.00081878679338842630386f, -0.0018710987642407417297f, -0.0035641798749566078186f, -0.00064209668198600411415f, -0.014480811543762683868f, -0.0096597280353307723999f, -0.0090555269271135330200f, -0.016939260065555572510f, 0.0012003000592812895775f, -0.019208868965506553650f, -0.0094014946371316909790f, 0.017819052562117576599f, 0.020478619262576103210f, 0.0081559363752603530884f, 0.018719585612416267395f, -0.0037523813080042600632f, 0.019134046509861946106f, -0.020583286881446838379f, 0.019830958917737007141f, 0.011569707654416561127f, -0.019933428615331649780f, -0.016426647081971168518f, 0.0070698359049856662750f, -0.015501118265092372894f, 0.015663230791687965393f, 0.0060965204611420631409f, -0.010075456462800502777f, 0.012142889201641082764f, 0.0037604314275085926056f, -0.0031587218400090932846f, -0.0059799449518322944641f, -0.013592547737061977386f, -0.0079416753724217414856f, 0.0066387029364705085754f, -0.014154542237520217896f, 0.016381436958909034729f, 0.017665440216660499573f, 0.016186710447072982788f, -0.0055796103551983833313f, 0.012871544808149337769f, -0.020087009295821189880f, 0.0021730230655521154404f, -0.0025332020595669746399f, 0.013732649385929107666f, -0.0094172228127717971802f, -0.018191203474998474121f, -0.0025190906599164009094f, -0.0054207486100494861603f, -0.011174246668815612793f, 0.0061083980835974216461f, 0.012324620969593524933f, -0.0046480754390358924866f, 0.013473596423864364624f, -0.018025061115622520447f, -0.00027691532159224152565f, 0.020198319107294082642f, 0.0030222239438444375992f, -0.0029928844887763261795f, -0.021369587630033493042f, 0.0020560680422931909561f, -0.010702507570385932922f, -0.015895836055278778076f, 0.012119757942855358124f, -0.018846331164240837097f, -0.016542244702577590942f, 0.011735360138118267059f, -0.017575854435563087463f, 0.018516261130571365356f, 0.012697951868176460266f, -0.016034616157412528992f, 0.0020564158912748098373f, -0.0035991959739476442337f, 0.016038510948419570923f, -0.0079496307298541069031f, 0.00057237001601606607437f, 0.0093421256169676780701f, -0.00085224612848833203316f, 0.015748685225844383240f, -0.014938089065253734589f, 0.0056658638641238212585f, 0.0092193856835365295410f, -0.019682332873344421387f, 0.016580820083618164062f, -0.0042567183263599872589f, -0.0042485259473323822021f, -0.0027809860184788703918f, 0.018683966249227523804f, -0.0034705321304500102997f, -0.014227348379790782928f, 0.00099212361965328454971f, 0.00037961665657348930836f, 0.016925720497965812683f, -0.020014978945255279541f, 0.010884828865528106689f, 0.014260530471801757812f, -0.0066773169673979282379f, 0.0039322087541222572327f, -0.016983302310109138489f, 0.016082607209682464600f, 0.0026287699583917856216f, 0.017365990206599235535f, 0.014253779314458370209f, -0.00025664269924163818359f, -0.0091272136196494102478f, -0.015104892663657665253f, 0.0038832973223179578781f, -0.021662654355168342590f, 0.0092302700504660606384f, 0.0030042456928640604019f, -0.0051739942282438278198f, 0.0051513034850358963013f, -0.011266381479799747467f, 0.0054626478813588619232f, -0.013815386220812797546f, 0.019973278045654296875f, 0.0095754684880375862122f, 0.019984971731901168823f, -0.0016745363827794790268f, -0.014179603196680545807f, -0.021088050678372383118f, -0.0012140162289142608643f, -0.00025377934798598289490f, 0.013126960024237632751f, 0.0053106900304555892944f, -0.015872176736593246460f, 0.0054313666187226772308f, 0.015775013715028762817f, -0.015482317656278610229f, 0.016057213768362998962f, -0.0023826535325497388840f, 0.010584915056824684143f, 0.011128711514174938202f, -0.010390685871243476868f, 0.021853869780898094177f, -0.015016777440905570984f, -0.019034199416637420654f, 0.0015477059641852974892f, 0.011927763000130653381f, -0.0056759025901556015015f, 0.0046142870560288429260f, 0.0063558896072208881378f, -0.014018916524946689606f, -0.0067510819062590599060f, -0.017095156013965606689f, -0.011432366445660591125f, 0.015228422358632087708f, -0.021086998283863067627f, 0.0084716426208615303040f, -0.00054514838848263025284f, -0.013961208984255790710f, -0.013942314311861991882f, 0.0088077057152986526489f, 0.0086797932162880897522f, -0.0065056057646870613098f, -0.0092791663482785224915f, 0.0027017234824597835541f, -0.0055111139081418514252f, -0.012839900329709053040f, -0.021649520844221115112f, 0.011149337515234947205f, 0.010767945088446140289f, -0.018305804580450057983f, 0.017761105671525001526f, 0.0037081902846693992615f, -0.017057931050658226013f, 0.0086710052564740180969f, 0.0022994002792984247208f, -0.00096868473337963223457f, 0.014053753577172756195f, 0.0063407747074961662292f, -0.017885193228721618652f, -0.016078604385256767273f, -0.0031166961416602134705f, 0.0030117293354123830795f, -0.0054656849242746829987f, 0.018700310960412025452f, 0.0042272233404219150543f, 0.0029458065982908010483f, 0.010860246606171131134f, 0.0016592633910477161407f, 0.010889953002333641052f, -0.015159989707171916962f, -0.0019928163383156061172f, 0.016761455684900283813f, 0.016381068155169487000f, 0.015918206423521041870f, 0.014809538610279560089f, 0.020759630948305130005f, -0.013601348735392093658f, 0.013060844503343105316f, 0.021576920524239540100f, 0.0049235499463975429535f, -0.017234884202480316162f, 0.015440097078680992126f, 0.0073618427850306034088f, 0.013574567623436450958f, -0.0056148292496800422668f, -0.0054986174218356609344f, 0.0027855089865624904633f, 0.014328031800687313080f, -0.010747374966740608215f, -0.013966019265353679657f, -0.019806470721960067749f, -0.0039122863672673702240f, -0.017475707456469535828f, -0.013550641015172004700f, -0.00070051488000899553299f, -0.021481733769178390503f, 0.0021397296804934740067f, -0.016433216631412506104f, -0.017502149567008018494f, -0.0080793872475624084473f, 0.012759125791490077972f, 0.011118557304143905640f, 0.0046293227933347225189f, 0.0037588744889944791794f, -0.012085342779755592346f, -0.016676021739840507507f, 0.015923522412776947021f, -0.0096167623996734619141f, -0.018985273316502571106f, 0.0039250175468623638153f, -0.012535789981484413147f, -0.017395313829183578491f, 0.0020288333762437105179f, -0.0020882077515125274658f, -0.00087190500926226377487f, 0.0013759760186076164246f, 0.0032920506782829761505f, -0.018541375175118446350f, 0.00020958046661689877510f, 0.0067055793479084968567f, 0.0069630411453545093536f, -0.00046334927901625633240f, 0.015900764614343643188f, 0.010107764974236488342f, -0.020925551652908325195f, -0.0070204874500632286072f, 0.010053674690425395966f, 0.0025613957550376653671f, -0.022064995020627975464f, 0.0048866295255720615387f, 0.0035475739277899265289f, 0.0083421943709254264832f, 0.0091355396434664726257f, 0.010767115280032157898f, -0.0062791402451694011688f, 0.021379940211772918701f, 0.0088456645607948303223f, -0.0012956626014783978462f, -0.0043889591470360755920f, 0.014487610198557376862f, 0.010999120771884918213f, 0.0083405133336782455444f, -0.0019099555211141705513f, -0.0018546431092545390129f, -0.011783774010837078094f, 0.013799668289721012115f, 0.018401218578219413757f, -0.021651083603501319885f, 0.0054567679762840270996f, 0.017772730439901351929f, 0.00065638974774628877640f, -0.0040556886233389377594f, -0.018472407013177871704f, 0.014910782687366008759f, -0.0068294280208647251129f, -0.00038439242052845656872f, 0.015430290251970291138f, 0.0044255531392991542816f, 0.020519059151411056519f, -0.0056447824463248252869f, 0.010989472270011901855f, -0.0021673673763871192932f, -0.021985307335853576660f, 0.021097736433148384094f, 0.018267001956701278687f, -0.0061820205301046371460f, 0.013013819232583045959f, 0.0049822893925011157990f, 0.017926421016454696655f, -0.017978381365537643433f, -0.012989189475774765015f, -0.0061663184314966201782f, 0.013570075854659080505f, 0.015996322035789489746f, -0.018393686041235923767f, -0.010680870153009891510f, -0.0021778277587145566940f, -0.016088411211967468262f, 0.020827865228056907654f, -0.017151379957795143127f, 0.013365444727241992950f, 0.0027863413561135530472f, 0.0012336988002061843872f, 0.0057543567381799221039f, 0.016895836219191551208f, -0.00037543885991908609867f, -0.013288585469126701355f, -0.0044585699215531349182f, 0.0043556317687034606934f, -0.0011382494121789932251f, -0.012160408310592174530f, -0.019103705883026123047f, 0.020094046369194984436f, 0.0022421965841203927994f, -0.0030247659888118505478f, -0.013167326338589191437f, 0.0033901159185916185379f, 0.019893914461135864258f, 0.021244682371616363525f, 0.017022019252181053162f, 0.0097869932651519775391f, -0.019468806684017181396f, -0.021739879623055458069f, 0.016377786174416542053f, 0.016897942870855331421f, -0.021454671397805213928f, -0.0011486727744340896606f, -0.011604815721511840820f, -0.015362085774540901184f, 0.020858343690633773804f, 0.00047791365068405866623f, 0.0096882460638880729675f, -0.010221574455499649048f, -0.0042938683182001113892f, -0.019496852532029151917f, -0.0081710070371627807617f, -0.0062346225604414939880f, -0.013014378026127815247f, -0.015029246918857097626f, 0.0058568078093230724335f, 0.014466226100921630859f, 0.015549855306744575500f, 0.0047156051732599735260f, 0.0026558097451925277710f, 0.0091029284521937370300f, -0.020600304007530212402f, 0.0030062820296734571457f, -0.0056871483102440834045f, -0.0042088367044925689697f, 0.017509272322058677673f, 0.0022470538970082998276f, 0.013403638266026973724f, 0.0073307566344738006592f, -0.012833496555685997009f, 0.0052584409713745117188f, -0.013963492587208747864f, 0.020739767700433731079f, -0.0045975968241691589355f, -0.012013703584671020508f, -0.00082311214646324515343f, 0.0041508795693516731262f, -0.020031049847602844238f, -0.011911423876881599426f, 0.0032741357572376728058f, 0.018512414768338203430f, -0.0044062393717467784882f, 0.015069552697241306305f, -0.014445845037698745728f, 0.015957774594426155090f, -0.018193613737821578979f, -0.016430938616394996643f, 0.015735816210508346558f, -0.012425788678228855133f, -0.021637493744492530823f, 0.0073558683507144451141f, 0.0016553068999201059341f, -0.0018863296136260032654f, -0.013181220740079879761f, -0.0077401525340974330902f, 0.0092061283066868782043f, 0.0051362966187298297882f, -0.017459049820899963379f, 0.014346534386277198792f, 0.016765795648097991943f, -0.018071915954351425171f, -0.0088941548019647598267f, -0.012379248626530170441f, 0.011569233611226081848f, -0.00028967528487555682659f, -0.0029817339964210987091f, 0.013009412214159965515f, 0.0073859165422618389130f, -0.017574777826666831970f, -0.017032228410243988037f, 0.0025753884110599756241f, 0.0094184661284089088440f, -0.021135184913873672485f, -0.0065167983993887901306f, -0.0065325847826898097992f, -0.0058420561254024505615f, 0.0081319892778992652893f, -0.0070154508575797080994f, 0.021347751840949058533f, -0.011319908313453197479f, 0.0034185887780040502548f, -0.0019130295841023325920f, -0.0036287435796111822128f, 0.0042330687865614891052f, 0.0064210882410407066345f, 0.021397059783339500427f, -0.00077149807475507259369f, -0.0094008808955550193787f, -0.013422695919871330261f, 0.010124966502189636230f, 0.0025641457177698612213f, 0.015635592862963676453f, -0.0079736914485692977905f, -0.010099175386130809784f, 0.012290610931813716888f, 0.0079193636775016784668f, 0.012754903174936771393f, 0.019149230793118476868f, 0.0069737439043819904327f, -0.019713882356882095337f, 0.0021202736534178256989f, 0.021295040845870971680f, 0.016358964145183563232f, -0.0013719667913392186165f, -0.019316682592034339905f, -0.021923651918768882751f, -0.012339967302978038788f, -0.0025257393717765808105f, 0.0096575282514095306396f, -0.019294213503599166870f, 0.017022218555212020874f, 0.0099049098789691925049f, -0.0028629589360207319260f, 0.019196724519133567810f, 0.013898125849664211273f, 0.0075412960723042488098f, 0.012791236862540245056f, -0.010431184433400630951f, -0.010108388960361480713f, -0.0033323168754577636719f, 0.0098735494539141654968f, -0.018838223069906234741f, 0.017968583852052688599f, 0.0039062937721610069275f, 0.0076125371269881725311f, 0.019261009991168975830f, -0.020145729184150695801f, 0.0053166090510785579681f, 0.0058803572319447994232f, -0.0096663953736424446106f, 0.021436434239149093628f, 0.015562067739665508270f, 0.016850959509611129761f, 0.0024190288968384265900f, -0.014227995648980140686f, -0.0096431588754057884216f, -0.012975299730896949768f, -0.020042013376951217651f, -0.011939601041376590729f, -0.0030082918237894773483f, -0.0050588543526828289032f, -0.0064044189639389514923f, -0.017211588099598884583f, 0.0049904319457709789276f, 0.0014281222829595208168f, 0.00063563766889274120331f, -0.0087133441120386123657f, -0.0082141989842057228088f, -0.014547954313457012177f, 0.0095998924225568771362f, 0.021585835143923759460f, -0.011322197504341602325f, -0.015341447666287422180f, -0.0040566814132034778595f, 3.1510036933468654752e-05f, 0.00010173985356232151389f, 0.017169861122965812683f, 0.0018001840217038989067f, 0.0089885741472244262695f, -0.021253393962979316711f, 0.0064476961269974708557f, -0.0078511573374271392822f, 0.0084657976403832435608f, 0.0036371333990246057510f, -0.021001869812607765198f, 0.0014617106644436717033f, -0.010135927237570285797f, -0.014167375862598419189f, -0.012198058888316154480f, -0.0013052931753918528557f, 0.019112575799226760864f, 0.0034502779599279165268f, 0.0068200817331671714783f, 0.0022318810224533081055f, -0.0081079890951514244080f, 0.0095498301088809967041f, -0.0031378723215311765671f, 0.0038226321339607238770f, -0.013268090784549713135f, 0.015105964615941047668f, 0.00010249586193822324276f, -0.011422298848628997803f, 0.010344785638153553009f, -0.017980098724365234375f, -0.012913346290588378906f, 0.019759822636842727661f, 0.0061222352087497711182f, -0.012624775059521198273f, 0.00027518993010744452477f, 0.0085232434794306755066f, -0.0076161460019648075104f, -0.011291962116956710815f, 0.010355864651501178741f, 0.00024788142764009535313f, -0.0082198549062013626099f, -0.020343247801065444946f, -0.018725635483860969543f, 0.00081999064423143863678f, 0.017563527449965476990f, -0.017178328707814216614f, -0.0032917819917201995850f, -0.0023420450743287801743f, 0.014201316982507705688f, -0.0050336136482656002045f, 0.018008783459663391113f, 0.0095408633351325988770f, -0.011110541410744190216f, -0.0078300833702087402344f, 0.013527873903512954712f, -0.014013900421559810638f, -0.0048176059499382972717f, 0.012946634553372859955f, 0.011206572875380516052f, 0.021053219214081764221f, 0.018975492566823959351f, -0.014219503849744796753f, -0.014551351778209209442f, 0.015562428161501884460f, -0.012607481330633163452f, -0.0058547607623040676117f, 0.014121321961283683777f, 0.0047982130199670791626f, -0.0071283965371549129486f, 0.0016351580852642655373f, 0.0057494542561471462250f, 0.0081388540565967559814f, -0.012131472118198871613f, 0.012743233703076839447f, -0.0078753568232059478760f, 0.019878424704074859619f, 0.014927488751709461212f, 0.021076958626508712769f, 0.013426886871457099915f, -0.012992547824978828430f, -0.015072055160999298096f, -0.018680654466152191162f, 0.0080785974860191345215f, 0.013060926459729671478f, -0.0082739954814314842224f, 0.0060722967609763145447f, -0.018651742488145828247f, -0.010264261625707149506f, 0.018965303897857666016f, -0.00017495419888291507959f, -0.0085352631285786628723f, -0.013317684642970561981f, 0.0072918552905321121216f, 0.019708717241883277893f, -0.0071681225672364234924f, -0.0040189838036894798279f, 0.0053931525908410549164f, -0.0060199974104762077332f, -0.016418736428022384644f, 0.0064938836731016635895f, -0.010986102744936943054f, 0.0082408655434846878052f, -0.014554083347320556641f, 0.020298780873417854309f, 0.0086970068514347076416f, -0.0064934594556689262390f, -0.012364818714559078217f, -0.019290851429104804993f, 0.0078219417482614517212f, -0.0021035044919699430466f, 0.015782846137881278992f, -0.0073892194777727127075f, -0.018735460937023162842f, 0.018377644941210746765f, -0.021132726222276687622f, -0.0028198848012834787369f, -0.010668494738638401031f, 0.018083134666085243225f, -0.0010681565618142485619f, -0.0058903936296701431274f, 0.018903143703937530518f, 0.0063357488252222537994f, 0.022074682638049125671f, -0.0051144226454198360443f, -0.0011326043168082833290f, 0.0030421884730458259583f, -0.0030899380799382925034f, -0.0077837351709604263306f, 0.016097702085971832275f, 0.0018509341171011328697f, 0.020367393270134925842f, -0.0072934487834572792053f, -0.011268370784819126129f, 0.020032633095979690552f, 0.020916555076837539673f, 0.016786759719252586365f, 0.013704505749046802521f, -0.0030712934676557779312f, 0.014025870710611343384f, -0.0067174751311540603638f, -0.015744918957352638245f, -0.013941898010671138763f, 0.0028047014493495225906f, 0.0090368688106536865234f, 0.017962936311960220337f, -0.016578894108533859253f, -0.013776427134871482849f, -0.0035579341929405927658f, 0.0016466588713228702545f, 0.0088724065572023391724f, -0.015468469820916652679f, -0.019364211708307266235f, -0.0076063731685280799866f, 0.015706470236182212830f, 0.021026661619544029236f, -0.013390351086854934692f, 0.017748525366187095642f, -0.0074814287945628166199f, 0.0011728730751201510429f, -0.0095314066857099533081f, 0.0092471418902277946472f, 0.017491966485977172852f, -0.020323252305388450623f, 0.012876623310148715973f, 0.011309503577649593353f, 0.0087904175743460655212f, -0.017191117629408836365f, 0.011625786311924457550f, 0.0069424048997461795807f, 0.016499698162078857422f, -0.015568621456623077393f, -0.0076213381253182888031f, -0.017492346465587615967f, -0.012475103139877319336f, 0.014620670117437839508f, 0.0072449534200131893158f, -0.021952141076326370239f, -0.011005603708326816559f, -0.0049910480156540870667f, 0.0066392244771122932434f, 0.0068417028523981571198f, 0.0020348629914224147797f, 0.0034188441932201385498f, -0.0064897425472736358643f, 0.0091355005279183387756f, -0.0073289074935019016266f, -0.0027887145988643169403f, -0.018041394650936126709f, 0.0052882414311170578003f, -0.019639890640974044800f, 0.013100896961987018585f, 0.0058150007389485836029f, -0.0034035977441817522049f, 0.014814319089055061340f, 0.016181806102395057678f, -0.0036893743090331554413f, -0.010122052393853664398f, -0.019507197663187980652f, -0.020415153354406356812f, 0.018773769959807395935f, -0.017179790884256362915f, 0.011159789748489856720f, -0.020163185894489288330f, 0.012565161101520061493f, -0.020275946706533432007f, -0.018394624814391136169f, -0.0054170815274119377136f, -0.0039962166920304298401f, -0.013244562782347202301f, 0.021891394630074501038f, -0.016032254323363304138f, 0.0057313889265060424805f, 0.0030507706105709075928f, -0.0067260018549859523773f, 3.9836671930970624089e-05f, 0.020654344931244850159f, 0.010359073057770729065f, 0.0092267198488116264343f, -0.0025195332709699869156f, 0.0076928664930164813995f, 0.019542276859283447266f, 8.3000311860814690590e-05f, 0.018360827118158340454f, 0.0084616802632808685303f, -0.011490460485219955444f, -0.021215524524450302124f, -0.0092179765924811363220f, -0.019172482192516326904f, -0.0078423665836453437805f, -0.0041596172377467155457f, -0.016274077817797660828f, 0.0093834027647972106934f, 0.014283150434494018555f, 0.010675986297428607941f, 0.0057299560867249965668f, -0.014842138625681400299f, 0.011480904184281826019f, 2.9924262889835517853e-06f, 0.018104191869497299194f, 0.010329633951187133789f, -0.016307597979903221130f, -0.017802078276872634888f, 0.016342423856258392334f, -0.015901232138276100159f, 0.013510667718946933746f, -0.00025857353466562926769f, 0.015503949485719203949f, 0.019310681149363517761f, 0.0039525972679257392883f, -0.020843559876084327698f, 0.014931956306099891663f, -0.018182134255766868591f, -0.017195943742990493774f, -0.010282819159328937531f, -0.0067058978602290153503f, 0.011493369005620479584f, 0.021338229998946189880f, -0.0042206170037388801575f, 0.0084395194426178932190f, 0.010302483104169368744f, -0.015324888750910758972f, -0.018160466104745864868f, -0.0018812693888321518898f, -0.00013209348253440111876f, -0.011069395579397678375f, 0.015106515958905220032f, -0.00097374495817348361015f, 0.0021346404682844877243f, -0.0033343688119202852249f, 0.017628408968448638916f, -0.011262688785791397095f, 0.017420118674635887146f, -0.0023308866657316684723f, -0.021453512832522392273f, 0.011998646892607212067f, 0.0093943765386939048767f, 0.0014575881650671362877f, 0.020875157788395881653f, 0.012796728871762752533f, 0.018659947440028190613f, 0.015758160501718521118f, -0.0028445567004382610321f, 0.0031166381668299436569f, 0.0082315010949969291687f, 0.014337654225528240204f, 0.0042848433367908000946f, -0.0011369796702638268471f, -0.0061748321168124675751f, 0.0047389520332217216492f, -0.016448242589831352234f, 0.012845605611801147461f, 0.020836049690842628479f, -0.021453468129038810730f, -0.0036111418157815933228f, 0.020385837182402610779f, 0.0023963195271790027618f, -0.020070614293217658997f, 0.0064329025335609912872f, -0.0058497954159975051880f, -0.0051877368241548538208f, 0.0035380013287067413330f, 0.0022724552545696496964f, -0.0045712920837104320526f, 0.0092273438349366188049f, 0.017034098505973815918f, 0.012121051549911499023f, -0.0023307048249989748001f, -0.0098819872364401817322f, -0.00072023691609501838684f, -0.0091981226578354835510f, -0.0073651513084769248962f, 0.0036436791997402906418f, -0.0099173430353403091431f, -0.0077041960321366786957f, -0.015705058351159095764f, 0.0012750421883538365364f, -0.010129978880286216736f, 0.021049695089459419250f, -0.020902130752801895142f, 0.016221815720200538635f, -0.0071224407292902469635f, 0.0074488837271928787231f, 0.0010979806538671255112f, 0.015701567754149436951f, 0.0094224177300930023193f, 0.015451102517545223236f, 0.018224889412522315979f, -0.0099485814571380615234f, -0.0096834888681769371033f, -0.020607242360711097717f, -0.0057297162711620330811f, -0.00048560279537923634052f, -0.011255387216806411743f, 0.020589875057339668274f, -0.00096788653172552585602f, 0.0095621896907687187195f, -0.018974734470248222351f, -0.0049956315197050571442f, 0.0015524922637268900871f, -0.0036941580474376678467f, -0.0023368529509752988815f, -0.0099981278181076049805f, -0.0017479062080383300781f, 0.020703535526990890503f, -0.020939765498042106628f, 0.013500628061592578888f, -0.0075520882382988929749f, -0.010935236699879169464f, -0.0029294060077518224716f, 0.016922760754823684692f, 0.0024900962598621845245f, 0.0041733309626579284668f, -0.0090077957138419151306f, 0.0060486444272100925446f, 0.0061786673031747341156f, 0.016455456614494323730f, -0.019526911899447441101f, -0.0070994547568261623383f, 0.011272061616182327271f, -0.019713705405592918396f, 0.0069633466191589832306f, -0.011810868978500366211f, 0.0091458503156900405884f, 0.0038974927738308906555f, 0.0074586458504199981689f, 0.016484297811985015869f, -0.0032972244080156087875f, 0.015574840828776359558f, -0.011204413138329982758f, 0.017773849889636039734f, 0.012391581200063228607f, 0.016760874539613723755f, 0.018090570345520973206f, 0.017545100301504135132f, -0.0081818541511893272400f, 0.0042129908688366413116f, 0.00052118004532530903816f, 0.0099160997197031974792f, -0.021917032077908515930f, 0.014915042556822299957f, -0.010614315047860145569f, -0.021985132247209548950f, -0.021088220179080963135f, 0.019942117854952812195f, -0.0033144729677587747574f, -0.014056092128157615662f, -0.016498720273375511169f, 0.0015843157889321446419f, -0.0057303672656416893005f, -0.019889192655682563782f, -0.021842334419488906860f, 0.0086242798715829849243f, -0.0052171605639159679413f, -0.0033143358305096626282f, 8.6393134552054107189e-05f, -0.00075812172144651412964f, 0.013644423335790634155f, 0.018385794013738632202f, -0.012015612795948982239f, -0.00066502194385975599289f, 0.00012025812611682340503f, 0.0080635715276002883911f, 0.0038561942055821418762f, 0.0061693633906543254852f, -0.019636703655123710632f, 0.0040325289592146873474f, 0.016921097412705421448f, -0.022026389837265014648f, -0.0068847667425870895386f, -0.0015708236023783683777f, 0.013299037702381610870f, -0.019807614386081695557f, 0.0025295801460742950439f, -0.011429268866777420044f, -0.012562202289700508118f, -0.017952609807252883911f, -0.017498319968581199646f, 0.0091044800356030464172f, 0.0020900331437587738037f, -0.0053310599178075790405f, -0.0037885326892137527466f, -0.0025312423240393400192f, -0.019859576597809791565f, -0.013383515179157257080f, -0.019730379804968833923f, 0.011763688176870346069f, 0.011192432604730129242f, 0.012132470495998859406f, -0.013144347816705703735f, 0.0043214610777795314789f, 0.013244412839412689209f, 0.0034001811873167753220f, -0.0045637236908078193665f, 0.013037727214395999908f, 0.017715768888592720032f, -0.0020042986143380403519f, -0.0085169980302453041077f, 0.0081378659233450889587f, -0.015675954520702362061f, 0.00031054325518198311329f, -0.013844101689755916595f, -0.0081956544890999794006f, -0.0085656670853495597839f, -0.011130107566714286804f, 0.010088024660944938660f, 0.0024806265719234943390f, 0.017149761319160461426f, 0.016955560073256492615f, 0.0060622156597673892975f, 0.014015375636518001556f, 0.0022943953517824411392f, -0.018729479983448982239f, 0.014311710372567176819f, 0.0037052663974463939667f, -0.0089208045974373817444f, 0.0010225457372143864632f, -0.019005926325917243958f, 0.015153195708990097046f, 0.021034756675362586975f, -0.010740328580141067505f, -0.020229438319802284241f, 0.018785851076245307922f, -0.0041227913461625576019f, 0.0046379128471016883850f, 0.020605428144335746765f, 0.013365471735596656799f, 0.013478941284120082855f, -0.017925333231687545776f, -0.0053743212483823299408f, -0.0012993925483897328377f, -0.021256372332572937012f, -0.00087660964345559477806f, -0.022052278742194175720f, -0.016789389774203300476f, 0.0040673525072634220123f, 0.013919170014560222626f, -0.014014132320880889893f, 0.0048792194575071334839f, -0.017330588772892951965f, 0.010354911908507347107f, 0.020510170608758926392f, -0.021856609731912612915f, -0.0058824829757213592529f, -0.020397530868649482727f, 0.015248139388859272003f, 0.00080406700726598501205f, -0.0034453072585165500641f, -0.0068633719347417354584f, -0.021450135856866836548f, -0.019128700718283653259f, 0.0097759906202554702759f, -0.0029342109337449073792f, 0.0025609794538468122482f, 0.012179899029433727264f, 0.0010684094158932566643f, 0.0019543941598385572433f, -0.0041553815826773643494f, -0.010672005824744701385f, -0.018799580633640289307f, -0.0050586517900228500366f, 0.013696948066353797913f, 0.014675039798021316528f, 0.0024510710500180721283f, 0.020984102040529251099f, 0.017398258671164512634f, 0.010592409409582614899f, -0.0019185666460543870926f, -0.020539768040180206299f, 0.0065519986674189567566f, 0.0089085977524518966675f, -0.014988156966865062714f, 0.0033630235120654106140f, 0.0012417620746418833733f, -0.021370783448219299316f, 0.020984254777431488037f, -0.013429974205791950226f, 0.017412798479199409485f, -0.0087596718221902847290f, 0.014904792420566082001f, -0.011926649138331413269f, 0.020160522311925888062f, 0.0049703461118042469025f, 0.015806358307600021362f, 0.0085511710494756698608f, -0.010327236726880073547f, 0.010441417805850505829f, 0.013800901360809803009f, -0.0028800864238291978836f, -0.0022664573043584823608f, 0.015769153833389282227f, 0.014858365058898925781f, 0.020147789269685745239f, 0.015914926305413246155f, -0.017641905695199966431f, -0.0038419880438596010208f, -0.015172538347542285919f, 0.0090765636414289474487f, 0.022088117897510528564f, 0.0011609612265601754189f, -0.013831178657710552216f, 0.015506741590797901154f, 0.014829218387603759766f, -0.0062414291314780712128f, -0.0077882315963506698608f, 0.0093578668311238288879f, 0.011908712796866893768f, -0.014424387365579605103f, 0.0095270816236734390259f, -0.016572538763284683228f, 0.010337913408875465393f, -0.021251244470477104187f, -0.011583454906940460205f, 0.0036249528639018535614f, -0.0065517853945493698120f, -0.0050934990867972373962f, -0.016021326184272766113f, 0.0045916489325463771820f, -0.0070358444936573505402f, 0.0057671638205647468567f, -0.0018153595738112926483f, -0.011778254993259906769f, -0.018598174676299095154f, -0.011862928047776222229f, -0.010696453973650932312f, -0.010906482115387916565f, -0.016964316368103027344f, 0.012362089008092880249f, 0.012485274113714694977f, 0.0014131759526208043098f, -0.0050481781363487243652f, 0.0032733848784118890762f, -0.013606617227196693420f, -0.010055474005639553070f, -0.015609796158969402313f, 0.013183610513806343079f, 0.012639030814170837402f, 0.010796457529067993164f, -0.010203027166426181793f, -0.012224895879626274109f, 0.0069110821932554244995f, -0.011218700557947158813f, -0.0097821913659572601318f, -0.016517391428351402283f, -0.0083871334791183471680f, -0.0039904690347611904144f, -0.019695160910487174988f, -0.017052769660949707031f, -0.0053050159476697444916f, 0.011058858595788478851f, 0.015483455732464790344f, 0.011953140608966350555f, -0.016633763909339904785f, 0.016874244436621665955f, 0.0017760602058842778206f, 0.0087038166821002960205f, -0.0074852826073765754700f, 0.0051978970877826213837f, 0.021855596452951431274f, -0.0018147563096135854721f, -0.0079354876652359962463f, 0.0081130415201187133789f, 0.011870912276208400726f, -0.013848479837179183960f, 0.014814346097409725189f, 0.0086525687947869300842f, 0.018340433016419410706f, -0.017429890111088752747f, -0.012035838328301906586f, 0.011092325672507286072f, 0.0071961474604904651642f, 0.015181408263742923737f, -0.0085614258423447608948f, -0.020541999489068984985f, -0.0029273487161844968796f, 0.019586095586419105530f, 0.0095078228041529655457f, -0.017709305509924888611f, 0.019498752430081367493f, -0.00022227983572520315647f, -0.0077696898952126502991f, -0.0085043357685208320618f, -0.010793534107506275177f, 0.013652396388351917267f, 0.011585311964154243469f, 0.019736642017960548401f, -0.012535597197711467743f, -0.013234642334282398224f, 0.012748539447784423828f, 0.021769005805253982544f, 0.0042481441050767898560f, 0.0072029307484626770020f, -0.0080403201282024383545f, -0.011874737218022346497f, -0.0030616628937423229218f, 0.018475044518709182739f, -0.0021503900643438100815f, -0.021304110065102577209f, -0.0092872893437743186951f},
  {0.0060748727992177009583f, 0.0070184986107051372528f, 0.019715072587132453918f, -0.016429955139756202698f, 0.013708136044442653656f, -0.013808305375277996063f, -0.019007928669452667236f, -0.0022737828548997640610f, -0.00072807096876204013824f, -0.0086769741028547286987f, -0.0083341468125581741333f, -0.014893260784447193146f, -0.0059312046505510807037f, 0.0013235453516244888306f, -0.0033562192693352699280f, -0.014003877528011798859f, -0.016381470486521720886f, -0.019958570599555969238f, 0.021830135956406593323f, -0.018533397465944290161f, 0.021991036832332611084f, -0.0067923120222985744476f, -0.018302194774150848389f, -0.013093392364680767059f, 0.021431328728795051575f, 0.021131565794348716736f, -0.0013657844392582774162f, 0.019516134634613990784f, 0.017930930480360984802f, 0.010245877318084239960f, 0.0022630407474935054779f, 0.0063821021467447280884f, -0.019515791907906532288f, -0.0080088758841156959534f, 0.017016449943184852600f, 0.0066717592999339103699f, 0.015177374705672264099f, 0.016288997605443000793f, -0.0085389092564582824707f, -0.013140931725502014160f, 0.012495919130742549896f, -0.0065146042034029960632f, 0.020650789141654968262f, 0.0099719418212771415710f, 0.018244484439492225647f, 0.0089659309014678001404f, -0.013277835212647914886f, 0.013300243765115737915f, 0.011121215298771858215f, -0.021097561344504356384f, 0.011574198491871356964f, 0.010999057441949844360f, -0.0082231340929865837097f, -0.018118303269147872925f, 0.00066552771022543311119f, 0.0051286970265209674835f, -0.021482424810528755188f, 0.00040953038842417299747f, 0.0046700364910066127777f, 0.0058539048768579959869f, 0.0028623873367905616760f, -0.0085473516955971717834f, -0.0038339036982506513596f, 0.017588905990123748779f, -0.011834971606731414795f, 0.0064846822060644626617f, 0.017112482339143753052f, -0.010336825624108314514f, -0.0035563036799430847168f, 0.020441494882106781006f, -0.0049101896584033966064f, -0.012537235394120216370f, -0.014633635990321636200f, 0.019925137981772422791f, -0.019722558557987213135f, 0.0080940676853060722351f, -0.0061941877938807010651f, -0.0080434679985046386719f, -0.018848292529582977295f, -0.017011960968375205994f, 0.0042228559032082557678f, 0.0038771964609622955322f, -0.0064025092869997024536f, -0.011226049624383449554f, 0.016596233472228050232f, 0.011115022003650665283f, 0.0039976625703275203705f, -0.010578972287476062775f, -0.0058019058778882026672f, -0.0097943479195237159729f, 0.0087319677695631980896f, 0.015954691916704177856f, -0.0044644759036600589752f, 0.016056964173913002014f, 0.0083041200414299964905f, -0.0078048035502433776855f, 0.013723071664571762085f, -0.014841021969914436340f, 0.014872170984745025635f, 0.016431778669357299805f, 0.021685922518372535706f, 0.0097746336832642555237f, 0.018573233857750892639f, -0.012966430746018886566f, 0.0082483282312750816345f, 0.010746774263679981232f, -0.021890329197049140930f, 0.0078661059960722923279f, -0.020931072533130645752f, 0.011221501044929027557f, 0.0050341119058430194855f, 0.018698912113904953003f, 0.014175799675285816193f, 0.0010587103897705674171f, -0.012352982535958290100f, -0.016819370910525321960f, 0.018808877095580101013f, 0.0041055665351450443268f, 0.011403701268136501312f, -5.0900220230687409639e-05f, -0.0086584696546196937561f, 0.0074912728741765022278f, -0.0044193523935973644257f, -0.020129248499870300293f, 0.0025867759250104427338f, 0.012569183483719825745f, -0.0059180865064263343811f, 0.0074064130894839763641f, -0.011777414940297603607f, -0.0070124845951795578003f, -0.013034413568675518036f, 0.0022839219309389591217f, -0.0068828435614705085754f, 0.010802147909998893738f, 0.010238041169941425323f, -0.011762534268200397491f, -0.0027184083592146635056f, -0.0068281185813248157501f, -0.0020111869089305400848f, 0.0069941165857017040253f, 0.011088795959949493408f, -0.0023379409685730934143f, -0.013409607112407684326f, -0.020308027043938636780f, 0.0095891058444976806641f, -0.018968267366290092468f, 0.0087350131943821907043f, 0.020791711285710334778f, -0.010441583581268787384f, 0.0094909016042947769165f, 0.010104422457516193390f, -0.00057732226559892296791f, -0.020722616463899612427f, -0.016855888068675994873f, 0.018506424501538276672f, -0.0056634903885424137115f, -0.0031047922093421220779f, -0.011387219652533531189f, 0.0079103522002696990967f, -0.0025235160719603300095f, 0.011936632916331291199f, -0.0049198358319699764252f, 0.0023278098087757825851f, 0.016539711505174636841f, 0.00098839367274194955826f, 0.0084254108369350433350f, -0.0051003349944949150085f, 0.0076903221197426319122f, 0.0014262546319514513016f, 0.012717974372208118439f, -0.021649295464158058167f, -0.021280536428093910217f, 0.010007853619754314423f, 0.016290660947561264038f, -0.0010447017848491668701f, 0.0044038584455847740173f, 0.00076123262988403439522f, 0.0046673128381371498108f, -0.0067709754221141338348f, 0.0094569995999336242676f, 0.014464877545833587646f, 0.0048418985679745674133f, 0.0016535604372620582581f, 0.019553331658244132996f, -0.016443956643342971802f, 0.012649717740714550018f, 0.0091165788471698760986f, -0.011347034946084022522f, 4.3279545934638008475e-05f, 0.0025328779593110084534f, -0.018096752464771270752f, -0.020961614325642585754f, -0.014884098432958126068f, 0.0036659170873463153839f, -0.014908680692315101624f, 0.014336911030113697052f, -0.014291808940470218658f, -0.013974000699818134308f, 0.015908960253000259399f, -0.010745278559625148773f, -0.00046516949078068137169f, 0.0088708074763417243958f, 0.016991622745990753174f, -0.016814840957522392273f, -0.020012879744172096252f, -0.016062941402196884155f, -0.017914058640599250793f, -0.014712827280163764954f, 0.015008292160928249359f, 0.0051479660905897617340f, 0.0054197185672819614410f, -0.015158914960920810699f, -0.0053487536497414112091f, 0.013832558877766132355f, -0.018443934619426727295f, 0.0020631619263440370560f, 0.013631873764097690582f, 0.016541600227355957031f, -0.020262265577912330627f, -0.012670211493968963623f, -0.015198311768472194672f, -0.013903249055147171021f, -0.011066916398704051971f, -0.0072665405459702014923f, -0.0024600219912827014923f, 0.011348089203238487244f, -0.017540292814373970032f, -0.0064708082936704158783f, -0.0096561778336763381958f, -0.010723586194217205048f, -0.014468098990619182587f, -0.010135990567505359650f, -0.0024745862465351819992f, -0.0059486087411642074585f, -0.017618680372834205627f, -0.019408747553825378418f, 0.0057203387841582298279f, 0.0037133742589503526688f, -0.012793301604688167572f, 0.0020451995078474283218f, 0.0026081760879606008530f, 0.0040507782250642776489f, -0.013475630432367324829f, -0.00058579642791301012039f, 0.0074008600786328315735f, 0.019054342061281204224f, 0.010496499016880989075f, 0.0055932714603841304779f, 0.020553307607769966125f, -0.0071919355541467666626f, -0.0042062238790094852448f, 0.017463514581322669983f, 0.010665290988981723785f, -0.00079063273733481764793f, 0.015556709840893745422f, 0.010973179712891578674f, 0.0033190299291163682938f, 0.0019622202962636947632f, 0.0045709703117609024048f, 0.0082909325137734413147f, -0.020805690437555313110f, -0.0083806058391928672791f, -0.013302064500749111176f, 0.0014178304700180888176f, 0.021477825939655303955f, -9.2986483650747686625e-06f, 0.0060426117852330207825f, -0.0035198570694774389267f, -0.010902999900281429291f, 0.0011033017653971910477f, 0.014035980217158794403f, 0.014291919767856597900f, 0.0034105544909834861755f, -0.015814471989870071411f, -0.011245458386838436127f, 0.0088392477482557296753f, -0.010774746537208557129f, -0.012701787985861301422f, 0.015459471382200717926f, 0.015773391351103782654f, 0.021608222275972366333f, -0.0067296135239303112030f, -0.020235767588019371033f, 0.0095176463946700096130f, 0.00037775957025587558746f, 0.0069435350596904754639f, 0.0043953312560915946960f, -0.0081973718479275703430f, 0.021391699090600013733f, -0.0057811196893453598022f, -0.0061802924610674381256f, 0.019074872136116027832f, 0.014142253436148166656f, -0.014337680302560329437f, -0.0039888620376586914062f, -0.010061124339699745178f, -0.018352586776018142700f, -0.0070499428547918796539f, 0.021849727258086204529f, -0.010116971097886562347f, -0.0075771575793623924255f, -0.0068294964730739593506f, -0.011622675694525241852f, -0.013979651033878326416f, -0.0053820973262190818787f, 0.012795440852642059326f, 0.014466936700046062469f, -0.0085602747276425361633f, -0.015695665031671524048f, -0.0015930902445688843727f, -0.0025055378209799528122f, -0.0097661223262548446655f, 0.016876982524991035461f, -0.016662130132317543030f, 0.017879856750369071960f, 0.0027730071451514959335f, -0.011107889004051685333f, 0.019725920632481575012f, 0.0033151789102703332901f, -0.0029414864256978034973f, 0.021599717438220977783f, -0.010090779513120651245f, 0.014086398296058177948f, -0.0090110246092081069946f, 0.018303763121366500854f, 0.016510965302586555481f, 0.014346887357532978058f, 0.0040834923274815082550f, -0.0025072474963963031769f, -0.0055815754458308219910f, 0.0021229789126664400101f, -0.00075029820436611771584f, 0.016348075121641159058f, 0.014816703274846076965f, -0.0090751880779862403870f, 0.019855437800288200378f, 0.019432464614510536194f, 0.0075465408153831958771f, -0.020000299438834190369f, -0.018697265535593032837f, -0.019427955150604248047f, -0.014190327376127243042f, 0.0062169921584427356720f, 0.0059743816964328289032f, -0.020103909075260162354f, -0.0042964788153767585754f, 0.018780324608087539673f, -0.0046246577985584735870f, 0.0033486881293356418610f, 0.016852529719471931458f, 0.0061127445660531520844f, -0.012958155944943428040f, 0.012603022158145904541f, -0.018571859225630760193f, -0.013260167092084884644f, -0.017910147085785865784f, -0.014931832440197467804f, 0.011096914298832416534f, -0.0083154095336794853210f, 0.010909316129982471466f, -0.013032519258558750153f, 0.011425125412642955780f, -0.022058675065636634827f, 0.013902433216571807861f, 0.0042691966518759727478f, 0.017901884391903877258f, 0.010399334132671356201f, 0.0034734322689473628998f, 0.0076872953213751316071f, -0.011905828490853309631f, -0.014365647919476032257f, -0.017880296334624290466f, 0.018950400874018669128f, -0.0081309778615832328796f, 0.0021929952781647443771f, -0.011414030566811561584f, -0.0014883474214002490044f, 0.011359740048646926880f, -0.00053965352708473801613f, -0.0091875232756137847900f, -0.017951274290680885315f, -0.00035632788785733282566f, -0.0043737231753766536713f, -0.012658760882914066315f, 0.015146438963711261749f, 0.013700978830456733704f, 0.0036852809134870767593f, 0.0061596906743943691254f, -0.019240805879235267639f, 0.0057785171084105968475f, -0.019810369238257408142f, -0.0057268161326646804810f, 0.019347729161381721497f, -0.010865006595849990845f, 0.0059438990429043769836f, 0.0068071293644607067108f, 0.0069478577934205532074f, -0.014592058025300502777f, 0.0030034896917641162872f, 0.0074281762354075908661f, -0.0061094067059457302094f, -0.0052669914439320564270f, -0.0081782927736639976501f, 0.0012409191112965345383f, 0.0077684805728495121002f, -0.0041441442444920539856f, 0.0082962671294808387756f, 0.012960121035575866699f, -0.0014368966221809387207f, -7.3551520472392439842e-05f, -0.0068475296720862388611f, -0.0088429851457476615906f, -0.0016146694542840123177f, -0.012683622539043426514f, 0.016326500102877616882f, 0.021315373480319976807f, 0.0079876044765114784241f, -0.011311898007988929749f, -0.017866730690002441406f, 0.0082052983343601226807f, 0.011873057112097740173f, 0.0016480392077937722206f, -0.019463885575532913208f, -0.00092728069284930825233f, -0.017991941422224044800f, 0.0040621948428452014923f, 0.017324268817901611328f, -0.010405013337731361389f, -0.0057006799615919589996f, 0.0010384587803855538368f, -0.012878356501460075378f, 0.0097575196996331214905f, -0.010108587332069873810f, -0.010669998824596405029f, -0.0034751999191939830780f, -0.016523394733667373657f, 0.0055084982886910438538f, -0.00033420079853385686874f, 0.017432766035199165344f, 0.019060706719756126404f, -0.019511563703417778015f, 0.016390511766076087952f, -0.0017341900384053587914f, -0.0092035382986068725586f, 0.0051415781490504741669f, -0.019079938530921936035f, 0.0090149473398923873901f, 0.013633622787892818451f, -0.016835782676935195923f, -0.0085143111646175384521f, -0.0048548006452620029449f, -0.0039629102684557437897f, -0.010708937421441078186f, 0.00057367392582818865776f, 0.018193766474723815918f, 0.018864471465349197388f, 0.0037742080166935920715f, -0.0013428223319351673126f, -0.0061295372433960437775f, -0.020754169672727584839f, 0.020284073427319526672f, 0.012852883897721767426f, -0.0098556792363524436951f, -0.016193538904190063477f, -0.015713535249233245850f, -0.019520394504070281982f, 0.017088120803236961365f, -0.021075703203678131104f, -0.012732594273984432220f, -0.015686893835663795471f, 0.0065806824713945388794f, -0.012869102880358695984f, 0.0087136924266815185547f, 0.020738104358315467834f, 0.020750246942043304443f, -0.014795561321079730988f, -0.014250563457608222961f, -0.0054994495585560798645f, 0.016312165185809135437f, -0.018424024805426597595f, 0.015078021213412284851f, 0.016910620033740997314f, 0.018016779795289039612f, 0.0024970611557364463806f, -0.020316392183303833008f, 0.0086327726021409034729f, -0.0043366709724068641663f, 0.00063575094100087881088f, 0.0033582292962819337845f, 0.0027707363478839397430f, 0.0044514527544379234314f, -0.0028845223132520914078f, 0.00062288565095514059067f, -0.017081553116440773010f, 0.011126053519546985626f, -0.018621025606989860535f, 0.015650779008865356445f, -0.017215369269251823425f, 0.0059966375119984149933f, -0.020907288417220115662f, -0.015360718593001365662f, -0.011093606241047382355f, 0.014183552004396915436f, -0.018222784623503684998f, 0.017187030985951423645f, -0.014975934289395809174f, 0.012666882015764713287f, 0.010999697260558605194f, -0.0037622542586177587509f, -0.0039491518400609493256f, 0.0016787721542641520500f, 0.0079584736377000808716f, 0.0022285857703536748886f, 0.0038458392955362796783f, -0.021964700892567634583f, 0.011021406389772891998f, -0.0022049201652407646179f, -0.0018606700468808412552f, -0.0038510232698172330856f, 0.0096569200977683067322f, -0.0097235310822725296021f, -0.0092781810089945793152f, -0.014028441160917282104f, -0.019487816840410232544f, 0.014661690220236778259f, 0.018029831349849700928f, -0.0079560708254575729370f, 0.0068660271354019641876f, 0.012121067382395267487f, -0.010864664800465106964f, 0.0027520626317709684372f, 0.0082411970943212509155f, 0.018632719293236732483f, 0.011781350709497928619f, 0.010522263124585151672f, 0.020983327180147171021f, -0.010604489594697952271f, 0.013488432392477989197f, 0.018878551200032234192f, 0.021716929972171783447f, 0.017925947904586791992f, 0.014116844162344932556f, 0.0097671188414096832275f, -0.0043684048578143119812f, -0.0023241720627993345261f, -0.018137790262699127197f, 0.010005714371800422668f, 0.017750039696693420410f, -0.012003532610833644867f, -0.018952779471874237061f, -0.016977123916149139404f, 0.021965535357594490051f, 0.0072635035030543804169f, 0.012453041970729827881f, -0.018060807138681411743f, -0.0053279595449566841125f, -0.016147589311003684998f, 0.011561370454728603363f, -0.021654138341546058655f, -0.0048354999162256717682f, 0.018683552742004394531f, 0.00028918005409650504589f, 0.0074995285831391811371f, 0.014671794138848781586f, 0.0094754751771688461304f, -0.0030415877699851989746f, 0.017692837864160537720f, 0.0053138006478548049927f, 0.0058126142248511314392f, -0.011247890070080757141f, -0.019076760858297348022f, 0.022006070241332054138f, -0.016276119276881217957f, -0.016848959028720855713f, 0.018602348864078521729f, 0.014416745863854885101f, 0.012070201337337493896f, 0.0064361081458628177643f, 0.010869909077882766724f, 0.012912964448332786560f, 0.019940420985221862793f, -0.017213515937328338623f, 0.0070834364742040634155f, -0.015964059159159660339f, 0.010274281725287437439f, 0.0036816140636801719666f, 0.015013805590569972992f, 0.00093439826741814613342f, 0.0048334426246583461761f, 0.012516953051090240479f, -0.0096410969272255897522f, -0.00064575293799862265587f, 0.020552892237901687622f, -0.0035791445989161729813f, 0.015107832849025726318f, -0.013739719986915588379f, -0.0016243500867858529091f, 0.0032945375423878431320f, 0.018245492130517959595f, -0.021296370774507522583f, 0.0042018536478281021118f, -0.0029253100510686635971f, 0.0034116241149604320526f, 0.010181369259953498840f, 0.0081931706517934799194f, -0.020235460251569747925f, -0.0062577663920819759369f, 0.0061305463314056396484f, -0.0080190328881144523621f, -0.014132359996438026428f, 0.0098724719136953353882f, -0.016534756869077682495f, -0.0048286351375281810760f, -0.018339544534683227539f, -0.0024316702038049697876f, 0.00086344667943194508553f, 0.00098889938089996576309f, 0.017770227044820785522f, 0.010569805279374122620f, -0.013005874119699001312f, -0.018003940582275390625f, 0.014225183054804801941f, 0.021758073940873146057f, 0.010445008054375648499f, 0.013067235238850116730f, -0.010233965702354907990f, -0.015342145226895809174f, 0.021254159510135650635f, 0.013240432366728782654f, 0.0084321331232786178589f, 0.020292274653911590576f, 0.0022162999957799911499f, 0.021890282630920410156f, -0.0019116203766316175461f, 0.0083272503688931465149f, -0.0046568945981562137604f, -0.0014247847720980644226f, 0.021259028464555740356f, 0.0044281715527176856995f, 0.0052998792380094528198f, 0.0074717113748192787170f, 0.0060906540602445602417f, -0.015607718378305435181f, -0.014495188370347023010f, 0.015145421959459781647f, -0.020994341000914573669f, 0.0037675250787287950516f, -0.016086632385849952698f, -0.018346183001995086670f, -0.019649473950266838074f, 0.018580714240670204163f, -0.015631183981895446777f, 0.0084417294710874557495f, -0.019210422411561012268f, -0.0066981562413275241852f, 0.00084072950994595885277f, -0.0043041706085205078125f, 0.0046492926776409149170f, -0.019559379667043685913f, -0.020798170939087867737f, -0.0017948920140042901039f, -0.018740171566605567932f, 0.0072473902255296707153f, -0.017442604526877403259f, -0.016714481636881828308f, 0.00052379578119143843651f, -0.011880337260663509369f, -0.021091738715767860413f, -0.012520429678261280060f, -0.00014167136396281421185f, -0.013035543262958526611f, 0.018439516425132751465f, -0.014033225364983081818f, -0.0076660136692225933075f, -0.017046468332409858704f, -0.020082617178559303284f, 0.0078223887830972671509f, -0.0072813606821000576019f, 0.010060792788863182068f, -0.0087759690359234809875f, 0.012177981436252593994f, -0.017031619325280189514f, -0.018686603754758834839f, -0.011615763418376445770f, 0.011302660219371318817f, -0.0057465275749564170837f, 0.0059171514585614204407f, 0.0018931757658720016479f, -0.016985543072223663330f, -4.1933479224098846316e-05f, 0.019963400438427925110f, -0.014400853775441646576f, 0.019484203308820724487f, 0.021219052374362945557f, -0.0062709767371416091919f, 0.014855878427624702454f, 0.0031429668888449668884f, 0.0069704987108707427979f, -0.00053616322111338376999f, 0.0053900154307484626770f, 0.0055615822784602642059f, -0.0043478053994476795197f, -0.0083455918356776237488f, -0.0077974330633878707886f, 0.0068696015514433383942f, -0.0045798108913004398346f, 0.0069462037645280361176f, 0.018857395276427268982f, 0.0036612360272556543350f, 0.0044279401190578937531f, -0.018218778073787689209f, -0.018368786200881004333f, 0.0094994334504008293152f, 0.020238317549228668213f, 0.0067527890205383300781f, 0.0022032579872757196426f, -0.0080259004607796669006f, -0.0020859607029706239700f, 0.020663460716605186462f, -0.0025971520226448774338f, 0.018596734851598739624f, 0.0013173392508178949356f, -0.0091779371723532676697f, 0.020538952201604843140f, -0.018749263137578964233f, -0.018451083451509475708f, -0.0021112225949764251709f, -0.017487697303295135498f, -0.013549471274018287659f, -0.020112976431846618652f, 0.013024576939642429352f, 0.021526077762246131897f, -0.021358296275138854980f, -0.017413631081581115723f, -0.021811386570334434509f, -0.016567097976803779602f, -0.021828705444931983948f, -0.011268288828432559967f, -0.0096651203930377960205f, -0.012686433270573616028f, -0.0023278705775737762451f, 0.0027553897816687822342f, -0.0044679213315248489380f, 0.0083784302696585655212f, 0.0060343169607222080231f, -0.014087046496570110321f, -0.0031776430550962686539f, -0.0040877149440348148346f, -0.0052051041275262832642f, 0.0025978211779147386551f, 0.0043840464204549789429f, -0.0033045394811779260635f, -0.010352346114814281464f, 0.0050177955999970436096f, -0.00014271448890212923288f, -0.019406992942094802856f, -0.017580790445208549500f, 0.0068051167763769626617f, -0.011799165047705173492f, -0.0042325998656451702118f, 0.018851231783628463745f, 0.011226318776607513428f, -0.012688434682786464691f, 0.0036452019121497869492f, -0.013434500433504581451f, -0.0087641924619674682617f, 0.0058405180461704730988f, 0.010156376287341117859f, -0.021404204890131950378f, 0.0041562137193977832794f, -0.011498199775815010071f, 0.011885036714375019073f, -0.0029474450275301933289f, 0.0050550745800137519836f, 0.015184861607849597931f, -0.00017601577565073966980f, 0.0069803874939680099487f, -0.0047068991698324680328f, 0.0084709972143173217773f, 0.0076681212522089481354f, -0.00010134736658073961735f, -0.020663825795054435730f, -0.012318406254053115845f, -0.0010424443753436207771f, -0.021547537297010421753f, -0.0060039581730961799622f, -0.0029801034834235906601f, -0.0032585177104920148849f, 0.012586902827024459839f, -0.016887346282601356506f, -0.019061865285038948059f, -0.0067488825879991054535f, -0.021014260128140449524f, -0.00086489808745682239532f, 0.017293177545070648193f, 0.0021536459680646657944f, 0.019626775756478309631f, -0.00070221914211288094521f, 0.0079786647111177444458f, 0.0043739285320043563843f, -0.014791320078074932098f, -0.013672851026058197021f, 0.015494011342525482178f, -0.0010891904821619391441f, 0.012130479328334331512f, 0.0095698712393641471863f, 0.012435638345777988434f, -0.020892323926091194153f, 0.011109197512269020081f, -0.014126433059573173523f, 0.013639394193887710571f, 0.010879766196012496948f, -0.017553005367517471313f, -0.011770349927246570587f, 0.021640868857502937317f, -0.011445782147347927094f, 0.019232288002967834473f, -0.0075031584128737449646f, -0.0035406223032623529434f, 0.012327600270509719849f, -0.0017846925184130668640f, 0.021658001467585563660f, -0.0058446852490305900574f, 0.014631222933530807495f, 0.021854747086763381958f, 0.016614282503724098206f, -0.0029864809475839138031f, -0.0065412330441176891327f, 0.012066505849361419678f, -0.014218552969396114349f, -0.013094454072415828705f, 0.013119841925799846649f, 0.0077168745920062065125f, -0.0023487384896725416183f, 0.017634684219956398010f, -0.017309768125414848328f, 0.0095170084387063980103f, 0.0047555607743561267853f, -0.019241081550717353821f, -0.0046684034168720245361f, -0.0017725067446008324623f, 0.00025450636167079210281f, 0.012364657595753669739f, -0.012926962226629257202f, 0.017077375203371047974f, -0.0038508705329149961472f, -0.010421131737530231476f, 0.013837892562150955200f, 0.019437886774539947510f, 0.010403772816061973572f, -0.014873785898089408875f, -0.014117120765149593353f, -0.018906490877270698547f, 0.010598222725093364716f, -0.0014800498029217123985f, -0.010873146355152130127f, 0.0089891115203499794006f, 0.019604189321398735046f, -0.0022917452733963727951f, 0.0035182344727218151093f, -0.00086004595505073666573f, -0.00094016449293121695518f, -0.0052927723154425621033f, 0.020088886842131614685f, -0.016620738431811332703f, 0.00026067826547659933567f, 0.019598292186856269836f, -0.021669238805770874023f, 0.016920255497097969055f, 0.019765278324484825134f, 0.0012977462029084563255f, 0.015924198552966117859f, -0.022047404199838638306f, -0.019510529935359954834f, 0.012603833340108394623f, 0.0071132471784949302673f, 0.013684262521564960480f, 0.014972180128097534180f, 0.015402156859636306763f, 0.0079991556704044342041f, 0.0044086184352636337280f, 0.0013315717224031686783f, 0.0042896638624370098114f, -0.016957236453890800476f, -0.00047009540139697492123f, -0.0091672055423259735107f, 0.0040567684918642044067f, 0.017011869698762893677f, -0.017778977751731872559f, -0.019127035513520240784f, 0.0044502145610749721527f, -0.017685897648334503174f, -0.010719304904341697693f, 0.0081886192783713340759f, 0.0048447460867464542389f, -0.0077170273289084434509f, -0.021768596023321151733f, 0.0042698523029685020447f, -0.021349987015128135681f, -0.011567046865820884705f, 0.0030409635510295629501f, -0.0035867309197783470154f, -0.0037427060306072235107f, 0.021070733666419982910f, -0.0094192251563072204590f, 0.00014368387928698211908f, -0.019666474312543869019f, 0.017747838050127029419f, -0.018302148208022117615f, -0.00064179114997386932373f, 0.0048402757383882999420f, -0.0028048807289451360703f, -0.0044790902175009250641f, 0.00099797151051461696625f, 0.0057411515153944492340f, -0.017323795706033706665f, 0.0075157969258725643158f, -0.015857545658946037292f, -0.011419208720326423645f, -0.014056455343961715698f, 0.014178947545588016510f, -0.0096121840178966522217f, -0.00057974568335339426994f, 0.0042387824505567550659f, 0.016445726156234741211f, -0.011641839519143104553f, 0.0047978125512599945068f, 0.0052894819527864456177f, -0.011924668215215206146f, -0.011098516173660755157f, 0.0044237752445042133331f, -0.019264254719018936157f, 0.00068267359165474772453f, 0.019742028787732124329f, -0.020653244107961654663f, -0.011530742980539798737f, 0.00026870195870287716389f, 0.0087108630686998367310f, 0.0051876287907361984253f, 0.0074985800310969352722f, -0.0041205943562090396881f, -0.0026305506471544504166f, 0.0083140190690755844116f, -0.021385321393609046936f, 0.0030766751151531934738f, -0.00044007893302477896214f, -0.019672030583024024963f, 0.010698745958507061005f, -0.020606746897101402283f, -0.0092200841754674911499f, 0.00054974242812022566795f, -0.0092150634154677391052f, 0.0011559141566976904869f, -0.0021410861518234014511f, -0.0058847353793680667877f, -0.00035678359563462436199f, 0.011156370863318443298f, 0.013187700882554054260f, -0.00048946717288345098495f, -0.019187815487384796143f, -0.019171932712197303772f, -0.010372112505137920380f, -0.019435655325651168823f, -0.0085422042757272720337f, 0.019544312730431556702f, -0.0081959757953882217407f, -0.0016896856250241398811f, 0.0069426577538251876831f, -0.012543726712465286255f, 0.0034427784848958253860f, -0.021593112498521804810f, -0.014019461348652839661f, -0.021160777658224105835f, -0.0050776149146258831024f, 0.0058575239963829517365f, -0.017903581261634826660f, 0.0073084766045212745667f, -0.012683237902820110321f, -0.0010026524541899561882f, -0.010364360176026821136f, 0.0046606720425188541412f, 0.021050350740551948547f, 0.017421426251530647278f, 0.0064566917717456817627f, 0.021788885816931724548f, 0.013278456404805183411f, 0.0075970087200403213501f, -0.019172100350260734558f, 0.0092382179573178291321f, -0.018572509288787841797f, 0.0044458997435867786407f, 0.013740707188844680786f, -0.012776669114828109741f, 0.014822653494775295258f, 0.0039903395809233188629f, -0.0030761878006160259247f, -0.011081167496740818024f, 0.0086934696882963180542f, -0.012372692115604877472f, 0.0058889156207442283630f, 0.0031544123776257038116f, 0.017644690349698066711f, -0.0038339802995324134827f, -0.011409462429583072662f, -0.016388872638344764709f, -0.015846187248826026917f, 0.0069790859706699848175f, 0.0017830224242061376572f, 0.015609872527420520782f, 0.017799006775021553040f, 0.0011988407932221889496f, -0.013353959657251834869f, -0.0061096176505088806152f, -0.0070719304494559764862f, -0.016312405467033386230f, 0.016841998323798179626f, -0.0081445565447211265564f, -0.0057895598001778125763f, -0.012132791802287101746f, 0.0036145190242677927017f, -0.021625313907861709595f, -0.015173117630183696747f, 0.021068708971142768860f, 0.0020721787586808204651f, -0.014078928157687187195f, 0.018440758809447288513f, -0.0044382605701684951782f, 0.014349305070936679840f, -0.0046649868600070476532f, 0.016568018123507499695f, -0.021397167816758155823f, 0.0058991652913391590118f, -0.012990935705602169037f, 0.017010480165481567383f, -0.0069061797112226486206f, 0.0043578180484473705292f, 0.015227713622152805328f, -0.0093069402500987052917f, 0.019259734079241752625f, -0.0075745419599115848541f, 0.021793467923998832703f, 0.0070623601786792278290f, -0.011693540029227733612f, 0.020367978140711784363f, 0.020541528239846229553f, 0.0013086148537695407867f, 0.0033664347138255834579f, -0.00022272765636444091797f, -0.0064449589699506759644f, -0.010133171454071998596f, 0.015568218193948268890f, 0.014795861206948757172f, 0.0068000750616192817688f, 0.011713923886418342590f, 0.0048260590992867946625f, 0.0033895100932568311691f, 0.0035852717701345682144f, -0.016436275094747543335f, 0.017239006236195564270f, -0.017829997465014457703f, 0.0083250217139720916748f, -0.010726686567068099976f, 0.017402520403265953064f, -0.00026392357540316879749f, -0.020046576857566833496f, -0.0071102362126111984253f, -0.0017048716545104980469f, -0.0086635481566190719604f, -0.014302372001111507416f, -0.021434014663100242615f, -0.018969660624861717224f, 0.016815051436424255371f, -0.0073790410533547401428f, 0.018423419445753097534f, -0.016924543306231498718f, 0.0097234090790152549744f, 0.011208300478756427765f, 0.014300059527158737183f, -0.010163575410842895508f, 0.022079888731241226196f, -0.016036612913012504578f, -0.0068328441120684146881f, -0.0061895991675555706024f, -0.017135636880993843079f, 0.011740786954760551453f, -0.0073265735991299152374f, -0.0034206619020551443100f, -0.0052173896692693233490f, -0.016205769032239913940f, 0.012313066981732845306f, -0.020035039633512496948f, 0.0045913564972579479218f, -0.0079848309978842735291f, 0.0033131162635982036591f, -0.0040396675467491149902f, -0.011057897470891475677f, 0.011241617612540721893f, -0.00056775752454996109009f, 0.017107410356402397156f, -0.0032557544764131307602f, -0.0089139314368367195129f, 0.0046505676582455635071f, -0.0025636374484747648239f, 0.012052048929035663605f, -0.0091065559536218643188f, 0.012422414496541023254f, 0.018764421343803405762f, 0.020001806318759918213f, -0.0037147863768041133881f, -0.00031365419272333383560f, 0.0066249337978661060333f, -0.011541100218892097473f, -0.014514065347611904144f, 0.016779316589236259460f, 0.016391156241297721863f, 0.00076173839624971151352f, -0.017210453748703002930f, -0.0058364192955195903778f, -0.021271359175443649292f, -0.0019263875437900424004f, 0.0074897794984281063080f, 0.0071281041018664836884f, -0.0056573869660496711731f, 0.016042402014136314392f, -0.0060294042341411113739f, -0.0061843176372349262238f, -0.0024892217479646205902f, -0.0071075917221605777740f, -0.013877347111701965332f, -0.018512211740016937256f, -0.0059714601375162601471f, -0.00099789514206349849701f, -0.018953790888190269470f, -0.011874853633344173431f, 0.021253278478980064392f, -0.0066314456053078174591f, -0.014145551249384880066f, 0.0051081636920571327209f, -0.011603053659200668335f, -0.0071905790828168392181f, -0.0055361068807542324066f, -0.015028762631118297577f, -0.0098115755245089530945f, -0.017343943938612937927f, 0.0098180556669831275940f, -0.0096328807994723320007f, 0.018440067768096923828f, -0.016752192750573158264f, 0.013414064422249794006f, 0.017625242471694946289f, 0.019656870514154434204f, 0.0074004703201353549957f, -0.021923180669546127319f, 0.0086989644914865493774f, 0.0038720124866813421249f, -0.0068992730230093002319f, -0.0014023336116224527359f, 0.019822051748633384705f, 0.00090958958026021718979f, -0.0044529014267027378082f, -0.019512496888637542725f, 0.018808141350746154785f, -0.0084736580029129981995f, -0.013392879627645015717f, 0.017367290332913398743f, -0.0025258420500904321671f, 0.0097681172192096710205f, -0.015416200272738933563f, -0.0068067661486566066742f, -0.019803093746304512024f, 0.016409985721111297607f, 0.0029208688065409660339f, 0.0053210631012916564941f, -0.019750270992517471313f, -0.018230337649583816528f, -0.012074876576662063599f, 0.0096159931272268295288f, 0.0082831438630819320679f, 0.018479647114872932434f, 0.016293665394186973572f, 0.016700580716133117676f, -0.018043231219053268433f, 0.0069484240375459194183f, 0.018844943493604660034f, 0.0090456483885645866394f, -0.0050075300969183444977f, 0.012551515363156795502f, -0.0064445952884852886200f, -0.020459396764636039734f, -0.0035856931935995817184f, 0.015531221404671669006f, -0.0049830931238830089569f, 0.015420623123645782471f, 0.0054096505045890808105f, -0.012877036817371845245f, 0.0061338678933680057526f, -0.0082174157723784446716f, 0.021766118705272674561f, 0.0039872974157333374023f, -0.017804909497499465942f, -0.017094809561967849731f, -0.010315258987247943878f, 0.010965859517455101013f, 0.011695653200149536133f, -0.021944956853985786438f, -0.019217671826481819153f, 0.0099708354100584983826f, 0.019579976797103881836f, 0.0073337596841156482697f, -0.013711662963032722473f, 0.018318053334951400757f, -0.0019166332203894853592f, 0.011061993427574634552f, -0.021541669964790344238f, 0.020396685227751731873f, 0.013336861506104469299f, -0.014878361485898494720f, 0.020933130756020545959f, 0.0084347454831004142761f, 0.0021880273707211017609f, -0.015093505382537841797f, -0.0049771661870181560516f, -0.0032402707729488611221f, 0.0025092442519962787628f, -0.020209405571222305298f, 0.0050076646730303764343f, 0.011186270974576473236f, 0.0060390136204659938812f, 0.010517116636037826538f, -0.0085005899891257286072f, 0.017460716888308525085f, -0.010333395563066005707f, 0.00048013162449933588505f, 0.012943075969815254211f, -0.021424910053610801697f, 0.013393180444836616516f, 0.013294443488121032715f, 0.0013440813636407256126f, -0.014783499762415885925f, -0.0096193859353661537170f, -0.015273735858500003815f, -0.011023308150470256805f, 0.015250895172357559204f, -0.010866052471101284027f, 0.0057366313412785530090f, 0.021613271906971931458f, -0.0089291175827383995056f, 0.011292628943920135498f, 0.017932249233126640320f, 0.020751893520355224609f, 0.0095952562987804412842f, -0.020991602912545204163f, 2.6191632059635594487e-05f, 0.010406067594885826111f, -0.011626402847468852997f, -0.0030704820528626441956f, -0.0027280363719910383224f, -0.0046705347485840320587f, -0.0093441931530833244324f, 0.0036231169942766427994f, 0.012584224343299865723f, 0.016485048457980155945f, -0.0010290864156559109688f, -0.0096817528828978538513f, -0.019850421696901321411f, -0.015506871044635772705f, 0.020941153168678283691f, 0.016854422166943550110f, 0.012268715538084506989f, -0.020896302536129951477f, -0.018255114555358886719f, -0.0028989575803279876709f, 0.0027655311860144138336f, 0.0045108189806342124939f, 0.0040853284299373626709f, 0.0029665981419384479523f, 0.0085849994793534278870f, -0.019525775685906410217f, -0.0072136330418288707733f, -0.013085079379379749298f, -0.00087973114568740129471f, -0.0092094652354717254639f, -0.018198311328887939453f, -0.0090056220069527626038f, -0.019760986790060997009f, -0.017756000161170959473f, 0.0054946080781519412994f, 0.017595136538147926331f, 0.018446508795022964478f, -0.010505997575819492340f, 0.0035128344316035509109f, -0.00013795981067232787609f, -0.0062511572614312171936f, 0.011435717344284057617f, 4.0566341340309008956e-05f, 0.017045354470610618591f, -0.018941070884466171265f, 0.016101291403174400330f, 0.015167281031608581543f, -0.012927881442010402679f, 0.017251450568437576294f, 0.0020454523619264364243f, -0.016850078478455543518f, 0.021402977406978607178f, -0.0046035051345825195312f, 0.015465556643903255463f, 0.0059370789676904678345f, -0.0091664018109440803528f, 0.012815241701900959015f, 0.018798161298036575317f, 0.0016810770612210035324f, 0.018144773319363594055f, 0.010800838470458984375f, -0.0062665962614119052887f, 0.021465616300702095032f, 0.013769569806754589081f, 0.021111965179443359375f, 0.020401252433657646179f, 0.021617876365780830383f, -0.020973242819309234619f, 0.0018262334633618593216f, 0.012138674035668373108f, -0.016781844198703765869f, -0.021820206195116043091f, 0.016174424439668655396f, 0.0031385915353894233704f, -0.015624871477484703064f, -0.018303148448467254639f, -0.012520560994744300842f, -0.0021599363535642623901f, 0.012006631121039390564f, 0.00014460319653153419495f, 0.016718961298465728760f, 0.0041777323931455612183f, -0.00047947306302376091480f, 0.018661925569176673889f, -0.014989913441240787506f, -0.0023747140076011419296f, 0.0080189378932118415833f, 0.013903178274631500244f, 0.018903302028775215149f, -0.015488318167626857758f, 0.0063668186776340007782f, -0.011009709909558296204f, -0.0070388792082667350769f, -0.0044691804796457290649f, 0.0052337427623569965363f, 0.021217631176114082336f, 0.020134631544351577759f, 0.0071080634370446205139f, 0.0071021150797605514526f, 0.019776180386543273926f, 0.011371348984539508820f, -0.0055876341648399829865f, 0.0078152976930141448975f, 0.018144290894269943237f, 0.011628926731646060944f, 0.0014540372649207711220f, -0.011792883276939392090f, 0.0096348039805889129639f, 0.0042583462782204151154f, -0.0075955153442919254303f, -0.0034472777042537927628f, 0.018289880827069282532f, 0.019247708842158317566f, 0.00098431855440139770508f, 0.016961503773927688599f, 0.019232319667935371399f, 0.013612828217446804047f, 0.014283026568591594696f, 0.011741382069885730743f, -0.014707872644066810608f, -0.016062803566455841064f, -0.021339362487196922302f, 0.0043892990797758102417f, -0.018405953422188758850f, 0.012858078815042972565f, -0.0047719399444758892059f, 0.0022921168711036443710f, 0.0097662834450602531433f, 0.014888450503349304199f, 0.014917426742613315582f, 0.010522542521357536316f, 0.017139751464128494263f, 0.0089321946725249290466f, 0.0011699964525178074837f, -0.0051466254517436027527f, -0.0021431541536003351212f, -0.015419829636812210083f, 0.018731653690338134766f, -0.00085940322605893015862f, -0.019780408591032028198f, -0.017212914302945137024f, 0.0080581717193126678467f, 0.0039333254098892211914f, -0.012963693588972091675f, 0.0077169560827314853668f, 0.017260888591408729553f, -0.0097216581925749778748f, -0.0084586087614297866821f, 0.014614711515605449677f, 0.0030805999413132667542f, 0.021426189690828323364f, -0.015272371470928192139f, -0.013927547261118888855f, -0.014453304931521415710f, 0.011247639544308185577f, -0.016930837184190750122f, 0.0022073804866522550583f, -0.011095900088548660278f, -0.012017351575195789337f, 0.010290700942277908325f, -0.018573891371488571167f, 0.0076411548070609569550f, -0.0020192817319184541702f, 0.0095492880791425704956f, -0.0042060473933815956116f, -0.018466344103217124939f, 0.0087240496650338172913f, 0.0011720564216375350952f, 0.019084013998508453369f, -0.011251654475927352905f, -0.012277323752641677856f, -0.017229212448000907898f, 0.0073697953484952449799f, -0.0098273251205682754517f, -0.0076591256074607372284f, 0.0017009782604873180389f, -0.0076832910999655723572f, -0.015957795083522796631f, -0.015960242599248886108f, -0.013325344771146774292f, 0.021302612498402595520f, 0.0017610164359211921692f, 0.019597232341766357422f, 0.0057696215808391571045f, 0.014568972401320934296f, -0.0058954008854925632477f, -0.010035092942416667938f, -0.016243759542703628540f, 0.0063501549884676933289f, -0.010387944057583808899f, 0.017726248130202293396f, -0.010212861001491546631f, -0.0056591574102640151978f, 0.0088751725852489471436f, -0.015920165926218032837f, 0.011982482858002185822f, 0.022085459902882575989f, 0.00042342304368503391743f, -0.0083898622542619705200f, 0.018469538539648056030f, 0.014096542261540889740f, 0.018987819552421569824f, -0.017896309494972229004f, -0.0034011295065283775330f, 0.016716793179512023926f, 0.0082871317863464355469f, 0.012313704937696456909f, -0.017055733129382133484f, 0.0041947965510189533234f, 0.021501138806343078613f, -0.0028672711923718452454f, 0.020875163376331329346f, -0.00015333812916651368141f, -0.018812211230397224426f, -0.0092436391860246658325f, -0.0012025628238916397095f, -0.015292686410248279572f, -0.0049888091161847114563f, -0.0069692209362983703613f, -0.0091796936467289924622f, 0.013339627534151077271f, -0.0098296459764242172241f, 0.012383547611534595490f, -0.021931536495685577393f, -0.021987250074744224548f, 0.0042591709643602371216f, -0.011291058734059333801f, -0.0096033569425344467163f, -0.012747693806886672974f, -0.014528031460940837860f, -0.0049313181079924106598f, 0.0042750076390802860260f, 0.012551355175673961639f, 0.0091563602909445762634f, -0.0091760195791721343994f, -0.0042547453194856643677f, -0.017247514799237251282f, 0.022087084129452705383f, -0.020996911451220512390f, 0.011735705658793449402f, -0.020776212215423583984f, 0.0063427737914025783539f, 0.019238002598285675049f, 0.021830171346664428711f, 0.0093270894140005111694f, -0.0081891957670450210571f, -0.017451187595725059509f, 0.0024258724879473447800f, 0.0078183244913816452026f, 0.0087488954886794090271f, -0.021389169618487358093f, 0.011864266358315944672f, 0.0067288917489349842072f, -0.0042663910426199436188f, 0.017878985032439231873f, 0.0087163867428898811340f, -0.0096857063472270965576f, -0.022035323083400726318f, 0.0061457375995814800262f, -0.017857465893030166626f, -0.0074442895129323005676f, -0.018132688477635383606f, 0.012673199176788330078f, 0.0042155594564974308014f, 0.015915432944893836975f, 0.015055743977427482605f, 0.0063361781649291515350f, -0.013113201595842838287f, 0.0058335452340543270111f, 0.016206407919526100159f, -0.0093899909406900405884f, -0.019249264150857925415f, -0.0070701520889997482300f, 0.012512239627540111542f, 0.019214885309338569641f, -0.0081123858690261840820f, 0.0073052314110100269318f, -0.00025087912217713892460f, -0.019625592976808547974f, 0.0072579109109938144684f, 0.0022552725858986377716f, 0.012679099105298519135f, -0.021024880930781364441f, -0.0036963575985282659531f, -0.010579206049442291260f, -0.0033917254768311977386f, -0.015043690800666809082f, 0.00080171471927314996719f, 0.0032326262444257736206f, -0.0088365348055958747864f, 0.0053599569946527481079f, 0.0022038770839571952820f, -0.0021892441436648368835f, 0.017238998785614967346f, -0.021893152967095375061f, 0.015545985661447048187f, 0.017844319343566894531f, 0.017628654837608337402f, -0.012284963391721248627f, -0.019029699265956878662f, -0.010690527036786079407f, -0.021287772804498672485f, -0.0020870224107056856155f, 0.019442288205027580261f, 0.0056886994279921054840f, 0.015743970870971679688f, -0.0039005801081657409668f, 0.021955696865916252136f, -0.017739973962306976318f, -0.019570048898458480835f, 0.015230169519782066345f, -0.020676877349615097046f, -0.010919763706624507904f, -0.013286061584949493408f, -0.0037278411909937858582f, 0.016576124355196952820f, -0.018792146816849708557f, 0.019457034766674041748f, -0.0096801929175853729248f, 0.021266767755150794983f, -0.014045392163097858429f, 0.018234152346849441528f, 0.017247350886464118958f, -0.0029168701730668544769f, 0.012586107477545738220f, 0.0055781090632081031799f, 0.0092676253989338874817f, 0.015758678317070007324f, -0.020974921062588691711f, 0.0032910760492086410522f, -0.0021355571225285530090f, -0.021227249875664710999f, -0.0040487577207386493683f, 0.0021124396007508039474f, -0.0037335047964006662369f, 0.0097410269081592559814f, -0.018080241978168487549f, 0.015921354293823242188f, 0.0060139680281281471252f, 0.0063570667989552021027f, -0.010057394392788410187f, -0.0081160999834537506104f, -0.021882129833102226257f, 0.0019468077225610613823f, -0.018638322129845619202f, -7.9641737102065235376e-05f, -0.0021244909148663282394f, 0.0099832974374294281006f, 0.0059631653130054473877f, -0.0035891649313271045685f, 0.0082206241786479949951f, -0.0021982479374855756760f, 0.013788649812340736389f, 0.0011851772433146834373f, 0.0038495245389640331268f, 0.0060554165393114089966f, 0.0058477725833654403687f, -0.0034847592469304800034f, 0.00047574043856002390385f, -0.019026996567845344543f, 0.015622437931597232819f, -0.011911758221685886383f, -0.0067951651290059089661f, -0.014986789785325527191f, 0.019520282745361328125f, 0.0013558219652622938156f, 0.0034763643052428960800f, 0.010981724597513675690f, -0.016363764181733131409f, 0.018263516947627067566f, 0.012304935604333877563f, 0.0076780123636126518250f, -0.0062934751622378826141f, -0.012136706151068210602f, 0.012594676576554775238f, 0.016422716900706291199f, -0.0036328264977782964706f, -0.0098145417869091033936f, -0.019141633063554763794f, 0.016686080023646354675f, 