// This file is computer-generated by onnx2c 
// (TODO: add creating command line here)
// (TODO: print creation date here )

// ONNX model:
// produced by pytorch, version 2.5.1
// ONNX IR version: 17
// Model documentation: 
/*

*/

#include <float.h>
#include <math.h>
#include <stdbool.h>
#include <stdint.h>
#include <string.h>

#define MAX(X,Y) ( X > Y ? X : Y)
#define MIN(X,Y) ( X < Y ? X : Y)
#define CLIP(X,L) ( MAX(MIN(X,L), -L) )

#if __STDC_VERSION__ < 199901L
#define FUNC_PREFIX
#else
#define FUNC_PREFIX static inline
#endif

static const float tensor_fc1_weight[4][2048] = 
{
  {-0.0094085279852151870728f, -0.016824580729007720947f, -0.0061728418804705142975f, -0.016591832041740417480f, -0.028752082958817481995f, -0.0052412394434213638306f, 0.029026299715042114258f, 0.10314062982797622681f, 0.093362033367156982422f, 0.062368266284465789795f, 0.081905379891395568848f, 0.053868267685174942017f, 0.10437631607055664062f, 0.029224108904600143433f, -0.097257219254970550537f, 0.081120997667312622070f, 0.023991353809833526611f, 0.058092340826988220215f, -0.0050756740383803844452f, -0.0062790834344923496246f, 0.037455141544342041016f, 0.060887433588504791260f, 0.12531675398349761963f, 0.16691866517066955566f, 0.12022566795349121094f, 0.082769908010959625244f, 0.053820826113224029541f, 0.074552334845066070557f, 0.079359672963619232178f, 0.048990599811077117920f, -0.039174243807792663574f, 0.13072718679904937744f, -0.019684040918946266174f, 0.041083566844463348389f, 0.018527740612626075745f, 0.052895292639732360840f, 0.11752896010875701904f, 0.10601899772882461548f, 0.15815649926662445068f, 0.20958454906940460205f, 0.22874051332473754883f, 0.17228680849075317383f, 0.30098962783813476562f, 0.25114578008651733398f, 0.25510340929031372070f, 0.24335592985153198242f, 0.18699127435684204102f, 0.26922711730003356934f, 0.0042438977397978305817f, -0.0034895867574959993362f, 0.12982752919197082520f, 0.18342073261737823486f, 0.26079553365707397461f, 0.31592795252799987793f, 0.36915361881256103516f, 0.35993611812591552734f, 0.24083194136619567871f, 0.17311164736747741699f, 0.27089220285415649414f, 0.28116592764854431152f, 0.32294604182243347168f, 0.34074959158897399902f, 0.33801412582397460938f, 0.30472430586814880371f, 0.013191633857786655426f, 0.036500923335552215576f, 0.067164972424507141113f, 0.14148490130901336670f, 0.23329626023769378662f, 0.26584687829017639160f, 0.30033949017524719238f, 0.30875378847122192383f, 0.20552851259708404541f, 0.15669593214988708496f, 0.25064826011657714844f, 0.30944576859474182129f, 0.29897910356521606445f, 0.29736772179603576660f, 0.26493290066719055176f, 0.25489687919616699219f, -0.0088476426899433135986f, 0.039048474282026290894f, 0.065251074731349945068f, 0.051200784742832183838f, 0.13116572797298431396f, 0.072808265686035156250f, 0.14518187940120697021f, 0.15754328668117523193f, 0.16504520177841186523f, 0.11171961575746536255f, 0.14536415040493011475f, 0.11355974525213241577f, -0.019031727686524391174f, 0.046972732990980148315f, 0.047052513808012008667f, 0.13614982366561889648f, 0.0060191527009010314941f, -0.014449838548898696899f, -0.014911550097167491913f, 0.0059615010395646095276f, -0.00017811126599553972483f, -0.0089448355138301849365f, 0.082555577158927917480f, 0.10324779152870178223f, 0.12407706677913665771f, 0.060039240866899490356f, 0.049608744680881500244f, -0.032345384359359741211f, -0.062063712626695632935f, -0.020238198339939117432f, -0.11391779780387878418f, 0.094911910593509674072f, 0.027785096317529678345f, 0.014687793329358100891f, -0.015868145972490310669f, 0.013316958211362361908f, -0.039330627769231796265f, -0.078660234808921813965f, 0.012252626940608024597f, 0.020439507439732551575f, 0.028431823477149009705f, 0.075068108737468719482f, 0.021464187651872634888f, -0.037643406540155410767f, -0.076350525021553039551f, -0.057450126856565475464f, -0.23490391671657562256f, 0.090080723166465759277f, 0.054601557552814483643f, -0.0015033592935651540756f, 0.021301420405507087708f, 0.030562797561287879944f, 0.074473343789577484131f, -0.0073947780765593051910f, 0.054611444473266601562f, 0.13104122877120971680f, 0.092264957726001739502f, 0.092255204916000366211f, 0.092526271939277648926f, -0.018554756417870521545f, 0.038135342299938201904f, -0.020045284181833267212f, -0.13499499857425689697f, 0.020145071670413017273f, 0.032942891120910644531f, 0.031270727515220642090f, 0.055998619645833969116f, 0.055685643106698989868f, 0.12059586495161056519f, 0.060861561447381973267f, 0.15538051724433898926f, 0.14767386019229888916f, 0.15231184661388397217f, 0.10998814553022384644f, 0.069687828421592712402f, -0.011058645322918891907f, 0.016310689970850944519f, 0.0063508823513984680176f, -0.096521630883216857910f, 0.055115811526775360107f, -0.0016109413700178265572f, 0.050854280591011047363f, 0.068746432662010192871f, 0.068118833005428314209f, 0.030511487275362014771f, 0.074949048459529876709f, 0.11215896904468536377f, 0.23026590049266815186f, 0.15923735499382019043f, 0.10582423210144042969f, 0.094132155179977416992f, 0.077989615499973297119f, 0.027615573257207870483f, 0.084585376083850860596f, -0.056211665272712707520f, 0.21485275030136108398f, 0.022799370810389518738f, 0.039029810577630996704f, 0.088207609951496124268f, 0.068065077066421508789f, 0.075589299201965332031f, 0.068103574216365814209f, 0.14786350727081298828f, 0.25095960497856140137f, 0.18031734228134155273f, 0.18393051624298095703f, 0.17183251678943634033f, 0.050307463854551315308f, -0.021203363314270973206f, 0.075064033269882202148f, 0.030781231820583343506f, 0.25657004117965698242f, 0.069618694484233856201f, 0.036157395690679550171f, 0.062852852046489715576f, 0.023595083504915237427f, 0.064924694597721099854f, 0.059337332844734191895f, 0.16034428775310516357f, 0.25147017836570739746f, 0.19466529786586761475f, 0.16814096271991729736f, 0.11440308392047882080f, 0.041907753795385360718f, -0.0063942051492631435394f, 0.063092358410358428955f, -0.071676105260848999023f, 0.19821034371852874756f, 0.042844876646995544434f, 0.029292775318026542664f, 0.059801619499921798706f, -0.0082266042008996009827f, 0.026764163747429847717f, 0.026419593021273612976f, 0.087716855108737945557f, 0.13969270884990692139f, 0.10539051890373229980f, 0.040635578334331512451f, 0.0053084506653249263763f, -0.019209476187825202942f, -0.073003023862838745117f, -0.045433092862367630005f, -0.19117836654186248779f, 0.12769517302513122559f, 0.043225850909948348999f, 0.026571644470095634460f, 0.0073082605376839637756f, 0.010399508289992809296f, 0.011728754267096519470f, 0.033932883292436599731f, 0.026942010968923568726f, 0.094882681965827941895f, 0.10492394864559173584f, 0.098693147301673889160f, 0.0070148762315511703491f, -0.049268580973148345947f, -0.10039986670017242432f, -0.14604997634887695312f, -0.33283343911170959473f, 0.051131583750247955322f, 0.042874578386545181274f, 0.047378636896610260010f, -0.043939106166362762451f, 0.074398942291736602783f, 0.012851221486926078796f, -0.031178399920463562012f, -0.014843996614217758179f, 0.11394878476858139038f, 0.076835460960865020752f, 0.11305203288793563843f, 0.0092549165710806846619f, -0.040599890053272247314f, -0.10844841599464416504f, -0.15584278106689453125f, -0.35634204745292663574f, 0.035609003156423568726f, 0.065285898745059967041f, 0.020473843440413475037f, -0.023991726338863372803f, -0.017717828974127769470f, 0.050267040729522705078f, -5.0177011871710419655e-05f, 0.050274573266506195068f, 0.039111685007810592651f, 0.069692179560661315918f, 0.11117465794086456299f, 0.051320254802703857422f, -0.015861574560403823853f, 0.0055059548467397689819f, -0.053571626543998718262f, -0.16703985631465911865f, -0.0035475979093462228775f, 0.032107770442962646484f, 0.056847278028726577759f, -0.022790750488638877869f, 0.036307364702224731445f, 0.017904801294207572937f, -0.024675190448760986328f, 0.023408910259604454041f, 0.032443203032016754150f, 0.078572571277618408203f, 0.089804016053676605225f, 0.021665003150701522827f, -0.017377026379108428955f, -0.025844942778348922729f, -0.043895460665225982666f, -0.12949267029762268066f, 0.059930305927991867065f, 0.0082182185724377632141f, 0.026233941316604614258f, 0.00031819229479879140854f, 0.060650520026683807373f, 0.024438342079520225525f, 0.013939309865236282349f, 0.066557273268699645996f, 0.033998683094978332520f, 0.067964740097522735596f, 0.096434690058231353760f, 0.085610203444957733154f, 0.027822140604257583618f, -0.055166337639093399048f, -0.065572351217269897461f, -0.13503889739513397217f, 0.13810835778713226318f, -0.011094120331108570099f, 0.050956446677446365356f, 0.030922297388315200806f, 0.077019982039928436279f, 0.030865415930747985840f, 0.054422620683908462524f, 0.090636387467384338379f, 0.078289657831192016602f, 0.10842027515172958374f, 0.084030129015445709229f, 0.11456797271966934204f, 0.019454417750239372253f, -0.10858301073312759399f, -0.029746791347861289978f, -0.10241899639368057251f, 0.13726632297039031982f, 0.021207161247730255127f, 0.062351901084184646606f, 0.040295764803886413574f, 0.042867805808782577515f, 0.10287990421056747437f, 0.066821508109569549561f, 0.10493253171443939209f, 0.13875356316566467285f, 0.12419766187667846680f, 0.10601489245891571045f, 0.11216706037521362305f, 0.060784913599491119385f, -0.064631029963493347168f, -0.059421449899673461914f, -0.15626358985900878906f, 0.11877186596393585205f, 0.017056243494153022766f, 0.0043511418625712394714f, -0.0013228274183347821236f, -0.0036470813211053609848f, 0.034347776323556900024f, -0.014118207618594169617f, 0.022897290065884590149f, -0.0012109722010791301727f, -0.0016681636916473507881f, 0.032912787050008773804f, 0.017899673432111740112f, -0.0036845470312982797623f, -0.084000453352928161621f, -0.14032846689224243164f, -0.25775432586669921875f, 0.043300338089466094971f, 0.041581045836210250854f, -0.021597199141979217529f, 0.0067448294721543788910f, 0.0064830216579139232635f, 0.025439342483878135681f, -0.0011569828493520617485f, 0.0091002155095338821411f, 0.055044785141944885254f, 0.046069595962762832642f, 0.091421291232109069824f, -0.0031978110782802104950f, -0.041968751698732376099f, -0.12927536666393280029f, -0.17535966634750366211f, -0.33425986766815185547f, 0.041649840772151947021f, 0.0053359814919531345367f, -0.0027102474123239517212f, -0.037774533033370971680f, 0.041549317538738250732f, 0.0090039670467376708984f, 0.032716847956180572510f, 0.0017058918019756674767f, 0.066919647157192230225f, 0.10490575432777404785f, 0.10254665464162826538f, 0.010991379618644714355f, -0.044970691204071044922f, -0.15728054940700531006f, -0.19279815256595611572f, -0.38555118441581726074f, 0.028672588989138603210f, 0.031958185136318206787f, 0.025676749646663665771f, 0.0075132208876311779022f, 0.034900791943073272705f, -0.046154994517564773560f, -0.038293201476335525513f, -0.043198447674512863159f, -0.0022870823740959167480f, 0.027755532413721084595f, 0.080428302288055419922f, 0.0047832727432250976562f, -0.062268331646919250488f, -0.028171477839350700378f, -0.075713649392127990723f, -0.18477436900138854980f, 0.071845710277557373047f, 0.026521217077970504761f, -0.0033174618147313594818f, -0.0059247836470603942871f, 0.028653545305132865906f, -0.017055179923772811890f, -0.034954506903886795044f, -0.11083352565765380859f, -0.046594809740781784058f, -0.069203503429889678955f, 0.039200451225042343140f, -0.0037967080716043710709f, -0.040320277214050292969f, -0.047723907977342605591f, -0.099225208163261413574f, -0.18091164529323577881f, 0.095785588026046752930f, 0.023484688252210617065f, 0.053481791168451309204f, 0.010203233920037746429f, -0.019333887845277786255f, 0.013191534206271171570f, -0.032754633575677871704f, -0.029864154756069183350f, -0.075403973460197448730f, 0.021411646157503128052f, 0.060118805617094039917f, 0.044176395982503890991f, 0.0044842776842415332794f, -0.14273589849472045898f, -0.12391927093267440796f, -0.26293694972991943359f, 0.087585635483264923096f, 0.00054491282207891345024f, 0.039133191108703613281f, 0.0031338441185653209686f, 0.034283384680747985840f, 0.038858614861965179443f, 0.032614193856716156006f, -0.0033874434884637594223f, -0.032727550715208053589f, 0.027091419324278831482f, 0.088177829980850219727f, 0.076548822224140167236f, 0.0048665222711861133575f, -0.084286898374557495117f, -0.11509460955858230591f, -0.28676247596740722656f, 0.032452777028083801270f, -0.022061966359615325928f, 0.054743368178606033325f, -0.0030151957180351018906f, 0.037738922983407974243f, 0.059290789067745208740f, 0.040386330336332321167f, 0.0042700828053057193756f, 0.062151230871677398682f, 0.069009393453598022461f, 0.088729068636894226074f, 0.077980600297451019287f, 0.0028255879878997802734f, -0.10568358749151229858f, -0.23321984708309173584f, -0.33617535233497619629f, 0.0070506921038031578064f, 0.035904914140701293945f, 0.0056038629263639450073f, -0.00092701317043974995613f, 0.035822629928588867188f, 0.077312432229518890381f, 0.021287661045789718628f, -0.0020583649165928363800f, 0.031926766037940979004f, 0.078920677304267883301f, 0.11235920339822769165f, 0.034677345305681228638f, 0.019220398738980293274f, -0.11543110758066177368f, -0.22202843427658081055f, -0.35143089294433593750f, 0.024274403229355812073f, 0.061069015413522720337f, -0.015884578227996826172f, 0.020003549754619598389f, -0.047984037548303604126f, -0.018340924754738807678f, -0.037168510258197784424f, -0.084608942270278930664f, -0.025326052680611610413f, 0.014538802206516265869f, 0.083462260663509368896f, 0.017769433557987213135f, -0.044772017747163772583f, -0.10898718982934951782f, -0.19407041370868682861f, -0.32822310924530029297f, 0.025889266282320022583f, 0.050569776445627212524f, 0.016311258077621459961f, -0.0056144371628761291504f, 0.023419057950377464294f, -0.032977480441331863403f, -0.069979518651962280273f, -0.069732621312141418457f, 8.7065245679696090519e-06f, 0.030184639617800712585f, 0.061804927885532379150f, 0.032258067280054092407f, -0.071745328605175018311f, -0.17049482464790344238f, -0.17945627868175506592f, -0.31669136881828308105f, 0.012753809802234172821f, 0.044871259480714797974f, 0.0080547034740447998047f, -0.020744353532791137695f, 0.042604636400938034058f, 0.060409691184759140015f, -0.0043454407714307308197f, -0.047564167529344558716f, 0.028619371354579925537f, -0.025013234466314315796f, 0.044379848986864089966f, 0.011197474785149097443f, -0.097171954810619354248f, -0.063112691044807434082f, -0.092942334711551666260f, -0.15917520225048065186f, 0.11159916967153549194f, -0.0074693877249956130981f, -0.0045594219118356704712f, 0.0075856959447264671326f, 0.0076819229871034622192f, 0.018227308988571166992f, -0.086380310356616973877f, -0.080400131642818450928f, -0.013354689814150333405f, -0.043514553457498550415f, 0.0075729554519057273865f, 0.016058947890996932983f, -0.022494250908493995667f, -0.066659100353717803955f, -0.073189303278923034668f, -0.22512751817703247070f, 0.10480628162622451782f, 0.0058113974519073963165f, 0.016913749277591705322f, 0.060317791998386383057f, -0.020030751824378967285f, 0.029523259028792381287f, -0.029819246381521224976f, -0.048482615500688552856f, -0.0068116630427539348602f, -0.020916542038321495056f, 0.11253964900970458984f, 0.086703807115554809570f, -0.025240752846002578735f, -0.12016857415437698364f, -0.15304628014564514160f, -0.29072383046150207520f, 0.073187440633773803711f, 0.016091624274849891663f, 0.0052400897257030010223f, 0.038490563631057739258f, 0.037693705409765243530f, 0.0084949871525168418884f, 0.032750934362411499023f, -0.011571785435080528259f, 0.038260933011770248413f, 0.00056908442638814449310f, 0.11189364641904830933f, 0.061421021819114685059f, -0.025433052331209182739f, -0.10708361864089965820f, -0.17372658848762512207f, -0.32559019327163696289f, 0.048482101410627365112f, 0.047180648893117904663f, 0.010731224901974201202f, 0.040210586041212081909f, 0.020115597173571586609f, 0.033975668251514434814f, 0.029189215973019599915f, -0.016076127067208290100f, 0.044231191277503967285f, 0.027763109654188156128f, 0.10252481698989868164f, 0.036443859338760375977f, -0.019406907260417938232f, -0.11524473875761032104f, -0.22552007436752319336f, -0.37422022223472595215f, 0.031832065433263778687f, 0.035643409937620162964f, 0.041909746825695037842f, 0.023006303235888481140f, 0.011864461936056613922f, 0.061149042099714279175f, 0.0067349812015891075134f, 0.010688669979572296143f, 0.013658788055181503296f, 0.021553196012973785400f, 0.092987447977066040039f, 0.026689827442169189453f, -0.049861509352922439575f, -0.14371290802955627441f, -0.21763215959072113037f, -0.34365993738174438477f, -0.0015343020204454660416f, 0.0027947805356234312057f, 0.046506606042385101318f, 0.042971275746822357178f, -0.062025982886552810669f, -0.014795474708080291748f, -0.068812862038612365723f, -0.13143256306648254395f, -0.10875211656093597412f, -0.11577495187520980835f, 0.035728324204683303833f, -0.0032547446899116039276f, -0.063685208559036254883f, -0.21315225958824157715f, -0.19869743287563323975f, -0.32019180059432983398f, 0.031299863010644912720f, -0.0015522447647526860237f, 0.019428554922342300415f, -0.017233341932296752930f, 0.058525945991277694702f, 0.023215005174279212952f, -0.082204774022102355957f, -0.065217919647693634033f, -0.0028053806163370609283f, -0.081824399530887603760f, 0.033263280987739562988f, -0.042192243039608001709f, -0.13450224697589874268f, -0.18857230246067047119f, -0.20987564325332641602f, -0.33024325966835021973f, 0.0029663909226655960083f, 0.018130023032426834106f, 0.044303517788648605347f, 0.033297583460807800293f, 0.022564651444554328918f, 0.087583482265472412109f, 0.039152055978775024414f, 0.019734343513846397400f, 0.056551236659288406372f, -0.046017486602067947388f, -0.036464191973209381104f, -0.074376128613948822021f, -0.14798805117607116699f, -0.21713243424892425537f, -0.34694120287895202637f, -0.25460720062255859375f, 0.083334818482398986816f, 0.0010755207622423768044f, 0.032100792974233627319f, 0.015443110838532447815f, -0.023879097774624824524f, -0.011262088082730770111f, 0.00031855280394665896893f, -0.00072285259375348687172f, 0.047077722847461700439f, -0.0052962959744036197662f, 0.0064419233240187168121f, 0.023213444277644157410f, -0.041388068348169326782f, -0.10467454046010971069f, -0.24625508487224578857f, -0.24643385410308837891f, 0.090415976941585540771f, 0.046169620007276535034f, 0.020674422383308410645f, 0.020902220159769058228f, -0.012268991209566593170f, 0.035755906254053115845f, 0.074566401541233062744f, 0.065360635519027709961f, 0.12394858896732330322f, -0.039542779326438903809f, 0.090972676873207092285f, 0.069383725523948669434f, -0.049635730683803558350f, 0.021359458565711975098f, -0.11876038461923599243f, -0.23369532823562622070f, 0.091448217630386352539f, 0.022418042644858360291f, 0.0015054274117574095726f, 0.0094185303896665573120f, 0.047885727137327194214f, -0.031691145151853561401f, -0.020927533507347106934f, -0.010921305045485496521f, 0.12517783045768737793f, -0.036459799855947494507f, 0.055731251835823059082f, -0.0010969232534989714622f, -0.062943831086158752441f, 0.0074113812297582626343f, -0.15176665782928466797f, -0.28378972411155700684f, 0.091075658798217773438f, 0.00081699679140001535416f, 0.026408845558762550354f, -0.010437633842229843140f, 0.0023778183385729789734f, -0.013158418238162994385f, 0.0043417019769549369812f, -0.023421857506036758423f, 0.099132433533668518066f, -0.0099852113053202629089f, 0.055999405682086944580f, 0.0048996824771165847778f, -0.035975765436887741089f, 0.011536769568920135498f, -0.15312235057353973389f, -0.34332463145256042480f, 0.084186457097530364990f, -0.025317611172795295715f, 0.0090053277090191841125f, 0.025543216615915298462f, -0.017766213044524192810f, 0.032514866441488265991f, 0.063966237008571624756f, -0.011903887614607810974f, 0.020543292164802551270f, -0.00074031017720699310303f, 0.056092083454132080078f, 0.033715721219778060913f, -0.033105764538049697876f, 0.029810475185513496399f, -0.12691144645214080811f, -0.29243522882461547852f, 0.062389902770519256592f, 0.0073927920311689376831f, 0.024329518899321556091f, -0.026463400572538375854f, -0.0075561837293207645416f, 0.010782928206026554108f, 0.015331388451159000397f, -0.061784476041793823242f, -0.095638558268547058105f, -0.10364642739295959473f, -0.080590672791004180908f, -0.0099981902167201042175f, -0.071471877396106719971f, -0.073949001729488372803f, -0.20974281430244445801f, -0.29767593741416931152f, 0.012804955244064331055f, -0.0085123386234045028687f, -0.019174888730049133301f, -0.013247725553810596466f, -0.016562914475798606873f, 0.040471509099006652832f, 0.0028814279939979314804f, -0.058800362050533294678f, -0.043735038489103317261f, -0.059681467711925506592f, -0.12956374883651733398f, -0.047655478119850158691f, -0.085829265415668487549f, -0.12332396954298019409f, -0.20219589769840240479f, -0.28424203395843505859f, 0.014858148060739040375f, 0.0026554153300821781158f, 0.028777640312910079956f, 0.040476374328136444092f, 0.059927068650722503662f, 0.0058319633826613426208f, 0.044150691479444503784f, 0.035172659903764724731f, -0.0070228548720479011536f, -0.066542491316795349121f, -0.043016295880079269409f, -0.045752849429845809937f, -0.070706129074096679688f, -0.16654406487941741943f, -0.39149099588394165039f, -0.25634768605232238770f, 0.10953092575073242188f, 0.021654857322573661804f, 0.039448890835046768188f, 0.0027729021385312080383f, 0.018518054857850074768f, 0.055532943457365036011f, 0.059742953628301620483f, 0.035554889589548110962f, 0.038820777088403701782f, -0.014888739213347434998f, -0.024520916864275932312f, 0.015370546840131282806f, 0.0096078542992472648621f, -0.084732703864574432373f, -0.28254395723342895508f, -0.22437050938606262207f, 0.11185854673385620117f, 0.052964556962251663208f, 0.070573784410953521729f, 0.022559057921171188354f, 0.025265870615839958191f, 0.058861300349235534668f, 0.041726011782884597778f, 0.029615795239806175232f, 0.10434738546609878540f, -0.046283867210149765015f, 0.11303985863924026489f, 0.069491490721702575684f, -0.012816301546990871429f, 0.033978577703237533569f, -0.084057584404945373535f, -0.22664201259613037109f, 0.12110110372304916382f, -0.0072985170409083366394f, 0.033566009253263473511f, -0.0044840099290013313293f, -0.044737957417964935303f, 0.027079857885837554932f, 0.028701080009341239929f, -0.033476918935775756836f, 0.034809920936822891235f, -0.076926663517951965332f, 0.063375808298587799072f, 0.0051932916976511478424f, -0.027735002338886260986f, 0.041297875344753265381f, -0.084135688841342926025f, -0.21975001692771911621f, 0.17521509528160095215f, 0.026372440159320831299f, 0.067136205732822418213f, -0.021183097735047340393f, -0.084339424967765808105f, -0.037775292992591857910f, -0.019327037036418914795f, -0.086084045469760894775f, 0.016977269202470779419f, -0.019287846982479095459f, 0.027718683704733848572f, -0.012810874730348587036f, -0.046460591256618499756f, 0.018583336845040321350f, -0.12511822581291198730f, -0.27419874072074890137f, 0.12167211621999740601f, -0.00039497957914136350155f, 0.081193000078201293945f, 0.0048897746019065380096f, 0.022580837830901145935f, 0.067357212305068969727f, 0.056288607418537139893f, 0.024499746039509773254f, 0.080122590065002441406f, 0.010231629014015197754f, 0.061850469559431076050f, 0.045667715370655059814f, -0.017573885619640350342f, 0.046366766095161437988f, -0.11255260556936264038f, -0.23258355259895324707f, 0.11455027759075164795f, 0.026942232623696327209f, -0.0062296050600707530975f, -0.026222793385386466980f, 0.039708223193883895874f, 0.040770854800939559937f, 0.018803823739290237427f, 0.0086055537685751914978f, -0.051825698465108871460f, -0.023216849192976951599f, -0.033934809267520904541f, 0.039089281111955642700f, -0.020418686792254447937f, -0.020599558949470520020f, -0.17459957301616668701f, -0.26750224828720092773f, 0.075064867734909057617f, -0.013656458817422389984f, -0.0045972354710102081299f, -0.023661388084292411804f, 0.021700115874409675598f, 0.039742611348628997803f, 0.0084668863564729690552f, 0.0073380917310714721680f, -0.088112279772758483887f, -0.024638487026095390320f, -0.063288956880569458008f, 0.011189706623554229736f, -0.061447720974683761597f, -0.041857909411191940308f, -0.18698109686374664307f, -0.29424896836280822754f, 0.043225005269050598145f, 0.036165412515401840210f, -0.0021313037723302841187f, -0.026878368109464645386f, 0.035774078220129013062f, 0.0091916564851999282837f, 0.028095284476876258850f, -0.025560675188899040222f, -0.080010421574115753174f, -0.046475362032651901245f, -0.11516762524843215942f, 0.029023669660091400146f, -0.0061968653462827205658f, -0.14769765734672546387f, -0.22913029789924621582f, -0.23263496160507202148f, 0.074127495288848876953f, 0.018856229260563850403f, -0.0035276755224913358688f, 0.021990584209561347961f, 0.013372212648391723633f, 0.043776005506515502930f, 0.040001109242439270020f, 0.032285459339618682861f, 0.050540369004011154175f, -0.041345462203025817871f, -0.052061185240745544434f, 0.050924465060234069824f, 0.038516152650117874146f, -0.10476110875606536865f, -0.21350832283496856689f, -0.25423738360404968262f, 0.10323886573314666748f, 0.0015066745691001415253f, 0.014149020425975322723f, 0.040622260421514511108f, 0.0028608092106878757477f, 0.056079324334859848022f, 0.019854113459587097168f, 0.032693631947040557861f, 0.038337763398885726929f, -0.014369916170835494995f, 0.026957243680953979492f, 0.066316440701484680176f, 0.011709199286997318268f, -0.036307737231254577637f, -0.15467277169227600098f, -0.20205718278884887695f, 0.13868176937103271484f, -0.0082574356347322463989f, -0.039146073162555694580f, 0.018701985478401184082f, 0.023781530559062957764f, 0.036025010049343109131f, -0.0072857146151363849640f, -0.022480348125100135803f, -0.018962504342198371887f, -0.013762193731963634491f, 0.056061137467622756958f, 0.048796497285366058350f, 0.00052976550068706274033f, -0.064089737832546234131f, -0.16491498053073883057f, -0.21857705712318420410f, 0.16526271402835845947f, 0.0046057072468101978302f, 0.0079606492072343826294f, 0.00069948966847732663155f, 0.037197243422269821167f, 0.013785455375909805298f, -0.024451341480016708374f, -0.033506311476230621338f, -0.10948573052883148193f, -0.018698176369071006775f, -0.00067095749545842409134f, 0.044827308505773544312f, -0.052383836358785629272f, -0.0024915528483688831329f, -0.11655035614967346191f, -0.23286472260951995850f, 0.15175561606884002686f, 0.013202245347201824188f, 0.040939740836620330811f, -0.033919703215360641479f, 0.046210795640945434570f, 0.022243885323405265808f, 0.030880715698003768921f, 0.039567664265632629395f, 0.029215672984719276428f, 0.014107747934758663177f, 0.043097190558910369873f, 0.050787713378667831421f, 0.011095644906163215637f, 0.013413320295512676239f, -0.080803968012332916260f, -0.20440512895584106445f, 0.11171779781579971313f, 0.010430362075567245483f, 0.0093866707757115364075f, -0.045948337763547897339f, 0.011090205982327461243f, 0.021092552691698074341f, 0.046870898455381393433f, 0.060568727552890777588f, -0.015242177993059158325f, -0.033563528209924697876f, 0.021796748042106628418f, 0.047588136047124862671f, -0.0018294539768248796463f, -0.037039667367935180664f, -0.18938678503036499023f, -0.25333529710769653320f, 0.060633890330791473389f, -0.029459383338689804077f, 0.0076540624722838401794f, 0.011779382824897766113f, -0.0065531926229596138000f, 0.042675334960222244263f, 0.030430527403950691223f, 0.014183531515300273895f, -0.069042146205902099609f, -0.050068799406290054321f, -0.014188667759299278259f, 0.020204782485961914062f, 0.017781110480427742004f, -0.023395884782075881958f, -0.20916052162647247314f, -0.27534580230712890625f, 0.055891267955303192139f, -0.0045189093798398971558f, -0.022911697626113891602f, 0.031338367611169815063f, 0.020593147724866867065f, -0.026140579953789710999f, -0.032389380037784576416f, -0.065101996064186096191f, -0.043291319161653518677f, -0.093230329453945159912f, -0.11151228845119476318f, 0.012051635421812534332f, -0.054545912891626358032f, -0.16615813970565795898f, -0.22383387386798858643f, -0.25391978025436401367f, 0.10142268240451812744f, 0.00086220726370811462402f, -0.00078224722528830170631f, 0.049954529851675033569f, 0.014170485548675060272f, -0.0095583293586969375610f, -0.040939658880233764648f, -0.0037792350631207227707f, 0.043737031519412994385f, -0.046394806355237960815f, -0.069065608084201812744f, 0.058676391839981079102f, -0.022706190124154090881f, -0.15563215315341949463f, -0.16916890442371368408f, -0.22862926125526428223f, 0.10805462300777435303f, -0.055485941469669342041f, -0.0088826734572649002075f, -0.0057376716285943984985f, -0.015632834285497665405f, 0.018989713862538337708f, -0.0093345614150166511536f, 0.0092726815491914749146f, 0.045176330953836441040f, -0.026068149134516716003f, 0.013037486001849174500f, 0.047106347978115081787f, 0.029010031372308731079f, -0.099696792662143707275f, -0.23259256780147552490f, -0.17962253093719482422f, 0.14309765398502349854f, -0.026568481698632240295f, 0.018296340480446815491f, -0.021962957456707954407f, 0.0058307442814111709595f, 0.052269447594881057739f, 0.010117543861269950867f, -0.022071076557040214539f, 0.024768909439444541931f, 0.0091581204906105995178f, 0.0072113671340048313141f, 0.061098035424947738647f, 0.039275582879781723022f, -0.056357305496931076050f, -0.13755720853805541992f, -0.18049187958240509033f, 0.14210928976535797119f, -0.018863324075937271118f, 0.0089716250076889991760f, -0.010985315777361392975f, 0.013603243045508861542f, 0.036478392779827117920f, 0.025837806984782218933f, -0.025973603129386901855f, -0.0015409432817250490189f, -0.055987901985645294189f, 0.045480728149414062500f, 0.056374184787273406982f, -0.0059018158353865146637f, 0.046149749308824539185f, -0.10148037970066070557f, -0.20924186706542968750f, 0.12049306184053421021f, 0.017888350412249565125f, 0.032057140022516250610f, -0.013359424658119678497f, 0.010524440556764602661f, 0.040143109858036041260f, 0.051431268453598022461f, -0.015111125074326992035f, 0.047030508518218994141f, -0.040239393711090087891f, 0.023632552474737167358f, 0.081207238137722015381f, 0.025442145764827728271f, 0.040953248739242553711f, -0.093623869121074676514f, -0.18248923122882843018f, 0.12680180370807647705f, -0.022599993273615837097f, -0.011867400258779525757f, -0.0020947847515344619751f, -0.013008914887905120850f, -0.022110253572463989258f, -0.0016590144950896501541f, -0.046092476695775985718f, -0.0054617715068161487579f, -0.064576141536235809326f, 0.024643423035740852356f, 0.047594554722309112549f, 0.025123979896306991577f, 0.0091353654861450195312f, -0.15079431235790252686f, -0.24673005938529968262f, 0.086482390761375427246f, -0.013231897726655006409f, -0.015673076733946800232f, 0.0056809643283486366272f, -0.071387030184268951416f, -0.0085011068731546401978f, -0.048539955168962478638f, -0.063812255859375000000f, -0.10771042108535766602f, -0.091927841305732727051f, -0.037881843745708465576f, 0.029733300209045410156f, -0.010652516037225723267f, -0.061527196317911148071f, -0.22431977093219757080f, -0.28009858727455139160f, 0.079291760921478271484f, 0.035093259066343307495f, 0.015951765701174736023f, 0.032181471586227416992f, -0.0030493480153381824493f, -0.0097977435216307640076f, -0.055353615432977676392f, -0.11370009928941726685f, -0.15550830960273742676f, -0.16231577098369598389f, -0.22443518042564392090f, -0.0054885298013687133789f, -0.061844248324632644653f, -0.22119455039501190186f, -0.23103210330009460449f, -0.25547483563423156738f, 0.076616995036602020264f, 0.022783989086747169495f, 0.028297379612922668457f, 0.024439716711640357971f, -0.012364285066723823547f, 0.035795252770185470581f, 0.010010129772126674652f, -0.067879430949687957764f, -0.10133703798055648804f, -0.11070185154676437378f, -0.24156215786933898926f, 0.013325409032404422760f, -0.066647410392761230469f, -0.20936141908168792725f, -0.19733996689319610596f, -0.26478520035743713379f, 0.069479793310165405273f, -0.014659131877124309540f, 0.021032758057117462158f, 0.011276285164058208466f, 0.0074492064304649829865f, 0.076701395213603973389f, 0.021131068468093872070f, -0.019851416349411010742f, -0.15233460068702697754f, -0.14839959144592285156f, -0.19694894552230834961f, -0.084037669003009796143f, -0.14734831452369689941f, -0.24643379449844360352f, -0.37199211120605468750f, -0.25408047437667846680f, 0.12726201117038726807f, -0.016696004197001457214f, -0.022215919569134712219f, 0.022882362827658653259f, -0.010006879456341266632f, 0.011008507572114467621f, 0.0071664140559732913971f, -0.061794124543666839600f, -0.16679811477661132812f, -0.14845794439315795898f, -0.21921041607856750488f, -0.18226158618927001953f, -0.24945953488349914551f, -0.30527633428573608398f, -0.35984674096107482910f, -0.26064538955688476562f, 0.12738950550556182861f, 0.041241597384214401245f, 0.058288309723138809204f, -0.014638542197644710541f, 0.030174156650900840759f, 0.033788044005632400513f, -0.012039560824632644653f, -0.11140123754739761353f, -0.16135224699974060059f, -0.17962494492530822754f, -0.16726352274417877197f, -0.14204359054565429688f, -0.29078948497772216797f, -0.32956662774085998535f, -0.43786484003067016602f, -0.25634375214576721191f, 0.10224356502294540405f, 0.053488686680793762207f, 0.018161831423640251160f, 0.028816761448979377747f, 0.0078023099340498447418f, 0.032131828367710113525f, 0.020611701533198356628f, -0.073412559926509857178f, -0.14643272757530212402f, -0.15694174170494079590f, -0.13461503386497497559f, -0.031755942851305007935f, -0.15842109918594360352f, -0.28208312392234802246f, -0.43224197626113891602f, -0.25327867269515991211f, 0.076042592525482177734f, 0.047527696937322616577f, 0.021146222949028015137f, 0.019867336377501487732f, 0.030148571357131004333f, 0.041112981736660003662f, 0.020383754745125770569f, -0.039452284574508666992f, -0.11163207888603210449f, -0.17353777587413787842f, -0.055086683481931686401f, -0.016027515754103660583f, -0.030012356117367744446f, -0.18738116323947906494f, -0.48622363805770874023f, -0.28107798099517822266f, 0.043614778667688369751f, 0.061499752104282379150f, 0.014178675599396228790f, 0.0037354100495576858521f, -0.032070036977529525757f, -0.012913567945361137390f, -0.062334802001714706421f, -0.080781094729900360107f, -0.15136218070983886719f, -0.17879490554332733154f, -0.088188685476779937744f, -0.075346492230892181396f, -0.13263465464115142822f, -0.28138524293899536133f, -0.52296656370162963867f, -0.34762421250343322754f, 0.064998939633369445801f, 0.020499652251601219177f, 0.030948217958211898804f, 0.040309436619281768799f, 0.0059439763426780700684f, 0.049690049141645431519f, -0.0065663326531648635864f, -0.078348807990550994873f, -0.15539625287055969238f, -0.16346193850040435791f, -0.21289312839508056641f, 0.0063307434320449829102f, -0.074855275452136993408f, -0.25424921512603759766f, -0.25896161794662475586f, -0.26413339376449584961f, 0.062466215342283248901f, 0.019701169803738594055f, -0.0077139995992183685303f, 0.015399117022752761841f, -0.026271468028426170349f, 0.027840627357363700867f, 0.026007397100329399109f, -0.070958487689495086670f, -0.13682989776134490967f, -0.13150317966938018799f, -0.21750414371490478516f, -0.0058886390179395675659f, -0.089961148798465728760f, -0.29057934880256652832f, -0.23937931656837463379f, -0.25387251377105712891f, 0.098778448998928070068f, -0.018662523478269577026f, 0.028021426871418952942f, 0.023637361824512481689f, 0.027075359597802162170f, 0.027405068278312683105f, 0.037027101963758468628f, -0.047109827399253845215f, -0.15541955828666687012f, -0.14052262902259826660f, -0.22062763571739196777f, -0.12059394270181655884f, -0.22464656829833984375f, -0.34095665812492370605f, -0.38000965118408203125f, -0.24902248382568359375f, 0.095144532620906829834f, 0.068726830184459686279f, 0.0080465981736779212952f, 0.039459165185689926147f, 0.026892473921179771423f, -0.0052114282734692096710f, -0.038380898535251617432f, -0.11874627321958541870f, -0.23349790275096893311f, -0.19213381409645080566f, -0.26902988553047180176f, -0.25014808773994445801f, -0.30916416645050048828f, -0.40509647130966186523f, -0.41156417131423950195f, -0.27935078740119934082f, 0.10682464390993118286f, 0.010820545256137847900f, 0.019864628091454505920f, 0.030151130631566047668f, -0.0055584018118679523468f, -0.027270192280411720276f, -0.13450224697589874268f, -0.14162084460258483887f, -0.18338750302791595459f, -0.29775241017341613770f, -0.24674935638904571533f, -0.21421594917774200439f, -0.41938972473144531250f, -0.44338920712471008301f, -0.49800026416778564453f, -0.32730770111083984375f, 0.094120442867279052734f, 0.0052956030704081058502f, 0.036844797432422637939f, 0.069745838642120361328f, 0.022449122741818428040f, 0.015891082584857940674f, -0.015244087204337120056f, -0.076991222798824310303f, -0.14374822378158569336f, -0.21676230430603027344f, -0.17313413321971893311f, -0.066446207463741302490f, -0.19443944096565246582f, -0.31689310073852539062f, -0.50302046537399291992f, -0.31877562403678894043f, 0.052823349833488464355f, 0.055841855704784393311f, 0.051692873239517211914f, 0.021015610545873641968f, 0.051704075187444686890f, 0.024058587849140167236f, 0.014820535667240619659f, -0.054290454834699630737f, -0.13144011795520782471f, -0.18239952623844146729f, -0.081624403595924377441f, -0.020345248281955718994f, -0.052089948207139968872f, -0.23836965858936309814f, -0.48206639289855957031f, -0.35031378269195556641f, 0.039427474141120910645f, 0.034124378114938735962f, 0.018652930855751037598f, 0.017207046970725059509f, 0.013789091259241104126f, 0.025028081610798835754f, -0.082371197640895843506f, -0.062400877475738525391f, -0.18592660129070281982f, -0.20691777765750885010f, -0.12193359434604644775f, -0.085793927311897277832f, -0.14686369895935058594f, -0.26663017272949218750f, -0.51632720232009887695f, -0.32536008954048156738f, 0.032440181821584701538f, 0.037833526730537414551f, -0.035191167145967483521f, 0.017865763977169990540f, -0.0019126567058265209198f, 0.018798518925905227661f, -0.020873818546533584595f, -0.12045176327228546143f, -0.17029990255832672119f, -0.15461561083793640137f, -0.19498841464519500732f, -0.0059591098688542842865f, -0.11475791782140731812f, -0.31069353222846984863f, -0.28107610344886779785f, -0.28868588805198669434f, 0.051454428583383560181f, 0.018425464630126953125f, -0.013463181443512439728f, 0.016998952254652976990f, -0.0063440012745559215546f, 0.043751910328865051270f, 0.0060188365168869495392f, -0.11869785934686660767f, -0.14264751970767974854f, -0.12553845345973968506f, -0.24000756442546844482f, -0.043882191181182861328f, -0.15859919786453247070f, -0.32865133881568908691f, -0.30994847416877746582f, -0.31731182336807250977f, 0.064973495900630950928f, -0.0060638594441115856171f, 0.0072055030614137649536f, 0.029142923653125762939f, 0.018207298591732978821f, 0.049901604652404785156f, 0.028301430866122245789f, -0.12760287523269653320f, -0.16422739624977111816f, -0.18883332610130310059f, -0.20851334929466247559f, -0.22522190213203430176f, -0.32718464732170104980f, -0.44238251447677612305f, -0.50254708528518676758f, -0.35094156861305236816f, 0.033957846462726593018f, 0.0075281672179698944092f, 0.026159361004829406738f, 0.0023158842232078313828f, -0.0057957102544605731964f, -0.058968726545572280884f, -0.063283011317253112793f, -0.18789376318454742432f, -0.27194634079933166504f, -0.28295838832855224609f, -0.30319663882255554199f, -0.34389391541481018066f, -0.45199319720268249512f, -0.53343409299850463867f, -0.53482389450073242188f, -0.38515532016754150391f, 0.0020492754410952329636f, 0.018124416470527648926f, 0.032432440668344497681f, -0.0065060942433774471283f, -0.036057267338037490845f, -0.085120737552642822266f, -0.21238599717617034912f, -0.21858680248260498047f, -0.21241697669029235840f, -0.32665157318115234375f, -0.31374904513359069824f, -0.31077054142951965332f, -0.48677840828895568848f, -0.56513428688049316406f, -0.58150267601013183594f, -0.40171793103218078613f, 0.00093832239508628845215f, 0.036733161658048629761f, -0.0069669778458774089813f, 3.8122339901747182012e-05f, 0.020578898489475250244f, 0.033589303493499755859f, -0.061740931123495101929f, -0.11874298751354217529f, -0.15570405125617980957f, -0.21703574061393737793f, -0.20957756042480468750f, -0.17834565043449401855f, -0.33414542675018310547f, -0.44171187281608581543f, -0.55055195093154907227f, -0.40598079562187194824f, 0.010711400769650936127f, 0.046064004302024841309f, 0.010752055794000625610f, 0.028091350570321083069f, 0.060105245560407638550f, 0.040111362934112548828f, -0.041257645934820175171f, -0.11647463589906692505f, -0.12982256710529327393f, -0.21606352925300598145f, -0.10093104839324951172f, -0.10268805176019668579f, -0.11514336615800857544f, -0.27730420231819152832f, -0.55975735187530517578f, -0.38274875283241271973f, 0.013008533045649528503f, 0.0020036674104630947113f, 0.020957237109541893005f, 0.017525780946016311646f, 0.042541213333606719971f, -0.010086583904922008514f, -0.056524764746427536011f, -0.10285554081201553345f, -0.16122981905937194824f, -0.18816933035850524902f, -0.096671611070632934570f, -0.12124401330947875977f, -0.12460841983556747437f, -0.29272359609603881836f, -0.54862576723098754883f, -0.34405755996704101562f, 0.022449685260653495789f, 0.0010731692891567945480f, 0.032127231359481811523f, 0.0093627283349633216858f, 0.023667067289352416992f, 0.0045783724635839462280f, 0.014014836400747299194f, 0.0013395253336057066917f, 0.039778195321559906006f, 0.064806312322616577148f, 0.0051980218850076198578f, 0.026791693642735481262f, -0.052852645516395568848f, -0.10617270320653915405f, -0.12300137430429458618f, -0.20717661082744598389f, 0.046309679746627807617f, 0.026999961584806442261f, 0.0014084149152040481567f, 0.013118700124323368073f, 0.028557172045111656189f, 0.031714644283056259155f, 0.0031487115193158388138f, -0.0056345299817621707916f, 0.037539519369602203369f, 0.029988743364810943604f, -0.025407992303371429443f, -0.035464633256196975708f, -0.15546122193336486816f, -0.17587181925773620605f, -0.15158532559871673584f, -0.14487761259078979492f, 0.074854314327239990234f, 0.037264056503772735596f, 0.043756347149610519409f, 0.0094728646799921989441f, 0.036104958504438400269f, 0.0064574009738862514496f, -0.023508619517087936401f, -0.023433161899447441101f, -0.00057728152023628354073f, 0.055912494659423828125f, -0.013971725478768348694f, -0.071826882660388946533f, -0.21816778182983398438f, -0.30426985025405883789f, -0.27434065937995910645f, -0.22199264168739318848f, 0.029502594843506813049f, 0.054620940238237380981f, 0.025905635207891464233f, 0.027512514963746070862f, 0.0019696103408932685852f, -0.068761333823204040527f, -0.064734607934951782227f, -0.075706295669078826904f, -0.046506479382514953613f, 0.099132321774959564209f, 0.049165941774845123291f, -0.054527312517166137695f, -0.25330287218093872070f, -0.37955528497695922852f, -0.32719197869300842285f, -0.28094553947448730469f, -0.038737282156944274902f, -0.0037461305037140846252f, 0.033552337437868118286f, 0.025928596034646034241f, -0.016810892149806022644f, -0.037928506731986999512f, -0.060143180191516876221f, -0.063836947083473205566f, -0.025408117100596427917f, 0.020555090159177780151f, 0.038156270980834960938f, -0.012162372469902038574f, -0.29078570008277893066f, -0.41348901391029357910f, -0.41787055134773254395f, -0.31623750925064086914f, -0.061873059719800949097f, 0.050399914383888244629f, 0.036186013370752334595f, 0.010419375263154506683f, -0.037311170250177383423f, -0.0099769653752446174622f, -0.046556130051612854004f, -0.038971167057752609253f, 0.0025628602597862482071f, 0.0018655917374417185783f, -0.013935166411101818085f, -0.059092406183481216431f, -0.17192304134368896484f, -0.25221642851829528809f, -0.31181269884109497070f, -0.24629539251327514648f, -0.035173181444406509399f, 0.0035565157886594533920f, 0.027467427775263786316f, 0.015767503529787063599f, -8.0675636127125471830e-05f, 0.0030028840992599725723f, -0.049504291266202926636f, -0.027822392061352729797f, -0.016441464424133300781f, -0.0034008629154413938522f, 0.0021479732822626829147f, -0.037067268043756484985f, -0.046683959662914276123f, -0.18436554074287414551f, -0.24222663044929504395f, -0.21460980176925659180f, -0.0010691507486626505852f, 0.027653561905026435852f, -0.00021217462199274450541f, 0.011100684292614459991f, 0.012131574563682079315f, 0.020771460607647895813f, -0.017092742025852203369f, 0.0046881479211151599884f, -0.012217056006193161011f, 0.037620782852172851562f, 0.025967082008719444275f, -0.0027369051240384578705f, -0.0041920100338757038116f, -0.13578733801841735840f, -0.18900585174560546875f, -0.19335864484310150146f, 0.078618764877319335938f, -0.012551640160381793976f, -0.023016721010208129883f, 0.013041355647146701813f, -0.0076996223069727420807f, -0.056792438030242919922f, 0.018161889165639877319f, 0.011824842542409896851f, 0.070968233048915863037f, 0.083460927009582519531f, 0.047118224203586578369f, 0.0034802798181772232056f, -0.060381229966878890991f, -0.043025221675634384155f, -0.058090619742870330811f, -0.16056139767169952393f, 0.093668192625045776367f, 0.0029403166845440864563f, 0.0077937231399118900299f, -0.023025402799248695374f, -0.0067151938565075397491f, -0.034486528486013412476f, -0.050152666866779327393f, -0.025160485878586769104f, -0.0099889421835541725159f, -0.021182604134082794189f, -0.034271515905857086182f, -0.050533525645732879639f, -0.11879893392324447632f, -0.14378961920738220215f, -0.12324340641498565674f, -0.12903249263763427734f, 0.046977929770946502686f, 0.013472705148160457611f, -0.0016782337334007024765f, 0.013440911658108234406f, 0.022507004439830780029f, -0.0098995193839073181152f, 0.0074042440392076969147f, 0.019007904455065727234f, 0.023582866415381431580f, 0.077105768024921417236f, -0.013925351202487945557f, -0.029029542580246925354f, -0.15479689836502075195f, -0.22031246125698089600f, -0.21631474792957305908f, -0.21646936237812042236f, 0.0042839497327804565430f, 0.0054777613840997219086f, -0.030486978590488433838f, -0.018334148451685905457f, -0.050142198801040649414f, -0.020410865545272827148f, -0.053578462451696395874f, -0.054045725613832473755f, -0.029505902901291847229f, 0.012239789590239524841f, -0.043593972921371459961f, -0.13827703893184661865f, -0.21698416769504547119f, -0.30956771969795227051f, -0.27291467785835266113f, -0.24984084069728851318f, -0.055618058890104293823f, -0.051747657358646392822f, -0.033520717173814773560f, -0.038015857338905334473f, -0.058036640286445617676f, -0.065983973443508148193f, -0.043318983167409896851f, -0.064318783581256866455f, -0.0085619604215025901794f, 0.00030568460351787507534f, 0.0064008575864136219025f, -0.061646118760108947754f, -0.18534232676029205322f, -0.28509783744812011719f, -0.24385994672775268555f, -0.26645725965499877930f, -0.10125093907117843628f, 0.00019794846593867987394f, -0.015077671967446804047f, -0.035344745963811874390f, 0.00025118334451690316200f, -0.022805752232670783997f, -0.064859434962272644043f, -0.028032606467604637146f, -0.0048874309286475181580f, -0.020304434001445770264f, -0.032941576093435287476f, -0.037421129643917083740f, -0.16383659839630126953f, -0.24999891221523284912f, -0.28465121984481811523f, -0.26799422502517700195f, -0.060205943882465362549f, -0.010882858186960220337f, 0.0032849237322807312012f, -0.0041188588365912437439f, 0.011154404841363430023f, -0.040851205587387084961f, -0.041135199368000030518f, 0.022696828469634056091f, -0.0053685982711613178253f, -0.010207554325461387634f, 0.011060910299420356750f, -0.026460619643330574036f, -0.046538062393665313721f, -0.13524377346038818359f, -0.22004786133766174316f, -0.23637062311172485352f, -0.013324882835149765015f, -0.0051414123736321926117f, -0.0035610105842351913452f, -0.0016036210581660270691f, -0.027386819943785667419f, -0.050212316215038299561f, -0.040211893618106842041f, -0.025127794593572616577f, -0.0018595855217427015305f, 0.010627859272062778473f, -0.0067787636071443557739f, -0.041538834571838378906f, 0.0091242967173457145691f, -0.099461548030376434326f, -0.14491064846515655518f, -0.20795005559921264648f, 0.066449142992496490479f, -0.018455006182193756104f, -0.0046853935346007347107f, 0.025584220886230468750f, -0.0090943649411201477051f, -0.043585192412137985229f, -0.037752073258161544800f, 0.0074294302612543106079f, 0.048474077135324478149f, 0.060916595160961151123f, 0.065385840833187103271f, 0.025623533874750137329f, 0.012419499456882476807f, 0.029381407424807548523f, -0.00055573490681126713753f, -0.10497279465198516846f, 0.096819236874580383301f, 0.015416534617543220520f, -0.025612875819206237793f, 0.0072956574149429798126f, 0.030236460268497467041f, -0.026684327051043510437f, -0.013846584595739841461f, 0.023166757076978683472f, 0.038837347179651260376f, 0.085973575711250305176f, 0.016688851639628410339f, 0.026252876967191696167f, -0.019134480506181716919f, 0.038596414029598236084f, -0.010729623958468437195f, -0.025887606665492057800f, 0.11411827057600021362f, 0.016725296154618263245f, 0.018450247123837471008f, -0.029548188671469688416f, 0.0027016445528715848923f, -0.012834449298679828644f, 0.021690081804990768433f, 0.029057588428258895874f, 0.043700594455003738403f, 0.080692961812019348145f, 0.081190049648284912109f, 0.069086380302906036377f, -0.0030384901911020278931f, -0.038159180432558059692f, -0.034712549299001693726f, -0.059279367327690124512f, 0.11720734834671020508f, -0.011402403004467487335f, -0.012622088193893432617f, -0.0076273344457149505615f, -0.029092144221067428589f, -0.0053633637726306915283f, -0.00087653577793389558792f, -0.018572749570012092590f, 0.090644650161266326904f, 0.11775403469800949097f, 0.16457691788673400879f, 0.15199816226959228516f, 0.072891555726528167725f, 0.048759132623672485352f, -0.022223852574825286865f, -0.093430854380130767822f, 0.077267132699489593506f, 0.024952029809355735779f, -0.0079314932227134704590f, -0.0081953629851341247559f, -0.013509993441402912140f, 0.013191381469368934631f, -0.014506227336823940277f, 0.0029644684400409460068f, 0.049143515527248382568f, 0.10281671583652496338f, 0.11342675238847732544f, 0.12054333090782165527f, 0.019289813935756683350f, -0.071171380579471588135f, -0.065778680145740509033f, -0.15111362934112548828f, 0.024810865521430969238f, 0.00018170330440625548363f, -0.019651262089610099792f, -0.028581451624631881714f, -0.0087353307753801345825f, -0.022395797073841094971f, -0.045645792037248611450f, 0.022880166769027709961f, 0.018328234553337097168f, 0.029880905523896217346f, 0.033086132258176803589f, -0.052181042730808258057f, -0.13249112665653228760f, -0.18980699777603149414f, -0.12258383631706237793f, -0.14979934692382812500f, 0.0096648186445236206055f, 0.0038297499995678663254f, 0.0084952730685472488403f, -0.022569168359041213989f, -0.044371739029884338379f, -0.063084594905376434326f, -0.026101397350430488586f, -0.059830278158187866211f, -0.0048692640848457813263f, 0.021192336454987525940f, 0.0040090521797537803650f, -0.055013049393892288208f, -0.059689629822969436646f, -0.12423180043697357178f, -0.13797858357429504395f, -0.18596285581588745117f, 0.012793022207915782928f, 0.018586415797472000122f, 0.0084509719163179397583f, 0.021664481610059738159f, 0.014792376197874546051f, -0.047386370599269866943f, -0.030337030068039894104f, -0.0018339358502998948097f, 0.0095242178067564964294f, 0.019165292382240295410f, 0.043447908014059066772f, 0.0086402976885437965393f, 0.0099441567435860633850f, -0.086329996585845947266f, -0.076399944722652435303f, -0.18338598310947418213f, 0.055678099393844604492f, 0.028213951736688613892f, 0.023923728615045547485f, 0.0077568073756992816925f, -0.040030524134635925293f, -0.045195799320936203003f, -0.014677523635327816010f, -0.0025449702516198158264f, 0.10539098083972930908f, 0.10591354966163635254f, 0.066449955105781555176f, 0.062832161784172058105f, 0.036125227808952331543f, 0.093653514981269836426f, 0.022458769381046295166f, -0.10088264197111129761f, 0.019975250586867332458f, 0.030141264200210571289f, 0.017440671101212501526f, 0.021086739376187324524f, 0.012542906217277050018f, 0.042218048125505447388f, 0.068266421556472778320f, 0.13742743432521820068f, 0.15011014044284820557f, 0.13154560327529907227f, 0.085253484547138214111f, 0.045907754451036453247f, 0.029385223984718322754f, 0.053153935819864273071f, 0.021612254902720451355f, -0.073695063591003417969f, 0.14078681170940399170f, 0.015842851251363754272f, 0.029917379841208457947f, 0.050956834107637405396f, 0.038309577852487564087f, 0.068409562110900878906f, 0.072100788354873657227f, 0.16761085391044616699f, 0.15820665657520294189f, 0.15475228428840637207f, 0.12781475484371185303f, 0.27817681431770324707f, 0.28167653083801269531f, 0.24222595989704132080f, 0.25972300767898559570f, 0.18658564984798431396f, 0.21404623985290527344f, 0.028524912893772125244f, 0.022729398682713508606f, 0.083091400563716888428f, 0.13749353587627410889f, 0.24952797591686248779f, 0.27814963459968566895f, 0.30752938985824584961f, 0.30847403407096862793f, 0.16558706760406494141f, 0.10639017075300216675f, 0.20236775279045104980f, 0.28212270140647888184f, 0.31266403198242187500f, 0.31767505407333374023f, 0.35075095295906066895f, 0.25967916846275329590f, 0.0069485525600612163544f, 0.049998555332422256470f, 0.032554809004068374634f, 0.11044691503047943115f, 0.19380962848663330078f, 0.26400017738342285156f, 0.26895120739936828613f, 0.26626244187355041504f, 0.13288952410221099854f, 0.092493712902069091797f, 0.20053203403949737549f, 0.24606668949127197266f, 0.25600507855415344238f, 0.31051704287528991699f, 0.27781355381011962891f, 0.21306520700454711914f, 0.062426414340734481812f, 0.016921969130635261536f, 0.054286886006593704224f, 0.034731630235910415649f, 0.075059324502944946289f, 0.0077409506775438785553f, 0.084992609918117523193f, 0.10015548765659332275f, 0.10435362160205841064f, 0.054792918264865875244f, 0.12904663383960723877f, 0.081522479653358459473f, -0.0011897489894181489944f, 0.030054876580834388733f, 0.062940895557403564453f, 0.13823150098323822021f, -0.032806757837533950806f, 0.0018819251563400030136f, -0.017161944881081581116f, 0.0046164235100150108337f, 0.0085541959851980209351f, -0.022715579718351364136f, 0.034151867032051086426f, 0.072593711316585540771f, 0.097815066576004028320f, 0.057408709079027175903f, 0.019095554947853088379f, -0.019428029656410217285f, -0.11188039183616638184f, -0.040478467941284179688f, -0.13289931416511535645f, 0.076924152672290802002f, -0.022413084283471107483f, -0.018973568454384803772f, -0.056609012186527252197f, -0.067602731287479400635f, -0.054218959063291549683f, -0.078751564025878906250f, -0.0061429212801158428192f, -0.0038459666538983583450f, 0.048166707158088684082f, 0.059601027518510818481f, -0.015207423828542232513f, -0.034795749932527542114f, -0.10070848464965820312f, -0.15008105337619781494f, -0.24661763012409210205f, 0.078276693820953369141f},
  {0.055661607533693313599f, 0.023150932043790817261f, 0.019675822928547859192f, 0.040386524051427841187f, 0.026692405343055725098f, 0.0091728558763861656189f, -0.0079222703352570533752f, -0.035447824746370315552f, 0.057122513651847839355f, 0.099718451499938964844f, 0.076958827674388885498f, 0.048165746033191680908f, -0.023364840075373649597f, 0.0031320909038186073303f, -0.033603165298700332642f, -0.18719857931137084961f, -0.055631071329116821289f, -0.041250679641962051392f, -0.011866179294884204865f, 0.012249775230884552002f, -0.039946034550666809082f, -0.039023980498313903809f, -0.088892795145511627197f, -0.057241756469011306763f, -0.0030383181292563676834f, 0.063239499926567077637f, 0.0018995977006852626801f, -0.042678728699684143066f, -0.092009522020816802979f, -0.13042531907558441162f, -0.15355460345745086670f, -0.31398802995681762695f, 0.059067372232675552368f, 0.0095746647566556930542f, -9.8760989203583449125e-05f, 0.013912778347730636597f, 0.0076847770251333713531f, 0.021968187764286994934f, -0.029747243970632553101f, -0.063979335129261016846f, 0.023728739470243453979f, 0.054151304066181182861f, -0.11849349737167358398f, -0.19070373475551605225f, -0.23161183297634124756f, -0.28910720348358154297f, -0.36394360661506652832f, -0.47574543952941894531f, 0.050837706774473190308f, 0.033685699105262756348f, -0.011014489457011222839f, -0.016996581107378005981f, -0.027544947341084480286f, -0.049925941973924636841f, -0.090871162712574005127f, -0.022109452635049819946f, 0.25160354375839233398f, 0.33817109465599060059f, 0.14785245060920715332f, 0.026234513148665428162f, -0.12908865511417388916f, -0.23909094929695129395f, -0.45966649055480957031f, -0.51775258779525756836f, 0.039674263447523117065f, 0.048248171806335449219f, 0.035912495106458663940f, 0.0081714894622564315796f, 0.010108549147844314575f, -0.036926511675119400024f, -0.067010708153247833252f, -0.034303154796361923218f, 0.25490438938140869141f, 0.31027457118034362793f, 0.13988219201564788818f, -0.013872843235731124878f, -0.15472501516342163086f, -0.24126785993576049805f, -0.37335255742073059082f, -0.46358242630958557129f, 0.0093721877783536911011f, -0.041401822119951248169f, -0.0096627278253436088562f, -0.050875063985586166382f, -0.081413432955741882324f, -0.0052055362612009048462f, -0.038293793797492980957f, -0.063131973147392272949f, 0.032033998519182205200f, 0.048278968781232833862f, -0.042133186012506484985f, -0.13228800892829895020f, -0.14817175269126892090f, -0.21278305351734161377f, -0.24306318163871765137f, -0.29999482631683349609f, 0.026939354836940765381f, 0.032870449125766754150f, -0.0029219004791229963303f, -0.018564466387033462524f, 0.032013259828090667725f, 0.014860671944916248322f, -0.032275211066007614136f, -0.025053931400179862976f, 0.034998912364244461060f, 0.037528749555349349976f, -0.022098667919635772705f, -0.058656010776758193970f, -0.093020118772983551025f, -0.091605074703693389893f, -0.076035119593143463135f, -0.16919617354869842529f, -0.020121665671467781067f, 0.0032032688613981008530f, -0.0067178090102970600128f, -0.016330085694789886475f, 0.028255715966224670410f, 0.049048054963350296021f, -0.030328493565320968628f, 0.0022747770417481660843f, 0.080323688685894012451f, 0.022148437798023223877f, 0.049581702798604965210f, -0.0043737129308283329010f, -0.0059991301968693733215f, 0.0060556544922292232513f, 0.089650876820087432861f, -0.065606780350208282471f, -0.038664080202579498291f, 0.0067259841598570346832f, 0.015969565138220787048f, -0.029519602656364440918f, -0.089834913611412048340f, -0.061597943305969238281f, -0.13799422979354858398f, -0.098858274519443511963f, 0.010205255821347236633f, 0.051515519618988037109f, 0.069448076188564300537f, 0.063426390290260314941f, -0.016646150499582290649f, 0.017473887652158737183f, -0.021261096000671386719f, -0.19287550449371337891f, -0.047920759767293930054f, 0.011804897338151931763f, 0.00075428717536851763725f, -0.057988978922367095947f, -0.10732081532478332520f, -0.087337903678417205811f, -0.16008862853050231934f, -0.12930163741111755371f, -0.059083368629217147827f, -0.015988405793905258179f, -0.0032849290873855352402f, 0.0026627904735505580902f, -0.089264832437038421631f, -0.093864917755126953125f, -0.13788571953773498535f, -0.30891835689544677734f, 0.024925179779529571533f, 0.012303091585636138916f, -0.020163940265774726868f, -0.0039836089126765727997f, -0.033210895955562591553f, -0.082669176161289215088f, -0.11381130665540695190f, -0.17991173267364501953f, -0.038422640413045883179f, -0.021532537415623664856f, -0.047602970153093338013f, -0.11686392128467559814f, -0.13503623008728027344f, -0.24650435149669647217f, -0.30975735187530517578f, -0.44389310479164123535f, 0.0070843519642949104309f, -3.8737241993658244610e-05f, -0.0055191391147673130035f, 0.029687296599149703979f, -0.0057038916274905204773f, -0.10572814196348190308f, -0.16016167402267456055f, -0.17754633724689483643f, -0.077045701444149017334f, -0.080996312201023101807f, -0.093598686158657073975f, -0.14987082779407501221f, -0.14784376323223114014f, -0.24562779068946838379f, -0.33158460259437561035f, -0.52747631072998046875f, -0.043897673487663269043f, -0.017268821597099304199f, -0.014188212342560291290f, 0.015826655551791191101f, -0.064443901181221008301f, -0.068274356424808502197f, -0.16026054322719573975f, -0.18548229336738586426f, -0.024627555161714553833f, -0.015842167660593986511f, -0.022845365107059478760f, -0.10952881723642349243f, -0.12163794785737991333f, -0.23854289948940277100f, -0.29141375422477722168f, -0.44241413474082946777f, -0.0081108473241329193115f, -0.031450260430574417114f, -0.036424558609724044800f, 0.0030367702711373567581f, -0.10583946108818054199f, -0.084280885756015777588f, -0.10596244037151336670f, -0.11267948895692825317f, -0.046515092253684997559f, 0.011693599633872509003f, -0.017291769385337829590f, -0.097969837486743927002f, -0.097215831279754638672f, -0.17310291528701782227f, -0.14994907379150390625f, -0.30197033286094665527f, -0.015069808810949325562f, -0.020870497450232505798f, -0.042408503592014312744f, -0.031314421445131301880f, -0.064856335520744323730f, -0.091968879103660583496f, -0.086220577359199523926f, -0.072576880455017089844f, -0.011292141862213611603f, 0.018675012513995170593f, -0.00016880909970495849848f, -0.11182963848114013672f, -0.043499842286109924316f, -0.044843368232250213623f, 0.013473940081894397736f, -0.12853474915027618408f, -0.029198192059993743896f, -0.066279239952564239502f, 0.016945384442806243896f, -0.091622024774551391602f, -0.057860296219587326050f, -0.081563584506511688232f, -0.053308911621570587158f, -0.073531940579414367676f, 0.018228249624371528625f, -0.0096220448613166809082f, 0.080698370933532714844f, 0.0072033009491860866547f, 0.045367944985628128052f, 0.070472240447998046875f, 0.12672491371631622314f, -0.081977754831314086914f, -0.011286556720733642578f, -0.044337373226881027222f, 0.023249382153153419495f, -0.022147823125123977661f, -0.062464080750942230225f, -0.026194566860795021057f, -0.069599077105522155762f, -0.035186678171157836914f, 0.019002610817551612854f, 0.016261233016848564148f, 0.082769773900508880615f, 0.056763786822557449341f, -0.033483058214187622070f, -0.00033232741407118737698f, -0.018149048089981079102f, -0.19845248758792877197f, -0.030131915584206581116f, -0.028622210025787353516f, 0.035141069442033767700f, -0.037904087454080581665f, -0.060350429266691207886f, -0.076059289276599884033f, -0.075194790959358215332f, -0.024679834023118019104f, -0.022856945171952247620f, 0.0099858958274126052856f, 0.035714361816644668579f, 0.036048240959644317627f, -0.038573425263166427612f, -0.064530827105045318604f, -0.10261142998933792114f, -0.26953253149986267090f, -0.0043253549374639987946f, 0.024611150845885276794f, 0.0039661941118538379669f, 0.0023670261725783348083f, -0.0054196831770241260529f, -0.030279196798801422119f, -0.081804119050502777100f, -0.016241099685430526733f, -0.033537894487380981445f, -0.038365323096513748169f, -0.0080540152266621589661f, -0.060327515006065368652f, -0.024996047839522361755f, -0.11076643317937850952f, -0.18422894179821014404f, -0.37140995264053344727f, 0.025557005777955055237f, -0.028132265433669090271f, 0.0032279347069561481476f, -0.030575858429074287415f, -0.032495819032192230225f, -0.066299907863140106201f, -0.10749866813421249390f, -0.083728164434432983398f, -0.038424592465162277222f, 0.00070748361758887767792f, -0.023596147075295448303f, -0.017767917364835739136f, -0.018870593979954719543f, -0.11864271759986877441f, -0.21647948026657104492f, -0.39309492707252502441f, 0.021384401246905326843f, -0.042509377002716064453f, -0.011818231083452701569f, -0.0041892193257808685303f, -0.025214929133653640747f, -0.10365923494100570679f, -0.10959300398826599121f, -0.10278081148862838745f, -0.033472619950771331787f, 0.026767268776893615723f, -0.041878774762153625488f, -0.060205757617950439453f, -0.019514078274369239807f, -0.096751973032951354980f, -0.13364522159099578857f, -0.35353887081146240234f, 0.0042605898343026638031f, 0.012766148895025253296f, 0.018584439530968666077f, 0.010577353648841381073f, -0.10503251105546951294f, -0.074532903730869293213f, -0.086105838418006896973f, -0.070977792143821716309f, -0.0026729693636298179626f, -0.0055104349739849567413f, 0.0063109020702540874481f, -0.072122618556022644043f, -0.0040828357450664043427f, -0.051553685218095779419f, -0.016055336222052574158f, -0.22078284621238708496f, -0.043088056147098541260f, 0.019306067377328872681f, -0.0099446186795830726624f, -0.023765340447425842285f, -0.057232368737459182739f, -0.056418869644403457642f, -0.031934596598148345947f, -0.030008593574166297913f, 0.029059931635856628418f, 0.0029745718929916620255f, 0.0023460262455046176910f, -0.040338616818189620972f, -0.010959898121654987335f, 0.013099952600896358490f, 0.091049320995807647705f, -0.10193497687578201294f, -0.0017411970766261219978f, -0.022665595635771751404f, -0.024954039603471755981f, -0.068460717797279357910f, -0.075595624744892120361f, -0.094302475452423095703f, -0.025096442550420761108f, -0.022752357646822929382f, 0.032982409000396728516f, 0.032546050846576690674f, 0.061837404966354370117f, 0.023418320342898368835f, 0.091972291469573974609f, 0.11160100251436233521f, 0.15440690517425537109f, -0.070495560765266418457f, -0.0031567623373121023178f, -0.016155967488884925842f, 0.043270032852888107300f, -0.048934254795312881470f, -0.033325728029012680054f, 0.0014593028463423252106f, -0.034520130604505538940f, -0.045254878699779510498f, -0.018610224127769470215f, -0.022524865344166755676f, 0.070756532251834869385f, 0.061955325305461883545f, -0.0013224403373897075653f, 0.012331883423030376434f, -0.014453101903200149536f, -0.17468394339084625244f, -0.022089855745434761047f, -0.0084187379106879234314f, -0.012876821681857109070f, -0.024790268391370773315f, -0.036414328962564468384f, -0.014054865576326847076f, -0.00083891185931861400604f, -0.043302129954099655151f, 0.0045056291855871677399f, -0.019826734438538551331f, 0.068792119622230529785f, 0.048786699771881103516f, -0.0035662408918142318726f, -0.0094277802854776382446f, -0.013064970262348651886f, -0.23882636427879333496f, -0.0019870367832481861115f, -0.042979843914508819580f, -0.0033497638069093227386f, -0.0041374331340193748474f, -0.011790834367275238037f, 0.015359048731625080109f, -0.031293742358684539795f, 0.013184784911572933197f, 0.018210934475064277649f, 0.0075441529043018817902f, 0.029436886310577392578f, 0.0062373606488108634949f, 0.059193108230829238892f, -0.021324910223484039307f, -0.045285332947969436646f, -0.28474900126457214355f, 0.038218542933464050293f, -0.040903504937887191772f, 0.032291680574417114258f, -0.039902228862047195435f, -0.014550271444022655487f, -0.0031209259759634733200f, -0.043691970407962799072f, -0.034389544278383255005f, 0.098791085183620452881f, 0.023732280358672142029f, 0.067230440676212310791f, 0.0066036274656653404236f, 0.051667287945747375488f, -0.016348993405699729919f, -0.016708521172404289246f, -0.30704820156097412109f, 0.012702854350209236145f, -0.019129602238535881042f, 0.00063896877691149711609f, -0.011000498197972774506f, -0.0025713958311825990677f, -0.040128208696842193604f, -0.060967087745666503906f, -0.0098761217668652534485f, 0.059881016612052917480f, 0.058798633515834808350f, 0.085135884582996368408f, 0.019403479993343353271f, 0.079661324620246887207f, 0.074370041489601135254f, 0.016816889867186546326f, -0.24776712059974670410f, -0.043454993516206741333f, -0.0066050165332853794098f, 0.018044749274849891663f, -0.018425678834319114685f, -0.091374628245830535889f, -0.076556131243705749512f, -0.049109261482954025269f, -0.019339561462402343750f, 0.027598448097705841064f, 0.017609260976314544678f, 0.056911632418632507324f, -0.0039914231747388839722f, 0.090893395245075225830f, 0.099883109331130981445f, 0.088278338313102722168f, -0.15999960899353027344f, -0.065103448927402496338f, -0.0019062905339524149895f, -0.046413343399763107300f, 0.013185007497668266296f, -0.029072411358356475830f, -0.031667523086071014404f, 0.021839383989572525024f, -0.036168642342090606689f, 0.030905943363904953003f, -0.026553630828857421875f, 0.010058203712105751038f, 0.026934377849102020264f, 0.071409001946449279785f, 0.056491132825613021851f, 0.11776206642389297485f, -0.12462401390075683594f, -0.035687748342752456665f, -0.044228844344615936279f, -0.056073140352964401245f, -0.016106231138110160828f, -0.045324731618165969849f, -0.048939786851406097412f, 0.022315390408039093018f, -0.035109564661979675293f, -0.019457077607512474060f, -0.018554193899035453796f, 0.047078453004360198975f, 0.049809943884611129761f, 0.12966045737266540527f, 0.13041242957115173340f, 0.18258437514305114746f, -0.080874368548393249512f, -0.058916952461004257202f, 0.011059737764298915863f, -0.0033349837176501750946f, -0.013249480165541172028f, -0.083417065441608428955f, -0.051266402006149291992f, -0.054519616067409515381f, -0.054136272519826889038f, 0.0033333199098706245422f, -0.034794524312019348145f, 0.065597690641880035400f, 0.082283683121204376221f, 0.033707041293382644653f, 0.012510864995419979095f, -0.0088104866445064544678f, -0.22457663714885711670f, 0.018724851310253143311f, -0.0069989766925573348999f, -0.054955594241619110107f, -0.067397154867649078369f, -0.087365634739398956299f, -0.032182302325963973999f, -0.017415670678019523621f, -0.032537352293729782104f, 0.040610890835523605347f, 0.034531366080045700073f, 0.070887401700019836426f, 0.091098934412002563477f, 0.049153842031955718994f, 0.0078906975686550140381f, 0.018149912357330322266f, -0.24653947353363037109f, -0.0064453636296093463898f, -0.0039697471074759960175f, -0.067105218768119812012f, -0.025147648528218269348f, 0.014456905424594879150f, -0.020298691466450691223f, 0.020497318357229232788f, -0.010386932641267776489f, 0.13091315329074859619f, 0.043833646923303604126f, 0.099109984934329986572f, 0.076004788279533386230f, 0.097844786942005157471f, 0.030501883476972579956f, 0.0090555632486939430237f, -0.29862034320831298828f, 0.0062736682593822479248f, 0.0046558789908885955811f, -0.023257754743099212646f, -0.034527916461229324341f, -0.036247860640287399292f, -0.0082870991900563240051f, -0.027380628511309623718f, -0.031265091150999069214f, 0.12863676249980926514f, 0.069689795374870300293f, 0.12993633747100830078f, 0.084697782993316650391f, 0.10238899290561676025f, 0.039384171366691589355f, -0.017425529658794403076f, -0.30087924003601074219f, -0.024644790217280387878f, 0.023580309003591537476f, -0.021155877038836479187f, -0.042367186397314071655f, -0.055987209081649780273f, 0.0016513130394741892815f, -0.016292581334710121155f, -0.0055486429482698440552f, 0.11447943001985549927f, 0.056243479251861572266f, 0.16223020851612091064f, 0.11603701859712600708f, 0.091458655893802642822f, 0.084111794829368591309f, 0.063432499766349792480f, -0.28247788548469543457f, -0.012056074105203151703f, -0.083993136882781982422f, -0.054359000176191329956f, -0.030724193900823593140f, -0.066375181078910827637f, -0.045497845858335494995f, -0.061449762433767318726f, 0.030128601938486099243f, 0.067955873906612396240f, 0.028421465307474136353f, 0.098370216786861419678f, 0.10270255059003829956f, 0.10833187401294708252f, 0.13358761370182037354f, 0.092151783406734466553f, -0.18209785223007202148f, -0.034914620220661163330f, -0.076099053025245666504f, -0.073966786265373229980f, 0.0052703097462654113770f, -0.032520230859518051147f, -0.027895089238882064819f, 0.023976553231477737427f, 0.0028446279466152191162f, 0.056445237249135971069f, -0.032917391508817672729f, 0.054906398057937622070f, 0.043974116444587707520f, 0.13222296535968780518f, 0.084652423858642578125f, 0.14475761353969573975f, -0.12716409564018249512f, -0.015449510887265205383f, -0.052107155323028564453f, -0.011590733192861080170f, -0.059076268225908279419f, -0.078533925116062164307f, -0.067803345620632171631f, -0.027138721197843551636f, -0.075226314365863800049f, -0.0056933774612843990326f, -0.060023941099643707275f, 0.052298683673143386841f, 0.11095751076936721802f, 0.13862459361553192139f, 0.10708117485046386719f, 0.18507656455039978027f, -0.097306609153747558594f, -0.0040375180542469024658f, -0.030432520434260368347f, -0.034737702459096908569f, 0.014314037747681140900f, -0.058082763105630874634f, -0.027531912550330162048f, -0.11633673310279846191f, -0.074559360742568969727f, -0.055031280964612960815f, -0.065052464604377746582f, 0.0050659561529755592346f, 0.020168140530586242676f, 0.13801196217536926270f, 0.24278949201107025146f, 0.091951526701450347900f, -0.21744334697723388672f, -0.00082204287173226475716f, 0.0043600532226264476776f, 0.024509431794285774231f, 0.015453890897333621979f, -0.0017403890378773212433f, -0.0029984621796756982803f, -0.078610658645629882812f, -0.046955231577157974243f, -0.032328959554433822632f, 0.020787196233868598938f, 0.019231302663683891296f, 0.022066522389650344849f, 0.062355961650609970093f, 0.12811787426471710205f, 0.024270204827189445496f, -0.26215094327926635742f, -0.011021310463547706604f, 0.0031247474253177642822f, 0.035445239394903182983f, 0.031538911163806915283f, 0.017969222739338874817f, -0.072373762726783752441f, -0.044208150357007980347f, -0.044746235013008117676f, 0.12964276969432830811f, 0.050063673406839370728f, 0.10680564492940902710f, 0.11204556375741958618f, -0.043315570801496505737f, -0.0017724011559039354324f, -0.043098669499158859253f, -0.31310981512069702148f, -0.0093448776751756668091f, 0.025693483650684356689f, -0.029733404517173767090f, -0.027174768969416618347f, 0.051175881177186965942f, -0.040209125727415084839f, -0.047344867140054702759f, -0.065590105950832366943f, 0.15110246837139129639f, 0.073014475405216217041f, 0.16568547487258911133f, 0.095762051641941070557f, -0.037764094769954681396f, 0.011484766378998756409f, -0.079016245901584625244f, -0.36085739731788635254f, 0.0028168326243758201599f, 0.0068459520116448402405f, 0.031748667359352111816f, -0.046832390129566192627f, 0.0023657786659896373749f, -0.0024705014657229185104f, -0.042919639497995376587f, -0.086919263005256652832f, 0.10200302302837371826f, 0.074651785194873809814f, 0.15192256867885589600f, 0.11411850154399871826f, -0.039071016013622283936f, 0.016374597325921058655f, -0.059762228280305862427f, -0.40357428789138793945f, -0.011612935923039913177f, 0.024800036102533340454f, 0.025032615289092063904f, 0.019211571663618087769f, 0.058025501668453216553f, 0.016284868121147155762f, -0.042035188525915145874f, -0.039065819233655929565f, 0.052430242300033569336f, 0.063790872693061828613f, 0.13414731621742248535f, 0.081858024001121520996f, -0.056810870766639709473f, 0.028088459745049476624f, -0.027673814445734024048f, -0.29657664895057678223f, 0.0058142272755503654480f, -0.0097511326894164085388f, -0.00035388430114835500717f, 0.023410495370626449585f, -0.00032201307476498186588f, -0.046336606144905090332f, -0.011418745853006839752f, -0.044519525021314620972f, -0.062356103211641311646f, 0.014240123331546783447f, 0.038609508424997329712f, 0.025171348825097084045f, 0.037445403635501861572f, 0.051426790654659271240f, 0.074725829064846038818f, -0.21906894445419311523f, -0.040291726589202880859f, -0.023748995736241340637f, 0.0023842775262892246246f, -0.013075158931314945221f, -0.022343454882502555847f, -0.048929966986179351807f, -0.084982722997665405273f, -0.10576535761356353760f, -0.10227210819721221924f, -0.00039492463110946118832f, 0.028113950043916702271f, 0.055544614791870117188f, 0.049439866095781326294f, 0.10481642931699752808f, 0.12962204217910766602f, -0.12420691549777984619f, 0.0062679206021130084991f, -0.022712145000696182251f, -0.038665931671857833862f, -0.029383065178990364075f, -0.0081231575459241867065f, -0.025427697226405143738f, -0.12661609053611755371f, -0.088078282773494720459f, -0.049609243869781494141f, 0.024733787402510643005f, 0.038959529250860214233f, 0.0050258534029126167297f, 0.11505057662725448608f, 0.26316320896148681641f, 0.092539340257644653320f, -0.20545494556427001953f, 0.00079524336615577340126f, 0.0047996859066188335419f, -0.0060255159623920917511f, 0.0041520660743117332458f, -0.0034809296485036611557f, -0.021316563710570335388f, -0.074518829584121704102f, -0.066488698124885559082f, 0.0065107997506856918335f, 0.041895255446434020996f, 0.048776712268590927124f, -0.014415578916668891907f, 0.052819412201642990112f, 0.15675751864910125732f, 0.057108603417873382568f, -0.25334030389785766602f, -0.00036045446177013218403f, -0.033272866159677505493f, 0.0037978021427989006042f, 0.017688969150185585022f, -0.0037672047037631273270f, 0.013227638788521289825f, -0.018271269276738166809f, -0.068188458681106567383f, 0.14441792666912078857f, 0.026799898594617843628f, 0.087432987987995147705f, 0.063423179090023040771f, -0.0096685672178864479065f, -0.037130672484636306763f, -0.071978583931922912598f, -0.37464082241058349609f, 0.018402056768536567688f, 0.023933317512273788452f, 0.026871291920542716980f, -0.0098424004390835762024f, 0.0080202184617519378662f, 0.016206955537199974060f, -0.0068766432814300060272f, -0.019398514181375503540f, 0.16280116140842437744f, 0.061118911951780319214f, 0.14033772051334381104f, 0.094062991440296173096f, -0.021458122879266738892f, -0.053972188383340835571f, -0.13105271756649017334f, -0.42965453863143920898f, -0.024052597582340240479f, -0.036215726286172866821f, 0.0097965905442833900452f, -0.053375359624624252319f, 0.0073319277726113796234f, -0.0056417169980704784393f, -0.021043317392468452454f, -0.062869653105735778809f, 0.11696802079677581787f, 0.063613824546337127686f, 0.14545197784900665283f, 0.092473469674587249756f, -0.062994435429573059082f, -0.071590922772884368896f, -0.10946068167686462402f, -0.45288580656051635742f, -0.00032910710433498024940f, -0.046045783907175064087f, 0.040310658514499664307f, -0.022865498438477516174f, 0.024547562003135681152f, 0.011193657293915748596f, -0.025931233540177345276f, -0.055702447891235351562f, 0.047977466136217117310f, 0.047754738479852676392f, 0.10624974220991134644f, 0.065485902130603790283f, -0.037014517933130264282f, -0.026455037295818328857f, -0.066839747130870819092f, -0.36955186724662780762f, -0.034150660037994384766f, 0.0042911381460726261139f, 0.010860026814043521881f, -0.041436668485403060913f, 0.0097556551918387413025f, 0.0075589483603835105896f, -0.012136771343648433685f, -0.039345171302556991577f, -0.0010332557139918208122f, 0.076124593615531921387f, 0.060999091714620590210f, 0.018010787665843963623f, 0.017963545396924018860f, 0.020145945250988006592f, 0.019238870590925216675f, -0.25767233967781066895f, 0.0092990119010210037231f, -0.016151553019881248474f, -0.0064120772294700145721f, 0.0047186273150146007538f, 0.0093344002962112426758f, -0.023090023547410964966f, -0.043165415525436401367f, -0.043339379131793975830f, -0.040759485214948654175f, 0.037751596421003341675f, 0.022937884554266929626f, 0.0054522827267646789551f, 0.041912063956260681152f, 0.10382791608572006226f, 0.089868731796741485596f, -0.17405171692371368408f, 0.0015088026411831378937f, 0.013239343650639057159f, -0.0022206322755664587021f, -0.015916485339403152466f, 0.014905412681400775909f, 0.020329914987087249756f, -0.012768696993589401245f, -0.0068406732752919197083f, 0.011205843649804592133f, 0.12416754662990570068f, 0.051373168826103210449f, 0.032861843705177307129f, 0.13291539251804351807f, 0.15526168048381805420f, 0.093524724245071411133f, -0.19056285917758941650f, -0.015762945637106895447f, -0.0085218371823430061340f, -0.041296225041151046753f, -0.017282303422689437866f, -0.015838766470551490784f, -0.0046648285351693630219f, -0.085227251052856445312f, -0.036566689610481262207f, 0.010218413546681404114f, 0.14373986423015594482f, 0.039197172969579696655f, 0.0067237149924039840698f, 0.081402204930782318115f, 0.092168681323528289795f, 0.059305533766746520996f, -0.24799756705760955811f, 0.0083423051983118057251f, -0.017555430531501770020f, -0.023778021335601806641f, 0.0071626431308686733246f, 0.027808494865894317627f, 0.082686111330986022949f, 0.014718663878738880157f, 0.032218705862760543823f, 0.068437494337558746338f, 0.078780114650726318359f, 0.058830380439758300781f, 0.048139963299036026001f, 0.052325241267681121826f, 0.020832482725381851196f, -0.059590656310319900513f, -0.34886240959167480469f, 0.062637582421302795410f, 0.076929263770580291748f, -0.013448424637317657471f, -0.031807012856006622314f, 0.022808751091361045837f, 0.062497343868017196655f, 0.017405327409505844116f, 0.047461595386266708374f, 0.046548347920179367065f, 0.075065597891807556152f, 0.050744798034429550171f, 0.034803912043571472168f, 0.032742980867624282837f, 0.020804418250918388367f, -0.058931689709424972534f, -0.44966232776641845703f, 0.016992071643471717834f, -0.023824617266654968262f, -0.0026383998338133096695f, -0.076144576072692871094f, 0.051337029784917831421f, 0.045156400650739669800f, 0.027116505429148674011f, 0.017476946115493774414f, 0.023569395765662193298f, 0.060956429690122604370f, 0.090514034032821655273f, 0.057454049587249755859f, -0.072196342051029205322f, -0.042894717305898666382f, -0.11810800433158874512f, -0.48221439123153686523f, -0.031254604458808898926f, -0.026678133755922317505f, 0.011249768547713756561f, -0.0060003669932484626770f, 0.048639904707670211792f, -0.0026165919844061136246f, -0.0047668069601058959961f, -0.0053411535918712615967f, 0.041810542345046997070f, 0.058299120515584945679f, 0.088858723640441894531f, 0.043372064828872680664f, -0.058755744248628616333f, -0.055510524660348892212f, -0.082856014370918273926f, -0.39188587665557861328f, -0.0010574104962870478630f, -0.019299956038594245911f, 0.028749534860253334045f, 0.037387482821941375732f, 0.056226495653390884399f, 0.0061981198377907276154f, -0.053405120968818664551f, -0.074515104293823242188f, 0.029837628826498985291f, 0.061261516064405441284f, 0.038990519940853118896f, -0.023414768278598785400f, -0.0049485322088003158569f, 0.021208710968494415283f, 0.037274461239576339722f, -0.29575693607330322266f, 0.031754989176988601685f, -0.0026418308261781930923f, -0.019905721768736839294f, 0.0091451378539204597473f, 0.010017857886850833893f, -0.019691707566380500793f, -0.022076612338423728943f, 0.015803253278136253357f, 0.060840293765068054199f, 0.067794926464557647705f, 0.043617233633995056152f, -0.016029762104153633118f, 0.018205061554908752441f, 0.10045959800481796265f, 0.13173155486583709717f, -0.18457706272602081299f, 0.010253984481096267700f, -0.016600137576460838318f, -0.040676474571228027344f, -0.024676121771335601807f, 0.024429613724350929260f, 0.025119610130786895752f, -0.020588284358382225037f, -0.021475760266184806824f, 0.010691975243389606476f, 0.13393411040306091309f, 0.090592026710510253906f, 0.082981690764427185059f, 0.13870167732238769531f, 0.17056639492511749268f, 0.10252436250448226929f, -0.20264540612697601318f, -0.020884295925498008728f, -0.028396725654602050781f, -0.085094302892684936523f, -0.027389252558350563049f, -0.0075228996574878692627f, 0.011599461548030376434f, -0.036417048424482345581f, -0.054814040660858154297f, 0.0082834260538220405579f, 0.14856614172458648682f, 0.058795209974050521851f, 0.052981808781623840332f, 0.11077717691659927368f, 0.085252247750759124756f, 0.071106694638729095459f, -0.26718968152999877930f, 0.072413258254528045654f, -0.018491720780730247498f, 0.0074199200607836246490f, 0.020462449640035629272f, 0.015556463040411472321f, 0.034836165606975555420f, 0.0049375584349036216736f, 0.028268003836274147034f, 0.054575353860855102539f, 0.062851890921592712402f, 0.035795241594314575195f, -0.0034055595751851797104f, 0.040766250342130661011f, 0.13122618198394775391f, -0.028912844136357307434f, -0.37758263945579528809f, 0.016537880524992942810f, 0.013948955573141574860f, 0.018677208572626113892f, -0.0010897702304646372795f, -0.0041115991771221160889f, 0.042453359812498092651f, 0.028944110497832298279f, -0.019027307629585266113f, 0.030545188114047050476f, 0.060983560979366302490f, -0.018300477415323257446f, -0.044421050697565078735f, 0.0013211776968091726303f, 0.0083377780392765998840f, -0.068326219916343688965f, -0.45203456282615661621f, 0.018912227824330329895f, -0.0092843640595674514771f, 0.011534726247191429138f, -0.041814036667346954346f, 0.035564962774515151978f, 0.033427238464355468750f, 0.034484390169382095337f, 0.026052461937069892883f, 0.049433860927820205688f, 0.010990808717906475067f, 0.029332632198929786682f, -0.022878084331750869751f, -0.077844180166721343994f, -0.076688989996910095215f, -0.10691808164119720459f, -0.44662094116210937500f, -0.046257521957159042358f, -0.026245635002851486206f, 0.040380015969276428223f, 0.011171323247253894806f, -0.0018574157729744911194f, -0.018048230558633804321f, -0.023408826440572738647f, -0.031702328473329544067f, 0.052576005458831787109f, 0.059671979397535324097f, 0.016648394986987113953f, -0.031134173274040222168f, -0.078281238675117492676f, -0.083857640624046325684f, -0.10172528028488159180f, -0.40359213948249816895f, 0.029866646975278854370f, 0.019817322492599487305f, -0.015769792720675468445f, 0.044704359024763107300f, 0.019627127796411514282f, -0.020587995648384094238f, -0.0024487697519361972809f, -0.018215892836451530457f, 0.099949523806571960449f, 0.017655514180660247803f, 0.044436670839786529541f, -0.052390646189451217651f, -0.044496938586235046387f, 0.032032072544097900391f, 0.032645098865032196045f, -0.34736761450767517090f, -0.012920568697154521942f, -0.0096753919497132301331f, -0.010730276815593242645f, 0.041414804756641387939f, 0.017115866765379905701f, -0.020130451768636703491f, -0.046583198010921478271f, -0.014523364603519439697f, 0.096031725406646728516f, 0.033384021371603012085f, 0.044907808303833007812f, -0.0091215679422020912170f, 0.040590517222881317139f, 0.097271181643009185791f, 0.093119926750659942627f, -0.18926146626472473145f, -0.042542625218629837036f, -0.091759450733661651611f, -0.067633725702762603760f, -0.038895890116691589355f, -0.082614213228225708008f, -0.074467875063419342041f, -0.066650599241256713867f, -0.15031905472278594971f, -0.073549702763557434082f, 0.20254836976528167725f, 0.056770093739032745361f, 0.079519212245941162109f, 0.15345089137554168701f, 0.19068296253681182861f, 0.082859106361865997314f, -0.21449474990367889404f, -0.036057692021131515503f, -0.086696490645408630371f, -0.078781105577945709229f, -0.039018530398607254028f, -0.11602740734815597534f, -0.051254555583000183105f, -0.080381542444229125977f, -0.11110025644302368164f, -0.082761518657207489014f, 0.20428971946239471436f, 0.022764105349779129028f, 0.065826721489429473877f, 0.16702978312969207764f, 0.12841644883155822754f, 0.086759760975837707520f, -0.26998499035835266113f, -0.00036512850783765316010f, -0.012061150744557380676f, -0.038435004651546478271f, -0.0059925732202827930450f, -0.096785493195056915283f, -0.045093663036823272705f, -0.083478040993213653564f, -0.079184167087078094482f, -0.14409627020359039307f, 0.066751249134540557861f, -0.042616486549377441406f, 0.078794859349727630615f, 0.18384145200252532959f, 0.25760856270790100098f, -0.0013788464711979031563f, -0.31155741214752197266f, 0.012150159105658531189f, 0.0056528467684984207153f, -0.041988570243120193481f, -0.034018520265817642212f, -0.057077281177043914795f, -0.046298105269670486450f, -0.034715566784143447876f, -0.064087681472301483154f, -0.18844985961914062500f, -0.039087809622287750244f, -0.054986324161291122437f, 0.093419596552848815918f, 0.19712835550308227539f, 0.19617536664009094238f, 0.012047665193676948547f, -0.37157437205314636230f, -0.019119834527373313904f, -0.030779482796788215637f, -0.014839887619018554688f, -0.064792759716510772705f, -0.065747134387493133545f, -0.044454969465732574463f, -0.057743921875953674316f, -0.076835967600345611572f, -0.0067977607250213623047f, -0.11421070247888565063f, -0.098672680556774139404f, 0.067870415747165679932f, 0.21928636729717254639f, 0.24581307172775268555f, -0.017844501882791519165f, -0.41924223303794860840f, -0.066072896122932434082f, -0.0085300579667091369629f, -0.027291532605886459351f, 0.0071380161680281162262f, -0.035098768770694732666f, -0.059338945895433425903f, -0.019841130822896957397f, -0.095280461013317108154f, 0.021890258416533470154f, -0.039212532341480255127f, -0.10701324790716171265f, 0.013156002387404441833f, 0.15608026087284088135f, 0.27467256784439086914f, -0.015408682636916637421f, -0.37844344973564147949f, -0.047097418457269668579f, -0.026915038004517555237f, -0.016716472804546356201f, -0.023467084392905235291f, -0.033350303769111633301f, -0.082586936652660369873f, -0.10374998301267623901f, -0.099640496075153350830f, 0.13874028623104095459f, 0.012789227999746799469f, 0.016697747632861137390f, -0.023328032344579696655f, 0.086611837148666381836f, 0.27513805031776428223f, 0.076590344309806823730f, -0.27990457415580749512f, -0.085955478250980377197f, -0.078217379748821258545f, -0.061384204775094985962f, -0.037673305720090866089f, -0.071830138564109802246f, -0.075894102454185485840f, -0.11584578454494476318f, -0.084733799099922180176f, 0.13597580790519714355f, 0.025707220658659934998f, 0.049313008785247802734f, 0.011523423716425895691f, 0.16795943677425384521f, 0.34153479337692260742f, 0.16959261894226074219f, -0.19099090993404388428f, -0.048820789903402328491f, -0.076721064746379852295f, -0.049376733601093292236f, -0.075671613216400146484f, -0.14021007716655731201f, -0.097503989934921264648f, -0.048964641988277435303f, -0.12001732736825942993f, -0.091834597289562225342f, 0.18519595265388488770f, 0.026168264448642730713f, 0.072183586657047271729f, 0.20068839192390441895f, 0.19826674461364746094f, 0.097317427396774291992f, -0.18709960579872131348f, -0.031050756573677062988f, -0.059138774871826171875f, -0.035553369671106338501f, -0.023599999025464057922f, -0.095133170485496520996f, -0.067839168012142181396f, -0.061624959111213684082f, -0.11036148667335510254f, -0.057149697095155715942f, 0.19059036672115325928f, 0.045512583106756210327f, 0.096595428884029388428f, 0.21963296830654144287f, 0.16302883625030517578f, 0.13137096166610717773f, -0.22657854855060577393f, -0.0045741484500467777252f, -0.019171329215168952942f, -0.067079439759254455566f, -0.011493127793073654175f, -0.070201478898525238037f, -0.051378935575485229492f, -0.046751055866479873657f, -0.074166551232337951660f, -0.13616237044334411621f, 0.066677466034889221191f, 0.025149278342723846436f, 0.15927308797836303711f, 0.26095727086067199707f, 0.28651922941207885742f, 0.088800489902496337891f, -0.26439610123634338379f, -0.044209007173776626587f, -0.036895308643579483032f, -0.070233553647994995117f, -0.056377802044153213501f, -0.023064838722348213196f, -0.0054202303290367126465f, -0.053742580115795135498f, -0.092432588338851928711f, -0.16945600509643554688f, -0.0022191302850842475891f, 0.016035156324505805969f, 0.13233278691768646240f, 0.27996554970741271973f, 0.29178395867347717285f, 0.076526023447513580322f, -0.31535986065864562988f, -0.020124610513448715210f, -0.040232319384813308716f, -0.037747692316770553589f, -0.059290267527103424072f, -0.017871469259262084961f, -0.029342371970415115356f, -0.036776226013898849487f, -0.059305928647518157959f, 0.020318536087870597839f, -0.079530075192451477051f, -0.027610329911112785339f, 0.16856551170349121094f, 0.28776955604553222656f, 0.36243468523025512695f, 0.091797545552253723145f, -0.36724910140037536621f, -0.031444054096937179565f, -0.015615397132933139801f, -0.082159213721752166748f, -0.021456930786371231079f, -0.019839121028780937195f, -0.058150157332420349121f, -0.048761490732431411743f, -0.086120620369911193848f, 0.038914028555154800415f, 0.0043657738715410232544f, -0.060469593852758407593f, 0.066647008061408996582f, 0.20967058837413787842f, 0.33882790803909301758f, 0.077780686318874359131f, -0.33174726366996765137f, -0.063762612640857696533f, -0.091008327901363372803f, -0.056758541613817214966f, -0.091167211532592773438f, -0.063298262655735015869f, -0.082150608301162719727f, -0.089075505733489990234f, -0.090027414262294769287f, 0.14705757796764373779f, 0.00066505686845630407333f, -0.0073827803134918212891f, -0.043779816478490829468f, 0.11389528959989547729f, 0.31879141926765441895f, 0.12810283899307250977f, -0.23432470858097076416f, -0.061446540057659149170f, -0.072489239275455474854f, -0.091588377952575683594f, -0.083392590284347534180f, -0.096166007220745086670f, -0.082384027540683746338f, -0.10341952741146087646f, -0.077349841594696044922f, 0.12108162045478820801f, 0.036310326308012008667f, 0.041976902633905410767f, 0.036350533366203308105f, 0.17395834624767303467f, 0.36928501725196838379f, 0.17225256562232971191f, -0.15954317152500152588f, -0.053306516259908676147f, 0.0026988408062607049942f, -0.044815514236688613892f, -0.055415257811546325684f, -0.10559423267841339111f, -0.11312460899353027344f, -0.090859629213809967041f, -0.089692078530788421631f, -0.098743736743927001953f, 0.14638975262641906738f, 0.014078819192945957184f, 0.10003390163183212280f, 0.22381982207298278809f, 0.24446074664592742920f, 0.17691485583782196045f, -0.16912512481212615967f, -0.023943521082401275635f, 0.0043896678835153579712f, -0.069033689796924591064f, -0.016637654975056648254f, -0.079498231410980224609f, -0.083389766514301300049f, -0.061086971312761306763f, -0.11184647679328918457f, -0.061145346611738204956f, 0.16033677756786346436f, 0.042593907564878463745f, 0.12582920491695404053f, 0.27436289191246032715f, 0.24507869780063629150f, 0.20520479977130889893f, -0.16747613251209259033f, 0.012739101424813270569f, 0.029737349599599838257f, -0.0073363925330340862274f, -0.020325604826211929321f, -0.045772247016429901123f, -0.090688481926918029785f, -0.058016762137413024902f, -0.088972091674804687500f, -0.16791565716266632080f, 0.030495032668113708496f, 0.036791231483221054077f, 0.17404331266880035400f, 0.34265330433845520020f, 0.41194155812263488770f, 0.22335702180862426758f, -0.17601257562637329102f, 0.013757198117673397064f, -0.045559875667095184326f, -0.042065430432558059692f, -0.024227904155850410461f, -0.052230391651391983032f, -0.084093257784843444824f, -0.046687617897987365723f, -0.10346345603466033936f, -0.19073563814163208008f, -0.055451449006795883179f, 0.020056750625371932983f, 0.23529192805290222168f, 0.36836898326873779297f, 0.37212151288986206055f, 0.24752859771251678467f, -0.17566172778606414795f, -0.0023693246766924858093f, -0.049176663160324096680f, -0.00041839809273369610310f, -0.033625878393650054932f, -0.085633367300033569336f, -0.023246105760335922241f, -0.072261177003383636475f, -0.12463436275720596313f, -0.029907068237662315369f, -0.063690751791000366211f, -0.028544828295707702637f, 0.26722958683967590332f, 0.41352427005767822266f, 0.40742725133895874023f, 0.22996911406517028809f, -0.20869231224060058594f, -0.025931656360626220703f, 0.038066342473030090332f, 0.037912506610155105591f, -0.019680529832839965820f, -0.074973285198211669922f, -0.065217174589633941650f, -0.089676715433597564697f, -0.11912796646356582642f, 0.0033505694009363651276f, -0.010477597825229167938f, -0.059118650853633880615f, 0.096772745251655578613f, 0.28252765536308288574f, 0.39045366644859313965f, 0.19609139859676361084f, -0.20310164988040924072f, -0.045122057199478149414f, -0.016094621270895004272f, -0.011362422257661819458f, -0.059170555323362350464f, -0.066091679036617279053f, -0.095817647874355316162f, -0.12376128882169723511f, -0.13883596658706665039f, 0.089711025357246398926f, -0.0081055853515863418579f, -0.0011558255646377801895f, -0.027737634256482124329f, 0.12476536631584167480f, 0.38541302084922790527f, 0.17118093371391296387f, -0.17000548541545867920f, -0.046939238905906677246f, -0.058916687965393066406f, -0.025014752522110939026f, -0.069369897246360778809f, -0.067677356302738189697f, -0.089278072118759155273f, -0.12734514474868774414f, -0.12792053818702697754f, 0.11363201588392257690f, 0.018726507201790809631f, 0.022257881239056587219f, 0.020219629630446434021f, 0.16018055379390716553f, 0.39544105529785156250f, 0.18736921250820159912f, -0.11562981456518173218f, 0.047342617064714431763f, 0.0092913340777158737183f, 0.033901955932378768921f, 0.018314165994524955750f, 0.022952705621719360352f, 0.0061455997638404369354f, -0.019387576729059219360f, 0.0056994291953742504120f, 0.036413352936506271362f, 0.11029017716646194458f, 0.085621409118175506592f, 0.11243376135826110840f, 0.13203561305999755859f, 0.15021118521690368652f, 0.12725824117660522461f, -0.10274303704500198364f, 0.0096272202208638191223f, 0.018234530463814735413f, 0.00019776404951699078083f, -0.017160007730126380920f, 0.021363986656069755554f, 0.040066558867692947388f, 0.018998933956027030945f, -0.017999134957790374756f, -0.0064523080363869667053f, 0.11705363541841506958f, 0.12107857316732406616f, 0.16872197389602661133f, 0.19087570905685424805f, 0.19639478623867034912f, 0.16501761972904205322f, -0.084241643548011779785f, 0.029550729319453239441f, 0.042198918759822845459f, 0.033670756965875625610f, 0.029286360368132591248f, -0.00062656402587890625000f, 0.018255842849612236023f, -0.00045567605411633849144f, -0.029812626540660858154f, -0.077917672693729400635f, 0.0047030318528413772583f, 0.054391816258430480957f, 0.14988964796066284180f, 0.23256959021091461182f, 0.24413359165191650391f, 0.20442289113998413086f, -0.034630473703145980835f, 0.0070124929770827293396f, 0.0022240621037781238556f, 0.030216844752430915833f, 0.021596852689981460571f, 0.053286507725715637207f, 0.0037039245944470167160f, -0.0078362990170717239380f, -0.043688651174306869507f, -0.15252119302749633789f, -0.069294191896915435791f, -0.060637496411800384521f, 0.15551736950874328613f, 0.24214603006839752197f, 0.25681805610656738281f, 0.20464298129081726074f, 0.0091759031638503074646f, 0.017331954091787338257f, -0.0057213082909584045410f, 0.059356234967708587646f, 0.033839825540781021118f, 0.011893021874129772186f, -0.0085318917408585548401f, -0.0029129066970199346542f, -0.042667526751756668091f, -0.045333031564950942993f, -0.10001192986965179443f, -0.10426096618175506592f, 0.11923068016767501831f, 0.25657358765602111816f, 0.28254824876785278320f, 0.19989946484565734863f, 0.0012465876061469316483f, -0.018974924460053443909f, 0.028212066739797592163f, 0.014704470522701740265f, 0.041233826428651809692f, 0.040053147822618484497f, -0.0021647301036864519119f, 0.0042517287656664848328f, -0.038973003625869750977f, -0.037040192633867263794f, -0.052246250212192535400f, 0.010887903161346912384f, 0.055550921708345413208f, 0.13511386513710021973f, 0.22072769701480865479f, 0.16156940162181854248f, -0.017581947147846221924f, -0.00074522243812680244446f, 0.033750090748071670532f, -0.0029686479829251766205f, 0.043960105627775192261f, 0.035404823720455169678f, 0.036788284778594970703f, -0.0070391702465713024139f, -0.00024869560729712247849f, -0.0033537102863192558289f, 0.022032195702195167542f, 0.036104802042245864868f, -0.025901157408952713013f, 0.055303893983364105225f, 0.16685569286346435547f, 0.13368022441864013672f, -0.051377423107624053955f, 0.0075236237607896327972f, 0.0063970847986638545990f, 0.023794520646333694458f, 0.022740818560123443604f, 0.010590349324047565460f, 0.036298003047704696655f, 0.016906071454286575317f, 0.013594797812402248383f, 0.030447067692875862122f, 0.060907140374183654785f, 0.081966042518615722656f, -0.0074078761972486972809f, 0.091323047876358032227f, 0.16934698820114135742f, 0.12902893126010894775f, -0.072433434426784515381f, 0.018431246280670166016f, 0.00023239127767737954855f, 0.016135891899466514587f, -0.012960992753505706787f, -0.019333150237798690796f, -0.018135856837034225464f, -0.030797166749835014343f, -0.018618769943714141846f, 0.057273849844932556152f, 0.090544842183589935303f, 0.12718152999877929688f, 0.083853244781494140625f, 0.052934575825929641724f, 0.10528728365898132324f, 0.090811863541603088379f, -0.13254192471504211426f, 0.012133311480283737183f, 0.025002783164381980896f, 0.0059110503643751144409f, -0.010630218312144279480f, -0.022399548441171646118f, -0.045049760490655899048f, -0.012375381775200366974f, -0.0034442970063537359238f, -0.0021467814221978187561f, 0.052650205790996551514f, 0.062776535749435424805f, 0.083815686404705047607f, 0.088291034102439880371f, 0.12739947438240051270f, 0.051801852881908416748f, -0.096729286015033721924f, 0.015137397684156894684f, 0.010669042356312274933f, -0.040089666843414306641f, -0.029638066887855529785f, -0.045420326292514801025f, -0.025262795388698577881f, -0.025098416954278945923f, -0.062306959182024002075f, -0.084475837647914886475f, 0.0012314453488215804100f, -0.026458136737346649170f, 0.014525806531310081482f, 0.10265228152275085449f, 0.097842246294021606445f, 0.098213076591491699219f, -0.048574142158031463623f, 0.046068105846643447876f, 0.021420296281576156616f, -0.018182227388024330139f, 